nep4_zbl 2 O Ga 
zbl 1 2
cutoff 6 4 418 127
n_max 12 8
basis_size 16 12
l_max 8 2 1
ANN 120 0
 -1.6603968e-01
 -8.5648403e+00
 -4.6212373e+00
  2.2920871e+00
  2.6276617e+00
  6.6663609e+00
  6.2668319e+00
 -8.3995074e-01
 -2.7031808e+00
 -5.8087474e-01
 -5.5333834e+00
 -1.6122973e+00
 -2.3170981e+00
 -8.3247405e-01
 -4.3547263e+00
  3.5052466e-01
 -5.3673697e+00
 -1.0250103e+00
 -1.1592159e+01
 -9.0483437e+00
  2.7001200e+00
 -4.5577650e+00
  2.8080770e-01
 -1.8632635e+00
  3.1839087e+00
 -5.5969968e+00
  1.7920291e-01
 -1.2815546e+00
 -1.1191301e+01
 -3.7491155e+00
  1.6483445e+00
 -2.3053422e+00
 -4.9886894e-01
 -6.4008164e-01
 -1.2909310e+00
  6.0328972e-01
  3.5437030e-01
  1.8895011e-01
  1.3414263e+00
  3.2249367e+00
  2.9896650e-01
  1.8418168e-01
 -2.0388098e+00
  1.6069099e+00
 -8.8503628e+00
  9.5114422e-01
 -9.2748809e-01
 -3.7372217e+00
 -7.8913312e+00
 -3.7828116e+00
 -4.1716924e+00
  6.5790110e+00
 -4.7413081e-01
  5.1280293e+00
  4.7481050e+00
  8.3066263e+00
 -6.8098383e+00
  2.4261761e+00
 -6.3718491e+00
  3.8734224e-01
 -4.6780891e+00
  1.9041185e+00
 -7.1741790e-01
 -1.6440549e+00
  6.6706448e+00
 -2.0321341e+00
  3.3926604e+00
 -4.5510259e+00
  6.9572127e-01
 -2.4877964e-01
  3.0623012e+00
 -1.3451369e+00
 -3.0403452e+00
  1.0547048e+00
 -5.3526754e+00
 -5.4554349e-01
  3.9578953e+00
  6.6291986e+00
  1.2440057e+00
  5.7365298e+00
 -2.1871958e+00
 -5.3609359e-01
 -4.0530992e+00
 -2.9701719e+00
 -6.3679814e+00
  4.0121058e-01
 -3.0588963e+00
  9.9121113e+00
 -5.7286489e-01
 -2.7649100e+00
  9.3308105e+00
 -8.3483047e+00
 -6.1270971e+00
 -1.6901804e+00
  3.0098954e-01
  6.6364276e-01
  8.9800870e-01
 -8.4218416e+00
 -1.3045087e+00
 -1.0979304e+00
  5.4413958e+00
 -3.9212875e+00
 -3.1870073e-01
 -7.4545341e+00
  2.9932578e+00
 -4.0284662e+00
  7.6795709e-01
 -3.9835310e-01
 -1.5324162e+00
 -6.4349170e+00
 -8.4912090e+00
  5.1591367e-01
 -6.1948371e+00
 -9.5664209e-01
  1.3442084e-01
  4.4564995e-01
 -8.2363009e-02
 -2.3283708e+00
 -1.7584896e+00
 -4.1005297e+00
 -3.1771746e+00
  1.0926891e+01
 -8.0819482e-01
  1.5238556e+00
  3.7435343e+00
  1.7763436e-01
 -2.1424956e+00
 -4.0274301e+00
 -1.3580243e-01
 -1.8214961e+00
  3.0504460e+00
 -1.0208418e+00
 -4.5838575e+00
 -2.7972531e+00
 -1.7821684e+00
 -1.9138786e+00
 -8.1204003e-01
 -4.6054726e+00
 -2.1496470e-01
  1.1860772e+01
 -2.0385084e+00
  9.4913632e-01
 -4.4281759e+00
  4.4905319e+00
 -1.8133698e+00
  2.5301893e+00
  5.5429727e-01
  6.0212674e+00
  1.3796085e+00
  3.8768163e+00
  1.1432586e+00
  5.6076145e+00
 -2.8340540e+00
  2.2135948e-01
 -3.2023728e+00
 -7.8495107e+00
 -2.3795285e+00
 -1.1714205e+01
 -5.3178949e+00
 -3.3826413e+00
  2.3227267e+00
 -2.7519121e+00
 -2.5785840e+00
 -1.8511255e+00
 -1.0965459e+00
 -1.8795303e+00
 -4.8836694e+00
 -2.4886942e+00
  3.2987198e-01
  3.8127844e+00
 -8.1970200e-02
 -1.0171199e+00
 -1.4649863e+00
  5.6726108e+00
  2.9884961e+00
 -1.2568535e+01
 -7.2654557e+00
 -1.2654168e+01
  6.6129713e+00
  6.6542125e+00
 -6.6335684e-01
  9.2222319e+00
 -1.3518279e+00
  5.2912478e+00
 -3.8101995e+00
 -7.8591485e+00
  3.4576101e+00
  4.5175157e+00
  7.4888401e+00
  4.8975177e+00
  9.7366637e-01
 -1.0808430e+00
  2.8013759e+00
 -3.0814087e-01
 -1.7828860e+00
  7.9893064e-01
 -2.8750241e+00
 -8.3902521e+00
 -2.3482289e+00
 -7.8202391e-01
 -1.2652730e+00
  1.6818324e+00
 -8.4682217e+00
  4.7559853e+00
 -3.6061454e+00
  1.2864545e+01
  1.1969334e-01
 -3.6622623e-01
 -1.0039628e+00
  6.8151569e+00
  4.8782849e+00
 -8.2241245e-02
  2.6998596e+00
  2.3589723e+00
  4.6691575e+00
 -1.9608840e+00
 -1.8040857e+00
  2.2545824e+00
 -1.8758469e+00
  3.2537749e+00
  1.9219664e+00
  5.0037060e+00
 -6.8746942e-01
 -2.1012936e+00
 -3.6684031e+00
  9.9526095e-01
  1.5908148e+01
  3.0605681e+00
  1.2094935e+00
  1.3986163e+00
  8.8689096e-02
  4.5320759e+00
 -6.5932035e+00
 -8.4524937e+00
  1.5009331e+00
  7.8695476e-01
  9.2643585e+00
 -3.3003771e+00
 -6.1145205e+00
 -1.4348699e+01
  1.0589229e+00
  2.8979847e+00
 -1.3654199e+00
  2.4286814e+00
  2.2853460e+00
 -1.6684318e+00
 -2.2219024e+00
 -1.7229924e+00
 -3.8276496e+00
 -1.5433258e+00
 -7.8157954e+00
  3.7194145e-01
  2.2903333e+00
  1.4281894e+00
 -5.3421371e-02
 -6.6648060e-01
  4.3698044e+00
  1.2190208e+01
 -2.0025933e+00
 -3.3844097e+00
  3.2443643e+00
  1.9221995e+00
 -1.0195524e+00
 -2.4921918e+00
 -4.6432328e-01
 -4.9130707e+00
  4.4852743e+00
  2.2158263e+00
  4.9485663e-01
  5.9358344e+00
  4.0349836e+00
 -9.0098667e-01
  8.1637192e-01
 -9.7084463e-02
 -6.0466486e-01
  1.1369255e+00
  3.4872599e+00
 -1.7991848e+00
  5.9420547e+00
  9.6562929e+00
 -2.0106671e+00
  3.9487102e+00
 -1.0368695e+00
 -8.8260965e+00
  1.8150249e+00
 -3.7195081e-01
 -4.7166286e+00
  6.6383562e+00
 -5.1668930e-01
 -6.1628804e+00
 -5.6404376e-01
 -1.9922948e+00
 -5.4085593e+00
  9.5290012e+00
  8.5448370e+00
  2.4731936e+00
  1.0611457e+01
 -4.4891601e+00
  4.3774929e+00
  4.3288765e+00
 -2.9626498e-02
  2.3402938e-01
  2.4913746e-01
 -7.9910464e+00
  7.6660848e+00
  7.2379649e-01
  8.2426608e-01
  3.6417134e+00
  1.8050379e+00
  2.8430192e+00
  3.0860205e+00
  2.0507908e+00
 -8.1800538e-01
 -3.6091185e+00
  2.6331089e+00
 -2.9025319e-01
  1.1636900e+01
  7.3767239e-01
  7.7225118e+00
  8.5779877e+00
 -5.5878806e-01
 -4.7014222e+00
  3.2996171e+00
  1.1485800e-01
  5.4728901e-01
  1.3665459e+00
  5.6730285e+00
 -3.5947666e+00
 -3.2382987e+00
 -3.7866988e+00
  1.3804467e+00
 -9.8925406e-01
 -4.5749993e+00
  3.9058316e+00
 -1.0210119e+00
 -2.2696776e+00
  4.8502812e+00
  9.5406896e-01
 -3.4750679e+00
 -2.3639553e+00
  9.4476432e-01
 -5.0325918e+00
 -1.4532440e+00
 -1.1367379e+00
  6.2781358e+00
  9.0037352e-01
  2.2284038e+00
  3.3967028e+00
  4.7312455e+00
 -1.4746932e+00
 -4.2286148e+00
 -9.3475521e-01
  3.8771531e-01
 -2.8277111e+00
 -1.3276728e+00
 -1.4484459e+00
  3.0836437e+00
  2.1294396e+00
 -2.8072262e+00
  2.3167403e+00
  2.1451154e+00
  6.7432747e+00
 -2.6792274e+00
  3.6017404e+00
 -2.8583150e+00
 -1.2785019e+00
 -1.2226558e+00
  4.3073034e+00
 -2.0509701e+00
 -3.5379603e+00
 -6.0712490e+00
 -7.5200443e+00
 -2.2009394e+00
  3.4427427e-02
 -6.3511419e+00
 -3.3759267e+00
 -3.6504295e+00
  2.8256299e+00
 -5.2073205e-01
 -2.6944584e-01
  4.5913601e-01
 -4.6338425e+00
  6.3316280e-01
  1.3982309e+00
 -1.9487201e+00
 -2.2912946e+00
 -7.1768737e-01
 -4.0555301e-01
 -1.6389194e+00
 -4.0186296e+00
  9.6947008e-01
  5.9453387e+00
 -4.2573862e+00
  2.6385182e-01
 -8.7348711e-01
  2.8162692e+00
  5.3079772e+00
 -9.6556540e+00
 -3.4174025e+00
  9.6133465e-01
 -9.4806900e+00
 -2.0641947e+00
  2.7999575e+00
  2.4920809e+00
  6.2441649e+00
 -4.4203033e+00
 -4.7010264e+00
  5.5398507e+00
 -1.9138585e+00
  3.7990861e+00
  5.2123818e+00
  6.7340560e+00
  2.9584868e+00
 -3.3582765e-01
  6.5438328e+00
 -7.7250361e-01
 -1.6104501e+00
 -2.3668129e+00
 -6.7351460e-02
 -4.6675630e+00
  7.5555384e-01
  7.5313578e+00
 -2.6367700e+00
 -3.5224695e+00
  5.6280179e+00
  1.2460862e+01
  6.5578640e-02
  3.8788276e+00
 -3.1022868e+00
  2.3370399e+00
 -2.0501180e+00
  1.4976398e+00
  7.9413569e-01
 -6.9572620e+00
  4.6438041e+00
 -2.3950789e+00
  1.0955619e+00
 -1.0633354e+01
  4.8921852e+00
 -1.1752197e-01
 -2.2917027e+00
 -4.7320709e+00
  9.1539593e+00
 -4.8624992e+00
  1.8796440e+00
  8.7295604e-01
  1.0861878e+01
  1.2780602e+00
  1.8304328e+00
 -6.6871681e+00
  3.5288169e+00
  1.9749341e+00
  5.3459926e+00
 -4.4277954e+00
 -4.6370125e+00
 -2.7595141e+00
 -4.9657339e-01
  2.3043776e+00
 -2.5782084e+00
 -5.2717304e+00
 -4.4219503e+00
 -2.9130769e+00
  2.3008277e+00
 -3.3861780e+00
 -6.3596028e-01
 -4.1378555e+00
 -6.6517444e+00
 -3.2130406e+00
 -3.8612995e+00
  6.6235617e-02
 -4.9082923e+00
  5.1653762e+00
 -1.0670710e+00
 -3.8809056e+00
  2.1100550e+00
 -2.7249885e+00
  3.8870406e-01
 -7.9641886e+00
 -9.8831570e-01
  3.4333274e+00
 -2.4419558e+00
  5.6371980e+00
 -6.5617208e+00
  3.3633909e+00
  2.0866399e+00
 -2.0548694e+00
 -6.5421162e+00
  4.1505098e+00
 -3.4958892e+00
  2.3614821e+00
  2.1210771e+00
 -5.6603298e+00
 -5.1408710e+00
  1.0148965e+00
 -7.2987981e+00
 -2.4647095e+00
  2.9235754e+00
 -3.5021787e+00
 -2.9221570e+00
 -2.1302681e+00
  2.0826249e+00
 -1.0944790e+00
 -3.0167103e+00
  1.9184144e+00
  1.1932751e+00
  7.3663325e+00
 -3.1642971e+00
  6.3828063e-01
 -8.8759375e+00
  3.7092352e+00
 -2.4379065e+00
  3.3772924e+00
  2.2136011e+00
 -8.2171631e+00
 -1.1700973e+01
 -5.8348861e+00
  7.9697523e+00
  3.3149183e+00
 -1.0492860e+00
  3.0990856e+00
  4.3996553e+00
 -3.0817053e+00
  7.9286923e+00
  4.3980818e+00
  4.0639955e-01
 -8.2252932e+00
 -1.0760154e+01
 -5.4309793e+00
  2.0316501e+00
 -3.3795300e-01
 -5.1082830e+00
  8.7298197e-01
  3.4599236e-01
  1.2293497e+00
 -4.5517945e+00
 -5.6822295e+00
  1.9219124e+00
 -9.7497997e+00
  1.3870920e+00
  1.2184534e+00
  4.6208744e+00
 -2.2888203e+00
  3.4460218e+00
 -4.3547440e+00
  5.4551005e-01
 -8.7387981e+00
  1.2496766e+00
  2.0840759e+00
  4.5177275e-01
 -6.2549329e-01
 -2.3591642e-01
  1.8977730e+00
  2.4285920e-01
 -2.0276408e+00
 -2.5579884e+00
  4.4626334e-01
 -7.0312510e+00
  1.6396329e-01
  7.0762458e+00
 -3.5975981e+00
 -3.9774129e+00
 -2.4166057e+00
 -2.1031272e+00
 -6.0834414e-01
  1.9504962e+00
  3.3762107e+00
  5.7790369e-01
  5.8124342e+00
  2.5353801e+00
  6.3713894e+00
 -6.2266784e+00
  2.9622579e+00
 -7.7701157e-01
 -3.2182279e-01
 -8.8962477e-01
  7.3056488e+00
 -6.6943302e+00
  1.2898774e+01
  5.8599734e+00
  6.5557404e+00
  1.1651713e+00
 -1.9527645e-01
 -3.9537420e+00
 -2.5349567e+00
  4.7121677e+00
  8.2107325e+00
 -2.4477582e+00
  5.3665609e+00
  2.9216452e+00
  8.8319149e+00
 -2.2335374e+00
 -4.5931525e+00
  4.8979473e+00
 -2.0857677e+00
  1.1433912e+01
 -1.0220101e+00
  9.1978973e-01
 -6.2272530e+00
 -4.9763617e-01
  7.1865172e+00
  1.9201223e+00
 -2.8798618e+00
 -4.7519836e+00
 -9.6509399e+00
  5.2505267e-01
 -2.3007488e+00
 -5.4723759e+00
 -2.4219747e+00
 -6.1933765e+00
  2.7824242e+00
 -4.7697029e+00
 -9.3815279e+00
 -1.6950704e+00
  3.9103925e+00
 -4.4167318e+00
  1.7160125e+00
  9.0101910e+00
  2.0174222e-01
 -2.3234477e+00
  3.4533181e+00
 -2.7973658e-01
  1.7842618e+00
 -5.1761236e+00
  4.5397873e+00
 -2.3103058e+00
 -1.9659358e+00
  4.1661253e+00
 -1.0582018e-01
  1.1131077e+00
  8.6469841e+00
  8.6714357e-01
 -1.1747198e+00
 -5.1026791e-01
  2.3065097e+00
 -6.2033477e+00
  6.4334291e-01
 -4.0127969e+00
 -4.2456436e+00
  2.7535188e-01
  4.0204501e+00
  2.3592961e+00
 -2.3282756e-01
  1.9911225e+00
 -5.4284854e+00
 -6.1561790e+00
  1.7830085e+00
  8.9717245e-01
 -6.4970193e+00
  4.7529402e+00
 -8.9982128e-01
 -9.0387621e+00
 -3.0039942e+00
  1.1117869e+01
  7.8187895e+00
 -3.0720108e+00
  1.4236857e+00
  7.2452307e-01
 -5.1664343e+00
  5.3225651e+00
 -2.1404989e+00
  8.9079952e-01
  3.5888562e+00
  9.3537779e+00
  6.7966968e-01
  2.0840237e+00
 -4.8086041e-01
  2.4892652e+00
  1.1988401e+00
 -5.6579471e+00
  1.5691061e+00
  4.8853083e+00
 -3.4870391e+00
  1.7451737e+00
 -1.3918020e+00
 -4.9738102e+00
 -3.8153267e+00
 -5.5553669e-01
  4.1759982e+00
  2.0187738e+00
 -2.3376634e+00
 -2.0240529e+00
  1.5975966e+00
  3.5439818e+00
 -3.9862206e+00
 -2.0286658e+00
  2.9090335e+00
  1.7029070e+00
 -3.9250319e+00
 -1.0049125e+00
 -7.4417005e+00
 -2.6858136e-01
 -1.8101170e+00
  3.3274993e-01
 -7.2923279e+00
  3.9108131e+00
 -6.8191109e+00
 -8.2818680e+00
 -2.5112553e+00
 -2.7189610e+00
 -1.9238157e+00
 -2.7003875e-01
 -3.0490673e+00
  2.3238802e+00
  2.0218608e+00
  9.8242207e+00
  7.8928404e+00
  2.3302302e+00
 -1.3821381e+00
  3.0997741e+00
  9.1243273e-01
  6.3229876e+00
 -4.1403505e-01
  2.0659022e+00
 -3.6581228e+00
  7.4108591e+00
 -6.9099367e-01
  1.2413663e-01
  1.2205518e+00
 -1.5239736e-01
 -7.5702019e+00
  2.9349773e+00
 -8.0900721e-02
 -4.2596402e+00
 -2.8862584e+00
 -4.4861994e+00
 -6.8461785e+00
  1.7870129e+00
 -3.8434346e+00
 -1.3679600e+00
  6.3892631e-03
  1.7357887e+00
 -4.2554240e+00
  4.6236835e+00
 -1.5228831e+00
 -2.3730726e+00
 -1.5497820e-01
 -2.8680978e+00
  2.0667434e+00
  3.7726309e+00
  9.6364802e-01
  1.4576541e+00
 -2.9092140e+00
  1.5369754e+00
  2.6186195e-01
  1.4350904e+00
 -2.0684166e+00
 -1.0514715e+00
  5.5110173e+00
  3.5250254e+00
 -9.7060013e+00
 -1.6449971e+00
  8.0832977e+00
 -3.0338480e+00
  6.1161809e+00
 -2.6025908e+00
 -5.4934778e+00
 -1.6347849e+00
 -1.6948670e+00
 -2.3659323e-01
 -5.6827879e+00
  1.1729645e+00
 -5.8934736e+00
  3.2688838e-01
  9.9202528e+00
  2.7323076e-01
  3.6436198e+00
 -3.8879817e+00
 -2.1557729e+00
  1.9771364e-01
  8.7106913e-01
  4.2561674e+00
  2.1790819e+00
 -1.4979022e+00
 -4.5842576e-01
 -7.4434304e+00
  2.1435504e+00
 -6.0474887e+00
  2.4220123e+00
  2.4717693e+00
  6.9580588e+00
 -8.3207560e+00
 -1.1378624e+00
  6.3781571e-01
  8.5484660e-01
 -1.4540726e+00
  4.2730913e+00
 -3.9520190e+00
  6.8428640e+00
  1.1545098e-02
  3.5177758e+00
  1.5569347e+00
  1.1243082e+00
  1.2202839e+01
 -4.5476608e+00
  7.1628456e+00
  4.2099996e+00
 -3.4347267e+00
  3.7031114e+00
 -5.8244529e+00
 -3.9406276e+00
 -2.0679111e+00
 -4.1617298e+00
 -1.0852739e+00
  3.4263501e+00
  1.6449594e-01
 -2.1596527e-01
  7.5176015e+00
 -5.0323443e+00
 -2.3479536e+00
 -4.7655139e+00
 -8.1694812e-01
  5.1818409e+00
 -4.1694930e-01
 -6.3705438e-01
  3.5815063e+00
 -4.6015638e-01
  8.1705856e+00
  3.6365385e+00
  2.4840806e+00
  1.4816443e+00
 -6.3947210e+00
  1.7126845e+00
 -3.2061913e+00
 -2.2249341e+00
 -1.7567908e+00
 -1.6419842e+00
 -4.9312110e+00
 -7.0763034e-01
  1.4065773e+00
 -4.1695361e+00
  5.1097488e+00
  7.6906123e+00
 -5.4042703e-01
 -2.0891235e+00
 -7.7936095e-01
 -7.4580760e+00
 -2.3321168e+00
  1.6012335e+00
 -1.5288831e+00
 -1.0281071e+01
  4.1939154e+00
 -6.4601707e+00
 -4.6191621e+00
 -6.9522381e+00
 -3.4806683e+00
  4.0394468e+00
 -3.4641433e+00
  7.2522163e-01
 -2.6432464e+00
  5.2207131e+00
 -1.1937224e+01
 -1.1676656e+00
  2.0119474e+00
  2.0817306e+00
 -1.4148402e+00
 -4.4061456e+00
 -2.6303554e-01
 -1.6685208e+00
 -2.3362298e+00
  1.9541656e+00
 -3.2078626e+00
 -2.9045424e+00
 -6.2374892e+00
 -2.2882047e+00
  9.7866029e-01
 -6.1981063e+00
  2.3463781e+00
 -7.1329479e+00
 -5.6911510e-01
 -3.3432603e+00
 -1.5396413e+01
  5.5633998e+00
  6.6028752e+00
 -8.3103313e+00
 -4.2510881e+00
  3.2326994e+00
 -1.0753272e+00
 -8.2975519e-01
  9.0523663e+00
  1.4413404e+00
  1.0082105e+00
 -7.6131183e-01
 -5.5676198e+00
  2.7005231e+00
 -4.0607080e+00
 -1.7677112e+00
  8.9199333e+00
 -9.3180790e+00
 -7.2310090e+00
 -8.0631250e-01
 -1.0072858e-01
 -3.1303062e+00
 -2.9599934e+00
 -5.3631263e+00
  3.8196144e+00
  5.3935127e+00
  1.7074645e+00
 -1.0150516e+00
 -1.6829950e+00
  4.6463408e+00
  1.3957622e+00
 -2.4445007e+00
  4.9642968e+00
  1.0226389e+00
  1.0555578e+00
 -1.0918529e+00
 -2.5441692e+00
 -2.9760685e+00
  9.3535271e+00
  6.1791259e-01
  2.0294256e+00
  2.5151722e+00
 -8.4276265e-01
 -4.0723572e+00
 -1.9651837e+00
 -1.6510681e+00
  3.5630628e-01
  2.9592268e+00
  9.9854177e-01
  1.7388346e+01
 -7.3443155e+00
 -1.3044966e+00
  4.5981059e+00
 -2.7104306e+00
 -8.1254883e+00
  2.8285952e+00
 -7.2633249e-01
 -5.9660959e-01
 -2.2753583e-01
 -4.8563561e+00
 -2.7290120e+00
  4.5639873e+00
  1.1538997e+00
  1.7354846e+00
 -2.5933120e+00
  3.5619576e+00
  2.3798094e+00
 -3.5068290e+00
  7.0848656e-01
  1.5796149e-01
  5.5935221e+00
 -2.5977921e+00
  3.1183884e+00
 -3.3900506e+00
 -4.4526529e+00
  2.6929319e+00
 -1.0274270e+00
 -4.2916250e+00
  9.0256224e+00
  2.6937063e+00
  1.5761075e+00
 -1.4475399e+00
  3.9403355e+00
  1.4406867e+00
  2.7511299e+00
  4.0670662e+00
  2.6981716e+00
  3.7688086e+00
  2.1031599e+00
  4.3156595e+00
  7.4471802e-01
 -1.1681628e+01
 -8.5450500e-02
  3.6250386e+00
 -9.8725617e-02
 -2.7268877e+00
  3.3508005e+00
  8.5027599e-01
  8.1920805e+00
  1.5989310e+00
 -7.6229920e+00
 -9.5010900e+00
 -3.6173291e+00
 -2.9046223e-01
 -1.3566388e+00
  1.1568161e+00
 -6.4984555e+00
  3.8415341e+00
 -8.2866650e+00
 -2.5393026e+00
 -1.1712679e+00
 -6.7907119e+00
  1.0569694e+00
  5.6170168e+00
  1.8938220e-01
 -5.1352019e+00
 -7.0317364e-01
  7.3840990e+00
 -5.2334280e+00
  4.6471090e+00
  8.4710538e-01
 -1.2615795e-01
  2.4738789e+00
 -4.6737914e+00
  5.4226899e+00
 -2.5382283e+00
 -3.9244869e+00
 -3.2550830e-01
  1.2298992e-01
 -7.6684141e+00
 -4.8602819e-01
  1.8139604e+00
  5.4238434e+00
 -8.3407700e-01
 -7.5186701e+00
  5.2628660e+00
 -5.5946970e+00
  3.8053470e+00
 -7.9738641e-01
 -6.2252812e+00
 -4.4136300e+00
  1.2682641e+00
  8.0396748e+00
 -1.7773786e-01
 -4.2911072e+00
 -1.0938321e-01
  2.3307605e+00
  2.6592717e+00
 -2.2801600e+00
  4.3617783e+00
  3.2833672e+00
 -3.6283212e+00
 -6.9156575e+00
 -5.2247634e+00
  1.2135292e+00
  1.5868578e+00
 -3.0332482e+00
  4.9123273e+00
 -4.7057593e-01
 -3.1245701e+00
  2.0044410e+00
 -5.7433906e+00
 -1.8861212e+00
 -1.2469038e+00
 -8.5624695e+00
  1.7257727e+00
 -7.1821456e+00
  4.3071647e+00
  1.8268608e+00
  7.2161489e+00
  4.9383068e+00
  3.8347781e+00
 -6.6509449e-01
 -2.7606845e+00
 -4.9275360e+00
 -4.6838260e+00
  3.9348392e+00
  2.4372051e+00
 -2.7519376e+00
 -5.5555019e+00
  3.3289301e+00
  1.6769292e+00
 -3.8904216e+00
 -4.1744051e+00
 -4.5453092e-01
  7.3461547e+00
 -4.0487239e-01
  3.9786777e+00
  1.4227666e+00
 -5.7399106e+00
  1.7634065e+00
 -1.5751982e+00
 -4.1623101e+00
  4.3447051e+00
 -8.2803273e-01
  1.0182290e+00
  2.6569707e+00
 -9.2512077e-01
 -1.7852478e+00
 -6.9423985e-01
  9.2116880e+00
  2.5927982e-01
 -7.3005309e+00
  6.3064852e+00
  5.5465895e-01
  1.3581346e+00
  1.5599014e+00
  8.3254032e+00
 -1.8668256e+00
  3.1713991e+00
  5.0196257e+00
  2.8404670e+00
  4.3032990e+00
 -4.2769470e+00
 -5.0232706e+00
 -1.9367853e+00
 -2.1692097e+00
  9.6541033e+00
  5.9353075e+00
 -3.4157152e+00
 -8.6511511e-01
 -2.0516603e+00
 -4.5869699e+00
 -1.6254609e+00
  3.5647919e+00
 -6.6553555e+00
  7.9715770e-01
  8.9884293e-01
 -4.0170646e+00
 -5.4910201e-01
 -3.6590016e+00
  7.2661644e-01
  1.3138938e+00
  5.1983509e+00
  3.9593246e+00
 -9.8877144e+00
 -6.8489008e+00
 -3.3719471e+00
 -3.5560805e-02
 -7.0739717e+00
 -2.0500197e+00
  4.6298728e+00
 -7.0178461e-01
 -1.0974424e+00
 -5.4946051e+00
  2.7409472e+00
  8.6270171e-01
 -4.4856839e+00
  2.7444774e-01
  5.1531224e+00
  3.9377210e+00
  5.0545316e+00
  4.8345728e+00
  2.6989749e-01
  5.7724977e-01
 -4.2805332e-01
 -2.8541808e+00
 -7.2811017e+00
  2.6605072e+00
  7.4740148e-01
  1.3623800e+00
 -9.3858938e+00
  4.1149797e+00
 -6.8948811e-01
 -6.1580486e+00
  5.6106634e+00
 -6.9437518e+00
 -7.4147525e+00
  5.8544312e+00
 -7.0141345e-01
  9.1015792e-01
  3.4291620e+00
  4.6464772e+00
  5.0023443e-01
 -9.3992078e-01
  4.8892193e+00
  2.6138384e+00
 -1.4525310e+00
 -6.6992015e-01
 -1.3133990e+00
 -9.5205933e-01
  7.2535671e-02
 -2.7393727e+00
  2.6971817e+00
 -2.6224585e+00
  3.6279669e+00
 -7.0336857e+00
 -9.5328255e+00
 -1.3120115e+01
  5.2587280e+00
  7.4482021e+00
 -3.3524203e+00
 -5.7146788e-01
 -3.0638713e-01
 -9.7219467e-01
  5.9781915e-01
 -1.7553779e+00
  5.6360869e+00
  5.3603921e+00
  1.8382229e-01
  2.7983592e+00
 -1.4083836e+00
 -4.5801516e+00
 -1.5457277e+00
 -1.7404830e+00
  2.1563270e+00
 -7.7737441e+00
 -8.1164986e-01
 -8.1756744e+00
  6.1104637e-01
  3.7024653e-01
  5.0686913e+00
 -8.4509649e+00
 -8.5899621e-01
  1.1504595e+00
 -3.3891511e+00
 -2.4887456e-01
  5.1386988e-01
  7.7023621e+00
  3.4492197e+00
 -3.3717446e+00
  2.3464062e+00
  1.2669876e+00
  5.9800081e+00
 -1.0792104e+01
 -5.6439743e+00
 -5.9706163e+00
 -9.0044439e-01
  2.4196849e+00
 -1.3870022e+00
 -1.0451065e+01
 -5.5757380e+00
  2.2009726e+00
 -6.9690309e+00
  1.9258662e+00
 -1.0470471e+00
  6.5917158e+00
 -2.6845274e+00
 -6.6626415e+00
 -1.1841023e+00
  1.0723394e+01
  1.5619458e+00
 -4.2112899e+00
  4.1199768e-01
 -4.8800645e+00
 -3.1417191e-01
 -5.0605588e+00
 -7.2710574e-01
 -2.2506392e+00
 -2.5618935e+00
 -2.2785275e+00
  2.6932983e+00
  2.5382510e-01
 -4.5764494e+00
  2.6393476e-01
 -3.5483477e+00
 -5.3164238e-01
 -9.6389942e+00
 -3.3171465e+00
 -4.8123693e+00
  9.0695562e+00
  3.0300388e+00
  2.4160962e+00
  1.1359446e+01
  6.7346377e+00
  1.7924149e+00
  4.9698262e+00
 -6.0977092e+00
 -1.1814256e+00
  2.9439185e+00
  3.8188710e+00
 -2.8940890e+00
  2.5702944e+00
  8.4640419e-01
  3.7383142e+00
 -2.5095272e+00
 -5.3286924e+00
  8.8810577e+00
  3.8961542e+00
  4.3930316e-01
  2.6304116e+00
  1.6347107e+00
 -2.2775953e+00
 -4.0719700e+00
  6.5731145e-02
  2.7129734e+00
 -4.1650085e+00
 -6.5465322e+00
 -2.3813205e+00
  4.3912249e+00
  7.8577380e+00
 -6.0682225e+00
  1.6838754e+00
 -3.2829974e+00
 -6.2502112e+00
  3.8856229e-01
 -2.0777231e-01
 -3.3449111e+00
  3.9744079e+00
  2.9745502e+00
 -1.0126741e+00
 -4.3185167e+00
 -4.7090836e+00
  3.0981255e+00
 -1.6392323e-01
 -4.0045333e+00
 -6.6001124e+00
  3.9095569e-01
 -3.9186680e+00
  5.8135915e-01
  1.3807540e+00
 -3.3329792e+00
  2.2205968e+00
 -9.2439117e+00
  2.5092657e+00
  1.8701203e+00
 -1.0814140e+00
  2.8794105e+00
 -9.0686363e-01
  1.8566839e+00
  4.4232183e+00
 -4.0646725e+00
 -6.2525082e-01
 -4.9224818e-01
 -1.4659722e+00
  5.5301251e+00
  2.2148402e+00
 -4.7633710e+00
  3.3645301e+00
 -2.6995149e-01
  1.6162062e+00
  1.4827814e+00
  3.8490126e+00
  1.1216260e-01
 -5.1521969e+00
  1.3161792e+00
  1.5592395e+00
 -9.1400833e+00
 -6.1803031e-01
  8.3841914e-01
  1.5785837e+00
  2.4462171e+00
  4.4417052e+00
 -5.0329888e-01
  2.1235509e+00
 -4.3826243e-01
  2.4239357e+00
  3.5717864e+00
  4.7614259e-01
 -2.1829028e+00
  3.4582562e+00
  1.3275701e+00
 -1.5095471e-01
  1.1999912e+00
  6.4479709e-01
  9.5528823e-01
  1.4964746e+01
 -2.5835021e+00
  2.8674641e+00
  4.0069227e+00
 -2.0841045e+00
  3.6867753e-01
  5.5351634e+00
 -4.0047717e+00
  7.5338345e+00
 -3.2053691e-01
 -1.3492671e+00
 -4.2405801e+00
  1.7500399e-01
 -2.2145424e+00
 -3.3071730e+00
 -2.1966456e-01
  1.6604747e+00
  2.5179114e+00
  4.2124724e-01
 -1.8572989e+00
 -4.6410120e-01
 -9.8093739e-03
 -1.7709723e+00
  3.1357267e+00
 -1.3261386e+00
  1.1257623e+00
  3.2142432e+00
 -5.2575607e+00
  4.3888321e+00
  3.3582827e-01
  6.2253385e+00
  6.0887966e+00
 -3.3869152e+00
 -5.2023683e+00
 -7.6535976e-01
  5.3082561e+00
  3.6148236e+00
 -2.6121976e+00
  5.0795656e-01
  2.3899779e-01
 -6.5075684e-01
 -1.8282619e-01
  3.8523805e-01
 -6.4107699e+00
 -1.5206048e+00
  2.7033813e+00
  5.1275575e-01
 -4.9491072e+00
  1.4512693e+00
 -3.4384673e+00
 -1.1240456e+00
 -4.1109127e-01
 -7.9567432e-01
  1.2702270e+00
  5.1195469e+00
 -1.3983518e+00
 -4.2588620e+00
 -6.0275936e+00
 -1.4656708e-01
 -5.2293863e+00
  3.2082267e+00
  1.8286880e+00
  2.9161270e+00
 -7.6258385e-01
  3.5730462e+00
 -9.5443243e-01
  2.2094522e+00
 -7.6516025e-02
  6.2237138e-01
  9.9827516e-01
 -3.3481094e-01
 -1.8391689e+00
  1.6240270e+00
  1.5237859e-01
 -2.4095254e+00
  1.8884242e+00
  2.6624126e+00
 -1.0015928e-01
 -7.6848847e-01
  1.7915450e+00
 -8.5185128e-01
 -8.5351944e-01
 -1.6356800e+00
 -6.4278185e-01
  2.3287302e-02
 -3.0608513e+00
  2.0871880e+00
  3.9977369e+00
  1.5423506e+00
 -9.5720798e-01
 -4.2562265e+00
  9.6224613e+00
  1.7212427e+00
 -1.0800472e+00
 -2.8741462e+00
 -1.6167034e+00
  8.0843560e-02
 -3.6601963e+00
 -6.1731334e+00
 -3.1853002e-01
 -2.4923368e+00
 -6.4459395e+00
  6.0221183e-01
  1.5031395e+00
  1.3057508e+00
 -1.4416300e+00
 -2.4819849e+00
  2.3547115e+00
  1.4805417e+00
 -2.7451742e+00
 -2.3244166e+00
 -2.2921965e+00
 -6.8131141e-02
 -1.3829703e+00
  5.0526228e+00
  4.5002279e-01
 -3.4883332e+00
 -5.1894832e-01
  6.6632571e+00
 -2.6285377e+00
 -9.1899405e+00
  5.0431614e+00
  5.5598483e+00
 -1.7841612e+00
  7.0761782e-01
 -1.0576401e+00
 -1.0743224e+01
 -2.3010664e+00
  2.3452008e+00
 -1.6937681e+00
  5.8253736e+00
  1.6836212e+00
  2.5402551e+00
  4.1479297e+00
 -8.0301275e+00
 -4.2603722e-01
  1.1065836e+01
 -3.2433431e+00
  4.2777171e+00
 -6.2823758e+00
  4.6886106e+00
 -9.1140404e+00
  4.4275308e+00
  1.6889632e+00
 -8.3438474e-01
 -1.9858028e+00
 -2.1696506e+00
 -3.0264657e+00
 -2.2162275e+00
 -2.5655594e+00
  3.2074327e+00
 -5.4721272e-01
  1.6428012e+00
 -2.2094476e+00
  1.3744736e+00
  9.0210829e+00
 -3.7000432e+00
  1.2316412e+00
 -1.6981739e+00
 -1.0052110e+01
  5.1332197e+00
  1.2742059e+01
 -9.5965672e+00
 -6.3297548e+00
 -2.7252350e+00
 -3.6208910e-01
  3.5922456e+00
 -2.2101939e+00
  8.5773027e-01
  6.6919556e+00
  1.4917064e-01
 -2.3750310e-01
  1.0109842e+00
 -3.7022393e+00
 -1.1569965e+01
  5.9465563e-01
 -6.3733369e-01
  1.1263897e+00
  5.7558031e+00
 -8.7474155e-01
  5.4530621e+00
 -3.1034997e+00
 -3.4037683e+00
  2.5381906e+00
  5.2571344e+00
  1.8423153e+00
 -5.5274239e+00
  6.8398123e+00
 -3.9466262e+00
  4.4679615e-01
 -5.8095574e+00
  2.9706409e+00
 -5.8615861e+00
  7.2277522e+00
  3.0821626e+00
 -7.6257472e+00
 -3.2739019e+00
  8.0567017e+00
  5.8669788e-01
 -6.7680769e+00
 -8.1126604e+00
 -6.9654632e+00
  1.4967929e-01
  4.8089800e+00
  7.2967210e+00
 -6.8107206e-01
 -3.5064045e-01
 -6.3678803e+00
  2.2665877e+00
 -1.6213616e+00
  8.6865892e+00
  7.8670101e+00
  7.0628476e-01
 -7.2573668e-01
  1.0359707e+00
 -8.0433664e+00
  7.1832952e+00
 -7.7383864e-01
 -1.8832902e+00
 -1.0551227e+00
  4.7339910e-01
 -1.7872272e+00
 -4.6304445e+00
 -6.1269236e+00
 -2.7505977e+00
  1.9240357e+00
  2.5370142e+00
  2.7776887e+00
  1.1202973e+00
  1.2097465e+01
 -6.2095480e+00
 -2.6583884e+00
 -1.4088309e+01
 -2.8367684e+00
 -3.3800697e+00
  2.6962156e+00
 -1.0716437e+01
 -7.2375197e+00
 -2.4880753e+00
 -4.0836253e+00
  1.1027846e+00
 -3.8666713e-01
  1.0723107e+01
 -2.3416529e+00
 -4.2275600e+00
  2.7773199e+00
  1.0649712e+00
  4.1198297e+00
 -6.5296135e+00
  5.1477027e-01
  1.2415809e+01
 -3.5117412e+00
  9.2551022e+00
  3.0527370e+00
 -3.6425018e-01
  4.9618581e-01
 -3.3139089e-01
 -6.7868471e+00
 -1.0959625e+01
 -4.9187255e+00
  6.0412006e+00
  8.3274984e+00
  2.7618313e+00
  1.3416105e+01
  4.9641027e+00
 -9.6481204e-01
  6.5631199e+00
  2.0003619e+00
 -1.1583135e-02
  2.0679255e+00
  1.2953527e+00
  3.3346040e+00
 -5.4524436e+00
 -6.4515610e+00
  2.3448792e+00
  6.5054971e-01
 -6.8505173e+00
  3.8053660e+00
 -3.8532937e+00
  3.5830672e+00
 -1.9668446e-01
 -1.6807599e+00
  5.8459443e-01
 -7.4585810e+00
 -1.0725383e+01
 -6.2093530e+00
  3.1470294e+00
 -4.4313294e-01
  5.3137097e+00
  1.8217821e+00
 -1.7030137e+00
 -4.3593435e+00
 -7.9822311e+00
  4.7812617e-01
  1.2346170e+00
  1.1913939e+00
 -5.3262804e-02
 -1.8491709e-01
 -1.9319197e+00
 -4.2368960e+00
 -1.5147048e+00
  7.5481863e+00
  1.2193638e+00
 -5.2348226e-01
  2.4300463e+00
 -2.8331536e-01
  5.3611689e+00
  1.9442583e+00
  4.3771462e+00
  5.4999150e-02
 -8.6391134e+00
  2.8683834e+00
 -3.2594981e+00
 -1.3949387e+00
  6.0952468e+00
 -2.6952210e-01
  4.2672691e+00
  1.3605028e+00
  3.4228907e+00
  2.0643139e+00
  3.0783489e+00
  3.5684342e+00
 -1.1427498e+00
 -6.1701784e+00
 -2.4732726e+00
 -1.8106575e+00
  7.6458657e-01
 -3.8988271e+00
 -3.8418040e+00
 -2.4729497e+00
 -1.1047881e+00
  4.6736631e+00
  3.6552382e+00
  7.5156560e+00
 -5.7150435e+00
  7.9019681e-02
  8.2467210e-01
  6.6733890e+00
 -9.4176798e+00
 -9.4441509e+00
 -2.0452509e+00
 -1.3019593e+00
 -5.2214634e-01
  4.9293628e+00
  8.5001510e-01
  2.8269427e+00
 -4.1624436e+00
 -7.8959928e+00
 -2.4597466e-02
  5.6622782e+00
  1.3655939e+00
 -7.3433189e+00
  3.1611362e-01
  3.9798465e+00
 -2.7523726e-01
 -3.8757334e+00
 -5.8519597e+00
  4.1241951e+00
  5.1823890e-01
  1.0230179e+01
  2.0419848e+00
  2.0885255e+00
 -3.6976435e+00
 -1.1235088e+00
 -7.9429194e-02
  1.2067825e+00
 -1.1436193e+01
  6.2632370e+00
  4.7850337e+00
  7.1050400e-01
 -2.9151914e+00
  1.1531376e+01
  5.3224058e+00
 -4.1190190e+00
  2.1270912e+00
 -2.2074590e+00
  3.3542871e+00
  3.3489931e+00
 -2.0541520e+00
 -6.9391689e+00
  1.0256401e-01
 -5.5613685e+00
  3.4546993e+00
  3.3240607e+00
  2.3201485e+00
 -1.5581182e+00
 -2.8458327e-01
 -2.1513445e+00
 -5.6180730e+00
 -1.4550830e+00
  2.8990808e+00
 -3.5981390e+00
 -4.3771605e+00
 -4.8678794e+00
  5.4902000e+00
  2.5696676e+00
  1.4081056e-01
 -5.5744019e+00
 -2.4521532e+00
 -6.2701116e+00
  4.6086783e+00
  5.5957484e+00
  5.8286017e-01
  5.4950166e+00
 -3.7608790e+00
  4.7563380e-01
  4.7583461e-01
 -1.1590637e+00
  1.7318319e+00
 -2.3380592e+00
  1.2532417e+01
  5.0892975e-02
  3.3478904e+00
  4.1115403e+00
 -5.2895584e+00
 -7.0649233e+00
  1.3065581e+00
 -5.9884710e+00
  4.0461726e+00
 -1.0447100e+01
 -4.7222227e-01
 -5.8518023e+00
  3.2291412e+00
  3.5978317e+00
  2.0115480e+00
 -1.0829976e+00
 -4.7218499e+00
 -4.4085245e+00
 -5.2067118e+00
  1.8970665e+00
  5.0213313e-01
 -2.3250329e+00
  3.2403686e+00
 -5.1182652e+00
 -3.4293240e-01
 -2.5655708e-01
  4.8072085e+00
 -6.4581447e+00
 -3.1194987e+00
 -2.0736375e+00
  2.0568328e+00
  5.5314083e+00
 -2.5568919e+00
  7.8544774e+00
  1.9602886e+00
  5.2734270e+00
 -4.5964932e-01
  3.9631546e+00
  2.9647024e+00
  1.5925947e-01
 -4.6624202e-02
  3.7702739e+00
  3.9210746e+00
  8.0182761e-01
  1.6863359e+00
  3.0066786e+00
 -3.2408845e+00
 -7.5617242e+00
 -6.7282343e+00
 -2.9775798e+00
 -5.3182712e+00
 -3.7443049e+00
  1.8258884e+00
  4.6956420e+00
 -1.5180924e+00
  6.0620108e+00
 -9.0193815e+00
 -2.7772079e+00
  1.9109019e+00
 -6.5189013e+00
 -1.7021035e+00
  3.1679795e+00
  3.4995289e+00
  8.6014481e+00
  3.5172260e+00
  1.5907780e+00
 -5.1063504e+00
  2.0894637e+00
 -1.3523843e+00
 -6.4774270e+00
 -1.2973455e+00
 -6.4652562e-01
  3.7014496e+00
  9.4908103e-03
  9.1328182e+00
 -3.7697175e+00
 -9.0326089e-01
  4.9517350e+00
  4.8514762e+00
  5.1038542e+00
 -5.2934365e+00
  2.5382447e+00
  1.1028745e+01
 -1.2523910e+00
 -3.1354444e+00
 -6.3449183e+00
  1.7168100e+00
 -4.9022689e+00
  1.8910679e+00
  3.3449240e+00
 -1.1964030e+00
 -3.1656032e+00
 -1.9732699e-01
 -7.4483514e+00
  8.2024848e-01
  9.1630268e-01
  2.6525159e+00
  3.9224169e-01
 -1.0856133e+01
  1.5164417e+00
  2.4605005e+00
  4.5034771e+00
  3.6869934e+00
 -3.7762542e+00
 -2.0555381e-01
  6.0552416e+00
  8.5678113e-01
  2.9337788e-01
  2.7386174e+00
 -4.4463348e+00
 -5.6589022e+00
 -1.1910391e+00
 -3.8074801e+00
  1.0363443e+00
 -3.6612103e+00
  4.5196481e+00
 -2.4249160e-01
  6.0444373e-01
  2.9164526e+00
 -1.8628019e+00
 -1.8939484e+00
  1.3761750e+00
  6.4218462e-01
 -4.1614552e+00
 -2.8203347e+00
 -5.3227119e+00
  3.8934922e-01
 -1.5297061e+00
  4.5262074e+00
  1.2801523e+00
  8.8276892e+00
 -3.8066437e+00
 -3.8430164e+00
 -2.8678544e+00
 -2.3299060e+00
 -3.4082758e+00
 -3.3980286e+00
  1.1103506e+00
 -8.0071664e-01
 -6.6674132e+00
  1.4310999e+00
 -4.5801845e+00
 -2.0902114e+00
 -6.6810040e+00
  2.9757659e+00
 -1.9899228e+00
 -4.9419403e-01
 -1.1374370e+00
 -3.1330960e+00
 -5.1616025e-01
  2.0245192e+00
  1.8056818e+00
 -1.0480095e+00
  5.6847034e+00
  5.0635700e+00
  3.4459572e+00
  1.0429796e+00
  4.7238584e+00
 -4.5026156e-01
  1.5257168e+00
  7.7002344e+00
  7.9260123e-01
 -1.5368468e+00
  9.4283289e-01
 -3.6281626e+00
  7.8998899e+00
  1.8909556e+00
 -5.0692449e+00
 -2.7104049e+00
 -2.2362695e+00
 -1.6746086e+00
  9.4687643e+00
 -3.4789088e+00
  1.1324576e+00
  5.4643497e+00
 -1.1226421e-02
  5.7729745e+00
  4.7625260e+00
 -7.0781177e-01
  2.8893094e+00
 -3.5833895e+00
  3.3073306e+00
  5.6989412e+00
 -2.0026696e+00
 -9.7847745e-02
  2.8086665e+00
  3.0532832e+00
  8.7587156e+00
  2.0807030e+00
  4.6943874e+00
  9.7715271e-01
  1.0642089e+00
 -1.7822045e+00
  1.3815334e+00
 -1.4632722e+00
  8.4793317e-01
  1.5575978e+00
  1.9517503e+00
  7.7059774e+00
  3.2564411e+00
 -4.4782805e-01
 -9.6320689e-01
  4.0597674e-01
  1.1846098e+01
  5.7266021e+00
  4.2224226e+00
 -2.9383616e+00
 -1.0009053e-01
 -9.1021910e+00
 -3.1039038e+00
  1.9584231e+00
  8.2184565e-01
 -4.7685385e+00
 -1.8263019e+00
  1.5986967e-01
  1.6266460e+00
 -5.4436793e+00
 -5.5220222e-01
  5.4683576e+00
 -2.9832876e+00
  3.8544321e-01
 -7.3764342e-01
 -2.6477191e+00
  4.8011003e+00
 -2.0276296e+00
  5.7393527e+00
 -2.5507324e+00
 -5.3567209e+00
  2.0396483e+00
  2.8587155e+00
 -2.0427585e+00
 -3.2753104e-01
  1.4620543e+00
 -1.8767256e+00
  7.1660976e+00
  8.2917318e+00
 -7.0927310e-01
 -8.8755417e-01
  2.4974594e+00
  3.5320711e+00
 -1.3910570e+00
 -1.2962836e+00
  3.1280169e+00
 -3.3025095e+00
  1.4006535e+00
 -1.5474468e+00
 -1.2495270e+00
  3.8607028e+00
 -1.2811662e+00
 -6.3860307e+00
 -4.6156211e+00
  3.8372920e+00
  9.4757479e-01
 -1.8342254e+00
 -2.4375048e+00
  2.4343362e+00
  5.5816655e+00
 -4.3098998e+00
  3.7057170e-01
  2.3666756e-01
  3.2067616e+00
 -2.0861807e+00
  1.9752843e+00
 -1.1198938e-01
  1.9962417e-01
 -5.3870302e-01
 -5.9489954e-01
 -2.2621161e-01
 -2.0557895e+00
  4.4461317e+00
 -5.5078158e+00
  2.1935568e+00
 -1.0826408e+00
  7.8687853e-01
 -3.9973509e+00
 -2.2447963e+00
 -8.4109411e+00
  2.8321314e+00
  2.4330673e+00
 -6.0960573e-01
 -2.1413641e-01
 -1.6995996e+00
  2.8063321e+00
 -2.2037251e+00
  1.7246004e+00
  1.4061722e+00
 -4.2233167e+00
  4.2982354e+00
  5.9167886e+00
  4.9768195e+00
 -7.4184066e-01
  3.5529635e+00
  2.1992226e+00
 -3.4822176e+00
  4.4109325e+00
  4.9352660e+00
 -4.1757569e+00
 -2.7726560e+00
 -1.5863330e+01
  2.7941885e+00
  2.5692334e+00
  1.8110546e+00
  1.4163471e+00
  1.7128954e+00
  6.5352060e-02
 -2.3121479e+00
  3.5421841e+00
  1.0189949e+00
 -4.4065681e+00
  5.9757338e+00
  8.3580589e+00
 -7.8078856e+00
 -5.2657571e+00
  2.5250502e+00
  3.6010394e+00
  1.4855980e+00
  3.7875352e+00
 -6.2047219e+00
  1.7591177e+00
 -9.6897542e-02
  3.7547901e+00
 -1.8500195e+00
 -2.0445378e+00
  1.0605305e+00
 -5.8440857e+00
 -2.7957189e+00
  8.9306951e-01
  7.7275133e+00
 -5.2353537e-01
  1.6205682e+00
  1.7802118e+00
 -2.1638165e+00
 -1.4316427e+00
  6.6447983e+00
 -1.5588924e+00
 -5.4477015e+00
 -8.7990654e-01
 -4.0843000e+00
 -6.9854641e+00
  5.4105759e+00
  4.1422534e-01
 -7.2374874e-01
 -5.8411627e+00
 -4.3790288e+00
 -5.3288646e+00
 -2.6168940e+00
 -3.1394184e+00
  5.8355174e+00
 -4.6560903e+00
 -3.5510101e+00
 -1.4920964e+00
  1.5212632e+00
  8.6852627e+00
 -5.0316033e+00
  8.2621746e+00
 -7.9103737e+00
 -3.3666184e+00
  3.0388412e+00
 -5.2781856e-01
 -2.2369587e+00
  8.4337282e+00
  4.4848485e+00
  5.1829834e+00
 -4.7609434e+00
  2.4619796e+00
  6.3595515e-01
  5.4312472e+00
  6.1391459e+00
 -4.5846906e+00
 -6.8802104e+00
 -1.6563274e+00
 -3.8471103e+00
  5.5203743e+00
  8.7508640e+00
 -4.5824518e+00
 -2.0385029e+00
  2.8220633e-01
  8.7852383e+00
  9.6736326e+00
 -9.9615490e-01
 -9.6769648e+00
  6.0744352e+00
 -9.5086658e-01
 -1.2290310e+01
 -4.1616821e+00
 -7.2336924e-01
  1.6480901e+00
  7.5535398e+00
  4.0195699e+00
 -2.2425580e+00
 -2.3634582e+00
 -1.2423544e+00
  7.6347440e-01
  1.0909309e+00
 -2.4145651e+00
  9.9522800e+00
  6.5704327e+00
 -3.6201732e+00
 -3.9648719e+00
 -1.5721917e+01
  1.8248892e-01
 -2.6413274e-01
 -9.1776335e-01
 -5.2620888e+00
 -4.8052335e+00
 -2.0886831e-01
  4.4261298e+00
  1.2888627e+00
 -8.2520924e+00
  1.6437532e+00
 -3.0261614e+00
  7.1105595e+00
 -2.5312669e+00
 -2.3663149e+00
 -2.4013221e-01
 -5.4468054e-02
 -4.8458176e+00
 -5.1505680e+00
 -1.9163094e+00
  2.3133616e+00
 -1.4106327e-01
  2.5558920e+00
  5.0335779e+00
 -4.4152122e+00
 -9.1130513e-01
 -1.1100392e+00
 -9.6800756e+00
  3.9116859e+00
  6.5918469e+00
 -1.6316679e+00
  7.6992788e+00
  2.6572325e+00
  5.1505804e-01
  5.7161129e-01
  1.8002849e+00
  4.2105317e+00
 -3.3971384e+00
  2.6019007e-01
  1.6873921e+00
 -4.3663538e-01
  2.7152586e+00
  9.3721371e+00
  1.3292603e-02
  9.4142042e-02
  2.5084128e+00
  5.6005697e+00
 -2.4202459e+00
 -5.0175753e+00
 -1.1551699e+01
  2.4163561e+00
  4.8535795e+00
 -1.4136477e+00
  2.5060530e+00
  1.0203937e+00
  9.4819866e-02
 -4.0450597e+00
  6.7423396e+00
 -4.2159619e+00
 -6.3659310e+00
 -2.7252002e+00
  9.9652010e-01
 -8.0077562e+00
  5.1262832e+00
 -5.8935505e-01
 -5.1418734e+00
 -3.1855381e+00
 -9.9995775e+00
 -4.9370304e-01
  2.4420266e+00
 -8.5624093e-01
 -2.3462434e+00
  1.6676072e+00
 -1.1063381e-01
  3.5093687e+00
 -3.0171151e+00
  1.1649604e+00
 -8.2608404e+00
 -1.0386064e+00
 -1.1605820e-01
  4.8936934e+00
  5.2722190e-02
  2.8261757e+00
 -1.6607842e+00
 -1.4720349e+00
  1.3644369e+00
  5.6956038e+00
 -1.7339110e+00
  2.8949969e+00
  2.0861223e+00
  3.1688826e+00
 -1.0126451e+00
 -1.8419417e+00
 -8.0140811e-01
  1.4652286e+00
  7.5564866e+00
 -5.7108412e+00
  3.0139954e+00
  4.2303848e+00
 -7.0073283e-01
 -2.9377112e-01
 -4.1981053e-01
  1.5520458e+00
 -7.0851512e+00
 -1.5375843e+00
 -5.1636548e+00
 -4.6333969e-01
  4.3888426e+00
  4.5225506e+00
  8.4306109e-01
  6.9507637e+00
 -3.3528509e+00
 -8.8491893e-01
 -5.8986597e+00
 -4.0142193e+00
  4.1093677e-01
  6.5683689e+00
 -2.2822373e+00
 -8.8298911e-01
  6.7358551e+00
  5.5448217e+00
 -2.8991735e+00
 -1.0809212e+01
 -9.5457458e-01
  1.2382835e+00
  3.2812419e+00
  1.0260874e+00
 -5.9303703e+00
  8.1517992e+00
 -6.3882679e-01
  3.2560105e+00
 -3.4154487e+00
  1.0197513e+00
 -3.6904542e+00
  4.8507509e+00
 -2.2049646e+00
  1.5652598e+00
  5.0168329e-01
 -5.3733106e+00
  4.8164926e+00
  5.2372956e+00
 -1.1838645e+00
 -2.6895025e-01
 -1.0852573e+01
  3.7135935e+00
 -1.1059761e+00
 -1.0223732e+01
 -4.1222792e+00
  8.8393325e-01
 -1.3331798e+00
  7.4949702e-03
 -9.0251154e-01
  1.1277110e-02
 -1.1535385e+01
 -5.4535766e+00
 -1.7672340e+00
 -4.8939395e+00
 -8.0674648e-01
 -2.3345449e+00
  9.8409873e-01
  1.3149164e+00
  4.9292397e-01
  3.9453285e+00
  4.9188972e-02
 -5.7689409e+00
 -8.8699112e+00
  1.2357632e+00
 -3.0795591e+00
 -1.3807285e-01
  2.0568638e+00
 -2.4131043e+00
  3.7203777e+00
 -5.2997088e+00
  4.5982349e-01
 -3.8065538e+00
 -3.6028650e+00
 -2.8754940e+00
 -3.2830379e+00
  2.9523976e+00
 -1.6411407e+00
  3.5523641e+00
 -1.0257929e-01
  5.3397021e+00
  8.0123538e-01
 -7.2283709e-01
  4.4284253e+00
  1.2667233e+00
  1.9591285e+00
  5.9316216e+00
 -3.4593585e+00
 -2.4439085e+00
  1.9382594e+00
 -6.2964249e+00
  1.0492009e+01
  9.8822079e+00
  4.0986767e+00
 -6.6855340e+00
  8.7188711e+00
  1.5037901e+00
  7.2237873e+00
  1.7950450e+00
 -1.2515997e+01
 -6.4943452e+00
  1.4583298e+00
  3.3152418e+00
  3.5287850e+00
  2.2697973e+00
 -8.7660122e+00
  3.6969474e-01
  3.5984788e+00
 -1.5042320e+00
 -3.0300736e+00
 -1.0893691e+00
 -1.3405021e+00
 -1.2515725e+00
  3.8276873e+00
  6.5697145e-01
  1.0376045e+00
  5.4483371e+00
  2.5551176e+00
  1.5005757e-01
  1.0308538e+01
  1.2487836e+00
 -2.9091886e-01
 -2.6725008e+00
 -4.1229162e+00
 -4.1957612e+00
 -6.2846506e-01
  8.1120567e+00
  5.6419782e-02
 -2.2288205e-03
 -3.4136741e+00
 -9.9880761e-01
  3.4614236e+00
  2.1123745e+00
  2.1007102e+00
  4.9382636e-01
  1.4284710e+00
 -6.8307366e+00
 -9.2056356e-03
  8.8001418e-01
  2.7550931e+00
 -2.2361879e+00
 -2.0321836e+00
  3.2993528e-01
  1.0108420e+00
  1.5880295e+00
 -7.3386202e+00
  7.0011158e+00
 -2.4451234e+00
 -3.9937615e+00
 -6.1213269e+00
  8.5932188e+00
  1.2024451e+00
  4.6088939e+00
 -3.0832868e+00
 -6.6675763e+00
  4.8897834e+00
 -1.8088853e-01
 -1.9982799e+00
 -4.3927021e+00
 -2.1108615e+00
 -1.1004070e+00
  8.7595682e+00
 -2.5103669e+00
 -1.4361395e+00
  8.7262363e+00
  8.8345938e+00
  6.1832905e-01
 -2.5421932e+00
 -5.8301753e-01
  2.8879375e+00
  1.0989152e+00
  7.1709795e+00
  7.7340379e+00
 -2.9781115e+00
  6.3879762e+00
  1.1442266e+01
 -1.3983408e+00
  4.3527093e+00
  1.9737353e+00
  8.2478886e+00
  6.3722496e+00
 -1.1078511e+00
 -1.7539291e-01
 -3.7740262e+00
  1.3088942e+01
 -8.3592339e+00
  5.5264411e+00
  1.2242744e-01
  3.8431311e+00
  9.6009153e-01
  4.2149820e+00
 -2.5545495e+00
 -9.4651766e+00
  7.8824258e+00
 -4.0043650e+00
  1.6073200e+00
 -4.5008059e+00
  5.5590959e+00
 -2.1669614e+00
  3.9038074e+00
 -8.9718920e-01
 -5.0683492e-01
  1.1042994e+00
 -9.5425183e-01
  4.4941988e+00
 -3.4335651e+00
  5.6644802e+00
  1.0703775e+00
  2.8472369e+00
  7.3869616e-01
 -2.1217208e+00
  1.4893262e+00
  2.3148868e+00
 -2.4866116e-01
 -2.0623112e+00
  1.9967740e+00
  1.1850743e+00
 -3.3829281e+00
  2.4491680e+00
 -6.3190331e+00
  9.1385981e-03
 -5.8870649e+00
 -4.2196712e+00
 -5.4941398e-01
 -3.6775143e+00
  4.3467593e-01
 -1.2389182e+00
 -3.3635297e+00
 -2.1526016e-01
 -2.0070879e+00
  2.3707488e+00
  1.1403708e+01
 -1.4845949e+00
 -3.0948737e+00
  1.8287596e+00
  3.1534657e+00
 -6.7563742e-01
  7.5704867e-01
 -5.4541121e+00
  4.0767946e+00
 -1.4845694e+00
 -6.7970282e-01
  9.0231138e-01
  1.1873168e+00
 -6.6498251e+00
 -2.2258844e+00
 -1.3050736e+00
  1.9138161e+00
 -7.3202119e+00
 -1.4504602e+00
  1.5929133e-01
 -1.2782093e+00
 -6.3027244e+00
 -8.0736074e+00
  3.7630732e+00
 -1.1118569e+00
 -2.5967736e+00
  1.3922874e+00
  2.0982273e+00
 -4.2092686e+00
  3.6478776e-01
  3.8450503e+00
  1.7462796e+00
  2.6786029e+00
 -4.5271735e+00
 -6.2830508e-01
  1.0134048e+00
  9.0248013e+00
  1.9910800e+00
  3.3823836e+00
 -3.0093807e-01
 -8.8816519e+00
 -1.1632402e+01
  9.3703818e-01
 -1.4285733e+00
  5.6641679e+00
  2.6937225e+00
  2.7333074e+00
  1.1367930e+00
  4.3089852e+00
  1.4645493e+00
 -5.4943311e-01
  8.1124324e-01
  2.5988677e+00
  3.0872228e+00
  9.1977978e+00
 -1.1147205e+00
 -6.7851055e-01
  8.7985629e-01
  2.3996630e+00
  5.6347475e+00
  1.1774528e+00
 -9.7211618e+00
 -1.1988895e+00
 -8.9200497e+00
 -2.6857076e+00
  1.4397358e+00
 -4.5150647e+00
  5.3208885e+00
  3.4140091e+00
  1.4123951e+00
  6.5691295e+00
  2.6553123e+00
 -1.5918959e+00
  1.9706709e+00
  4.2360363e+00
 -4.5513759e+00
  4.1049770e-01
  5.9605794e+00
  8.6660328e+00
 -4.3291321e+00
 -3.1264808e-02
 -3.7235031e+00
 -5.2801647e+00
 -4.2704682e+00
  5.5077496e+00
  1.1691892e+00
 -1.5421468e+00
 -9.0269604e+00
 -2.5630579e+00
 -2.0756117e-01
 -3.6853426e+00
 -1.6089112e+00
  8.8186779e+00
 -6.0700488e+00
 -3.6453772e+00
  4.0039482e+00
  1.3064697e+00
 -8.2143440e+00
 -1.2132049e+00
 -2.8835695e+00
 -9.0119916e-01
  1.7439920e+00
 -2.9711989e-01
 -2.5888193e+00
 -1.0506641e+01
 -2.2223058e+00
  8.7470859e-01
  1.8843212e+00
 -4.1534891e+00
  4.3992448e+00
 -6.1096430e+00
 -7.2929138e-01
  3.0832362e-01
  1.5516714e+00
 -8.5724252e-01
 -6.2926579e-01
  6.1004882e+00
  9.6465129e-01
 -9.0838426e-01
  2.2084537e+00
 -3.5974171e+00
  5.7490034e+00
  3.2385368e+00
 -1.1510899e+00
  5.1139688e+00
 -1.8498176e-03
 -2.3132498e+00
 -9.9077778e+00
  4.1556602e+00
  2.1921735e+00
 -5.8633947e+00
  1.3947631e+00
  1.7497373e+00
 -1.2809676e+00
 -7.0299544e+00
  1.3881782e+00
 -2.9634361e+00
  2.2047446e+00
 -2.2629819e+00
  7.1299601e+00
 -8.3566254e-01
  3.9301047e+00
 -9.8375338e-01
  1.8353280e+00
 -2.6784568e+00
  1.5313704e+00
  1.9075632e+00
 -3.2972004e+00
 -4.0619841e+00
 -5.3286500e+00
  1.1578764e+00
  4.5399156e+00
 -5.5153465e-01
 -5.5149541e+00
 -5.8176308e+00
 -1.5297881e+00
 -1.1722887e+00
  3.4833066e+00
  4.2213683e+00
  2.2250524e+00
  2.2696402e+00
  2.5893942e-01
  5.8713427e+00
  2.5499389e-01
  8.1804645e-01
 -2.7125955e-01
  5.3156443e+00
 -4.0489845e+00
  2.8279545e+00
  3.3827612e-01
 -2.4085889e+00
  5.3750968e+00
 -4.3518744e+00
 -3.4019425e+00
 -2.4614985e-01
 -6.1016855e+00
 -5.5450139e+00
 -1.3118837e+00
 -9.3126030e+00
  3.2166359e+00
 -4.2126107e+00
  6.4133658e+00
 -6.0342951e+00
 -3.5855317e+00
  2.9966421e+00
  3.3607314e+00
  2.1436746e+00
 -2.4739974e+00
 -3.4397898e+00
 -1.6876359e+00
 -2.7729270e+00
  1.6133213e+00
 -6.5126824e+00
 -2.2249689e+00
 -1.6291255e+00
  5.4442906e+00
 -4.0878601e+00
 -6.5025961e-01
 -1.7395908e+00
  7.4672132e+00
  8.2110658e-02
 -6.2906170e-01
  1.3817072e+00
  6.6468573e+00
  1.1198541e+00
 -5.4558430e+00
  1.2273495e+00
 -1.4910262e+00
 -2.1310015e+00
  6.5614831e-01
  6.8228650e-01
 -1.8438956e+00
 -1.5521933e+00
  1.4708860e+00
 -3.7838485e+00
  2.2683744e+00
 -7.4499893e-01
 -4.2625299e+00
  2.8014364e+00
 -7.3648375e-01
  6.7076797e+00
 -8.0276556e+00
 -2.4666075e-01
  2.2220428e+00
  7.4376240e+00
  3.2465494e-01
 -9.5449948e-01
 -2.4679770e+00
 -7.0138484e-01
  1.1851991e-01
 -1.5089138e+00
 -7.7640617e-01
  1.4774885e+00
  1.1351057e-01
  4.1322393e+00
  6.2259156e-01
 -3.2510390e+00
  1.6758869e+00
 -1.0185177e+01
  9.6829766e-01
 -1.8964967e+00
  4.0780365e-02
  6.3410277e+00
  7.6373277e+00
  1.4606291e+00
 -2.8847971e+00
  4.0083919e+00
  1.1530013e+00
  1.2356248e+00
  6.7044821e+00
  5.1712260e+00
  5.7176456e+00
  3.5231489e-01
 -1.1484612e+00
 -1.6953529e+00
  2.7608130e+00
  2.6733823e+00
 -3.8370926e+00
 -1.0107163e+01
 -5.5973005e+00
  3.9107516e+00
 -2.4064956e+00
  1.1556483e-01
 -1.1163068e+01
  1.6692711e+00
  2.5274785e+00
  4.2399058e-01
  5.5192266e+00
  6.4468904e+00
 -4.6155901e+00
 -3.4986093e+00
 -5.6057739e+00
 -1.8379068e+00
 -1.5323085e+00
 -4.6744757e+00
  9.6734505e+00
  4.8164496e+00
 -1.9032501e+00
 -6.4734058e+00
  9.4024801e-01
 -3.0067301e-01
  1.9841388e+00
  1.1567811e+00
 -2.6660278e+00
 -3.2960703e+00
  6.7409530e+00
  4.7322326e+00
  1.6835396e-01
 -5.2659494e-01
  8.3197713e-01
 -1.0237442e+01
  2.1933920e+00
  5.8643203e+00
 -2.9216361e+00
 -3.2940297e+00
 -6.3516945e-01
 -1.8633019e+00
  1.0482679e+01
 -6.4292699e-01
 -3.4262757e+00
  4.9180164e+00
 -5.2915463e+00
 -9.7056884e-01
  1.4587301e+00
 -6.8984860e-01
 -4.5533929e+00
  4.3992186e-01
  3.5222495e+00
  9.4860725e+00
  2.9205432e+00
  1.8281169e+00
  2.7611861e+00
  1.9216177e+00
  1.8160322e+00
  1.0807424e+00
 -9.7271472e-01
 -7.5635916e-01
 -1.3440173e+00
  2.3838408e+00
  4.3873805e-01
  2.6359785e-01
 -1.6071357e+00
  1.2623723e+00
  9.4575144e-02
 -8.2110828e-01
 -6.1663532e-01
  2.3079824e+00
 -5.5750246e+00
  1.9579875e+00
  8.8128954e-01
 -9.7160845e+00
  4.8348508e+00
  3.3477325e+00
  2.2705588e+00
  3.2944210e+00
  1.6504599e+00
 -3.6897163e+00
  5.0918455e+00
  1.1731269e+00
 -8.0595512e+00
  1.0167066e+00
 -2.8909862e+00
 -2.2793045e+00
  3.0328751e+00
  7.0098108e-01
 -4.5298519e+00
  9.6764731e-01
  1.4370720e+00
 -1.6075224e+00
 -1.0644705e+00
 -6.6547003e+00
  4.8276186e+00
  1.2635018e-01
  4.6091840e-01
 -4.2635622e+00
  2.3842576e+00
  3.7397924e-01
  2.9399350e+00
 -5.0154555e-01
 -4.3450308e+00
  1.9317647e+00
 -3.7583997e+00
  4.3263349e-01
 -1.2204115e+00
 -3.6066157e-01
  7.5590605e-01
  3.0816307e+00
 -1.4414954e+00
  4.1155138e+00
  5.4867518e-01
  6.6867208e-01
 -2.6645756e+00
 -6.4380682e-01
  2.9905942e-01
  6.0969931e-01
  1.2289551e+00
 -1.0853114e+00
 -8.4330165e-01
 -1.7555407e+00
  4.1035714e+00
 -2.7864939e-01
 -2.7483981e+00
  2.2349262e+00
  6.5782690e-01
  7.3475975e-01
 -5.5533962e+00
  2.4318011e+00
  2.2079608e-01
  1.3122526e+00
  9.4326865e-03
 -1.1752843e+00
 -4.8618981e-01
  4.9513930e-01
 -1.3985596e+00
 -2.4589386e+00
  3.8633451e+00
 -1.3037392e+00
 -3.7313372e-02
  2.5365124e+00
  4.2581205e+00
 -6.1162132e-01
 -3.8317925e-01
  4.5532033e-02
  2.7950552e+00
 -4.1181087e+00
 -2.8990060e-01
 -3.2029638e+00
 -4.0270176e+00
 -6.3254824e+00
 -7.7749653e+00
 -5.1786795e+00
 -4.7449484e+00
 -2.7268322e+00
 -1.6438512e+00
 -6.9869294e+00
 -4.0806370e+00
 -4.5179944e+00
  2.2003713e+00
  5.6594582e+00
  1.0441762e+00
 -3.3466086e+00
  6.3835578e+00
  4.4542007e+00
  3.5695288e+00
  2.1088396e-01
  6.1292467e+00
 -1.3291446e+01
  6.2353177e+00
 -1.3316618e+00
 -5.7821012e+00
 -1.6575864e-02
 -1.1111088e+01
 -3.2100906e+00
  1.4616120e+00
 -1.7950002e+00
  3.8031845e+00
  2.8719049e+00
  3.9484417e+00
  5.3359685e+00
  5.6114268e+00
 -2.1653225e+00
  5.5246730e+00
  4.8004441e+00
  1.4693261e+00
  2.3921049e+00
  9.3709059e-02
 -3.2176788e+00
 -2.5684576e+00
 -4.4471226e+00
  1.0956337e-01
 -5.9611124e-01
  4.9725695e+00
  1.9198210e+00
  4.6100447e-01
 -1.9620912e+00
  3.9638712e+00
 -5.0275187e+00
 -8.3182818e-01
  1.2414221e+00
 -7.2119431e+00
  1.4546665e+00
  4.3184643e+00
  1.1776881e+00
  8.4525671e+00
 -7.3882804e+00
 -6.5544252e+00
  2.3977745e+00
  6.5496564e-01
  1.0083112e+00
 -6.8079777e+00
  2.4139788e+00
 -2.1762588e+00
  3.7953002e+00
  1.8714880e+00
 -6.1462884e+00
  2.1941898e+00
  2.4422584e+00
  2.2524044e-01
 -7.4591410e-01
 -1.3883964e+00
  5.6937232e+00
 -4.6449242e+00
  2.6304443e+00
  1.2567472e+00
 -2.1366420e+00
 -5.5311127e+00
 -3.2987700e+00
  2.9625185e+00
  3.2409313e+00
 -2.9344231e-01
 -4.7690961e-01
 -3.4781203e+00
  4.3744965e+00
 -2.0451231e+00
  3.2695088e-01
 -3.4768775e+00
 -5.9121901e-01
  3.7689526e+00
 -6.9897997e-01
  4.7368784e+00
  8.1901982e-02
 -3.8308778e+00
 -4.5738542e-01
  3.6197870e+00
 -1.0486583e+01
 -7.3725529e+00
 -5.0594978e+00
 -2.1845098e+00
 -4.0404363e+00
 -1.8995602e-01
 -5.2924700e+00
  1.3508024e+00
  1.0109989e+01
  8.8521814e+00
  9.2945004e+00
  5.0268250e+00
  3.7472787e-01
 -6.5084181e+00
 -5.8070070e-01
 -6.4111507e-01
 -4.7116323e+00
  9.0976419e+00
 -4.6733627e-01
  5.5448575e+00
 -3.6098254e+00
 -7.0455942e+00
 -3.7793797e-01
 -7.6856494e+00
  8.2845030e+00
 -4.7872519e+00
  6.8362155e+00
  2.9690595e+00
  8.7468348e+00
  4.8288150e+00
 -3.8258982e-01
 -5.6590147e-02
  4.6179919e+00
 -2.7358988e-01
  4.9583554e+00
 -3.9426663e+00
 -1.5795023e+00
  6.7104969e+00
  1.8652036e+00
 -3.5598900e+00
  7.5226603e+00
 -8.0726439e-01
  5.8781424e+00
  1.0406666e+00
  2.5995417e+00
 -5.6633115e+00
 -5.6233974e+00
 -4.2537489e+00
  8.1493229e-01
  7.6445317e-01
  2.3600552e+00
  6.3141422e+00
 -1.2165871e+00
 -4.2936373e+00
  6.7583213e+00
  2.5149944e+00
  2.3427219e+00
  1.8324744e+00
  1.8488717e-01
 -4.3518877e+00
 -3.9150510e+00
  6.8238931e+00
 -1.9443452e+00
 -3.8688464e+00
 -4.6937413e+00
 -4.0011239e+00
  3.6020184e+00
  5.7512798e+00
  7.2335100e+00
  9.6262652e-01
 -7.6176023e-01
  4.5634055e+00
  3.9825419e-01
 -5.8607578e+00
  4.7102270e+00
  1.3112761e+00
 -2.9446890e+00
  4.7442684e+00
  4.3722615e-01
  5.6945362e+00
  2.9312999e+00
 -7.0426792e-01
  8.7451878e+00
 -9.4491415e+00
  2.6956520e+00
  3.9367881e+00
  4.6601510e+00
 -1.0941546e+00
  1.0222251e+00
  8.1255734e-02
 -7.6306021e-01
 -8.2047052e+00
 -3.5081711e+00
 -2.6921725e+00
 -5.1187968e+00
  7.3346143e+00
 -7.9519945e-01
  3.0257323e+00
 -1.1219810e-01
  3.0705981e+00
  5.0169969e+00
  2.3197091e+00
  3.5061338e+00
 -1.0230584e+01
 -2.0462778e+00
  2.5434349e+00
 -1.3217769e+00
 -2.5203772e+00
 -1.7956181e+00
  4.4890137e+00
  6.0104623e+00
 -3.1788912e+00
  4.7128272e+00
  2.3696165e+00
  2.2783034e+00
 -1.2641613e+01
 -4.6492286e+00
 -2.0395844e+00
  1.8796419e+00
  1.4461125e+00
  4.6742520e+00
  4.4362963e-04
  2.3090048e+00
  1.6206070e+00
 -1.1159559e+00
  6.2555246e+00
 -3.2020679e+00
 -1.8537110e+00
 -8.0774969e-01
  7.5275660e-02
 -4.3246608e+00
 -2.1725571e-01
  2.0250134e+00
 -4.6094713e+00
  6.9974775e+00
  1.4569053e-01
 -1.4872985e+00
 -6.0561442e+00
 -5.8672886e+00
 -3.7645122e-01
 -1.2200722e+00
 -7.2687354e+00
  5.8206902e+00
  5.2203627e+00
 -4.0815392e+00
  1.7444443e+00
 -2.5751660e+00
 -5.6616229e-01
  1.2953817e+00
 -4.7799292e+00
 -3.8346424e+00
 -1.6365874e+00
  4.1618524e+00
  7.7218461e+00
  5.9424853e-01
  3.5294744e-01
 -3.1780674e+00
  2.4299099e+00
  4.7967896e+00
 -3.2655001e+00
 -5.1795468e+00
  5.3069592e+00
  5.6583376e+00
 -7.9189878e+00
 -2.2204328e+00
  7.8363854e-01
  1.7912655e+00
 -1.9482788e+00
  5.4537435e+00
 -1.4482552e+00
  2.8962343e+00
  3.5448263e+00
 -3.3056617e+00
  2.6718090e+00
  5.5857086e+00
 -1.3555776e-01
  3.3368580e+00
 -8.8468105e-01
 -7.4140072e+00
 -1.1582556e+00
  4.5261934e-01
  1.1845843e+00
 -2.7790160e+00
 -6.1860018e+00
 -9.7806346e-01
 -2.9930446e+00
  3.3231435e+00
 -9.7981893e-02
  3.1697280e+00
  4.5301056e-01
 -3.1324019e+00
 -1.7117641e+00
 -1.4271838e+01
  1.4335813e-01
 -1.5125465e+00
 -1.7926854e+00
  1.7104756e+00
  2.7649269e-01
  1.0655135e+01
  3.9264896e+00
  1.6815376e+00
 -2.0321271e+00
  9.0657848e-01
 -4.6475511e+00
  2.2991452e+00
 -9.5557852e+00
 -4.4720216e+00
  4.1154370e+00
  2.6455450e+00
 -6.5272670e+00
 -4.0395079e+00
 -2.6087825e+00
  2.5495201e-01
 -6.2727141e+00
 -1.8481037e-01
 -2.7777319e+00
  9.5957190e-02
 -7.1989858e-01
 -2.9397695e+00
 -3.5858188e+00
  5.1273829e-01
  2.2048914e+00
  1.9020246e+00
 -1.1603535e+00
  1.8034148e-01
 -8.5886087e+00
  4.3000350e+00
  1.3915025e-01
 -1.4737858e-01
  3.0609818e+00
 -9.6257925e+00
 -2.9957740e+00
 -2.8660638e+00
 -4.9468029e-01
  7.1254544e+00
 -6.0403147e+00
 -4.9439728e-01
 -9.0437956e+00
  2.3181379e+00
  2.0681465e+00
 -2.3117290e+00
 -7.2554696e-01
  7.7498417e+00
  2.7626874e+00
  2.6279628e-01
  2.8562858e+00
  3.2189028e+00
 -6.2594934e+00
  7.7465405e+00
 -3.5531852e+00
  4.5382433e+00
  2.2834780e+00
  3.5053930e+00
  3.2845670e-01
  1.6557317e+00
 -4.8836201e-01
  2.0014238e+00
  1.0812627e+00
 -2.3926549e+00
 -1.8401254e+00
  1.7613221e+00
 -2.6764200e+00
 -1.1589314e+01
 -2.8340652e+00
  1.9833003e+00
  3.6717160e+00
 -1.1000837e+00
  2.0549102e+00
 -3.5858911e-01
  5.5909318e-01
  8.6196890e+00
  6.2510639e-01
 -1.5040426e+00
 -6.2391404e-02
  2.0842545e+00
 -9.4007218e-01
  5.1137418e-01
  8.4911985e+00
 -5.1496643e-01
 -1.7753285e+00
 -2.6282465e+00
  7.0420699e+00
  1.7899205e-01
 -6.5632057e-01
  7.3625231e+00
  4.5516849e+00
 -3.7217684e+00
  2.8032789e+00
  2.6070154e-01
 -1.2953129e+00
  4.0750365e+00
  7.4281411e+00
  3.5016724e-01
 -1.4512297e+00
 -6.3599639e+00
 -3.7374675e+00
 -9.1492191e-02
 -1.1937585e-01
  4.0079994e+00
  2.3537176e+00
  6.7505369e+00
 -1.5861937e+00
 -9.0112060e-01
 -7.5202811e-01
  1.0389282e+01
 -2.7216661e+00
  1.4385412e+00
  3.1330533e+00
 -2.8098071e+00
  7.3255029e+00
 -4.6542959e+00
  6.9321895e+00
 -3.8285065e+00
 -2.9558659e+00
 -1.8572942e+00
 -2.7429683e+00
 -1.0042917e+00
 -1.0559818e+01
  2.1229424e+00
  5.9958935e+00
 -9.3403971e-01
  6.7317647e-01
 -3.6575503e+00
 -3.1680651e+00
  5.1237164e+00
  3.9210761e+00
  2.0287750e+00
 -2.9583724e+00
 -2.4141657e-01
  7.2662802e+00
  1.0141415e+01
 -5.6532764e-01
 -2.0736177e+00
 -5.1062083e-01
 -1.0894753e+00
  2.5565548e+00
  5.2427645e+00
  8.9463816e+00
 -1.0770336e+01
  1.3690040e-02
 -1.7632602e+00
  8.0971271e-02
 -1.6722682e+00
  1.2882363e+00
 -6.4626651e+00
 -3.7735972e+00
  4.7512879e+00
  1.1944916e+00
 -4.4715900e+00
 -6.9724016e+00
 -8.1679362e-01
 -3.3789814e+00
  3.7054391e+00
 -1.6345497e+00
  1.3945535e+00
 -6.4986649e+00
  7.6652822e+00
 -2.4870274e+00
 -6.9747686e-01
 -1.1094652e-01
 -1.4523928e+00
 -2.7791536e+00
  4.8044243e+00
 -1.8232329e+00
 -6.4199650e-01
  5.0127664e+00
 -5.7140744e-01
 -1.9252739e+00
 -3.2306674e-01
 -1.5998503e+00
 -9.6017951e-01
  3.8023584e+00
 -8.7442130e-01
 -1.4207047e+00
 -5.0758557e+00
  1.7295272e+00
 -6.4973731e+00
 -1.8326775e+00
 -2.8728988e+00
 -2.5057902e+00
  9.8211451e+00
 -1.0252180e+00
 -2.4392543e+00
 -3.3170056e+00
  2.5101607e+00
  3.3206635e+00
  2.8899908e+00
 -8.3022594e+00
 -8.7687021e-01
 -3.7527514e+00
  1.8379441e-01
  7.6778483e-01
  4.9222369e+00
 -1.8699976e+00
 -3.7682638e+00
 -5.3099465e+00
 -1.6130764e+00
 -1.0698678e+00
  1.2384235e-01
 -3.6084657e+00
 -4.3819408e+00
 -3.4413488e+00
  5.7542796e+00
  2.2307463e+00
 -2.6635258e+00
 -5.7874131e+00
  1.1988090e+00
  5.1630658e-01
 -9.2696619e-01
  6.3804269e+00
  1.4537419e+01
  1.1168778e+00
 -1.2835238e+00
 -1.2388262e-01
  2.2920403e+00
 -2.2362621e+00
 -1.1014310e+00
  4.5079949e-01
 -3.6609485e+00
  4.2400980e+00
  2.3061256e+00
 -7.9057541e+00
  4.0136371e+00
 -5.6693110e+00
 -1.4027959e+00
 -6.0569773e+00
 -1.0147816e+00
 -6.5042013e-01
  3.8494980e+00
 -2.4381540e+00
 -1.0171647e+00
  9.0814894e-01
  1.0724412e+00
 -9.5322905e+00
 -2.8099241e+00
  9.2967072e+00
  5.4329413e-01
 -4.9183005e-01
  4.3998661e+00
  2.8672249e+00
 -5.3110309e+00
  4.0759525e+00
  1.8330766e+00
  2.0598831e+00
  3.6615267e+00
 -2.5410016e+00
  2.3671482e+00
 -1.7174294e+00
  7.8298984e+00
 -4.8543448e+00
  7.8048105e+00
 -3.9623187e+00
 -6.1480457e-01
  2.2488408e+00
 -8.4171057e-01
  1.9817984e-01
  8.5738869e+00
  4.2149496e+00
  1.2757305e+01
 -5.3432178e+00
  6.7997837e+00
  3.5805104e+00
  6.0749598e+00
 -4.9646182e+00
  2.4088721e+00
 -1.9502875e+00
 -8.8387436e-01
  7.0080094e+00
  1.4068451e+00
 -8.3346138e+00
 -1.0088884e+00
  1.9260046e+00
  4.0321717e+00
 -1.1650798e+00
 -3.6294360e+00
  2.8146403e+00
 -4.2119592e-01
  8.1672710e-01
 -7.2573357e+00
  2.6470234e+00
 -2.9616385e+00
  5.1115417e-01
  5.8875785e+00
 -2.1583855e+00
  6.4945519e-01
  6.3263578e+00
 -2.5406876e+00
 -9.4783723e-02
  6.2625513e+00
 -4.4948068e+00
  1.3162725e+01
  8.6776991e+00
  4.8765163e+00
  8.0653887e+00
 -3.7997320e+00
  4.8143563e+00
 -1.1496055e+01
 -2.1602232e+00
  1.4612650e+00
  5.6730928e+00
  2.6246521e+00
 -3.2722771e+00
 -3.2883761e+00
 -6.1257544e+00
  1.6794420e+00
 -7.4946904e-01
  1.8529429e-01
  5.0587935e+00
 -1.8264154e+00
  6.0943813e+00
  9.1538763e+00
  3.1722341e+00
  1.6762401e+00
  3.8816661e-01
  7.3085189e+00
  4.5657763e-01
 -7.4007936e+00
 -1.4093510e+00
 -2.5290387e+00
  2.3370667e+00
  1.2340137e+00
  1.5932049e+00
  2.1370206e+00
 -4.2267232e+00
  4.4303598e+00
  4.0371780e+00
 -1.3792630e+00
  2.2053160e-01
 -1.5031859e+00
 -4.2977743e+00
 -1.8778970e+00
  5.7362691e-02
 -2.0465233e+00
 -5.0762348e+00
  3.2592247e+00
 -6.0131526e-01
  2.5305593e+00
  5.5482812e+00
  1.0706418e+01
  4.6601996e+00
  1.6262375e+00
 -2.5347233e+00
 -2.2861109e+00
  5.7797470e+00
 -8.8892927e+00
  7.9921567e-01
 -4.4979415e+00
 -5.4208064e-01
 -5.0854917e+00
  8.7335223e-01
  6.4949141e+00
 -5.6607366e-01
  4.9999542e+00
  1.2877525e+00
 -5.0090165e+00
  3.5877252e+00
  3.4229968e+00
  5.0400376e+00
  1.0658279e+01
  1.3434401e-02
  1.2979028e+00
 -2.9035749e+00
  8.7684898e+00
 -1.9565022e+00
  3.7225385e+00
  9.9758091e+00
 -5.2894349e+00
  1.8631926e+00
  1.1482611e+00
 -3.8437016e+00
 -3.3417537e+00
  1.4526099e+00
 -2.6601040e+00
 -3.6015043e+00
 -3.4915085e+00
 -6.1814532e+00
 -6.8605223e+00
  3.0501778e+00
  8.2955742e+00
  6.2724453e-01
 -2.5186591e+00
  1.8089889e-01
  1.0099550e+00
  3.2281091e+00
  1.4785657e+00
 -1.1922344e+01
  1.5548702e+00
 -4.2449245e+00
  3.2823570e+00
  4.5565372e+00
  4.4703922e+00
 -4.5820060e+00
 -6.7908149e+00
 -2.3600354e+00
  1.5762730e+00
  1.9684120e+00
  1.6611319e+00
  5.7649417e+00
  2.1100223e+00
  2.6619954e+00
  4.9875483e-01
 -6.8696733e+00
 -2.2079772e-01
  1.5859047e+00
  1.6855886e+00
  4.6024575e+00
 -1.2026606e+00
 -5.5564847e+00
  1.6795361e+00
  7.3389214e-01
  1.2327424e+00
 -2.6379023e+00
 -1.6067858e+00
  3.3662667e+00
  1.7735480e-01
 -1.9561225e+00
 -2.1464121e+00
  2.6016185e-01
 -1.8128060e+00
  7.0221786e+00
 -4.5870023e+00
 -5.2543867e-01
 -3.1075959e+00
  1.5570699e-01
 -5.2082791e+00
  8.0125256e+00
 -1.6236249e-02
 -2.2060914e+00
 -8.3081503e+00
 -4.4741564e+00
 -4.8831830e+00
 -7.4940717e-01
 -3.0450592e+00
  1.4226177e+00
 -3.4244664e+00
 -1.8393171e+00
 -1.5246353e+00
  5.2755427e+00
  3.5067791e-01
 -2.3649819e+00
 -2.4891880e+00
  2.5718367e+00
 -6.7440410e+00
 -3.1165316e+00
 -1.9130906e+00
 -2.9549873e+00
 -2.1854136e+00
 -1.5171480e+00
  5.4817176e+00
 -8.1343345e-02
 -6.0412984e+00
 -2.4930744e+00
  4.1075077e+00
 -1.8773332e+00
 -1.6489350e+00
 -1.7835156e+00
 -2.6937501e+00
 -1.4554034e+00
  1.6973975e+00
 -6.1166596e+00
  3.1148283e+00
  2.5914314e+00
  3.0347917e+00
  2.8529122e+00
  7.4265110e-01
 -8.8885870e+00
 -2.1913350e+00
  1.8015715e+00
 -6.0651760e+00
  8.7008390e+00
  8.8711673e-01
 -2.6714945e+00
  8.2170115e+00
 -8.6318541e-01
  3.7963042e+00
  9.6863627e-01
  8.7200832e+00
 -2.5587032e+00
 -3.0575073e+00
 -3.3064625e+00
  5.2349025e-01
  3.7122722e+00
 -3.7543943e+00
  8.1626139e+00
  7.9556155e-01
  4.3811774e+00
  2.4818997e+00
 -4.0430102e+00
 -1.1799672e+00
 -5.9294426e-01
  1.0225071e+00
 -1.8825111e+00
  9.5858335e+00
  1.0345132e+00
 -1.8947874e-01
 -9.7032747e+00
  1.3196638e+00
 -2.1761789e+00
  4.2350254e+00
  3.0164416e+00
  2.7494688e+00
  6.1476073e+00
  5.0095420e+00
  3.4943812e+00
  1.0843096e+00
 -1.1906642e+01
 -8.5366315e-01
 -2.1535847e+00
  4.0578051e+00
 -1.9284283e+00
  1.4963130e+00
  3.1850973e-01
 -6.6727905e+00
  4.7240126e-01
 -3.5013218e+00
 -2.8692248e+00
 -1.8614570e+00
  8.0750284e+00
  4.3229141e+00
 -2.8959525e-01
 -7.9588497e-01
  4.8073006e+00
 -2.8992774e+00
 -9.7472614e-01
 -3.1562948e+00
 -7.4178797e-01
  5.5290446e+00
  3.8640203e+00
 -6.7732608e-01
 -8.6810249e-01
 -4.0719647e+00
 -1.3255939e+00
  1.4023398e+00
 -3.4299130e+00
 -6.0752857e-01
  9.3999243e-01
 -3.9571946e+00
 -7.1483147e-01
 -1.6689919e+00
 -3.0673223e+00
 -3.8939092e-01
  4.2238207e+00
  1.2271891e+00
  2.7342744e+00
 -1.4193113e+00
 -1.3254586e+00
  9.2404833e+00
 -4.7197971e+00
 -4.6813426e+00
  1.5267545e+00
  4.5834169e+00
 -4.8452425e+00
  8.7312007e-01
 -6.2385070e-01
  3.6301847e+00
  8.8841814e-01
 -3.8978770e+00
 -2.9416924e+00
 -5.2846265e+00
 -2.2424819e+00
  9.4897699e+00
 -1.0294604e+00
  8.3385713e-02
 -3.7959840e+00
 -8.4389296e+00
 -1.5073956e+00
 -4.2222319e+00
  3.1748664e-01
 -6.0365152e+00
  1.8258001e+00
  2.0504770e+00
  5.4171286e+00
  3.7068179e+00
 -4.3048239e+00
 -5.7678642e+00
 -4.4982047e+00
 -1.1796999e+00
  2.4237165e-01
 -4.8980336e+00
 -1.1398066e+01
  4.7523222e+00
  3.4139681e+00
  8.7117434e-02
 -2.9721427e+00
  8.5329898e-02
 -2.6617473e-01
  2.2485631e+00
 -1.6068718e+00
 -4.3181282e-01
  2.4128642e+00
  5.6887875e+00
 -1.5856194e+00
  2.5310967e+00
 -3.2095609e+00
  7.7975183e+00
  3.6297841e+00
  1.2753682e-01
 -6.7012852e-01
 -3.7526133e+00
 -6.9056505e-01
 -4.6714252e-01
  4.7302766e+00
 -7.9549475e+00
  2.7895021e+00
  2.1870282e+00
  3.2649541e+00
 -6.2698145e+00
 -3.5098996e+00
 -3.4585435e+00
  5.3627391e+00
  4.9018412e+00
 -1.7647815e+00
 -1.0117710e+01
  5.2871432e+00
 -1.7028222e+00
  7.0059162e-01
  3.6660745e+00
  2.1332924e+00
 -1.8196226e+00
 -9.7948927e-01
  8.9362236e-03
  2.9811451e+00
  2.9540470e-01
 -5.9763651e+00
  9.4010335e-01
 -5.8385882e+00
  1.5434924e+00
  4.1968431e+00
 -1.3599690e+00
  4.6996527e+00
 -5.4999022e+00
 -5.2724447e+00
 -2.8640166e-01
  7.1873271e-01
  2.4746394e+00
 -4.6971884e+00
  4.5485047e-01
 -4.7613611e+00
 -4.1183925e+00
  8.3201396e-01
 -2.6930704e+00
 -2.9232912e+00
  7.6215759e-02
 -1.2900780e+01
 -5.9744909e-02
  6.5091777e+00
  4.4479027e+00
 -1.2890608e+00
 -4.4617357e+00
  6.4855866e+00
 -9.3470335e+00
 -5.8803425e+00
 -7.9187522e+00
 -5.7526493e+00
 -6.3248104e-01
  2.3615522e+00
  1.3369873e+00
  6.6984239e+00
  3.5299335e+00
  5.4076204e+00
  2.1384375e+00
  4.5340643e+00
  8.4246216e+00
 -4.7738276e+00
  4.7600389e+00
  4.7726564e+00
  1.1071664e+01
 -9.0039997e+00
 -4.1190467e+00
 -4.4514856e+00
 -3.1952133e+00
  8.8880024e+00
  4.9575934e-01
 -4.7145104e+00
  1.2132677e+00
 -2.9536111e+00
  3.8691597e+00
  2.8273258e+00
 -4.8562226e+00
  6.5760055e+00
 -3.8988135e+00
 -1.1217942e+00
 -4.2126989e+00
 -3.3117087e+00
 -1.8141185e+00
  3.8482946e-01
  2.1277719e+00
 -1.9341053e+00
 -1.8948065e+00
 -2.4832008e+00
 -5.4411733e-01
  4.5861425e+00
 -1.2642576e+01
 -5.7198038e+00
  3.0094593e+00
  7.4991927e+00
 -3.1181364e+00
 -2.7133081e+00
 -1.2503170e+01
  2.1415544e+00
 -3.4507625e+00
  7.3040690e+00
  1.0170496e+00
 -7.2902709e-02
  3.6369017e-01
 -2.4120629e+00
 -7.6407628e+00
  3.9693770e+00
 -3.2125738e+00
  2.7897117e+00
  3.9871006e+00
  6.5094347e+00
  3.0246511e+00
  9.8669233e+00
 -3.0871499e+00
  1.4285326e+01
  4.4919810e+00
 -3.7721789e+00
 -4.5654716e+00
 -5.6446071e+00
 -2.1039231e+00
  3.8272190e+00
  2.8912773e+00
 -1.2059586e+01
 -2.3405936e+00
  1.7522674e+00
  2.3413124e+00
  2.1693771e+00
 -2.1967256e+00
 -5.6518512e+00
  2.2959261e+00
  3.8383467e+00
  3.2452400e+00
  4.5753412e+00
  5.8205156e+00
  1.8684722e+00
  1.1243644e+00
  6.3317919e-01
 -2.2953489e+00
 -3.9570832e-01
  4.4493186e-01
 -4.7695011e-01
  6.1400104e+00
  8.7822304e+00
 -4.4977059e+00
  4.0263114e+00
  2.7467813e+00
  2.3324628e+00
 -5.0985102e-02
  2.1894459e-01
 -1.1019440e+00
 -5.8715110e+00
 -1.3296506e+00
  5.1931977e+00
  1.2032822e+00
 -3.9893195e-01
  2.8602145e+00
  1.0993246e+01
  4.4900970e+00
 -3.4525559e+00
  7.8616142e+00
 -4.6596618e+00
 -2.7267573e+00
  5.8409256e-01
 -1.8755856e+00
 -1.0788568e+00
  6.7351031e+00
  1.8283478e+00
  4.5986600e+00
  5.0050530e+00
  1.1864032e-01
  1.2902363e+01
 -6.0700073e+00
  4.7778821e+00
 -5.1658983e+00
 -1.2380375e+01
 -3.3994949e+00
  6.6318860e+00
  2.3632147e+00
  2.3488514e+00
  2.9471271e+00
 -6.1711395e-01
 -3.1078851e+00
  3.9759502e+00
 -4.0648770e+00
 -3.9454966e+00
  3.6691651e+00
  4.3965381e-01
 -3.3025262e+00
  6.6323841e-01
 -1.1157255e+00
 -2.1867492e+00
 -8.5171614e+00
  1.8733803e+00
  7.0938416e+00
  4.7204428e+00
 -6.8214500e-01
 -4.3155539e-01
 -9.6654530e+00
  8.0670595e+00
  7.6340003e+00
 -1.4441854e-01
 -1.5000744e+00
 -1.5910368e+00
  2.0157558e+01
  2.2479379e+00
 -1.6702151e+00
  5.4897661e+00
  6.6917124e+00
 -4.1494803e+00
  1.7722602e+00
 -3.5586233e+00
 -5.9267869e+00
 -9.2944098e+00
 -9.4852298e-01
  5.4301667e-01
  4.6353765e+00
  2.6861422e+00
 -9.3163910e+00
  2.9681832e-01
  1.3642058e+00
 -8.6514864e+00
  3.5395128e-01
 -7.8191131e-01
 -1.2240913e+00
  2.4550411e-01
  3.5687456e+00
  2.3111634e-01
  2.1479352e+00
 -7.6891460e+00
 -5.0611005e+00
  3.6470089e+00
  6.2515016e+00
 -3.4341162e-01
 -2.2230153e+00
 -2.2796452e+00
  7.2026463e+00
  4.2323169e-01
 -4.3536437e-01
  1.9710177e+00
  1.9246097e+00
 -3.2573206e+00
 -1.8755516e-01
 -5.3529329e+00
 -1.5195838e+01
 -9.4333134e+00
 -2.1730568e+00
 -2.6407938e+00
  3.6500659e-02
 -2.1561486e-01
 -6.1877108e-01
 -1.1902501e+01
  6.3983126e+00
  6.8979001e+00
 -2.7210608e-01
 -2.6920917e+00
  5.8198910e+00
  4.7974019e+00
  1.8836828e+01
 -8.1606274e+00
 -4.6321821e+00
 -3.4909592e+00
 -6.0811443e+00
 -1.4442964e+00
  1.2692294e-01
  4.2070050e+00
  6.4127102e+00
  1.6800929e+00
 -6.5071878e+00
  6.7547221e+00
  4.5501528e+00
 -5.5784450e+00
  3.6651938e+00
 -4.3975917e-01
  4.7695642e+00
  2.8839211e+00
  4.2261100e+00
 -1.2732055e+00
 -1.1118757e+00
 -2.3917067e+00
 -5.2675778e-01
  1.1745124e-01
 -8.6708546e+00
  3.3823590e+00
  6.1546934e-01
 -3.0427301e+00
 -1.3818278e+00
 -8.1778402e+00
  4.0358710e+00
 -5.1018219e+00
  2.7724729e+00
  3.0960398e-02
  1.9014014e+00
 -2.5951385e+00
 -1.7988437e+00
 -6.3726602e+00
  4.6405020e+00
  5.0914043e-01
  5.2256999e+00
 -8.2284222e+00
 -4.8628602e+00
 -6.1210160e+00
 -2.2296779e+00
  9.8965722e-01
  2.9978664e+00
 -8.2877511e-01
  1.7008334e+00
 -5.5023160e+00
  2.0772140e+00
  1.3664610e+00
  1.0792326e+01
 -3.9768870e+00
 -1.5873775e+00
  3.1694353e+00
  1.1706277e+00
 -1.3774356e+00
  3.0007229e+00
 -4.3976855e+00
 -1.3998965e+00
 -4.3788409e+00
  5.0664634e-01
 -1.8561642e+00
 -9.4208866e-01
  2.7082677e+00
  4.0051689e+00
 -8.7744933e-01
  3.1374314e-01
  7.6019611e+00
  2.4034224e+00
  9.5471159e-02
  4.7495084e+00
 -1.7626865e-01
 -3.0877235e+00
 -1.3973135e+01
  4.0392165e+00
  4.0935435e+00
 -8.7400490e-01
 -6.6965562e-01
  5.5215037e-01
  2.4326334e+00
  6.1755937e-01
  4.3843818e+00
  6.1208954e+00
 -6.5782362e-01
  6.1962032e-01
  9.8054657e+00
 -3.0556901e+00
  6.1174238e-01
 -5.8557796e+00
 -4.6856842e+00
 -3.1272092e-01
 -1.3977016e+00
 -3.3325350e+00
 -7.1150494e-01
  1.1211042e+00
 -4.9966416e+00
 -7.9276204e-01
  4.5884547e+00
 -5.0767651e+00
  4.4191446e+00
 -1.0876536e+01
  8.0426626e+00
  2.1548817e+00
 -1.1032973e-02
  4.9925427e+00
 -3.0707488e+00
 -5.2653933e+00
  4.9672322e+00
  8.2093954e+00
 -2.7908490e+00
 -7.4986041e-01
 -1.1167672e+00
 -5.4999948e-01
  5.2568960e+00
  3.3298702e+00
  1.4791969e+00
 -4.1151109e-01
  3.1361887e+00
 -3.8724977e-01
  8.4291510e-02
  3.1154141e+00
  3.5001397e+00
 -9.2938310e-01
  2.6851485e+00
 -4.3464613e+00
 -2.5489144e+00
  7.6446614e+00
  4.3466125e+00
 -2.1685348e+00
 -3.3792433e-01
 -1.4470931e+00
 -3.6285951e+00
 -4.7596850e+00
  1.5340707e+00
 -2.4328415e+00
 -9.2489119e+00
 -1.7344101e-01
  1.4049014e+00
  7.6109819e+00
  1.7677217e+00
 -7.3799591e+00
  5.2043443e+00
  9.3016319e+00
 -1.7127749e+00
 -1.1435796e+00
  1.0656935e+00
  1.1419988e+00
 -7.2833669e-01
  3.5597734e+00
 -4.4286771e+00
 -5.6496811e+00
 -1.0744098e+00
 -9.0935631e+00
  4.4327278e+00
  2.7750399e+00
  7.4631579e-02
  7.7032524e-01
  8.5622473e+00
 -3.0328763e+00
  3.2954299e+00
 -1.5728652e+01
  2.1709681e+00
  5.1255279e+00
 -7.0385990e+00
  6.8173113e+00
 -9.7394961e-01
  7.6411119e+00
 -4.2803316e+00
  4.7323802e-01
  5.8826494e+00
 -1.6819599e+00
 -7.5763524e-02
 -7.7526498e-01
 -2.1621346e+00
 -1.6837909e+00
 -4.5276065e+00
  4.0517364e+00
 -8.5292997e+00
 -2.1540105e+00
  1.7176247e+00
 -3.7231741e+00
  8.6392355e-01
 -9.1723604e+00
 -9.1194415e-01
 -3.5347664e-01
 -1.5613220e+00
  6.3177419e+00
  2.3679464e+00
  1.8496414e+00
 -3.0706227e-01
  3.2402861e-01
 -2.4873428e+00
 -9.9349445e-01
 -3.0187222e-01
 -2.1482337e-01
 -1.6121686e+00
  3.1837695e+00
  1.6756630e+00
  6.6318887e-01
 -1.1460062e+00
  1.2035608e+00
  9.8185730e-01
  4.8490575e-01
  4.4160891e+00
 -2.8643928e+00
 -7.4752817e+00
  8.4260616e+00
  4.8812466e+00
  4.0744605e+00
  6.3981271e+00
  6.6856136e+00
 -1.9197720e-01
 -1.9902351e+00
 -3.7608931e+00
  2.4179096e+00
  1.6318072e+00
  4.1928010e+00
  3.7832506e+00
  3.4999335e+00
  1.2634441e+01
 -3.1460282e-01
 -5.1380801e-01
  4.5814781e+00
 -2.6553707e+00
 -1.0938932e+00
  5.8924270e+00
  4.8353062e+00
 -1.7964240e+00
 -1.4363061e-01
  3.6903725e+00
  5.3602452e+00
  4.0244656e+00
  1.1910883e+01
 -8.3665686e+00
  1.8575041e+00
  1.0037032e+00
 -4.0015278e+00
 -9.7505724e-01
 -4.1875839e+00
  3.2996843e+00
 -1.1437588e+00
 -9.5997566e-01
 -1.2713038e+00
 -7.9160474e-02
  3.9399569e+00
  1.4237589e+00
  3.9591470e+00
  6.8295093e+00
  2.7470958e+00
  4.6398965e-01
 -1.5519391e-01
  5.4373131e+00
 -3.2158408e+00
 -7.6846237e+00
 -9.1058006e+00
  1.2915466e+00
  6.6549153e+00
 -4.8668318e+00
  8.2367210e+00
  6.0984607e+00
 -5.4941835e+00
  1.7765347e+01
  2.0274858e-01
  3.9748833e+00
  1.8136953e+00
  1.6780672e+00
  5.2174315e+00
 -5.3593677e-01
  4.2422371e+00
 -4.6154175e+00
 -8.3509403e-01
 -4.0002699e+00
  5.8568969e+00
 -4.0567064e-01
 -2.9871802e+00
 -2.7134330e+00
 -1.6587367e+00
  3.8724132e+00
  1.5844926e+00
  8.7680596e-01
 -5.6411300e+00
  1.0254055e+01
 -4.5119081e+00
  5.5867820e+00
  2.6480634e+00
  8.0972862e+00
  6.1953893e+00
 -4.3994576e-01
 -5.7241011e+00
  3.9663155e+00
  4.3223424e+00
 -1.8852671e+00
 -3.0171249e+00
  2.7086356e+00
 -5.3544331e+00
  3.4469740e+00
 -4.8027945e+00
  1.5433022e+01
 -4.8602223e+00
  4.4985862e+00
 -4.4341650e+00
 -1.4460101e+00
  2.9753752e+00
  2.7267406e+00
 -2.2154847e-01
 -1.1699727e+00
 -4.2221785e+00
 -1.2556453e+00
  8.3149052e+00
 -5.1363139e+00
  1.7243032e+00
  2.8341934e-01
 -1.0067071e+00
  8.7923994e+00
 -3.4450388e+00
 -9.2913666e+00
 -2.3827050e+00
  9.4082302e-01
 -4.9027485e-01
  4.8935428e+00
 -1.8193431e+00
  1.8806077e+00
  2.9924355e+00
  4.2418823e-01
  2.1325183e+00
  4.9519162e+00
  7.3348427e+00
  6.7117208e-01
  2.3617704e+00
  7.6810670e+00
 -1.7334107e+00
  4.1962731e-01
  1.7168030e+00
 -3.9917481e+00
 -3.5494101e+00
  7.5715094e+00
 -5.1835652e-02
  4.7021389e+00
 -3.0601630e+00
 -1.8663992e+00
  5.8610268e+00
 -5.4033918e+00
 -2.6289861e+00
  1.6932824e-01
 -3.3718174e+00
 -4.3699646e+00
  6.5011024e+00
 -1.5851629e+00
  1.5391643e+00
 -4.8254151e+00
  2.1118264e+00
  3.5742934e+00
 -3.4107310e-01
  6.5462232e+00
  1.2073200e+00
  4.5383096e-02
 -5.5718076e-01
 -1.3643986e+00
  6.2847962e+00
  4.8273748e-01
  2.1415062e+00
 -5.9131742e-01
 -8.9378893e-01
 -2.2818267e+00
  5.2967324e+00
 -7.3902357e-01
  2.8423998e+00
 -4.4041266e+00
 -4.6104054e+00
  1.4955779e+00
  7.8656945e+00
  1.0552130e+00
 -2.1554403e+00
 -7.2490859e+00
  4.7966671e-01
 -3.2379923e+00
  5.4476686e+00
  4.6521230e+00
 -2.5618420e+00
  3.3218095e+00
  5.2505374e+00
  2.2099659e+00
 -7.9129429e+00
  4.5873055e+00
 -7.3715634e+00
  2.6694247e-01
  1.0225060e+01
 -2.3921978e-01
  2.3442190e+00
 -8.6681328e+00
 -7.5892043e-01
 -5.3560958e+00
  4.8111475e-01
 -9.3837137e+00
 -3.5056620e+00
 -1.6189380e+00
 -6.5157682e-01
  3.4724402e+00
  6.9296961e+00
 -2.1809993e+00
 -1.0020724e+01
 -2.1269484e+00
 -3.4304307e+00
 -9.4201607e-01
  2.7290518e+00
  3.4259219e+00
  1.6346366e+00
  1.8646326e+00
 -2.6770692e+00
 -1.5862828e+00
  2.8466549e+00
  5.1475382e-01
  7.1269302e+00
 -6.9580770e+00
  5.7987838e+00
 -3.5114932e-01
  1.4358394e+00
 -7.4129753e+00
  9.4786346e-02
  1.2971869e+00
 -1.1540434e+00
 -6.3201280e+00
  5.6158319e+00
 -1.3676172e+01
 -2.9877903e+00
 -1.3159480e+00
 -2.4670753e+00
  4.5834735e-01
  1.0318812e+00
  2.7679434e+00
  5.1061072e+00
  2.5664608e+00
  2.4368982e+00
  3.4874830e+00
 -4.6460223e+00
 -4.2305250e+00
 -3.2608886e+00
 -3.4680462e+00
 -1.2189864e+00
 -3.2200429e+00
  8.7192470e-01
  1.2181447e-01
 -7.3902121e+00
  5.1910430e-02
  3.1444454e+00
 -1.7430180e-01
  4.8912301e+00
 -2.8021169e+00
 -6.3699029e-02
  5.4560900e-01
  9.3167114e+00
 -3.0817175e+00
  1.0980024e+01
 -1.5341387e+00
 -3.0512981e+00
  3.0918056e-01
 -2.3449824e+00
  3.9442987e+00
  1.3259124e+00
 -1.9068480e-01
 -3.0057275e+00
  2.3459980e+00
  5.7362658e-01
  2.7434196e+00
 -4.5366731e+00
 -6.5062094e+00
  3.6564856e+00
  1.1466120e+00
  4.0894070e+00
  2.2346780e+00
  4.1717653e+00
 -2.0272658e+00
 -3.2824385e+00
 -3.0708880e+00
 -3.0697017e+00
  2.7007875e+00
 -9.1992021e-02
  2.4187241e+00
 -8.9190826e+00
 -3.1760743e+00
 -3.2108760e+00
 -5.5987463e+00
 -4.6818585e+00
 -6.6391540e-01
  4.2732716e+00
 -3.7192655e+00
 -3.5733199e+00
 -8.1054938e-01
 -3.2510524e+00
  5.9483242e+00
 -1.2211377e-01
  6.5995240e+00
 -8.3874931e+00
 -1.6483132e+00
  3.3945832e+00
  1.2913142e+00
 -1.1164851e-01
  2.1451669e+00
  1.3741779e+00
 -1.4769976e+00
  3.1449637e+00
 -2.6190956e+00
  1.1701720e-01
  5.0618796e+00
  2.8675649e+00
 -4.1887064e+00
 -6.6921520e-01
  5.1679602e+00
  3.5463574e+00
  3.6232347e+00
 -2.8545973e+00
  5.9754282e-01
 -3.7968071e+00
  2.3670154e+00
  7.1905541e-01
  3.1975193e+00
 -3.9256167e+00
 -1.8539265e+00
  3.0166361e+00
 -5.1939697e+00
 -1.4583312e+00
 -2.8685262e+00
  7.3398857e+00
  1.9235129e+00
  5.2011460e-01
  2.5962324e+00
  7.3671780e+00
 -4.9871926e+00
 -4.1097936e-01
 -2.1896591e+00
 -9.8015821e-01
 -7.3372889e+00
  4.7634158e+00
 -1.9081848e+00
  3.7039161e+00
 -1.7211094e+00
  1.7174214e+00
 -7.1685278e-01
  9.9412136e+00
 -3.3158915e+00
  2.1063187e+00
  5.0686378e+00
 -1.0485722e+00
  4.4720414e-01
  1.9322772e+00
  2.5203505e+00
  2.8342581e+00
 -5.3274865e+00
 -1.8116651e-01
 -2.9457173e+00
  3.7494953e+00
  9.6308737e+00
  3.0795188e+00
  9.0084791e+00
  1.2654050e+01
  2.2027272e-01
  5.9672099e-01
  9.7497892e-01
  6.2112350e+00
  2.0590262e+00
 -2.3716753e+00
  2.0256441e+00
  1.9191673e-01
  9.8964679e-01
 -6.4890456e+00
 -3.2312503e-01
 -2.9575634e+00
 -2.1158721e+00
 -4.9444500e-01
 -1.7239790e+00
 -6.0378575e+00
  3.0840981e+00
 -4.0422013e-01
  1.8012710e+00
  3.3814340e+00
 -5.6132021e+00
 -1.0371242e+00
 -6.3479285e+00
  1.3752102e+00
  3.0901546e+00
 -4.6960917e+00
 -1.4255520e+00
 -4.9261165e+00
  1.0472746e+00
 -5.0060296e-01
 -1.9603469e+00
 -3.6357093e+00
 -4.1096158e+00
  1.8265185e+00
 -1.6978841e+00
  5.5928731e-01
 -2.1861632e+00
  7.2857213e-01
  1.8599601e+00
  6.6380316e-01
 -1.7119137e+00
 -2.1521394e+00
 -5.5101056e+00
 -1.0721321e+00
  1.9391605e-01
  4.2696443e+00
  5.8683386e+00
 -5.0230527e+00
  4.3861632e+00
  1.7916121e+00
  2.8522549e+00
  6.7523012e+00
 -3.0489182e+00
  1.6788532e+00
 -3.4816406e+00
  3.4470379e+00
  8.2071131e-01
  7.6921475e-01
 -4.7515106e+00
  4.8582277e+00
 -5.7300510e+00
 -6.2748113e+00
  4.4435058e+00
  2.1374844e-01
  4.0033517e+00
  2.3029423e+00
  5.2064052e+00
 -1.6848439e-01
  3.4671710e+00
 -2.0338852e+00
 -3.5217240e+00
  1.9248693e+00
 -1.1289377e+00
 -1.0023579e+01
 -8.4864324e-01
  1.3968798e+00
  2.0660901e+00
 -1.7672174e+00
 -2.7412230e-01
  7.6579714e+00
 -2.9231298e+00
  6.7881542e-01
  3.9115894e-01
  3.1274862e+00
  1.2355392e+00
 -6.7554984e+00
  5.0353284e+00
 -1.1327177e+00
  9.9813646e-01
 -5.3227258e+00
  2.1023808e-01
 -2.6183524e+00
 -3.3405657e+00
 -2.5843358e+00
 -2.5670440e+00
  1.9144657e+00
  1.4638754e+00
 -2.6703038e+00
  4.0761371e+00
 -8.6418877e+00
 -2.3738558e+00
 -4.0829048e+00
 -6.4582723e-01
  2.5783539e+00
  2.4181936e+00
  1.4727448e+00
  3.2298315e+00
  1.3781776e+00
  6.2280025e+00
 -5.3123158e-01
  2.0837023e+00
 -5.6570182e+00
  3.2088528e+00
 -4.3339534e+00
  1.1977276e+00
 -5.5330052e+00
  5.5030179e+00
 -2.1715405e+00
 -3.4144180e+00
  1.1473386e+00
  8.2020674e+00
  5.3533964e+00
  2.8689995e+00
 -2.6651421e+00
  3.6305285e+00
  4.0913177e+00
  1.6430154e+00
  4.6820993e+00
 -6.3667731e+00
 -1.4153029e-01
  2.1377776e+00
 -7.8017712e+00
  1.3175635e+00
  1.6983116e+00
 -5.5179095e+00
  2.0379150e+00
  5.6854391e-01
  8.8096577e-01
 -2.5691547e+00
  5.8082933e+00
  4.0983601e+00
 -3.4988856e+00
 -3.9112370e+00
 -8.1144190e+00
  2.6637311e+00
 -2.8310218e+00
  1.6019733e+00
 -2.2675540e+00
  2.4981819e-01
 -4.5501394e+00
 -1.6851230e-01
 -3.5351506e-01
 -4.4793229e+00
  9.6102715e-02
 -3.5633404e+00
 -1.4614846e-01
  2.2406464e+00
  1.0067149e-01
  6.1063871e+00
 -1.0797737e+00
  2.8453104e+00
  1.4738272e+00
  1.6606417e+00
  7.2805562e+00
 -4.5791152e-01
 -4.4529715e+00
 -2.0795085e+00
  5.5218239e+00
 -2.4349792e+00
  2.1213822e+00
  7.6290798e+00
  3.1243923e+00
 -4.5017414e+00
  3.1890104e+00
  4.1543565e+00
 -3.3637154e+00
  1.1562809e+01
 -3.5873528e+00
  2.7515407e+00
  5.7324362e+00
  5.6943464e+00
 -1.2546396e-01
 -5.7922549e+00
  4.4198961e+00
  4.7692485e+00
 -7.1471882e+00
  4.5588465e+00
  5.5654192e+00
  1.4883960e+01
  4.3838701e-01
  4.4974484e+00
  5.4000850e+00
 -3.4057910e+00
 -3.3171508e+00
 -1.3349872e+00
 -3.5185568e+00
  5.1904600e-03
 -4.6983892e-01
 -4.4587078e+00
  3.6619165e+00
 -2.2957206e-01
 -4.2495337e+00
  1.2187285e+00
 -7.7191091e+00
 -2.9910967e+00
  1.9150419e+00
  1.5894669e+00
  9.9264121e-01
 -1.2067291e+00
 -7.7411377e-01
  3.1391719e-01
 -3.3114856e-01
 -5.1842699e+00
 -6.4346319e-01
  3.7667780e+00
  3.1266050e+00
 -6.3020945e+00
  5.0175285e+00
 -1.0974676e+01
 -3.6075225e+00
 -5.4546208e+00
 -1.1462352e+00
 -2.3369975e+00
 -1.6216392e-02
  1.1431741e+00
  4.6734643e+00
  3.8798537e+00
 -8.3664346e-01
 -2.1799526e-01
 -5.9943118e+00
  1.4501884e+00
 -5.7782269e+00
 -4.6513479e-02
 -5.8667130e+00
  3.4401298e+00
  1.2387481e+00
  3.7805042e+00
 -4.7111917e+00
 -3.2108381e+00
  7.7863234e-01
  3.2979116e+00
  2.2238848e+00
 -1.4193227e+00
  2.2548649e+00
 -3.2312872e+00
 -2.9080577e+00
  1.9824449e+00
  5.0097448e-01
  2.1214840e+00
  3.4231708e+00
  3.1652710e+00
  1.4840700e+01
  9.8343229e-01
  8.9187753e-01
 -3.1838014e+00
 -1.0119263e+00
 -2.6554421e-01
  8.7617315e-02
 -1.4306483e-02
  4.8262253e+00
 -2.8770759e+00
  3.2799878e+00
 -1.4434780e+00
 -3.7580578e+00
  7.0820224e-01
  1.3734317e+00
  2.5514815e+00
  9.0982425e-01
 -2.0486565e+00
 -3.1341178e+00
  1.8726585e+00
  2.8168755e+00
 -6.0164490e+00
 -2.1844990e+00
  5.3692698e+00
  5.2560687e+00
 -3.2026191e+00
 -1.9787558e+00
  4.6773367e+00
 -3.2877438e+00
 -1.6960104e+00
 -1.4922655e+00
 -5.4948258e+00
  3.6699510e-01
 -1.6451512e-01
 -5.6197768e-01
  2.8985722e+00
 -4.3657479e+00
 -1.7925816e+00
  7.8133545e+00
 -5.8090692e+00
 -2.0421512e+00
  5.9101343e+00
  1.9450755e+00
 -6.5601029e-02
  6.1252069e+00
 -1.9488021e+00
 -3.0529228e-01
 -5.7171589e-01
 -6.1734204e+00
 -5.8566999e+00
 -2.5175934e+00
 -3.8204167e+00
  1.3470827e+00
  2.1280551e+00
  5.4314365e+00
 -5.1068598e-01
 -1.2730474e+00
  1.4091938e+00
  9.5121813e+00
  5.8021867e-01
 -2.0917079e+00
 -2.3175076e-01
  1.8649761e-01
  1.4495043e+00
 -8.4138107e-01
 -2.6569958e+00
 -1.5716298e-01
  5.0504742e+00
 -2.5156846e+00
  2.3139246e+00
  3.7281880e+00
 -3.0295506e+00
  6.2778020e+00
 -9.6345496e-01
 -2.2655693e-01
 -3.9856231e+00
  8.2240921e-01
 -2.4922498e-01
 -1.1498169e+01
  3.9898310e+00
 -4.2663240e+00
  5.8181353e+00
 -1.3039128e+00
  7.4086151e+00
  7.1240582e+00
  5.2462363e-01
 -4.9983969e+00
  2.2950766e+00
  2.0950234e+00
  9.1469841e+00
  4.7981706e+00
  1.8040075e+00
 -1.5846932e+00
 -7.7747045e+00
  6.0747218e-01
 -1.0147851e+00
 -6.5208817e-01
  7.3681575e-01
 -1.8234842e+01
  2.0817358e+00
  4.0552673e+00
 -8.8134975e+00
 -7.8811245e+00
  2.3993967e+00
 -8.8945121e-01
 -4.9915280e+00
 -4.8101754e+00
  1.7337164e-02
  3.0968153e+00
  2.6839502e+00
  3.0790641e+00
 -4.3917575e+00
 -4.6574540e+00
 -4.7077637e+00
  4.9768138e+00
  3.6892083e+00
  3.8814697e+00
 -6.8749733e+00
 -2.4182234e+00
  6.1682010e+00
  3.1715112e+00
  3.7492778e+00
  1.5665457e-01
 -9.5776850e-01
 -1.2122166e-01
 -2.7428308e+00
 -6.1960161e-01
  9.1595020e+00
  3.9669945e+00
  4.3290448e+00
  7.6673193e+00
  1.9394220e-01
 -3.2978568e+00
 -1.2482009e+00
 -1.0395418e+00
  7.0533884e-01
  6.1150479e-01
  6.7203760e-01
 -7.7490964e+00
  4.6365800e+00
 -9.5377617e+00
 -4.1415000e+00
 -6.4550452e+00
  5.0865656e-01
  2.0488770e+00
 -1.3235689e+00
  4.0415068e+00
 -6.2771392e-01
  7.0334816e+00
 -5.0423269e+00
 -2.8022506e+00
 -2.6301892e+00
 -7.4011669e+00
  7.9922843e+00
 -3.5939853e+00
 -3.3433185e+00
 -4.7665203e-01
 -3.8829937e+00
 -1.1706747e+00
 -7.6616162e-01
  4.3884130e+00
  1.2862376e+00
  1.5263221e+01
  2.3931577e+00
 -2.2856688e+00
  5.9382278e-01
  3.2678988e+00
  9.9277753e-01
 -5.1496296e+00
 -2.9374382e+00
  8.0053139e-01
 -3.8006985e+00
 -3.8025613e+00
 -7.9664683e+00
  5.5865198e-01
 -2.0075363e-01
 -1.8430765e+00
 -5.9005046e+00
 -2.2834656e+00
  1.5608428e+00
 -1.2181188e+00
  3.0244627e+00
  2.1364598e-01
  1.3586112e+00
 -1.0430114e+00
  3.9376125e+00
  3.6986763e+00
  7.4925877e-02
  1.6445782e+00
  2.0045264e+00
  1.1447446e+00
 -2.9589007e+00
 -6.1922779e+00
 -4.9866626e-01
 -3.3974867e+00
  3.3544016e+00
  2.4317910e-01
 -2.5047531e+00
  2.8129044e+00
 -4.0871015e+00
  7.1386442e+00
 -1.0526486e+01
 -9.4104347e+00
  7.2448392e+00
  6.1975837e+00
  4.8235598e+00
 -5.8492315e-01
  2.6107588e-01
  7.0652275e+00
  1.3170979e+00
  1.4096924e+00
 -2.7804050e-01
 -6.4180350e-01
 -1.1604124e+01
  3.8020167e+00
  5.3556719e+00
  1.1152438e+00
  2.3098974e+00
  2.5097072e+00
 -2.0826876e+00
 -6.8079615e-01
  3.1453874e+00
 -5.0695753e+00
  2.0701104e-01
 -3.6573851e-01
 -1.8034070e+00
  1.8078805e+00
 -2.3341787e+00
 -5.2568588e+00
  3.4243102e+00
 -5.1453261e+00
  9.0095598e-01
 -6.5574446e+00
 -5.4211760e+00
  8.3858547e+00
  6.1275706e+00
 -8.3743328e-01
  2.0959685e+00
  1.7837247e+00
 -7.0110369e-01
 -1.3420286e+01
  4.3135476e+00
 -2.0003603e+00
  2.7040567e+00
 -1.9217615e+00
  6.4603806e+00
 -1.2493696e+00
  1.6577499e+00
 -6.4628382e+00
  1.6332301e-01
  1.6786133e+00
  6.9447249e-01
 -1.2731932e+00
 -1.7438917e+00
 -1.4128381e+00
  1.9980603e+00
 -5.5040994e+00
 -3.1871042e+00
 -9.1979527e-01
  1.2413410e+00
  3.8873926e-01
  7.7973920e-01
 -3.6856248e+00
  3.6745217e+00
  3.0961924e+00
 -1.2893428e+00
  4.0036467e-01
  3.2369211e+00
  4.0606251e+00
  5.8083355e-01
 -1.2329664e+00
 -3.6572554e+00
  4.4794869e+00
  5.5291134e-01
 -2.3019559e+00
  5.9055114e+00
  1.3419794e+00
  1.4538435e+00
  8.9329857e-01
  4.7807851e+00
 -1.2341708e+00
 -3.9421706e+00
 -1.2277992e+00
  1.7616246e+00
 -3.2426207e+00
 -3.7618420e-01
  1.8855536e+00
  2.4659673e-02
  8.3010330e+00
  6.3887715e+00
  2.2416651e-01
  1.4598830e+00
  1.8599216e+00
 -2.9297669e+00
  4.9006748e+00
  1.2971638e+00
 -1.1564629e+00
 -2.0314960e+00
  7.0259280e+00
 -6.0169425e+00
  2.2666643e+00
  2.9315727e+00
 -9.5493164e+00
  1.0712473e+00
  1.6520307e+00
 -5.8055627e-01
  7.8369570e+00
  2.0153060e+00
 -2.7538924e+00
  4.8974295e+00
  4.2224312e+00
 -9.0204182e+00
  4.0971265e+00
 -4.5816779e+00
  3.3135350e+00
 -1.3546288e+00
  3.7246343e-01
  1.5591582e+00
  1.2651012e+00
 -7.4581230e-01
 -4.4506617e+00
 -4.8497662e-02
 -1.9177212e+00
  3.3326755e+00
  5.0554299e+00
 -2.2496321e+00
 -6.5041745e-01
 -8.6415310e+00
  3.2197157e-01
  2.3849924e-01
  6.0054857e-01
 -9.1340628e+00
 -1.4143820e+00
  1.0102439e+01
 -2.7569187e+00
 -4.7241911e-02
 -2.6826024e-01
  2.7210803e+00
  8.9159089e-01
  2.3102634e+00
  1.7619768e+00
  6.2995210e+00
  4.2707920e+00
 -1.9805895e-01
 -5.2780643e+00
  2.9722850e+00
  2.1906333e+00
  2.0754898e+00
  5.1244206e+00
  5.6932640e+00
  3.3314734e+00
 -1.6416945e+00
  3.9245965e+00
  3.5095885e+00
  1.5614757e-01
  1.4353723e+01
 -9.9493539e-01
  1.2698033e-01
 -3.5951700e+00
  9.1820627e-01
  7.7544999e+00
 -1.1682423e+00
  1.6378472e-02
 -4.0123253e+00
 -1.0013292e+00
  1.1722683e+00
 -5.2218280e+00
  5.5484724e+00
  3.9688871e+00
  1.0861391e+00
 -7.1766782e+00
 -3.6198671e+00
  4.4537349e+00
  6.1644650e+00
  3.1031544e+00
  8.5238504e-01
 -3.3615894e+00
  6.2805033e+00
  4.4313974e+00
  3.3304880e+00
  1.6545639e+00
  3.1892967e+00
 -4.2160873e+00
  2.0461464e+00
 -8.5648355e+00
  1.3631974e+00
  5.1189890e+00
 -1.1376240e+00
  4.9732466e+00
 -3.8909721e+00
  1.0486480e+00
  5.9402032e+00
 -5.9352255e+00
 -3.4529018e+00
  4.6311684e+00
  4.4231982e+00
  6.6152382e+00
 -9.2161947e-01
 -3.2586272e+00
  3.8307204e+00
 -2.7296174e+00
 -3.2677400e+00
  2.5882940e+00
 -2.0896809e+00
 -1.1000137e+00
  3.9045280e-01
  9.7831888e+00
  4.8101964e+00
 -9.2708975e-01
  1.8795547e+00
  9.4023438e+00
 -2.3966057e+00
 -1.0409654e+00
 -2.8683615e+00
  3.8625410e-01
  1.8718351e+00
 -5.2818017e+00
  1.4980552e+00
  1.4969506e+00
  8.8404691e-01
  8.9708142e-02
 -2.3748390e-01
 -7.2428460e+00
  7.4449921e+00
 -5.2686992e+00
  5.4340844e+00
 -4.6958842e+00
 -2.0640538e+00
 -7.7488995e-01
  1.9477652e+00
 -1.6189952e+00
 -1.8019898e+00
 -5.6327524e+00
  3.4651980e+00
  9.8503351e-01
  9.9581165e+00
  5.7314438e-01
  3.9713566e+00
 -1.1281437e+00
 -6.7195004e-01
  5.2431655e-01
  2.2160752e+00
  4.3781325e-01
 -7.4825697e+00
  1.1091346e+00
 -7.9123344e+00
 -8.2247057e+00
 -1.5254730e-01
 -2.2357454e+00
  5.1968822e+00
 -4.2745800e+00
 -1.2445871e+00
  2.4625969e+00
  2.0640745e+00
 -9.0372437e-01
 -4.4191871e+00
 -4.1955953e+00
  2.9794447e+00
  3.5848477e+00
  3.3538365e+00
  3.5126960e+00
  1.0512300e+00
 -3.6023459e-01
 -1.8745746e-02
  3.4954689e+00
  5.4676709e+00
  2.3839290e+00
 -3.8638663e+00
 -2.1869837e-01
  2.3871775e+00
  5.6698737e+00
 -3.2254560e+00
 -1.3367891e+00
  1.6609807e-01
 -9.2002077e+00
 -5.5352054e+00
 -3.2956922e+00
  2.9679511e+00
 -5.0492105e+00
 -1.8339560e+00
  3.3119106e+00
 -3.2533765e+00
  5.5689895e-01
 -3.7802804e+00
  8.4784317e+00
  8.7032753e-01
 -7.5030913e+00
 -7.0778966e+00
  3.7270944e+00
  3.0930157e+00
  7.0587027e-01
  1.7550128e+00
  2.6798573e+00
  4.7522564e+00
  9.8525441e-01
 -6.3468504e+00
  3.8534522e+00
 -5.1417613e-01
  1.3660951e+00
 -1.1524858e+00
 -4.0704986e-01
  4.6068044e+00
 -6.1835909e+00
 -1.9164941e+00
  1.5156176e+00
  1.5763551e+00
  1.7197893e+00
  5.7431424e-01
 -5.2241306e+00
  9.1190481e-01
 -1.8786764e+00
  1.0850041e+00
  1.9675016e+00
  1.1255207e+00
  4.1053371e+00
  4.8290806e+00
 -1.3667359e+00
  8.8863063e-01
  5.2441669e-01
 -1.0394027e+00
  5.4095917e+00
 -7.1161038e-01
  7.5952253e+00
  2.1053462e+00
 -2.7161787e+00
 -6.1454997e+00
 -3.9034700e+00
  9.0840828e-01
 -5.1888151e+00
 -2.8658257e+00
  1.4080814e+00
  1.0298742e+00
  7.4044747e+00
  6.7312751e+00
 -3.7064251e-01
 -3.2166004e-01
 -2.4009929e+00
 -1.4069440e+00
 -4.5553770e+00
  1.8238709e+00
  3.0488080e-01
 -1.8429375e+00
  2.9285834e+00
  7.2887707e+00
  2.3965986e+00
 -6.1143217e+00
  2.9411597e+00
 -6.4511949e-01
 -6.3003504e-01
  5.0499725e+00
  2.7521868e+00
 -5.4034147e+00
 -7.6268047e-01
  4.6513361e-01
  1.9823713e+00
 -5.8390841e+00
  2.5120554e+00
  5.2158890e+00
 -1.5583774e+00
 -1.0762669e+00
 -9.6844882e-01
 -2.0387678e+00
  6.9562559e+00
 -4.7439475e+00
 -3.5366993e+00
  2.4540718e+00
 -2.3663187e-01
 -3.6205244e-01
  1.3090899e+00
  1.3374349e+00
  6.1863356e+00
 -1.0520273e+00
  3.5692959e+00
 -1.4684243e+00
 -2.4612570e+00
  1.1229414e+00
  2.1747513e-02
 -3.3733752e+00
  6.9065828e+00
 -2.0846946e+00
  1.0113569e+00
 -5.8977526e-02
  1.1534004e+00
  3.2990649e-01
  2.2861586e+00
  1.8406482e+00
 -8.8158762e-01
  2.0067019e+00
 -3.4868836e+00
 -4.1090407e+00
  5.6748619e+00
  1.7555931e+00
 -2.7726266e+00
 -1.1975732e-01
 -3.9906473e+00
 -3.0200782e+00
  4.2825751e+00
 -4.0861177e+00
  4.2293830e+00
 -3.3277860e+00
  9.3412560e-01
  3.1805050e+00
 -1.3138925e+00
 -8.3033190e+00
  7.1616249e+00
  6.7328089e-01
  4.8222003e+00
 -2.7523115e+00
  1.7706258e+00
 -1.5865122e-01
  7.4756269e+00
 -3.6391833e+00
 -6.0434036e+00
  8.4497442e+00
 -5.1362596e+00
 -1.1148117e+01
 -5.5832810e+00
  6.9737954e+00
 -1.1324227e+01
  3.6567633e+00
 -1.4776721e+00
  4.0632749e+00
  4.5868707e+00
 -2.5097344e+00
  2.6067662e+00
 -4.2606487e+00
 -1.7710808e-01
  1.8918796e+00
 -4.4912715e+00
 -3.3426225e+00
 -1.1258064e+01
 -1.1255120e-01
 -3.0667577e+00
  6.6927195e+00
  6.0576620e+00
  5.8850904e+00
  3.6601391e+00
  2.0653954e+00
  1.3276625e+00
 -2.5466225e+00
  1.4964179e+00
  4.7627434e-02
 -1.0422866e-01
  5.2377062e+00
  6.2767529e+00
  4.1981858e-01
 -5.2862535e+00
  1.2376699e+00
 -7.8147159e+00
  1.8380762e+00
 -5.9784923e+00
  3.3383659e-01
  1.9863422e+00
  4.1465592e+00
  5.0016422e+00
 -7.0064282e-01
 -2.8146088e+00
 -7.9694524e+00
  1.3757006e+00
  7.9439670e-01
 -1.9001589e+00
  7.9999316e-01
 -3.3817670e+00
 -1.2268344e+01
  9.8766975e+00
  5.3712087e+00
 -5.3429674e-02
  3.3923525e-01
  7.7314296e+00
 -2.2203574e+00
  3.5121939e+00
  2.8670609e+00
 -1.3162394e+00
  3.1149465e-01
  2.8214350e-01
 -5.1759589e-01
  4.9497752e+00
 -2.6414084e+00
  1.0471858e+00
  2.3824491e-01
  7.4756044e-01
  2.8551235e+00
 -3.0527458e+00
 -4.8542099e+00
  3.2907026e+00
 -6.6782360e+00
  7.4951154e-01
  8.0157059e-01
 -5.5276122e+00
 -1.7132885e+00
  5.7172232e+00
  1.7001402e+00
  5.2688766e+00
 -1.1230103e+00
  6.0791569e+00
 -2.4852388e+00
 -9.7537763e-02
 -4.0860558e+00
  2.4260147e+00
 -2.5307745e-01
  9.1028290e+00
 -1.8582458e+00
 -2.9262155e-01
  8.2869357e-01
 -2.0981951e+00
 -3.7014428e-01
  6.0144787e+00
 -4.1387725e+00
 -8.6241919e-01
 -4.2471457e+00
 -2.4517941e+00
 -1.4447095e+00
  5.6442666e+00
  8.5956373e+00
  1.3978592e+00
  5.9996939e+00
 -7.8467965e+00
 -3.0505821e-01
  6.0373344e+00
 -7.1689188e-01
  5.2168531e+00
  3.3429303e+00
 -2.9379041e+00
 -5.4103527e+00
  4.1722021e-01
  1.0870957e+00
  3.4054863e+00
  2.3438690e+00
 -1.6184831e+00
 -1.1608378e+00
 -2.1119757e+00
  1.5143337e+00
 -7.7036700e+00
  6.0209226e-02
  4.8183188e+00
  7.5546393e+00
 -1.1555244e+00
 -3.6629205e+00
 -3.2621410e-02
 -8.8363603e-02
 -2.1202950e+00
 -2.7508876e+00
 -3.7688544e+00
 -4.5825305e+00
 -1.1162346e-01
 -6.2821275e-01
  3.0237899e+00
 -6.5996375e+00
  7.5377500e-01
  1.3657794e+00
  1.8897820e+00
  6.7351103e+00
 -3.8802743e+00
  5.6742206e+00
 -2.7811580e+00
  2.0819142e+00
  1.9431479e+00
 -8.6502991e+00
 -8.8999942e-02
 -7.6628810e-01
  4.9761152e+00
 -1.1883986e-01
 -5.7483773e+00
  6.4945102e+00
 -1.5322204e+00
 -1.9285222e+00
  9.8767834e+00
  5.8271915e-01
  3.0855520e+00
  1.8401278e+00
 -1.7718079e+00
  1.3929155e-01
  5.4648895e+00
  4.6575928e+00
  1.8025486e+00
  3.5473180e+00
 -1.6692269e+00
 -4.2885242e+00
 -6.6059631e-01
  9.0750229e-01
  3.3157187e+00
 -1.0171619e+01
 -4.8892550e+00
 -3.8160947e-01
 -4.5770994e-01
 -1.0645074e+00
 -6.0450587e+00
 -3.9924684e+00
  8.8742399e+00
 -1.9071846e+00
 -6.2096210e+00
 -3.2359399e-02
 -6.7697196e+00
 -1.2898905e+00
 -2.8782823e+00
  4.8686102e-01
 -2.7159643e+00
 -2.4639668e+00
  1.5176572e+00
 -8.4946811e-01
  6.0781324e-01
 -2.4576921e-02
  9.6359384e-01
  6.5365586e+00
  1.1824590e+00
 -6.3903351e+00
  6.4321113e+00
 -1.8897057e-02
 -4.8845553e+00
  5.0468731e+00
 -3.2767932e+00
 -4.1956811e+00
 -1.2214714e-01
  1.8760012e+00
 -2.5463338e+00
  7.4064074e+00
 -7.6376110e-01
 -4.5485768e+00
  3.1983180e+00
 -4.9776268e+00
 -7.3353715e+00
  2.3540468e+00
  4.7864246e+00
 -2.4537692e+00
 -3.0546167e+00
  3.3210173e-01
  3.4308219e+00
 -9.5151544e-01
  7.7071869e-01
 -3.2418087e+00
 -1.1038594e-01
 -5.5999060e+00
  4.7295489e+00
 -4.4242024e+00
  2.8552520e+00
 -6.3378684e-02
  7.5363731e+00
  4.7926307e+00
 -1.5031571e+00
 -1.6016444e+00
 -6.4312506e+00
 -7.6832352e+00
 -1.4115920e+00
 -6.9872755e-01
  1.0652296e+01
 -2.9119518e-01
 -2.5424758e-01
 -1.1584892e+00
 -4.1141987e+00
  2.7825813e+00
 -6.2232214e-01
  1.0697701e+00
 -1.1049755e+00
  4.5849280e+00
  6.3958945e+00
  1.0172433e+00
 -1.8496102e+00
 -4.8266673e+00
  4.3046851e+00
 -1.6366875e-02
  1.8217634e+00
  1.8437521e+00
 -4.2447439e-01
  1.3726887e+00
  7.9012413e+00
  3.2149508e+00
 -4.2504125e+00
  7.4319739e+00
 -9.4154871e-01
  1.3188061e+00
 -8.0959928e-01
 -3.1913416e+00
  3.1717319e+00
  3.4769201e+00
  2.0865865e-01
  1.3292282e+00
 -6.3496715e-01
 -8.4051018e+00
  2.2346640e+00
 -6.4452653e+00
 -9.0845366e+00
 -5.0653839e+00
  4.3209968e+00
 -5.3665586e+00
 -5.2477121e+00
 -6.0746531e+00
  8.7989740e+00
  4.3944793e+00
 -5.0215702e+00
  1.3867232e+00
 -5.4937620e+00
 -1.6556945e-01
 -5.6315126e+00
  8.6594468e-01
  1.1239899e+00
 -1.4243543e+00
 -1.3359489e+00
 -1.9887367e+00
  6.2958364e+00
  6.6869626e+00
  8.9702568e+00
 -1.3532828e+00
 -2.2364912e+00
  2.5016685e+00
  6.2601733e+00
  3.2211745e+00
 -8.6769533e+00
  2.4253109e+00
 -3.2144356e+00
  1.5223776e-01
 -1.0012343e+00
 -8.6894140e+00
  5.7113361e-01
 -4.6879601e+00
 -8.5787811e+00
  3.5783179e+00
  8.4818726e+00
  6.4541464e+00
  5.2746344e-01
 -2.0693152e+00
 -3.0869336e+00
 -1.1479449e+00
  4.7391562e+00
  2.4380617e+00
 -5.7404429e-01
  4.8816690e-01
  4.2234726e+00
 -3.0282032e+00
 -5.1790780e-01
  6.8767810e-01
 -2.1258116e-01
  2.9063091e+00
  4.8359218e+00
  1.7454067e+00
  3.1649127e+00
 -1.7280027e+00
 -1.0303551e+00
 -4.6422739e+00
  4.6494594e+00
  3.5332397e-02
  1.3319092e+00
  3.6294668e+00
 -2.9211791e+00
 -3.9216452e+00
  1.0738415e+00
  7.6759233e+00
  5.8304420e+00
 -1.7018555e+00
  3.6345613e+00
 -5.0682149e+00
  2.8659837e+00
  1.7421399e-01
 -2.1640172e+00
 -1.5738452e-02
  8.9346373e-01
  1.0741020e+00
  5.5937934e+00
 -1.7089106e-01
 -6.9794190e-01
 -4.8554083e-04
  2.6283252e-01
  3.9522340e+00
 -7.4168911e+00
 -1.0356455e+00
 -3.4754815e+00
  4.8862987e+00
 -1.9728260e+00
 -7.9167776e+00
  4.5944915e+00
 -5.9896569e+00
  2.2791021e+00
  1.1281223e+00
 -4.0598488e+00
  1.2338184e+00
 -3.7645435e-01
  1.9807782e+00
  1.1082009e+00
 -4.4657421e+00
 -5.1364622e+00
 -5.2597351e+00
 -8.4742317e+00
 -3.4167171e-01
 -3.0514390e+00
 -3.3763950e+00
  1.4095116e+00
  7.1809287e+00
  2.3699427e+00
  4.6345840e+00
 -7.5092964e+00
 -1.6152617e+00
 -2.0113976e+00
 -8.3103210e-01
  3.6480291e+00
 -4.1329503e+00
 -1.1378872e-01
  3.8326362e-01
 -2.4389799e+00
 -2.7649150e+00
  1.0360656e+00
  1.3829856e+00
  2.9622419e+00
 -8.9856464e-01
 -4.2455182e+00
  5.5596943e+00
  2.3928707e+00
 -2.3709493e+00
  3.3683429e+00
  3.4461124e+00
  5.2993722e+00
 -1.3850505e+00
 -4.7777624e+00
 -1.8899416e+00
 -1.0843400e+01
  4.7360449e+00
 -6.1923919e+00
 -1.7880023e+00
 -1.5882815e+00
 -2.1299877e+00
  6.6550965e+00
  7.0529642e+00
  1.2913533e+00
  4.0168238e+00
  1.1849564e+01
  4.8644595e+00
  1.0145064e+01
 -2.5217142e+00
  2.3918710e+00
  2.1481879e-01
  7.6090717e+00
  4.4430888e-01
  5.3930893e+00
 -3.2772555e+00
 -1.0180013e+00
 -2.7947807e+00
 -8.8856468e+00
  2.9302928e+00
  2.5787611e+00
  5.1173954e+00
  5.4162532e-01
  3.3024018e+00
  1.0158548e+00
 -5.8616680e-01
  7.9245539e+00
 -5.0717592e+00
 -2.3663497e+00
  1.3352953e+00
 -6.3543849e+00
  1.7137465e+00
 -8.1067905e+00
  6.9143867e+00
  6.9424510e-01
 -3.9572098e+00
 -4.1441097e+00
  3.8997557e+00
 -1.3707393e+00
 -7.9581919e+00
 -2.0400259e+00
 -4.0241866e+00
 -1.0179740e+00
  9.4517571e-01
 -3.1557615e+00
 -2.3580465e+00
  1.6556147e-01
  1.5170499e+01
  4.2090325e+00
  7.3465147e+00
 -8.9685907e+00
  3.5843992e+00
 -1.9999580e+00
  1.7781957e+00
  2.9416292e+00
 -4.4605079e+00
 -2.6639328e+00
  2.7253030e-02
 -1.4162202e+00
 -7.2270542e-01
 -7.1049637e-01
 -5.5029831e+00
 -1.7771589e+00
  3.7216118e-01
  1.4060040e+00
 -5.8836417e+00
 -2.6632323e+00
  7.7501707e+00
 -7.7221656e-01
  7.3950666e-01
 -2.0411367e+00
  2.3688037e+00
 -3.7191360e+00
 -5.4014273e+00
  8.6387939e+00
  2.7713099e+00
  3.9835470e+00
 -9.5772953e+00
  2.1076725e+00
 -1.0942863e+01
 -6.6827116e+00
 -4.5178442e+00
 -2.8801830e+00
  5.3100073e-01
 -2.3717113e+00
  5.3754401e+00
  1.1049792e+00
  3.0561898e+00
  7.1702042e+00
  3.6235423e+00
 -4.3593988e+00
  6.3120079e-01
 -9.8068744e-02
 -1.5864948e+00
  6.1296954e+00
  1.4278058e+00
  1.2420270e+00
 -2.7017167e+00
  8.7727249e-01
  3.4558172e+00
  2.5342128e+00
 -1.8043592e+00
 -3.1968601e+00
  1.9670073e+00
  1.5788563e+00
 -1.3626312e+01
  2.1550908e+00
  2.3069756e+00
 -2.3969381e+00
  4.8950830e+00
 -2.9846454e+00
 -1.1230179e+01
  1.2321898e+00
 -6.4168978e-01
 -9.6718591e-01
  8.8116336e-01
 -5.5112801e+00
  3.2353804e+00
  1.3167988e+00
 -1.8614584e+00
 -7.7448754e+00
 -2.8854463e+00
  1.6142889e+00
  1.1036923e+01
 -4.7824473e+00
 -6.1229426e-01
  3.5084889e+00
  3.1584196e+00
  2.6934949e-01
  1.0785509e+01
  3.7055252e+00
 -5.1879802e+00
 -1.3920298e+00
 -3.1897001e+00
  3.5318198e+00
  7.7507486e+00
  2.5626447e+00
  1.0881172e+00
  6.6920528e+00
  3.3002095e+00
 -2.1959336e+00
 -4.6127439e+00
  4.4501066e+00
 -4.2070050e+00
  7.4399877e+00
  3.6271837e-01
  4.5510378e+00
  1.5725280e+00
  1.8385254e-01
 -5.8401811e-01
  2.2443054e+00
  2.1839616e+00
  7.1102705e+00
 -4.5349383e+00
 -1.6862599e+00
 -2.0580564e+00
  5.5592394e-01
 -3.2778594e+00
  8.2896185e+00
  1.2952353e+00
 -2.4389594e+00
 -5.5134273e+00
  1.1666250e+01
 -2.4615638e-01
  6.8574703e-01
 -6.1252923e+00
  1.4882612e+00
 -3.2830348e+00
 -3.0207069e+00
  5.2196479e-01
 -1.2680421e+01
  8.9045086e+00
  1.4478157e-02
 -1.4454004e+00
  2.9688885e+00
 -5.1522689e+00
  1.0985279e+01
 -1.1807311e+00
 -1.4394312e+00
 -7.7233877e+00
  2.2621543e+00
  1.3668581e+00
  3.3437741e+00
  1.8367792e+00
 -3.4190273e+00
 -5.6747013e-01
 -6.0084724e+00
 -7.4993854e+00
 -5.9084735e+00
 -2.5451404e-01
 -3.4026108e+00
  1.0234517e+00
  8.0542192e+00
  1.4170457e+00
 -2.9429359e+00
  1.3299249e-01
  9.4533529e+00
  2.1285465e+00
  1.1778704e+01
  3.0591197e+00
 -3.7461181e+00
 -9.0896835e+00
 -6.8541412e+00
  2.4696786e+00
  2.5507112e+00
  1.4963248e+00
  7.1566043e+00
  4.2599547e-01
  5.1547766e+00
 -2.8765032e-01
  1.5302535e+00
 -6.3800969e+00
  5.2539525e+00
 -6.6262612e+00
 -7.4707637e+00
 -5.4092622e+00
 -9.4269648e+00
  7.0448208e-01
 -1.4681218e+00
 -1.1934016e+00
  3.3808413e-01
 -2.4723749e+00
 -8.9544582e+00
  1.6039107e+00
  3.2119867e-01
 -4.1676321e+00
  3.5106714e+00
  7.7538395e+00
 -1.2781878e-01
 -6.5997353e+00
 -3.0276821e+00
  3.0922582e+00
 -2.8063395e+00
 -2.2825351e+00
 -2.6697841e-02
 -9.0309525e+00
 -6.8475800e+00
 -1.0258981e+00
  8.5960455e+00
 -2.8710423e+00
  7.3723135e+00
 -2.2927864e+00
 -1.4185315e+00
  5.2061286e+00
  7.8652477e+00
  8.8785343e+00
 -6.8572688e-01
 -1.1136889e+01
 -4.6597078e-01
  2.5646403e+00
 -1.7031387e+00
 -5.4200869e+00
 -5.2649492e-01
 -1.0299633e+01
  1.3497170e+00
 -2.1356993e+00
 -3.8449733e+00
 -6.8499479e+00
 -2.4672878e+00
  3.7182205e+00
 -2.8162873e+00
  3.8436866e+00
  1.2632620e+01
 -3.0887406e+00
 -1.2217629e+00
 -2.3836589e+00
  5.1730947e+00
 -2.0042634e+00
  1.5344630e-01
 -2.0715904e+00
 -3.7941451e+00
 -4.0241160e+00
 -7.0723367e+00
  2.4462285e+00
  2.3925257e+00
 -5.0010428e+00
 -3.4504879e+00
 -9.4716871e-01
  7.0105071e+00
 -3.5524046e+00
 -1.5076587e+00
 -2.3249428e+00
 -1.0984347e+00
  8.2020417e-02
  2.2277865e+00
  2.2841744e+00
 -1.0825092e-01
 -3.7371135e+00
  3.8295836e+00
  1.9235595e+00
 -1.7967142e+00
 -1.1768849e+00
  3.1634879e+00
 -4.6836672e+00
  1.7223822e+00
 -1.2345302e+00
  4.8399382e+00
  4.9961457e+00
  2.5081766e+00
 -1.0786935e+00
  2.5604389e+00
 -4.1327712e-01
  2.2355008e+00
  4.4186621e+00
  6.3066792e+00
 -1.5215089e+00
 -1.5042734e+00
  1.6382256e+00
  3.5757170e+00
 -2.0195696e+00
  1.2634175e+00
  3.6500261e+00
  4.4303136e+00
  6.8762116e+00
  3.0392447e+00
 -3.2390444e+00
 -2.2047431e+00
 -5.1401391e+00
  5.2430563e+00
 -9.9654776e-01
 -8.1823835e+00
 -2.0187604e+00
  1.9946136e-01
  3.5121274e-01
  4.4319949e+00
  1.1635777e+00
  9.5503664e-01
  7.0367920e-01
  2.0575881e+00
  2.5178905e+00
 -2.4202759e+00
 -5.5627708e+00
  3.7702680e+00
  2.9069958e+00
  1.4133095e+00
 -6.3221878e-01
 -1.6367974e+00
  2.9554617e+00
  1.7096125e+00
 -4.2460527e+00
 -2.4330394e+00
  8.7676418e-01
 -3.2554808e+00
 -6.7448764e+00
  1.0845104e+01
 -3.1751206e+00
  2.5221381e+00
 -1.4139819e+01
 -7.7256804e+00
  4.4521203e+00
 -4.1074758e+00
 -4.3747411e+00
 -5.7724190e+00
 -1.8342841e+00
 -2.8198488e+00
 -5.7883730e+00
  2.0295908e+00
  1.7129015e+00
 -4.8524537e+00
  4.0767727e+00
 -3.7596130e+00
 -5.5776243e+00
 -1.4436752e+00
 -1.0193969e+01
  1.7320830e+00
 -4.6693516e-01
 -3.8934972e+00
  3.6399062e+00
  3.3399382e+00
  1.0509193e+00
  3.0776007e+00
 -1.0342465e+01
 -1.6009593e+00
 -8.4304231e-01
  9.6777934e-01
 -3.4590409e+00
 -8.1963688e-01
 -2.3420312e+00
 -2.7761576e+00
 -7.6243160e-03
  1.3346503e+00
 -3.5243413e+00
  3.4144235e+00
 -2.2894731e+00
  3.0337231e+00
 -3.1629293e+00
 -3.6517463e+00
 -2.3859944e+00
 -2.7523525e+00
 -3.1072350e+00
