nep4_zbl 2 O Ga 
zbl 1 2
cutoff 6 4 418 127
n_max 8 6
basis_size 12 10
l_max 4 2 1
ANN 100 0
  1.2214484e+00
 -4.2430142e-01
  2.7135379e+00
  6.4064644e-02
  4.6896932e-01
 -1.0112501e+00
 -4.4198409e-01
  7.2016064e-03
  1.9186266e-01
 -4.3563914e-02
  4.7937479e+00
  8.8266647e-01
  1.8533940e+00
  8.9545083e-01
  3.5427406e-01
  6.4861922e+00
 -7.9464074e-03
  2.2161615e+00
  8.3821458e-01
  1.8165232e+00
 -5.9445539e+00
  1.1822479e+00
  3.2834222e+00
  3.2549922e+00
 -1.2987617e+00
  7.3503561e-02
 -2.7431834e-02
 -4.0987329e+00
  1.5293554e+00
  2.4611184e-03
 -4.2710713e-01
  1.7048874e-01
 -2.3117700e+00
  4.5255094e+00
  3.9726698e+00
  1.7750961e-01
  3.6197647e-01
 -1.0597938e-02
  2.1248993e-01
 -8.8329270e-02
  3.0610282e+00
 -2.6139274e+00
 -2.2884521e+00
  1.2213753e+00
 -4.6994090e-03
  4.7826061e+00
  1.1201520e-01
  6.2517941e-01
 -2.4164107e-02
  1.2039308e-01
 -4.5605664e+00
 -3.8750030e-02
 -4.3050805e-01
 -7.3467369e+00
  5.8292840e-02
 -7.8908515e-01
 -1.5306342e-02
  4.1708013e-01
 -2.4435069e-02
 -2.8912690e-02
  5.3045258e-02
  4.2758515e-01
 -2.0643224e-01
 -1.3637072e+00
  1.6030724e+00
  6.3528694e-02
 -1.3825287e-02
  6.3280880e-01
 -1.7808920e-01
 -4.7338212e-01
 -1.8905497e-01
 -1.1632578e-01
  4.1108534e-02
  6.1504271e-02
 -7.4349970e-02
  4.2135775e-01
  1.5446445e-01
 -6.2881780e-01
 -4.1325796e-01
 -2.4659492e-03
 -2.5926918e-02
 -9.3063563e-03
 -9.7726494e-02
 -1.3277057e-01
 -9.3489446e-02
 -1.3267688e-01
  2.5723797e-01
 -1.9325614e+00
  1.5860790e-01
 -1.6851307e-01
 -2.2206235e-01
  6.8944812e-02
 -2.4997574e-01
  1.7825334e+00
 -1.5834221e-01
 -5.6118120e-02
 -3.3509350e-01
  1.6111638e-02
  5.3971209e-02
  2.1108540e-02
  2.7101898e-01
 -1.0298476e-01
  2.8987145e-02
  5.4683238e-02
  1.8558593e-02
 -8.4293634e-02
  2.4334742e-03
  1.2095319e+00
  3.8611004e-01
 -9.3701869e-01
 -3.4798477e-02
 -3.3739895e-02
 -4.8243120e-02
 -5.9078388e-02
 -1.5536988e-02
 -1.2815708e-01
 -2.4362849e-01
  1.3500148e-01
  5.0180592e-02
  2.5906253e-01
  1.8020822e+00
  5.8791745e-02
 -1.0155441e-01
  5.0787908e-01
 -6.7517329e-03
 -2.4575606e-02
 -1.8092567e-01
  1.9232625e-02
  4.5662829e-01
 -8.7659128e-02
 -3.0073948e-02
  2.2331025e-01
 -2.6138145e-01
  1.9332811e-01
 -1.6943840e-03
  1.1932048e-02
  6.4141646e-02
  7.2266906e-02
 -1.9386613e-01
 -1.0544831e-01
  1.2913598e-01
 -1.1501051e-01
 -1.7980023e-01
 -2.4699945e+00
 -1.4102753e-02
  3.0717839e-02
  1.0081917e-01
  1.0864384e+00
 -1.6332426e+00
  5.8491927e-02
 -7.2617933e-02
 -3.9608389e-01
  1.9588502e-02
 -4.4328613e+00
 -6.3470149e-01
 -5.6179971e-02
 -7.6809013e-01
 -4.5990262e-02
 -5.1040965e-01
 -2.0184883e-01
 -1.5062392e-01
 -4.8738576e-02
 -1.0735846e+00
  5.5840082e-02
  3.7550029e-01
  5.1842445e-01
  3.6208814e-01
  4.6369269e-02
  3.5041097e-01
  2.3471372e-01
 -1.1136645e+00
  5.6351513e-01
 -7.3908471e-02
  3.4471470e-01
  1.2587316e+00
  6.3575402e-02
 -1.7806901e-01
 -3.7395913e-02
  4.1574936e-02
 -1.5687804e-01
 -4.2084064e-02
  1.9195429e+00
  1.6285104e-01
  5.6654137e-02
 -1.9784316e-01
 -5.0501302e-02
  1.1307698e+00
 -2.1155540e-02
  6.3078851e-02
 -1.2151613e-01
 -1.8657519e-01
  3.0210489e-02
 -4.7862787e-02
 -1.5533569e-01
 -4.6289768e-02
  7.1816725e-01
 -2.0573711e-01
 -8.4438413e-02
  4.8408794e-01
  2.4860933e-01
  2.2589557e-02
  1.6781857e-02
  8.3170585e-02
 -2.9097562e+00
 -1.4291649e+00
 -4.8874316e+00
  2.2408936e-02
 -8.2542908e-01
 -7.6266804e+00
 -8.1527367e+00
  3.6469276e+00
 -1.7395066e+00
  2.7056825e+00
  4.2467773e-01
  1.8758218e-01
  5.2440310e-01
  5.2851909e-01
  2.9919527e+00
 -4.5292012e-02
 -2.1144800e-01
 -2.1155062e+00
 -2.4957079e-01
  1.0279827e+00
  1.7914305e+00
  1.3106988e-01
 -2.8740926e+00
  2.4099009e+00
 -1.2696131e-01
 -7.4647003e-01
  2.2730505e-01
 -1.4671264e+00
 -2.7804582e+00
  4.9519473e-01
 -1.6379656e+00
 -2.2517016e+00
 -1.4909071e+00
 -1.5251796e+00
 -2.7701945e+00
  2.0797548e+00
 -1.5300226e+00
 -6.0093991e-02
  1.1696787e+00
 -3.0563073e-02
 -1.3876244e-01
  9.2148602e-01
 -4.6088544e-01
 -4.2046386e-01
 -2.8702974e-01
 -1.0181631e-01
  4.5415934e-02
  7.0716071e-01
  3.9012748e-01
  8.1789017e-02
 -2.8216413e-01
 -1.4835700e-01
 -4.0892553e-02
  8.2677938e-02
 -1.3307306e-02
  4.4119712e-02
  7.7821887e-03
 -2.6559123e-01
  6.3387267e-02
 -1.1727926e-01
  2.3970826e-02
  5.5736225e-02
  3.1138897e-02
  7.4090622e-02
  1.6181394e-01
  2.1145700e-02
  2.6519476e-02
 -1.8892711e-01
  3.9592135e-01
  1.9750055e+00
  1.1256642e-01
  2.9338128e-03
 -1.0198034e-01
 -1.4066888e-01
 -3.7673891e-02
  2.4355285e-01
  2.6648507e-02
  5.8897047e+00
 -1.5959121e-02
  1.4728281e-02
  4.5211362e-03
 -9.9122956e-02
  1.3560052e-01
  8.9248620e-02
  1.4938246e+00
  1.2295610e-01
  3.7583902e-02
  5.9612639e-02
  3.9213791e-01
 -2.5504175e-01
  1.1102626e-01
  3.4898534e-01
 -8.9426406e-02
  2.4146545e+00
 -6.6916443e-02
  9.2276150e-01
 -1.8599150e+00
  1.2814832e-01
 -5.3331369e-01
  2.1812451e+00
 -7.6770224e-02
  5.9940624e-01
  3.3137754e-01
  3.0904775e+00
  3.1287408e+00
 -1.0024647e+00
  8.6356421e+00
  2.0981301e-01
  2.5456445e+00
  2.5489452e+00
 -2.4685131e-01
 -3.4213660e+00
 -8.6992496e-01
  1.0318027e+00
 -3.1165175e+00
 -2.6140943e+00
  1.0475424e-01
 -1.5823829e-01
 -2.7001958e+00
  1.9312670e+00
  7.1340340e-01
 -7.2737756e+00
 -2.6693149e+00
  6.3587368e-01
  6.7528313e-01
  4.0928331e-01
 -4.4308092e-02
 -1.0719717e+00
 -9.0751380e-01
  5.8094411e+00
 -4.7477794e+00
 -1.7120833e+00
  1.4991204e+00
  4.1790062e-01
 -1.7675653e+00
 -1.8284260e+00
 -3.1065683e+00
  4.1425214e+00
  7.5289047e-01
 -6.3912976e-01
  2.3267212e+00
  2.9600081e+00
 -1.7257638e-02
  8.6783260e-01
  4.5731679e-02
  1.3958687e-01
  3.6663120e+00
  5.4527336e-01
  1.5710667e+00
  1.1635707e-01
 -1.4811873e-01
  1.9305383e-01
  1.3822436e+00
 -1.1417938e-01
 -1.7788298e-01
 -1.2125554e-01
  1.7772016e-01
 -1.3729951e-02
  7.8600831e-02
  2.0952560e-01
 -2.2081555e-01
  1.5754171e-01
 -4.6489944e+00
 -2.8554821e-02
  1.0338742e-01
  1.0053219e-01
 -7.0160732e-02
 -1.1226100e+00
  5.8948841e-02
 -3.7579253e-02
  8.6036660e-03
 -1.3285452e-01
 -9.4710253e-03
  3.0844357e-02
 -1.8313901e-01
 -5.4715006e-03
  3.5841145e-02
 -4.3166939e-02
 -2.1440846e-01
 -1.2322909e-01
 -9.0422682e-02
  3.9080280e-01
  1.1562144e-01
 -3.2762049e-03
 -6.0989060e-02
 -9.1192778e-03
 -6.7069098e-02
  3.1366542e-01
  1.5328234e-01
  3.5893044e-01
 -9.3007959e-02
  1.7739549e-01
  5.9154201e-02
 -1.1426187e-01
  1.9533817e-02
 -5.5652339e-02
 -9.9614710e-02
  1.3914600e-01
  2.5158885e-01
  1.0232618e-01
 -1.7570069e-01
  3.2519969e-01
 -1.2218226e-02
  1.6387412e-01
 -3.1591195e-01
  7.2456139e-01
 -7.0379220e-02
  8.4927700e-02
 -1.5485927e-01
  5.9077151e-02
 -3.0518511e-01
 -3.7427256e-01
 -1.7498937e-01
 -2.9662266e-01
 -5.6199276e-01
 -2.2171420e-01
  2.1122839e-01
 -1.4313412e+00
 -9.4705008e-02
 -1.4711108e+00
  3.1928751e-01
  8.3474237e-03
 -1.4079264e-01
  5.8658934e-01
 -2.1801038e-02
 -2.0843141e-01
  2.5962680e-03
 -9.8827380e-01
  4.9370527e-02
 -2.2533922e-02
 -2.8554177e-02
 -4.1961599e-02
  3.8024664e-02
  1.0361010e-01
  4.4412732e-01
 -8.3770680e-01
 -1.0334767e+00
  5.4285400e-02
 -2.0061584e-01
  2.0457806e-02
  4.8092175e-01
  7.0819956e-01
  1.9488122e-01
  1.2059954e+00
 -4.1779622e-02
 -7.0008561e-02
  1.3073487e+00
 -5.4198869e-02
 -6.1619665e-02
 -1.7979480e-01
  1.6726466e-02
  9.4758695e-01
 -3.4723498e-02
 -2.5724106e-02
  1.1771824e+00
 -2.8276581e-02
 -1.2856323e+00
  1.4801289e+00
 -1.4171073e+00
 -2.3228979e+00
 -1.4122623e+00
 -1.5243425e+00
 -7.7340895e-01
  1.7434013e+00
 -8.1708843e-01
  1.0979033e-01
  4.2954135e+00
  2.6206915e+00
  1.9660051e+00
  4.0124307e+00
  7.5765699e-02
  1.0309172e-01
 -1.6240366e+00
 -1.5824876e+00
  5.9195518e-01
 -5.0425410e-01
  1.8901606e+00
  1.4810976e+00
  1.2873926e+00
 -7.9144128e-02
  1.3934116e-01
  1.9878856e+00
 -8.2127941e-01
 -1.1347976e+00
  5.4739660e-01
  9.4400972e-01
 -2.6583745e+00
 -8.2800269e-01
  3.7606773e+00
 -1.5109403e-02
 -2.1406643e-01
  1.2303089e+00
  6.4352924e-01
  1.4906968e+00
 -3.6105353e-01
 -3.8110273e+00
 -2.8914228e-02
 -3.8897736e+00
  1.6767139e+00
  8.3827329e-01
 -4.7189374e+00
 -8.7580843e+00
 -1.0678442e+00
 -2.2284615e-01
  1.0907800e+00
 -9.6843462e+00
 -9.3486738e+00
 -4.0952712e-02
 -5.5811189e-02
  3.3344967e+00
  6.7958283e-01
 -5.7685441e-01
 -6.9589072e-01
  2.1733621e-01
  2.5079708e+00
  2.6175809e-01
  6.8167061e-01
 -4.0152698e+00
 -7.2474134e-01
  1.1228755e+00
  3.1688786e+00
 -3.3151691e+00
  2.5479743e+00
 -5.8465967e+00
  4.5511851e+00
 -1.6219288e-01
  4.0698733e+00
 -2.2810717e+00
  2.8807659e+00
  6.0652459e-01
 -2.6266210e+00
 -4.0749884e-01
 -3.5439711e+00
  2.1217926e+00
 -9.0785719e-02
  2.5949051e+00
  3.0030057e+00
 -2.8214854e-01
  1.6806509e+00
 -1.8725520e+00
  1.9110184e+00
 -1.8299803e+00
 -7.6569802e-01
  2.0923566e-02
 -6.4817391e-02
  1.5849460e+00
 -1.9959765e-02
  1.0730078e+00
 -1.2425675e-01
 -4.3962865e+00
 -4.8169378e-02
  2.0897700e-01
 -1.6799858e-01
 -2.1250272e-01
  1.2245151e-01
 -1.5867088e-02
 -2.7437158e-02
  5.2944016e-02
 -3.9617112e-01
  1.2519154e-01
  3.0391493e-01
  1.2409513e-01
  3.9378870e-01
 -3.4623943e-02
  7.9892777e-02
 -6.3257769e-02
  1.5529099e-01
  1.3837019e-01
  5.8965511e-03
  6.0732469e-02
  2.5312710e-01
  2.8125745e-01
  2.7267796e-01
 -1.8351030e-02
 -4.0213734e-02
  9.4701922e-01
  3.1243283e-02
 -9.3331456e-02
 -5.6217209e-02
 -1.2777862e-01
 -8.8299900e-02
 -5.0428170e-01
 -5.0239291e-02
 -4.8336610e-01
  2.6043141e-01
 -1.4678299e-01
 -1.7442361e-01
 -2.6197848e-01
  3.0337816e-01
 -5.8831565e-02
  1.6064465e-02
  8.3694465e-02
 -1.5884782e+00
  5.3357643e-01
  2.6046581e+00
 -5.1884679e-03
  1.0944110e-01
  9.3871698e-02
  1.5754001e+00
 -5.7064489e-02
  9.2877558e-04
  6.0864639e-02
  2.0453097e-01
  1.2235797e-02
 -1.7869174e+00
  1.0372374e-01
 -2.2362482e-02
  3.9914170e-01
  1.1942913e-01
 -8.7304968e-01
 -1.0786402e+00
 -7.6657408e-01
  5.7748951e-02
 -2.5062822e-02
 -5.7346284e-01
  8.6942929e-01
 -2.3609829e+00
  1.2110896e+00
 -6.3499010e-01
 -1.3897130e+00
  3.4823984e-01
  5.1215446e-01
 -4.9493350e-02
 -1.5119003e+00
 -2.1619709e+00
 -1.8448352e+00
  3.3595216e-02
  1.6641334e+00
 -1.5632268e+00
  5.5565459e-01
  1.3350503e+00
  1.0155201e-01
  1.7546438e+00
 -5.4453468e-01
 -8.7701447e-02
  4.4194567e-01
  9.0157115e-01
 -8.7342626e-01
  1.2678063e-01
  1.6624950e+00
  1.1954982e+00
 -9.6978265e-01
  5.8803707e-01
  8.6975075e-02
 -1.6874514e+00
 -4.7809610e-01
  2.0127991e-02
  7.2124755e-01
  1.0088313e+00
 -2.3396431e-01
  2.5986579e-01
 -1.1304004e-01
  2.4437864e+00
  2.1997750e+00
  1.4488279e+00
 -1.2182861e-01
  1.0437194e+00
 -2.2204585e-02
  6.9276485e+00
  3.3046134e+00
  7.0620131e-01
 -3.8876450e-01
  3.6994311e-01
  5.4523456e-01
 -5.1908666e-01
  1.7793721e-01
 -4.1329451e+00
  3.4670236e+00
  1.0226359e+00
  2.2948341e+00
 -4.1845360e+00
  5.7175750e-01
  8.3442783e-01
 -3.2231495e-01
  4.4101038e+00
  5.4004092e+00
 -5.3761687e+00
 -9.8177183e-01
  4.3245521e+00
 -2.2853940e+00
  3.7157977e+00
  2.4190755e+00
  3.9655781e-01
 -2.3048363e+00
  5.9482837e-01
  1.2443019e+00
 -6.4960527e-01
 -4.0022179e-01
  1.4314817e+00
  6.9446504e-01
 -6.2971693e-01
 -7.5211143e-01
  4.6498436e-01
  1.6832592e-01
  1.6294481e+00
  3.8404265e-01
 -2.8996284e+00
 -8.0102257e-02
  1.4424500e+00
  2.4208967e-02
  4.6874714e+00
  1.8320668e+00
  1.6098403e+00
  2.7068870e+00
 -1.8252974e+00
 -2.9515827e+00
 -6.2045392e-02
 -3.2084153e+00
 -4.4678858e-01
 -6.3371563e+00
 -1.7024732e+00
  3.8997970e+00
  2.2967465e-01
 -3.3855314e+00
  7.0134954e+00
  1.7256956e-01
 -5.1895946e-01
  2.0778096e+00
 -4.4289784e+00
  2.9265001e-01
 -2.6131624e-01
 -8.9697862e-01
 -1.9991918e+00
 -2.2831655e+00
  1.2331297e+00
 -3.3844942e-01
  3.0946398e+00
  2.3161091e-01
  3.5148387e+00
  1.7826800e+00
 -6.0110340e+00
 -8.4356242e-01
  2.7866342e+00
 -1.6943321e-01
  1.4948828e+00
  8.3311838e-01
  3.2540686e+00
 -1.6344080e+00
 -8.0639839e-01
  1.0236639e+00
  4.5878947e-04
  1.2040318e+00
 -1.5373352e+00
  2.1192577e+00
 -4.4202861e-01
  1.5565149e+00
 -3.4905702e-01
 -4.6519566e+00
  6.5501130e-01
  2.1696441e+00
 -1.7793988e-01
  3.7942777e+00
  2.0925822e+00
 -1.1461293e+00
  4.0262032e+00
  3.9642945e-01
  3.4765925e+00
  2.1471748e-01
 -4.7523178e-02
 -1.7092289e-01
  6.8153167e+00
  7.6707721e-01
 -7.3498356e-01
  7.0165687e+00
 -6.0723108e-01
  2.2252083e-01
 -1.8232372e-01
 -3.1156626e-01
 -1.0520884e-01
  9.5300603e-01
  1.9553571e+00
 -3.0578091e+00
  1.0694914e+00
  2.5389561e-01
 -2.0527530e+00
  3.6908262e+00
 -6.4246430e+00
  6.4204144e-01
  2.0508940e+00
 -1.2066578e-02
  2.7168378e-02
  2.8378818e+00
  4.1758800e+00
  1.0994601e-02
  3.3664879e-01
 -1.0982589e+00
  3.5891621e+00
 -2.3420570e+00
 -1.4485279e+00
  7.2426990e-02
  1.2140949e+00
 -3.5159588e+00
  1.5441116e+00
 -9.6169603e-01
 -4.3102953e-01
 -5.5665569e+00
  5.5682597e+00
  1.1872437e+00
  1.9073845e+00
 -2.3361485e-01
 -5.5185241e-01
  3.5399878e-01
 -6.7813605e-01
  5.3468251e-01
  3.6333113e+00
  2.2659512e+00
  7.7910954e-01
  1.3608843e+00
  1.0448874e-01
  2.1051326e+00
 -1.6057426e+00
  7.2763598e-01
 -1.4174849e-04
 -1.0854018e+00
  3.0099313e+00
  2.2008422e-01
 -2.3958948e+00
 -2.8375590e-01
  1.7730469e+00
  9.1069335e-01
 -1.0789282e+00
 -3.1702900e+00
 -6.6025198e-01
 -4.1869292e+00
 -3.1163778e+00
 -7.0587659e+00
 -1.2704959e+00
  7.9497061e+00
 -2.3417196e+00
  2.8738821e+00
 -2.7740037e+00
  4.8785594e-01
 -3.8298910e+00
  6.3010020e+00
 -5.9674823e-01
 -3.9600139e+00
  1.8945754e-01
  4.5981975e+00
  3.8341269e+00
 -5.2519250e+00
  1.2350619e+00
 -1.8056006e+00
  8.0175924e+00
  3.7044215e+00
  3.4162610e+00
  3.0542607e+00
 -1.8060722e+00
  2.1837221e-01
  1.2304796e+00
 -8.7981296e-01
 -5.9157473e-01
  3.9040515e+00
 -1.5459773e-01
 -2.9282141e+00
  5.1387348e+00
  1.0342529e+01
  9.9653564e-03
  1.8575033e-02
  6.1896415e+00
 -1.1990757e-01
  7.7503104e+00
  3.0159492e+00
  1.1608776e+01
  4.4830149e-01
  3.9558716e+00
  2.3002462e+00
  1.7936869e+00
  2.7572688e-01
  7.5088639e+00
 -5.8713667e-02
 -1.7853216e+00
  9.4074860e+00
 -2.9246967e+00
 -6.3032804e+00
  1.0712614e+00
 -6.9683921e-01
 -1.6915867e+00
  7.9320130e+00
  8.6247381e-03
 -1.8576180e+00
  7.6049585e-03
 -5.8305925e-01
 -8.8508153e-01
 -7.7218537e+00
  3.1300351e-01
  3.1694815e+00
  8.3636820e-01
  2.3563106e+00
 -4.2094727e+00
 -2.5990229e+00
 -2.8336492e+00
  1.3673482e+00
  1.6933453e-01
  3.2986169e+00
  2.6809778e+00
 -4.0295978e+00
 -4.1339717e+00
  2.4427978e-02
  1.8180351e+00
  1.8794097e+00
  3.9356298e+00
 -6.6266626e-01
  2.4832649e+00
 -7.8000806e-02
 -1.0426358e-01
 -2.3892605e+00
 -1.6518645e+00
  2.8752186e+00
 -2.1109313e-01
 -3.2018442e+00
  5.0170074e-04
  2.4237072e-02
 -2.1309670e-02
  1.2544782e-01
 -4.5822200e-01
 -1.5261242e-01
  2.1858180e+00
  1.0832216e-01
 -3.8574576e-02
 -8.3765954e-02
 -7.3427573e-02
  3.1463695e-01
  2.2687852e-01
  5.2210301e-01
  6.4807527e-02
  5.0019724e-03
  3.5755771e-01
  3.2978725e-01
 -1.1219393e-01
 -2.8464177e-01
 -3.1473894e-02
  2.5761325e+00
  3.3750884e-02
 -8.2272403e-03
 -1.1296498e-02
  2.1472448e-02
 -1.5740724e-01
  7.1874216e-02
 -2.4010731e-02
 -1.9992554e-01
  4.7838993e-02
  7.1776003e-02
  1.2899740e-01
 -3.1221771e-01
 -1.1102527e-02
 -1.4527148e-01
  6.6216528e-02
 -9.7741395e-02
  5.2344732e-02
  3.1465374e-02
  2.3348798e-01
  7.3482215e-02
 -3.3413284e-02
  4.5975532e-02
 -5.4009516e-02
 -6.8116628e-02
  5.3218967e-01
  1.0896256e+00
 -5.6047380e-02
 -1.5717611e-01
  1.6072291e-01
  2.1553676e-01
 -3.6779117e-02
  2.6914299e-01
 -2.8000610e-02
 -1.4556198e-01
  5.0741500e-01
  1.1118710e+00
  9.3298316e-01
  4.5216471e-01
 -1.6297476e-01
 -4.5398531e+00
 -3.5431737e-01
  4.6041653e-01
 -7.2404122e-01
  5.0446801e+00
  1.6442192e+00
  4.5862371e-01
 -4.8838391e+00
 -4.5170695e-01
 -4.5614737e-01
  1.8652451e+00
 -2.7186739e-01
 -1.6522489e-01
  1.5448023e-01
  2.1847620e+00
  1.2012235e+00
 -1.0364262e-01
 -6.4588684e-01
 -2.8532622e+00
  3.9361814e-01
 -2.6472177e-02
  3.0195501e-02
  1.2603080e+00
  3.3205349e+00
 -1.1273820e+00
 -1.4605212e+00
  1.2816765e+00
 -2.3952122e+00
  2.4371402e-01
  1.3114648e+00
 -2.4347472e+00
 -1.9621856e+00
 -2.0190005e+00
  3.6151382e-01
  4.2394137e-01
  4.7577839e+00
 -7.7495225e-02
 -3.5661572e-01
 -3.7548993e-02
 -6.5178573e-01
 -6.9276989e-02
 -2.7422504e-02
 -1.5784322e-01
  1.4222762e-01
 -1.9658374e+00
  2.5566199e-01
 -1.9490254e+00
  3.0613257e-02
 -5.6377169e-02
 -7.9317331e-02
 -3.5292262e-01
 -6.7713875e-01
 -1.0410751e-01
 -3.0509144e-01
  2.6190991e-02
  7.2927631e-02
  1.4400845e+00
 -1.8690856e-02
  2.3932683e-01
 -6.4919889e-02
  1.1485600e-01
 -2.5044836e-03
 -3.9049264e-02
 -7.9726443e-02
 -1.3004611e-01
  4.0500495e-01
  8.6617805e-03
  6.3507869e-03
  2.8118847e-03
 -3.4647083e-01
 -4.4821475e-02
 -5.0880227e-02
 -2.4251558e-02
  1.5254247e-03
  1.1140467e-01
 -2.7660769e-01
 -1.4975517e+00
  1.1656839e-01
 -5.2099694e-02
  6.7284471e-01
 -3.6137548e-01
 -3.6992168e-03
 -5.1290583e-02
 -4.8908457e-02
 -2.5764385e-01
 -1.0730977e-01
  5.6474224e-02
  5.2165203e-02
  1.1371739e-01
  6.6808957e-01
  1.6087089e-02
  1.9137397e-02
  1.8955715e-02
 -4.2951968e-02
  1.2055549e-02
  2.4517260e-01
  1.6062108e-01
  1.3544202e-01
 -1.2977396e+00
 -6.2440312e-01
 -3.3163652e-02
  4.8615262e-01
 -1.2895998e-01
  6.9755733e-02
 -1.9321812e+00
 -1.6275211e-01
 -2.2965319e+00
  3.0227804e+00
  5.7622891e-02
  3.7871778e+00
  3.4582009e+00
 -1.0593690e+01
  6.2174868e-02
  1.6003409e-01
  1.0384690e-01
 -4.1316199e+00
 -2.4168874e-01
 -5.8944864e+00
 -3.7674308e-01
 -3.5872355e+00
  1.5361630e+00
  3.4140711e+00
  9.4178014e-02
  5.2936697e+00
  1.2732452e-01
  9.0040913e+00
 -4.7101668e-01
  5.6823254e-01
 -9.0207523e-01
 -1.9446000e+00
  3.0886822e+00
  6.3239682e-01
 -1.3541127e+00
 -1.6336299e+00
 -8.6899392e-02
  1.0678148e+00
 -3.1212768e-01
  1.0277927e+00
  7.3885694e-02
 -1.8003036e+00
  9.3261108e-02
  7.1986043e-01
  1.2131479e+00
 -1.2575253e-02
  6.9082491e-02
 -1.1580333e-01
 -1.8413934e-01
 -6.0405340e-02
  2.9263659e+00
  1.2882550e+00
  1.0987515e+00
  1.0967195e-01
 -7.3330599e-01
  1.1928144e+00
 -6.3881457e-01
  3.4956918e+00
 -8.2980031e-01
  4.7091532e+00
 -2.2407665e+00
 -2.2350008e+00
  4.4791374e+00
 -3.7063284e+00
  2.4050698e+00
 -3.0217154e+00
 -1.4168039e-01
 -2.2950943e+00
  4.7666880e-01
  4.2834620e+00
 -3.7694376e+00
 -2.2159941e+00
 -2.2202232e+00
 -1.3158866e+00
 -3.7212405e-01
  2.7906396e+00
 -3.6205882e-01
  2.6923420e+00
 -2.7723625e+00
 -1.6836377e+00
  2.4530995e+00
  3.3020627e-01
  2.7982739e-01
  9.3866944e-01
 -1.5896713e+00
 -1.4740107e+00
  1.3367113e+00
 -5.4180950e-01
 -1.4630939e+00
 -2.6486425e+00
  1.6646816e-01
 -2.2794296e-01
  1.9230809e+00
  1.7447298e+00
 -4.1764512e+00
 -8.0896854e+00
 -1.0618550e-01
 -2.4548156e+00
 -3.9322343e-01
 -5.7096858e+00
 -8.6695030e-02
  3.5809195e-01
 -3.8474936e+00
 -6.4175151e-02
  3.4941621e-02
 -8.0623016e-02
  5.9486502e-01
 -4.3866873e-02
  1.6421105e-01
 -1.0469977e-01
 -2.4241683e-01
 -5.8626199e-01
  1.4044850e-01
 -1.6261575e-01
 -3.2476380e-02
 -9.8798943e-01
  2.7972965e-02
  6.8078980e-02
 -6.5967321e-02
 -4.9423605e-02
 -3.5119050e-03
 -8.3065011e-02
  8.5639350e-02
 -1.1255068e-01
  1.7170076e-01
 -1.1102141e+00
 -1.5303852e-01
  7.8415826e-02
  2.9445894e+00
 -1.3487093e-01
  1.5697237e-02
  9.8426446e-02
 -3.5394418e-01
  8.6973056e-02
 -7.2562581e-01
  1.6915292e-01
  1.1342756e+00
 -1.1613672e-01
  4.8509143e-02
  3.8244430e-02
 -1.2217499e-01
 -1.9556154e-01
 -3.9848268e-02
  2.0741308e-01
 -1.5314088e-02
 -2.8883800e-01
 -4.1006855e-03
 -2.8287086e-01
  7.6659977e-01
 -1.0117552e-01
 -9.6682809e-02
 -5.6778210e-01
  1.0389606e-01
  9.4877058e-01
  6.3980556e-01
 -6.2586772e-01
  2.6152291e+00
  4.5373907e+00
 -5.9955406e-01
  3.4728615e+00
  5.6802142e-01
 -2.0534834e-03
  9.7356117e-01
  1.0332522e-01
  4.4441256e-01
  3.2144349e+00
  1.4211661e+00
 -2.3732626e-01
 -1.0360101e+00
 -3.8234921e+00
  3.8921569e-02
 -7.5733364e-02
  2.3631191e+00
  2.3619676e+00
  1.6581974e+00
 -1.3046833e+00
 -1.3005021e-02
 -2.7730206e-01
  9.2559111e-01
 -1.0065973e+00
  1.1946340e+00
  3.3117115e-01
  3.2680845e-01
 -9.2907190e-01
 -9.1047354e-02
 -1.0613383e+00
  5.3688187e-02
  2.5261662e+00
 -2.0897478e-02
 -2.3281825e-01
 -5.2260943e-02
 -2.0701473e+00
  5.0211620e-01
 -2.0389748e-01
  3.9535210e+00
 -2.5213975e-02
  1.6415965e-02
  3.6351103e-01
 -2.2734727e-01
 -9.2174217e-02
 -9.1339082e-02
 -4.1318256e-02
  3.4647468e-01
  2.9733913e+00
  1.1396738e-01
  1.2443410e+00
 -2.5975487e+00
 -1.6886986e+00
  9.8124737e-01
  2.4010534e+00
 -1.9304975e+00
 -1.5372849e+00
 -5.3780437e-01
  8.9127092e+00
  2.6304102e+00
 -2.9435811e+00
 -4.1635841e-01
 -1.4102794e+00
  2.5187235e+00
  2.0828428e+00
  3.2173250e+00
 -1.0417875e+00
 -8.9906949e-01
 -1.2764441e+00
 -1.3602095e+00
  2.4661243e+00
  6.8489838e-01
  1.2377884e+00
 -9.5417571e-01
 -1.6944573e+00
 -9.1423935e-01
 -9.9991578e-01
  2.3486552e+00
  2.2780926e+00
  3.6223662e+00
 -2.2766249e+00
 -1.5085511e-01
 -2.0206184e+00
 -9.6061426e-01
  2.6594982e+00
 -2.7985775e-01
 -1.8326055e+00
  2.2195334e+00
  2.2495461e+00
  6.2087808e-02
  1.6268533e+00
  3.7491701e+00
 -2.4560387e+00
 -1.1789215e+01
 -1.0818905e-01
 -8.6689529e+00
  1.0316359e-01
  2.2719443e+00
 -4.0188150e+00
  2.9631111e-01
 -6.1706007e-01
  3.9154926e-01
  5.7576007e-01
 -1.0019550e-01
  2.3427353e+00
 -1.4374084e+00
  5.3562033e-01
  7.5025022e-02
  1.7872854e+00
  9.2411834e-01
 -4.2304691e-02
  1.8163403e+00
  2.7757237e-02
  5.9382463e+00
 -2.9550645e+00
 -2.1640613e+00
  5.5085926e+00
  1.8386521e+00
  6.9891634e+00
 -2.7143321e+00
 -1.6113621e+00
 -1.1649405e+01
 -9.9879521e-01
 -8.8758624e-01
 -3.5971753e-02
 -4.1032481e+00
  5.4935229e-01
 -1.8253924e+00
  2.6413074e+00
  3.8371605e-01
  1.5536131e+00
  3.8504803e+00
 -8.8972640e-01
 -1.4386228e+00
  2.1137883e-01
 -1.1561985e+00
  2.9572387e+00
 -1.1739664e+00
  7.8366257e-02
  9.4027236e-02
 -6.1054576e-02
  1.0498183e+00
 -8.8973558e-01
 -4.6834961e-02
 -5.3900933e-01
 -3.8061979e-01
 -2.1494973e-02
  3.5733968e-01
  3.5614905e-01
 -2.3238210e-01
  1.4537661e-01
  4.8816898e-03
  5.0010645e-01
 -1.1084119e-01
 -2.9330164e-01
  1.6396326e-01
  8.2788095e-03
 -9.4512910e-02
 -6.5424517e-02
 -1.1026710e-01
 -1.8674543e-01
  1.0299329e+00
  1.7281059e-02
 -2.7708271e-01
 -3.8031522e-02
 -1.3949277e-01
 -1.2920081e-02
 -1.0310575e-01
  2.1709716e-02
  7.2808981e-02
 -3.4163158e-02
 -3.1542611e-01
  1.1472989e-01
  1.8938372e+00
 -7.4415222e-02
  4.5896675e-02
  5.5851817e-02
  3.9087258e-02
 -1.3609768e+00
 -1.9996049e-02
 -1.3419430e-01
 -1.0798336e+00
 -2.2795651e+00
 -3.5737831e-02
  1.9641742e-01
  3.6644561e-03
  3.4381598e-02
  4.4652823e-02
 -3.1352514e-01
 -1.3611814e-02
  4.0254641e-02
  2.1976233e-02
 -3.8959600e-02
 -1.3428550e+00
  5.9469134e-02
  9.6457005e-02
 -1.3483566e-01
 -1.0168979e-02
 -4.9833197e-02
  1.7094644e-02
 -1.0938100e+00
  1.5681614e+00
  1.0521964e+00
  2.6187631e-01
 -1.4359725e-01
  7.9294406e-02
  7.8251950e-02
  6.7008391e-02
  1.4068103e+00
 -6.0458407e-02
 -4.0964331e-02
 -5.8260188e-03
 -5.2011977e-03
 -1.9373940e+00
 -8.8337790e-03
 -2.5027404e+00
 -2.1225841e-01
  1.1604228e+00
  1.4193882e-01
 -2.4150340e-01
 -2.9170133e-02
  1.8131669e-01
 -1.3487381e-01
  1.1767931e-01
  5.5081766e-02
 -1.9306433e-01
 -5.5221498e-01
 -1.1695471e-01
  3.6631889e+00
 -1.4091298e-01
 -3.6000002e-02
 -2.8878796e-01
  2.0940837e-02
  6.4928681e-02
  1.2012470e-02
  1.7092192e-01
  1.7025314e-01
 -1.0134097e-01
 -6.6724694e-03
 -8.7662734e-02
  2.1933340e-02
 -7.3350482e-02
 -4.0211633e-02
 -1.6278185e-02
  6.6370919e-02
 -1.3977219e-01
 -5.5564225e-02
  1.3460515e-01
  2.3008381e-01
  3.5346400e-02
  6.3492560e-01
  1.9405589e-01
  1.1688638e+01
 -5.6652560e+00
  1.6077129e+01
 -7.2668495e+00
 -1.1062679e+01
  8.9536228e+00
  2.6280111e-02
 -1.9258746e+00
 -7.3175087e+00
  4.5104613e+00
 -1.3716580e+01
 -8.3765380e-02
  1.9415128e+00
  1.2902700e+00
  7.2216940e+00
  3.1056116e+00
 -6.0342579e+00
 -6.0958586e+00
 -1.0139793e-02
  5.5546694e+00
 -3.5156114e+00
 -2.8662714e-01
  2.8914654e+00
 -3.8242309e+00
  6.9043827e+00
  3.4072111e+00
  1.7678839e+00
 -5.6142354e+00
 -3.7278813e-01
 -3.4103053e+00
 -6.2985392e+00
 -2.2696638e+00
  3.0521402e+00
 -6.4457865e+00
 -8.6255102e+00
 -7.3095241e+00
  2.2783370e+00
  1.2843095e+00
 -7.6764667e-01
  6.1908364e-01
 -6.5126920e+00
  2.9561552e-01
  1.7741148e+00
  3.6325449e-01
 -2.0240789e-02
 -3.0396831e+00
  6.8174608e-02
  7.2996712e-01
  4.7989345e-01
  2.8249443e-01
 -3.5064986e-01
  2.6185609e-02
  5.4361039e-01
  2.5409855e-02
  5.9977633e-01
  3.7839126e-02
 -6.6711599e-01
  5.6800014e-01
  1.8097503e+00
  2.3946223e+00
 -1.3165663e+00
 -1.2532992e+00
  1.5942363e+00
 -3.7454910e+00
 -2.6039715e+00
 -4.3039384e+00
  1.7217151e+00
 -4.5239267e-01
 -4.7947511e-01
 -1.0416473e-01
 -1.7766973e+00
  2.8998709e+00
 -1.0212649e+00
 -6.0312843e-01
  2.6407833e+00
  1.4289739e+00
 -1.3546690e-01
  7.2476709e-01
 -1.8200645e-01
 -1.1793916e+00
  4.8994570e+00
  4.7283649e+00
  1.5362349e+00
 -3.9567163e+00
  3.8979688e+00
 -1.6071346e+00
 -2.7263722e+00
  4.2770249e-01
  2.2297814e+00
  2.3931575e+00
  6.5592921e-01
  1.1716606e-01
  2.5873661e-02
  1.7981662e+00
 -4.2526307e+00
  3.9324541e-02
  1.5786067e-01
  3.8192326e-01
  6.0945880e-01
 -1.0546556e+00
  3.9846590e+00
  1.0208266e-01
 -1.6200008e+00
  2.1762268e-01
  3.4897184e+00
  2.1271486e+00
  1.6232233e+00
 -3.7530875e-01
 -1.2365232e+00
  1.2001380e+00
  1.4332962e+00
  2.8979952e+00
 -2.3852621e-01
 -8.4800234e+00
  5.6436958e+00
  4.1860704e+00
 -6.8463755e-01
 -1.2632245e+00
  6.2854815e-01
  5.2131003e-01
  3.5927382e+00
 -2.2546589e-01
  1.9531193e+00
 -1.8030472e+00
 -2.2092154e+00
  2.0707113e-01
 -6.5881833e-02
 -1.3869606e+00
  1.1954917e+00
 -1.0060837e+00
  1.0846305e+00
  6.9079185e-01
 -3.2166882e+00
 -1.3689916e+00
  1.0829918e+00
 -8.2129794e-01
  6.4304167e-01
  1.5553758e+00
  1.9025753e+00
  1.7507699e+00
  2.3272223e+00
  2.8614728e+00
  7.5525033e-01
 -1.7373650e-01
 -1.6824664e+00
 -1.8762860e-01
  1.7785747e+00
 -1.5782690e-01
 -3.4752196e-01
 -7.5689316e-02
  4.5622095e-02
  2.1471856e+00
  2.7205703e-01
 -1.3197096e-01
 -5.8859563e-01
  9.5954734e-01
  8.8471554e-02
 -4.7855761e-02
 -3.7300301e-01
 -1.2478137e-01
 -6.6766240e-02
 -4.6699151e-02
 -3.9803486e-02
  4.4073470e-02
 -1.6615886e-02
  1.4597048e-01
  3.4445923e-02
 -3.0399585e-02
  5.6145020e-02
  2.6708925e-02
 -2.1048447e-02
  1.2537067e-01
 -9.3458913e-02
 -3.2832441e-01
  2.1662188e-01
 -8.2743969e-03
  3.3171311e-02
  1.5932884e-03
 -7.0602596e-01
 -9.5152771e-03
 -2.1980610e-02
  4.2527816e-01
 -1.9694115e-01
  8.9309469e-02
 -3.8138807e-02
 -1.0324823e-01
  1.2672956e-01
  8.9455955e-03
 -5.3029303e-02
 -3.6671199e-02
  1.0922795e-01
 -1.6408099e-01
 -2.4927391e-01
 -1.2398305e-01
  4.8250947e-02
 -1.0417162e+00
 -3.3915719e-01
  1.0467035e-02
 -6.6476487e-02
 -1.5856950e-01
 -1.2636447e-01
  4.4934042e-02
 -5.1218171e-02
 -4.1145705e-02
 -4.6298891e-02
 -4.4310677e-01
 -8.8194042e-02
 -2.0405084e-01
  4.8719563e-02
  3.7753841e-01
  1.3972668e-01
  1.0404951e-01
  1.2785754e-01
  2.4659142e-01
  3.6988503e-01
  4.2907473e-01
 -1.8223705e+00
  2.5269768e+00
 -5.9973001e-02
  3.6923194e-01
 -3.6399490e-01
 -2.7104416e-01
 -9.5254883e-02
  8.6832032e-02
  5.0070081e+00
  4.1826319e-02
 -5.1623713e-02
  3.6101732e-01
 -1.3967624e-01
 -9.9949889e-02
  6.1688387e-01
 -1.3005406e+00
 -2.8901100e-01
  6.5305695e-02
  4.7443900e-02
  8.3632590e-03
 -4.4581991e-02
 -2.5046989e-01
  1.3790756e-01
 -1.4722947e+00
  3.9227018e+00
 -1.3586468e-01
  8.7925918e-02
  6.6513263e-02
 -1.9872139e-01
  2.1735814e+00
  6.0241777e-02
 -1.9523300e-01
 -5.0970055e-02
  1.9875321e-01
  9.1626987e-02
 -3.1408483e-01
  2.1506015e-02
 -1.7950976e-02
 -2.2866206e-02
 -3.2587326e-01
 -1.4509036e-01
  1.9319665e-01
  2.5146419e-01
  1.4431112e-01
  1.5844139e+00
  6.2237117e-02
 -2.2201911e-01
 -1.0780402e-01
 -1.1212897e-01
  3.8686328e-02
 -1.9596806e-02
  8.4128611e-02
 -2.9401010e-01
  9.4565976e-01
  9.0868846e-02
 -1.1768894e-01
  3.8567390e-02
  3.9039399e-02
  4.2682770e-01
  1.5911433e-01
 -3.2485157e-01
 -2.6600442e+00
  2.7190951e-01
 -5.5735153e-03
 -5.4106791e-02
  7.0892610e-02
 -1.0209822e-02
  3.6035102e-02
  4.9205523e-02
  4.9647993e-01
 -6.4742319e-02
  4.5432825e-02
 -1.7133002e+00
 -9.5257591e-03
  2.4515671e-01
 -4.5154354e-01
 -3.5822000e-02
  1.6993246e+00
  7.9038076e-02
  2.0793788e-01
  4.6075966e-02
  4.2748308e-01
  2.2683969e-01
  7.9627961e-02
 -7.0499904e-02
 -1.2588345e-01
  6.1593091e-01
 -1.4790154e-01
  3.3425275e-02
  2.8967778e-03
  5.8969200e-01
  2.7800674e+00
  2.9340747e-01
  2.2048721e-01
 -3.0961099e+00
 -2.8553575e-03
  1.0338943e-02
  2.8121334e-01
 -5.8482403e-01
 -6.0881901e-04
  1.5169905e-01
 -1.4975069e-03
  4.9067964e-03
 -1.0806984e-01
 -4.0756626e+00
 -2.1474496e-02
 -1.5179101e-01
 -2.0891669e+00
 -2.5475338e-01
 -1.1255458e-01
 -4.6364043e-02
 -8.6244509e-02
  3.6116377e-02
 -9.6568757e-01
 -1.3186753e-01
  5.9655356e+00
 -4.5943920e-02
 -4.9905054e-02
  2.3120643e-01
 -1.9523153e-01
 -2.3950374e-01
  7.4662358e-02
  6.1453110e-01
 -6.1363015e+00
  3.4839471e-03
 -8.1208088e-02
  1.2760566e-01
  1.6338234e-01
  6.8176590e-02
 -6.0695920e-02
  1.7944674e-01
  1.0828319e-01
 -1.4255586e-02
 -1.1263508e-01
  4.0512301e-02
 -1.3216880e-01
  7.7775903e-02
 -2.8888667e-02
 -1.2289616e-04
  3.8618341e-02
 -7.1495563e-02
  4.7650969e-01
 -5.3296340e-01
 -3.9292929e-01
  2.3741405e+00
  1.2968677e+00
  9.7086519e-01
  2.2684679e+00
 -6.4900267e-01
 -1.1899350e+00
  2.9640002e+00
  4.8958752e-01
 -3.6307981e+00
  5.0794511e+00
 -3.8376348e+00
  5.2034540e+00
 -5.5793138e+00
 -1.8091638e+00
 -4.1571126e+00
 -2.3662517e+00
  3.2649155e+00
  2.0210812e+00
  8.5306668e-01
 -3.3524472e-01
 -9.6771425e-01
 -8.6109394e-01
 -2.0355542e+00
 -4.5175907e-01
 -4.1755974e-01
  1.6499435e+00
 -1.4320792e-01
 -2.1380825e+00
 -1.5151803e-01
 -2.9897594e+00
 -1.6273348e-01
  5.3771448e-01
  2.0817678e+00
  4.1335940e-01
  6.7406005e-01
  5.7558322e-01
 -4.5581603e-01
  4.1515555e+00
 -6.6068077e-01
 -3.4754798e-01
 -4.2546025e-01
  8.3437361e-02
  5.6352906e+00
  2.9034847e-01
 -2.7537072e-02
 -8.7340355e-02
  1.2914447e-01
  1.4117781e+00
  3.4866476e-01
 -2.2677004e-01
 -3.4998886e-02
 -9.3628146e-02
 -2.3467625e-02
  5.2945290e-02
  1.4026065e-01
 -2.6301777e-02
  4.9913301e+00
 -2.4703459e-01
 -1.8674619e-02
 -1.0171332e-03
  3.9078142e-03
  1.2091658e-01
 -2.9849073e-01
  1.3632463e-01
 -4.9714410e-01
 -1.2908791e-01
 -4.1750643e-02
  6.2521771e-02
  2.4860220e+00
  1.0389705e-01
 -7.9154849e-01
  7.6495968e-02
 -2.6499727e-01
 -1.3379343e-01
 -1.4112892e-02
 -7.2546907e-02
  1.3107541e-01
  2.8687460e-02
  2.9844490e-01
 -3.1355962e-01
  1.1825554e-01
 -1.6419744e-02
 -6.5010615e-02
 -2.4720138e-01
 -2.5422740e-01
  2.9245496e-01
 -8.6110704e-02
 -1.4600456e-01
  1.3013105e-02
  1.2941840e-01
 -9.9310890e-02
 -3.5735574e-01
 -3.0164423e-03
 -1.4330050e-01
  2.3060915e-01
 -3.1177208e-02
  1.2355421e-02
  1.4540635e-01
  3.1060694e-02
 -7.1114736e+00
 -1.2063693e+00
 -3.5429003e+00
 -9.5787144e-01
  7.1129665e+00
  5.8651309e+00
  1.3609191e+00
  2.5252099e+00
  1.3010802e+00
 -7.7694094e-01
 -2.9127052e+00
 -7.7094591e-01
 -2.6255834e+00
  3.8016520e+00
 -3.5646563e+00
 -5.1574702e+00
  5.3711540e-01
 -7.3682261e+00
  5.6505477e-01
 -7.8827232e-01
 -6.7665184e-01
  9.4158316e-01
  3.5684365e-01
  2.1403503e+00
 -4.9875271e-01
  4.2488871e+00
  2.0434005e+00
  7.1639436e-01
 -5.2805119e+00
  2.6342888e+00
  5.9972892e+00
  2.3270059e+00
  3.1190727e+00
  2.2974143e+00
 -1.2838502e+00
  3.7289650e+00
  3.8392870e+00
  1.4653209e+00
  4.2355251e+00
 -1.0290992e-01
 -5.7142181e+00
  8.2066253e-02
  5.5149276e-02
  4.5477023e+00
 -2.2300367e-01
  1.3700859e+01
  7.1952298e-02
  9.8467207e+00
  2.8617948e-01
  3.2296877e+00
  2.4195788e+00
 -8.5505545e-02
  1.7263553e-01
 -6.7075647e-02
  3.2176507e-01
  5.2553296e-01
 -2.7455485e-01
  2.5399856e-02
 -1.1928445e+00
  1.1097686e-01
 -3.4719791e-02
 -1.2028582e+00
  9.4446382e-03
  5.2177932e-02
 -3.1626515e-02
  1.7945187e-01
  4.4563738e-01
  5.1773500e-01
 -8.0272406e-03
 -8.0430787e-04
  4.4204420e-03
  1.7383325e-01
 -8.4997231e-01
 -2.8608376e-01
 -1.3387866e-01
  1.5608613e-02
  6.2926036e-01
 -1.7415946e-02
 -7.5857997e-02
 -4.6477418e-02
  7.4314602e-02
 -3.7412083e-01
  1.5267816e-01
 -3.1721067e-02
  2.8154743e-01
  2.1221216e-01
 -5.1886821e-03
 -1.7698418e-01
  7.1481365e-01
  1.7531497e-02
 -2.2219434e-02
  4.8925746e-02
 -2.3264454e-01
  8.1398822e-02
 -4.6777823e-03
  1.3944210e-02
 -2.4898481e-02
 -6.5009877e-02
  3.6989514e-02
 -2.2065535e-01
 -1.5159707e-01
 -4.3123350e-02
  7.5641245e-01
  1.0039884e-01
  4.9663782e-02
  1.0147097e-02
 -5.2346921e-01
 -5.3810507e-02
 -2.5825176e-01
 -2.0080883e-02
  3.0668181e-01
  2.9319558e-01
 -2.6676071e+00
  2.0822586e-02
 -3.5378236e-02
 -3.2059960e-02
  3.0332716e-02
  4.4491377e-01
 -3.6647415e-01
  8.1516188e-03
  1.3325509e+00
 -2.1549952e-01
 -1.3011584e-01
 -8.1425391e-02
  6.4830624e-02
 -1.5571332e-01
  4.5582666e-03
 -1.4068644e-01
 -7.7030353e-02
  2.0539227e+00
  3.8290764e-03
 -1.5066862e-01
 -2.7562693e-01
  5.5415686e-02
 -2.0216654e-01
  1.0079171e-01
 -2.6221165e-02
 -1.8930081e-01
 -4.1231561e+00
  2.8400734e-01
  1.2128910e-01
 -2.5178362e-02
 -5.6793410e-02
  1.0959874e+00
 -3.3202523e-01
  1.0976407e-02
 -2.5153494e-02
  7.8983903e-02
 -8.7208122e-02
 -8.2815565e-02
  1.8842803e-01
 -2.7086398e-01
 -9.7349387e-01
 -2.6428049e+00
 -1.8245155e-02
 -1.2739019e+00
  2.1774786e+00
  5.1054835e-01
  5.0819736e+00
  3.2300830e-01
 -3.8743443e+00
 -2.6469691e+00
 -1.5348348e-01
  1.8723348e-01
  1.6816726e-01
  7.7343717e-02
 -1.0912155e-01
 -2.9035013e+00
 -1.1450341e-02
 -1.1123341e-01
  3.6777306e+00
  1.0539869e+00
  5.2463520e-01
  1.4176145e+00
 -1.0856830e+00
 -3.7038097e-01
 -3.0097556e+00
 -1.8397131e+00
 -3.8545125e+00
  4.4025893e+00
 -3.1434817e+00
  7.8434706e-01
  2.5059197e+00
  5.0166372e-02
 -2.4854667e+00
 -3.0225426e-02
 -1.7513853e+00
  1.2122438e+00
  2.9533408e+00
  1.8922843e+00
 -6.1634775e-02
  1.3147979e+00
  2.4299705e-01
  2.1923460e-01
 -4.4302902e-01
 -8.4396273e-01
 -7.8575416e+00
 -2.3430144e-02
 -8.5068531e-02
  1.8157387e-02
  7.0744723e-02
  3.1175518e-01
 -1.6111736e-01
  3.5964042e-02
 -3.0317703e-01
  7.3122419e-02
  8.0806196e-02
  2.3933116e-01
  6.4839572e-02
  2.7959096e-01
 -7.6630145e-02
 -8.3883733e-01
  3.0684643e+00
 -3.7413519e-02
  2.8395632e-04
 -2.6693696e-01
  8.5620445e-01
 -1.2002857e-01
  1.1611567e-01
  3.5199386e-01
 -5.3841588e-03
  2.0746648e+00
 -8.2903124e-02
 -1.6959982e-01
 -8.4794000e-02
  1.7066279e-01
 -3.1424710e-01
  1.3912150e-01
  9.5431216e-02
 -5.9615291e-04
 -3.6269832e-02
  1.3225861e-01
  1.5569058e-01
 -4.5336857e-02
 -1.3434452e-02
  1.0830341e-01
  3.5642602e-02
  2.9486540e-01
 -7.3809929e-02
  2.4560185e-02
  1.5751809e-01
 -1.3644870e-01
 -2.7098994e+00
  2.9299602e-01
  1.1711822e-01
 -5.7390523e-01
  2.7753106e-01
  2.1791174e-01
 -6.6826761e-02
 -1.4215903e-01
  1.6996136e-01
 -7.8138679e-02
 -7.4088998e-02
 -5.6890175e-02
  1.7718172e-01
 -3.8961372e-01
  8.1325300e-02
  8.9915109e-01
 -1.2214233e+00
 -2.0461648e+00
  1.4435740e+00
  1.6589847e+00
 -1.1661862e+00
  9.5702112e-01
 -9.0673643e-01
 -5.8598480e+00
 -2.2979102e+00
  2.0138874e+00
  4.4591355e-01
 -4.4766986e-01
 -2.0029995e+00
  3.1229317e-01
 -3.2464566e+00
 -6.7059784e+00
  8.8606280e-01
  5.1981413e-01
 -1.8996795e+00
 -1.3133343e-01
 -7.3988754e-01
 -2.2335701e+00
  1.6626914e-01
  1.1343866e-01
  6.8514663e-01
 -1.2433405e+00
  1.0756353e+00
  4.2126596e-01
  5.2470285e-01
  8.9638686e-01
  6.9033015e-01
 -2.3934841e+00
 -3.0962484e-02
  2.9016657e+00
  1.3052244e+00
  1.1666774e+00
  5.1560254e+00
  2.7714491e+00
  3.7995705e-01
 -2.8251287e-01
  2.5303347e+00
  4.2929182e+00
  7.6110549e+00
  9.8066723e-01
 -1.8854039e+00
 -3.0597301e+00
  1.0318261e+00
  4.4248050e-01
  1.0675750e+00
  2.2145729e+00
  2.2858417e+00
 -5.7697687e+00
  6.3531950e-02
 -5.8928261e+00
  1.4645104e-01
  2.7466619e+00
 -3.8995540e-01
  1.8357958e-01
  3.8865719e+00
  5.0129569e-01
  5.5563979e+00
  4.8940797e+00
  2.5317967e+00
 -4.9604764e+00
  5.2782707e+00
 -4.6578054e+00
  1.5950938e-01
  7.5773940e+00
 -1.9953183e+00
 -6.1409049e+00
 -2.0636132e+00
 -3.0353429e+00
 -2.1377568e+00
  2.3708029e+00
 -4.8591785e+00
  1.6877659e-01
  3.6211121e+00
  2.9660382e+00
  6.7668265e-01
  4.5420933e+00
 -3.6209180e+00
  2.7658495e-01
  2.7363045e+00
 -4.1551166e+00
  3.2083921e+00
 -1.5368901e-01
  4.7855954e+00
  2.8157204e-01
  4.5382586e+00
 -2.3800065e-01
 -3.4462695e+00
  5.3904433e+00
  5.5401318e-04
 -3.5567009e+00
  2.6197875e-01
  1.1819328e+00
 -1.4001454e+00
 -3.1480622e+00
 -3.7700725e+00
 -3.8900643e-03
 -2.8967357e-01
 -3.2630029e-01
  2.3302369e+00
  3.7526056e-01
  4.8318606e-02
  4.7719002e-02
 -8.6211994e-02
 -2.8960961e-01
 -2.7280619e+00
 -1.5397185e-01
 -4.5103200e-02
  3.7220487e-01
  2.8280590e-02
  1.4797042e-01
 -1.0441086e-01
  2.0693119e-01
  7.8599177e-02
  7.2726287e-02
 -2.7384674e-02
 -3.3783868e-01
  1.1554836e-01
  4.4372123e-01
  6.1336260e-02
  1.4579142e+00
  8.2273141e-02
  2.9860014e-02
  2.5132683e-01
 -3.0324715e-01
 -1.3797386e-02
 -5.8537953e-02
  1.3727030e-01
 -1.7172056e-01
  5.5754489e-01
  1.8607272e-01
  5.8693048e-02
 -9.8756403e-02
  3.6043420e-02
 -4.7229940e-01
 -5.2191770e-01
 -8.2713082e-02
  9.6350022e-02
  2.6771358e-01
 -2.0483346e-01
 -1.1169865e-02
  6.6261224e-02
 -1.2470672e-01
  1.7719660e-03
  1.8835763e-02
 -1.9120805e-02
  9.1997340e-02
  8.9153057e-01
  2.1190964e-01
  1.7059526e+00
 -5.8249731e+00
  2.5394082e+00
 -1.8649355e+00
 -4.8850068e-01
  1.9325588e+00
  3.6522093e+00
  1.9005228e+00
  8.0948275e-01
  4.5047684e+00
  1.4235203e+00
 -2.3866053e-01
 -5.5663099e+00
  4.5159082e+00
  3.7755194e-01
 -9.4921273e-01
 -3.6118284e-01
  1.8605731e-01
 -1.1265519e+00
 -1.4297198e+00
  1.3171713e+00
 -5.3103518e-01
  5.7856095e-01
  2.8621471e-01
  1.2732441e+00
  1.6753344e-01
 -1.4735308e+00
  5.0134158e-01
 -1.5597656e+00
 -2.8333404e+00
  1.3591361e+00
  1.9173365e+00
  1.0134676e+00
 -6.0658716e-02
 -2.9913545e+00
  4.0879577e-02
 -8.6060196e-01
 -1.7365686e+00
  5.5964202e-01
 -5.3626137e+00
 -1.8223436e-01
  2.0650053e+00
 -6.1062539e-01
 -3.0241961e+00
  3.0316820e-02
 -4.5143838e+00
 -9.2758976e-02
 -6.2291403e+00
 -8.3099908e-01
 -8.3270651e-01
  1.9981493e-01
  3.7051715e-02
  3.1857046e-01
  7.1943510e-01
 -8.8202551e-02
 -6.7721777e-02
  4.5919277e-02
  2.5246349e-01
 -5.8485992e-02
  2.0856953e-01
  6.0450214e-01
 -5.4912794e-02
 -2.1759655e+00
  9.2788385e-03
  1.5191606e-01
  8.1654616e-02
 -2.3478022e-02
 -6.6397689e-02
  2.2772732e-01
  6.2429823e-02
  3.0343798e-01
 -8.2282517e-03
  4.5072034e-02
 -3.3001922e-02
 -1.2477452e-01
 -4.8773386e-02
  2.0476899e+00
 -2.9044896e-01
 -1.2766515e-01
  2.4778895e-02
  6.5680772e-01
 -2.7549081e+00
  3.6504361e-01
 -5.5697501e-02
 -1.4394136e-01
  3.7990455e-03
 -7.9991072e-03
  6.7566438e-03
 -1.0874556e-02
 -8.0193388e-01
 -8.7044723e-02
  1.2947461e-01
 -5.9481710e-02
 -1.0387261e+00
 -1.1830565e-01
  5.8829602e-02
 -5.0353444e-01
 -2.4412528e-01
  1.2211946e-01
  1.4641447e-01
 -1.1322807e-01
  8.0487543e-01
 -2.5702107e-01
  1.3326050e-01
  1.3031958e-01
  7.5453117e-02
  4.0651926e-01
  3.3434559e-02
 -6.1960267e-03
  5.5851355e-02
 -2.1523541e-01
 -2.9545002e-02
  7.6543134e-01
  3.6154792e-02
  1.1564809e+00
 -4.1013104e-01
 -1.5089387e-01
 -4.8787247e-02
 -5.7167759e+00
  2.0574036e+00
  2.5478285e-02
  2.1626780e+00
  2.3691369e-02
  4.1971021e+00
  4.7621328e-02
  2.9914191e-01
  4.3270107e-02
  6.7030048e-01
 -9.9574573e-02
 -2.2407681e-02
 -9.5698990e-02
  1.7818340e+00
  4.7747388e-01
 -8.2738876e-02
 -7.7908210e-02
 -1.3519684e+00
 -3.9222109e-01
 -7.2609770e-01
 -9.2793414e-03
  3.5323698e-02
  4.5645777e-02
  3.1675365e-02
  1.1433272e-02
  1.3938127e+00
  1.9242552e-01
 -1.1463711e-01
  4.5879632e-02
  2.2107728e-02
 -8.1492780e-04
 -4.1543737e-02
  3.7617093e-01
 -7.5065777e-02
  4.4017348e-02
 -1.3617857e-01
  7.9781888e-03
 -1.0195629e-01
 -2.3541082e-01
  5.3696599e-02
  5.7850458e-02
  7.2400965e-02
 -1.1473752e+00
  3.9772414e-02
 -2.8300753e-01
  7.7803291e-02
  4.8966756e+00
 -4.7890327e-04
  9.2589617e-02
  1.3253675e-01
 -4.4997785e-02
  1.0001628e-01
  4.3896475e-01
 -6.6746600e-02
  7.1157560e-02
  9.4318889e-02
  2.5947616e+00
  2.0603226e-01
 -9.4933799e-03
 -9.7377144e-02
 -2.2151867e-02
  1.4576234e-02
 -2.2236380e-01
 -1.1898451e+00
  6.8012625e-02
  3.7230637e-02
  3.6108108e+00
 -6.5562412e-02
  7.5328219e-01
 -8.6476197e-03
 -1.3065352e-01
 -4.0472287e-01
  1.6439418e-01
  7.5357151e-01
  2.3803517e-02
  1.5250963e-01
 -8.3080679e-02
 -1.0695651e-01
 -5.7716109e-02
 -1.8578814e-02
  1.0538622e-01
 -4.2297363e-02
 -7.5263962e-02
 -2.2300582e-01
  3.5081539e-01
 -2.9105896e-01
  2.0229636e-01
 -7.5491801e-02
 -3.8042642e-02
  2.9665941e-01
 -4.1648675e-02
 -2.1055439e-02
  2.6916081e-01
  5.1362403e-02
 -7.2633013e-02
  1.4833917e-02
 -2.4956277e-02
 -1.1418857e-01
 -1.0302863e-01
 -2.4627434e-01
 -3.4475543e+00
 -8.1004091e-02
  5.1998973e-02
  7.1443684e-02
  9.2032272e-01
 -4.8098825e-02
  1.0090235e-01
 -4.8056570e-01
 -5.6516919e+00
  7.4953720e-02
 -1.1272044e-01
 -3.0215921e-02
 -1.9161649e-02
 -1.2382560e-01
 -6.5032852e-01
 -6.7688175e-02
  4.1750059e-02
 -4.1057980e-01
  3.9177719e-03
 -2.6828855e-01
  8.3706707e-02
  7.0157967e+00
  5.3499073e-02
 -3.5670546e-01
  2.2342955e-01
  1.4588897e-01
  2.1582976e-01
 -7.6711603e-02
  1.1002705e-01
  4.8628435e-02
 -4.7076857e-03
 -7.8246966e-03
 -2.3198502e-01
  5.7590204e-01
 -5.6443119e-01
 -1.3409082e+00
  7.3272115e-01
 -2.9032106e+00
  3.0107954e+00
 -9.5957178e-01
  1.3446198e+00
 -3.8861573e-02
 -2.3266797e+00
  7.7832299e-01
  1.5397849e+00
 -3.3514473e+00
  9.9073368e-01
  1.9778382e+00
 -4.9880276e+00
 -8.2066929e-01
 -2.9829235e+00
 -3.2730889e+00
 -3.6701152e+00
  3.1290145e+00
 -1.3051926e+00
 -1.7177703e+00
  1.0336799e+01
  6.6733587e-01
 -1.1716992e+00
 -7.7773446e-01
 -7.1272242e-01
  1.7498443e+00
 -1.8655612e+00
  3.0164323e+00
  1.6653093e+00
  9.4962135e-02
 -1.6034000e+00
 -8.2905233e-01
 -4.7884980e-01
  2.5582690e+00
  1.1668544e-01
 -1.0593470e+00
 -1.0677900e+00
 -1.4372171e+00
 -4.0667648e+00
 -8.9356381e-01
  2.6117561e+00
  1.4678614e+00
  8.6474562e-01
  4.8208028e-01
 -4.6336269e-01
 -1.8550646e-01
 -2.1300722e-02
 -8.1399047e-01
  3.9825392e+00
  9.3525476e+00
 -2.5127605e-03
  3.6596286e-01
  2.4498801e-01
  4.8433941e-02
  1.1472926e+00
 -3.3629350e-02
  4.2854376e-02
  7.1493750e-03
 -2.7077451e-01
  2.3919959e+00
  3.3913542e-02
  2.5158045e-01
  5.6205634e-02
  9.9631578e-02
  1.3908617e-01
 -8.3347969e-03
 -1.1451771e-02
 -1.4324970e-02
 -1.3484433e+00
  9.4972357e-02
 -5.1088519e-02
  1.1272777e-01
 -1.5665735e-01
  2.6912143e-02
  5.8916610e-02
  2.6181298e-01
  1.8248084e-01
  4.1071601e-02
 -3.9491588e-01
  3.6364235e-02
  2.0929337e-01
  2.4431673e-04
  1.8839464e-01
  8.6043489e-01
 -2.4673584e+00
  1.9439903e-01
  2.3077471e+00
 -2.6053599e-01
 -4.2907709e-01
 -4.9181089e-02
 -3.1850663e-01
 -1.7045994e-01
 -1.0692150e-02
  1.5243612e-01
  5.6881484e-02
  1.5441323e-02
  1.8925165e-01
 -1.8453826e-01
 -2.1769434e-01
 -1.3118605e-02
 -2.1381242e-02
  1.8620258e-02
  9.9711072e-01
  1.1931193e+00
 -9.2260468e-01
 -1.6968673e+00
 -2.4450433e+00
  5.1582891e-01
 -2.9543784e-01
 -5.8450335e-01
  4.7964294e-02
  1.5811761e-01
  4.2216554e-02
 -4.2567329e+00
 -1.2948495e-02
 -4.9520311e+00
  4.2262030e+00
 -6.0256946e-01
 -8.0245936e-01
  2.9152643e-02
  3.2662926e+00
  2.5631947e-02
  3.1847745e-02
 -1.2198954e-01
 -2.3174943e-01
 -2.2875017e-01
  5.2310067e-01
 -3.1193942e-01
  1.3689743e+00
  6.8049914e-01
  1.5460207e-01
  2.5411978e-02
  1.3135976e-01
  1.4170760e+00
 -5.1904845e-01
 -3.6913615e-01
 -2.4375632e+00
  1.1141509e+00
  1.9677855e-01
  6.1777794e-01
 -1.5601386e-01
  3.2572510e+00
  1.7380564e-01
  1.7186100e+00
 -1.5956630e-01
 -1.3404132e-01
 -1.1451069e-01
  9.9966086e-02
  1.3353656e-01
 -7.9676516e-02
  1.9307408e-01
  5.9127133e-02
 -3.3215690e-02
 -1.1517123e-02
 -1.3010159e-01
  5.9698850e-01
  1.3225801e+00
 -7.8636035e-02
  6.6493098e-03
  4.5089599e-02
  3.0356621e-02
 -2.5833741e-01
 -3.0153466e-02
 -7.8139929e-03
  1.3772003e-01
 -3.1041894e-02
  3.1928924e-01
  6.7694090e-02
  1.4823093e-01
 -1.3242067e-01
 -3.3330342e-01
  5.2392449e-02
  1.2191118e-01
 -1.1598486e-02
 -9.8091871e-02
 -8.0503877e-03
  6.1253384e-02
 -3.2477847e-01
  1.9892003e-02
  1.5780613e-01
 -4.5398298e-01
 -1.4956221e-02
 -1.4704774e-01
  8.0794942e-01
  3.5594616e-02
  7.9320215e-02
  6.4137155e-01
 -5.2072539e+00
  3.1828646e-02
  2.1077752e-02
  1.2717995e-01
  1.0033899e-01
  1.1197186e-02
 -3.6704725e-01
  1.2350310e-01
 -2.4124622e-01
 -3.7001958e-01
 -1.1111036e-01
 -1.0118653e-01
 -3.4511566e-01
 -2.8594649e-01
 -3.5473719e-02
 -6.2136788e-02
  3.5730734e+00
  2.9952450e+00
  9.6462935e-02
  6.9361854e+00
  7.5289673e-01
 -2.8683938e-02
 -5.8248359e-01
  3.5367031e-02
  2.0379422e+00
 -3.4680575e-02
 -2.2062309e+00
  1.3565387e-01
  8.0133609e-02
 -9.7923353e-02
 -1.3432810e-01
 -2.3900731e+00
  7.0412749e-01
  2.0111069e-02
  1.5884271e-02
  9.8366298e-02
 -1.5740591e-01
  1.4188373e-01
  1.2296641e-01
 -8.6347960e-02
 -2.9881980e-02
 -7.1613699e-02
 -4.9588871e-01
 -1.2204558e+00
 -6.7590609e-02
  1.3138665e-02
  1.2261497e-01
 -4.4741903e-02
  2.8538027e+00
 -1.3257426e+00
  7.5808845e-02
  1.1272667e-01
 -3.8607966e-02
  1.0429109e-02
  2.8022707e-01
  7.8543872e-02
  1.3252349e-01
 -4.6780127e-01
 -9.0107873e-02
 -1.2789969e-02
 -7.1256720e-03
  2.0466082e-01
  1.3469400e-01
  1.5756955e-02
  6.2090876e-03
  9.8269790e-02
 -1.5885751e-01
 -6.4817756e-02
  1.1168412e+00
 -1.2330919e-01
  4.5980532e-02
 -6.8938546e-03
 -6.6438168e-02
  1.7996243e-01
  7.1988404e-02
 -9.0893898e-03
  4.2439904e-02
 -9.3928128e-03
 -2.1533279e+00
 -7.3477232e-01
 -1.9035451e-02
 -6.7244180e-02
  1.9157511e+00
  1.4612003e-01
  1.5312116e-01
  4.5963243e-02
 -1.7903955e-01
 -2.3721595e-01
  1.3562856e-03
  5.6603037e-02
 -2.3538642e-02
 -2.4682317e-02
  1.5648041e+00
 -1.9568310e-04
  1.7617609e-01
  3.5500443e-01
 -2.6001288e-02
  3.6595402e+00
 -1.5158573e-01
  3.3607271e-02
  5.8486152e-02
  1.1383314e-01
  4.4458561e-02
 -7.7976519e-03
 -2.5475435e-02
  5.0468419e-02
  4.7043741e-02
  1.1721703e-01
  1.3510424e-01
  2.6917906e-02
 -4.6305531e-03
 -1.1433811e-03
 -2.4320030e-01
 -6.4696036e-03
  3.2622632e-02
  2.3628682e-02
 -2.8287163e-01
 -9.0308897e-02
 -2.1754444e-02
 -2.3487482e+00
 -8.1950771e-03
 -4.8153542e-02
 -5.9961889e-02
 -1.4393960e+00
  9.8701350e-02
  8.8750857e-01
 -1.1248469e-01
  5.2371334e-02
 -1.6659465e-02
  6.4946935e-02
 -8.4445424e-02
  8.7325191e-01
  3.6350963e-01
 -1.9059700e-01
 -8.8769430e-03
 -4.9696777e-02
 -3.3428782e-01
 -4.1971591e-01
 -2.7345685e-02
 -2.9199550e-01
  1.4750437e-02
 -5.2197390e+00
 -3.2116771e-02
  4.1008224e+00
 -2.0116213e-01
  1.3861512e-01
 -5.8063883e-02
 -9.8572075e-02
 -1.4264853e-01
  1.0750134e-02
 -1.2696613e-01
 -9.8418370e-02
 -5.1365439e-02
  4.9328968e-02
  1.0394255e-01
  2.4952114e-02
 -2.1840157e-02
  5.1550992e-02
  2.7355183e-02
  1.7892802e-01
 -7.4962772e-02
  1.0700459e-01
 -1.0842392e-01
 -2.6807796e-02
 -3.5970017e-01
 -3.8485003e-01
  2.0360591e-01
  5.3248806e-03
 -1.0193162e-01
  9.3722185e-03
 -8.5750186e-01
 -1.3215326e-01
 -1.9252458e-01
 -1.2718247e-01
  5.7844061e-01
 -1.3739125e-01
  5.2514113e-02
 -1.3363798e-01
  1.2006593e-01
 -1.3767713e-01
 -9.9360444e-02
 -1.1979107e+00
 -7.4912995e-02
 -7.1856785e-01
  4.1757707e-02
 -2.2358845e-01
 -1.2246657e-01
  3.0773777e-01
 -6.3119310e-01
  2.1381502e+00
 -3.4907010e-01
 -3.5104040e-02
 -4.0970153e-01
 -2.5892975e+00
  2.5362253e-01
  4.2674031e+00
 -9.7732151e-01
 -1.3863088e+00
 -4.3263314e-03
 -9.5759815e-01
 -4.4909713e-01
 -1.6390464e-01
  1.2826410e-01
  5.4302126e-02
 -4.8815921e-01
  4.3698188e-02
 -4.0125573e-01
  1.6096102e-01
  3.1783286e-01
  1.4733551e-01
  1.0863493e-01
 -1.7764752e-01
  9.9795848e-02
  2.1792665e-01
 -7.4442872e-03
  9.2716247e-02
  1.3474068e-02
 -6.4647877e-01
 -1.8290937e-02
 -9.5565576e-04
  6.5874686e+00
 -6.5620842e+00
 -7.8851372e-01
  1.9834058e+00
  2.3651719e+00
  2.6264453e+00
 -1.0096339e+00
 -5.3298312e-01
 -2.0269346e+00
  2.3504153e-01
  8.5209680e-01
  6.1830401e+00
 -1.2164339e+00
 -3.1062920e+00
 -4.1066198e+00
  1.2714185e+00
  3.1388009e+00
  1.5488912e+00
  4.5915632e+00
 -1.0432919e+00
 -9.8958772e-01
 -2.9986423e-01
 -4.4234589e-02
  2.5864427e+00
  4.2164688e+00
  1.1897891e+00
 -1.0637408e+00
  2.8019180e+00
 -1.6822945e+00
 -9.1323274e-01
 -6.0430530e-02
  9.9153481e-02
  4.1538568e+00
  2.9578068e+00
 -7.1380693e-01
 -2.2425776e+00
 -3.5558138e+00
  7.0716887e+00
 -2.1218341e-04
 -8.2196224e-01
 -1.0643201e-02
 -6.5754551e-01
  2.8007739e+00
  1.2426741e-01
 -1.6776012e-01
 -8.3706200e-01
 -2.5961396e-01
  1.4958888e-01
 -1.0801987e-01
 -8.9845514e-01
 -1.8878134e+00
  9.3731716e-02
 -2.6818070e-01
 -1.8348701e+00
 -6.1023682e-01
 -5.5893893e+00
  3.8964462e+00
  2.2160171e-01
 -2.4157627e+00
  1.7492192e+00
  1.9661811e-01
  2.6030337e-02
 -2.3735416e-01
  9.2295122e-01
 -7.8978755e-02
  1.4326937e-01
  3.0595608e+00
  4.7377357e-01
 -1.7606058e+00
  1.3774005e+00
  4.3224551e-02
 -6.4579784e-03
  1.8998377e-01
  2.3101997e-01
 -3.4349225e+00
 -5.6590813e-01
 -1.0509287e+00
  3.0110123e+00
  3.1616356e-02
  1.9970207e+00
 -7.2922099e-01
  3.2448411e-02
  1.5952265e+00
  2.9689579e+00
  3.3987834e+00
 -1.4184724e-02
 -3.0280077e+00
 -7.4557126e-01
 -2.2802615e-01
  6.9803417e-02
  1.0419077e-01
 -3.7515531e+00
 -4.9029961e-02
  7.4366443e-02
 -1.3186158e-01
  1.4774942e+00
  1.7541334e-01
  1.3186160e-01
  6.6109073e-01
  4.8499987e-02
 -9.3858600e-02
 -9.3543380e-02
 -3.1500429e-01
 -7.0131388e-03
  8.2734120e-01
  1.1114587e-01
  7.8005925e-02
 -1.5787359e-01
 -1.2959111e-01
 -3.8560320e-02
  4.2019138e-01
  1.7241050e-01
  4.5074452e-02
  3.4140803e-02
  8.1196353e-02
  1.1563964e-02
 -1.2930600e-01
  2.7232155e-01
 -2.3292373e-01
 -1.2368183e-01
 -1.5699205e+00
 -2.8225570e+00
 -6.7271210e-02
  3.4757742e-01
  1.4718838e-01
 -2.7320424e-01
  1.3965853e-01
 -4.9537673e+00
  7.9675920e-02
  3.0480200e-02
 -1.9718060e-02
 -1.0493465e-01
 -1.0215659e+00
  1.3558517e-01
  6.6751540e-02
 -6.3974425e-02
 -5.8795339e-01
 -7.0162624e-02
  1.7090587e-01
 -1.4768462e-01
 -1.1743404e-01
  1.4891283e-01
  5.9958909e-02
 -2.5634641e-02
 -3.5851829e-02
  1.8709891e-01
 -1.7675298e-01
 -7.7177748e-02
  2.8289622e-02
 -1.2239289e-01
 -1.2691386e-02
 -4.3812241e-02
 -4.6988547e-02
  9.9455595e-01
 -2.0181675e-01
  2.6966873e-01
 -2.3725891e+00
  1.3030070e-01
  1.5694520e+00
  5.3541813e+00
 -1.5715961e+00
 -1.2346347e-01
 -7.6945782e-02
 -1.7134921e-01
 -2.6012543e-01
 -1.1114986e-01
  4.5840088e-01
  1.0931665e+00
 -8.4033889e-01
 -1.5892993e+00
 -4.5882991e-01
  1.3023385e+00
 -6.0396638e-02
 -2.9964939e-01
  2.7731662e+00
 -9.6359640e-01
 -1.7638180e-01
 -2.1670129e+00
 -4.6649650e-01
  3.2350912e+00
 -1.7380309e+00
  5.7984395e+00
  1.4536879e+00
  7.8196054e+00
 -9.2804682e-01
  7.4621350e-01
  2.7253696e-01
  8.1530958e-02
  1.3148791e+00
  1.1425106e-01
 -3.0334026e-01
 -1.7116621e-02
 -2.2179877e-02
 -1.1685224e+00
 -2.8344076e-02
  6.2196035e-02
 -9.9802814e-02
  6.0945332e-01
  2.0560801e-02
  5.1039273e-01
 -1.3524844e-01
  5.7702344e-02
  2.0241790e-01
 -1.5648188e-01
  3.7724078e-02
  3.4903293e+00
 -3.8725290e+00
 -8.0750341e+00
 -3.9002869e+00
  2.3895140e+00
 -5.3426094e+00
  3.2107749e+00
  5.3296533e+00
  8.3885849e-01
  4.8852320e+00
  9.7071438e+00
 -4.8548594e+00
 -8.6885691e+00
  6.8723716e-02
  1.0584924e+01
 -3.2338624e+00
 -2.8963552e+00
  3.8607268e+00
 -4.8913617e+00
  2.3163754e-01
  5.8337240e+00
 -5.9880061e+00
  5.8473015e-01
 -5.0045853e+00
 -5.9899993e+00
  2.9996666e-01
 -5.4283648e+00
 -2.4933445e+00
 -7.1300077e-01
 -3.2689583e+00
 -3.3596578e+00
  3.4899592e+00
  2.4971384e-01
  2.0665455e+00
  1.2720116e+00
 -4.4243727e+00
 -3.7534305e-01
  1.6540425e+00
  3.1562811e-01
  7.3884439e-01
  2.4574868e-01
  5.0926738e+00
  2.5100807e-02
  7.8912720e-02
  4.2167716e+00
 -6.3638292e-02
  5.2602166e-01
 -1.1735573e-01
  6.6176853e+00
  2.6038775e+00
  5.8197409e-01
 -6.7730737e-01
  1.8351015e-01
  9.3559928e-02
 -2.9082903e-01
 -3.2778636e-01
  4.0487930e-01
  4.2278001e-01
 -1.2803042e-01
  1.7609051e+00
  7.0767015e-01
  8.2584329e-02
 -2.0979221e-01
  6.2073928e-01
 -4.6277741e-01
 -2.0766878e-01
 -6.1959922e-02
 -7.1696055e-01
  1.7849855e-01
  7.0765883e-02
  3.4796596e-01
 -1.9902283e-01
  2.2892578e+00
 -6.7439720e-02
 -1.8799763e+00
  4.4275325e-02
 -1.5041296e+00
 -4.2713970e-01
  2.1214247e+00
 -5.3127372e-01
 -2.0291252e-01
 -3.6009707e+00
  1.0080861e-01
 -1.3642470e+00
  1.5784436e-01
 -1.6570231e+00
  5.3547926e+00
  8.3291277e-02
  3.9131247e-02
  3.4810996e-01
  9.5615901e-02
 -7.3495150e-02
  2.1422692e-01
  1.2328174e+00
  1.3643756e-02
 -1.1376490e-01
 -4.2695737e-01
 -7.8582829e-01
 -2.1975148e-01
 -1.4236701e+00
 -4.0637277e-02
 -1.6961673e-01
 -8.1888102e-03
 -2.7580723e-01
  1.8291731e-01
  1.4487834e+00
 -6.9993086e-02
 -4.5681966e-04
  6.1292775e-02
 -1.9194487e+00
 -7.7470213e-02
 -1.3635056e+00
 -3.9636409e-01
  2.1337481e-02
  3.7736930e-02
 -7.7538383e-03
 -7.3423707e-03
  3.0277228e+00
  2.0104250e-02
 -7.4941739e-03
 -3.2485047e-01
  2.0675355e-01
  1.0538861e-01
 -1.3904463e-01
  5.4121625e-02
 -1.6670182e-01
 -4.0307902e-03
  1.1290908e+00
 -1.3026535e-03
  2.3618364e+00
 -3.1786460e-02
 -9.1013119e-02
 -4.4494864e-02
 -1.2788887e-02
  7.9138410e-01
 -9.5649108e-02
 -9.2514575e-01
 -1.4491373e-01
 -2.2412030e-01
 -1.1906057e-01
 -7.7601832e-01
 -7.3547292e-01
 -7.7897406e-01
 -1.5923497e-01
  2.6799856e-02
 -1.2276831e-01
 -1.0995559e-02
  2.1104166e-01
 -4.4523990e-01
 -2.5565429e-02
  9.9054319e-01
  6.0588378e-02
 -4.2838864e+00
  1.1717544e+00
 -1.1241138e+00
  1.8209684e+00
  2.6859722e+00
 -6.6771948e-01
 -1.0443819e-01
  5.9007921e+00
  1.8732109e+00
  2.6303610e-01
  1.1558619e+01
 -5.0020270e+00
 -7.0641336e+00
  1.7167424e+00
  2.2628922e+00
  1.2804940e+01
  2.1565831e+00
  6.7741017e+00
 -1.9467010e+00
  3.4877554e-01
  3.2225695e+00
  2.4963303e-01
  1.3036538e+00
  3.2353666e+00
  4.6490283e+00
 -1.1369151e+00
  1.9143411e+00
  4.2087350e+00
 -1.8733368e+00
  1.7209361e+00
  1.4526044e-01
  7.6636708e-01
  4.3726764e+00
  3.2521913e+00
  7.9715282e-01
 -3.2444301e-01
 -5.3837271e+00
  3.2486167e+00
 -4.3524494e+00
 -7.9780398e-03
  6.0355010e+00
 -3.7725203e+00
 -4.7344718e+00
 -7.3140206e+00
 -1.7135229e+00
 -8.6902356e-01
 -2.7845586e-02
 -8.4303598e+00
 -3.4406977e+00
 -1.4536079e+00
 -3.5722843e-01
 -9.9458493e-02
  1.0891500e-01
  7.9801679e-02
  1.7697324e-01
 -1.1002683e-01
 -2.4892361e-01
 -4.4685755e-02
  2.2200676e-02
  2.4565965e-01
  9.2823617e-02
  3.9239967e+00
  9.8127353e-01
 -3.4525496e-01
 -9.3785316e-02
 -1.2331342e+00
 -4.4480961e-02
  6.1468217e-03
  5.5436768e-02
 -1.9697311e+00
 -3.2868210e-02
 -2.0494558e-01
 -1.9171013e-01
  2.8423345e-01
 -4.8683265e-01
  1.0396639e-01
 -8.7466575e-03
  1.1679606e+00
 -2.9410362e-01
 -3.7864383e-02
  7.4273132e-02
  5.2556902e-02
 -1.1482433e-01
  9.4309106e-02
 -1.5606615e-03
  1.0564632e-01
 -3.6476634e-02
 -5.9911990e+00
  3.7824489e-02
  2.6397593e-02
 -3.1789863e-01
 -6.8284452e-02
  7.7555999e-02
 -1.9872055e-04
  9.7217426e-02
  2.2073366e-01
  4.5412290e-03
  4.4787314e-02
  2.8344729e+00
  4.0804200e-02
  5.0591808e-02
  3.2710880e-02
  9.7052002e-01
 -1.6410342e+00
 -3.5643134e-01
  2.1319246e+00
  8.0966363e-03
  1.2203498e+00
 -2.5512770e-01
  2.4602538e-01
 -3.6132398e+00
 -2.5244260e+00
 -2.6975906e+00
 -3.4341320e-02
  5.2952570e-01
 -4.9064054e+00
 -2.7454942e-01
  3.7834947e+00
 -1.1383808e+00
  2.1410654e+00
 -8.6685932e-01
 -1.2416018e+00
  1.4056665e+00
  4.8247445e-01
 -9.7676980e-01
  2.2518663e+00
 -5.9679812e-01
  1.4311965e+00
  6.4074975e-01
  1.2202463e+00
 -2.3768457e-02
 -3.7241330e+00
  1.4566393e+00
  7.7030361e-01
  2.2696486e-01
 -1.3472680e+00
  9.5278674e-01
  3.2317868e-01
 -1.0470827e+00
  1.6456496e+00
  9.5105785e-01
 -2.0854230e+00
 -3.9872077e+00
 -3.3178660e-01
 -1.7026685e+00
 -1.3812124e+00
 -9.7782612e-01
 -2.3567169e+00
  1.1358831e-02
 -2.2406708e-01
 -1.2156242e-01
 -1.9273324e+00
 -1.9245703e+00
  1.5791515e+00
 -5.2945912e-01
  1.1330312e-02
  1.6610682e-01
 -3.5093434e-02
  6.7430401e-01
 -1.1537549e+00
 -1.2171187e-01
 -2.2216594e+00
  2.0745366e+00
  1.0336044e+00
 -2.4453422e-01
  1.1646492e+00
 -1.2328477e+00
  3.0729208e+00
 -1.6487790e+00
 -5.6386584e-01
 -1.6047744e+00
 -3.7616107e-01
  4.4630280e-01
 -2.4548402e+00
  4.7681648e-01
 -8.6371344e-01
  3.4884593e-01
 -8.0913246e-01
  1.5989197e+00
  7.5862157e-01
 -4.1720958e+00
  4.9458337e-01
  9.0306157e-01
  1.1859609e+00
 -1.2915304e+00
  8.4540433e-01
 -2.5210276e-01
 -2.8850144e-01
 -2.9803953e-01
  1.6223673e+00
  4.3737215e-01
  1.2045211e+00
 -4.7018642e+00
 -4.1440719e-01
 -6.4251855e-02
 -4.2413732e-01
  1.4314336e+00
 -4.9547729e+00
 -3.2219353e+00
  2.8122538e-01
 -3.0825615e+00
  5.9800643e-02
 -3.7067261e+00
 -7.9950452e-01
  4.5406964e-01
 -1.9634701e-01
 -2.3122238e-02
  1.2361258e-01
 -1.3044640e-01
 -3.4378503e-02
  8.8993035e-02
 -2.5302836e-01
 -3.2906741e-01
 -5.0151847e-02
  2.8136836e-02
  1.6443663e+00
 -3.8367923e-02
  8.5326865e-02
 -3.4911852e-02
  3.3500478e-01
 -1.1799518e-01
 -1.4177930e-01
 -1.6367404e-01
 -2.3750269e+00
  8.8421315e-01
  2.6773447e-01
 -1.0929761e-02
 -5.6841290e-01
 -6.0215022e-02
 -1.5092574e-01
 -3.5776507e-02
  1.3448231e-01
  3.8430694e-02
 -9.6925706e-02
  1.1803356e-01
  1.4443054e+00
 -5.4949981e-01
  8.3812125e-02
  9.1019168e-02
 -4.6191476e-02
  1.4041555e-01
  3.9612640e-02
  1.9176364e+00
  1.4639028e-02
  1.8006127e-01
  1.0878156e-02
 -1.2916611e-01
  2.1387701e-01
 -5.2353993e-02
 -2.3232467e-01
  1.8707229e-01
 -1.4382550e-01
  2.3840157e-02
  1.3023688e-01
  1.2380642e-01
 -1.2061651e-01
 -8.6174941e-01
 -3.8052019e-01
  1.8344095e-01
 -3.1618688e-01
  2.6438731e-01
 -2.3531358e-01
  9.2756348e-03
  2.3326811e-01
  8.4451348e-02
 -1.4929588e-01
 -9.3214875e-01
  4.3241451e-03
 -1.7551862e-02
 -9.4652921e-02
  4.0758751e-02
 -1.7897904e-02
  2.2663791e-02
 -5.8005385e-02
 -9.6639711e-03
 -3.5235099e-02
 -8.5223831e-02
 -3.7452543e-01
 -3.5201231e-01
 -4.7386488e-01
  1.6991822e-01
  1.7457031e+00
 -3.6302489e-01
 -1.6386424e-01
  5.1308598e-02
 -1.0021638e-01
 -9.2694998e-01
  3.4180626e-02
 -6.8726331e-02
 -3.4097042e-02
 -1.1567625e-02
  1.4760308e-01
  8.2498431e-02
  2.9300231e-01
 -4.9070425e-02
 -3.8298570e-02
 -1.7854637e-02
 -8.6647324e-02
  3.6279511e-02
 -2.2619155e-01
 -6.1480645e-03
  2.8736042e-02
 -2.1141833e-01
 -1.6989082e-01
  1.9091791e-01
  3.5930192e-01
  1.1948516e+00
  1.1639047e+00
 -1.5216269e-01
  2.5226256e-01
  5.7354194e-01
 -9.3768992e-02
  3.0960765e-01
 -7.5262889e-02
 -3.5261828e-01
 -6.2816362e+00
 -6.5115821e-01
  1.3210240e-01
  4.5904215e-02
  4.2320094e+00
 -2.1856460e-01
  1.9456863e+00
  1.1186460e+00
  1.5050994e+00
  4.0036397e+00
 -1.8531632e-01
 -2.6156611e+00
  1.1950696e+00
  1.6227357e+00
  2.1766686e-01
  9.1548525e-02
  7.7025896e-01
 -7.6159382e-01
  7.9811525e-01
  1.6374215e+00
 -3.2881582e-01
 -1.8215230e-03
  1.7289292e+00
  3.8268918e-01
 -1.7530775e+00
  5.3527904e-01
 -6.7645647e-02
  1.7351155e-01
 -3.0511436e-01
  1.5431727e+00
  1.2694697e+00
 -3.6052721e+00
 -5.5582476e-01
  3.4007761e-01
 -8.5277539e-01
  1.5477923e+00
 -3.1192130e-01
 -3.3952061e-02
  5.3824818e-01
 -2.0462822e-02
  2.0205350e-01
  3.0981634e+00
 -7.2556323e-01
 -1.0508121e+00
 -6.6721514e-02
  2.2764216e-01
  4.9596677e+00
  6.1420155e-01
 -2.1953640e+00
  1.6287438e+00
 -1.5836196e+00
 -3.6785336e+00
  2.4909332e+00
  6.9983482e-02
 -2.0325317e+00
 -9.9916928e-02
 -7.3252721e+00
 -2.2509561e+00
  2.1302159e+00
 -7.8468752e-01
  1.0318367e-01
  6.1552110e+00
  1.7505679e+00
  4.3947368e+00
  8.4785551e-01
 -2.0603368e-01
  6.4921188e-01
  4.9255176e+00
  3.5706701e+00
  2.8464563e+00
  5.5172455e-01
 -3.6161408e-01
  2.8346106e-01
 -2.0094149e+00
  3.9155154e+00
 -7.7112401e-01
 -1.6040465e+00
  2.8958671e+00
 -4.9145675e+00
 -1.7253213e-01
 -3.1825438e-01
 -2.8157450e-02
  5.5397313e-02
  1.1642301e+00
  2.6680472e+00
 -6.4376593e+00
  2.6282492e-01
  5.4339342e+00
 -1.7439377e-02
  8.4099025e-01
 -5.3873652e-01
 -7.7113706e-01
 -3.6001828e-02
  1.4244896e+00
  3.3108971e-01
 -1.0260841e-01
  9.1472968e-02
  1.5752798e-01
  3.3395055e-01
 -7.7138186e-01
  5.3356737e-01
 -5.3168112e-01
 -2.6956657e-01
 -1.5865037e-02
 -1.7823953e-02
 -1.6084983e+00
  3.2085924e+00
 -4.0314367e-01
  4.0355489e-02
 -4.3807366e-01
  3.5005044e-02
 -1.6465621e-01
 -2.3118605e-01
  5.8343366e-02
 -2.2167668e-02
  8.1983477e-02
 -1.0838508e-01
  3.7471369e-02
 -2.5871179e-01
 -3.3365858e-01
  8.7877952e-02
  2.9781485e-01
  3.6340860e-01
 -2.6564690e-01
 -2.5231242e-02
  4.0925699e-01
  2.7569884e-02
  1.2718105e-01
 -8.9607701e-02
 -3.8889784e-01
  4.2533606e-02
 -1.8702744e+00
 -1.0856640e-01
 -9.3733510e-03
 -1.7538500e-01
  1.8758915e-02
 -8.6470008e-01
 -1.6048467e-01
  2.7827075e-01
 -1.6576990e-02
  3.1789131e-02
 -6.5110907e-02
 -8.9562851e-01
 -8.5643816e-01
  5.2013230e-01
  1.6182098e-01
 -2.8057560e-01
  4.7394041e-02
 -2.2278383e-01
 -8.9991480e-02
  3.5773320e+00
  2.5063625e-01
 -2.1047363e-01
  1.7298466e-01
 -2.4992023e-01
 -1.3353989e-01
  3.0051444e+00
 -2.9372303e-02
 -2.4771951e-02
 -8.2068428e-02
  6.5722626e-01
 -4.7358569e-02
 -8.1023492e-02
  9.7951598e-02
 -3.1410236e-02
 -6.9418170e-02
 -2.8825334e-01
  1.6460065e-02
 -7.2207093e-01
 -1.1956786e-01
 -3.4777099e-01
  4.8309568e-02
  1.4829850e-01
  1.6763867e-01
  2.1692374e-01
  1.2988745e-01
 -1.0161606e-02
  2.7034717e-02
 -1.7934084e-01
 -3.2940209e-02
 -1.7870679e-03
  1.9113715e+00
  1.7224627e-02
 -2.0622122e-01
  1.3712044e-01
 -8.2471721e-02
  2.2060305e-01
  1.4349161e-01
 -1.0034256e-01
 -1.3996651e+00
 -1.2334168e-01
 -1.3603960e-01
  8.3738223e-02
  7.4286349e-02
  4.8050530e-02
  1.1435498e-01
 -2.4176152e+00
  5.9554249e-01
 -3.0164564e-02
  1.7091099e-02
 -2.3065089e-01
  2.7895838e-01
  1.6614195e-02
  2.9621449e-01
 -3.0370290e+00
 -9.4853535e-02
  3.7863570e-01
 -3.4929177e-01
 -7.1644455e-02
 -9.5534891e-02
  4.3612230e-01
 -6.3263245e-02
  6.8884147e-03
 -7.3830968e-01
  3.8924665e+00
  5.8988240e-02
  2.3145897e-02
 -5.5165112e-02
  5.7046402e-02
  5.7967804e-02
  1.8054380e+00
 -5.5388719e-01
  1.5960814e-01
  2.2261338e-02
 -7.0516109e-02
  1.8612193e-02
  1.9646530e-01
  3.7943923e-01
 -3.1431404e-01
 -1.2981188e-01
  1.7264931e-01
 -7.7803992e-02
  1.0886060e-01
  1.1945592e-02
 -3.3418215e-03
  4.8003995e-01
  3.3009737e-03
  1.4294209e-02
  1.3255435e-01
 -2.5830024e-01
  6.1415516e-02
 -1.6125381e-01
 -7.6194063e-02
  5.7475609e-01
 -7.6866664e-02
  2.6534263e-02
 -1.2414505e+00
 -4.3856544e+00
  4.3702726e+00
  7.2432011e-01
  2.2417965e+00
  1.4565423e+00
  1.2687242e+00
  6.4077586e-01
 -7.6816583e+00
  8.7766506e-02
 -2.7470009e+00
 -1.2433319e+00
 -2.9467821e+00
  2.3211544e+00
  1.5578458e+00
 -6.0201846e-02
 -3.4248903e+00
 -7.8759170e-01
  3.3375204e-01
  1.6702760e+00
 -3.0490294e-01
  1.5586504e+00
 -2.3159206e+00
 -2.2943819e+00
 -7.4921817e-01
  3.1257150e-01
 -1.4271021e-01
  1.1097869e+00
  6.9089913e+00
 -1.1861793e+00
  2.2226989e-02
 -2.2877179e-01
  7.4324840e-01
  3.6382151e+00
 -1.4681681e-01
  2.2895904e+00
 -1.1821452e+00
 -1.7718077e-02
 -3.6882656e+00
 -1.2117945e-01
  3.1843521e-02
 -4.5380709e-01
  1.4804658e-01
 -2.1902597e-01
  4.3665037e-02
  4.9410973e-02
 -8.5443288e-02
 -1.0440681e-01
 -4.9131580e-02
  7.7897948e-01
 -2.8119816e-02
  3.6277463e+00
  4.0336338e-01
 -3.0430739e+00
 -1.3233559e+01
 -3.1559193e-01
  2.9276085e+00
 -4.1062212e+00
 -1.5928236e+00
 -4.7465305e+00
 -2.1254206e+00
  2.2451322e+00
  3.1904519e+00
  3.6888080e+00
  4.5770437e-01
 -6.0091739e+00
 -5.9226718e+00
 -2.0152098e-01
 -5.3713999e+00
  5.5351291e+00
  2.8498092e+00
  1.4406698e+00
  4.0857646e-01
 -4.3696713e+00
 -7.0492095e-01
 -2.2015574e+00
  2.9871385e+00
 -3.6524625e+00
 -2.1470592e+00
  2.9147060e+00
  2.8053260e+00
 -2.3816192e+00
 -3.8185678e+00
 -3.7102253e+00
 -2.6103428e-01
  1.3271354e+00
  9.6256286e-02
 -3.5642123e+00
 -3.1845382e-01
  4.1812034e+00
  8.7991629e+00
  8.8995379e-01
 -3.2303298e+00
 -7.6343244e-01
  7.3925388e-01
  1.4092565e+00
  6.7109108e-01
  5.0338425e-02
  4.7463140e+00
 -3.0812609e-01
  6.7446842e+00
  3.2470355e+00
  5.0248134e-01
  3.3145752e-02
  3.2718264e-02
 -2.6669964e-02
  2.3989855e-01
  4.9142290e-02
  9.5264159e-02
 -1.3987164e-01
  2.6010811e+00
 -7.0846461e-02
  6.1980233e-02
  1.7087939e-01
  2.9907310e-02
  1.9221718e-03
  7.2066896e-02
 -1.0329308e-01
  5.2562553e-01
 -3.2046881e-01
  9.4910222e-01
  9.4863392e-02
  4.3365695e-02
  2.6943142e-02
 -1.4023490e-01
 -1.1790534e-02
  8.6953864e-02
 -6.6555053e-02
 -4.1602861e-02
 -6.7771710e-03
 -2.3157044e-01
 -1.3240112e-01
  1.4038780e-01
 -1.3672040e-02
 -2.2371087e+00
 -1.5976095e+00
  3.4556288e-02
  2.9936123e-01
 -1.5234927e-02
 -3.0740691e-02
 -1.1953771e-01
  4.6579939e-01
  1.3717571e-02
  3.7088871e-02
  3.3632389e-01
 -1.4214224e-01
 -1.4350025e-01
  2.6460117e-01
  2.6793408e+00
 -3.8084712e-02
 -7.1343251e-02
 -1.7767282e-02
 -1.1684123e+00
  2.9724255e-01
  1.5472975e-01
 -2.7023143e-01
  1.3923971e-01
 -1.3938846e-01
  3.2365907e-02
 -2.1047384e-01
 -2.4678546e-01
  1.7987332e-01
  1.0586798e-01
 -8.9832045e-02
 -6.6272938e-01
  9.6034110e-02
  2.5559120e-02
 -1.3728684e-01
 -2.7961841e+00
 -2.4745977e-02
 -2.2077025e-01
  6.9164890e-01
 -2.3769854e-02
 -1.9964408e+00
  6.0967910e-01
  3.5967413e-02
  1.2524711e-01
 -1.2210211e-01
  7.9770513e-02
 -1.7570412e+00
  2.1626739e-02
  7.3461458e-03
 -3.9564165e-01
 -7.1486580e-01
 -1.0525379e-01
 -1.0461242e+00
  7.4624106e-02
 -1.0512447e-01
 -1.0273989e-01
  7.2262287e-02
  2.8974016e+00
  1.9393325e-01
  1.8559879e-01
  1.2313361e-01
  9.2755191e-02
 -4.1189760e-02
  4.1221861e-02
  3.9725270e-02
 -1.6712949e-01
 -5.9155966e-03
 -1.1898360e-01
  7.8519672e-02
 -9.0151411e-01
  1.3073840e-02
  1.0418540e-01
 -4.0820303e+00
 -1.1084207e-01
 -9.5369019e-02
 -1.3563481e-01
 -1.0321788e-01
  3.1460512e+00
 -6.6712022e-02
 -1.1852749e-01
 -2.9381912e-02
  6.7893262e-03
  1.2995263e+00
  4.3222144e-02
 -1.3902451e-01
 -6.3492221e-01
  1.3165968e-02
 -3.0754188e-01
 -1.9019553e-01
  3.3816698e+00
 -4.3145906e-02
 -3.6561951e-02
 -1.0600841e-01
 -3.5458457e-01
  3.8107257e-02
  8.2513638e-02
  9.9947184e-02
  1.7111318e-01
 -1.5822120e-01
  1.3448334e-01
  6.7119515e-01
  2.1190268e-01
 -3.0340192e-01
 -4.3872666e-02
  1.2605397e+00
 -6.2599421e-02
  1.9598413e-01
  1.6881973e-01
  7.1311349e-01
  1.6486548e-01
  5.0889641e-02
  1.1154563e-01
 -3.1411774e-02
 -4.6575803e-01
 -2.1436999e-02
 -1.6895291e-01
  1.9269215e+00
  2.3292102e-01
 -4.0947943e+00
 -4.9273553e-01
  1.0094149e-01
 -2.3585927e+00
 -3.3292446e+00
  1.1975216e-01
 -2.1691239e-01
 -3.2973373e-01
 -2.8596911e-01
 -4.3069715e+00
 -2.0148804e+00
  2.4612957e-01
 -8.2788587e-02
  3.1578794e-02
 -2.4811691e-01
 -1.1420461e+00
  1.8353082e+00
  1.7646076e-01
  5.1735282e-01
 -5.5759188e-02
 -3.6825273e-02
 -4.1399896e-01
  1.5324350e-01
  3.2480222e-01
  4.5453642e-02
 -2.7337909e-01
 -9.8901503e-02
 -2.3050351e-01
 -2.8577530e-01
  3.0469757e-01
 -2.6081914e-01
 -2.1465786e-01
  3.4090015e-01
 -1.1769233e-01
 -9.5045650e-01
 -1.5362445e-01
  1.3902333e+00
  1.1213458e+00
  6.0658738e-02
 -1.5979260e-01
 -1.5895782e-02
 -6.1805069e-01
  4.6680018e-02
  1.4944981e-01
 -3.3394780e-02
  8.4636034e-03
 -9.5685355e-02
  9.8316604e-01
  4.3478020e-02
 -4.7192855e+00
 -2.2159106e-01
  5.0531048e-02
  1.5465632e-01
  1.6237083e-01
 -1.2943341e-01
 -6.2398058e-01
  4.2340147e-01
  1.3788287e-01
 -2.4119411e+00
  1.3098909e-01
 -2.4181738e-01
 -4.6765156e-02
  1.1182085e-01
 -1.2228924e-01
  9.2337281e-01
 -2.1466072e-01
 -5.8028858e-02
 -6.4787790e-02
  3.4694867e+00
  3.8007054e-01
  1.1919340e-01
  5.6086712e-02
  3.7917018e-02
  1.4506859e-01
 -1.0468155e-01
  1.2927823e-01
  5.2370471e-01
  2.2477729e-02
  1.6690901e-01
 -1.8467699e-01
  1.0669770e-01
  9.5794179e-02
  1.6013065e-02
  6.2976391e-03
 -5.1300424e-01
 -2.5943598e-02
  2.2336397e+00
  8.3649391e-01
  1.1798000e+00
  8.7239176e-02
 -7.1947604e-02
 -2.2689657e-01
 -1.9075403e-01
  1.2457904e-01
 -1.9816354e-02
  5.0798379e-02
  4.3724850e-01
 -6.1697647e-02
 -6.3949004e-02
 -4.4198442e+00
 -8.9559823e-02
  2.2920364e-01
 -2.1720527e-01
  6.7486554e-02
 -3.6165636e-02
 -1.5476641e-02
  2.9278803e+00
  2.3829503e-01
 -4.2871153e-01
  1.3177034e+00
  1.3018988e-01
  1.8681912e+00
  1.8927075e+00
  4.8442504e-01
  1.3307925e+00
 -2.0108349e+00
 -4.9728725e-02
 -7.2783850e-02
 -6.3738459e-01
  5.5220485e-01
 -2.0484073e+00
 -6.9441991e-03
  2.2465475e+00
 -1.4509966e+00
  2.8156824e+00
 -6.7668289e-01
 -4.4542351e+00
 -3.6589651e+00
 -1.5005243e+00
  4.8913933e-02
 -8.2213360e-01
  4.3684001e+00
 -2.5467150e+00
  3.5784121e+00
 -1.8795964e-01
 -1.4720172e+00
 -1.7582442e+00
 -1.2371920e+00
 -2.9138980e+00
 -2.9643494e-01
  2.9399159e+00
  1.3286045e+00
 -8.7643616e-02
 -3.0632854e+00
  1.5571398e+00
 -8.4287263e-02
  2.9825088e-01
  8.5129142e-03
  5.4742046e-02
  4.2814825e-02
 -4.1776928e-01
  3.4919441e-02
 -4.2285731e-01
  4.1245401e-02
 -1.1255355e+00
 -1.5218468e-01
 -4.5552501e-01
 -4.1021198e-01
  1.1455370e-01
 -7.9382204e-02
  7.5686380e-02
  1.8887311e-01
  2.8851427e-02
  1.8902889e-01
 -3.0515803e-02
  4.2226008e-01
  2.1596654e-01
  1.3789625e-02
  1.6571718e-01
 -1.1604730e-01
  5.3570497e-01
  2.9824374e-02
 -1.8717835e-02
  4.0219203e-02
 -6.3678352e-03
  1.5443607e-01
  7.6460439e-01
 -6.7875332e-01
  1.3330914e-01
  2.7649684e-02
  3.9140828e-02
  2.7763200e-01
 -3.3504762e-02
 -2.1235140e-01
 -3.5107736e-02
  4.0110860e-02
 -7.1700794e-01
 -1.0850425e-02
  5.8073029e-02
  1.7496359e-01
 -4.0386755e-02
  8.5693404e-02
 -1.2864663e-01
  5.8742959e-02
 -5.1801424e+00
 -1.7202465e-02
 -5.4145005e-02
  7.6006703e-02
  1.2614405e-01
  1.0552443e-01
 -1.1878507e+00
 -1.6698565e-02
 -6.5014951e-02
 -1.2852229e-01
  1.4199050e-01
 -1.8257711e-02
  4.9606379e-02
 -5.3140387e-02
  4.7260648e-01
  1.3978472e-02
 -1.0255480e-01
  1.4435086e-01
 -1.6589086e-01
  1.2105277e-01
 -2.2950716e-02
  2.8190610e-01
  2.4350142e-01
  2.8889244e-02
  1.7104882e+00
 -1.0550435e-01
 -5.1431942e-01
 -1.4116283e-01
  1.8252023e-01
  1.2348985e-01
  7.5616337e-02
 -4.5169592e-02
 -1.2157595e-01
 -1.2555649e+00
 -1.4213559e-01
  1.9222893e-01
  2.9408626e-02
 -7.0248716e-02
 -4.1473812e-01
  1.3627224e-01
  9.9902950e-02
 -7.8721620e-02
 -1.3334334e-01
 -1.3794747e-01
 -1.9402120e-02
  4.4468719e-01
  1.2271571e-01
  9.6373960e-02
  2.7391667e-02
  1.1871951e-01
 -1.4995000e+00
 -3.0035499e-01
  2.2780240e-02
 -7.8827932e-02
 -1.5902831e-01
  3.4755688e+00
 -4.2200408e+00
  4.0822871e-02
 -1.8766740e-01
  2.6267642e-01
  7.9257399e-02
  2.1741168e-01
  1.2635244e+00
 -1.3675763e-01
  6.2584996e-02
 -3.6266418e+00
  7.7929175e-01
 -6.9423090e-03
 -2.0639047e-01
  2.2451471e-01
 -3.1646559e-01
 -5.8780110e-01
 -7.0455599e-01
  1.0738194e-01
 -2.3152690e+00
 -3.4668338e-01
 -2.1705408e-01
 -5.9675628e-01
  6.3617921e-01
 -3.9363813e+00
  1.6596812e-01
  2.2399480e+00
 -8.3937532e-01
  1.2519455e-01
  2.4233105e+00
 -1.1932949e+00
  2.2728179e+00
 -7.7023640e+00
 -7.7371514e-01
 -4.6312704e+00
  4.9093154e-01
 -5.7853043e-01
 -2.2565329e+00
  2.6101017e+00
 -1.7190629e+00
 -3.4371147e+00
 -7.6366205e+00
 -3.0013427e-01
  3.0468364e+00
 -1.5423070e+00
  1.9532398e+00
 -1.6893344e+00
 -2.4088964e+00
  2.3070841e+00
  3.0540520e-01
  3.7644991e-01
  6.6905573e-02
 -8.2358801e-01
  9.2576760e-01
 -1.2760495e-01
 -2.3622807e-02
 -9.9047607e-01
 -1.6617093e-02
  6.5344949e-03
  3.1334248e+00
  5.2049577e-02
 -7.6210811e-03
 -2.5470063e-01
 -1.2436022e+00
 -1.7946547e-01
 -5.7702583e-01
 -6.3196003e-01
 -1.4202876e-01
  5.0110605e-02
  3.6346233e+00
  3.8399253e-02
  3.0105809e-02
  2.8563330e-02
  1.9212343e-02
  1.3064292e-01
  2.3201795e-02
 -1.2136284e-01
 -7.0271976e-02
  4.5111015e-01
  5.4622328e-01
 -3.0646235e-01
  2.9900356e-03
 -1.6142167e-01
 -5.9754486e+00
 -1.5610248e-02
 -8.9007634e-01
 -8.9666788e-03
 -1.2024546e-01
 -3.3911378e+00
  2.8054075e+00
 -1.5462837e-01
 -1.2455950e-01
 -1.6221428e-01
 -6.8974173e-01
 -6.8217976e-04
 -8.3684064e-02
  1.8676968e-01
 -4.2729661e-02
  1.5569629e-01
  2.8031832e-01
  3.6957135e+00
  2.0326248e-01
  1.3272989e-01
  9.7908406e-03
 -1.1723278e-02
 -2.9294847e-02
 -2.4435945e-01
  3.5580635e-01
  8.8392943e-02
  2.6985306e-01
  3.1343088e+00
 -5.9451550e-02
 -4.9478239e-01
 -1.9434702e+00
 -4.0175065e-01
 -7.6565641e-01
  7.9915917e-01
  1.2101741e+00
  5.0947034e-01
 -3.4843072e-01
  1.5427321e+00
  5.7388985e-01
 -8.4374189e+00
  5.2961719e-01
  4.7734857e+00
  7.1522355e+00
  8.7958980e-01
  2.1430058e+00
  2.0855184e+00
 -7.2147213e-02
  4.0240998e+00
 -2.1255641e+00
 -8.3379230e+00
  4.6011329e+00
 -6.6290581e-01
  1.6734885e-02
  1.9635758e+00
  7.1403861e+00
 -3.2577875e+00
 -2.7587903e+00
  3.1869042e+00
  3.9445838e-01
  2.1608467e+00
  1.5626095e-01
 -1.9148873e-01
  1.5434541e+00
  1.4128604e+00
 -1.6281816e+00
  5.2018601e-01
  9.7928602e-01
  2.1970162e+00
  3.6009529e-01
 -1.9100254e+00
  8.6631939e-02
 -1.6166241e+00
  3.5010275e-01
  1.1546806e-01
 -2.3432279e+00
  2.0926732e-01
  5.2444849e-02
  5.3755987e-02
  3.3907446e-01
 -1.2022669e-02
 -9.7320801e-01
 -2.4407551e-01
 -1.6192199e-01
 -5.5334166e-02
 -2.1741563e-03
  3.9404944e-02
  8.3945744e-02
 -2.3932038e-02
 -2.0215192e+00
  8.4806472e-01
 -2.4256074e+00
  6.2199075e-02
  2.1385936e-01
 -1.9091402e+00
 -4.0347600e+00
  2.8967936e+00
 -1.9611791e-01
 -4.3830633e+00
  8.4937084e-01
 -2.2124891e+00
 -1.1860306e+00
 -1.1598848e+00
  4.0764642e+00
  1.9056408e-01
  8.7624483e+00
 -1.3022777e-01
 -1.7227168e-01
 -1.7013022e-01
  2.1144233e+00
 -3.9569767e+00
  2.3215389e+00
 -1.5956268e-01
 -3.4030680e-02
  3.9500237e-01
  2.3933783e+00
  3.3651791e+00
 -1.5185096e+00
  4.2689729e-01
 -8.4853061e-02
 -3.0258822e-01
  5.9597683e-01
 -1.6535142e-01
 -7.6334953e-01
  3.5059788e+00
  4.6126615e-02
  2.3682948e-02
 -4.1364979e-02
 -1.7918468e-01
 -1.5465386e-01
 -4.2417255e-01
 -6.3133933e-02
  1.8838770e+00
 -3.2948661e+00
  2.4217019e+00
 -2.0121138e+00
 -4.0278010e+00
 -8.7278974e-01
  2.7230017e+00
  2.5464995e+00
  2.6847321e-01
  5.1136017e-01
 -5.2036643e+00
  1.9234022e+00
 -7.4645262e+00
  6.0351334e+00
 -5.1236281e+00
  7.7296686e+00
  1.3016372e+00
  9.0823281e-01
 -3.8063161e+00
  2.6726565e-01
  1.4232898e+00
 -2.0783274e+00
 -1.4462661e+00
 -6.4471775e-01
  3.0155795e+00
  3.9123163e+00
 -1.0657964e+00
 -2.6158080e+00
  2.5315223e+00
 -1.6218790e+00
  2.3729157e+00
  1.1004797e+00
 -7.4943972e+00
 -1.1561571e+00
 -7.8040677e-01
 -1.2003191e+00
  2.1287398e+00
  1.8483523e-01
 -3.2001967e+00
 -2.7257366e+00
 -1.0926946e+00
  1.0000933e+00
 -2.5346727e+00
 -8.5079899e+00
  2.4911638e-02
 -5.2990470e+00
  1.9627444e-01
  3.8478483e-02
  2.1040717e-03
 -1.9271358e+00
 -1.0336687e+01
 -3.3177994e-03
  5.5535978e-01
  1.3006558e-01
  3.7489037e-03
 -9.1728374e-02
  7.5179613e-01
 -1.5466754e-02
 -1.3533793e-01
  5.5011343e-02
  4.2277068e-02
  1.8975012e-01
 -1.4420576e-01
  6.5454677e-02
 -2.0498617e-01
 -4.4201665e-02
  1.5173876e-01
 -1.9349124e-01
 -5.6244776e-02
 -9.1430480e-03
 -1.7986882e-01
  2.2100227e-01
 -2.7439365e-01
  1.8560416e-01
  3.8517345e-02
  7.3272325e-02
 -8.7437898e-02
  1.5588985e-02
  1.6649093e-02
  1.0795075e-01
 -1.6701355e-03
  3.6745008e-02
  9.0614527e-01
 -1.4863083e-01
 -8.1786707e-02
  5.3072248e-02
 -8.4719568e-02
  9.8836189e-03
  1.9177723e-01
  8.2673147e-02
 -1.8731144e-01
 -4.7340983e-01
  2.0034800e+00
 -1.8143469e-01
  5.4242514e-02
  1.4697577e-01
 -1.1041195e-02
 -1.8101016e-01
 -9.1694742e-01
 -8.5406294e-03
  1.7558877e-01
  2.1510614e-01
  4.3212695e+00
 -3.9291089e+00
 -3.0627921e+00
  1.0494809e+00
  3.6588781e+00
 -1.6536227e-01
  3.5035474e+00
  4.9240065e+00
 -2.6727036e-01
  2.8406067e+00
  4.2387220e-01
  1.4909537e-01
 -5.6277812e-01
  8.3735234e-01
 -2.8909078e-01
 -2.9373693e+00
  7.8909117e-01
  2.3694775e+00
  3.4855545e+00
  1.0140316e+00
  7.7688498e+00
 -1.5805080e+00
  4.4199843e-02
  2.8199077e+00
 -1.5139617e-01
 -2.1728241e-01
  1.2558870e-01
  3.3301966e+00
 -2.2259636e+00
  8.6901462e-01
  7.0516652e-01
  8.5774058e-01
  5.7427192e-01
  1.5874200e+00
 -4.3100548e+00
  3.4058926e+00
  5.4780941e+00
 -2.3916051e+00
 -1.9618971e-02
  2.9538804e-01
  5.0520692e+00
 -9.8115392e-02
 -1.0941981e+00
 -3.4521339e+00
  2.4329887e-01
 -1.2339222e-01
  4.3917492e-02
  3.6185881e-01
  4.8774078e-02
  2.9290748e-01
  2.2435650e-02
 -1.5741798e-01
  1.3117293e-01
 -3.2388988e-01
 -2.6215408e+00
  1.6733234e-01
  3.3817109e-01
  6.0149685e-02
  7.4860700e-03
  5.2184716e-02
 -1.1364078e-01
  1.7655494e-02
 -6.4745684e+00
 -2.1678185e-01
  6.4195864e-02
  5.3860551e-01
 -1.7292391e-01
 -1.2047207e-01
 -1.2464973e-02
  7.0579544e-02
  2.0103388e-02
 -9.1581754e-02
  1.3459289e-01
 -4.6280238e-01
 -4.2702289e+00
 -1.1070812e-01
  3.6508093e+00
  3.6726028e-01
  9.3340777e-02
 -5.4547831e-02
 -2.2609456e-01
  2.9822731e+00
 -4.0327653e-02
 -2.1344073e-01
  5.4007705e-02
  4.4126466e-02
  1.3465098e+00
 -1.1214754e-01
 -2.6069036e-02
 -5.7086326e-02
 -4.1228735e-01
 -1.6043490e-02
 -8.4656633e-02
  8.8364929e-02
 -7.2041428e-01
 -2.0605734e-01
 -1.1107673e-02
  1.6284059e-01
  2.6922065e-01
  6.5045267e-02
  3.0148521e-02
 -1.2588573e-01
  2.8485632e-01
 -2.9425529e-01
  9.7806891e-03
 -2.5018029e-02
  8.5033721e-01
  7.7176951e-02
  1.1706141e-01
  4.3123832e-01
 -4.5100696e-02
  2.7171907e-01
  3.3198420e-02
  6.7812033e-02
 -4.4796694e-02
 -1.0783672e-02
 -9.8649383e-02
  1.1669785e-01
  4.0845197e-02
 -2.1611279e-02
  5.6512266e-02
  1.3257896e-02
  1.1275911e-01
  1.2672110e-01
 -4.0857062e-02
  1.2170202e-01
  2.8055176e-01
  1.3798290e-01
  2.7529880e-01
 -1.3252963e-01
  5.7855509e-02
 -6.7179784e-02
  1.8186824e-01
  5.6628811e-01
  2.0659335e-01
 -2.4176420e-01
  1.6310111e-01
 -1.2273263e-01
  2.7563527e-02
 -9.8844990e-03
  2.4906503e-02
  2.6443177e-01
  5.9948348e-02
  4.1579541e-02
  5.1334284e-02
  3.5606954e-02
 -1.4862896e-02
 -1.3503428e-03
 -2.0352283e-01
 -3.9449567e-01
  1.9590129e-01
  6.6187352e-02
 -2.0176715e-01
  7.3490602e-01
  7.3604524e-02
  3.8009472e-02
 -2.3479211e-01
 -1.5584141e-01
 -3.6183186e-02
  3.0995192e-02
  1.4303768e-01
  1.4843296e-01
 -1.9757691e-01
  3.9548833e-02
  6.7904666e-02
 -4.3009285e-02
 -9.8754272e-02
 -6.3358299e-02
 -1.6819023e-01
 -2.6370555e-01
 -3.2431684e+00
  3.4384131e-03
  3.3008286e-01
 -1.7185742e-01
  3.1303832e-01
  1.3352178e-01
  4.5691781e-02
 -3.7236616e-02
 -1.8478298e+00
  2.6472809e-02
 -8.7022251e-03
  8.0815583e-02
 -1.0884495e+00
 -7.6162264e-02
 -3.4356216e-01
 -7.6414295e-02
 -9.6228324e-02
  2.0675051e-01
 -2.6852951e+00
  6.6769950e-02
  2.2742087e-02
  1.2750312e-02
 -2.2586541e-02
 -1.1132377e-01
  1.4587434e-02
 -9.4002567e-02
  1.0649882e-02
  2.1626269e-03
  7.1268596e-02
  1.6576083e+00
  8.1166960e-02
 -3.7208390e-01
  1.8255962e-02
 -1.1494257e-02
 -9.7463679e-01
 -2.3380269e-03
 -4.4283558e-02
  1.9619833e-01
 -1.3409632e-01
 -4.1827404e-01
  5.6745720e-01
 -7.3907769e-01
  1.0096024e+00
 -1.0190319e-02
 -3.8320825e-01
  1.5900162e-01
  3.8702962e+00
 -4.1178930e-01
  1.0345832e+00
 -5.9648758e-01
  1.7259344e-01
 -1.8173246e-01
  8.9613730e-01
  1.0044029e+00
 -9.7260512e-02
 -3.9139012e-01
  1.2080806e-02
 -9.2808612e-02
  2.4804834e-02
 -2.5464777e-02
  4.4284172e-02
 -3.6283880e-01
 -1.4506306e-01
 -7.0235498e-02
  5.3962223e-02
  1.5620714e-01
  3.9499295e-01
 -2.1130128e-01
 -7.4035043e-01
  4.0606454e-02
 -1.7653285e-02
 -2.0836888e-01
 -9.7291827e-01
  1.7999832e-01
  4.4495231e-01
 -6.0985992e-03
  2.5303757e-01
  1.1125120e+00
 -4.5014381e-02
  2.1683555e-02
  1.5588762e-01
  1.0156974e+00
 -6.3803405e-02
  7.6451617e-01
 -1.3738246e+00
  1.7130421e-01
  4.4414893e-02
 -1.1596379e-01
 -1.7772670e-01
 -4.9237016e-01
 -9.5883310e-02
 -3.5307642e-02
 -6.0803179e-02
 -3.5631889e-01
  9.4415680e-02
 -7.4846613e-01
 -2.6843399e-03
 -4.6110836e-01
  4.2466555e-02
 -6.8606192e-01
 -1.1102328e-01
  2.1958393e-01
 -3.7875950e-02
  6.0352001e-02
 -3.1970978e-02
 -1.5569362e-01
 -2.1009684e+00
  4.5696147e-02
  3.4072779e-02
  3.4115210e-02
  1.1499602e-01
 -2.2985214e-01
 -5.3364652e-01
 -8.2386218e-02
  1.2372706e-01
  1.2784382e-02
 -2.1659210e+00
  5.0866999e-02
  1.0907545e+00
 -1.8671750e-01
  5.9770200e-02
 -5.6651633e-02
 -1.6314451e-02
  5.2473098e-01
 -6.2516094e-03
 -7.6792729e-03
  1.8306050e-01
 -1.4206402e-03
 -2.8881249e-01
  1.1506027e-01
  2.8036804e+00
  6.1349054e-03
  6.9030082e-01
  7.2382674e-02
  2.4476132e-01
  2.3623033e-01
  1.8427635e+00
 -2.4769627e-01
  7.1399366e-03
 -1.6037105e-01
  5.2828647e-02
 -4.5555551e-02
 -3.9095506e-02
 -2.4798842e-02
  7.2971150e-02
  4.7057939e-01
 -4.0600583e-02
  1.0325210e-01
 -4.0832898e-01
 -6.5709308e-02
 -7.3964983e-02
  4.0389746e-02
  4.3870267e-02
 -4.6906404e-02
  3.6119383e-03
 -3.1792335e-02
  2.0293256e-02
 -1.4745365e-01
  1.1427331e-01
  4.2745769e-02
  1.9100922e-01
  1.4478725e-01
  5.5202600e-02
 -1.1334977e-01
  1.9523434e-02
 -9.0261742e-02
 -1.0201778e-01
  2.0495085e-01
 -2.4042083e-01
 -1.7890842e-01
 -2.6611116e-02
 -5.3279912e-01
  3.6503989e-02
 -2.3899280e-01
  4.3385196e-03
  4.3072205e-02
  3.9863032e-01
 -2.0428559e-01
  1.0187088e-01
 -1.0055934e-01
  6.8813674e-02
  1.5911765e-02
  3.0598453e-01
  1.5652458e-01
  9.2886336e-02
 -2.4270259e-02
  3.3763912e-01
  5.8297782e+00
 -5.2249541e+00
 -4.5525413e+00
 -3.5782688e+00
  2.2313664e+00
  7.1729140e+00
 -3.9236381e+00
  8.5423803e+00
  2.7539687e+00
  1.7125051e+00
  5.1375484e+00
 -3.8055058e+00
 -2.4935522e+00
  2.8196950e+00
 -3.8262789e+00
 -3.9675844e+00
 -2.1676934e+00
  3.0773065e+00
 -3.7057703e+00
  3.1636450e+00
 -3.0455928e+00
 -7.1971083e+00
  2.0968080e+00
  4.9494615e+00
 -2.6258788e+00
 -1.0484673e+00
 -5.2677884e+00
  3.7765830e+00
 -7.1525779e+00
  4.2414919e-02
 -3.9852836e+00
 -2.6803079e+00
 -5.3315988e+00
 -5.4871941e+00
 -5.1547093e+00
  4.3803167e+00
 -1.5450897e+00
  4.0724392e+00
 -1.9228264e+00
 -4.3111525e+00
  3.8526483e+00
  7.6121449e+00
 -3.5103209e+00
 -6.5618443e-01
  2.6372058e+00
 -4.6868153e+00
  1.9058969e+00
 -3.3575938e+00
 -3.3837309e+00
 -8.2923594e+00
  4.6380997e+00
 -2.1592226e+00
 -3.9315250e+00
  2.6700923e+00
 -8.0915413e+00
  6.3823204e+00
 -4.9376106e+00
  4.8290105e+00
  3.6067111e+00
  3.0002069e+00
 -4.6502323e+00
  4.8374848e+00
 -3.3019807e+00
 -1.8696029e-01
  3.8995903e+00
 -4.8236928e+00
  4.1048825e-01
  5.5353122e+00
  2.3379383e+00
  2.5655737e+00
  5.0400047e+00
  4.2859282e+00
 -2.8857906e+00
 -4.2898583e+00
  2.9402452e+00
  4.9130235e+00
  4.9990664e+00
 -4.2614207e+00
 -8.6287421e-01
 -7.1832557e+00
  3.9667556e+00
  4.5260801e+00
 -3.2549276e+00
 -4.1117425e+00
  2.6694241e+00
 -4.1098599e+00
  4.5935531e+00
  3.7536104e+00
  5.4145198e+00
 -2.4848664e+00
 -5.0872531e+00
  1.4743140e+00
 -4.4032669e+00
 -3.5509439e+00
 -4.8336430e+00
 -4.7937889e+00
  3.6903031e+00
 -2.4426343e+00
  3.4158969e+00
  4.9163876e+00
 -1.8985025e+01
  1.8720482e+01
  1.5892159e+01
  3.1992765e+01
 -1.5804379e+01
 -1.7561207e+01
  2.2007248e+01
 -1.9853991e+01
 -1.9022781e+01
 -4.1151295e+00
 -1.2325891e+01
  3.0378843e+01
  2.4936913e+01
 -1.9352142e+01
  2.2365425e+01
  1.8311056e+01
  1.6262011e+01
 -2.3916494e+01
  2.4303059e+01
 -2.4426020e+01
  2.0055727e+01
  1.6633753e+01
 -2.2985989e+01
 -2.7281586e+01
  1.8350199e+01
 -3.4140429e+00
  1.8060390e+01
 -2.1322893e+01
  1.5905232e+01
  6.7283721e+00
  1.5334872e+01
  1.8328630e+01
  1.5925355e+01
  1.5011746e+01
  2.7187378e+01
 -2.4008202e+01
  3.2509696e+00
 -7.6847906e+00
  1.3703372e+01
  2.0373823e+01
 -2.5724026e+01
 -1.6779747e+01
  2.1977501e+01
  5.5663171e+00
 -2.5285361e+00
  2.0463036e+01
 -2.2218975e+01
  1.6789139e+01
  2.6259256e+01
  9.6961622e+00
 -1.9155497e+01
  2.9443405e+01
  2.9092918e+01
 -1.7634285e+01
  2.0794111e+01
 -1.5903768e+01
  2.1677618e+01
 -2.2045736e+01
 -1.5776932e+01
 -1.6177320e+01
  1.6052616e+01
 -1.9488148e+01
  1.9536270e+01
  6.5133625e-01
 -1.6917410e+01
  2.6342167e+01
 -3.9691782e+00
 -1.9787943e+01
 -1.3019385e+01
 -2.3732300e+01
 -1.8654440e+01
 -2.3581566e+01
  1.8726810e+01
  2.3389891e+01
 -2.2059237e+01
 -1.5505725e+01
 -1.8645350e+01
  2.8319630e+01
  2.1640451e+00
  1.3666341e+01
 -1.7556555e+01
 -9.3728151e+00
  2.5276548e+01
  2.0595823e+01
 -1.7014359e+01
  2.2399754e+01
 -2.5515652e+01
 -2.3965801e+01
 -1.6399889e+01
  2.1604017e+01
  2.4193508e+01
 -1.6407772e+01
  1.9176189e+01
  2.3849442e+01
  1.4546441e+01
  2.0244844e+01
 -2.2862909e+01
  1.5644802e+01
 -1.8029070e+01
 -2.2957706e+01
  1.0536051e-01
 -2.2241133e-01
  2.0679009e-01
 -1.4415011e-01
 -1.9792737e-02
  2.5952891e-01
  1.0357045e-01
  3.9834045e-02
 -1.3238772e+00
  1.3300002e-01
 -2.4082153e-01
 -2.6760954e-01
 -2.6052517e-01
  2.4935650e-03
 -2.8367549e-01
 -7.9094321e-02
  1.9143967e-01
  1.2840834e-01
  1.0259061e+00
 -1.0550024e-01
 -2.6287767e-01
 -2.5163504e-01
  3.3506982e+00
 -1.8552998e-01
  1.1575565e-01
  8.1932671e-02
 -6.8392090e-02
  3.8410969e+00
  3.7344966e-02
 -1.6811141e-01
  3.1689452e-03
 -6.1793619e-01
  2.3042320e-01
  1.1960449e+00
  2.2141933e+00
 -5.9067022e-02
 -2.3221865e-01
  2.4049168e+00
  1.5057743e-02
 -1.0662003e-01
  4.1531738e-02
 -9.1099285e-02
  2.6363077e-02
  3.0274831e-02
 -3.0420542e-01
  4.4552837e-02
  2.2285376e-01
 -1.4769728e-01
 -7.1649350e-02
 -1.2622276e-01
 -1.3209726e-01
  3.0721865e+00
  2.3966353e-01
 -2.0116146e-01
  3.9751816e+00
  3.3661573e+00
  3.5845635e+00
  2.0567207e+00
 -7.4737754e+00
  4.7175918e+00
  1.8249280e+00
 -7.9777442e-02
  6.7922301e+00
  1.9016120e+00
  3.5504711e+00
  2.1801631e+00
  5.1282701e+00
  8.1935396e+00
 -1.0121958e+00
  5.3385174e-01
  5.6493049e+00
  1.6157665e+00
 -6.6376567e-01
 -1.2306004e+00
  3.3630686e+00
 -1.2281340e-01
  3.2664320e+00
 -3.5133259e+00
  3.3070714e+00
 -1.7234416e+00
 -1.0405494e+00
 -9.8438270e-02
  4.6734881e-02
  3.7414962e-01
 -2.3668664e+00
  3.8712559e+00
  3.3488786e+00
 -3.1801772e+00
  1.0280735e+00
 -1.5283555e-02
 -2.5040939e+00
 -1.2259399e-02
 -4.4305968e-01
  4.9022365e+00
 -3.3688478e+00
  6.3833302e-01
 -1.8549562e+00
  3.1752303e-01
 -4.7541354e-02
 -1.4573537e-01
 -4.4715514e+00
  2.8588036e-01
  7.8584170e-01
  7.0574737e-01
  9.6207634e-02
 -1.2286457e+00
 -1.3101241e-01
 -9.0970802e-01
 -6.7510083e-03
  5.2871633e-01
 -4.5490381e-01
 -1.6078420e-01
 -2.4333890e-04
  5.5191142e-04
 -1.9513343e-01
  3.8632873e-01
  9.7373977e-02
  2.0241536e-01
 -7.4185051e-02
 -2.3871866e-01
 -1.0140163e-01
 -2.8571639e-02
  1.2993059e-01
 -3.9768171e-01
 -1.4258565e-01
 -1.1272224e-01
  1.0959275e-01
  1.0609339e-01
 -6.7984790e-01
  3.0842073e-02
  6.0925528e-02
 -1.2963744e+00
 -4.4903539e-02
  6.7426562e-02
 -4.3226346e-01
 -4.2247227e-01
 -3.1842768e-02
 -1.3114884e-01
 -3.4474167e-01
  1.9587168e-01
  1.1144279e-02
  9.5462918e-02
 -7.8988463e-02
  6.5390348e-02
  3.7986641e+00
  1.4898397e-01
 -1.4318229e-01
  1.4892337e+00
 -2.5869814e-01
 -2.0287536e-01
  3.2774899e-02
 -5.5826068e-01
 -8.6881183e-02
 -1.4767463e+00
  1.0197035e-01
 -1.0295913e-01
 -1.8489900e+00
  3.0525026e+00
  2.0984609e-01
 -1.5968645e-02
  1.9490935e+00
  1.8465531e+00
  7.0846096e-02
 -1.2540661e-01
  2.3312895e-01
 -5.9557796e-02
 -8.5028037e-02
  7.3019192e-02
  2.5393099e-02
 -2.2068245e+00
  2.8377014e-01
 -8.5088536e-02
 -2.0617351e-01
  1.5025973e-01
 -1.0467815e+00
  3.6591268e-01
 -1.0910388e-01
 -2.2430813e-02
 -2.0011929e-01
  1.7625567e-01
 -4.8500549e-02
  1.2672204e-01
  2.7497798e-02
  2.1540271e-01
 -1.3679752e-01
  5.1660651e-01
 -8.4673107e-02
  2.6150184e+00
 -1.3001731e-02
 -7.7517338e-02
  6.0432650e-02
 -4.3588176e-01
 -3.0362792e+00
  2.9506168e-01
  2.7521816e-01
 -6.0604870e-01
 -8.9787602e-02
  1.1479221e-01
 -2.2329628e-01
 -2.5266606e-01
 -1.0211432e-01
  1.7232422e-02
  1.0588739e-01
  1.9710106e+00
 -6.6528589e-01
  1.3815087e-01
 -8.5013621e-02
  1.3815576e-02
  6.0388889e-02
  1.0868768e-01
  2.7550349e-01
  3.1679544e+00
  1.1708560e+00
  4.0499810e-02
 -1.1378983e-01
  6.5594651e-02
 -9.3762107e-02
  1.8467240e-01
 -5.8514011e-01
  2.1079031e-01
 -3.7431952e-01
 -3.7432039e-01
  2.2764105e-01
 -6.8706483e-02
 -6.2170763e-02
 -1.3955541e+00
  9.6834384e-02
  1.6052029e-01
  2.5603053e-01
  6.4952540e-01
 -1.3047929e-01
 -2.0027967e-01
 -2.3951644e-01
  1.2171872e-01
 -1.0114926e-01
 -7.6615743e-02
 -3.2952851e-01
  6.7262244e-01
 -4.8665178e-01
  8.7354265e-02
  1.4987408e-01
 -4.1146033e-02
 -6.7543581e-02
 -6.3568212e-02
 -1.6971956e-01
 -2.2083384e-01
  2.3577284e-02
 -2.7613796e-02
 -2.3318107e-01
 -1.8186165e-01
  1.1124829e-02
  8.7198995e-02
 -2.6750708e-01
  1.0900231e-01
 -6.2563955e-03
 -3.5860884e-01
 -3.3088827e+00
  2.7321362e-01
 -1.9289632e+00
  7.1971160e-01
  5.6568738e-02
  6.6805154e-02
  1.8604931e+00
  4.3164296e+00
 -4.4654002e-03
 -2.4377699e-01
  2.8094392e-02
 -1.7362553e-01
 -1.0025208e-01
 -1.4998011e-02
  8.8435695e-02
 -1.3708461e-02
 -1.7858913e-02
  1.2757348e-01
 -6.6409759e-02
  1.4037048e-02
 -1.1314926e+00
  2.0334262e-01
  3.4502773e+00
 -9.5369980e-02
  3.0187175e-01
  4.4947651e-01
  4.9518544e-02
 -6.7951061e-02
  1.5692349e-01
  1.0811567e-02
 -1.2152209e-01
  9.8760925e-02
  3.2437574e-02
  8.9061530e-03
  5.3795462e+00
  1.7332417e-01
  5.3400159e-01
 -2.9024336e-02
  2.7047980e-01
  3.8759820e-02
 -1.0448313e-01
  3.6487520e-01
  3.4388598e-02
  1.6134533e-01
  4.9668837e-02
 -1.3988163e+00
  2.8417733e-02
 -1.3536229e+00
 -5.2805105e-03
 -4.0825087e-01
 -1.0416129e-04
  1.6509531e-01
 -2.3736258e+00
  1.3794793e+00
  1.3113476e-01
 -2.2898459e+00
  5.7165034e-02
 -2.8402743e+00
  5.5232602e-01
 -1.7570905e-01
  1.5170510e-01
 -8.6900651e-02
 -1.3865135e-02
 -1.9665641e-01
  2.8491572e-01
  1.5982157e-03
  5.2482575e-02
 -2.8154582e-02
 -1.1900278e-01
 -2.7018969e+00
  5.9349217e-02
 -1.3067791e-01
 -2.9253861e-01
 -9.3395181e-02
  1.9555655e-01
 -3.7937403e-02
  1.3463695e-01
 -1.9410244e-01
 -1.7634551e-01
 -5.3107362e-02
  3.0821214e+00
 -8.4497482e-01
  2.8908700e-01
 -2.4899287e+00
 -2.7571848e-02
 -3.6810932e-01
 -1.7672786e+00
  1.0393126e-01
 -2.4747463e-01
  1.0774996e-01
 -9.0756454e-02
 -1.5270743e-01
  5.7597078e-02
  1.9108631e-01
  2.9887998e-01
 -2.5242982e+00
 -8.4276396e-01
  6.9801018e-02
  1.0792623e-01
 -4.2639721e-02
  3.3375841e-02
 -2.3632886e+00
  5.0496250e-02
 -6.2581077e-02
  1.4937565e-02
 -6.3684616e+00
  4.4667933e-02
 -3.4292683e-02
  3.2808136e-02
  2.0356141e-02
  6.8044990e-02
  2.7282848e+00
 -2.3257047e-01
 -9.8367013e-02
  2.2783904e-01
  8.3429712e-01
  2.9179038e-02
 -2.3809223e-02
 -1.2788575e+00
  2.6985188e+00
 -7.0212387e-02
 -2.2318964e-01
  1.1180428e-01
  1.6107495e+00
 -9.4528228e-02
  2.4388755e-02
  2.9137664e-02
  2.8683349e-01
 -1.6253578e-02
 -9.8162599e-02
  2.5761899e-01
 -3.6086537e-02
 -3.8036212e-02
  2.3341422e-01
  1.7666385e-01
 -1.2284388e-01
  1.0037616e-02
  4.2089328e-02
 -2.3992220e-01
  3.6304092e+00
  2.4386762e-02
 -6.5612413e-02
  1.9775137e-01
 -2.3804087e-02
  5.8806646e-01
  6.6621020e-02
 -6.2727593e-02
  3.5103546e-03
  2.4717255e-02
  2.8376693e-01
 -3.7617721e-02
 -1.5712316e-01
 -3.0747621e+00
 -4.1901972e-02
 -1.9846434e-02
 -8.6607188e-01
  1.0617182e+00
 -7.7939206e-01
 -5.6110747e-02
  1.0160855e+00
  3.1211188e+00
 -2.5012765e+00
  5.4704314e-01
 -8.6753780e-01
 -7.2007082e-02
 -2.4230285e-02
 -8.8568199e-01
 -5.5925739e-01
  4.7750312e-01
 -1.5624866e+00
 -6.9953486e-02
  1.3427210e+00
 -1.3277632e-01
 -3.9970076e-01
  9.2760980e-01
  4.5037814e-03
  8.1027620e-02
  1.4472948e+00
  9.9195176e-01
  2.8121812e+00
  9.6681422e-01
  3.8466485e+00
 -2.5954225e+00
  3.4309218e+00
 -2.1133039e+00
 -2.5910822e-01
  6.4454131e+00
 -2.8629357e-02
  6.9111290e+00
  1.4079571e-01
  2.1810505e+00
 -6.4316607e-01
 -3.3610630e-01
 -1.6490632e-01
 -2.2842987e-01
  3.4794733e-02
  2.9038748e-02
 -7.2464749e-02
 -5.0188519e-02
  3.2712917e+00
  8.8387662e-01
  2.1089655e-01
 -6.8689391e-02
  3.6950398e-02
  7.6241471e-02
 -7.2158998e-01
  2.0334333e-01
 -1.3864933e-01
  1.1762118e+00
 -4.6644930e-02
 -6.5843743e-01
  1.2071799e+00
 -6.2139537e-03
  2.7821897e-02
  2.1779686e-01
  1.7127261e+00
  2.9854404e-02
  2.9217498e+00
 -4.1226825e-01
 -1.0992564e-01
 -3.8965531e-02
 -5.1739588e-02
 -3.9673649e-02
  1.0399623e+00
  2.3049561e-02
 -1.0282356e+00
 -2.5782239e-01
  1.4976868e-01
  8.9019760e-03
 -6.9442034e-01
 -3.6923832e-01
 -5.3013775e-02
  2.8013844e+00
  6.8340260e-01
 -3.2840223e+00
 -4.8593760e-02
 -1.2695258e-02
  9.3985133e-02
 -1.2821990e+00
 -8.7474950e-02
 -8.8010751e-02
 -5.1659626e-01
  2.0044336e-01
 -3.9241441e-02
 -1.6422440e-01
 -1.3207138e-01
  2.1510394e+00
  3.6534674e-02
 -2.5815427e-01
 -9.2498571e-01
 -5.8708139e-02
 -3.4937707e-01
  2.0039986e-01
  5.3344145e-03
  1.6257808e-02
 -1.5138830e-01
 -1.0502403e-01
 -3.4835598e+00
 -4.4322050e-01
 -6.0592949e-01
  2.0811636e+00
  2.2161883e-01
 -1.7237282e-01
 -3.4294078e-01
 -1.4376836e+00
 -9.5912151e-02
 -1.5273681e-01
 -1.5289755e-01
  1.2633862e-01
 -2.1842107e-02
 -3.4694561e-01
 -2.3211682e-01
 -4.0857583e-02
  1.1382744e-02
 -1.6313989e-01
 -6.3581285e+00
 -5.2518028e-01
 -1.7691310e-01
 -6.7886628e-02
 -3.4475431e-01
 -2.8639656e-01
  1.9582348e-02
  7.7358615e-01
 -1.5263300e-01
  3.2727405e-01
  4.6621930e-02
  6.5988153e-02
 -7.0824586e-02
  1.1280564e-01
 -5.8060586e-02
 -8.0926241e-03
  1.2266156e-01
 -2.9365985e+00
  3.2967389e-01
  4.4421101e-01
 -2.6562269e+00
 -4.9558349e-02
 -1.8442060e-01
  1.7258069e-01
 -2.1181738e-01
  7.8486003e-02
 -1.0558764e-02
 -3.1474885e-01
 -4.5572460e-02
  3.1848064e-01
  4.4350696e-01
 -2.0771008e+00
 -2.6882249e-01
  6.3250273e-02
 -3.7599641e-01
  1.3233019e-01
  1.8452379e-01
  1.3511597e-01
  3.9374456e-02
 -1.1281902e-01
  3.2684464e-02
  7.2707847e-02
 -2.8925439e-02
 -8.5302711e-01
  6.0764577e-02
 -3.9758769e-01
  2.7141339e-01
  3.2889107e-01
 -9.6027767e-03
  1.4618915e-02
  1.2489204e-01
 -6.4611020e-03
 -2.3088677e+00
 -4.4218957e-01
  4.1754920e-02
  8.9582233e-03
  8.2584575e-02
  6.6416837e-02
 -4.9375165e-02
 -1.7578810e-01
 -6.0737410e+00
  1.4590389e-01
 -5.7886649e-02
  1.3670562e-01
 -8.2177952e-02
 -8.5887820e-02
  1.4762542e-01
 -3.1189042e-01
 -1.3067744e+00
 -3.2594100e-02
 -3.4414193e-01
  1.8852130e-01
 -1.2045584e-01
  1.5424038e-01
  2.8557116e-01
  1.4620267e-01
  1.6372386e-01
  7.6906785e-02
 -1.2457161e-01
 -6.6762960e-01
  1.6648954e-01
  8.2805997e-01
  1.5527586e+00
 -1.9223523e+00
 -4.0937729e+00
 -1.5150298e+00
 -1.5526890e+00
 -2.3629427e+00
 -1.9880535e-01
  1.9962175e+00
 -6.0768032e-01
 -1.9093150e+00
  2.3346536e+00
  3.8051397e-02
  2.9595524e-01
 -4.2029018e+00
 -9.1987717e-01
  5.1046972e+00
  2.7820861e+00
 -3.5448060e+00
 -6.3271773e-01
  2.4704001e+00
 -5.4670448e+00
 -1.1531781e+00
 -7.0201343e-01
 -6.2732887e+00
 -7.4537128e-01
 -6.3637489e-01
  1.5102800e+00
  1.3288270e-01
 -1.8529830e+00
 -1.7828236e+00
 -1.7683922e+00
 -9.5585024e-01
 -2.2297914e-01
  1.1971329e-01
  2.5052855e+00
  3.5949302e+00
 -9.3144381e-01
 -1.6901170e-01
 -8.6996853e-02
  2.6512793e-01
 -1.8592039e-01
 -3.5915637e-01
  1.5651628e-01
  9.6282708e-03
  1.9355580e-01
  2.0685942e+00
 -2.5311186e+00
  2.9862029e-02
 -1.3347934e-01
 -3.4179384e-01
 -1.4709193e-01
 -3.9129078e-01
 -2.2401303e-02
  1.2621627e+00
 -3.0415154e-01
  2.8612700e-03
 -2.0623785e-02
 -9.6113873e-01
  6.5366524e-01
 -1.4938300e-02
 -1.1858305e-01
  1.4274304e+00
 -5.7945073e-01
 -2.1496063e-01
  5.6945618e-02
 -6.9860116e-02
 -4.0045366e-02
 -1.1808247e-02
  4.1989842e-03
 -6.3703316e-01
 -7.1982488e-02
 -1.1738454e-01
 -2.0004404e-01
  1.8253040e-01
  5.5228382e-02
 -2.8747639e-03
 -7.6562995e-01
  5.6961048e-01
  2.7377692e-01
  1.0026213e-01
  6.4910300e-02
 -3.4949232e-02
  1.6607565e-03
  6.9601738e-01
  5.2438307e-01
 -1.1142883e-02
  2.2880372e-01
 -1.8138810e-01
  4.3259047e-02
 -1.0130944e-01
 -2.7739012e-01
  7.6386243e-01
  1.3940157e-01
 -3.8450441e-01
  4.1916933e+00
  6.3261330e-02
 -8.7298721e-02
  1.7170031e-01
 -5.9078373e-03
 -2.1564105e-01
  8.1687734e-02
 -7.0073956e-01
 -6.2723523e-01
  1.5068526e+00
  1.4963826e+00
  8.4906465e-01
 -1.4598185e-01
 -1.6702198e+00
  2.4300995e+00
  4.7610026e-02
  3.2940590e+00
 -6.5068045e+00
 -8.0111914e+00
  3.4700796e-01
 -1.7634113e+00
  2.0893459e+00
 -1.4087319e+00
  3.1619384e+00
 -1.1204596e+00
 -4.6737905e+00
  1.2599682e+00
 -1.6073112e+00
  3.0976173e-01
 -3.0113001e+00
  9.3252182e-01
 -2.7083588e-01
 -4.0393133e+00
 -1.2314569e+00
  1.9341014e-01
  1.5132457e+00
 -2.3260555e+00
 -8.7396689e-02
 -2.6716518e-01
 -2.3184419e+00
 -1.8731952e-01
  4.4512677e-01
  1.6294318e+00
  2.9676887e-01
  5.7128620e-01
  1.9843484e+00
  7.0706004e-01
  4.9326510e+00
  4.9950856e-01
 -4.1710014e+00
  1.6738642e+00
  7.9575629e+00
  5.5053711e-01
  2.4974735e-01
 -1.1333047e-01
  1.4611226e+00
  1.4038455e+00
  6.0575919e+00
 -1.7289431e+00
  6.7732763e+00
 -7.8766646e+00
 -2.5098226e+00
 -1.1509483e+00
  1.7951695e+00
 -1.0246164e+00
 -1.5263678e+00
  2.6855056e+00
  6.1959941e-02
  4.1019983e+00
  9.5373178e-01
 -2.3196825e-01
 -9.4842839e-01
 -7.3395431e-02
 -1.0520671e-01
  3.4743118e+00
  8.6311501e-01
  8.4184006e-02
 -7.0950735e-01
 -3.5603023e+00
  4.1866341e-01
 -3.7240140e+00
  1.0810531e+00
  3.9849693e-01
 -5.1207811e-01
  5.4746139e-01
 -2.4266214e+00
  1.9436672e+00
  2.9197328e+00
  1.3797520e+00
 -1.3675079e+00
  3.9157772e-01
  1.5988755e+00
 -1.2942074e-01
  8.1878424e-01
 -4.8160216e-01
 -6.8123534e-02
 -1.7385643e-02
 -4.4145000e-01
  9.3616299e-02
  5.5810994e-01
 -1.1965143e-02
 -1.5963290e-02
  2.7184734e-01
  4.1436009e-02
  9.8674484e-02
 -3.0845316e-02
 -8.9018431e-04
 -3.6344215e-01
 -1.5296127e+00
  1.9516392e-03
 -9.8825403e-02
  5.1846366e-02
 -2.2706518e+00
 -1.4276898e-01
  1.0280274e-01
 -3.6664255e+00
  8.7222606e-02
  1.4527836e-01
 -1.8144736e-01
 -7.6984584e-02
 -7.0083626e-03
 -1.1777414e-01
 -4.9278599e-01
 -4.9481627e-01
  3.7442870e-02
  3.1359696e+00
  8.7838350e-03
 -1.0172530e-02
  2.6484649e-03
 -4.3185544e-01
  7.4418567e-02
 -9.1329701e-02
  1.1100671e-01
  1.1924599e-01
 -1.6955872e-01
  2.9045608e-02
 -1.2169365e-01
  3.7144729e-01
 -2.3149889e+00
 -1.3351686e+00
 -3.0432675e-02
 -7.5551176e-01
  8.8818207e-02
  1.5029900e-01
  4.5647120e-01
  9.3635154e-01
  3.0007136e-01
  1.5143810e-01
  1.5444273e-01
 -5.3436741e-02
 -3.8698515e-01
 -1.6759506e-01
  1.5297292e+00
 -3.7049610e-02
 -3.4417771e-02
  7.1152709e-02
 -2.0102714e-01
  7.9709999e-02
 -6.8015903e-02
 -1.3342141e-01
  1.0516348e+00
  7.9262167e-01
 -2.0019859e-01
 -1.3593640e+00
  1.2055660e-01
 -1.6683151e+00
  6.7152612e-02
  8.4975535e-01
 -1.7850158e-01
 -1.3001373e-01
  2.4463117e-01
 -1.2533942e-02
  3.5149273e-01
 -1.5722646e-01
  1.4104806e-03
 -9.7922283e-01
  3.1407037e-01
  2.1058684e-02
 -9.9938430e-02
 -3.6835451e-02
  1.4725605e-01
 -2.8940907e-01
  7.6530501e-02
 -1.2589599e-01
  7.5646406e-01
 -9.1985470e-01
  2.0919956e-01
 -7.5074114e-02
  1.7910036e-01
 -2.9166442e-01
 -1.2548248e-01
  1.8556509e-02
 -7.1391147e-01
  9.8173892e-01
 -2.0416284e-03
 -4.7665557e-01
  1.9277602e-02
  1.4761868e-01
  2.0217687e-01
 -2.4191391e-02
  8.8883623e-02
 -1.1777095e-01
 -2.0145887e-01
 -8.4513329e-02
  2.2414243e-01
  4.0890530e-02
  4.2237293e-02
  1.4833696e-01
 -1.1223195e-01
 -7.3595800e-02
 -3.3651721e-02
 -2.9749529e+00
 -8.8425957e-02
  1.0757550e-01
  3.7058733e-02
  1.3799755e-02
  8.5752755e-02
  7.6986760e-02
  3.5203842e-03
  8.9702003e-02
 -1.6557503e-01
  2.2147298e-03
  1.0466141e-01
 -6.0418117e-01
  2.0335706e-01
  2.1957102e-01
  1.1203027e-01
 -2.1753934e-01
 -3.2915035e-01
  3.2892600e-02
  4.4585535e-01
 -9.7279795e-02
 -1.9408148e-02
 -3.1169400e-01
  4.3616784e-01
  2.1684566e-01
 -1.3184828e-01
