nep4_zbl 2 O Ga 
zbl 1 2
cutoff 6 4 418 127
n_max 8 6
basis_size 12 10
l_max 4 2 1
ANN 100 0
 -4.1039717e-01
 -1.8309745e+00
  2.3922969e-01
 -4.6714365e-02
  3.7495506e+00
 -2.1593034e+00
 -7.9378241e-01
  4.5595068e-02
 -3.9319677e+00
  5.4038209e-01
 -3.8813820e-01
  3.2986054e-01
  1.8421510e+00
  1.9345256e+00
 -7.0905316e-01
  8.5852414e-01
 -2.4440389e+00
 -1.2312637e-01
  2.2864620e-01
 -3.4844065e-01
 -2.2866711e-01
 -8.9366070e-04
 -3.6348697e-02
  2.7010825e+00
  3.2566264e-01
 -1.5704744e+00
  7.6888323e-01
 -1.9215026e-01
 -1.0984855e-01
 -2.2452671e-02
  5.8216200e+00
  3.2915317e-02
 -1.2667008e-01
  1.9395730e-01
 -2.9224545e-01
  7.4686217e-01
  1.6236588e+00
  1.0900170e+00
 -8.8108599e-01
 -5.4976904e-01
 -2.5399914e-01
  2.4622512e-01
  2.2351396e-01
 -8.6033344e-01
  1.9078803e-01
  2.9767981e-01
 -1.4414805e-01
 -3.3955112e-02
  3.3880755e-01
 -4.1134453e+00
 -1.0145006e+00
  1.6816054e-01
  2.2271829e-02
  2.7828777e+00
  2.3480631e-02
  2.9555876e-03
  3.2868114e-01
  2.5065252e-01
  3.2475093e-01
 -1.6286613e-01
  6.6100424e-03
  1.4993116e+00
 -3.3275459e+00
  3.6314708e-01
 -1.0642908e-01
 -2.4161195e-02
  3.9908731e-01
  2.4136323e-01
  6.3071921e-02
 -8.3623409e-01
 -6.1212771e-02
 -1.2670669e-01
 -5.2690947e-01
  3.0701938e+00
  1.0639026e+00
  2.1206126e-01
 -2.9715016e-02
 -1.1246718e-01
  2.4350420e-01
 -1.2358546e-01
 -8.6402023e-01
  3.8313153e+00
  1.7359638e-01
  1.0871625e-01
  3.4736313e-02
  1.6733676e+00
  1.5707175e-01
 -6.8232936e-01
 -1.6019639e-01
  8.2502097e-01
 -4.6005169e-01
  6.8619184e-02
 -1.2507658e-01
  6.8407431e-02
  1.4296824e+00
 -9.5002472e-02
  3.4482998e-01
  1.4427170e-01
  2.9284376e-01
  1.8418801e+00
  4.0611592e-01
 -7.2569120e-01
 -1.1705759e-01
 -6.2428659e-01
  5.2996229e-02
 -7.5982630e-01
 -7.2493130e-01
 -5.0596517e-01
 -2.0382652e-01
 -4.5638248e-02
  2.3415201e+00
  2.8442647e+00
 -2.3184416e+00
  2.2231767e+00
  5.1591218e-01
  6.4890373e-01
 -8.6597347e-01
 -6.2267256e-01
  5.8105141e-01
 -3.2150919e+00
  5.5086523e-01
 -2.3904362e+00
 -2.3488724e-01
  1.0830965e+00
 -7.3597378e-01
 -6.0186356e-01
 -1.7191685e+00
 -1.3990898e-01
 -1.6121645e+00
  4.6819341e-01
  5.4918540e-01
 -3.0815044e-01
 -1.9299549e+00
  4.1845164e+00
 -1.9652323e-01
 -6.4927363e+00
  1.4050124e-02
  4.7237255e-02
  4.0298405e-01
 -2.6686332e-01
  5.1078796e+00
  1.6372066e+00
 -2.7688149e-02
  4.6627268e-01
 -7.3534584e-01
  2.1876066e+00
 -2.3952630e-01
  2.4250927e+00
 -4.9508495e+00
 -5.5051252e-02
  7.2097117e-01
  1.0715986e-01
 -1.1458041e-01
  4.1935575e-01
 -5.5869025e-01
 -1.0330931e+00
  2.8397191e-01
 -3.9671043e-01
  1.2715346e-02
 -1.8298475e-01
  3.7648454e-02
  1.8683714e-01
  1.0533378e+00
 -3.3977425e+00
  1.3626254e+00
 -1.1194070e-01
  2.2371119e-01
 -2.0210178e-01
  7.0589399e-01
 -2.4793644e-02
  4.9979320e-01
  1.3115468e-02
  2.2104108e-01
 -3.7284142e-01
  4.6568254e-01
 -1.7981727e-01
  6.3529962e-01
 -8.7111935e-02
 -4.6172772e-02
 -3.4412585e-02
 -1.8988732e-02
  9.4134295e-01
 -7.3893708e-01
 -7.2970398e-02
 -6.1074942e-01
 -1.9120941e-01
 -6.3105922e+00
 -5.6493960e-02
 -4.0085515e-01
  6.4313269e-01
 -1.3410042e-01
 -3.6164138e-02
 -6.7421228e-01
 -3.1456316e-01
 -1.7148329e-01
  3.6285874e-02
  1.8258476e+00
  8.5652142e+00
  4.7211909e+00
 -4.4829373e+00
  3.7305705e-02
 -6.8448269e-01
  1.4125278e-02
  2.2674058e-02
  4.2372519e-01
 -3.9543790e-01
 -4.4217601e-01
 -5.8954334e-01
 -1.7148738e+00
  2.3352778e-02
  9.8329365e-01
 -2.3879738e+00
  1.2666789e+00
  3.4912342e-01
 -1.3090100e+00
 -1.8734843e-02
  3.1168375e-02
 -2.2681012e+00
  8.2134441e-02
 -7.5912744e-01
 -3.4090829e+00
  1.6126571e-02
  4.1886607e-01
 -8.0799860e-01
  1.8675594e-01
  1.3892554e+00
 -5.1873904e-01
 -7.5698927e-02
 -1.4936650e-02
  1.5522115e+00
  2.9670832e-01
  1.3754679e+00
 -2.4103799e-01
  4.4576204e-01
  1.2789828e+00
 -1.6675904e-01
 -2.3943053e-01
 -1.9336469e-01
 -9.5618829e-02
 -1.9100687e-01
 -1.8324588e-01
  1.9439716e+00
  3.4543285e-01
 -1.8811974e-01
 -1.0145495e+00
 -1.4247949e+00
 -3.9391491e-01
  3.4115389e-01
  2.6911658e-01
 -2.3728842e-02
 -9.6715726e-02
  4.8027616e-02
  7.2990662e-01
 -5.6381452e-01
  1.1960249e+00
 -2.7573335e+00
  2.7649808e-01
  1.6729648e-01
  3.7003928e-01
 -2.3476441e+00
  6.9602048e-01
  4.1971259e-02
 -1.6212163e+00
 -7.1617866e-01
 -5.4448056e+00
  1.8464288e-01
  1.4469758e-01
  4.3226868e-01
  4.5542207e-01
  1.5949408e+00
  2.7610597e-01
 -3.0348679e-01
  7.1283005e-02
  3.6390185e-02
 -1.2797097e+00
 -1.3589777e-01
  8.9268172e-01
  1.0280708e+00
 -7.2628587e-01
  1.7070897e-01
  6.3388813e-01
  3.1212425e-01
  4.5275679e+00
  7.5391603e-01
  5.1651776e-01
  1.4350239e+00
  3.0962020e-01
  9.7947133e-01
  2.1608078e-01
 -7.9329960e-02
  1.0761702e-01
  4.3455508e-02
 -2.9398242e-01
 -2.8187411e-02
 -5.4645225e-02
 -1.3919619e-01
 -2.7384841e-01
  2.8182883e+00
  2.6948008e-01
 -1.6937803e+00
  1.9207321e-01
 -2.5398562e+00
  1.5455889e+00
  1.9494538e+00
 -5.4571930e-02
  2.5382717e+00
 -1.4794966e+00
 -1.8176395e-01
  1.0124317e-01
  6.5835208e-01
 -6.2030661e-01
  3.5216945e-01
  1.1194255e-01
  3.2161527e+00
  2.4300826e-01
 -8.0031151e-01
  1.9195836e+00
 -1.5309349e+00
  2.1942689e+00
  3.4488052e-02
 -1.1868989e-01
 -1.3101764e+00
 -1.3837092e+00
  4.1885260e-01
 -3.5014674e-01
 -1.2362876e-01
  1.7726279e+00
 -2.2554594e-01
 -9.4667718e-02
 -4.0750271e-01
 -8.9103806e-01
  2.3299975e+00
  7.8732781e-02
  6.5074748e-01
 -6.3728184e-01
  3.4151156e-03
  4.4455537e-01
 -2.3119709e-01
  1.7975689e+00
 -2.5824559e+00
  3.2107180e-01
  3.3877686e-02
 -2.2389650e+00
 -1.5824714e-01
  4.8781800e-01
 -2.6220235e-01
 -1.3409414e+00
  8.1379212e-02
  6.2979013e-01
 -2.2784778e-01
  1.4281930e+00
 -2.0762482e-01
 -1.9658594e-01
  3.2592118e-01
 -2.1072142e+00
  7.4734664e-01
 -4.3293032e-01
  4.8115325e-01
 -4.1322712e-02
  1.3512166e-01
 -1.0541856e+00
 -1.0211781e-01
  6.1864361e-02
 -2.0028403e+00
  7.5075555e-01
 -2.1142036e-01
 -8.4646338e-01
 -1.3550776e-01
 -1.2341695e-01
  1.3107196e+00
 -4.6735653e-01
  2.9613203e-01
  6.7953688e-01
  1.2060741e+00
 -1.8232176e-01
  2.7781072e+00
 -2.2749870e+00
 -3.5501244e+00
  1.8889713e+00
  7.2097373e-01
 -1.7180141e+00
  4.8952520e-01
 -3.5344841e+00
 -3.7315876e+00
  7.2458100e+00
 -7.0987648e-01
  3.2629436e-01
 -2.0836048e-01
  5.6237406e-01
 -4.9167714e-01
  2.9808769e-01
  9.3838954e-01
  1.9240382e-01
  2.0577385e+00
  1.4773464e-01
  1.5658071e+00
  4.1827974e-01
 -5.0892109e-01
 -2.2018843e+00
 -4.7606394e-01
  1.3431973e+00
 -9.2058018e-02
  1.5860319e-01
  7.4124910e-02
 -3.9608777e-01
  7.3311079e-01
  3.0704846e+00
  1.6616415e+00
  5.3079414e-01
  3.2733254e+00
  4.5215831e+00
 -1.1350980e-01
  2.6691693e-01
  6.3583779e-01
  8.4360234e-02
  2.8886970e-02
 -3.6449677e-01
 -4.4823378e-02
  3.4627178e-01
  1.3686256e+00
  5.6399053e-01
 -6.2404609e-01
 -2.0897728e-01
  7.5041080e-01
 -3.5827798e-01
  5.8913812e-02
  1.0773206e+00
 -1.2233112e+00
  1.7237246e-01
  9.1165513e-02
  2.2300305e+00
  4.3109812e-02
 -2.9097414e-01
  9.0398484e-01
  1.5243298e+00
  5.5210683e-02
  2.4641338e-01
  5.2755815e-01
 -2.8078774e-02
  4.0537033e-02
 -1.4410545e-01
 -1.9945657e-01
 -2.3791817e-01
  4.9690833e+00
 -1.0715102e-01
  1.6848084e-01
 -1.0735212e-01
  3.3875456e+00
 -1.6930166e-01
  1.1882557e+00
 -6.0508031e-02
  5.0066626e-01
  5.9541631e+00
 -2.0892453e+00
  7.5801440e-02
 -6.5153785e-02
  2.0599124e+00
  3.5929695e-01
 -3.6808372e+00
 -3.3146071e-01
  1.8969507e+00
  2.4032450e+00
  9.5965177e-02
  1.9463304e-01
  2.6557600e-01
 -1.5209003e-01
  2.1220194e-02
 -2.8029516e-01
  1.4623116e-01
  1.8093495e+00
 -1.3162574e-01
  1.0633732e-01
  1.2535198e+00
 -3.9990387e+00
 -3.5547276e+00
 -3.2159362e+00
  2.7174280e+00
 -2.0976909e-01
  1.9826173e+00
  7.0626628e-01
 -9.3283129e+00
  3.1166336e-01
 -2.1414253e-01
  2.1211592e-02
 -9.0525615e-01
 -2.6719511e-01
  5.6597370e-01
 -1.6149403e+00
 -3.5583127e+00
  2.6590130e+00
  1.2765088e-02
 -3.4586821e-02
 -6.9272310e-02
  2.3990586e-01
 -1.8486293e-01
  6.1605492e+00
 -2.9715759e-01
 -4.5378590e+00
  1.2095633e+00
  1.3896008e-01
  3.8002402e-01
 -3.8656585e-02
  4.1342769e+00
  1.0544220e+00
  2.2997487e+00
 -6.0136991e+00
 -2.3582648e-01
  7.5861895e-01
 -5.1258278e-01
  4.0632047e-02
 -2.2988850e-01
  4.1568837e-01
  2.2568543e+00
  9.1471982e-01
  2.8968039e+00
  7.8522712e-03
 -3.3620021e-01
 -3.2715526e-01
  1.0330684e-02
 -3.2183373e+00
  5.0716686e+00
 -2.5347191e-01
 -7.8193158e-01
  1.9212696e-01
  1.0624658e+00
 -4.9642668e+00
  9.0860713e-01
 -1.8011137e+00
 -1.7215354e+00
 -1.8753693e-01
  1.0302898e-02
 -8.9287364e-01
 -2.3521016e+00
  3.3417949e-01
  2.9103240e-01
 -1.9449572e-01
  3.8255215e-01
 -2.1995764e-02
 -3.7604384e-02
  1.4925711e+00
  3.5129577e-01
 -2.8407124e-01
  1.1964848e+00
  8.7210619e-01
 -2.0370424e+00
 -6.1206144e-01
 -7.7884018e-01
  4.0259285e+00
 -7.6663427e-02
 -1.0387811e-02
  6.8979436e-01
  6.3103390e-01
 -3.3995688e-02
 -4.5621934e+00
 -1.4138421e-01
 -1.8213026e-01
 -5.8573971e+00
  8.7698889e-01
 -1.2737419e-02
 -9.9474750e-02
  5.7366581e+00
  6.1867577e-01
 -2.4613802e-01
 -1.1349894e-02
 -2.2714262e+00
  1.6056544e-01
 -5.8278716e-01
  1.1094345e-02
 -5.0762057e-01
 -7.6458251e-01
  9.1055435e-01
  1.7276609e+00
 -8.0470508e-03
  3.2542840e-01
 -3.2255416e+00
  3.0171686e-01
 -2.3637492e-02
 -2.4680947e-01
  1.6183813e+00
 -3.3378983e-01
 -3.4179527e-02
 -4.4296908e+00
 -5.1824385e-01
  2.0037370e+00
  1.3594396e-01
 -2.3138447e+00
 -2.9038230e-01
  1.7996626e-01
 -1.8509643e-02
  3.7627849e-01
 -4.5391923e-01
  4.2915666e-01
  1.3937492e+00
 -3.0969613e+00
  1.8313185e+00
 -2.3836129e+00
  8.8460572e-02
  5.4369610e-02
  4.5729634e-01
  2.4666576e+00
  1.2883105e+00
 -2.3676133e-01
 -5.5062932e-01
 -1.2114497e+00
 -2.0438321e-02
  2.8088838e-01
  1.3345180e-01
  5.1470870e-01
 -3.6322641e-01
  7.3965332e-03
  7.5444847e-01
 -8.0228960e-03
  3.4000674e-01
  3.2605353e-01
 -1.9617562e-01
  1.4972064e+00
 -3.0833557e-01
  1.1616089e-01
  5.8865346e-02
  3.7909386e-01
 -3.5720038e-01
 -9.8690057e-01
 -1.9188681e-01
 -1.6325690e+00
  6.9925435e-02
  5.5437151e-02
  2.3867367e-01
  5.3418983e-02
 -2.7714648e+00
  4.8006107e-03
  3.2552227e-01
 -5.4562640e-01
  2.7906111e-02
 -5.4023057e-01
  6.1085904e-01
  2.5027046e+00
 -1.5057449e+00
 -5.1439857e-01
 -1.0203027e+00
  8.3394330e-03
 -1.7794418e+00
  4.5994559e-01
 -4.2914191e-01
 -1.6723013e+00
  3.5820507e-02
 -1.1313245e-01
 -1.1711733e+00
 -6.8669222e-02
 -2.7907610e-01
  2.5556815e-01
  4.2884207e+00
  4.3958908e-01
 -2.3701322e+00
 -1.8678552e-01
  2.4630907e+00
  7.3629934e-01
  2.2011873e-01
 -3.0377531e-01
  2.2196541e+00
  1.3594048e-01
 -1.7463862e+00
 -1.5933003e+00
 -3.1211224e-01
 -1.9145664e+00
 -1.0454552e+00
  3.1085408e-01
 -3.7828463e-01
 -4.7714365e-01
 -1.2294056e-01
 -3.5622245e-01
 -1.2644958e-02
  2.8490388e+00
 -3.4846020e-01
 -4.0217581e-01
 -2.7830482e+00
  3.4703541e-01
 -2.4052431e-01
  1.3260972e-01
 -2.1284156e+00
  2.3971193e-02
  2.2747059e-01
 -2.6126063e-01
 -3.0465293e+00
 -1.4788531e-01
  3.4970109e+00
 -7.1939968e-02
 -4.2888765e+00
  4.0603480e-01
  1.4714718e+00
  8.4289335e-02
 -3.0078265e-01
  5.1437497e-01
  1.1939244e+00
 -1.2502950e-01
 -6.7089313e-01
  6.4012939e-01
  2.2590417e-01
 -2.4930018e-01
  6.0783044e-02
 -7.5590722e-02
  2.0303512e-01
 -4.0968758e-01
  2.7289152e-01
  3.5085946e-02
 -1.3640554e+00
  2.4177095e-02
 -2.4027004e+00
  1.1481503e-01
 -3.7217651e-02
  7.3512477e-01
 -1.5765591e+00
 -1.0842566e+00
  2.3014164e+00
  3.8712505e-01
  1.5753975e+00
 -5.2231425e-01
  2.7824469e+00
  6.2550074e-01
  8.3242440e-01
  2.8189387e-02
  1.7485630e-02
  4.2322266e-01
 -6.3712841e-01
  5.0077778e-01
  1.1655401e-01
 -3.6165291e-01
  5.7965085e-02
 -2.1068688e-01
 -2.5126573e-02
 -2.9186684e-01
  3.4534230e+00
  3.5204403e+00
 -4.0955389e-01
  6.0756540e-01
  2.0031655e+00
 -5.7433397e-02
 -1.1758120e+00
 -8.0350704e+00
 -5.0077686e+00
 -1.9231489e-01
 -4.7092321e-03
 -2.9356263e+00
 -2.1098717e-01
 -5.7442334e-02
 -1.4346144e-02
 -1.1174483e-01
 -7.9061203e-02
  6.7545950e-01
  1.3838995e-01
 -4.8857293e+00
  8.0935985e-01
  3.6822218e-01
 -1.8762347e-01
 -1.6957551e-01
  3.9298734e-01
 -9.2170388e-01
  1.1323363e+00
 -4.2141166e-01
 -3.7026060e-01
  2.5145264e+00
 -2.5508857e-01
 -1.5230593e-01
  5.9793699e-01
 -3.3399372e+00
  5.8134854e-01
  3.1435129e-01
  4.3650651e+00
 -4.6731657e-01
 -1.9500049e+00
 -1.1873291e-01
 -4.7125607e+00
 -4.2452183e-01
  2.1614151e+00
 -2.7394673e-01
  3.1078276e-01
  2.8611557e+00
  6.3083470e-01
 -2.1912229e+00
  7.0728207e-01
 -6.1917949e-01
 -3.1742185e-01
  5.0682936e+00
  1.5418347e+00
 -8.7611127e-01
  3.9187193e-02
  5.5471063e-01
 -1.6583489e+00
 -7.2289377e-01
  4.3104463e+00
  2.3540765e-01
 -1.0035945e-01
  9.0213811e-01
 -2.3958946e-02
 -3.5725355e-01
 -4.9524024e-02
 -4.3344035e+00
 -2.9998493e+00
  4.0132670e+00
 -3.1464379e+00
  1.9547863e+00
  5.5829104e-02
 -6.3752228e-01
 -1.7422964e-01
  1.6031870e-01
  1.9752626e-01
  2.1870852e-01
  1.9987993e+00
  1.9384273e+00
 -2.4144338e-01
  3.7177631e-01
 -5.8121905e-03
 -6.6879547e-01
 -1.7309889e-02
 -3.6675882e+00
 -1.4216174e-01
  6.1860096e-02
  4.8627052e-01
 -1.0136253e+00
  1.7127819e+00
  1.4826398e-01
 -2.8515604e+00
  3.7962565e-01
  9.5300871e-01
  8.0961651e-01
  2.2110081e+00
 -2.8478191e+00
 -1.3775054e-01
 -6.7181337e-01
 -2.6157899e+00
  4.3544025e+00
  4.7932971e-01
  6.5701729e-01
 -4.2973220e-01
  1.1914581e+00
 -6.2574530e+00
  2.5823267e+00
 -3.8586433e+00
  2.4262359e+00
 -5.0529242e+00
 -2.8275337e-02
 -3.4479568e+00
 -2.2733874e+00
  1.7110363e+00
  3.2813478e+00
 -9.8818821e-01
 -3.1037712e+00
 -1.2242178e+00
  5.6402450e+00
 -2.0217476e+00
 -2.4886703e+00
 -1.0824164e+00
 -1.2930201e+00
 -4.9168539e+00
  7.5883889e-01
 -6.0209527e+00
 -1.1250364e+00
 -1.1703578e+00
 -9.6818399e-01
 -3.1707139e+00
 -6.5453774e-01
  1.5660990e+00
  8.7328747e-02
 -9.3367696e-01
 -3.5906237e-01
 -1.9830197e+00
 -3.8662073e-01
 -1.2424936e-03
 -1.9645772e+00
 -5.9136752e-02
  3.2868161e+00
  5.6527078e-01
  4.7149744e+00
 -6.2179798e-01
  7.6911664e-01
  1.0507499e+00
 -3.4951200e+00
 -1.5986266e+00
 -1.0225024e+00
  6.9455242e-01
  6.5034682e-01
  2.1837125e+00
 -3.9379687e+00
  4.4489750e-01
 -1.1615113e+00
 -5.7367361e-01
  3.4720800e+00
 -2.0563881e+00
  4.0572861e-01
 -1.8580387e+00
 -8.0459619e-01
 -9.9578303e-01
 -3.0525440e-01
  3.5315995e+00
 -2.3678714e-01
  2.4081428e-01
  2.2734191e+00
 -1.7273432e+00
  4.1835604e+00
  2.3332675e+00
  4.4492435e+00
 -1.8829548e+00
  1.9741730e-01
  1.0509212e+00
  3.6401584e+00
 -1.0329236e+00
 -6.2750064e-02
  3.6661260e+00
 -3.0094121e+00
  8.6323470e-03
  2.4638479e+00
 -1.3457611e+00
 -4.8614487e-02
  1.6519384e-01
  1.2511013e-01
 -1.0656383e+00
 -3.7591293e+00
  4.6872559e+00
  1.4230788e+00
  1.1926589e+00
 -2.7824166e-01
 -2.2004206e-01
 -5.3424872e-02
  1.4124569e+00
  2.5968418e-01
  1.6678880e-01
 -1.5109178e+00
  5.8085269e-01
  6.2197614e+00
 -4.6074944e+00
  7.1389413e-01
 -1.4458138e+00
 -2.9123838e+00
  6.9143438e-01
 -2.3108068e+00
  3.7049797e+00
  1.8491642e+00
 -5.3998393e-01
  1.9680334e+00
  1.2869062e+00
 -6.1017638e-01
  2.8534526e-01
  4.3081558e-01
 -2.7198884e+00
  4.8748989e+00
  9.9279229e-03
 -6.5529120e-01
  9.3943030e-01
 -5.2045878e-02
  5.2318293e-01
 -1.6693676e-01
  8.5030019e-02
  4.4866785e-01
 -1.0612808e+00
  2.5629127e-01
 -6.4765394e-02
 -2.7398828e-01
  2.2904058e+00
 -6.2104139e+00
 -1.4876333e-01
  1.6663666e-01
  4.9394518e-01
 -1.4434691e-01
 -6.3202131e-01
 -3.1768088e+00
 -1.8671332e-02
 -3.5044613e-01
 -3.0778801e+00
  1.8673986e+00
  2.9168430e-01
 -9.9559903e-01
 -8.8334250e-01
 -2.1886384e-01
  4.4516749e+00
  3.0094552e-01
 -2.4455514e+00
  8.7284416e-01
 -2.8547172e-02
  2.1156502e+00
 -6.5468425e-01
  3.2220197e-01
  1.5911277e-01
  5.9040286e-02
 -2.2231390e-01
 -8.8718694e-01
  1.3735756e-01
 -7.4998778e-01
  4.9744305e-01
 -2.3007189e-01
  5.3321896e+00
  1.7265801e+00
 -2.0509560e+00
  5.4427898e-01
  1.1782322e-01
 -6.3124841e-01
  2.4976170e+00
 -8.7500423e-01
 -2.5902293e+00
  1.2303593e-01
  2.2941284e-01
  2.6713055e-02
 -2.7572278e-02
 -3.5345763e-01
  4.3979076e-01
 -2.5170323e-01
 -1.0572287e+00
  8.8545448e-01
  8.4095947e-02
  3.4863830e-01
  1.3368561e+00
  9.5214866e-02
 -1.0208094e+00
  1.0220741e+00
  5.1418436e-01
 -3.0062605e-02
  3.1075656e-01
 -1.8223040e-01
  4.4160582e-02
 -7.0020869e-02
  1.5609025e+00
  5.8547877e-02
  2.1535625e+00
  5.7389647e-01
  9.6786565e-01
 -4.0241470e+00
  4.3887213e-02
  1.2568970e-01
 -7.4374950e-01
  3.1405666e-01
  2.7387083e+00
  2.9496777e-01
  7.7798474e-01
 -3.4268293e+00
 -2.9349415e-02
  2.8283206e-01
  8.5728154e-02
 -6.1768297e-02
 -5.9713167e-01
  1.4060740e+00
  3.3324254e+00
  4.0218577e+00
 -6.0693902e-01
 -2.3511794e+00
 -2.3020749e+00
 -1.5898238e+00
  2.7697759e+00
  5.9223557e+00
 -1.0173584e+00
 -9.2352766e-01
  6.9552207e-01
 -1.6496458e+00
  3.4052444e+00
  3.5636680e+00
  4.1795545e+00
  2.1901588e-01
  1.4239384e+00
 -1.0235814e+00
 -2.4710219e-01
 -1.0643033e+00
 -8.1794143e-01
  2.7726734e+00
  6.5645611e-01
 -1.8261317e+00
 -2.5168066e+00
 -1.4647660e+00
  1.0670806e+00
  2.3264958e-01
 -4.4818502e-02
  3.9233608e+00
  4.6519038e-01
  1.6767703e-03
  1.6241316e+00
  4.3381782e+00
  3.2427208e+00
 -4.9631757e-01
  5.5148315e-01
 -2.6786816e-01
 -2.0716224e-02
  7.5791009e-02
  4.5632091e-01
 -1.0264434e+00
 -7.4461728e-02
 -3.3082792e-01
  1.1057287e-01
  1.9816427e+00
  1.4306670e+00
  5.9552863e-03
  4.9998142e-02
 -2.8776816e-01
 -8.4774723e+00
 -1.3197185e+00
 -2.5503576e-01
 -1.9034977e-01
 -2.0702493e+00
 -3.4027377e-01
 -2.9951259e-01
 -3.7750822e-02
  4.2913955e-01
  3.9915928e-01
  7.3636785e+00
  1.1671316e-01
 -1.7370766e+00
  1.2765834e+00
  7.8521293e-01
  5.7943773e-01
 -1.0541213e+00
 -4.9084321e-01
  8.3422289e+00
  4.6511879e+00
  3.4389377e-01
  3.9678404e+00
 -1.3700295e-02
  1.0147320e+00
  5.4717988e-02
  8.0504793e-01
 -5.9006151e-02
  2.5939518e-01
 -5.4596812e-01
 -2.5582105e-01
 -3.7747473e-01
 -1.7375218e-02
  3.1198186e-01
  6.1504502e-02
  1.1901000e+00
  1.1913998e-01
 -2.8233685e+00
  2.0104836e-01
  2.9703215e-01
  4.0061966e-02
 -1.2649143e+00
 -1.3029022e-02
  1.4668025e-01
 -2.5865331e-01
 -6.2874579e-01
  4.6512946e-02
 -2.6799967e+00
  2.2959118e+00
 -2.4211465e-01
 -3.9754415e-01
 -9.0768449e-02
  3.1719509e-01
 -2.0780399e+00
 -2.1423712e-01
 -3.0710542e-01
 -1.3453699e+00
  9.8901576e-01
 -3.2497872e-02
  8.1524831e-01
  9.4611794e-01
 -2.9603283e+00
  6.6931091e-02
  4.5901644e-01
 -6.0869765e-02
  4.2999858e-01
  1.6724826e+00
  5.6448525e-01
 -1.6047992e+00
  1.1209466e+00
 -1.2324699e-01
  3.9548722e-01
  5.8535848e-02
 -1.2727882e+00
 -2.7159745e-01
  1.6584501e-01
  1.7294362e-01
  1.8868209e-01
  1.3059254e-01
 -5.9803664e-03
  8.7849610e-02
 -1.1245685e-01
 -1.8051269e+00
  1.7131346e+00
  9.0899594e-02
 -9.2548335e-01
 -7.5843558e+00
  2.3493969e+00
 -3.2091243e+00
  3.1393918e-01
  1.4996974e+00
 -1.8726708e+00
  1.4148513e+00
 -3.5174494e+00
  2.4571075e+00
 -6.6485295e+00
  1.1509265e+00
  8.7862509e-01
  8.5315174e-01
 -1.9488974e+00
 -7.7104216e+00
  2.1388903e+00
 -6.0908741e-01
  7.2564787e-01
  1.7165812e+00
 -3.1915286e+00
 -8.6739653e-01
  1.8216016e+00
  6.4120245e+00
 -4.7435120e-01
 -1.0795550e+00
  1.6821768e-02
 -1.3581842e+00
  2.5739462e+00
  2.2607872e+00
  2.7512324e+00
  4.7673088e-01
 -1.4633907e-01
  5.3309107e-01
  1.1449249e+00
 -4.4232101e+00
  1.1688801e-01
  5.7372465e+00
 -4.6318412e+00
  2.0937221e+00
 -1.2497933e-01
 -6.8931818e-01
  1.4310489e+00
  7.2314918e-01
  5.5980986e-01
  4.2483506e-01
  4.4579692e+00
  1.6016638e+00
 -1.8032107e+00
  1.7922774e-01
  2.1696031e+00
  1.3921710e+00
  2.2305588e-01
 -5.1766008e-01
 -2.9344800e-01
 -4.0271544e-01
  2.8742334e-01
 -1.1140025e-02
  1.8730415e+00
  1.5489573e+00
 -1.8720042e+00
  3.5731966e+00
 -1.6318936e-02
 -2.8102940e-01
  5.7864481e-01
  1.7558289e-01
 -3.3903155e-01
 -1.0275204e+00
 -7.2283104e-02
 -8.0364265e-02
  6.5862514e-02
  2.1744454e-02
  3.6181698e+00
  6.4676547e-01
 -2.6957605e+00
 -5.0455248e-01
  4.1243471e-02
 -7.6339614e-01
  5.9693404e-02
  1.2159427e+00
 -3.1032472e+00
  3.5115978e-01
  1.7245562e-01
  6.5860915e-01
 -3.1877932e-01
 -5.4692256e-01
 -2.1357677e+00
  7.2328472e-01
 -5.0319165e-02
 -2.7740791e+00
 -1.1481675e+00
  7.6675065e-02
  4.4714069e-01
 -7.7188152e-01
  3.5269675e+00
  5.1692712e-01
  5.8244143e-02
 -3.2857201e+00
 -5.3429043e-01
 -1.6022283e+00
  4.5922751e+00
 -5.7042723e+00
 -3.8261838e+00
  6.0019821e-01
 -1.2868714e-01
 -1.7084732e+00
 -2.2220149e+00
  4.6528220e+00
  2.4960952e+00
  2.8068638e+00
  1.4420466e-01
  2.9232007e-01
 -3.8049504e-01
 -4.4868413e-01
  1.2474159e+00
 -9.5800912e-01
 -2.6054060e-01
  4.0711203e-01
 -1.9898467e+00
  3.3124309e+00
 -4.3169456e+00
  1.4631792e+00
 -9.2730629e-01
  4.1077294e+00
 -1.1188922e-01
  4.3526564e+00
  9.2695750e-02
 -3.5703716e+00
  1.2211253e-01
 -4.4407524e-02
 -4.1718674e-01
  6.5354246e-01
 -5.7807118e-01
  1.2769355e-01
  2.4149586e-01
 -8.2680315e-01
  2.8606069e+00
  5.3039932e-01
  7.7581650e-01
  2.5480616e-01
  4.9700746e-01
 -2.8302154e-01
 -1.3034337e+00
  3.5651360e+00
 -1.3553060e+00
  4.0633479e-01
 -8.5205710e-01
 -2.0349438e+00
 -1.4536663e+00
  4.3889732e+00
 -1.6798204e-01
 -7.5126179e-02
 -4.2998261e+00
  6.0548263e+00
  3.0771971e+00
 -5.7079047e-01
 -4.5777836e+00
  2.8426640e+00
 -1.2636663e+00
  3.6707026e-01
 -1.6911083e+00
 -3.1951075e+00
 -3.4646716e+00
 -2.2952788e-01
  4.5880607e-01
 -8.8253170e-02
  1.6274607e+00
  3.4922106e+00
  2.6822057e+00
  6.1898082e-01
  5.1964450e-01
 -2.2185526e+00
 -1.0279715e+00
  2.7852684e-01
 -2.3001873e-01
  3.1221336e-01
 -1.7504969e+00
 -1.8959099e+00
  6.8905692e+00
 -4.2499757e+00
  1.2913810e+00
  4.4651684e-01
 -1.5219668e+00
  1.4743280e+00
 -1.4511274e-01
  9.0240818e-01
 -1.3184582e+00
  2.3260009e-01
  2.3790898e+00
 -3.2323115e+00
  4.7933120e-01
  3.8539258e-01
  2.5749471e+00
  1.3024215e-01
  7.5286967e-01
  1.0219276e+00
 -8.3626854e-01
  4.0789037e-03
  3.7020523e-02
  4.2453160e+00
  9.4235353e-02
 -6.5527938e-02
 -1.4507748e-01
  1.6390384e+00
  3.4900495e-01
  2.8849331e-01
 -6.8177170e-01
  1.6770493e+00
  3.9022093e+00
  2.3807708e-02
 -4.7465807e-01
 -7.8130585e-01
  7.7337824e-02
  5.9643453e-01
 -6.7400384e-01
  1.5821736e+00
 -5.2885294e-01
  2.7859047e-01
 -1.4741210e+00
  1.5941677e+00
 -2.0557472e-02
  5.9921049e-02
 -3.3851888e-02
 -1.2331926e-01
  2.5875301e+00
 -2.0733052e-01
 -3.9714150e+00
 -1.6970969e+00
  2.2594745e-01
  4.7634931e+00
 -4.0612826e+00
  1.6153994e+00
  1.5526773e+00
  2.2959735e+00
 -5.8096123e-01
 -1.3641548e-01
  1.9370498e-02
  9.3271285e-01
  2.8283837e+00
  1.1950467e+00
  1.3289666e-01
  1.0720937e+00
 -2.0095041e+00
  3.0901885e-01
  1.0398891e+00
  1.7642644e-01
  3.5169199e-01
  3.7744925e+00
 -9.0524143e-01
 -1.2045714e-01
  6.0632739e+00
  2.8953083e+00
 -6.4479750e-01
  6.3901037e-02
 -4.3051894e-04
  4.7888033e-02
  8.8075409e+00
 -1.3210987e-01
 -1.8045086e-01
 -2.3905936e-01
  2.3431396e+00
 -8.8866331e-02
 -7.2253242e-02
  6.8129539e-01
 -3.6659312e+00
  1.3108185e-01
  1.2739499e-01
 -1.2752249e+00
 -2.7187112e-01
  1.0730416e-01
  5.6448126e-01
 -7.2240418e-01
 -7.4106477e-02
  8.5719705e-02
  4.7711250e-01
  1.4478937e+00
  2.1048315e-01
 -7.7874494e-01
 -2.6234185e-02
 -4.3625537e-02
 -2.8747901e-01
  4.5287630e-01
  7.9505658e-01
 -1.1102383e+00
  2.0156761e-01
  8.2378216e-02
 -2.7199604e-02
  3.5439946e-02
 -6.4866501e-01
 -4.8282881e+00
 -1.5325669e+00
 -1.6573644e-01
  9.8972857e-02
  6.6030474e+00
 -1.0862926e+00
  2.2434957e-01
  4.7808266e-01
 -3.5973452e-02
  1.1267306e+00
 -8.1676441e-01
  1.3061663e+00
  6.0191017e-02
 -8.1915915e-01
  9.8734200e-02
  6.8646878e-01
 -1.8705419e-01
  5.9697382e-02
 -4.6730906e-01
  1.3734671e-01
  4.5593449e-01
 -2.5420740e-01
 -8.0813992e-01
  2.2820985e+00
  1.0941029e-01
  3.8329411e-01
 -4.0263373e-01
  6.0454333e-01
  4.8100251e-01
  9.0262288e-01
  4.8075914e-01
 -6.9116507e+00
 -2.7754357e+00
 -9.5831662e-02
 -4.0816808e+00
 -1.8153296e+00
  1.1937829e-01
  1.5344475e-01
  1.4589763e+00
  1.7194851e-01
  2.0698242e+00
 -1.6782398e+00
  1.9401439e-01
 -4.2417550e+00
  2.3162188e-01
 -5.7569057e-01
  1.1797850e+00
 -2.8090855e-01
 -1.9679759e+00
 -2.3555632e+00
 -1.6942771e-01
  1.9774172e+00
 -8.6875230e-01
  7.1322441e-01
  5.6547558e-01
  3.0607781e-01
  2.3783043e-01
 -1.8480907e-01
 -1.9531113e-01
  6.0220998e-02
 -2.6818559e-01
  3.6811368e+00
 -4.4331154e-01
  4.6198061e-01
  3.7605304e-02
 -2.0070457e-01
  3.2745759e+00
  6.1974187e+00
  1.9161698e+00
  2.4488817e-01
  1.7234894e-02
  9.9510664e-01
  7.4562556e-01
  9.5551497e-01
 -1.7945361e+00
 -1.7826480e-01
 -6.5487194e+00
 -1.1518822e+00
 -1.2816237e+00
  6.3048160e-01
 -1.8132033e+00
 -2.4838290e-01
  3.8720653e+00
 -2.0767403e+00
  9.8311216e-01
  8.7307200e-02
  1.6471943e-01
  8.3289528e-01
 -3.2947835e-01
  1.2354865e+00
  3.8985923e-02
 -4.2633355e-01
  9.3997794e-01
  2.4324648e+00
  2.3519243e-01
 -2.7737629e-01
  5.2994663e-01
  4.7279453e-01
 -6.5029515e-03
  1.5697062e-02
 -1.7317617e-01
  5.4912519e-01
  1.9955615e+00
 -2.5865278e-01
  2.7063129e+00
 -3.1829767e+00
 -1.2137100e-01
 -2.2386466e-01
  1.6691729e+00
 -4.4817153e-01
 -1.7358947e+00
  3.1870735e+00
  9.4159108e-01
 -5.2664018e+00
 -1.4793100e+00
 -2.1165937e-01
 -8.4425437e-01
  2.9333777e+00
  2.9619950e-01
  2.2244484e+00
  5.1938577e+00
 -2.4539611e+00
 -8.4673772e-03
  2.1377091e+00
  1.1603186e+00
 -9.4779037e-02
 -5.2323204e-01
 -7.5206709e+00
 -6.6629571e-01
  3.7720755e-01
 -7.6399720e-01
  2.9836512e-01
  2.6683712e+00
 -1.2393408e+00
 -3.5522270e+00
  4.8570177e-01
  7.9463476e-01
 -1.2661010e-01
  2.6763982e-01
 -3.3253868e-04
 -1.7971373e+00
  1.1208777e+00
 -5.1381004e-01
  4.0831605e-01
 -4.9654169e+00
  1.3598491e-01
 -3.7099853e+00
 -1.7987150e+00
  5.2685028e-01
  1.3558506e+00
  3.7626503e+00
 -2.1639709e+00
  1.6762543e+00
 -5.9400868e-01
 -4.6356773e-01
 -6.8045501e-03
  1.0293669e+00
 -5.0601423e-01
 -1.0876524e-01
  4.0634587e-02
  2.0876135e-01
  1.4328088e+00
 -6.3436019e-01
  2.7980485e+00
 -6.5335149e-01
 -1.1282935e-01
  8.8902259e-01
  2.4638614e-01
 -5.7737947e-01
  7.8302836e-01
  7.8106940e-02
  5.0613500e-02
  4.1990480e-01
  4.9753314e-01
 -1.7063495e-02
 -4.2034975e-01
  3.3402252e-01
 -1.3987125e-01
  3.3404565e-01
 -2.0405389e-01
  1.5565696e+00
 -2.3354657e+00
  5.8230388e-01
 -1.5554450e+00
 -1.6507831e+00
 -1.2719147e+00
 -9.2923008e-02
 -3.6150467e-01
  1.7966424e-01
 -1.0633665e+00
  8.2635373e-02
  2.1867387e+00
  1.5369444e-01
 -1.0103405e+00
  2.3623349e-01
 -4.5775361e+00
  1.1163273e-01
  9.4141319e-02
 -8.5216910e-01
 -6.8894491e-02
 -3.9511831e+00
 -3.6441997e-01
 -4.0903988e-01
  2.5222199e+00
 -4.8853222e-01
  1.0384870e+00
  4.9711955e-01
 -4.7976401e-01
 -1.2157107e-01
  2.9743354e+00
 -8.8628292e-02
  2.2051106e-01
  1.3771166e-02
 -1.9003889e-02
  3.1323019e-01
 -6.5867060e-01
  2.8811646e-01
 -4.5742121e-02
 -1.0474682e+00
  2.8297374e-01
 -4.8281897e-02
 -4.0135326e+00
 -1.0435786e+00
  2.2293789e+00
 -2.5583184e+00
 -7.4263306e+00
 -1.6671777e+00
  6.8490404e-01
  3.4191003e+00
 -9.3786997e-01
  1.0461880e+00
  1.4560996e+00
 -2.6249304e+00
  8.2856196e-01
 -2.5676253e+00
  7.8563258e-02
 -2.0777252e+00
  3.8475078e-01
 -1.2150764e+00
 -5.6286070e-02
  6.3655477e+00
  6.5598373e+00
  1.0965272e+00
 -2.8073118e+00
 -1.6565852e+00
 -1.3421485e+00
  1.0315481e-01
  4.0076904e+00
  3.3496230e+00
 -3.3485954e+00
  2.0699851e-01
  6.5964669e-01
 -4.3677106e+00
  4.0290111e-01
 -3.2953215e-01
  3.6000559e+00
  1.6034700e+00
 -6.2769586e-01
  2.5157425e+00
 -5.5600934e+00
 -6.0881615e-01
 -9.6615362e-01
  2.8012934e+00
 -3.6378741e+00
 -3.5334370e+00
 -4.9951558e+00
  1.1581203e-01
  1.6023263e-01
  3.3019779e+00
  5.0762421e-01
 -4.1708463e-01
  7.2739439e+00
  2.0521464e+00
  4.9614102e-01
 -2.6283953e-01
  6.9248110e-02
  3.8372798e+00
 -2.6335509e+00
  2.2252660e+00
  1.9728580e-01
  5.6630015e-02
 -5.3627950e-01
 -4.9047020e-01
  2.5278145e-01
 -3.0932233e+00
 -7.7146345e-01
 -9.0313181e-02
 -1.1641393e+00
 -8.8936582e-02
  2.3388104e-01
  1.0771093e+00
  2.8736417e+00
  3.1300002e-01
  5.5199963e-01
 -2.6022655e-01
  1.5749623e+00
  4.6958847e+00
  2.2062871e+00
  1.4481362e+00
  5.7631236e-01
  4.9277148e+00
  1.0239882e-01
 -2.3775265e+00
 -1.5444250e+00
  2.7922416e-01
  2.5468913e-01
  4.8786104e-01
  2.3713435e-01
  5.5553156e-01
 -1.3173509e+00
  5.2243133e+00
 -1.8061768e+00
  2.7862975e-02
 -5.7973910e-02
 -2.6449767e-01
 -5.7161670e-02
 -3.9220694e-01
 -4.4658501e-02
  4.2698529e-01
 -4.5582655e-01
 -9.2984056e-01
 -7.0376915e-01
 -6.9298536e-01
  4.3811841e+00
  2.1231256e-02
  1.9934776e+00
  2.5962690e-01
 -5.9537835e+00
 -1.6714469e+00
  6.3567824e+00
 -4.5042676e-01
 -6.5298158e-01
 -9.5002788e-01
  6.7952001e-01
 -5.0010270e-01
 -2.9656878e+00
 -2.0475993e+00
  4.0904903e+00
 -6.4409404e+00
 -9.0813112e-01
 -2.5822520e+00
  3.8993945e+00
  3.7322879e-01
  1.1743810e+00
 -3.1570096e+00
  1.4242610e+00
 -4.3299198e+00
  2.7550492e+00
 -1.7751424e+00
  1.3722306e+00
 -9.3162745e-02
 -3.1626184e+00
  4.7687551e-01
 -1.1691800e+00
 -1.6770045e-01
 -1.8733599e+00
 -2.7901146e+00
  1.6976029e+00
  1.3415357e+00
 -2.4102101e+00
  1.0604318e+00
 -3.6154656e+00
 -4.3681178e+00
 -4.0228653e+00
 -1.6727083e+00
  1.9086365e+00
  3.4779805e-01
  1.2434729e+00
  3.5136058e+00
  1.2584871e+00
  2.4866560e-01
  1.0232369e+00
  6.3751990e-01
  1.4886341e+01
 -7.4759245e-01
 -2.8112829e-01
 -2.0639227e-01
  3.5770166e-01
  2.9318634e-01
 -5.7023335e-01
 -4.3096462e-01
  2.5097678e+00
  2.7647970e+00
 -2.4801822e+00
 -1.1333002e-01
 -6.5701023e-02
  8.8536769e-02
 -6.6478467e-01
 -2.4802718e-01
 -7.8982061e-01
 -7.9636741e-01
 -9.3531549e-01
  2.0799391e-01
  1.0120845e+00
  1.0599252e+00
 -5.7274756e+00
  1.9339439e-01
 -2.9806139e+00
 -2.0720866e-01
  2.8984678e-01
  1.0074636e+00
  2.0894892e+00
  4.1521662e-01
  8.2886946e-01
  8.7485665e-01
  1.3973598e+00
 -3.9027948e-02
  3.1177476e-01
  6.9031615e+00
  6.8282366e-01
 -1.8961003e-01
  1.8468852e-01
 -4.0365681e-02
 -1.1547158e+00
  8.3332367e-02
  1.0486653e+00
  7.9957798e-02
 -1.4848633e+00
  2.8462213e-01
  8.3189130e-01
  4.0462866e-01
 -8.2408354e-02
  1.1206727e-01
  9.1570087e-02
  1.1682935e+00
 -4.8423942e-02
 -3.4723049e-01
  4.2398672e+00
 -3.2708063e+00
  3.1676836e+00
 -3.5543911e+00
  9.4083196e-01
 -3.4380994e+00
 -2.0317287e+00
  2.6138556e-01
  4.8783517e+00
 -1.8814387e+00
 -7.3394079e+00
  8.0811566e-01
  4.8142263e-01
 -2.8267407e+00
 -1.2618548e+00
  1.0965687e+00
 -9.4228826e-02
 -5.5119348e-01
 -1.6123352e+00
  3.2515557e+00
 -2.4017887e+00
  2.0967743e+00
 -3.6519149e-01
 -8.8183105e-02
  9.4964737e-01
 -4.5730276e+00
  6.7469484e-01
 -2.4129364e+00
  3.3644319e+00
 -1.5003221e+00
  1.1484983e+00
  3.7243769e-01
 -2.5063922e+00
 -2.1258483e+00
 -1.8235363e+00
  4.2561917e+00
  1.6102695e+00
 -2.0812483e+00
  4.6013160e+00
  4.5646989e-01
 -1.0361100e+00
 -1.2381003e-01
  2.1161394e+00
  2.5511737e+00
  1.1128821e+00
  5.8699789e+00
  3.7298872e+00
  2.9069442e-01
  8.5870314e+00
 -1.8239789e+00
 -3.7631232e-02
 -8.0572045e-01
  4.3010914e-01
  7.7032632e-01
 -1.2093227e-01
 -1.6414732e-01
  5.1605767e-01
  7.4358118e-01
  4.7112782e-02
  3.2112944e-01
 -4.6555977e+00
 -1.9187176e+00
  2.3761507e-02
  2.9701242e-02
  1.0721841e-01
 -2.8242537e-01
  5.8943433e-01
 -1.4636289e-01
 -8.0660784e-01
 -1.4614627e+00
  1.2342700e+00
 -4.3603545e-01
  1.4563899e+00
  5.3640360e-01
 -4.0856498e-01
 -8.3074402e-03
 -9.1558784e-02
  2.6707513e+00
 -8.3163887e-02
 -4.7630122e-01
 -6.1752874e-01
  2.3754816e-01
 -3.9761856e+00
  1.6958116e-01
  6.6586816e-01
 -3.5731664e+00
 -9.5517069e-02
 -5.3866541e-01
  3.4075406e-01
 -2.8121481e+00
 -6.4695232e-02
  3.1439872e+00
  1.0959105e-01
  2.7196903e+00
  1.7369428e-01
 -9.4715886e-02
 -7.9641491e-03
 -2.0077112e-01
  1.2203030e-01
  2.3695497e-01
 -1.3996974e+00
 -2.0746298e+00
 -1.8925085e+00
 -5.3206034e+00
  3.8699245e+00
 -4.9971887e-01
 -3.5281763e+00
  1.0999598e-01
 -2.3365014e+00
 -1.1139305e+00
 -2.4919760e+00
  1.2112910e-01
 -2.3670746e-01
 -6.1282134e-01
 -1.5558159e+00
  3.9449766e-01
  6.2480245e-02
  2.3222289e+00
 -3.9716401e+00
 -2.2201619e+00
  2.0059879e+00
 -1.7389675e+00
 -5.1150784e+00
 -2.4869549e+00
 -4.2282248e+00
  2.8861260e-01
 -5.6490082e-01
  2.1449790e+00
  1.1539879e+00
 -2.5242549e-01
  7.9205090e-01
 -1.8874905e-01
  2.0673476e-01
  7.9359078e-01
 -1.5255798e-01
 -1.2900392e+00
 -8.7348908e-01
 -8.3489466e-01
 -5.5969113e-01
  1.4693367e-01
 -2.9880404e-02
  2.2428295e-01
 -3.8439054e+00
  2.1839279e-01
  9.1913655e-02
 -3.2138255e-01
  4.5607254e-02
 -4.8245478e-02
 -8.6718702e-01
 -5.8967218e-02
 -1.9948897e-01
 -1.1477324e+00
  4.3673682e+00
 -3.2455307e-02
  2.8442621e+00
  4.3483609e-03
 -1.1177953e+00
 -2.5001059e+00
 -2.7014225e+00
 -9.3190587e-01
 -3.7075746e+00
  1.3374337e+00
 -5.7132139e+00
 -1.8298888e+00
  1.2587941e+01
 -6.1122704e-01
 -4.3591937e-01
 -6.9359655e+00
  1.7762829e+00
  9.7310156e-01
  8.3908337e-01
 -1.0169632e+00
 -1.1554547e-01
 -7.0102108e-01
 -3.7083981e+00
  1.7395036e+00
  1.1733243e+00
  1.0066665e+00
 -5.0317950e+00
 -5.6615841e-01
 -1.4205157e+00
 -4.7062704e-01
 -1.4804796e+00
  6.3120353e-01
  1.5711542e+00
 -1.9994155e+00
 -2.1356167e-01
  2.8115025e-01
  2.4831146e-01
  3.6924024e+00
  6.4784966e+00
  6.7045754e-01
  1.6429226e+00
 -1.2999673e+00
  3.8577933e+00
 -5.0200787e+00
  4.2775935e-01
 -1.2256080e-02
 -6.3905847e-01
  6.8432271e-02
 -4.5599163e-02
  1.4248366e+00
 -1.2940688e+00
  1.3384061e+00
  1.8857534e+00
 -2.7757463e+00
  4.5977846e-01
 -2.5347462e+00
 -1.1902786e+00
  1.1452396e+00
  5.1350567e-02
 -2.3989797e-02
  3.2618606e+00
  9.7708173e-02
 -4.1474065e-01
  7.2526205e-01
  4.1456214e-01
  1.8442349e+00
  5.7148710e-02
 -1.2612779e-01
 -7.1496797e-01
  1.0043875e+00
 -3.9327478e-01
 -3.5415914e+00
 -1.3275125e+00
  3.9451569e-01
 -1.0879812e+00
  1.3577353e+00
 -1.3586071e+00
  1.2105231e+00
  3.4512177e-01
 -1.1165843e+00
  2.2804868e+00
 -4.0702958e+00
 -7.0303395e-02
 -2.6544100e-02
  1.4967372e+00
  9.4084406e-01
  1.1000323e+00
 -2.4676006e+00
  4.8117480e-01
  4.6602091e-01
  9.0966696e-01
  7.8723919e-01
  1.4079696e+00
  1.7403309e-01
  2.1842875e+00
  7.3614217e-02
 -3.0228913e-01
 -7.1521744e-02
 -3.8202714e-02
  1.1840332e+00
  1.6824589e+00
  6.9194239e-01
  3.0028442e-01
 -9.8019481e-01
  8.9661703e-02
  6.6187784e-02
 -1.3061223e+00
 -8.2512397e-01
 -1.4946553e-01
  3.5515703e-02
 -1.4963804e+00
 -7.7550273e+00
 -1.5134008e-01
  1.8030540e+00
  1.9512221e+00
  6.6199410e-01
  3.1772282e+00
 -4.5211986e-01
  9.9588150e-01
  1.5015125e+00
 -1.3855996e+00
 -4.4018526e+00
  9.7737869e-04
  4.0469724e-01
 -1.6533145e-03
  8.9670998e-01
 -4.7966123e-01
 -2.5882246e-02
  1.9098871e+00
 -4.0782541e-01
  5.2419806e-01
 -2.0842829e+00
  1.6792808e+00
  2.0719583e+00
  3.3667739e-02
 -2.5141547e+00
 -1.5398344e+00
  6.5518922e-01
  1.0843571e+00
 -5.0515059e-02
  2.9741978e-02
  1.8827924e+00
  6.1023861e-01
 -2.7654994e+00
  1.2962922e-02
 -7.0275557e-01
  2.1760619e+00
 -2.9575793e-02
  4.6018103e-01
  4.4446406e+00
  3.8265330e-01
  1.1132025e+00
 -1.1745979e+00
 -9.7070048e-03
  2.3235654e-02
 -1.0292435e-01
  6.9588356e-02
  1.9653496e+00
 -2.3774207e-01
 -5.2696317e-01
 -1.0344248e+00
 -2.2624586e-02
  5.3358197e-01
  1.2329357e+00
  1.1091746e+00
  5.1057982e+00
  4.3440104e+00
 -1.3616167e+00
 -6.0921747e-02
  4.0320196e+00
 -1.2824191e+00
  2.3092880e+00
 -1.1850117e+00
  2.7110624e+00
  1.2467430e+00
 -3.1465328e-01
 -1.4847729e-01
  2.3792517e+00
  1.2103325e+00
 -9.1467613e-01
  2.3603187e+00
 -2.1551602e+00
 -1.0330448e+00
 -1.7749709e-01
 -4.5282042e-01
  1.5932758e+00
 -4.4316509e-01
 -2.9247779e-01
  2.4935298e+00
 -2.6713700e+00
  1.1908317e-01
  1.4829628e-01
 -7.6034074e+00
 -1.8040420e-02
  1.7841817e-01
 -1.0210488e+00
 -1.5799733e-01
 -6.9174421e-01
 -4.2427886e-02
 -3.3298624e-01
  9.0911561e-01
  2.3031379e-01
 -6.2195582e+00
  5.4488665e-01
  5.0075178e+00
  1.4206711e+00
 -1.9392176e+00
  1.5581782e+00
  1.4335662e+00
 -3.7455082e-01
  1.5619235e+00
 -3.3181870e+00
  1.0219105e+00
  1.5509890e+00
 -7.8106680e+00
 -9.5806694e-01
  4.4340515e-01
 -8.3749741e-02
  5.7075443e+00
  3.8406081e+00
  3.6230896e+00
 -1.3805242e+00
  2.1639787e-01
 -2.7755809e+00
  4.4524212e+00
  2.7593625e-01
 -1.3976492e-01
  5.5606713e+00
  1.9716880e-01
  4.3712857e-01
 -4.3117952e+00
 -2.7999454e+00
 -4.7498965e+00
 -5.6904078e-01
 -4.2517147e+00
 -4.2956778e-01
  3.4827136e-02
 -2.3834882e+00
 -3.4443060e-01
 -2.5467036e+00
 -7.8430897e-01
  3.0518384e+00
 -1.9177298e-01
 -3.0296891e+00
  1.1353608e-01
  3.8447794e-02
 -7.6532400e-01
 -7.7575302e-01
 -9.6786249e-01
 -5.1888394e-01
  2.3689906e-01
 -1.4138432e+00
  3.5279166e-02
  3.4256151e-01
 -1.1063523e-01
  8.8824630e-02
 -5.1984257e-01
 -1.3906912e+00
 -6.5617442e-02
  1.5912770e+00
 -4.6379927e-01
 -3.8694918e-01
 -1.9562489e-01
  1.6751488e+00
 -1.6928594e+00
  4.7482934e+00
  3.7888840e-02
 -2.1369445e-01
  1.8549335e+00
  1.3000033e+00
 -1.4398098e-01
 -1.4371872e+00
 -4.0775685e+00
 -2.7490112e-01
 -9.4447124e-01
  1.0036837e-02
 -2.4296927e-01
  2.3594460e+00
 -2.4396226e-01
 -9.0396631e-01
 -9.3370831e-01
 -1.6859460e-01
  4.0154636e-01
  1.1293386e-01
  2.8685374e-02
 -2.5485206e-01
  3.5569136e+00
 -5.4265089e-02
  1.9303866e-01
  2.4250507e-02
 -1.2596652e-01
  2.2242673e-01
 -2.4482080e-01
 -4.6521351e-01
 -6.0910499e-01
  7.9750764e-01
 -5.0740385e+00
 -1.1450111e+00
 -4.8126063e-01
 -1.7468234e+00
 -5.3578210e-01
  1.2207267e-01
 -1.3391425e-01
 -1.4228929e+00
  1.4055827e-01
  1.0655555e+00
  1.1760935e+00
  7.5108290e-02
 -2.6031964e+00
  1.1530652e-03
 -4.9790716e-01
  1.1342393e+00
 -2.9176290e+00
  3.8459653e-01
 -5.7193927e-02
 -2.6096660e-01
 -2.1056757e+00
 -2.5796458e-01
 -1.3438979e-01
  2.3284043e-01
  2.6610601e-01
 -3.0644360e-01
 -9.1632867e-01
  1.2937826e-01
 -1.1235794e-01
  6.2703526e-01
 -1.6532852e-01
 -2.6455576e+00
  4.2730969e-01
  1.3879836e+00
 -4.9850196e-02
  2.8095621e-01
 -1.2931766e-01
  9.5472090e-02
  2.0794206e+00
 -2.9033414e-01
 -3.3820486e-01
 -7.8427935e-01
 -3.1618896e-01
  4.2224625e-01
  8.1480563e-01
  5.5413566e+00
 -2.8279989e+00
 -9.6832961e-03
  2.5741889e+00
  2.2110173e-01
  3.8366158e-02
  8.6876586e-02
 -4.2240131e-01
  7.0795411e-01
 -7.4356116e-02
  2.2041659e+00
  1.6885397e-01
  1.9589928e+00
 -1.2573996e+00
 -6.0368997e-01
 -3.7459764e+00
  7.1936888e-01
  2.4321322e-01
  1.8050192e-01
  8.4885246e-01
 -7.1165568e-01
 -2.7259803e+00
 -3.8719028e-01
 -2.1650238e+00
 -7.9651153e-01
  1.3879274e-01
 -4.2571932e-01
  9.5500477e-02
  1.2388492e-01
 -9.7434968e-02
  4.6553254e-01
 -1.0095166e+00
 -7.5699240e-01
 -1.5498102e-01
  5.3259671e-01
  7.6748765e-01
 -5.0827265e+00
  5.2359128e-01
  1.7699732e-01
 -5.9134812e+00
 -3.4445301e-02
  4.1716897e-01
  6.4757653e-02
  3.6673748e-01
 -3.7189558e-01
  6.7949879e-01
  9.5082599e-01
 -1.3737283e+00
 -1.6835924e+00
 -8.3229667e-01
 -1.1194397e+00
 -1.5084752e-01
  9.7368968e-01
 -2.9475006e-01
  4.8835617e-01
 -3.5384849e-01
  4.7353450e-02
 -4.4696141e-02
 -8.3060586e-01
 -1.0335463e+00
 -9.7891587e-01
 -3.4134379e-01
  1.0315146e+00
  2.5670068e+00
 -3.4087574e+00
 -5.2440757e-01
 -3.4746340e-01
  1.1595425e-01
  1.6535757e-01
 -4.1776499e-01
 -2.4550773e-01
  1.0792341e+00
 -1.9508079e+00
  1.5308988e-01
  7.6807487e-01
 -2.0131646e-01
 -2.8393290e+00
 -1.2065139e-01
 -9.1545540e-01
  4.5629534e-01
 -2.4002407e+00
  2.4956431e+00
  1.6943300e-02
  3.2036252e+00
 -5.3533578e+00
 -2.3062013e-01
 -3.5356817e-01
  1.3613410e+00
  2.4343760e-01
 -7.6790625e-01
 -2.4716608e-01
  2.0224042e+00
  3.1303203e-01
 -2.0204881e-01
  2.0519733e-01
 -9.0916389e-01
  5.6533885e-01
  2.0152586e+00
 -3.5443547e+00
  4.3054324e-01
  1.1599219e+00
  1.6577351e+00
 -2.2352272e-01
  8.0276504e-03
  2.3880069e-01
  1.2800848e-01
 -5.7808143e-01
 -1.8574444e+00
  7.5549304e-01
 -1.2947485e-01
 -1.3199636e-01
 -2.4755070e-01
  2.7535680e-01
 -1.4698827e+00
 -2.2837518e-01
  1.1930600e+00
  1.0064068e+00
  6.8237090e-01
 -6.6933908e+00
  1.7045819e+00
  1.4759785e-01
  3.0154916e-02
  5.3866882e-02
 -6.8731344e-01
  2.9301107e-01
  2.6424488e-01
 -5.0954633e+00
 -6.4072639e-02
  4.4671440e-01
  4.8354230e+00
  7.7987468e-01
 -5.9037752e+00
 -5.8124304e-01
 -7.6620340e-02
 -4.4171720e+00
  1.9191359e-01
  2.5237787e+00
  3.7059167e-01
 -1.0609697e-01
  2.8135755e+00
 -8.1716022e+00
 -7.6519442e-01
  8.0396131e-02
  3.3335173e+00
 -4.5034218e-01
  8.3674151e-01
  6.0469227e+00
  1.3595678e+00
  4.3458202e-01
 -8.3530001e-02
  4.6681690e+00
  9.0423566e-01
 -1.2011850e-01
 -4.4824634e+00
 -6.7751461e-01
 -1.2145727e-01
  1.3818628e-01
 -7.9857039e-01
  2.0258336e+00
 -2.6889178e-01
  9.6268499e-01
  3.9534438e-01
  2.7056685e-01
 -2.8815932e+00
 -5.1735744e-02
  1.7291523e+00
  2.7810350e-01
  3.4377708e+00
 -3.9596472e+00
 -3.0896444e+00
 -3.2207507e-01
 -6.1108313e+00
  8.4884226e-02
 -3.9282918e-02
  1.2247126e-01
  3.6770123e-01
 -2.4360810e-01
  4.8026383e-02
 -2.5465611e-01
 -1.0607233e+00
  3.6670128e-01
 -2.3201551e+00
 -4.5331019e-01
  4.0412083e+00
  3.4014732e-02
 -1.5393263e-02
 -1.0503839e+00
  2.0473228e+00
 -1.6092315e-01
  1.3372850e+00
 -2.2912491e-02
 -6.5701199e-01
  1.9695131e+00
 -2.7929920e-01
 -1.9786546e+00
 -7.7341823e-03
 -2.7484047e+00
  7.2971350e-01
  5.4787025e+00
 -2.6159284e+00
  9.3466498e-02
  1.0979328e-01
  1.5525818e-01
 -2.9155474e-02
  6.4683813e-01
 -5.7204086e-01
 -5.5839950e-01
 -2.0700815e-01
  3.8046851e+00
  1.5231650e-01
 -4.7825877e-02
  1.7608459e+00
  2.6595423e+00
  5.3520685e-01
 -3.4286149e+00
  3.5210556e-01
  2.0400970e-01
  2.6015216e-01
 -8.0210203e-01
  4.3197861e+00
  3.0452888e+00
 -1.0172290e-01
  2.8324552e-02
 -4.4707932e+00
  6.1942464e-01
 -5.8157599e-01
  4.6399772e-01
  1.6297352e-01
 -4.3266678e-01
  1.6943192e-01
  8.5022494e-02
  1.4020549e-01
  8.4009045e-01
 -2.5044888e-01
  4.5192710e-01
  3.3773249e-01
  2.8370202e+00
  1.5098469e-01
  4.9180314e-02
 -2.8430033e+00
  2.5923491e+00
  2.6086459e-01
 -1.8375241e-03
 -1.5855303e-01
  4.0191939e-01
  8.4625739e-01
  1.3974016e+00
  1.3614998e+00
  7.6148912e-02
  2.2474886e-01
 -4.8660832e-03
 -3.1339833e-01
  1.7103578e+00
  2.0768565e-01
 -7.6094377e-01
 -1.7854492e-01
 -2.5624490e-01
 -1.6686648e-01
  2.1765885e+00
 -2.7234301e-01
  1.3966440e-01
  5.4767332e+00
 -1.3628447e+00
  4.7838821e+00
  1.6303580e-01
 -3.1291716e+00
  1.0056280e+00
 -2.9414704e+00
 -2.6449940e-01
 -3.6010751e-01
  6.4692587e-02
 -1.8661050e+00
 -2.1090927e+00
  1.9345742e+00
 -2.6898214e-01
  2.1738341e-01
  3.9169681e+00
 -4.8985944e+00
 -1.5419573e+00
 -1.8648973e+00
 -8.8390265e+00
  1.0540913e+01
 -3.8413496e+00
  4.4652829e+00
 -6.6343055e+00
 -1.3871143e+00
 -1.2718791e+00
  1.7371479e+00
  1.5052946e+00
 -4.2111254e+00
  3.6513534e+00
 -1.9591155e+00
 -8.0097854e-01
  3.0752897e-02
 -6.1810851e-01
 -1.0474640e+00
  1.5907496e+00
  1.1639543e+00
  1.9864041e+00
  1.3024021e+00
  2.4236774e+00
  1.4045098e-01
  2.7595799e+00
  1.1501836e+00
  4.7269001e+00
  1.5642186e+00
 -1.2502019e+00
  3.5974205e-01
 -2.6752870e+00
  1.2157201e-01
  2.6145470e+00
  2.6406062e+00
 -1.6227549e+00
 -9.8972291e-01
 -6.8364525e-01
  2.0020863e-02
 -1.1014815e-01
  2.8239307e+00
  1.4865178e+00
 -4.8603320e-01
  3.9338608e+00
  2.6483262e-01
 -1.3913227e+00
  6.2810183e-02
 -8.9719892e-01
  3.6124973e+00
  2.3073375e+00
 -8.8172078e-01
 -1.1717776e+00
  5.1324701e-01
 -4.0385598e-01
  3.0240300e+00
 -6.0054345e+00
  3.1396420e+00
 -1.1010834e+00
 -1.0073189e+00
 -5.7037511e+00
  1.5383545e+00
 -2.1927917e+00
 -3.7667251e+00
 -2.8270787e-01
 -5.3345072e-01
  2.6220512e+00
 -3.3399782e+00
  2.5323133e+00
 -1.8457038e+00
 -1.1215529e+00
  5.3219479e-02
  5.3503281e-01
  6.5641746e-02
 -4.7531672e+00
  2.0801032e+00
 -4.9500618e+00
 -3.1148598e+00
  1.5681205e+00
 -1.6540821e+00
 -1.6622589e+00
 -1.1078308e+00
  9.8860584e-02
 -4.5092985e-02
 -2.4384193e+00
 -2.2496338e-01
  4.1469598e+00
  5.4428530e-01
  1.1054818e+01
 -2.4831541e+00
  3.5243955e+00
  4.5866576e-01
  3.5387716e+00
  7.2508864e+00
  1.8673728e+00
  3.7605195e+00
  2.8637729e+00
  1.6404454e-01
  8.0690555e-02
 -1.0583738e-01
  5.6920659e-02
 -5.2512337e-02
 -3.4475836e-01
  1.1506651e-01
 -7.2998382e-02
  2.7804449e+00
 -1.9613595e+00
 -1.0899308e-01
 -3.4035259e-01
  2.5386801e-01
 -2.5674537e-01
  2.6967622e-02
 -2.0326765e+00
 -6.5020710e-01
  3.9872798e-01
  3.9361420e-01
 -5.3089261e-01
 -9.7736716e-02
 -1.8596756e-01
 -5.6889033e-01
 -1.7186002e-01
  1.8449070e-01
 -3.5110259e-01
 -4.4931433e-01
 -4.5547849e-01
  1.6068162e-01
  2.7925590e-01
 -7.4537200e-01
 -4.8637235e-01
 -5.4355067e-01
 -1.2814711e-01
 -1.1576476e-03
 -5.5562282e-01
 -3.5489596e-02
  4.0955946e-02
  1.8840896e-01
 -1.5718887e+00
  9.6101660e-01
 -2.0510323e+00
 -6.9860798e-01
  1.0291332e+00
  4.8533037e-02
 -1.6963635e-01
 -3.8301498e-01
 -1.1140050e-01
 -2.4013431e-01
  6.8505710e-01
 -1.3451216e-01
  4.7815049e-01
  1.5363344e+00
 -9.9752599e-01
  2.3061874e+00
 -1.4457257e+00
  1.4286517e-01
 -4.4320993e+00
  8.2342494e-01
  2.3181550e-01
  1.8937010e-01
  1.9948899e+00
  1.2152737e+00
  1.7026896e+00
 -1.3499430e+00
 -5.2770851e-03
  4.1466074e+00
  5.1593776e+00
 -5.0114121e+00
  1.9741657e+00
 -3.9691937e+00
  3.7385335e+00
 -3.2775381e+00
 -2.0245895e+00
  2.4493718e+00
  4.0340772e+00
 -2.6092877e+00
 -5.0802118e-01
 -2.7243307e+00
  2.4875813e+00
 -1.6240160e+00
 -1.0570615e-01
  1.5515656e+00
 -1.9558628e+00
 -7.6370615e-01
  6.0437169e+00
 -3.3809118e+00
  8.0692506e-01
 -7.1800357e-01
  1.5374587e+00
  3.9775223e-01
 -1.4644096e-02
  3.5407990e-02
  8.9988038e-02
  6.9227517e-01
  1.2491459e+00
 -8.2048774e-02
 -1.1214185e+00
  2.4849265e+00
  7.5658476e-03
  6.9842190e-02
 -1.1162452e-02
  6.8474305e-01
  9.6240711e+00
  2.6475948e-01
 -1.2365543e+00
  1.5313101e+00
 -9.6189270e+00
 -3.8960612e+00
 -4.4217529e+00
  3.2767544e+00
  2.3730705e+00
  1.4451614e+01
  1.2450895e+00
 -1.2890860e+00
  3.0836964e+00
 -8.4351578e+00
  4.3778934e+00
  1.1142851e+00
  3.9361105e+00
 -1.1764333e+00
  2.0719180e+00
 -2.1806118e+00
  3.5609572e+00
  5.4527707e+00
  5.8051243e+00
  1.0513417e+00
  5.0996089e+00
  7.9141846e+00
  4.3986497e+00
  4.8170600e+00
  5.0384760e+00
  1.1913703e+01
  4.1397653e+00
  4.4405127e+00
  8.7377036e-01
  4.6546731e+00
  1.5172454e+00
  4.0146637e+00
  2.5128865e+00
 -2.1066639e+00
  6.5016609e-01
  1.6278559e+01
 -7.8787451e+00
 -4.6392660e+00
  6.7894769e+00
 -5.3303123e+00
  6.0919428e-01
 -3.6172905e+00
 -4.6303183e-01
 -8.6735949e-02
 -8.0397300e-02
 -2.5088248e+00
 -3.2812507e+00
  4.1325182e-01
  1.8240967e+00
  2.9298160e+00
  2.5297875e+00
 -1.7416373e+00
  2.1493024e-01
  7.7754569e+00
  2.7116084e+00
  2.1216686e+00
 -3.7723902e-01
  9.2309313e+00
 -3.1366370e+00
  1.1943662e+00
 -2.7048414e+00
 -1.1602962e-01
 -1.1516671e+00
 -7.3316187e-01
 -6.5878147e-01
 -4.9364898e-01
  3.6983373e+00
  4.6090298e+00
  2.1549827e-01
  2.3182616e+00
  4.2616110e+00
  1.4314517e-01
 -1.1988053e+00
  2.3079643e+00
  3.1500459e-01
  1.1175959e+00
  3.4207685e+00
 -2.2865896e-01
  2.5171258e+00
 -9.8234707e-01
 -1.0959445e+00
  1.7341053e+00
  1.7669281e+00
  6.5705019e-01
  1.9023417e+00
  9.7150779e-01
 -1.3563682e+00
  1.2089000e+00
 -6.2921083e-01
 -1.0937456e-01
 -9.5259637e-01
  7.3929763e-01
 -6.3584673e-01
 -7.8880501e-01
 -1.2787372e+00
 -3.2169077e-01
 -8.2519418e-01
  3.2583280e+00
 -1.3540843e+00
  1.9390160e+00
  1.1569213e+00
 -2.6862490e+00
 -1.1547229e+00
  3.7737060e-01
  4.1743419e-01
 -5.0296706e-01
 -3.1279578e+00
 -6.9159287e-01
 -1.3528947e+00
  2.5243590e+00
 -3.6797550e-01
 -7.1614437e+00
 -3.8125661e-01
 -1.0420983e+00
 -4.7715148e-01
 -2.8471861e+00
  3.5330045e+00
 -9.5944768e-01
 -2.7517860e+00
 -1.1926727e+00
 -9.0575379e-01
  1.6387191e+00
 -1.8629682e+00
  1.1780692e+00
  1.2759753e+00
 -1.8024387e+00
 -2.5007038e+00
  2.6874044e+00
  2.0999994e+00
 -2.0268105e-01
  4.3412569e-01
  2.8812611e-01
  1.2910900e+00
 -1.4110842e+00
  5.1792920e-02
 -3.5493648e+00
 -2.9148588e+00
  4.7638431e-01
  4.9217802e-01
 -2.1221774e+00
 -2.3716040e+00
  1.6874529e-01
  6.0968238e-01
  1.1814322e+01
  4.1330762e+00
 -1.0901724e+00
 -3.7191129e+00
  6.0595179e-01
 -3.2715848e-01
 -7.9431951e-01
  2.9603598e-01
 -2.6206130e-01
  3.0616708e+00
  1.4030085e-02
  4.6584064e-01
  8.0638719e-01
  1.0849159e+00
 -1.7104277e-01
 -2.0619419e-01
 -1.6789350e-01
  3.5395656e-02
  2.7422173e+00
  2.2756349e-01
  1.4271283e+00
 -3.6847830e-01
 -1.3979639e-01
 -1.8280026e+00
  1.7590022e-01
 -1.5703715e-02
 -1.4772961e-01
  5.2021587e-01
  1.4254150e+00
  1.8452731e+00
  1.8755087e+00
 -3.9694555e-02
  3.1333193e-01
 -1.1175718e+00
  7.9348162e-02
  1.2358885e-01
 -4.5992151e-02
  9.3784183e-01
  6.0386682e-01
 -2.3118863e-01
 -4.0606689e-01
  3.0435729e-01
  7.0635867e-01
 -8.3931014e-02
 -3.2040489e-01
 -1.4058260e+00
 -2.8744884e+00
 -8.6195695e-01
  7.0518225e-02
 -4.0163641e+00
  1.9623747e+00
  3.3205137e-01
 -7.2648258e+00
 -2.2243521e-01
  8.4897155e-01
  3.0828028e+00
 -2.7812698e+00
  3.2718318e+00
 -3.1982038e+00
  3.0646816e-01
 -8.4629166e-01
 -3.8360757e-01
 -2.6579699e-01
  3.8141882e+00
 -3.4285297e+00
 -9.5622349e+00
  1.8687109e+00
 -3.7254829e+00
  2.8162034e+00
  1.7683465e+00
  6.2267432e+00
  1.3275840e+01
  4.2667308e+00
  4.6326318e+00
 -2.8837731e+00
 -4.5483580e-01
  3.6316994e-01
  6.5166683e+00
  2.7059462e+00
  5.9309092e+00
  6.0183935e+00
  1.4487256e+00
 -2.6101644e+00
 -3.6715667e+00
  3.0372875e+00
  5.2376637e+00
  2.1781731e-01
  3.7205917e-01
 -5.4514089e+00
 -4.6381161e-01
 -6.9456029e+00
 -2.7849538e+00
  5.1567369e+00
 -1.3539324e+00
 -3.6339865e+00
 -4.7066751e-01
 -3.6327703e+00
 -1.0956593e+00
  1.2390515e+01
  2.4588234e-03
 -4.5908880e+00
  9.9325657e-02
 -1.0285478e+01
  4.7632957e+00
 -1.6877071e+00
  1.1950448e+00
  7.3645037e-01
  3.7079573e+00
  1.8374566e+00
 -1.1783329e+00
 -2.3386103e-01
 -3.7713602e-01
 -7.7308893e-01
  6.0717329e-02
  3.1060344e-01
  1.5371937e+00
  3.2504243e-01
  9.2944962e-01
  1.3844506e-01
  1.5714848e-02
  1.8319559e+00
  4.2903948e-01
 -6.1603408e-02
  2.6214093e-01
  1.3639431e+00
  5.5284739e-02
  5.6884575e+00
  2.0676210e+00
 -3.7070343e+00
 -3.0073950e+00
  4.9060006e+00
  1.1054803e+00
  2.5699022e-01
  6.1600500e-01
 -5.3870692e+00
 -5.9812564e-01
  2.7767438e-01
 -1.6279068e+00
 -2.5330904e+00
  2.6838531e+00
 -3.2671630e+00
 -3.7068503e+00
  2.7066715e+00
  3.6084616e-01
 -8.5316759e-01
 -2.7747722e+00
  7.4631877e-02
 -1.1399139e-01
 -3.8076121e-01
  2.3108940e-01
 -2.5825512e+00
  1.6883105e+00
 -2.5850153e+00
 -2.1023579e+00
 -8.2270429e-02
  3.8111219e-01
  2.3858689e-01
  1.1181197e+00
 -5.7284392e-02
 -2.4808605e+00
  1.9968478e-01
 -2.4174569e+00
  3.0253372e+00
  4.9063984e-01
 -2.0844579e+00
  1.8431269e-01
 -1.0950911e+00
 -1.2093962e+00
  1.0979558e+00
 -2.9083259e+00
  1.2157841e+00
 -2.6923629e-02
 -1.9135840e+00
  7.5537753e-01
 -4.7227378e+00
 -3.0014584e+00
  1.6422178e+00
  5.4854095e-01
 -7.1275644e-02
 -2.6449171e-01
  2.3174310e+00
  4.5296064e-01
 -2.1438353e+00
  4.4428415e+00
  1.0530322e+00
 -1.6910456e+00
  6.0430568e-01
  2.0068297e-01
  5.3592782e+00
  2.9304399e+00
  6.6890392e+00
  5.0828142e+00
  1.1532758e+00
 -2.1583772e+00
  7.9721761e+00
 -1.3018665e+00
 -2.8449267e-01
 -3.9472842e+00
 -2.9864454e-01
 -8.5737102e-02
  8.4223646e-01
  1.5880138e+00
  1.7387278e+00
 -4.0239245e-02
  8.9047176e-01
  2.3253326e-01
 -2.7915370e-01
 -2.1430761e-01
  3.8119462e-01
 -5.0587571e-01
 -3.5501245e-01
  1.9463702e-01
 -3.7214634e-01
  1.2126921e+00
  2.2053652e-01
  1.8206437e-01
 -5.2360255e-02
  7.8093058e-01
  3.5119905e+00
  4.7533888e-02
 -1.8994941e-01
 -5.6435663e-01
 -1.2162234e+00
 -1.1091632e-01
  1.2988772e+00
 -4.1369361e-01
  4.6052139e-02
 -2.2725456e+00
  6.8728385e+00
 -1.6196592e-01
  1.1180137e-02
 -1.9299985e-01
  9.8925985e-02
 -2.3294920e-01
  2.6021702e+00
 -3.2645053e-01
 -4.5338324e-01
  5.4585714e+00
 -2.3915637e+00
  4.5230880e+00
 -2.0022184e-01
  5.5045325e-01
 -2.8400758e-01
  1.3670310e+00
  1.2156466e-01
 -1.9362949e-02
 -1.4490401e+00
  2.9711807e+00
  2.8154385e-01
  1.1153584e+00
 -1.5661253e+00
  5.2489367e+00
 -2.5144928e+00
 -4.7754672e-01
  2.9206541e-01
 -7.3784051e+00
 -1.7208127e+00
 -1.8770738e-01
 -9.8462187e-02
  1.8223360e-01
  3.0460203e+00
 -3.9129734e-01
  1.0333347e-01
  1.6921872e+00
 -4.7355047e-01
  2.4727325e+00
 -9.6237755e-01
  5.5599099e-01
 -2.4086576e+00
  3.3927493e+00
 -4.1043627e-01
  4.4815292e+00
  6.7970872e+00
  5.8138624e-02
 -8.9810491e-02
  1.7903775e-01
 -1.9357052e-01
  2.5704902e-01
 -2.0977244e+00
  4.8116679e+00
 -3.0834656e+00
  5.6357156e-02
  9.1271482e-02
 -9.5823228e-01
 -1.2983572e+00
  9.3547314e-01
  9.5019591e-01
  6.0943645e-01
  4.0338998e+00
 -1.6527411e-01
 -4.3652442e-01
 -5.3053536e-02
  3.8852957e-03
 -1.0239388e-01
 -5.1740366e-01
  6.2398748e-03
  7.1499807e-01
 -2.1593377e-01
  4.1124129e+00
  1.9534440e+00
  5.9849346e-01
 -7.8993812e-02
  2.6963568e+00
  1.4697467e+00
  5.3346399e-02
  1.3677603e+00
 -8.9686327e-02
  3.6515833e-03
  8.6626852e-01
  3.5422603e-03
  1.8156029e-01
  9.1532413e-03
  4.3575683e-01
  3.9426818e+00
 -1.8531755e+00
  2.9813424e-01
  5.8463609e-01
 -9.8530494e-02
 -1.4376631e-01
  1.5072244e-02
 -1.3016437e+00
  3.0049342e-01
  8.5721886e-01
  7.8542703e-01
  3.9476233e+00
  1.0533727e-01
  4.1520810e-01
 -3.2519081e+00
  3.2013967e+00
 -4.6293867e-01
  9.2990426e-03
 -7.0242631e-01
 -5.0956231e-01
  2.0906340e-01
 -1.1950802e+00
 -2.1024872e-01
 -7.8632928e-02
 -4.0326351e-01
 -2.0319376e+00
 -3.1533507e-01
 -3.0971482e-01
  4.9268999e+00
  1.6732547e+00
 -1.8370347e-01
  8.2355760e-02
  3.7936082e-01
 -7.6444554e-01
  4.3971334e+00
  1.4829093e+00
 -3.1681180e-01
 -7.4010044e-01
 -8.4019279e-01
  1.3933492e+00
  5.3993988e-01
 -3.2400706e-01
  1.0199866e+00
 -4.6744207e-01
 -2.1566603e+00
  9.7602241e-02
  3.9306355e+00
 -2.0634370e-01
  2.3725705e-02
  1.2555751e-01
 -1.4343949e-02
 -3.7169628e+00
 -3.6234517e-02
  1.5030276e+00
 -2.8001850e+00
 -9.7714707e-02
 -3.9928627e-01
  1.4250620e-01
 -8.1554210e-01
  1.1745114e-01
  2.2049592e-01
 -9.4593561e-01
 -1.0012703e-01
 -5.9188241e-01
  2.0105793e+00
 -4.0375686e-01
 -2.6751313e-01
  5.3843502e-02
 -3.0860789e-02
 -3.2580113e-01
  6.0179657e-01
  3.2612600e-03
 -5.2278906e-01
 -4.8858327e-01
  1.4704870e-01
  4.9706280e-01
  5.5431131e-02
 -1.7548124e-01
  1.8835156e-01
  2.2662222e-01
 -4.1654807e-01
 -5.9233990e+00
 -1.2516643e+00
  4.7830459e-02
 -4.3375593e-01
 -1.3587527e-01
 -8.8784754e-01
 -4.3278389e+00
 -7.3867649e-01
  5.3398118e+00
  2.3055384e+00
  3.9802405e-01
  1.0525969e+00
  6.9674867e-01
  7.5612253e-01
  2.5884444e-02
  2.5877347e-02
  1.9064765e+00
  3.2436140e+00
  2.4860356e+00
 -4.7558169e+00
 -1.2249818e+00
 -6.6787565e-01
 -3.0372586e+00
 -2.9483294e-02
  8.5884035e-01
  3.8159318e-02
  1.1442978e-01
  6.3305730e-01
 -7.0272483e-02
  2.4652820e+00
 -4.8043303e+00
 -6.5954208e+00
 -1.4077116e+00
  9.4446844e-01
 -7.9407787e+00
 -7.7484506e-01
  6.6096589e-02
  4.1354995e+00
  1.9655660e+00
 -5.4372769e-02
 -2.0316303e+00
 -8.2744211e-01
  2.3781986e+00
  2.0954130e+00
  2.0255194e+00
  5.4832727e-01
  1.5649420e+00
 -2.5604782e-01
 -1.7522320e+00
 -2.2059667e+00
  1.3990886e+00
 -3.8366139e+00
 -2.6311666e-01
  5.8819234e-01
  5.6005859e-01
 -7.1811563e-01
 -3.4623582e+00
 -2.3936877e+00
  3.1228628e+00
 -1.0250865e+01
 -2.1105199e+00
  3.1770637e+00
  3.8865106e+00
  5.0053043e+00
 -1.3763338e+00
  1.9617560e+00
  4.8997241e-01
 -2.9205112e+00
  1.4119233e+00
  1.4350766e+00
  4.8940313e-01
 -5.2328974e-01
 -6.9649625e-01
  2.8882468e-01
 -8.5054624e-01
  3.8871306e-01
 -3.9722726e-01
 -5.1056805e+00
 -6.0284114e-01
  5.7548370e+00
 -5.5479026e+00
 -2.2227117e-01
  1.4064363e+00
 -5.2120647e+00
  2.8073260e-01
  2.2653815e-01
  6.5533870e-01
 -2.2237188e-01
  2.9487689e+00
 -1.6776505e+00
 -9.5640218e-01
 -1.2464260e+00
  1.2324960e+00
  1.4232144e-01
  3.9118719e-01
 -2.7028801e+00
  2.3921921e+00
  3.6032867e+00
 -2.7730496e+00
  1.4188002e+00
 -6.2009192e-01
 -2.6568097e-01
  1.2284976e+00
  2.2344585e-01
  1.4750634e+00
 -1.6155567e+00
  8.9019936e-01
  2.6398773e+00
 -4.6399200e-01
 -6.4581406e-01
 -1.5755330e+00
  1.5273253e+00
 -1.4890453e+00
  7.9307975e-03
 -4.2611036e-01
  3.6629807e-02
  1.5581606e-01
 -2.1383999e-01
  3.5504556e-01
  1.6168733e-01
 -9.2119060e-02
 -3.9595574e-01
 -2.3717878e+00
  2.8825986e-01
  1.0404722e-01
  1.0678120e-01
  2.5876996e-01
  6.6131860e-02
  2.4479581e-01
  1.3239696e+00
 -1.6584651e+00
  8.9027476e-01
 -8.6931728e-02
 -3.7935355e-01
  7.8626543e-01
  2.9243827e-01
  3.0830188e-02
 -1.5109071e-02
  4.3732202e-01
 -2.0445095e-01
 -1.6908916e+00
  4.8967764e-01
 -1.8535867e-01
  8.8612342e-01
 -6.2115365e-01
 -1.5984094e-01
 -7.8486614e+00
 -5.1308286e-01
  3.3560108e-02
 -3.7641923e+00
  9.2405513e-02
 -5.4889274e-01
  3.0417356e-01
 -2.0587188e-01
  6.5067017e-01
  3.0501697e-02
  9.8028086e-02
  1.9372243e-02
 -3.8182707e+00
 -4.0410733e+00
  3.6241794e-01
  3.9917937e-01
  7.1872242e-02
  4.0280132e+00
  2.2249566e-01
  2.6912725e-01
 -1.7589517e+00
 -3.7490118e-01
 -3.8879365e-02
  5.3611606e-01
  1.5756682e-01
 -2.5469193e-03
  1.7405640e-01
  3.7673063e+00
  4.3139303e-01
 -2.0198716e-02
 -6.3617387e+00
 -3.2545874e+00
 -2.9568529e-01
  1.2922968e+00
  6.3566095e-01
  9.6165597e-02
 -3.1496513e-01
 -1.4935561e-01
  8.0103032e-02
  3.4734854e-01
  8.1374031e-01
 -1.6107030e+00
  4.5919755e-01
  1.9506469e-01
  2.0078720e-01
  2.0514248e-01
 -3.7978697e+00
  2.1706185e-01
 -7.7650011e-01
  1.7341530e+00
  3.9496377e-01
 -9.6667983e-02
  2.3917811e-01
  4.4191945e-01
  9.9164957e-01
 -1.6456428e-01
 -8.5892749e-01
 -1.3840491e+00
 -1.4357202e+00
  2.9281061e-02
 -1.2737739e+00
  3.0248551e+00
  2.3236793e-01
 -3.2776079e+00
 -3.0072711e+00
 -3.1630225e+00
 -1.2492608e-01
 -1.8820721e+00
  4.4058675e-01
  5.1820040e-02
 -3.1265128e+00
  2.3260380e-01
 -1.0744134e-01
  1.9102488e-01
  1.5580185e-01
 -2.5167075e-01
  4.8041514e-01
 -3.4884706e-01
  5.5744874e-01
 -4.9951741e-01
  3.1191626e-01
 -3.7815027e-02
 -1.9546939e+00
 -8.2169145e-01
 -4.0195489e-01
 -4.6627840e-01
  2.5808506e-02
  2.5938100e-01
  1.8733128e+00
  5.9657228e-01
  2.5964007e-03
 -8.7254077e-02
  2.4615221e+00
 -2.4696336e+00
 -1.8444441e-01
  2.8547016e-01
  1.6487176e+00
 -8.8235831e-01
 -2.9236898e-01
  8.8688123e-01
 -4.2677295e-01
  1.0023575e+00
 -2.1161099e-01
  2.8579758e-02
  1.6260214e-01
 -3.2985300e-01
  3.1173782e+00
  1.9921710e-01
 -3.2877857e-03
  1.4671537e-01
  9.1338165e-02
 -2.8699467e-01
 -2.1403000e-01
  8.8606739e+00
  2.6544884e-01
 -1.6152450e+00
  2.8262053e-02
 -6.6418600e-01
 -1.7977145e+00
  5.0273795e-02
  1.7109822e-01
  4.8079434e-01
  3.1543527e+00
  1.2643995e+00
 -2.3429818e+00
  1.8020196e-01
 -5.0818610e-01
  2.9550700e+00
 -1.7909908e+00
  8.4830409e-01
 -9.8480952e-01
  1.7520095e+00
  1.7446826e+00
  7.9611093e-01
  1.1834047e+00
 -5.2542057e+00
 -6.4094973e-01
  6.9006572e+00
 -1.5195022e+00
 -8.4023958e-01
  3.2696483e-01
  6.0527773e+00
 -1.2960511e-01
  2.1524233e-01
  1.4651285e-02
 -2.3225439e+00
  1.1862037e-01
 -1.3104744e+00
  3.0000854e-02
  6.0108308e-02
 -5.0222888e+00
 -6.2826085e+00
 -4.0013924e+00
  1.1933129e+00
 -3.6177142e+00
 -2.3970654e+00
  5.4557592e-01
  1.8481150e+00
  9.0720546e-01
  3.2197635e+00
  1.4217684e+00
  2.4532709e+00
  2.6889944e+00
  8.1085658e-01
 -1.2370317e+00
 -1.0687815e-01
 -4.0819103e-01
 -2.2668666e-01
  1.1834867e+00
  7.5621724e-01
 -3.0340152e+00
 -1.8740909e-02
  6.3777864e-01
  1.7502801e+00
  8.5653313e-02
  4.5289927e+00
  4.1469547e-01
 -1.2382138e+00
 -5.3674799e-01
 -3.7498720e+00
 -2.7666814e+00
 -1.8636819e+00
 -4.3910864e-01
 -3.8924038e+00
  1.2489312e-01
  4.3966299e-01
 -4.4193524e-01
  1.7079986e+00
  1.5360891e+00
  2.1500619e-01
  3.3837178e-01
 -5.8066256e-02
 -9.2766099e-02
 -9.9019361e-01
 -3.1690121e-01
 -1.4906074e-01
  1.9686262e-01
 -4.2463818e-01
 -3.7674221e-01
  1.2829849e-01
 -9.3279913e-04
  9.9855679e-01
  7.3464365e+00
  1.1304101e-01
 -1.1193455e-03
  4.1411046e-02
  2.3414071e+00
  1.2397637e+00
 -8.4003977e-02
  8.3313286e-02
  6.1010146e+00
 -1.2379837e-01
  3.1613386e-01
  2.4087572e+00
  4.4754788e-01
  1.5048356e-01
  3.2997903e-01
  3.0429977e-01
 -6.0973597e-01
 -1.1519017e-02
 -1.1003163e-01
  4.3437657e-01
 -2.5799555e-01
 -2.0016594e-01
  5.2899611e-01
 -2.8706324e-01
 -5.4168230e-01
  6.8311565e-02
  1.7788002e-01
  4.5474416e-01
 -3.3835713e-02
  1.8496652e-01
  1.4372938e+00
 -1.9954234e+00
 -3.8013455e-02
  1.7357568e+00
  3.3903876e-01
  1.2121516e+00
 -3.1887546e+00
 -2.1813104e+00
 -9.3688138e-02
 -3.0065112e-02
 -1.2786207e+00
 -1.9683206e-02
 -7.5024664e-02
 -5.6605893e-01
  6.8778023e-02
 -4.6385041e-01
 -3.6624700e-01
 -4.8686557e-02
 -4.9073067e-02
  4.1608205e+00
  6.0152472e-03
 -1.1694378e-01
  1.9899564e+00
  7.5527471e-01
  3.8317782e-01
  8.5127121e-01
  1.3374723e+00
  3.2297599e-01
 -1.6728120e-01
  3.2573683e+00
 -5.8710616e-02
  6.8076572e+00
  2.1715388e+00
 -7.3586084e-02
 -2.6235533e+00
  2.9598361e-02
 -5.6069653e-02
  2.3669907e-01
  3.6668815e-02
  1.2612683e-01
  1.2370660e-01
  1.8870139e-01
 -2.1205392e+00
 -4.1255202e+00
  2.5112579e-02
  1.7119697e-01
  1.2924080e+00
 -5.2031189e-01
 -1.7594318e-01
 -2.0220814e-02
 -2.2499595e+00
 -1.7786482e-01
  4.2028514e-01
 -2.0861814e+00
 -3.3655193e+00
  5.2924151e+00
 -4.3201303e+00
 -1.3400951e-01
  4.1472545e+00
  5.0516133e-03
  5.7846794e+00
  3.4549210e+00
 -9.6231449e-01
 -1.5656736e+00
  4.3707907e-02
  3.0392104e-01
 -1.6778652e-01
 -1.3335463e-02
  1.0553402e-01
 -1.6559446e-01
 -5.5022806e-01
  7.6533699e-01
 -3.6411458e-01
  1.4332899e-01
  6.7428879e-02
 -1.2055749e+00
 -5.0983381e+00
  1.9944531e+00
 -6.5131217e-01
 -3.2913923e+00
  5.9558243e-02
  1.0563867e+00
  4.0680137e-01
 -6.3583148e-01
  1.5131495e+00
 -3.8397411e-01
 -1.4558873e+00
  1.3386425e+00
 -2.7939159e-01
 -5.3968180e-02
  4.1161385e-01
  2.4491656e+00
 -1.3994486e+00
 -1.9505580e-01
 -3.1383116e-02
 -5.2179618e+00
 -3.4033573e-01
  4.9635619e-02
  3.2167754e-01
 -2.3864335e-01
 -1.1383233e+00
 -2.8409615e+00
  2.7238390e+00
 -4.6415486e+00
 -5.1685113e-01
  1.0567102e+00
  1.3305571e+00
  6.2729106e+00
 -1.5510807e+00
 -7.9416394e-02
  9.7136629e-01
 -2.7975947e-01
  2.0803776e-01
  1.9207689e+00
 -8.0962229e-01
  4.1142175e-01
 -1.7583894e-02
  8.2498741e-01
 -1.1316724e+00
  1.4639594e-01
 -2.1497326e+00
 -3.2678914e-01
 -4.0099674e-01
  5.3261762e+00
 -9.2787996e-02
 -1.3044884e+00
 -6.3901246e-01
 -1.2690152e-01
 -4.0693030e-01
 -1.1483321e+00
  1.3265618e+00
 -2.5945944e-01
  4.8494026e-01
 -7.6900148e-01
  6.1830008e-01
  3.6607549e+00
 -3.4032791e+00
 -6.4576846e-01
  5.2739066e-01
 -5.3974038e-01
 -3.3607833e+00
 -3.7772143e-01
 -2.3051675e-01
  1.1838732e-01
 -1.2308204e+00
  1.0202710e-01
 -7.3370099e-01
 -9.4299810e-03
 -4.8713118e-01
 -1.3181473e+00
  1.5067699e-03
 -3.2440054e+00
  7.9507422e-01
 -1.2688770e+00
 -5.9817996e-02
  3.1114068e-02
  1.7422224e+00
  3.4214771e-01
 -2.5189227e-01
  4.2940469e+00
 -1.0195257e-01
 -5.2666754e-02
 -3.0422986e-02
 -9.3136474e-02
 -3.0152135e+00
 -3.5897244e-02
 -1.1368272e+00
  2.9763630e-01
 -3.5808327e+00
  5.7189167e-01
  5.4346737e-02
  1.7600079e+00
  2.3610866e+00
 -1.6938767e+00
  3.1571310e-02
 -9.4298288e-02
 -3.4448758e-01
 -1.6347712e-01
 -7.6581979e-01
  1.3878248e+00
 -1.0275002e+00
 -3.1304216e-01
  2.1970707e-01
  2.3574011e+00
 -1.6582017e+00
 -3.1836231e+00
  5.2917060e-02
  1.7668597e+00
  1.1561856e+00
  6.4095032e-01
  1.8333161e+00
  4.4648549e-01
  6.0733091e-02
 -4.6143446e-02
  1.9910096e-01
  1.8090399e-01
 -2.9758582e-01
  3.6915188e+00
  2.7868509e+00
 -2.0521240e-01
 -1.8697141e+00
  9.3732905e-01
 -1.2283982e-01
  1.2191303e+00
 -4.1194400e-01
  8.0471539e-01
 -2.1122392e-01
 -7.5163633e-01
 -1.7790301e+00
 -2.2174416e-02
  1.0817602e+00
 -6.6249090e-01
  1.4807532e+00
 -6.5664595e-01
 -5.9939601e-02
 -5.5851750e-02
 -1.3843012e+00
  3.7211236e-01
  4.6209696e-01
 -1.6750187e-01
 -2.6490715e-01
  6.2146890e-01
  3.3375165e-01
 -2.3423404e-01
 -7.0298135e-02
 -7.1540642e-01
  1.1723888e+00
  4.2956308e-01
 -7.1720058e-01
  2.3933269e-01
  1.1675374e-02
 -1.1096853e+00
  2.1642224e-01
 -4.7999072e-01
  9.7055532e-02
 -7.9941303e-01
  1.0825291e-01
 -9.2036434e-02
  1.7067288e+00
 -4.3197572e-02
 -1.6914742e-02
  4.5194998e+00
  5.3314561e-01
 -1.1421541e+00
  1.0045084e+00
 -1.9009207e+00
 -3.0980282e-03
  1.4838269e-01
 -6.8878621e-01
 -6.2104829e-02
 -2.0382753e-01
 -8.1977725e-01
 -4.2014041e+00
 -5.3336702e-02
 -3.4308076e-01
  7.3853332e-01
  7.2362232e-01
  3.6688149e-01
 -3.3040494e-01
 -1.2216282e-01
  7.4773288e-01
  5.3072298e-01
 -5.4242454e+00
 -7.8084797e-01
  1.5406458e-01
  1.4147609e-01
  2.8446150e-01
  4.4901271e+00
 -3.2346216e-01
  3.8474727e-02
  2.3419717e-01
  5.5074563e+00
 -9.1535741e-01
  1.6520777e+00
 -5.4463644e-02
 -4.2242524e-01
 -2.2428651e+00
 -1.2323898e+00
  3.3562984e+00
  2.6200607e-01
 -3.7312672e-02
  1.5433645e-01
  5.2616000e-01
 -1.0071557e+00
 -6.5078992e-01
  3.6080444e-01
 -6.9593582e+00
 -7.3908043e-01
  2.5993073e+00
  1.9522936e+00
 -2.4579053e-01
  2.3204427e+00
  1.8216617e+00
  9.4996849e-03
 -7.3027545e-01
  6.2808685e-02
 -2.2889113e+00
 -5.7417756e-01
 -1.8690009e+00
  5.5240419e-02
  3.4931009e+00
 -5.3982931e-01
  1.0620040e-01
 -1.8007943e-01
  1.6086833e-01
  4.6737328e+00
 -4.7708268e+00
  1.9813773e-01
  1.3032204e-01
 -1.3853471e+00
 -2.7617064e-01
 -4.4988722e-02
 -6.3185555e-01
 -9.8497677e-01
  6.1779463e-01
  3.0066866e-02
 -4.1732173e-02
  7.0496124e-01
  9.1003641e-02
 -4.7429696e-01
 -9.3064299e+00
  1.4810733e-01
  3.2431283e+00
  4.9016190e-01
  1.1201048e-01
  1.1090322e-02
 -2.2181458e+00
  1.0866832e+00
 -1.6168462e+00
 -2.4539180e+00
  1.6115129e-02
 -1.3772329e+00
 -1.2621335e+00
 -3.2119870e-02
  1.5638598e+00
 -1.4809078e+00
  8.8717663e-01
 -1.7490615e-01
 -6.3412995e+00
  2.5376147e-01
 -3.1876525e-01
  1.6347018e-01
  8.7704015e-01
  3.8010620e-02
  3.6830344e+00
  3.5185990e-01
 -6.0185224e-01
 -4.6164352e-02
  1.8538052e+00
 -8.9971149e-01
  2.1425903e-01
 -5.8292592e-01
  2.5573280e+00
 -2.0952541e-02
  4.8282698e-01
 -3.8930780e-01
  1.1595248e+00
 -1.7320861e+00
 -9.5206261e-01
 -3.1662922e-02
 -9.3946213e-01
  1.9446239e+00
 -2.6497388e-01
  2.4913099e-01
 -1.3528196e-02
 -1.8660456e+00
  9.7245598e-01
  3.2329144e+00
 -4.8944961e-02
  3.1407778e+00
 -8.0689317e-01
 -1.2145071e-01
  8.6602628e-01
 -7.8656715e-01
 -1.7729639e+00
 -8.4208332e-02
 -1.4647137e+00
 -8.5911930e-01
 -3.0277658e+00
 -3.0978496e+00
 -1.0261137e+00
  1.0503106e+00
  1.8887744e+00
 -1.3715943e+00
  1.6752692e+00
  6.4681627e-02
  4.0941715e+00
 -1.7087151e-01
  6.4173147e-02
 -9.1098592e-02
  3.3701754e-01
  5.3130233e-01
 -1.2761216e+00
  1.1483242e-02
 -2.6499055e-02
  3.3693120e+00
  5.5066514e-01
 -2.3130090e+00
  1.3751688e+00
 -5.9763409e-02
  5.2307433e-01
 -2.8270000e-01
  3.6445262e+00
 -1.7111239e-01
 -2.5231251e-01
 -6.3282651e-01
 -2.4668367e-01
 -2.2246298e-01
 -3.0096624e+00
  3.6999733e+00
 -2.4629779e-01
  7.2636291e-02
 -7.1928520e-03
 -5.6629336e-01
  1.7349828e-02
  4.2428452e-01
  1.2220602e-01
  1.4278045e-01
 -1.2687691e+00
 -4.4652602e-01
 -7.7160889e-01
  1.6543968e+00
  1.1436693e-01
 -3.7814052e+00
 -7.7079463e-01
  1.9345130e-01
  1.4762667e-01
 -1.0275375e-01
 -3.6070235e-02
 -7.5722206e-01
  7.6368563e-02
 -3.4095880e-01
  2.1478075e-01
 -3.5220218e-01
  5.5645543e-01
 -4.3014890e-01
 -4.9213096e-01
  1.5662086e+00
 -1.2879796e-01
 -1.0607378e-01
 -4.4155731e+00
  4.9224004e-01
  6.6129440e-01
 -1.6485378e-01
 -6.9115855e-02
  8.1497771e-01
  7.1248984e-01
  1.2405229e+00
  4.0935367e-01
 -3.6256301e+00
 -2.6749727e-01
 -9.4940907e-01
  3.5242650e-01
 -3.0594274e-01
 -4.9106288e-01
  3.4464869e-01
 -5.3812817e-02
 -1.0111312e+00
 -2.9566879e+00
  1.4497571e-01
 -1.0562841e+00
  2.2615733e+00
 -4.7658234e+00
 -1.9143423e-01
  3.0261153e-01
 -5.9021115e-01
  1.2195264e+00
 -1.5811896e-01
  1.9079275e-01
 -2.8634520e+00
 -4.3168592e-01
 -6.7178416e+00
 -2.0210662e+00
  3.7371960e+00
 -5.8291774e+00
 -1.0934601e+00
  1.2941405e+01
  1.6217413e+00
 -1.5535505e+00
 -2.8176363e+00
 -2.2386894e+00
 -2.5957525e+00
  1.1480336e+00
  2.9669571e+00
  2.0781145e+00
  3.5299549e+00
 -5.5455561e+00
 -1.9369183e+00
  5.2761302e+00
 -2.1876290e+00
  5.5623561e-01
  2.7876514e-01
 -1.6737888e+00
 -2.0178235e+00
 -4.0181521e-01
 -1.2833276e-01
 -3.3640195e-02
 -1.0277544e+00
  8.5742307e-01
  4.1584926e+00
 -2.2448785e+00
  5.8969408e-01
  2.5598092e+00
 -3.3436239e-01
  1.3620509e+00
 -4.0913273e-02
  1.9782519e+00
  1.5754865e+00
 -1.4468549e+00
 -2.3166142e-01
  1.0333757e-01
  6.2779784e-02
  2.4944847e-02
 -2.0915129e+00
 -8.5831797e-01
 -4.2359081e-01
 -2.4503513e-01
  5.0072843e-01
 -3.3026621e-01
  2.6471841e+00
 -8.8951893e-02
 -1.0040959e+00
  1.4765259e+00
 -6.7252755e-02
 -5.9843006e+00
 -5.3573400e-01
 -2.4024491e+00
 -5.4183209e-01
 -6.9357626e-02
  5.7535734e-02
  2.4693343e-01
  9.8781198e-01
 -3.1557891e-01
  3.2601398e-01
 -2.0342183e-01
 -4.0553145e-02
 -2.7092829e+00
  3.5615557e-01
  5.8296281e-01
 -2.6972027e-02
 -3.8242337e-01
 -3.2164928e-01
  1.2276231e-01
  1.1671747e-01
  5.7868457e-01
  1.8101653e+00
 -7.7875352e-01
  2.3973022e+00
 -9.3346256e-01
 -2.3577111e+00
  1.0125553e-01
 -1.0208637e-02
  1.1153556e-01
 -1.0181880e+00
  3.1059569e-01
  8.3652771e-01
 -2.2490340e-01
  2.6381288e+00
 -6.3252389e-02
 -3.5942939e-01
 -1.8249792e-01
 -1.7905260e+00
 -1.1936415e+00
  1.0885014e-01
 -2.1651609e-01
 -6.9941574e-01
  2.5866523e-01
 -1.9498678e+00
 -7.0293799e-02
 -2.0192695e+00
 -3.3945429e-01
  7.1545906e-02
  8.4101695e-01
  7.5034015e-02
 -2.9022506e-01
  1.3505280e+00
  1.0496574e-01
  1.0775250e+00
 -3.8491231e-01
 -4.2525515e-01
 -4.5320526e-01
  5.7841707e-02
 -3.6686176e-01
 -6.1753970e-01
  1.6787937e-01
  3.1458554e-01
  7.4253541e-01
  2.0475736e+00
  1.2803171e+00
 -8.4297925e-01
 -3.7608844e-01
  1.5175409e+00
 -1.0279792e-01
  1.7547669e-01
 -5.8974534e-02
  3.1481748e+00
  2.4445011e-01
 -1.8768284e-01
  9.2483419e-01
  2.7285717e+00
  8.8837564e-01
  1.9776685e+00
 -1.4044284e+00
 -1.9158702e-02
 -1.9436847e-01
  3.5212681e-01
  7.8906283e-02
  4.2777604e-01
 -3.8684901e-02
 -2.4197733e+00
  7.4379337e-01
 -6.5728569e-01
 -3.0539954e-01
  1.1532409e+00
 -7.9796499e-01
  3.0288737e+00
  2.3233153e-01
 -1.0498776e+00
  1.5992327e+00
 -1.6950954e+00
 -5.0243556e-01
  2.1769880e-01
  1.0172862e+00
  1.6969906e-01
 -3.6307655e-02
 -3.6593862e+00
 -1.0834560e-01
 -1.3515355e-01
  1.4948955e-01
  4.2870836e+00
  2.5890791e+00
 -4.3405753e-01
 -1.6069488e-01
  2.5863285e+00
  6.6998357e-01
  8.9409339e-01
 -1.5622174e+00
 -1.3153455e-01
  3.0306617e-02
 -7.7035159e-01
  1.0390120e+00
  3.0359569e-01
  2.2244602e-02
  1.9942236e-01
 -7.4975204e-01
 -1.1336648e+00
  1.3694808e-01
 -8.9378172e-01
 -4.1912445e-01
  4.1032887e-01
 -1.0100533e+00
  6.6213784e+00
 -5.2833237e-02
 -4.7647995e-01
 -2.4376824e-03
  2.8307168e+00
  3.1554656e+00
 -2.2597356e-01
 -4.5630440e-01
  3.4259949e+00
  4.1470453e-01
 -8.0066741e-01
 -6.4568615e-01
 -3.0444415e+00
 -1.6140002e+00
  9.0303499e-01
  1.3197922e+00
 -1.8160156e+00
 -1.6304976e+00
  3.9777134e-02
 -4.1550293e+00
  1.0848489e+00
  1.0667998e+00
 -3.6142054e+00
 -1.7544737e+00
  3.6393211e+00
  1.5517170e-02
  1.9393140e-01
  3.1360226e+00
 -2.7028737e+00
 -3.0019147e+00
  1.7480451e+00
  1.2194409e+00
 -6.2625861e+00
 -1.0698507e+00
 -1.7987855e-01
 -8.6872983e-01
 -1.3997340e+00
 -2.0224957e+00
  1.0049087e+00
  1.5472054e+00
 -2.0989065e+00
  2.1356289e-01
  5.6872118e-01
 -1.6587194e+00
 -1.5683135e+00
 -3.5116771e-01
 -7.2494692e-01
  1.1624764e+00
 -5.9379988e+00
  2.3466077e+00
 -2.5424615e-01
  1.0271721e+00
  1.9605570e-03
  4.4343848e+00
  2.5545365e-01
 -2.9966891e-01
 -2.0019693e+00
 -2.5983613e+00
  7.6544203e-02
  1.2345918e-01
  7.1109720e-02
 -6.6700852e-01
  1.9718986e+00
 -3.6513672e+00
  6.4090443e+00
 -9.8452514e-01
  3.8421760e+00
 -1.5682701e+00
  2.5279651e+00
  8.7757069e-01
 -1.8557320e+00
  1.1154044e-01
  5.3740010e+00
 -5.7545686e+00
 -2.6641114e+00
  5.1032414e+00
 -4.0686965e+00
 -1.8625556e+00
  1.3879025e+00
  1.4543011e+00
  1.8899056e-01
 -3.0148917e-01
  3.7350557e+00
  2.4087898e-01
 -3.0680995e+00
 -2.5569212e-02
 -4.4993132e-01
 -2.4924304e+00
  1.2484068e+00
  1.3283694e+00
 -1.7038878e-02
 -1.9233596e-01
  1.8732655e+00
  1.6877766e+00
 -8.5363054e-01
 -1.6030678e+00
  3.0912800e+00
  1.9241707e+00
  5.3841752e-01
 -7.0951211e-01
  3.3618929e-03
 -1.3562114e+00
 -7.2454560e-01
 -1.1264538e+00
  4.2831370e-01
 -2.3269429e+00
  3.3125613e+00
 -1.8367236e+00
 -6.2524515e-01
 -1.5737948e+00
 -8.0821371e+00
 -7.2343029e-02
 -1.6641794e-01
  8.7576574e-01
 -2.3217033e-01
 -3.0238621e+00
  8.7504488e-01
  7.2010291e-01
  4.0971584e+00
 -6.0903323e-01
  2.3263214e+00
 -1.4635592e+00
 -1.2581264e+00
 -6.3503969e-01
  1.4583988e-01
 -3.2061383e-01
 -6.2022638e-02
  1.8945706e-01
 -2.6725173e+00
 -1.0121303e+00
 -4.2758283e-01
  2.2085493e+00
 -9.6766084e-01
  2.6274806e-01
  8.7108383e+00
 -4.3172911e-01
  5.0337157e+00
  3.6778548e+00
  7.7378702e-01
 -1.2252684e+00
 -6.7798167e-01
 -1.5105278e+00
 -4.2509694e+00
 -1.8273020e-01
  2.0691540e+00
  5.5945349e-01
  5.3947182e+00
 -2.5576377e+00
 -2.9269555e+00
 -6.9446504e-02
 -9.5199698e-01
  1.1549176e+00
 -6.7262602e-01
 -3.9805579e-01
  1.9155685e+00
 -7.7481785e+00
  5.9524709e-01
 -6.7838168e-01
 -3.1059673e+00
 -3.9471576e-01
  2.6450297e-01
 -5.3160887e+00
  1.1652894e+00
 -1.2684300e+00
  3.8007010e-02
 -2.4946368e+00
  8.7838507e-01
 -8.0942869e-01
 -8.1685883e-01
  2.8946176e+00
 -9.3843001e-01
 -1.0314020e+00
  2.9963049e-01
  2.7051386e-01
 -3.9068365e-01
 -2.5203142e-01
  1.8870674e+00
  2.5080055e-01
  8.3468422e-02
  1.9166166e+00
 -2.7046210e-01
 -3.0013248e-01
 -3.0607409e+00
  5.9433047e-02
 -5.9159017e+00
 -1.5463552e+00
 -6.4151424e-01
 -1.4774258e+00
 -2.4601593e+00
 -2.9384508e+00
 -2.7010733e-01
 -1.8213914e-01
  1.5154177e+00
 -2.3224547e+00
 -1.3344152e+00
  2.4200638e-01
 -5.0968146e-01
 -9.8767042e-01
  6.2449241e-01
 -2.0051289e+00
 -1.7392085e-01
  1.9139190e-01
 -6.4304009e-02
  1.4113101e+00
  6.5177476e-01
 -1.8012260e+00
  4.1848919e-01
  6.0480274e-02
 -2.4028468e-01
 -3.6542749e-01
  4.2408104e+00
  2.7125940e-01
  3.7263722e+00
  2.6569867e-01
 -7.7815875e-02
  7.3350541e-02
  3.8552492e+00
  6.5067333e-01
  5.9338626e-02
  8.3383064e+00
  2.8892627e+00
  1.6937169e-01
 -2.3070385e-01
 -1.0757926e-01
 -3.0786991e-01
 -2.3237750e-01
 -5.3033385e+00
 -2.2543187e-01
 -1.9539564e+00
 -2.1932195e-01
 -2.1123400e-01
 -1.3097742e+00
  6.0668129e-01
  3.0970652e-02
 -2.6224080e-01
  2.4530940e-02
  4.4010118e-01
 -8.8093537e-01
 -2.4793492e-01
 -3.7190974e-01
 -1.4026713e+00
  2.2337494e+00
  2.1580982e+00
 -3.7172642e-02
  3.2997422e+00
 -7.7991426e-01
  3.3320028e-01
 -1.1783750e-01
 -1.9275992e-01
  5.8212643e-03
 -1.9854182e-01
  4.8760992e-01
  1.4568511e-01
 -3.2419002e+00
  8.9585793e-01
  1.1750228e+00
  2.0931768e-01
 -4.2469847e-01
 -1.4083152e-01
  1.2047722e-01
  1.1301147e+00
 -1.8407669e+00
 -1.1384003e+00
 -4.9845308e-01
 -3.6350667e-01
  2.0659359e+00
 -9.3011624e-01
  5.4419047e-01
 -1.7297415e+00
 -5.1588410e-01
 -7.2468519e-01
 -5.5893910e-01
  2.7620590e-01
 -1.4480181e-01
 -2.7703159e+00
 -3.8209012e+00
  8.8084310e-01
  1.6750520e-01
  5.1261526e-01
  2.0357119e-02
  1.5871140e+00
 -1.0296629e-01
  4.0396672e-01
 -3.4434640e-01
 -3.0881256e-01
 -3.6757194e-02
  3.0479425e-01
 -5.8968353e-01
  1.8881007e-01
 -3.1780932e-02
  1.8798027e+00
  1.7856402e+00
 -2.7596980e-01
 -1.4130439e-01
 -1.2572780e+00
  2.7259141e-01
  5.7824898e-01
 -6.4404023e-01
  1.2592679e+00
 -1.8495762e-01
 -2.4541169e-02
  3.2740521e-01
  3.6109807e-03
  4.3797433e-01
  3.4624846e+00
  1.3472794e-01
 -6.0174704e-01
 -3.5809344e-01
 -2.1452942e+00
  1.7676458e+00
 -6.8107404e-02
  2.3770101e-01
  5.3768768e+00
 -1.9994968e-01
 -3.3583181e+00
  6.6133437e+00
 -2.1034789e-01
  1.4589387e-02
 -5.3507317e-02
  7.8385115e-01
 -2.1220560e+00
  2.3874891e-01
 -2.2717385e-01
 -2.0436971e+00
 -8.3917838e-01
  5.8953136e-01
 -3.8052154e-01
 -2.9910019e-01
  1.4294226e-01
  2.2640474e-01
  3.0521162e-02
 -2.5847736e-01
  4.4000059e-01
 -1.1880666e+00
  2.6279989e-01
 -7.9244149e-01
 -4.0392524e-01
  2.8457520e+00
 -3.9553538e-01
 -2.7004361e-01
 -1.4966370e+00
 -2.1409442e-01
  4.3176472e-02
 -1.6819035e-01
 -4.7712699e-02
 -6.8418723e-01
 -3.1788513e-01
 -1.5535938e+00
  5.5050039e-01
  2.0021619e-01
  2.2346005e+00
 -3.4460890e-01
 -4.5815018e-01
  2.8636527e+00
 -1.4609651e-01
 -1.8022841e-02
  3.8785890e-01
 -2.2371167e-01
  1.0107452e+00
 -8.7400889e-01
 -1.7110840e+00
 -1.6859497e+00
  4.8027280e-01
 -4.5679060e-01
 -3.3746272e-02
  4.7119298e+00
 -4.5105460e-01
  2.7796984e+00
  4.4131511e-01
  4.3734524e-01
 -1.7319882e+00
 -5.2806789e-01
  1.8707215e+00
 -4.2144608e+00
 -1.5838171e+00
 -1.9378308e+00
 -3.8982439e-01
 -3.2140189e-01
 -1.1931386e+00
 -4.4003461e-02
 -9.9006027e-01
  4.9224591e-01
  1.2100235e-01
  3.9498022e+00
 -3.5628048e-01
  1.5862893e-01
 -2.2610067e-01
 -1.4091735e+00
  2.9191750e-01
  7.1786177e-01
  1.6267174e+00
 -2.6137173e+00
  3.0387351e-01
  6.7529011e-01
 -2.6226501e+00
 -2.4832323e+00
  9.3049490e-01
 -3.2616431e-01
  7.9459213e-02
 -2.3407936e+00
 -3.3105356e-01
 -2.4229038e+00
  5.6626506e+00
 -1.9006479e+00
 -2.9269901e-01
  1.5045935e-01
  1.6247141e-01
 -3.8439031e+00
  7.1532816e-01
 -7.5735055e-02
 -1.8534529e+00
  3.8347799e-01
 -1.1341751e-01
  7.6220312e+00
  5.4020634e+00
 -4.0888160e-01
  5.2565217e-01
 -1.8361760e+00
 -2.7949018e+00
 -3.0977263e+00
 -6.1520591e+00
 -5.1049547e+00
 -3.2702081e+00
 -9.0959442e-01
  3.3145468e+00
  3.9143872e-02
  4.4591123e-01
 -3.2708895e+00
 -1.4000241e+00
  7.2360907e+00
 -3.5874370e-01
 -1.4097298e+00
  8.2942224e-01
 -1.6347140e-01
 -1.9111750e+00
  1.3961256e+00
 -6.5631735e-01
 -1.2997459e+00
 -5.5119252e+00
  1.4348266e+00
 -6.3481112e+00
 -1.6769594e+00
  1.6424463e+00
 -3.3503345e-01
 -4.5937710e+00
 -8.7957126e-01
 -3.2931242e+00
  2.2645400e+00
 -2.5813329e-01
  8.5227013e-01
 -2.3974965e+00
 -6.7035275e+00
 -5.9876931e-01
 -2.9856827e+00
 -7.4593252e-01
 -2.7635941e-01
  4.7667584e-01
 -1.8214802e+00
 -1.1873904e+00
  1.5355905e+00
 -4.4791193e+00
  8.1551969e-01
 -3.5123509e-01
  4.1094562e-01
 -2.4351186e-01
 -5.7517385e-01
 -2.2303987e+00
  4.6132687e-01
  5.1690847e-01
  7.7921391e-02
  1.1662375e+00
 -1.0339969e-01
 -4.4782709e-02
 -5.0528097e-01
  1.3397580e-01
 -2.7679870e-02
 -5.9357750e-01
 -2.4713294e-01
 -2.7545618e-02
 -1.4164151e-01
 -5.3532553e-01
 -4.6854535e-01
  3.9365906e-02
  3.9744249e-01
  2.8168115e-01
 -6.5561140e-01
 -3.0092934e-01
  1.8469533e-01
  8.6210378e-02
  9.0939111e-01
  9.2456102e-01
  1.1405650e-01
  1.9740549e+00
 -6.9309938e-01
  9.5413458e-01
 -1.2985219e-01
  7.5101018e-02
 -1.0956856e-02
  1.0105562e-01
  6.5914416e+00
 -4.5914552e-01
  1.8331594e+00
 -5.2926044e+00
  5.6249928e+00
 -2.0236583e-01
 -5.2967876e-01
 -5.5354618e-02
 -5.9707606e-01
 -1.2921470e+00
 -2.6396373e-01
 -1.5210876e+00
 -7.4165769e-02
 -1.4588472e+00
  2.8577173e-01
  1.0324804e-01
  2.9824451e-01
  2.6978585e-01
 -1.2684408e-01
  3.6785579e-01
  4.1116297e-01
  7.7797079e+00
 -7.7717853e+00
 -1.1516178e+00
  6.7698282e-01
  3.5804445e-01
 -4.5525002e-01
 -1.1437681e+00
 -3.2749231e+00
  2.5436956e-01
  1.0828462e+00
 -1.0204669e+00
 -3.6787033e-02
  9.6642867e-02
 -3.0922155e+00
 -1.6309748e+00
 -2.5616276e-01
 -1.2523999e+00
  3.5220792e+00
  1.9345349e+00
 -4.5353967e-01
  5.0027037e+00
  2.3209000e-01
 -7.0918763e-01
  2.5676546e-01
 -1.5023291e+00
 -5.8618248e-01
  1.8051956e+00
 -1.5344720e+00
  1.0039151e+00
 -1.0732724e-01
 -4.3421450e-01
  7.4973863e-01
 -2.3906515e+00
 -1.2389936e+00
  5.3975849e+00
 -4.6664563e-01
  1.2879305e+00
 -9.5611376e-01
 -1.2655018e-01
 -1.1181870e+00
 -3.4519423e-02
  6.3420758e-02
 -5.8841795e-01
  2.0941226e-01
  1.3056859e+00
  1.0852177e+00
 -4.8825893e-01
 -5.8692586e-01
 -9.4294113e-01
  8.4531441e+00
  2.4024490e-01
  1.7275044e+00
 -2.4361837e+00
 -3.7761378e-01
 -2.6085165e-01
  5.0461605e-02
 -1.3364761e+00
  3.7223857e-02
 -1.4400271e-01
 -1.8540128e-01
  5.2699286e-01
  4.1728276e-01
 -1.1945694e-01
  5.8517021e-01
 -2.0724282e+00
 -1.0857999e-01
 -6.9394815e-01
 -4.6281084e-02
 -5.5928934e-01
  4.1902792e-01
 -4.7441736e-02
  2.1625543e-01
 -1.2735257e-01
 -1.4048733e+00
  3.1615963e+00
 -3.9814059e-02
  2.3041770e-01
 -1.8045929e-01
 -2.8430319e-01
  1.2786586e+00
  3.1951234e+00
 -6.7511380e-02
 -4.4434320e-02
  2.7453499e+00
  1.7696455e-01
 -2.2703627e-01
  5.4193628e-01
  1.0526410e+00
 -7.5098262e-03
 -6.0663390e-01
 -5.0960505e-01
 -1.4931023e-01
 -8.3051071e-02
  1.6726974e-01
  9.6423596e-02
  1.9220825e+00
 -3.7969396e-01
  1.1286097e-02
  2.9533234e+00
 -3.8931007e+00
 -1.7963508e+00
  2.2741531e-01
 -2.0486529e-01
  1.4071259e-01
 -7.7024989e-02
  6.0911006e-01
 -1.8970728e+00
  2.5961739e-01
  5.0458255e+00
  1.5421754e-01
  4.4132638e-01
  1.2530115e-01
 -2.8218977e+00
  2.7326070e-02
  3.8432378e-01
 -2.6760805e-01
  2.1898413e+00
  3.8790774e-01
 -1.7673628e-02
 -1.0133126e-01
 -7.0714265e-01
 -1.8746008e-01
  4.2925477e-01
  4.1700909e-03
 -1.4452374e-01
  3.1752183e+00
 -1.2002530e+00
  6.7709321e-01
  1.6347666e-01
  7.7475280e-02
 -1.5923491e-01
  6.8323547e-03
  1.4273819e+00
 -2.9583726e+00
 -8.1715655e-01
 -2.5046091e+00
  4.4252556e-02
 -1.8395556e-02
  1.0193159e-01
 -4.0648079e+00
 -1.9180558e+00
  2.7337143e-01
 -5.6947643e-01
 -1.9575557e+00
 -3.2319825e+00
  2.9028214e-03
 -1.0185814e-01
  3.5540140e+00
 -1.4354445e-01
  3.0497611e-01
 -5.6959867e-01
 -1.6876607e-01
 -1.3481222e+00
  8.7540359e+00
  5.4182029e+00
 -7.2048383e+00
  4.7325473e+00
 -8.6246271e+00
 -5.6141038e+00
  5.4714937e+00
 -5.1091547e+00
 -4.2161694e+00
 -9.2209530e+00
  6.5165830e+00
 -5.3863373e+00
  4.8797746e+00
 -5.6057167e+00
  7.5723848e+00
 -5.4702702e+00
  2.4325368e+00
 -2.7187061e+00
  6.9336553e+00
  5.0079217e+00
 -3.2154021e+00
 -6.0019202e+00
  4.2148814e+00
 -4.0883255e+00
  6.0073237e+00
 -6.2397456e+00
 -5.1317601e+00
  6.9145436e+00
 -5.6291232e+00
 -5.2947211e+00
 -5.7578516e+00
 -5.0822816e+00
  4.7849879e+00
 -2.8602409e+00
 -6.3421712e+00
 -3.6441448e+00
 -4.1041307e+00
 -1.1809084e+00
  4.1804867e+00
  3.0541925e+00
 -2.4877377e+00
 -3.8363330e+00
 -4.4610424e+00
  6.8057103e+00
  2.5857656e+00
 -6.5598159e+00
 -5.7504687e+00
 -4.2160263e+00
 -5.8786135e+00
 -4.0644579e+00
 -6.0263658e+00
 -4.9124455e+00
 -2.5892808e+00
 -6.2531620e-01
  4.8595233e+00
  4.1081281e+00
  8.1456915e-02
  5.2479587e+00
 -3.7439784e-01
  4.8731337e+00
  2.6012659e-01
 -3.9532351e+00
 -2.8627813e+00
 -6.0845914e+00
 -5.2663236e+00
 -6.9442286e+00
  6.3907013e+00
 -4.4473534e+00
 -5.5032248e+00
  5.1123061e+00
 -6.3284698e+00
  8.0689478e+00
  3.4713368e+00
 -7.2229233e+00
 -5.8078885e+00
 -3.9572523e+00
 -3.7978144e+00
  4.5790472e+00
  5.0630879e+00
 -5.7740922e+00
  5.9725800e+00
  5.7204480e+00
  4.3691173e+00
 -3.9556348e+00
  7.5726147e+00
 -4.2993355e+00
  5.1277423e+00
  1.4744797e+00
 -5.9568608e-01
  4.2775989e+00
  3.3181407e+00
  4.9668093e+00
 -4.2946420e+00
  6.1166997e+00
 -4.1843133e+00
  2.6784585e+00
 -5.8598051e+00
  5.8599186e+00
 -4.9257131e+00
  5.7961373e+00
 -6.2185772e+01
 -6.9461815e+01
  4.8461372e+01
 -3.6044430e+01
  5.6501823e+01
  5.7686745e+01
 -5.4241692e+01
  5.0133583e+01
  7.3473633e+01
  4.5323540e+01
 -5.2169044e+01
  6.7225395e+01
 -7.9082527e+01
  6.8762573e+01
 -4.8346298e+01
  4.0622189e+01
 -4.0467327e+01
  3.5255959e+01
 -7.9883003e+01
 -6.4120544e+01
  5.4845703e+01
  5.8529743e+01
 -3.9148438e+01
  3.3293938e+01
 -5.1824009e+01
  6.5709358e+01
  4.9851673e+01
 -5.5196693e+01
  5.4828621e+01
  2.5947630e+01
  5.2746002e+01
  6.5996437e+01
 -6.2739208e+01
  8.6466393e+01
  4.9996864e+01
  7.3710175e+01
  8.3562767e+01
  2.9942377e+00
 -4.3211601e+01
 -3.3277782e+01
  4.2451427e+01
  4.4968811e+01
  4.2769455e+01
 -5.7348751e+01
 -5.4070065e+01
  6.5861275e+01
  5.6573318e+01
  4.1928310e+01
  7.8214600e+01
  4.3355862e+01
  4.5790386e+01
  4.8808773e+01
  9.2686478e+01
  3.0213253e+00
 -6.5851868e+01
 -4.9862297e+01
 -8.2673798e+00
 -9.6478020e+01
  3.7023304e+00
 -4.7978424e+01
 -1.0195489e+00
  2.0986557e+01
  5.1305843e+01
  4.5463348e+01
  3.0693293e+01
  5.4448597e+01
 -6.0879913e+01
  3.5969265e+01
  6.9380409e+01
 -6.1139416e+01
  3.7420860e+01
 -6.1575405e+01
 -5.5195049e+01
  3.6501915e+01
  5.2856300e+01
  8.2748726e+01
  4.9632915e+01
 -4.8896626e+01
 -4.3733124e+01
  3.8697731e+01
 -5.2261620e+01
 -5.2689316e+01
 -4.8798977e+01
  5.2158531e+01
 -3.8954052e+01
  3.0413286e+01
 -3.6639698e+01
 -1.0571921e+01
 -2.9143407e+00
 -4.9026752e+01
 -4.6797138e+01
 -4.2468929e+01
  6.0635639e+01
 -5.4750603e+01
  6.9245026e+01
 -3.0631659e+01
  5.7781212e+01
 -5.2137550e+01
  4.6998158e+01
 -6.5052475e+01
 -1.9982906e-01
  1.0017276e+00
 -4.4175991e-01
 -3.7602940e-01
  1.9984351e-01
 -2.1153493e-02
  3.4689996e-01
  3.2633087e-01
 -1.5969250e-01
  2.6801196e-01
  2.2715554e+00
  1.0166208e-01
 -4.8519772e-01
  1.9584627e-01
  2.4386907e+00
 -3.9589069e+00
  2.4356447e-01
 -9.0605861e-01
  1.1822140e+00
  2.9529874e+00
 -1.4753077e-02
 -6.5505929e+00
 -5.7669707e-02
  2.2831528e+00
 -5.1034149e-02
 -4.6977636e-01
  6.2481856e-01
 -2.2509427e+00
 -7.2921693e-01
  5.2840644e-01
 -4.7748763e-02
  1.5281457e-02
  2.5271113e+00
  3.5772955e+00
 -2.9802752e-01
  2.1809287e+00
  1.0266512e-01
 -2.5773266e-01
 -1.3466526e+00
 -2.8749502e+00
  2.5538716e+00
  8.8280910e-01
 -1.0455664e+00
  2.8393683e+00
  4.7513223e-01
  6.8833524e-01
  1.5422271e+00
 -6.4913356e-01
  2.4255840e-01
 -1.6596191e+00
 -6.2192309e-01
 -1.3990403e+00
 -2.2737484e+00
 -3.3955714e-01
 -1.3508908e+00
 -1.0575143e-01
  1.6508991e-01
 -4.6351228e+00
  4.1808408e-02
 -5.2327174e-01
  2.3049547e-03
  1.6465688e-01
 -4.1382017e+00
 -1.9495197e-02
 -2.5495389e-01
 -4.1789106e-01
 -7.1114212e-02
 -1.9826899e+00
  1.9884197e+00
  1.1252641e-01
 -1.5753064e-01
 -1.0261010e+00
 -2.7623388e-01
  1.4626630e-01
  3.5071451e-02
 -3.0068630e-01
  9.9805284e-01
 -1.3148899e+00
 -1.3760337e-01
  1.2090302e+00
 -2.7934569e-01
 -7.7107358e-01
 -1.3342985e+00
 -9.2087102e-01
 -1.2306452e+00
  1.1206096e+00
  3.7732112e+00
 -5.1492393e-01
 -7.0747554e-01
  8.6496204e-02
 -2.3502131e+00
  2.9905662e-01
  3.7401304e-01
 -5.3866917e-01
 -6.5152802e-02
  9.4191444e-01
 -1.7289263e-01
 -4.5607719e+00
  1.5065535e+00
 -4.2964876e-02
 -9.2779197e-02
 -2.1791629e-01
  5.8561248e-01
  7.7504659e-01
  2.3316450e+00
 -5.5035442e-01
  3.3803754e+00
  4.8255086e-02
  4.5715672e-01
  4.4298820e+00
 -3.5228884e-01
  6.5807205e-01
  2.6824517e+00
  1.0475583e-02
 -3.2447547e-02
  1.4957321e+00
  2.9627401e-01
 -1.7366221e+00
 -4.8568015e+00
 -6.1286944e-01
 -6.2264836e-01
 -4.2512813e+00
  8.1137449e-01
 -4.4073854e-02
  6.6804194e-01
  1.4394803e+00
 -2.2502139e+00
 -2.0587349e-01
  1.0078106e+00
  3.3404857e-01
  2.7132386e-01
 -6.3498230e+00
 -6.1712736e-01
 -1.6206650e+00
 -1.6489963e-01
  3.1808424e-01
  1.4176366e-01
 -1.1306206e+00
  6.1007583e-01
  5.5020056e+00
 -1.4044915e+00
 -7.7832079e-01
 -5.3212821e-01
 -5.2608269e-01
 -2.1855145e+00
 -1.5546195e-01
 -2.5377409e+00
  2.0525944e-01
 -1.4122236e-01
  3.0511934e-01
  3.8841411e-01
  6.3762468e-01
  9.3260042e-02
 -1.0386150e+00
 -3.3439271e+00
 -1.6008487e-01
 -5.0287116e-01
  1.4003770e+00
 -8.5730295e+00
 -1.4925519e+00
  1.0706866e+00
  1.6496737e-01
  3.5002649e-01
 -2.3264802e-01
 -5.2161932e-01
 -1.0476087e+00
 -1.1747367e+00
  1.0239104e-01
  7.3563284e-01
 -3.4451109e-01
  4.0574098e-01
 -1.0588402e+00
 -2.7246732e-01
  4.0468145e-02
  4.3417782e-01
  2.1727476e+00
  1.8510121e+00
 -1.9275686e-02
  2.4407630e-01
 -6.8885133e-02
  1.4443797e+00
  1.1613957e-01
 -2.0737410e-01
 -1.5462505e+00
  3.0675857e+00
 -1.7817048e+00
  2.7151232e+00
  5.2215546e-01
  3.3413282e-01
 -1.0060333e-02
 -9.7890191e-02
  1.1368631e+00
  2.1047101e+00
  5.9342737e+00
 -5.3867847e-01
 -2.6819999e+00
  3.8837378e+00
  8.9369506e-01
  4.2676487e+00
 -3.9702022e-01
 -4.3432862e-01
  1.5124258e-01
 -1.0380336e+00
 -1.6585571e+00
  2.0097171e-01
  1.7455299e-01
  3.3721201e+00
  9.1821003e+00
 -8.7735373e-01
 -1.2220100e-01
 -4.5548429e+00
  2.3279145e-01
 -2.2574842e-01
 -6.2452805e-01
 -1.4039205e+00
 -1.2620926e-01
 -7.2224808e-01
  3.2720808e-02
  1.7869096e+00
 -4.4754680e-02
 -3.9266285e-01
 -1.2512206e-01
 -1.5544335e-02
  8.0999023e-01
 -3.8842754e+00
 -1.5401394e+00
 -1.5662728e-01
 -2.1520752e-01
 -1.2161223e+00
  9.3231052e-01
 -2.1338992e-02
  2.2293921e-01
  6.4295977e-01
  3.0759649e+00
 -6.8428040e-01
 -3.0708262e-01
  2.0778584e-01
 -3.4915784e-01
 -1.6033205e-01
 -4.6681803e-01
  3.4299405e+00
  3.3621940e-01
  2.1505582e-01
  2.2083336e-01
 -7.5693771e-02
  3.7438753e+00
  1.2939371e-02
 -4.7151249e-02
  1.8270335e+00
  1.0401678e+00
 -7.5772204e-02
  1.4715141e-01
  1.8353105e+00
  1.6032265e-01
 -3.4499940e-02
 -1.6883148e+00
  1.3664496e-01
  1.3244747e+00
 -1.4466362e-01
  4.4235745e-01
 -3.8387638e-01
 -4.2669764e-01
  2.8808251e-01
 -6.2478107e-01
  1.5823786e+00
 -3.7037461e+00
  2.1043551e-01
  2.7679694e-01
  1.8541185e+00
 -3.0965386e-02
  7.9668814e-01
  5.7084244e-01
 -1.7304997e-01
  3.4419668e-01
  2.3575011e-01
  1.7345854e+00
  2.9660281e-02
  6.4568658e+00
  3.9881976e+00
 -1.4269269e-04
 -1.7861979e-01
  3.6013627e-01
 -5.7290941e-01
 -1.7130591e-01
  5.3103976e-02
  6.4008057e-02
  5.6253153e-01
 -8.2715881e-01
  1.9234040e+00
 -1.5592346e-01
 -1.8255935e+00
 -9.8948169e-01
  2.1873493e-02
  3.2710798e+00
  3.5932079e-02
 -2.1358620e-01
 -2.0458931e-01
  3.4776642e+00
 -2.3612978e+00
  3.5884848e+00
 -3.7791941e+00
 -3.5998046e+00
  2.1413732e-01
 -1.8252988e-01
  1.3105870e+00
 -6.2428653e-01
 -6.2076564e+00
 -1.7845951e+00
  2.7944374e-01
 -7.4020743e-01
 -5.7537880e-02
 -1.1859974e+00
 -1.3227856e+00
 -7.6754433e-01
 -3.8867873e-01
 -1.7065260e+00
 -9.4400328e-01
 -2.1843112e-01
  2.3238599e+00
  1.4949714e+00
 -2.7647689e-01
  8.8335145e-01
 -3.7970693e+00
 -3.6394331e+00
  2.0824659e+00
 -8.0200374e-01
  1.0528507e+00
  3.6208671e-02
  1.2040297e+00
 -2.6999087e+00
  2.3173635e+00
 -3.5405044e-02
 -1.0939533e+00
 -1.4649570e+00
  3.8145335e+00
 -3.8484342e+00
 -3.1653776e+00
  3.5975227e-01
 -8.9000875e-01
  5.6605053e-01
  2.1221207e-01
  1.8886958e-01
  7.6341197e-02
 -4.0136880e-01
  1.4547324e+00
 -9.2215098e-02
  3.9691329e+00
 -5.4093706e-03
  2.6832965e-01
 -2.5483453e-01
  1.1612068e+00
  1.6240254e-01
  3.9644939e-01
  1.3465050e-01
  1.6388962e+00
  4.5073289e-01
 -4.1329563e-01
 -4.0272136e+00
  5.5336599e+00
  3.2578530e+00
 -2.4315740e-01
 -2.0328252e+00
 -4.0156469e+00
 -1.7151487e+00
 -5.8360475e-01
 -4.7443609e+00
  1.2946762e+00
  3.4114914e+00
 -1.5885085e-02
  1.1878865e-01
  9.4464821e-01
 -3.4754288e-01
  4.0762957e-02
 -1.5041867e+00
 -7.0730500e-02
 -9.3314934e+00
  7.1327382e-01
  1.2258404e+00
 -6.9664103e-01
 -1.6989969e-02
 -3.6380258e+00
  1.4806467e+00
 -4.0083462e-01
 -2.3787373e-01
 -6.0547972e-01
  1.1771393e+00
 -3.2452972e+00
  3.3639429e+00
  1.3001105e+00
  5.3336272e+00
  1.9416006e+00
 -2.2573106e-01
  1.5526585e-01
 -8.8315797e-01
 -3.3768847e+00
 -2.9386752e+00
 -8.9790201e-01
  2.2808947e-02
  1.3927552e+00
 -5.9941548e-01
  2.1084619e-01
  3.6434700e+00
  1.5203794e+00
  1.2884403e+00
  9.7026926e-01
  1.0319031e+00
 -1.5135999e-01
 -2.0651475e-01
  9.2968561e-02
  7.4348359e+00
  2.1552499e-02
  1.0292790e+00
  2.1444863e-01
  2.9008853e-01
  3.4881678e-01
  2.8367788e-02
  2.1631641e+00
 -1.6024847e-01
 -3.0879341e-02
 -3.2843249e+00
 -7.8648281e-01
  8.9527529e-01
 -1.3777155e+00
  1.4541133e-01
  9.4558842e-02
  5.2859360e-01
  1.2192534e+00
 -6.4109578e-03
 -1.0117740e-01
  4.1962110e-02
  2.9257836e+00
  2.2644594e+00
 -2.1820521e+00
 -2.7584599e-02
  3.7436599e-05
 -3.8911578e-01
  2.8484526e+00
 -1.5889614e+00
  1.1063267e-02
 -3.4793262e+00
  2.3945560e+00
  5.7577860e-01
  1.0417322e-01
  1.7069866e-01
 -3.1102540e+00
  2.6113522e+00
  3.0796814e+00
 -1.0857819e+01
  6.8577474e-01
  1.6909323e+00
  5.3448743e-01
  2.3158143e+00
  2.1333849e-01
 -9.8924190e-01
  1.0066131e-01
 -6.8091619e-01
  3.7572119e+00
  8.2851589e-01
 -9.2298441e-02
  1.0518550e+00
 -9.1646452e+00
  1.1358494e+01
 -3.1331630e+00
  3.2520862e+00
 -2.0859963e-01
 -6.5805870e-01
  8.6138353e-02
  3.1267518e-01
  2.7902272e-02
 -1.9862905e-01
  7.1198708e-01
  5.0366437e-01
  1.8319796e-01
 -2.0840738e-02
 -5.4965460e-01
 -5.1507396e-01
 -8.2257730e-01
 -1.2841572e+00
 -1.5910646e+00
 -1.6304754e-02
  1.9345019e+00
 -3.3902760e+00
 -4.0161195e-01
  6.8244801e+00
 -6.8003333e-01
 -3.2417715e-01
 -1.4342464e+00
 -8.9877479e-02
  3.0710444e+00
  1.3363569e+00
  3.0262847e+00
 -1.6050997e+00
  2.8402549e-01
 -2.8717890e+00
 -1.8025076e+00
  6.0346121e-01
  3.0037913e-01
  3.2980937e-01
 -5.6676215e-01
 -3.8292947e-01
  1.2511359e+00
 -2.5019738e-01
  2.3081103e-02
 -5.5576196e+00
 -1.6652528e+00
  1.3822722e+00
 -3.0504592e-02
 -2.3436248e-01
 -2.5440538e-01
 -3.5066083e-01
 -2.4496911e-01
  2.3895180e+00
  2.5973362e-01
  1.9090272e-02
 -1.2227970e+00
  3.8979861e-01
 -2.6622202e+00
 -8.2314506e-02
  3.2514734e+00
 -5.9572446e-01
  1.5506917e-01
 -4.6975291e-03
 -1.2872907e+00
 -2.5017031e-02
  4.5194617e-01
  4.2131939e+00
 -5.0617449e-02
 -9.0624279e-01
  4.5999494e+00
  1.6981639e+00
  2.0231500e+00
 -1.7047318e+00
 -4.7825512e-02
 -1.7688993e+00
  1.4066218e-01
 -2.6935437e-01
  2.3081722e+00
 -6.0668999e-01
  1.2827386e+00
 -2.1165296e-01
 -6.6546656e-02
 -8.1072295e-01
  2.6115856e-01
 -7.8051716e-01
 -9.4766569e-01
  2.5054726e-01
 -1.1154635e-01
  4.6962035e-01
 -6.7027164e-01
  2.5873985e+00
 -2.9124424e+00
  6.1263163e-02
  3.1304309e+00
  1.5903203e-01
  9.8907393e-01
 -1.7642865e-01
  1.1805642e+00
  1.0575445e+00
  2.4071522e-01
  1.8674637e-01
 -2.1791944e-01
  1.6216888e+00
  5.9047478e-01
  3.8350730e+00
  1.6468577e-01
 -4.6782160e-01
  3.3380017e-01
 -1.2427253e-01
 -2.2219238e+00
  2.2123246e+00
  2.3989309e-01
 -3.0481460e-02
  2.1317223e-02
  2.5271082e+00
 -1.6625261e-01
 -1.2676955e+00
 -1.4675765e+00
  5.7244980e-01
 -2.8157756e-01
 -5.5251536e+00
  1.2226501e-01
 -3.3401631e-02
 -4.5360035e-01
  3.4772685e+00
  6.7304336e-02
  1.1736635e+00
 -2.8489923e-01
 -7.3118621e-01
  2.2851171e+00
  5.3309190e-01
  7.4475282e-01
 -4.0743569e-01
 -3.4074056e-01
  1.0459508e-01
  1.0254873e-01
  1.1609746e+00
 -2.1200545e+00
  7.7691066e-01
  1.5450932e+00
  4.3888222e-02
  1.3095041e-01
  1.0997672e+00
  8.5406417e-01
 -1.9619998e-02
  2.1967898e-01
  2.8461966e-01
  6.9101870e-01
 -2.3265483e+00
 -2.5453148e+00
  2.9896542e-01
  2.5108302e-01
  1.5776203e+00
 -9.5815909e-01
 -7.6996893e-01
 -1.3882909e+00
  3.1695666e+00
 -7.1720189e-01
 -6.7264853e+00
  3.6125582e-02
 -2.0019400e-01
  6.5287066e-01
 -2.1036792e-01
  2.6247737e+00
 -9.5083106e-01
 -8.1654668e-02
 -1.8680030e-01
 -8.6430871e-01
 -5.1450394e-02
 -4.5715561e+00
 -4.1343309e-02
  1.0270892e+00
 -4.8578078e-01
 -2.8063551e-01
 -4.6869546e-02
  1.8051198e-03
  3.1201011e-01
  9.4881308e-01
  1.2754631e+00
 -1.8119451e-01
 -7.7239931e-01
 -2.3132393e+00
  2.8220591e-01
 -2.6029673e+00
  7.9959279e-01
  6.9014668e-01
 -1.6226377e+00
 -1.8738203e-01
 -9.8206902e-01
  3.0365504e-02
  4.2641756e-01
 -1.0711006e-01
 -2.6739717e+00
 -1.4582653e-02
 -1.7695364e+00
  1.4444003e+00
  1.6935921e-01
  1.1418260e+00
  3.1563957e+00
 -9.6939528e-01
 -2.4964263e+00
 -1.2539007e-01
 -7.0773017e-01
 -9.3272692e-01
  5.6892592e-01
  1.7041761e+00
 -7.2279227e-01
  5.3950844e+00
  5.8045540e+00
 -2.7614892e-01
  2.1930320e-02
  5.4421890e-01
  5.6771100e-01
  7.1521888e+00
 -3.6775586e-01
 -1.7678560e+00
  5.3429335e-01
  1.0743680e+00
 -3.5979513e-02
 -3.7990322e+00
  6.7919843e-02
  1.9621695e+00
 -2.9883531e-01
 -3.9422475e-03
 -5.1450052e+00
  6.3141413e+00
 -1.7132127e+00
  1.1290162e+00
  2.5133903e+00
  2.0230305e-01
  1.8831676e-02
  8.7617850e-01
 -2.6873350e-01
 -3.3191678e-01
  1.0111946e-01
  3.0230610e+00
  2.8091812e+00
  3.0971343e-02
  1.7903271e+00
  1.0174111e+01
 -1.4244034e+00
 -2.3715866e-01
 -2.6605184e+00
  5.3594339e-01
 -1.7405716e+00
 -2.1305633e-01
 -7.5526494e-03
 -4.2803206e+00
  1.3468636e+00
 -1.3603270e+00
  3.4504874e+00
 -1.3063171e+00
 -2.7318480e+00
 -6.3223430e-05
  2.9565935e+00
 -6.5995783e-02
  6.3301943e-02
 -7.5739399e-02
  1.0006654e+00
 -5.0013501e-02
  5.7262164e-01
 -3.0567787e+00
  5.9217036e-02
  5.3001102e-02
  7.0138144e-01
  2.1989455e+00
  2.0805454e+00
  2.0211612e-01
 -4.1253047e+00
 -1.6147092e-01
 -4.5268650e+00
  2.9985277e-02
  6.9147986e-01
  1.5792879e+00
  7.0138919e-01
  8.8952541e-01
  1.1088228e+00
 -4.6242639e-01
 -4.1050237e-02
 -9.4669387e-02
 -1.0155548e-01
  1.4228516e-02
 -1.5208161e-01
  1.4754288e-01
 -5.9634638e-01
  7.0614100e-01
 -1.2252982e+00
  1.0352404e+00
 -2.8474324e+00
  2.0862718e+00
  3.1025364e+00
  6.1334576e-03
 -5.7160330e+00
  2.0275328e+00
 -1.3204193e+00
 -1.6104926e-01
 -3.7589567e+00
  2.4634986e+00
  4.0905129e-02
 -4.8561728e-01
 -1.1329045e+00
  2.0925845e-01
  2.0644875e-01
  1.1087294e-01
  2.3925615e-02
 -1.6382292e-01
 -3.4883159e-01
  2.3170020e-01
 -1.5121959e+00
 -2.2838864e-01
 -4.4171433e+00
 -4.2738593e-01
  4.1130770e-02
  1.6305459e-01
  2.7741620e-01
 -4.7244124e-02
  4.2688994e+00
 -1.4455019e-01
 -1.7198057e+00
  8.7737042e-01
  1.4854956e-01
  1.8360265e+00
 -6.0965538e-02
 -4.4223052e-01
  1.6303161e-01
  3.5626602e+00
  1.5775229e-01
  2.5284667e-02
  8.0977060e-02
  4.9423389e+00
  1.8977261e-01
  6.1504084e-01
  2.2958958e-01
 -3.7914023e-02
 -2.8435305e-01
 -2.3659472e-01
  5.9660685e-01
  2.3887510e+00
 -5.9797603e-01
  3.3276799e-01
  1.2104368e+00
 -2.6800468e+00
 -6.0785279e+00
  3.4042881e+00
  4.0753153e-01
  5.8880508e-02
  9.8411754e-02
 -3.7969081e+00
  3.6230606e-01
 -2.6704922e-01
  1.1099530e-01
 -1.4083858e+00
 -4.3273687e-01
  1.9361799e+00
  9.1779566e-01
 -3.5687804e-01
 -1.6926533e-01
  1.0376590e+00
  2.1966555e+00
  3.3997319e+00
 -7.9845947e-01
 -2.9817539e-01
  7.7956647e-02
 -5.9615672e-01
  2.4718605e-01
  3.9191673e+00
  4.7302980e+00
 -3.6252633e-01
 -1.6512809e+00
  7.0071518e-01
  2.0020327e-02
  1.6961348e-01
 -1.8922237e+00
  9.5552519e-02
 -2.5645096e+00
  4.3087532e-03
 -6.0870081e-01
 -1.5868540e+00
  2.2546363e-01
  2.2629267e-01
  1.9592424e-01
 -5.5098748e-01
  5.1739317e-01
  6.3950980e-01
  3.2360056e-01
  4.6302117e-02
 -3.0561256e-01
 -1.8328144e-01
 -7.1137133e-03
  1.0126588e+00
  4.3040290e+00
 -1.7785358e-01
 -1.7146355e-01
  2.1401068e-02
 -7.3631096e-01
 -9.5659560e-01
  4.4143033e+00
 -6.5318421e-02
  2.5252762e+00
  2.7229829e+00
  1.1633673e-01
  8.0562365e-01
 -6.0187292e-01
  1.8269584e+00
 -1.1901467e-01
  5.4084247e-01
  4.8237267e-01
 -3.0250266e+00
  1.2307678e-01
 -8.1782353e-01
  2.5983450e+00
 -5.4443840e-02
 -7.0275140e+00
 -2.4092501e-01
 -1.8036501e-01
  1.0109296e+00
 -6.9896245e-01
  4.8219543e+00
 -3.3077326e-01
  5.9692383e-01
  7.2428894e-01
 -2.7175367e-01
 -7.3199444e-02
  3.4432821e-02
 -7.1124679e-01
  3.6967283e-01
 -4.4126445e-01
  2.2954628e+00
  2.3155386e+00
 -4.3047915e+00
  2.0964787e+00
 -1.8341987e+00
 -3.0943879e-01
  9.6118040e-02
 -2.5569525e-01
  2.4048904e-01
 -2.3504265e-01
 -2.2149193e+00
 -1.2399889e-01
  9.5226318e-01
  3.3033195e-01
  2.1327481e+00
 -3.1516204e+00
  9.1600668e-01
 -9.1240680e-01
  1.6680143e+00
  3.8417931e+00
  2.3961979e-01
 -9.4913311e+00
  1.7449698e+00
  3.5797146e-01
  1.5809889e-01
  2.1663671e+00
  1.3554166e-01
 -9.7323610e-03
 -1.3703163e+00
 -1.6629364e-02
  9.3632355e+00
  1.2541296e+00
  4.9778998e-01
  1.9613993e+00
 -1.2964809e-01
  3.6600964e+00
 -8.1792170e-01
  1.4170489e+00
 -6.4924484e-01
 -1.5057164e+00
  8.8565034e-01
  4.3434739e+00
  2.5462472e+00
  2.0564933e-01
  4.5667845e-01
  2.8378444e+00
  2.7645507e+00
 -3.8597646e+00
  1.4882401e+00
  1.7832266e+00
  4.6341169e-01
 -3.1777877e-01
  2.7703023e+00
  2.3702402e+00
 -2.0552480e+00
  1.3144524e+00
 -8.2386859e-02
 -5.1862377e-01
