nep4_zbl 2 O Ga 
zbl 1 2
cutoff 6 4 418 127
n_max 8 6
basis_size 12 10
l_max 4 2 1
ANN 100 0
 -1.6519004e-02
 -1.6614189e-04
  1.2557447e-02
  8.6576426e-01
 -1.2577356e+00
 -6.7105621e-02
  4.7983980e+00
  8.1230840e-03
  7.0681751e-02
 -5.0569763e-03
 -7.5392097e-02
  2.3793848e-02
 -2.9378431e-02
  4.3892398e-02
 -4.3155354e-02
  4.5691863e-02
  6.8246839e-03
 -1.5857851e-02
  1.4074388e-02
  2.1761220e-02
 -4.8539236e-02
 -3.7320647e-02
 -2.2189476e-01
 -5.7562251e-02
  1.2245284e-02
  4.3378357e-02
  9.5628828e-02
 -3.0156966e-02
  4.4191279e-02
  1.8805623e-01
 -1.1449416e-02
 -6.3492127e-02
  1.2129164e-01
  5.4583982e-02
  2.1605518e+00
  1.2674432e-02
 -3.4241728e-02
 -2.3127522e-02
  7.1253912e-03
  3.4864363e-01
 -6.0096156e-02
 -1.1930242e-02
  4.4411648e-02
 -8.9466959e-02
 -7.4644290e-02
  3.9207790e-02
  2.0321785e-02
 -1.8644768e-03
  1.0300891e-02
  2.5922272e+00
  7.0532568e-02
 -2.4852669e-01
  2.1245962e-03
 -2.2331941e-01
  2.1206710e-01
 -1.8271845e-02
  2.1120645e-02
 -3.4839876e-02
 -1.8181149e-02
 -6.0456928e-02
  1.0419688e-01
  2.7362211e-02
  1.8962942e-02
  5.9492845e-02
  1.9349447e-02
  8.4442317e-02
  4.6819497e-02
 -2.2492378e+00
 -7.2440125e-02
  2.4278447e-01
  2.9337591e-02
  3.6024079e-02
 -1.6006745e-02
  7.2662614e-02
  1.5379158e-01
 -4.8088793e-02
  1.6349355e-02
  8.1890516e-02
  4.5692299e-02
  1.1841461e-01
  7.3155202e-02
  1.5653597e-02
 -6.3308783e-02
  5.9254043e-02
  1.8083988e-02
  1.9890201e+00
  6.5162651e-02
  9.5758907e-02
 -1.5744770e-02
 -3.8504887e-02
 -5.7443701e-02
  5.9158403e-02
  1.0498067e-03
 -1.6061084e-01
  6.0374815e-02
 -1.1095446e-02
  8.6214021e-03
  2.8156102e-02
  3.3720605e-02
 -5.8877829e-02
 -6.3868284e-02
  9.4157625e-03
 -5.2756591e+00
 -1.9916053e+00
  1.9673514e+00
 -1.2172811e+00
 -3.1332219e+00
 -3.2190683e-01
  3.8070123e+00
 -8.0066687e-01
 -3.1681337e+00
 -1.8061317e+00
 -3.5133483e+00
 -2.8568602e-01
 -1.9461693e+00
  1.2521875e+00
  2.6918298e-01
 -1.3626972e+00
 -9.4820189e-01
  7.4579710e-01
  1.2693363e+00
  2.4628091e+00
  1.2458544e+00
  7.6514626e-01
 -1.9137831e+00
  3.0072379e-01
  7.6832849e-01
  2.3049104e+00
  3.8787919e-01
  1.5365188e-01
  2.6147578e+00
 -1.6406018e+00
  1.6616375e+00
 -9.9769473e-01
  3.0671346e+00
  6.8697107e-01
 -7.9085246e-02
  4.4731420e-01
 -1.3869970e-01
  3.5123141e+00
 -2.0576234e+00
 -1.4953046e-01
 -3.2777529e+00
  8.1845099e-01
  7.3589902e+00
  1.2578598e+00
  7.4540651e-01
  1.2421086e-01
  9.3026467e-02
  4.0323320e-01
  6.5352428e-03
  1.2119378e+00
  1.0629520e+01
 -3.3749148e-02
  1.2399490e-01
 -5.3567573e-02
 -2.6373589e-01
 -1.3688798e-01
  7.9990022e-02
  2.9591173e-02
  1.1686905e-02
 -3.4506444e-02
  5.7567214e-03
  4.0474184e-02
  1.6910404e-02
  7.9191960e-02
 -4.7721770e-02
 -4.6513495e-01
 -3.2701533e-02
 -2.5684990e-02
  2.1051520e-03
  2.0275703e-02
 -1.5759351e+00
  8.4751251e-04
  9.1780853e-03
 -1.0638117e+00
  1.4522102e-02
  4.1918568e-02
  1.3153014e-02
  5.0636269e-02
  2.4090366e-02
 -5.8211423e-02
 -1.3009597e-02
 -4.3078300e-02
  1.9984625e-02
  3.6905776e-03
 -7.7776005e-04
 -4.6692401e-02
 -1.7920966e-03
 -6.0247123e-04
  6.0632870e-02
  5.9484027e-02
 -3.2938786e-02
  1.7711285e-03
 -1.9422099e-02
 -1.2418907e-02
  1.1824981e+00
 -2.3856275e-02
  1.3944132e-02
 -1.9057259e-02
 -3.3999845e-02
  1.2811168e-02
 -1.6317414e-02
 -6.6886783e-02
 -5.7774588e-02
  7.0284873e-02
 -3.7136194e-01
 -2.1249411e-01
 -9.5653310e-02
  5.7327515e-03
 -3.4990128e-02
 -7.8658983e-03
  1.2137953e-01
 -2.6530668e-01
  6.7964479e-02
 -5.5999391e-02
 -3.4203321e-01
  3.9278660e+00
 -6.4520448e-01
  8.4496588e-01
 -5.2836809e-02
 -5.6901939e-02
  5.7002461e-01
 -3.3395942e-02
  4.6120942e-01
 -1.3809072e+00
 -5.0721668e-02
  8.0722377e-02
 -1.5746525e-01
  3.9501352e+00
  1.3116559e+00
 -4.2769706e-01
 -9.3904464e-03
 -2.0483270e+00
 -9.4836384e-01
  4.6022139e-02
  1.8463004e+00
  1.4302485e-01
 -1.6418200e+00
  3.4146208e-01
  6.6757536e-01
  2.2624335e-01
 -6.6735707e-02
  1.1658922e+00
 -6.0735405e-03
 -1.5740254e+00
 -1.1889949e-02
 -1.6778446e+00
 -3.3284459e-02
  4.1014827e-03
 -1.6459959e-02
  2.9965311e-02
  5.5253577e-01
 -1.1431335e+00
 -6.4479029e-01
 -8.0141880e-02
 -2.4860105e-02
 -1.5450980e-01
  9.1647945e-02
  3.7823442e-02
 -6.4905286e-02
 -8.2353512e-03
  3.4980178e-02
 -3.8869075e-02
 -9.1374196e-02
 -9.7211081e-01
  2.3153080e-02
 -3.2695685e-02
  2.2826361e-02
  6.9662905e-03
  1.6085643e-01
  4.1132813e-04
 -1.6347176e-01
 -5.4321259e-02
  2.4486626e-02
 -4.3988667e-02
  3.3205755e-03
  3.7378196e-02
  7.5606239e-01
  1.2773834e-01
  7.4777484e-02
 -6.5143974e-03
  1.4675280e-02
 -4.1549465e-01
  1.0066557e-01
 -1.1742340e-02
 -5.9889879e-02
  9.3312614e-02
 -1.0571475e-01
 -1.5664019e-02
  1.3299513e-01
  2.2837935e-02
  3.2131389e-02
  2.2147383e-01
  1.6372163e-03
  5.6428370e+00
  1.5402699e-03
  3.8369108e-02
 -2.8624770e-03
  1.1084382e-02
 -1.2001245e-02
  1.6803995e-01
 -2.6740385e-02
 -4.2142548e-02
 -1.2785271e-01
 -3.3219904e-02
 -1.4006088e-02
  1.4523711e-02
 -5.6218975e-03
  1.3073201e-01
  1.6629679e-02
 -8.4085494e-02
  8.5585587e-02
 -2.4602229e-02
 -4.0260114e-02
 -3.2335073e-02
  1.7881073e-01
  1.1281461e+00
 -2.4649279e-02
 -4.2515006e-02
  2.8959788e-02
 -2.6963013e-03
  3.0174414e-02
 -8.9479005e-03
  1.8323697e-03
 -1.5688168e-03
  4.4845358e-02
 -6.2595345e-02
 -2.9818965e-02
 -1.1449887e-02
  3.6966894e-02
  1.0387419e-02
 -1.9246411e-02
  2.0083891e-01
 -3.2153133e-02
 -2.9637732e-02
  1.3874988e-01
  1.9719707e-02
 -1.4099616e-03
 -3.8388990e-02
  8.3233761e-03
  4.0838916e-02
  1.3249516e-01
  4.3499645e-02
 -5.1199077e-03
  8.2822554e-02
 -7.3192939e-02
  5.4091564e-03
  3.6890846e-02
  1.8828852e-02
  2.6170172e-02
  3.4026172e-02
 -5.8985366e-03
  1.8057609e-02
 -3.2040009e-01
  1.0754452e-02
 -3.5473336e-02
  3.0680101e-03
 -9.2229974e-03
 -4.2078871e-02
 -2.0916215e-01
 -5.6472756e-02
  2.3924477e-02
  8.1599166e-04
 -1.2784076e-01
 -5.9957994e-04
  1.6495697e-03
  4.9633924e-02
  2.5749443e-02
  5.8018476e-02
 -1.6312378e-02
  2.6787134e-02
  2.0090647e-02
 -3.3056859e-02
 -1.3087065e-02
  2.0075383e-02
  1.0604533e-02
  4.4016927e-02
 -8.4309079e-02
  2.5269689e-02
  4.7589177e-01
  2.0712135e-02
  1.7327858e+00
 -9.6826971e-02
  1.2620445e-02
  2.3884276e-02
 -3.1317148e-02
 -8.1005221e-04
  3.3330046e-02
 -3.6881410e-02
  7.2958685e-02
 -9.1553796e-03
  1.2433985e-02
 -2.2299103e-02
 -1.6478324e-02
  9.9598356e-03
  1.8441433e-02
 -2.7743503e-03
  4.9330359e-03
 -2.0027095e-02
  3.9151828e-03
  1.0619073e-01
  2.5087281e-03
  9.1717718e-03
  1.7449852e-02
  3.9550092e-02
 -1.9574009e-02
  3.9296344e-02
 -2.6233621e+00
  1.2786693e-03
 -2.4018502e-02
  1.6923869e-01
  3.6798086e-02
  4.4910889e-02
  6.4440899e-02
 -1.4763414e+00
  2.3807214e-01
  1.1341198e-02
  3.7396375e-02
  1.5011272e-02
 -2.1503430e-02
  7.1320094e-02
 -1.2937951e-02
  9.5044803e-03
 -1.5446581e-02
  5.5898391e-02
 -1.7522633e-02
 -7.9949452e-03
  2.1817958e-02
 -1.2456818e-02
  8.9822002e-02
  2.2666315e-02
  7.0810118e-03
  2.4796908e-03
  7.8997416e-03
  2.9800231e-02
  1.7489123e-01
  4.7714569e-02
  3.9737811e-03
 -1.8988116e-02
  1.4773725e-02
  2.5900996e-03
  1.5002349e-01
  6.1542429e-02
  1.7372401e-01
  2.9307796e-02
 -1.2019571e-02
 -4.7213379e-02
  2.0682104e-03
  2.3505529e-02
  3.1060634e-02
  7.0518650e-02
  8.8773794e-02
 -4.9543031e-02
 -4.2597141e-02
  2.8840052e-03
 -5.0543915e-02
  7.9503609e-03
  9.5334509e-03
 -1.0275485e-01
 -4.7023747e-02
  2.9836943e+00
  7.0360169e-02
 -2.8536136e-03
 -5.9853983e-01
  8.6082742e-03
 -1.3617829e-03
 -2.5064468e+00
 -2.6202990e-02
 -1.4670622e-02
  1.0063536e-01
  6.3286508e-03
 -3.1719112e-04
  6.0819509e-03
  4.3284010e-02
 -2.4867775e-02
  1.2412647e-01
  7.3779207e-03
  3.1609287e+00
 -4.1417725e-02
 -1.7729631e-02
  4.3989442e-02
  5.2752187e-03
  2.8338531e-01
  5.9253328e-02
  1.6791532e-02
  1.7170209e-02
  5.8715802e-02
  2.9672337e-01
 -3.6758531e-02
  2.7087891e-01
 -2.2672249e-02
 -3.6839560e-02
 -4.4512622e-02
  8.9511491e-04
  7.8105845e-02
  1.3514301e-02
 -3.7356007e-01
  1.4341320e-02
 -2.2952929e-02
  1.3793660e-02
 -2.1074578e-02
 -5.3652968e-02
 -5.7195626e-02
  2.8615918e-02
 -1.6234336e-02
  2.7416555e-02
 -4.8195358e-02
 -1.9286342e-02
  1.3760087e-02
  9.0828210e-01
 -1.5508894e+00
  5.5976663e-02
 -4.0324557e-01
  7.9281527e-01
  1.5861613e+00
  3.8040936e-01
  1.7015913e+00
  3.4768429e+00
  5.2972341e+00
  1.7295511e+00
  1.4952211e+00
  3.6990178e+00
 -6.0798802e+00
 -5.2476472e-01
 -1.4434149e+00
 -1.2694361e+00
 -3.2221956e+00
 -5.3677338e-01
  2.2241213e+00
 -2.3977420e+00
 -3.3073657e+00
  2.3356109e+00
  4.3182173e-01
  1.5629290e+00
  2.2037556e+00
 -3.9441390e+00
  2.1377128e-01
  1.3843355e+00
  2.2076333e-01
 -2.0210114e+00
  3.3440709e+00
  1.9391460e+00
 -6.2701011e-01
 -1.3108404e+00
  6.1663425e-01
 -4.5456448e+00
 -8.0603868e-04
 -6.6050068e-02
  1.0295218e-02
  5.0583970e-02
  1.3266184e-02
  8.7101050e-03
 -1.1503561e+00
 -1.1136872e-02
 -4.4450155e-03
 -9.7756706e-02
  2.2775322e-02
  6.4520850e-03
 -1.5408762e+00
  1.6806120e-02
 -1.4301030e-02
 -2.3829356e-02
 -1.6204952e-01
  2.0543112e-01
 -3.0316508e-04
  3.0347044e-02
  1.9841924e-02
 -7.9067104e-02
  2.7395630e-02
  4.2891562e-02
  3.5441406e-02
 -4.1371267e-02
 -2.8112810e+00
 -6.8212450e-02
  2.0777076e-02
  1.0090243e-01
  1.5496898e+00
  2.4284086e-01
 -3.0064913e-03
  2.9524006e-02
 -5.2058119e-03
  2.7457406e-03
 -3.6184829e-02
  1.0188099e-01
 -3.5155643e-02
  6.2699206e-02
  1.7273175e-02
 -4.2894788e-02
  1.6510940e-01
  6.0484774e-02
 -5.6462396e-02
 -5.9414865e-03
 -4.4992819e-02
  4.5710340e-02
  8.5390590e-02
 -1.1711486e-02
  3.9503805e-02
 -3.6134131e-02
  7.1545251e-02
  5.9627507e-02
 -1.1821733e-02
 -3.1483203e-01
 -5.6508964e-01
 -7.4073493e-02
  1.3870963e-01
 -7.7899374e-02
  7.4248946e-01
  6.8417199e-02
 -2.2839548e-02
 -1.5096891e-02
 -7.8606633e-03
  1.8676935e-02
 -8.2559502e-03
  5.6500912e-01
 -5.7878084e-02
  2.0694382e-01
 -1.0252667e-02
  4.1279584e-02
 -2.3428795e-03
  2.9674331e-02
  1.6455811e-02
 -3.9416708e-02
 -6.7210138e-02
 -7.6821275e-02
 -4.4427954e-02
 -7.4176118e-02
 -4.2393694e+00
  2.0287406e-02
 -2.9953822e-02
 -4.5942254e-02
  7.8204274e-03
 -2.0616439e-01
  8.8724792e-02
 -9.8135984e-03
 -3.9500967e-02
 -6.6317961e-02
  1.8030514e-01
 -5.9392601e-02
 -2.2485305e-02
  5.5585012e-02
  1.4788262e+00
  1.5403766e-02
  4.4802660e-03
  2.1491889e-02
 -9.2934025e-03
  5.2604187e-02
 -2.7003286e+00
 -2.4240053e-01
  1.1556172e-03
  1.3605224e-02
 -1.3358453e-01
 -3.7423132e-03
  1.2618704e-01
 -1.0139641e-02
  6.2462511e-03
 -8.0771288e-03
  3.0071557e+00
  3.4854682e-03
  3.3486087e-02
 -4.9700085e-03
 -6.3348189e-03
  1.5284243e-02
  1.3411659e-01
  5.6298695e+00
 -7.6852095e-01
 -2.2966658e-01
  3.4518037e+00
 -1.5191188e-01
 -1.3502865e-01
 -6.0472498e+00
 -4.5804200e-01
 -2.2040958e+00
  6.0458577e-01
  2.8418036e+00
  5.7173930e-03
  9.5996544e-02
  1.4266505e+00
  3.1302369e+00
  6.8742394e-01
  7.7971980e-02
 -8.8851325e-02
  1.4616780e+00
 -3.8369651e+00
  1.9980889e-02
 -3.3587041e-01
  1.4660052e+00
  1.6202722e+00
  1.6200259e-01
 -3.3589177e+00
 -2.6414411e+00
 -2.5733420e-01
 -5.4523855e-01
 -5.3729713e-01
 -2.5112901e+00
  3.0173676e+00
 -1.4780099e+00
 -4.2002783e+00
  2.7732050e+00
  1.2415676e+00
  9.1287482e-01
  1.6097020e-02
  2.7961617e+00
  3.8426466e-02
  2.0519097e+00
 -2.6708779e+00
 -5.4508358e-01
 -4.2061280e-02
  1.0460227e+00
  1.3269220e-02
  4.3817707e-03
 -2.5788748e+00
 -2.1669960e-01
 -2.3609562e+00
  1.5886897e+00
 -7.6344019e-01
  5.6619185e-01
  2.1667132e+00
  2.6626139e+00
 -4.1670856e+00
  1.6783454e+00
  2.3797185e+00
 -5.6188457e-02
  1.1203195e-02
 -4.2554269e+00
 -8.6661065e-03
  1.0615368e-01
 -2.0324844e-01
  2.9012552e-02
 -8.8461727e-02
 -8.1626219e-01
 -1.8963501e-02
  4.8358989e-01
  7.9175991e-01
  7.5006500e-02
  1.2507181e+00
 -9.7005373e-01
 -1.9153554e+00
  1.1224103e+00
  5.6515348e-01
  1.3574165e+00
 -3.1558591e-01
 -4.7843054e-02
  7.6867026e-01
 -9.5015365e-01
  1.3683753e+00
  8.8730596e-02
  1.5264292e-01
  3.8264621e-02
 -5.4695344e+00
  1.5896553e+00
  3.7294660e-02
  5.1341492e-01
  1.1901243e-01
  2.0200568e-03
 -4.7189713e-02
  3.2984820e-01
  9.6681435e-03
  1.6129987e-03
  1.5060015e-02
  3.5844870e-02
  8.9001376e-03
  4.4057306e-02
  1.0884672e-01
 -1.5719993e-02
  3.4596022e-02
 -1.8252465e-01
  3.7875327e-01
 -3.8364973e-02
 -3.6950349e-03
  1.3581450e+00
  3.4166197e-03
 -1.6975841e-02
  2.3644498e-02
 -6.6190146e-02
 -4.4711447e+00
  5.1883194e-03
 -1.3361976e-01
 -1.1063794e-02
  6.6332690e-02
 -1.1374091e-01
 -3.1407148e-02
  2.2137625e-02
 -1.1580908e-01
  2.1395335e-02
 -1.6211812e+00
 -1.1527673e+00
  2.9911513e-02
 -3.2675717e-02
 -1.1708553e-02
 -1.8699956e-01
 -1.7726587e-01
 -4.1611519e-02
 -3.6256006e-01
 -5.1369797e-02
  2.6459346e-02
  6.2819377e-02
 -5.6515921e-02
  1.0655715e-02
  1.3183544e-02
  1.3194183e-01
  1.7082444e+00
  2.7715305e-02
 -3.7657335e-02
  6.4170291e-03
  4.6165399e-03
 -4.1937519e-02
 -8.5342461e-03
  3.7833955e-02
 -6.3874401e-02
 -2.7022019e-03
 -1.7934246e-02
 -4.4032227e-02
  1.1551118e-02
 -3.1576436e-02
 -1.7163437e-02
  7.0500664e-02
  2.5236333e-02
  2.3310188e-02
 -1.3747057e-01
 -1.6720040e-02
  1.1162885e-01
 -2.7768636e-01
 -5.5804920e-01
 -7.2083667e-02
 -2.1240603e-02
 -3.2340672e-03
  2.1613706e-02
 -2.1253431e-02
  2.6959913e-02
 -5.0067507e-02
 -3.1678226e-02
  5.3935334e-02
 -6.2349699e-02
 -1.1301808e+00
  3.8289495e-02
 -1.6825244e-02
 -9.0051219e-03
  4.7601677e-02
 -3.3026986e-02
 -2.7538046e-02
 -2.1460895e-01
 -5.8695569e-04
  9.8637650e-03
  2.4230545e-02
 -9.6707575e-02
 -1.0665597e-02
  3.3310898e-02
  9.6999202e-03
 -5.1499228e-03
  4.4839870e-02
 -8.6967744e-02
 -4.9336098e-02
  2.1269318e-02
 -2.3362013e-02
 -3.4199074e-02
 -5.9888043e-02
  3.3253424e-02
  2.3041571e-02
 -5.5772990e-02
 -4.5351956e-02
 -2.3475418e-02
  6.6691302e-02
  7.2927312e-03
 -1.2027168e-02
 -8.5408315e-03
 -7.9893805e-02
 -1.1836732e-01
 -4.3264478e-02
 -5.6058783e-02
  2.9977323e-02
 -6.1864681e-05
 -2.1941069e-01
  1.0816985e-01
  5.2641745e-04
  5.5700526e-02
 -1.3379936e-02
  1.6168145e-02
  5.0148857e-03
  9.7650914e-03
  3.9687764e-02
  3.5995424e-02
  1.0247558e-01
 -2.8615976e-02
 -7.9350166e-02
 -5.1865750e-03
 -6.8027914e-02
 -5.5769920e-01
 -1.1368085e-02
  3.3524010e-02
 -2.9966140e-02
  5.5883124e-02
  1.1578609e+00
 -9.7370349e-02
  6.9288909e-02
  2.4480162e-02
  2.2080211e-02
  6.7166656e-02
 -3.1178375e-03
  1.8272955e-02
  1.8255146e-02
  6.5568291e-02
  9.1944225e-02
  7.9208039e-02
 -4.5796069e-03
 -1.6694877e-02
  1.7293591e-02
 -6.0019009e-03
 -9.6510286e-03
 -1.5602028e-01
  7.9541653e-03
  3.9931219e-02
 -2.3641611e-02
  9.4689066e-03
  7.8681923e-02
 -4.2631555e-02
 -1.2840615e-02
  6.7694753e-02
  2.2840006e-02
 -9.9002838e-02
  5.3810268e-03
 -3.9975455e-01
  6.4213082e-02
  3.2242438e-01
  5.2458502e-02
 -9.3149729e-02
  1.0838735e-02
 -1.6474040e-02
  5.3000525e-02
 -7.0083171e-02
 -1.3072146e-02
 -6.2792850e-01
 -1.6739868e-02
 -2.3296355e-01
 -2.9270153e-02
  1.5540391e-01
 -6.5981679e-02
 -9.5978178e-02
  2.0195487e+00
 -6.3568377e-03
 -1.0332072e-01
  5.8114892e-03
 -8.8220634e-02
  1.1002474e-02
  1.2701165e-02
  8.3123948e-03
  5.4397681e-03
 -1.4290839e-02
  6.3499652e-02
 -1.1999283e-02
 -4.0301643e-02
 -1.9835444e-02
 -2.9073051e-01
 -4.3135028e-02
 -1.0583768e-01
 -8.2654236e-03
  1.0045654e-01
 -2.7991386e-02
  3.5854056e-02
  2.1281689e-02
 -1.8442839e-02
 -2.0758908e-02
 -1.0362606e-02
  4.8265029e-02
 -1.8587133e-02
 -7.6805794e-01
  9.2344761e-02
  3.5155222e-02
 -1.1562320e-02
 -1.0980389e-01
 -5.4619384e-01
  2.2484359e-01
 -3.8607916e-01
  2.6161671e-02
 -3.6674503e-02
  8.6466752e-02
  4.6411302e-02
 -5.4636080e-04
 -7.5519614e-02
 -1.2836351e-01
 -4.8429783e-02
  1.7263095e-01
 -3.1713355e-02
  7.4114788e-01
  1.8970816e-01
 -4.4475719e-03
 -3.1139236e-02
  7.8705614e-03
  3.6299232e-02
  1.2300995e-02
 -2.3375198e-02
 -9.9238515e-02
  1.0016450e-01
 -3.1019572e-02
 -1.3844040e-01
 -2.1987800e-02
 -3.3601295e-02
 -9.6523501e-02
 -6.5716222e-02
  1.4853766e-02
  5.4265935e-02
 -9.7324373e-03
  1.2366798e-02
 -2.0722341e-02
 -1.8931352e-01
  1.6717035e-03
  6.1446559e-01
  5.0099704e-02
  2.2694681e+00
 -1.6934153e-02
 -7.1295649e-03
  4.3212152e-03
  1.8099316e-03
  7.9907039e-03
 -1.6537094e-02
 -8.2570249e-03
 -4.2187376e-03
  8.4806249e-02
 -7.1305089e-02
 -4.6928357e-02
  7.2833799e-02
  1.1094964e-01
  6.5323591e-01
 -2.0636575e-02
 -5.8643270e-02
  1.6540216e-01
 -4.3967448e-02
  2.0620406e-02
  6.5147117e-02
  1.0364360e+00
  1.8874879e-01
 -9.3884682e-03
  4.9356852e-02
  1.3276640e+00
 -5.6624431e-02
 -6.3536507e-03
 -3.5533814e-03
  2.0866495e-01
  7.5573316e-03
  1.6821705e-02
 -1.4772419e+00
  4.1559625e-02
  6.7864902e-02
 -5.3262129e-02
 -2.1439651e-02
 -4.7709625e-03
  3.7684083e-02
 -8.0377132e-01
 -2.5741696e-02
  2.8773347e-02
  6.6660352e-02
 -3.0782185e-03
  3.5410689e-03
 -6.8574846e-03
 -1.5717495e-02
 -1.9244069e+00
 -1.6342875e-02
  8.3721220e-02
  1.1182252e-01
  2.6926434e-02
  5.2307979e-03
 -1.2772490e+00
 -8.2191966e-02
  3.6141582e-02
 -4.6627276e-02
  5.4165877e-02
 -1.7158242e-02
 -4.4101533e-03
 -1.4425538e-01
 -1.3712986e-01
 -2.3902602e-02
  2.3654608e-02
  4.4266194e-02
 -2.4280505e-02
  1.4621563e-01
 -4.0704766e-03
  3.3786792e-02
  2.1628195e-02
  1.1117235e-02
 -3.9566876e-03
 -5.1606547e-02
  1.8562485e-02
 -5.4992130e-03
  4.1551724e-01
  1.8595519e-02
  1.0191593e-02
 -2.5744550e-02
  5.1044398e-03
 -2.3782706e-02
 -5.8336154e-02
  8.3151616e-02
  5.9689659e-01
 -8.8489447e-03
  1.4296322e-02
 -5.1306803e-03
 -6.3276314e-03
  3.9561051e-03
 -5.0530639e-02
 -3.1460009e-03
  7.0329517e-02
  6.1256725e-02
 -3.6376039e-03
 -4.8213843e-02
 -1.7286189e-02
 -5.7345327e-02
 -7.1655408e-02
 -6.4853215e-01
  4.9923770e-02
 -1.5943984e-02
 -2.5626888e-02
 -1.2589198e-02
 -7.0775546e-02
  2.6803443e-02
 -4.5652976e-03
  4.3188103e-02
 -1.5648521e-02
  3.4534611e-02
  1.4501414e-02
  5.5411831e-02
  7.0925139e-02
  4.8654783e-03
  1.9547444e-02
 -1.1831184e-04
  1.2891048e+00
  5.9030410e-02
 -3.1297872e+00
  2.3427428e-01
  1.1337628e-02
 -3.9494313e-02
 -4.7146253e-02
 -1.9087112e-02
  4.9327046e-01
  2.2769096e-01
 -7.2699690e-01
  1.6377572e+00
 -2.2441359e+00
 -2.7535811e-01
 -3.1709001e+00
  2.8953063e+00
 -1.2103367e-02
 -1.3020517e-02
 -3.5578203e-01
  3.4519541e-01
  1.7486600e+00
  3.4180286e+00
  2.3186686e+00
 -2.3907987e-02
  2.3269842e+00
  1.1042576e-02
 -1.8790901e+00
 -4.8333600e-02
  1.8370923e+00
  2.3881245e-02
 -3.0423861e+00
 -1.3792670e+00
 -5.9195179e-01
 -3.2944924e-01
 -1.5624130e+00
  2.3902383e+00
  1.7410408e-03
 -7.9443675e-01
  4.4696096e-02
  1.1406933e-02
 -1.7994169e-02
  2.9329002e-02
 -1.7109286e-02
 -2.2052987e-01
 -3.7284375e-03
 -1.0161806e-02
 -1.1910007e-01
 -1.6932448e-02
 -2.2751592e-02
 -5.4719891e-02
 -2.5202226e-02
  5.9098899e-02
  2.1591794e-03
 -7.9049468e-02
  4.3227248e-02
  3.0436838e-01
 -1.1941829e-01
  1.5837857e-02
 -5.0155200e-02
 -4.4217077e-03
  2.2889199e-02
  5.7197992e-02
  2.7667439e-02
 -1.6251441e-02
 -3.5479378e-02
  2.1404224e-02
  6.1268900e-02
  3.7482500e-03
 -8.5656258e-04
  1.0319734e-01
 -2.2709534e-02
  2.2372562e-03
 -6.3050345e-02
 -1.9235004e-01
  1.2270394e-02
  5.6371093e-02
  1.1172349e-03
  1.7438480e+00
 -3.9509885e-02
 -5.8825827e-01
 -3.4651693e-02
 -2.5385894e-02
  6.6626497e-04
 -3.4309372e-02
 -6.2945090e-02
 -1.0337120e-01
 -7.4314304e-02
 -7.1510132e-03
  6.6846758e-03
  3.2736592e-02
  1.0543875e-01
 -9.1794811e-02
 -4.7309626e-02
  1.2434031e-02
  3.5984892e-02
 -1.7207263e-02
 -4.3107040e-02
  1.1268473e-01
 -2.9807396e-02
  2.6087331e-02
 -2.8051240e-02
 -1.1956089e-01
  4.1988921e-01
 -3.5021928e-01
  1.6759011e-01
 -1.2642372e-02
 -1.3117480e-01
 -5.3973170e-03
  1.6896153e-02
 -2.6604256e-01
  8.1379808e-02
  1.9314859e-02
  1.5425744e-02
  2.8358711e-02
  1.7606322e-01
  6.6714853e-02
  1.1091965e-02
  4.9683429e-02
  8.2426853e-03
  2.2548323e-02
  2.2822434e-02
 -1.8349782e+00
  2.0705585e+00
 -2.4373511e-02
 -1.8842876e-02
 -4.3369285e-04
 -9.3880026e-03
  2.5421144e-02
 -8.4613752e-01
  1.3151205e-02
  5.0750971e-01
 -1.1132647e+00
 -1.1452919e-02
  8.0347769e-02
  9.4814450e-02
  2.9293460e-01
  2.5132580e+00
 -3.1092484e-02
 -3.2070097e-02
  4.5404010e-02
  6.3491650e-03
 -1.4792480e-02
  1.1289535e-01
  3.5846367e-02
  8.4013361e-03
  2.5325641e-02
  4.8823539e-02
  1.6039671e-02
 -4.2545807e-01
  1.3884086e-03
  7.7779880e-03
  2.5410380e-02
 -5.1756155e-01
 -4.1889071e+00
 -1.1493901e+00
 -7.0590031e-01
  7.5913239e-03
  4.4552952e-02
  1.1095891e-01
  2.4327090e-01
 -2.0588575e-01
 -5.7590534e-03
 -3.2929733e-02
 -4.2295869e-02
  7.0349231e-02
  2.8695750e+00
 -9.4856717e-02
  1.4770033e-02
  7.0997566e-02
 -1.3480629e-02
 -7.5924225e-02
 -5.7570919e-02
  1.6949907e-02
  6.5272264e-02
 -5.0322965e-02
 -3.5043519e-02
  4.4718125e-01
  1.9149414e-01
  8.4020190e-02
  5.8208339e-02
 -8.2021886e-03
  1.1984581e-01
  2.7453087e-02
 -6.1204636e-01
  1.6850751e-02
 -1.7433450e-02
 -3.2867528e-02
 -1.3437255e-02
  4.0028948e-02
 -6.8851002e-03
  1.0775525e-02
 -1.6656069e+00
 -1.8870967e-02
 -4.5160975e-02
 -8.1387840e-02
 -3.2346535e-02
 -8.8381112e-02
  6.1953485e-02
 -2.9609735e+00
  1.0401540e-02
  3.5979282e-02
 -2.0788601e-02
  4.0508069e-02
 -4.7968235e-03
  4.6402227e-02
 -2.5773617e-02
  1.6455950e-01
 -1.0826189e-01
 -5.9968090e-01
  8.1642248e-02
 -6.0398836e-02
 -4.9006976e-02
 -2.4376186e-02
  3.5239898e-02
  3.9168783e-02
  3.9191179e-02
 -1.7891515e+00
  2.1517135e-02
  1.3672589e-01
  7.2488144e-02
  1.4515212e-02
 -5.4717813e-02
 -2.7302952e-02
 -1.5636049e-03
 -5.5792171e-04
 -1.7801108e-02
  1.1534131e-01
  4.7192007e-02
 -3.3106096e-02
 -2.0383473e-02
  1.1712558e-01
  1.7594492e-02
  1.7436497e-01
 -3.6696538e-02
  5.5388663e-02
  1.6661964e-02
 -2.7392639e-02
  7.4250519e-02
  7.6367916e-03
  1.3683882e-01
  7.5389291e-03
 -5.7480782e-01
  2.8380629e-02
  9.7313011e-01
  2.0176463e-01
  9.3896277e-03
  1.4515381e-02
 -4.1052245e-02
 -9.6845971e-03
  6.9424780e-03
  2.0487621e-01
 -1.9051464e-02
  1.2674960e-02
  9.8627144e-03
 -1.0643974e-02
  3.7083358e-02
  2.3221252e-02
  4.2488342e-03
 -3.0636717e-02
  1.0208741e-02
  1.0418387e-02
  6.9777153e-02
  2.9791586e-02
  2.7641956e-02
  1.5070216e-02
 -1.2973338e-01
  1.0870606e-01
  2.8090659e-01
  2.1901929e+00
 -3.8529892e-02
  1.3232527e+00
  7.5881295e-03
 -2.1171542e-02
  7.3827639e-02
  1.1014475e-02
  4.0482569e-02
 -6.3903734e-02
  8.1680879e-02
 -1.8792026e-02
 -5.7982467e-02
 -1.8012159e-03
 -2.9473213e-02
  3.2079205e-02
 -1.2009954e-01
  2.2834266e-02
  2.0251917e-02
  5.3037778e-02
 -3.1673491e-02
 -3.2071915e-02
 -2.6938837e-02
  1.4979232e-02
 -8.0877136e-05
  5.1967893e-02
  2.5017951e+00
 -4.4489153e-02
  3.5835925e-02
  8.6573325e-03
 -4.6777176e-03
  9.6497625e-01
 -9.7002912e-01
  1.9274754e-02
 -2.9155223e-02
 -8.0846772e-02
  9.3443217e-03
 -2.7968332e-02
 -3.8252473e-02
 -3.4164198e-02
 -1.1787600e-01
 -3.0495745e-01
 -5.4097049e-02
  1.5037178e-02
  5.8451138e-02
  1.2513641e+00
 -5.9018597e-02
  5.0289369e+00
  6.3839532e-02
  2.3928037e+00
 -6.0799491e-01
 -3.4753239e+00
  4.5428100e-01
 -6.0363035e+00
 -7.6823336e-01
 -8.6530596e-02
  1.3532252e-03
  4.2530514e-02
  2.3218339e-04
  7.2096667e-04
 -1.6327951e+00
 -7.3153591e-01
  3.6730956e-02
  1.7911093e+00
  1.2528586e+00
  3.0240661e-01
 -1.9955207e-01
  1.1892307e+00
 -2.5606301e-01
  5.3174771e-02
 -9.9894565e-01
 -2.1183894e+00
  1.3965150e+00
  1.7758920e+00
  3.1823595e+00
 -2.3475784e-01
  3.3058032e-02
  6.6805616e-02
 -4.0193748e-02
 -6.0720835e-02
  9.6776330e-01
  3.2922935e-01
 -2.8720548e+00
  2.9891400e+00
 -4.3191835e-02
  1.3039944e-02
  3.2887173e+00
  1.7295897e+00
  2.8992038e+00
 -1.2674604e-01
 -1.0133124e-02
  1.7714660e+00
 -1.0389088e-01
  5.2781105e-02
 -8.8710010e-01
  2.6951609e-02
  1.9381653e-01
 -1.8388526e-01
  1.5185099e-03
  6.4781666e-02
 -2.0319669e-02
 -4.4590585e-02
  1.0794396e-01
  2.2068129e-05
 -1.3961993e+00
 -7.0387982e-02
 -3.2900319e-01
  6.3857235e-02
  1.4003036e+00
 -2.9396655e-03
  2.8727280e-02
 -7.1063857e-03
 -1.2361901e-02
 -2.4947640e-03
  2.8649783e-02
  7.9074621e-02
  2.1650805e-01
  3.2938200e-01
  5.2359056e-01
  3.8105366e-03
 -2.8057473e-03
 -7.2750613e-02
  1.7796314e-01
  2.0254513e-02
  8.5712299e-02
  4.3625450e-01
 -3.3277325e-02
  8.4341727e-02
  7.3476654e-01
  1.7787877e-02
  1.3105949e-02
 -7.1192384e-02
 -5.2668344e-02
  4.3427248e-02
  1.3236904e-02
  6.4569473e-01
 -1.0538495e-02
 -2.8476069e-02
 -2.1270605e-02
 -4.6505764e-02
 -2.7744930e-02
  3.2863764e-03
  2.1535761e-03
  1.1619644e-01
 -1.3881922e-02
 -4.4624150e-02
  2.9374316e-02
 -2.2806520e+00
 -5.1168068e-03
 -7.9872444e-02
 -1.4219954e-02
 -3.5902990e-03
  1.7465305e-02
 -3.8935111e-03
 -3.1319413e-02
  3.9465215e-02
 -3.9906390e-02
 -3.2062970e-02
 -1.0749332e-02
  1.3550426e-02
  7.9668321e-02
  9.2173629e-02
 -8.5779093e-02
  6.1481341e-04
 -1.2542453e-01
 -5.3961240e-02
  5.3823423e-03
  1.7082551e-02
  4.0243439e-02
  4.9892403e-02
  3.8166232e-02
  1.7004490e-02
  1.4073756e-01
  1.0344700e+00
 -4.9438030e-03
 -1.5595444e-01
  5.5491548e-02
  2.1937359e-02
  7.7282473e-02
  2.4561142e-03
 -7.3262610e-02
  3.2686070e-02
  1.8869014e-02
  1.8394180e-03
  3.7472266e-01
 -7.1897112e-02
 -4.4481799e-02
  3.0608747e-02
 -1.0089426e-01
  8.8467404e-02
  3.7222314e-03
  6.7823313e-02
 -2.8725404e-02
 -4.8071016e-02
  1.1814327e-01
  1.2871447e-02
 -1.1114376e-01
  1.2840319e-01
 -4.2793341e-03
  9.9909812e-02
 -3.3455840e-03
 -3.5912000e-02
  7.2066493e-02
  4.3378461e-02
  2.4452002e-03
  3.5513103e-02
  2.7905721e-02
 -3.4206051e-02
 -2.9431431e-02
  5.2878376e-02
 -1.6670526e-03
  6.1478950e-02
 -1.9475006e-02
  2.1840066e-02
 -9.1291601e-03
  1.1668050e-02
  4.1188031e-02
 -2.0919905e+00
  1.3019404e-01
  2.2019776e-02
  7.3422710e-03
  8.3339594e-02
 -5.0421916e-02
  9.7240154e-03
 -1.1391127e-02
  2.3761880e-02
 -2.2944173e-02
  2.9271539e-02
  1.1064681e-01
  9.7163375e-03
  3.9435573e-02
 -5.2514315e-02
  6.0542864e-03
 -8.2739100e-02
 -1.4052343e-03
  5.3744689e-02
 -1.8916835e-01
 -5.2599190e-03
  1.0361555e-02
 -3.6693700e-02
  2.9667290e-02
  2.5916098e-02
 -7.5255662e-02
  1.5980004e-01
  3.5236534e-02
 -2.4845246e-02
  4.8836865e-02
  3.6577988e-01
 -8.3100341e-02
 -6.5361575e-04
  1.9978215e+00
 -2.3370925e-02
 -7.4615791e-03
  3.1458680e-02
 -7.7107642e-03
 -1.6591854e-01
 -6.5403722e-02
 -2.2781717e-02
 -6.7507587e-02
 -2.3093006e-02
 -3.2553047e-02
  3.6665648e-02
 -4.9163690e-03
 -4.4509616e-02
 -6.7382865e-02
  7.1314499e-02
  1.0173825e-02
  2.5886504e-02
 -1.1305996e-01
 -1.8245364e-04
  8.4927661e-04
 -6.3625413e-01
  2.5176410e-02
  1.2710068e+00
 -1.1460426e-01
 -3.4509659e-02
  5.1516928e-03
 -1.0952063e-01
 -7.8182705e-03
  7.4270055e-02
  1.5088487e-02
 -4.7454465e-02
  3.2794364e-02
  2.1611500e+00
 -5.5005768e-04
 -3.1395566e-02
 -6.5643296e-02
 -4.2742088e-02
  1.7961923e-02
  8.7411076e-02
 -7.5374893e-03
 -5.7894923e-03
  3.8192865e-02
  1.6998604e-02
 -1.0252683e-01
 -2.0563699e-01
  8.6761296e-01
 -2.3507500e-02
  1.2591523e+00
 -5.3434011e-02
 -1.7399417e-03
  1.2196865e-02
 -5.2398369e-02
 -7.8293845e-02
  8.0379717e-02
 -9.9181477e-03
  6.2710294e-03
  1.4294646e-02
 -3.0580349e-02
  1.2714025e-01
 -2.3709882e-02
  1.4933114e-02
  1.2083654e-02
 -7.8914297e-01
  1.9293410e-01
 -9.8050218e-03
 -1.3800034e-02
 -2.9650820e-02
  1.9153948e-01
  1.3323195e-02
 -5.8927651e-02
  2.9824123e-02
  3.9098486e-01
  4.3651909e-03
 -1.6886126e-02
  4.0093947e-02
 -1.3626367e-02
  1.0187590e-02
  2.6697987e-01
 -1.9221636e-02
  2.0890615e+00
 -3.5998110e-02
  2.8485661e-02
 -4.7357455e-01
  1.0119002e-01
 -1.1905662e-02
  1.0541942e-01
  4.6630379e-02
  1.6906643e-02
 -1.4296015e-01
  8.0513218e-03
  2.5400441e-02
 -3.4123581e-02
 -1.0152242e-02
  2.5713975e+00
 -5.9573345e+00
  2.1467909e-01
  2.4625319e-01
 -2.3212571e+00
 -8.1311399e-01
  1.8535470e+00
 -5.9017863e+00
  4.0058863e-01
  3.8103062e-01
 -2.2120216e+00
 -1.3476945e+00
  4.7085567e+00
 -1.5156868e+00
 -5.1117953e-02
 -2.8358243e+00
  9.6939051e-01
  1.2488693e+00
 -2.6925745e+00
  2.9038608e-02
 -1.8338346e+00
  1.7291361e+00
 -5.9976254e+00
 -8.9886117e-01
 -9.2813337e-01
 -4.5577794e-01
 -9.0016472e-01
 -1.1091734e+00
 -2.1295638e+00
 -2.6225004e+00
  1.6378491e+00
 -2.8362918e-01
 -7.0132679e-01
 -2.5728788e+00
  2.0180819e+00
  4.4059244e-01
 -1.6760533e+00
  3.3775752e+00
  4.4380739e-01
 -1.2469768e-01
 -4.0936850e-02
  1.1386452e+00
 -1.7017183e+00
  8.2238209e-01
  1.9202311e-02
  9.3885027e-03
  4.6452675e-02
 -2.1391906e-02
  7.3212280e+00
  4.4278551e-02
  6.5600252e-01
  1.3580142e+00
  4.7381178e-02
 -9.1909164e-01
  1.1568856e-04
  1.4089736e+00
  7.6807104e-02
  5.1180738e-01
 -1.0095865e-01
  8.3528733e-01
  1.9930903e+00
  7.3866732e-03
  5.3126208e-02
  3.8007997e-02
  1.1028613e+00
  1.8836109e-02
  1.2901013e+00
  1.1146323e-01
 -1.4076145e-01
  1.6752176e-01
  4.0162238e-01
  5.3968626e-01
  1.0974880e+00
 -3.0862947e+00
 -2.0743287e-01
 -9.0874588e-01
  6.4224951e-02
 -6.0850456e-02
  6.0121500e-01
  1.3122848e+00
  1.7023340e-01
  1.7854989e-02
 -4.4710085e-01
  1.0388188e-02
 -3.7599515e-02
  1.4899346e-01
 -1.5285839e+00
  2.4992800e+00
  7.0434488e-02
 -1.9448830e-02
 -1.5966784e-02
 -7.2477557e-02
  7.4583841e-03
 -1.7674118e-02
  1.5293980e+00
 -1.7704238e-01
  3.5112295e+00
 -4.1250806e-02
 -6.4650397e-03
 -5.8676764e-02
 -8.5659817e-02
 -2.0743484e-02
 -1.4806784e+00
 -5.9385795e-02
 -3.7221549e+00
  3.2344146e+00
 -5.1977601e+00
  4.3564930e+00
 -6.3630110e-01
  3.1815846e+00
  2.5654331e-01
  1.2142164e+00
  4.3078251e-02
  5.1581311e+00
 -2.0082876e-02
 -1.1453561e+00
 -7.9352841e-02
  4.4642444e+00
  1.2689619e-01
  3.0246481e-02
  2.3215964e+00
  2.1988378e+00
 -1.0555569e+00
  1.5169524e-01
  3.0689576e+00
 -1.8266701e+00
 -7.6557040e-01
  3.5162423e+00
  1.8949811e+00
 -2.1137528e+00
  4.0803930e-01
  9.3651199e-01
 -9.5266074e-01
 -6.4347763e+00
 -1.8043848e+00
  2.2102666e+00
 -1.0756128e+00
  1.7754729e+00
  9.4128692e-01
  1.8253455e-02
 -6.8107642e-02
 -1.3390186e-01
  5.1302165e-02
 -2.0277140e+00
 -2.3536257e-02
 -2.6859589e+00
 -3.6331039e-02
  4.1301075e-02
  3.4249246e-02
  1.5117678e-02
 -3.9334121e+00
 -3.5799441e+00
 -4.6560616e+00
  1.4524877e+00
 -2.9879717e-02
 -3.9306823e-02
  5.3823691e-02
  1.2281931e-01
 -1.5554871e-01
 -3.6560133e-02
 -7.7379443e-02
 -3.8672302e-02
 -4.4826188e+00
 -6.6961013e-02
 -7.2970060e-03
 -6.3578308e-02
  9.9540107e-02
  2.3032086e-02
 -4.2513721e-03
 -7.6691613e-02
 -2.2551259e-02
  3.5757180e-02
 -1.8954036e-01
  3.9706495e-02
 -1.0156195e-02
  2.5919938e-02
  8.0071263e-02
 -8.7536901e-02
  5.0451331e-02
  1.2796682e-01
  1.8869175e-02
  3.9193045e-02
 -1.5052874e-02
  2.9884867e-02
  3.5678945e-02
  2.0564044e-02
  1.2975548e-01
 -1.4508426e+00
 -1.0900345e-02
  6.5648608e-02
  7.7682763e-02
  8.1538521e-03
  2.8231040e-02
  5.2651757e-01
 -3.8976662e-02
  1.4511284e-01
  7.0009124e-03
 -6.4027473e-02
  8.8061491e-04
  3.9906763e-02
 -1.5159312e-02
  7.4370968e-05
  1.2229408e-01
  1.3481690e-02
  3.8109537e-02
  5.1345509e-01
 -2.4541964e-01
  5.9893250e-01
  6.7510331e-01
  7.8090560e-01
  2.4679725e+00
  2.7142733e-01
 -2.8527591e+00
 -1.0431218e+00
 -6.0712857e+00
 -2.9972894e+00
 -2.3317156e+00
  3.0330378e-01
  1.1625394e+00
 -1.3098993e+00
 -2.4962740e-02
  5.9031564e-01
 -4.9714348e-01
  2.6099980e+00
 -2.0123603e+00
  6.1428535e-01
 -8.4450796e-02
  2.1740804e+00
  1.9236562e-01
 -1.2919770e+00
  3.1195285e+00
 -3.0620968e-01
 -1.8033808e-01
 -2.2943544e+00
 -1.3483729e+00
  1.4539255e+00
 -1.3127205e+00
 -5.3396177e-02
 -1.7728929e-01
  3.6800596e-01
 -1.0735862e+00
 -2.3110290e+00
  1.2346828e-01
  1.9201881e-01
  5.6894109e-02
 -1.0772736e+00
  1.0691550e-01
 -1.6585851e+00
  1.1380877e+00
  1.3380443e-01
  3.2420421e-01
 -8.0355303e-03
  1.6291060e+00
 -6.9392473e-02
  5.7524514e+00
  7.7403956e-03
 -4.0008005e-02
 -8.5292526e-02
  3.1138897e-02
  3.7383571e-02
 -1.1412809e-01
  6.5619610e-02
 -1.2841626e+00
 -1.4650377e-02
 -3.6444046e-02
 -1.9577743e-02
 -9.2131803e-03
 -1.3964964e-01
 -5.2727796e-02
  1.0647204e+00
  2.4321108e+00
  3.9634056e-02
 -1.2653634e-01
  2.3972550e-02
 -3.5890114e-01
  5.2172724e-02
  4.6031389e-02
 -4.8401933e-02
  1.3615725e-02
  2.0715132e-01
  5.2292809e-02
 -2.2075115e-02
  2.6078472e-01
  1.2397974e-04
  2.1877488e-02
  4.5068033e-02
  4.8743974e-02
  1.1250349e-02
 -1.8231001e-02
  6.3338868e-02
  6.8619200e-03
 -4.0388204e-02
  4.4420764e-02
 -3.4806956e-02
  7.9746004e-03
 -4.1096028e-02
  4.0629957e-02
  4.0257475e-03
 -2.5987983e-02
 -3.8498600e-03
 -1.0756563e-02
  5.4982927e-02
  1.5609774e-02
 -1.9145031e-03
 -1.0522365e-02
 -5.8857221e-03
 -1.1179180e-01
  5.0746728e-02
 -2.7529877e-01
  2.2788486e+00
 -7.3255673e-03
 -8.2220666e-02
 -1.1779354e-02
  7.8590162e-02
 -1.1722951e+00
  2.6800106e-03
  3.7227679e-02
  4.9621402e-04
 -4.9289437e-03
 -6.6434741e-02
  1.6634360e-02
  2.7114558e-03
 -6.0100161e-02
 -3.8628653e-02
 -2.5640033e-02
 -1.7448831e-02
 -1.8128080e-02
  8.4397799e-01
 -1.3200432e-01
 -5.8967303e-02
  1.8677892e-02
  4.1986961e-02
  1.7733276e-02
  2.5454623e-01
 -2.1772720e-02
  1.2868629e+00
 -2.5929680e-02
 -1.8770289e-02
 -1.6898206e-01
  5.2103378e-02
 -6.9625534e-02
  3.1217653e-02
 -5.7142796e-03
  1.1232157e-01
  3.7815031e-02
  1.3033518e-02
 -3.7716825e-02
 -4.3191545e-02
 -1.9176008e-02
 -2.1550795e-02
 -1.1686992e-02
 -8.1436656e-02
 -9.8552063e-02
  3.3262546e+00
 -1.1891711e-01
  4.7179658e-02
 -4.4294629e-02
 -8.1385916e-01
 -9.7893015e-02
 -7.6333684e-01
  1.1548083e+00
 -2.3353059e-02
 -2.5883695e-01
  7.2871536e-02
  8.9934474e-01
 -5.7189427e-02
  1.3892698e+00
 -4.7491834e-01
 -1.6270708e-01
  1.1832280e-01
 -2.3562326e+00
 -1.1833845e+00
 -2.0755417e+00
 -8.6157870e-01
 -2.9839215e-01
 -5.2029591e-02
 -1.0568951e+00
 -3.1743711e-01
  2.1493678e+00
 -8.3843589e-02
  2.2092602e+00
  4.0778771e-01
  1.9363970e+00
  4.4555008e-01
  4.0361018e+00
  1.6499850e+00
  8.9663571e-01
 -3.2435989e+00
  6.2324923e-01
  6.1444068e-01
 -1.4124466e-01
  9.7059011e-01
 -3.6118606e-01
 -2.2344885e+00
  1.3110739e+00
 -7.1380220e-02
  1.4232919e+00
  3.7877062e-01
 -7.8467624e-03
  1.8471233e+00
  2.8969443e+00
  1.0741547e-02
 -3.9229989e-02
  1.2696534e-01
  4.4723996e-03
 -4.1852671e-01
 -2.6434951e+00
 -2.6453105e-01
 -2.5334263e-02
 -3.2965243e-02
  2.6196482e-02
  1.6976828e-02
  2.7010900e-03
  1.0994659e-02
 -1.2686888e+00
 -5.2581593e-02
 -1.3420630e-03
 -2.0143114e-02
  3.0607926e-02
  4.8959438e-02
 -8.8778757e-02
  4.9556863e-02
  1.0622230e-01
  5.8808993e-03
  1.3231059e-02
 -1.5727883e-02
  3.2138426e-02
  4.4517256e-03
 -1.8663261e-02
 -5.3553388e-02
 -3.1965572e-01
  9.2983739e-03
 -5.8187913e-02
 -1.6389240e-02
 -5.4608095e-02
  7.9644797e-03
 -6.5238602e-02
  1.1998999e-03
 -6.5700165e-03
  9.2763752e-01
  3.2834478e-02
  3.1714686e-03
 -5.5710550e-02
 -2.6619516e-02
 -5.4370079e-02
  1.8962644e-02
  2.4004085e-02
 -8.1620976e-02
 -1.3914828e-02
  7.2941191e-02
 -1.3384135e-01
 -3.7515670e-02
 -3.2044947e-02
 -4.4601681e-03
 -5.6201372e-02
  4.4857911e-03
 -1.3330334e-02
 -7.9080826e-03
 -7.1618892e-03
  7.3075019e-02
  1.2608959e-02
  7.2542030e-01
  3.5648140e-01
  3.1266555e-02
 -7.1832143e-02
  3.9448485e-02
  8.6316116e-02
  3.3980649e-02
 -6.0940189e-03
  1.0991851e-01
 -3.1301238e-02
  4.5037821e-01
  2.3117021e-01
  2.6365232e-02
  6.1663155e-02
 -6.3282998e-05
  8.0122463e-03
  6.5068930e-02
  1.0690022e-02
 -1.7200173e+00
  2.8540626e-01
 -1.6545458e-02
 -2.1377765e-02
 -3.3963155e-02
  3.0873783e-02
 -6.3712448e-02
 -3.9726492e-02
  5.4404933e-02
  8.4093571e-02
 -4.2927442e-03
 -5.4690908e-03
  4.9701080e-02
 -2.5649075e-03
  7.9204790e-02
 -2.4262870e-02
  1.9124652e-01
  1.6490489e-02
  1.4621769e-02
 -3.4952864e-02
  5.1205829e-02
  2.4570534e-02
 -4.1597644e-03
 -2.3705160e-02
 -7.4246407e-02
 -2.1289125e-02
  1.3763045e-02
 -6.2551208e-02
  5.0410263e-02
  1.1033487e-01
  5.3076997e-02
 -1.3833394e+00
 -3.6136225e-02
  1.5607746e-01
 -1.2450573e-03
 -1.8027989e-02
 -6.2910467e-02
 -5.2036345e-03
 -6.6055775e-01
 -5.4740049e-02
  1.0629627e-02
  4.5992973e-01
  2.3652680e-02
 -8.8391611e-03
 -1.9886648e-02
 -1.2260280e+00
  1.1631214e-02
 -7.9779010e-03
 -7.4160716e-04
  7.8747608e-02
 -2.3551887e-02
  5.9474822e-02
 -4.6236649e-02
  7.1760558e-02
 -1.2638298e-03
 -1.0879818e-01
 -4.1572094e-02
 -1.2263764e-01
  2.8174864e-03
 -2.2955963e-03
 -1.0726027e-01
  4.5632649e-02
  4.0801190e-02
 -1.3381184e-02
  7.1304768e-02
 -2.0892827e-02
 -3.6210308e+00
  2.8712417e-03
 -8.1297688e-02
 -1.6397182e-03
  6.4664446e-03
 -8.0451213e-02
 -4.1316640e-02
 -5.2062031e-03
  1.9123562e-02
  1.0394994e-02
  4.9711768e-02
  7.9643978e-03
 -1.8713636e-02
 -4.3374151e-03
  2.1063153e-02
 -8.7567538e-02
 -2.7716345e-01
 -3.3805430e-02
 -4.2203706e-02
 -1.5768593e-02
  1.3442854e-02
 -9.1785365e-01
 -1.5509070e-01
 -3.6669061e-02
 -7.8607507e-02
  5.8274645e-02
 -4.4498123e-02
 -1.2400663e-03
 -2.6008058e+00
  4.9237497e-02
  1.5746402e-02
  9.2355669e-02
  2.0020300e-01
 -9.8610139e-03
 -1.8797593e-02
  5.1655401e-02
  3.7863213e-03
 -2.5578512e-02
 -2.1052803e-01
  8.6362831e-02
  3.1258792e-02
  3.4364009e-01
  6.3020237e-02
  3.5726536e-02
  3.6712896e-02
 -2.3523928e-03
  3.2464929e-02
 -1.3329337e-02
  7.6329328e-02
 -3.8520262e-02
  2.4706703e-02
 -6.0157381e-02
  4.9783243e-03
 -6.1147064e-02
 -7.5899392e-01
  1.9388635e-02
  3.4006572e-01
  6.1709747e-02
  1.0648219e-01
 -6.6587970e-02
 -2.1328045e-04
  2.6579798e-04
 -4.7492791e-02
 -1.0725132e-01
 -4.0666517e-03
  2.1581177e-02
  1.0352882e-02
 -1.7188400e-01
 -3.5749409e-02
 -4.5249480e-01
  4.1106355e-01
  2.3950306e-01
 -1.7318337e-01
  2.1501049e-01
  8.6729956e-01
 -2.3085259e-02
  2.9882766e-02
 -1.1275724e-02
 -5.9196167e-02
  4.1602597e-02
 -1.0032709e-02
  3.5874210e-02
 -1.0676808e-02
  1.5532392e-03
 -3.0720847e-02
 -6.6520567e-03
 -6.4041787e-03
  1.6313796e-01
  2.4384286e-02
 -1.8734630e-02
 -8.6112134e-02
  1.2467630e-01
  1.0031268e-01
  3.7767521e-01
  5.5019513e-02
  1.9830379e-01
  9.0928471e-01
 -8.5813925e-03
  6.5630362e-03
  1.6316170e-01
  6.4732425e-02
  3.4933101e-02
  8.3379030e-02
  3.4950409e-02
 -4.6587035e-02
 -4.7362234e-02
 -8.1909567e-02
 -3.8796831e-02
  4.8472520e-02
 -9.0857543e-02
  9.5625252e-01
 -2.6755754e-02
 -1.2742583e-02
 -3.0889068e-02
 -7.2628777e-03
 -7.0590985e-01
 -7.6014720e-02
  2.2418047e-01
 -1.1986479e-01
 -2.4797410e-02
 -3.8414422e-02
  1.8837670e-02
 -2.2664109e-02
 -8.3834110e-03
  2.1152798e-02
 -2.5513768e+00
 -5.8935587e-03
  1.0748515e+00
  1.5969345e-02
  5.1043974e-03
 -8.8137634e-02
  2.6685350e-02
  3.8315944e-02
 -1.6305609e-01
 -2.7799525e-03
  5.1332559e-03
 -4.2248819e-02
  4.0836807e-02
  2.3580467e-02
  1.3916802e-03
 -1.8166834e-02
  5.0794326e-02
  1.4495635e-02
  5.1329862e-02
  1.0869204e+00
  6.1159991e-03
 -3.6020439e-02
  3.6895640e-02
  2.2597322e-02
 -2.1391705e-02
 -1.7545093e-02
 -4.2597096e-02
  2.3724165e-02
  3.0974369e-02
  2.0895017e-02
 -3.8331065e-03
 -2.7351892e-02
  5.7669822e-02
  5.2057430e-03
  1.8616652e-02
 -3.9998900e-02
 -7.2785094e-03
 -2.9858945e-02
 -2.4735311e-02
  5.4579822e-04
  4.3359421e-02
  1.4201546e-01
  5.6705911e-02
 -7.0833549e-02
 -2.8357455e-03
  7.2573433e-03
  7.7775323e-01
  7.5542368e-02
 -6.9955379e-02
  2.0341156e-01
 -1.7980425e-01
  3.1566825e-03
  2.2804605e-02
 -1.2823180e-02
  4.0173355e-02
 -2.1757232e-02
  7.8842323e-03
  1.4852392e-02
  3.3920158e-02
  3.8572561e-02
 -2.6011597e-02
  6.7235045e-02
 -2.4545354e-01
 -4.2982139e-02
 -1.3973467e-01
 -2.7854109e-02
  3.6870041e-01
 -2.4775647e-02
 -1.0265209e-02
 -4.4386499e-02
  2.9736020e-02
 -6.8224721e-02
 -2.3047015e-01
 -3.0787045e-02
 -7.9209648e-02
  8.5084746e-03
  3.6171958e-02
 -1.2462733e-01
 -8.2430337e-03
 -6.6874526e-02
 -1.6478473e+00
 -2.4340659e-01
 -4.0724076e-02
  2.5976349e-02
  3.2351356e-02
  3.3813804e-02
 -7.3759198e-02
  4.2429142e-02
  9.8425858e-02
  6.6976510e-02
 -2.8922400e-02
  1.5761526e-03
  2.1977924e-02
 -1.4734905e-03
  1.3497121e-02
  1.2652257e-02
 -4.0867489e-02
 -2.8532622e-02
  5.5458132e-02
  7.8912854e-02
  1.1359908e-03
  1.8007283e+00
 -1.6867770e-02
  3.5884615e-02
  1.2729807e+00
  2.4688678e-02
 -1.2153588e-01
  2.0513251e-02
  4.0477775e-02
  3.1214999e-02
  9.7374350e-02
  4.3885778e-03
 -3.5926901e-02
  5.2667115e-02
 -1.0545186e-02
  1.1271727e-02
  1.4319343e-02
 -2.2805717e-03
 -7.6014243e-02
 -4.2718861e-02
  3.6694917e-03
  1.6618787e-01
  1.0895965e-01
  2.5713244e-01
  6.3132063e-02
  3.5033647e-03
  6.4984165e-02
  2.4964076e-03
  4.5040194e-02
  8.0570430e-02
  5.1856805e-02
 -8.4931320e-03
  2.8328454e+00
  1.7931262e-02
 -1.5267647e-02
 -1.3200656e-01
 -3.2957754e-01
  2.3813681e-01
 -1.1169051e-01
  1.2794148e-02
  1.3618192e-02
 -1.1001445e-02
  3.6797814e-02
 -1.4567147e+00
  2.8441021e-02
 -4.4020847e-03
 -2.2459477e-01
 -2.8423376e+00
 -1.7358431e+00
  4.8419975e-02
  3.8345784e-01
  3.2526965e+00
 -1.1952488e+00
  2.4265800e+00
  3.2816110e+00
  2.0192100e-01
  4.7056839e-02
  2.9714331e-02
 -4.4449527e-02
 -5.4045022e-01
 -1.2205654e-01
  6.6684872e-01
 -3.6149263e+00
  4.1971869e+00
 -3.6916950e+00
  7.6778156e-01
 -1.2498269e+00
  4.1735345e-01
  2.4005892e+00
  2.5336799e-01
  1.4998344e+00
 -5.9055161e+00
  5.3667841e+00
 -2.2408667e+00
 -3.5119836e+00
  2.7794677e-01
 -2.4328158e+00
  1.2363819e+00
 -1.0480540e+00
 -2.3229925e-01
  2.0323172e+00
 -1.0405828e+00
  1.3799611e+00
 -1.0780337e-01
 -1.1655236e+00
 -5.7095154e-03
  4.8414644e-02
  2.9798630e-01
  1.1862904e-02
  2.2518165e-02
  1.8587886e-04
 -4.9549844e-02
 -5.9393309e-03
  5.0290812e-02
 -1.5767419e+00
 -5.5746478e-04
 -3.4894172e-02
 -1.8402663e-01
 -2.2129586e-02
  6.5705247e-02
 -2.3863728e-01
  5.6372996e-02
  4.9256659e-01
  1.2823530e-02
  5.9037325e-03
  1.3219913e-02
  4.5685456e-03
 -7.6799028e-02
  7.4187279e-02
  2.2896829e-03
 -6.6496618e-03
  1.1434414e-02
 -4.6853133e-02
 -6.3975513e-02
  7.0214276e-03
 -6.0921315e-02
  2.9310737e-02
 -3.7021715e-02
 -1.4506512e-02
  9.3844486e-04
 -9.0989865e-02
 -1.2505046e-02
 -4.4777792e-02
  2.2012841e-02
 -1.5239519e-01
  7.0543634e-03
 -4.9843289e-02
 -2.7993605e-02
 -2.6307637e-02
 -3.5453361e-02
 -1.2670030e-01
 -5.3876281e-02
  2.7561495e+00
 -8.2044974e-02
 -2.5658652e-02
 -1.5872104e-02
 -1.2868582e-02
 -4.1070464e-03
  2.0744817e+00
 -7.0387796e-02
  4.1502714e-03
 -2.2062041e-02
 -1.7870554e-01
 -1.6579992e+00
 -3.2986969e-02
  3.0626295e-02
 -8.9776795e-03
  3.7618191e-03
  1.0559633e-01
  6.1747038e-01
  4.3165643e-02
 -2.1750517e-01
  5.3962972e-02
 -2.4511999e-02
 -1.1671642e-01
 -9.2279069e-02
  2.0495546e-01
 -5.4173838e-02
 -7.1449347e-02
 -4.3246802e-02
  1.7624041e-02
 -1.1643049e-02
 -1.0736110e-02
 -2.6922721e-01
  1.2279040e+00
  1.1479004e-01
  2.1188935e-02
 -8.1385076e-02
  2.8429937e-02
 -6.5499544e-02
 -2.1283709e-02
 -2.4782401e-02
  2.2242242e-02
 -7.5753713e-03
 -2.2245121e+00
  6.5350556e-03
 -4.3588627e-02
  2.2773612e-02
 -5.0437629e-02
 -3.1857282e-02
 -1.9082536e-01
  2.1640580e-02
  1.2735057e-02
  4.2174444e-02
 -7.3837616e-02
  1.1415651e-01
 -3.9153574e-03
 -2.8980678e-02
 -4.2954177e-02
  3.1740561e-02
  3.4155291e-02
  9.4704237e-04
 -1.5374403e-02
  3.9816048e+00
 -2.6372099e-02
  9.7174935e-02
 -1.7598135e-02
 -6.1112821e-02
 -3.7024312e-02
 -7.2166339e-02
  3.8848773e-02
 -9.4321169e-02
  2.7221968e+00
  1.4580567e-02
 -4.0794011e-02
  2.3078563e-02
 -2.4507362e-03
 -3.2193512e-02
 -1.1613459e-01
  1.7009461e-02
  2.6597926e-02
 -9.2161842e-02
 -2.7990162e-02
 -1.3757484e-02
 -4.3395724e-02
 -2.9695660e-02
 -3.3141647e-02
 -3.9731760e-02
 -1.3581437e-02
  1.0754211e-01
  1.9014491e-02
 -8.4258057e-02
  1.6088815e-02
  1.0034969e-01
  8.1414310e-04
 -2.3747142e-02
  1.2557258e-01
  2.6598886e-02
 -1.2631073e-02
  2.4782084e-03
 -9.2757596e-03
  3.7293106e-03
  5.0647598e-02
 -2.6284743e-03
  2.0557886e-02
 -8.9921288e-02
 -7.0069574e-02
  2.9688697e-02
 -2.2506735e-03
 -8.2032057e-03
 -6.4708325e-03
  5.4920963e-03
 -2.1648851e-01
  4.7404397e-02
  1.1282934e-02
  8.1816185e-03
 -4.7568899e-02
  3.7898865e-02
 -9.2972647e-03
  1.8645874e+00
  2.6063036e-02
 -8.5850559e-02
  2.9380860e-02
  3.8714018e-02
  1.5468967e-02
  2.5988538e-02
 -5.3137287e-02
  3.6247659e+00
  2.4865795e-02
 -1.3332809e-02
  4.8181719e-01
  1.3318530e-01
 -2.2047402e-02
 -1.6431030e-02
  2.0067528e-02
 -2.9066022e-02
 -1.9843831e+00
  1.6610160e-02
  1.1366159e-01
 -9.8179211e-04
 -2.8108484e-03
  2.5773050e-02
  2.0192163e-02
  5.3959686e-02
  3.9896123e-02
  5.6952350e-02
 -1.7478840e-02
  2.4092768e-01
  3.2509584e-02
  1.1760138e-02
 -4.0889452e-03
  5.4694954e-03
 -7.1866497e-02
 -4.8770007e-02
 -3.7608740e-03
 -4.6569448e-02
  2.1816421e+00
 -4.5522951e-02
 -4.0443201e-02
 -1.0963690e-02
  8.0738984e-02
 -6.8905592e-02
 -2.1667194e-02
  1.3941582e-02
  3.9496068e-02
 -3.2197265e-03
 -3.0904159e-02
  6.1299467e-01
  4.2167712e-02
  3.1296168e-02
 -4.1228604e-02
 -1.6253928e+00
 -2.6465106e+00
 -2.5271244e+00
  4.9464149e+00
 -1.8082009e-01
 -3.5739217e+00
 -7.4605256e-01
  1.0592885e+00
 -6.5334618e-01
 -1.2314845e-01
 -2.6696163e-01
 -2.8446932e+00
  4.2841703e-01
 -3.4074008e-02
  4.4656995e-01
 -4.5109588e-01
  5.2045691e-03
  2.8166109e-01
  1.8018950e+00
 -4.9682250e+00
 -4.2700177e-01
 -6.5712374e-01
 -1.4739369e+00
  1.4668101e+00
 -6.7510617e-01
  5.8694470e-01
  4.1085833e-01
  6.0023314e-01
  1.1276779e-01
  3.5430098e+00
  4.7700870e-01
 -2.3311386e+00
  5.8415338e-02
  2.4805582e+00
  3.2585349e+00
  1.8721554e+00
 -9.8149425e-01
 -1.5428207e-02
  7.3919004e-01
  1.4361559e-02
  3.2574201e-01
 -2.2871563e-01
 -7.7081747e-02
  7.5063252e-01
  1.0490603e-03
 -2.4731932e-02
 -3.1585038e-02
  1.3961202e-02
 -2.7063370e+00
  8.7573938e-02
  1.1598703e+00
  4.8928112e-02
  7.8189611e-01
  1.9699090e+00
  3.2200947e+00
  6.6530710e-01
  6.6993767e-01
 -5.5818218e-01
  2.1759201e-02
 -4.9423480e-01
 -3.7934291e-03
 -1.5995722e-02
  1.6500158e+00
 -7.6488517e-02
 -2.9278982e+00
 -6.3101828e-02
  4.8237260e-02
 -8.6775374e-01
 -1.9107660e-02
  2.2811688e-02
 -6.4573324e-01
 -6.7295223e-01
 -4.5108333e-01
  2.0239303e-02
  1.5530107e+00
  3.4693792e-02
  2.3812363e+00
  6.4561725e-01
 -4.1214252e-01
  1.2789854e-01
 -2.1146736e+00
  4.4961940e-02
  5.7739484e-01
  1.7231950e-01
 -7.3905557e-01
  3.6070520e-01
 -1.1087769e+00
  2.7168843e-01
  4.5122951e-02
  7.4317353e-04
  1.7923343e-01
 -5.2964102e-02
 -7.6047264e-02
  1.5642855e-01
 -1.4433811e-02
  1.3978817e-02
  2.6186099e-02
 -1.5508336e-02
  1.6233288e-01
 -1.7480545e-01
 -1.4083491e-02
 -4.7858916e-02
 -1.9069431e-02
 -1.6766820e-02
  8.7415259e-03
 -2.7531534e-01
 -6.0420655e-02
  1.6193220e-01
 -1.1615586e-02
 -5.3297549e-02
  1.2425177e-02
  1.0097456e-01
  4.6029139e-02
 -1.3998641e-02
 -3.2347076e-02
 -1.8482169e-02
 -3.5458755e-02
  8.5679911e-02
 -1.6142673e+00
 -2.9086435e-02
  4.8386207e-04
  3.7914459e-02
 -9.7369673e-03
  1.6451739e-01
  1.8414686e-02
 -3.0754259e-02
  5.6422759e-02
  1.6727865e-02
 -4.7271561e-02
  3.3449780e-02
  2.0603342e-01
  2.6101512e-03
 -6.1028924e-02
 -3.7526030e-03
 -1.1843701e-03
 -2.8222801e-02
  5.3263333e-04
 -1.1632418e-01
 -8.4368680e-03
  2.3923703e-02
 -2.1144290e-02
 -9.2650345e-03
  6.1508875e-02
  3.3214581e+00
 -3.1407855e-02
 -9.8206334e-02
  7.1187250e-02
 -1.2917241e-02
  1.3224836e-01
  5.3635497e-02
 -9.9371299e-02
 -1.3515486e+00
 -1.7538226e-01
 -1.1596570e+00
  1.7961838e+00
  1.0149866e+00
 -1.3982869e+00
 -3.6300948e-01
 -2.6156652e-01
 -4.1643463e-02
 -2.3883067e-02
  1.7769352e+00
 -1.2154782e-01
  9.7614536e-03
 -2.2744711e-02
  4.1375095e-01
 -3.7606608e-02
 -2.8512850e+00
 -1.7386761e+00
  3.5175252e+00
  4.5860454e-01
  3.2784009e-01
  4.8437276e+00
 -2.8764801e-03
 -1.9141971e+00
  2.0141041e+00
  4.8778805e-01
 -4.3486118e+00
  8.5665888e-01
  2.7551904e+00
 -2.0689619e+00
  6.8651938e-01
 -4.1536234e-02
 -2.5754111e+00
 -1.1047126e+00
  1.2212014e-03
  1.9747020e+00
  1.7008466e+00
  9.8344588e-01
 -3.3442798e+00
 -4.9824834e-02
 -4.3452673e-02
 -1.7091129e-02
  8.6397566e-03
  1.6798607e-01
 -7.2702677e-03
 -6.5840620e-01
 -1.5601490e-01
  1.9807100e-02
 -1.0252474e-01
  1.5674567e-02
 -1.5983824e-02
  1.5715612e-02
 -1.7000273e-02
  5.5604737e-02
 -1.8447490e+00
  1.9542044e-01
  6.7058563e-02
 -2.4501692e-01
 -1.9364230e-02
 -1.2974710e-02
  3.9917597e-01
 -1.7616007e-01
  4.4311625e-03
 -6.4927183e-02
  3.2611606e+00
  7.2193027e-02
 -3.6844573e+00
 -5.8318213e-02
  1.6461779e-01
 -5.8226770e-01
 -4.9577627e-01
  2.8356917e+00
  1.7880532e-01
 -2.6087993e-01
  3.2229921e-01
 -1.1982895e+00
 -1.2567800e+00
 -2.1630996e-03
 -1.1906884e-01
 -2.5749925e-01
  5.0701541e-01
  1.4543666e-01
  8.6632395e-01
  4.6215940e-01
  1.3228379e-01
  1.3240801e-01
  6.9976553e-02
 -8.3811688e-01
  3.5899404e-01
 -8.6016819e-02
  3.0989294e+00
 -2.0330790e-02
  3.1372029e-02
 -9.7623392e-04
  6.6043627e-01
  6.8877834e-01
  2.0387720e-02
  1.7481497e-02
 -4.7042638e-02
  2.1250958e-02
  9.1781141e-03
 -8.6423367e-02
  3.5163708e-02
 -4.3269757e-02
 -4.7834802e+00
  8.6616325e-01
  1.1381491e+00
  2.1677463e+00
 -5.9751737e-01
 -1.0450472e+00
  1.8525566e+00
  3.5642486e+00
  1.0704397e+00
 -1.9562963e-01
  4.6634283e-02
  3.6172885e-02
 -1.7213371e-02
 -5.9052038e-01
 -1.1511841e-01
 -2.7245441e-01
 -1.3188073e-01
  1.1276497e-01
  1.5233469e-01
 -2.7527254e+00
 -1.5158727e-02
 -1.4978193e+00
 -1.2911138e-01
  3.8152960e-01
 -7.5365908e-02
  2.8078861e+00
  6.0744464e-01
 -2.7366233e+00
  1.4188739e+00
 -8.7722750e+00
 -3.8356546e-01
  3.2358164e-01
  6.7636289e-02
 -2.7686882e-01
 -3.1169631e+00
  1.1648606e-02
 -5.6960487e+00
  3.6616534e-02
  2.3639848e+00
  4.9285427e-02
  2.9031897e-02
  4.4514272e-02
 -4.5790873e-02
 -6.6125654e-02
  1.9723061e-02
  2.5104538e-01
  6.4064704e-02
 -5.9484091e-02
 -4.2261306e-02
 -3.6825720e-02
  9.6873052e-02
 -5.0859641e-02
 -3.6728509e-02
  1.8610772e-02
  9.6929997e-02
  3.4386925e-02
 -9.8876938e-02
  8.4533341e-02
 -2.3881493e-02
 -1.2457323e-02
  1.3701911e-02
 -3.5028998e-02
  2.4982898e-02
 -5.2437846e-02
 -1.8231930e-02
 -5.3253662e-02
 -1.7761748e-02
 -4.9507227e-02
  6.9380421e-03
  5.2697861e-01
 -1.3744934e-01
 -5.4200139e-02
  2.4570068e-02
  1.2374511e-01
 -4.3446086e-03
  1.4221646e-03
 -2.7978657e-02
 -2.2826752e-02
 -5.4563349e-03
  5.9401117e-02
  1.1373563e-01
 -3.5659790e-02
  6.7195045e-03
  1.0104278e-01
 -2.3990719e-02
  3.8662456e-02
  5.4856623e-03
  2.0718516e-01
 -4.0159285e-02
 -3.2020935e-03
  1.1759809e-02
 -1.7030542e-03
 -3.5840884e-02
  9.2888720e-02
  8.6494023e-03
 -2.3060451e+00
 -5.3486705e+00
 -9.0265339e-03
 -6.4029828e-02
  8.3638658e-04
  2.1025341e-02
 -6.5031298e-02
 -9.0525627e-02
  3.2545835e-02
 -3.3045177e+00
  1.6923876e+00
  1.3393139e-02
 -2.0461328e+00
 -5.6519888e-02
 -7.9495382e-01
 -4.8039667e-03
 -6.6266331e-04
  4.2513620e-02
  3.0556121e-03
  4.9573243e-02
  6.7374017e-03
  3.5386220e-02
  7.7943496e-02
  2.2030300e-02
  7.2866771e-03
  9.5324129e-01
 -5.1272515e-02
 -2.0923902e-01
  3.2892864e-02
 -1.2499175e+00
  4.9672779e-02
 -3.7187035e+00
 -2.1038305e-02
 -1.5319136e-01
 -2.5726587e-02
 -7.7670656e-02
  2.1817384e+00
 -7.1750742e-01
  1.7758821e-03
 -2.1777327e+00
 -2.5329304e-01
  3.2209888e-01
  3.3400104e+00
  5.4957324e-01
 -8.1745692e-02
  2.5869802e-01
  4.4325352e-02
 -3.8449995e-02
  2.7156157e-02
 -3.2843271e-01
  5.7001442e-02
 -6.1488774e-02
 -2.7769490e-03
 -4.6150688e-02
  3.1432193e-02
 -5.0766837e-02
  8.7655144e-04
 -2.6793210e-02
  1.0157993e-01
 -1.7786214e-02
 -5.5672754e-02
  1.8116053e-02
 -1.0618538e-01
  4.9711913e-02
 -3.0907562e-02
  1.6100610e-02
  2.3633450e-02
  1.4613090e-01
 -2.2458466e-02
  1.5567252e-01
 -1.5773347e-02
 -9.6132880e-04
  4.3705121e-02
 -1.0741680e-02
  1.2492031e-02
 -4.8363820e-01
 -8.8097945e-02
  1.7614476e-02
 -6.9603659e-02
 -4.7002628e-02
 -4.1734707e-03
  3.1884219e-02
 -1.9024324e-01
 -2.9351445e-02
 -1.5762439e-02
  7.9367317e-02
  1.8419437e-02
 -3.5700580e-01
 -1.7699611e-03
 -1.7870102e-02
  1.2056589e-02
 -9.4203211e-02
 -7.8513501e-03
 -2.1252243e-02
 -1.0217123e-02
 -3.0662196e-02
  6.8379271e-01
  3.3976072e-03
 -4.9685435e-03
 -4.4578753e-02
  6.0694829e-02
 -1.1645826e-01
  2.1974087e-02
  1.8190354e-01
  2.4132740e-02
 -5.4224231e-03
  5.3473543e-02
  3.3338091e-01
  1.0667787e-02
 -1.6005144e-02
  6.9304162e-01
 -4.5762673e-02
  3.7451270e-01
 -1.1857998e+00
 -4.2420620e-01
 -1.6431040e+00
  1.0628787e-01
  8.9278415e-02
  3.2293251e+00
  6.8320478e-03
 -2.1620229e-02
 -7.0011104e-03
  1.5051309e+00
 -6.4830613e-01
  5.4573331e-02
 -1.7732136e+00
 -3.1424308e+00
  2.3106024e+00
  2.0000868e+00
 -2.9960346e-01
  7.1988396e-02
  3.5981953e-02
 -8.4684712e-01
  6.6299701e-01
 -1.5996457e+00
  2.7926419e+00
  1.4264718e+00
 -1.5445542e-01
  7.2566226e-02
 -1.1972619e-03
  1.5667167e+00
 -1.6094358e+00
 -2.8194177e+00
 -1.2710451e-01
  5.4754382e-01
  1.0307747e-01
 -1.8096777e-02
  4.6263449e-02
 -1.5929495e+00
 -3.0566134e-02
  9.3797559e-01
  2.5587795e-02
  2.0688726e-02
  5.8778990e-02
 -1.6941095e-02
  4.8344821e-01
 -6.0528375e-02
 -4.7763652e-01
  4.4116702e-02
 -3.7769310e-02
  1.5700688e+00
 -1.4569702e+00
 -1.5886374e-02
  3.6188048e-01
 -1.8926060e+00
  3.5631654e-01
  9.9907294e-03
  2.9985392e+00
 -5.6396965e-03
  4.6871907e-01
 -3.2291069e+00
  3.1881878e+00
  4.3015961e-02
  1.7881575e+00
 -3.1184530e+00
 -4.6783657e+00
  4.9182460e-01
  2.3541451e-01
  5.5086076e-01
 -1.7500657e+00
 -5.0433058e-01
  3.8712058e+00
 -4.5592317e-01
 -4.7864908e-01
  1.6737064e+00
 -1.2274016e+00
 -1.4926989e+00
 -3.0391388e+00
 -8.3517230e-01
  1.3093239e+00
 -1.4380800e+00
  1.8900782e-01
 -9.0636230e-01
 -2.2620122e+00
 -5.7283467e-01
 -1.3801008e+00
  9.4015855e-01
  8.5089773e-01
 -8.6186912e-05
  4.9001035e-01
 -7.3427714e-02
 -9.1167992e-01
  1.9545392e+00
 -3.3971078e+00
 -2.7756584e-01
  1.0501412e-01
  6.1520226e-03
 -2.5385844e-02
  3.8264921e-01
  1.6907971e-01
  4.7439280e+00
  1.0627992e-01
 -4.0164246e-04
  1.3379406e-02
  5.4985099e-02
  2.1492645e-02
 -2.0656183e+00
  4.4289999e-02
 -1.2684309e-02
 -4.9386587e-02
 -2.1479672e-02
 -5.2556172e-02
 -6.3211016e-02
  1.5821649e-02
  4.2314377e-02
 -4.0375844e-02
 -3.7713714e-02
 -1.2466885e-03
 -5.6723390e-02
  2.1893283e-02
  2.8825557e-02
  3.4042180e-02
  4.8041451e-03
  1.8382862e-02
  8.1962635e-06
  2.2215562e-02
 -3.0223772e-02
  2.2572551e-02
  2.1324654e+00
  7.9739556e-02
 -3.3185277e-03
 -5.4732924e+00
 -5.9771640e-03
  7.5671538e-03
  2.3674702e-03
 -1.3664993e-02
 -1.8067112e-02
  9.6740030e-02
 -5.2555427e-03
 -1.5306266e-01
 -3.7217424e-03
 -3.4449074e-02
  3.0020904e-02
 -9.3439251e-01
 -7.5751627e-03
 -2.0962482e-02
 -7.7134778e-04
  4.5652546e-02
 -5.5387117e-02
  1.5644843e-02
 -2.1271348e-02
  2.8879594e-03
  5.1025848e+00
 -1.1916828e-02
 -1.3320145e-01
  1.2279095e-02
 -1.9954845e+00
 -2.3015067e-01
  1.9563675e-02
 -4.5010183e-02
 -1.0595217e-01
  4.9456619e-02
  1.1133580e-01
  8.0846306e-03
 -4.7846187e-02
  5.5522923e-03
 -2.4246387e-03
 -1.3135444e-01
 -3.4799479e-02
 -9.2421016e-03
 -1.7558251e-02
 -3.0199977e-02
 -1.6757146e-02
 -1.7705178e-02
  3.8604818e-03
  1.0967801e-02
  2.9441364e-02
 -1.5735220e+00
  3.8053538e-03
  3.4085312e+00
  2.8043304e-02
  3.6326849e-01
 -4.4327150e-03
  3.0030452e-02
  1.7157586e-02
  6.0257349e+00
 -6.9511883e-02
 -3.4155596e-02
  1.2273926e-01
  4.4953220e-02
  6.3555362e-03
 -3.0569234e-03
  8.6649638e-03
 -7.9563178e-02
 -1.5025407e-02
  1.3957777e-03
  1.2313363e-02
 -1.1838320e-01
 -6.4379647e-02
  5.8024274e-03
  2.0707471e-02
 -1.2859891e-02
  6.9645359e-03
  9.9126687e-03
 -6.4195283e-02
  8.4548879e-01
 -9.7466439e-02
  4.0283836e-03
  1.7686829e-01
 -1.0851340e-01
 -7.1533345e-02
  1.2285589e-01
  8.6996751e-03
  1.0451323e-01
 -5.6939084e-02
 -5.5565473e-02
 -3.7307729e-04
 -2.2393232e-02
 -3.5998423e-02
 -3.4677219e-02
  3.6661785e-02
 -1.9442752e-01
 -1.6153606e-03
 -2.0168867e-02
  3.2880764e-02
  2.4807589e-02
 -5.5292500e-03
 -7.8083023e-02
 -6.9835968e-02
 -2.8506691e-02
  2.8119154e-02
  5.2160972e-01
 -2.9500675e-01
  2.2027511e-02
 -3.8996346e-02
 -5.2601930e-02
 -1.6550796e-01
 -3.9997146e-02
 -1.1738685e+00
  3.4914143e-02
  2.7778715e-01
  1.5608931e-02
 -5.4516673e-01
 -2.7627993e+00
 -1.3937864e-01
  4.6571055e-03
 -2.6502017e-02
 -6.3639348e-03
 -1.1546437e-01
 -4.4956047e-02
 -6.7084609e-03
 -1.0410502e-02
 -3.5185095e-02
 -1.2512423e+00
  4.5539556e+00
 -4.5086217e+00
 -4.3043089e-01
  1.4116735e+00
  1.9802113e+00
 -5.7040626e-01
 -1.0420766e+00
 -4.6256337e+00
 -5.9840673e-01
  2.3071727e-01
 -1.9821787e-01
 -1.3549000e+00
 -1.8168871e-01
 -2.6983020e+00
 -1.5247523e+00
  8.3598876e-01
 -2.9336956e+00
 -1.7398533e+00
 -3.5991165e-01
 -7.5682521e-01
  2.1591287e+00
  1.6798346e+00
  7.6538610e-01
 -5.8877598e-03
  9.9912030e-01
 -4.4236073e+00
 -4.7988467e+00
 -4.3783459e-01
 -2.2333853e-01
 -9.9743533e-01
 -7.4263463e+00
 -1.2247194e+00
 -2.7731421e+00
 -1.6941398e+00
  2.3687619e-01
  1.8822734e+00
 -4.5393853e+00
 -2.9573340e+00
  9.0260786e-01
  9.3783876e-03
  1.0300444e-02
 -1.3554170e+00
 -4.1256752e+00
  2.1704149e+00
  6.8245567e-02
  5.5576336e-01
 -2.3622999e-02
 -3.5490680e-02
  5.4846692e-01
 -4.2271290e-02
  4.2447988e-03
 -5.1692157e+00
  1.4947842e+01
 -3.1841843e+00
 -6.3427788e-01
  5.9479184e+00
  3.8134174e+00
 -4.5425386e+00
  4.2964262e-01
 -4.9204089e-02
 -8.0589157e-01
  2.7725008e+00
  4.5930772e+00
 -7.1698060e+00
 -1.2518528e+00
  8.5762806e+00
 -5.5081553e+00
 -8.5819652e-03
  4.4996219e+00
  3.8275495e+00
 -4.6460333e+00
 -2.6000526e+00
  5.4937034e+00
  1.9313917e+00
  2.3326399e+00
 -2.1746335e+00
 -3.7512076e-01
 -2.5710660e-01
 -2.4430344e+00
  1.8164946e+00
  7.9703546e-01
  4.1146424e-01
 -1.1563745e+00
 -2.3912345e-01
  1.8809578e-01
 -3.3736148e-01
  2.4181306e+00
  6.4831042e-01
 -3.6156288e-01
 -3.0124249e-02
 -1.9001227e-02
 -9.0513881e-03
 -1.8926345e+00
 -4.7335067e+00
 -9.1157424e-01
  2.6394723e-02
 -3.9010546e-01
  1.6853142e-01
  2.0163139e-02
  3.1493742e+00
  2.9320109e+00
  2.4666443e+00
  7.0194244e-02
  2.3644140e-02
  1.5546843e-01
  6.7558922e-02
 -7.1873948e-02
  3.0153218e-01
 -9.9029161e-02
 -6.6243522e-03
 -8.4111094e-03
  4.4123325e-02
  2.0920025e-02
  3.9064307e-02
  5.6151796e-02
 -2.0889239e-02
  1.5165423e-02
 -5.7506915e-02
  8.3180778e-03
  4.0063594e-02
 -1.6994342e-01
  1.2380796e-02
 -2.6980537e-01
 -5.3601492e-02
 -2.4971562e-02
 -3.2102283e-02
 -2.3185199e-02
 -1.6048209e-01
  1.1997143e-02
 -4.1785605e-02
  1.3873434e-01
 -2.9560332e+00
 -3.4184542e-02
 -6.1067928e-02
  4.4682561e-03
 -6.4792866e-03
 -5.9204698e-02
 -1.0389465e-01
  2.5039915e-02
  2.6366690e-02
 -8.6240754e-02
  6.1725527e-03
  1.1718673e-02
  4.7142070e-02
 -3.7218370e-03
  1.3704022e-02
  3.5847321e-02
  6.7682169e-02
  5.1829126e-02
  2.9646315e-02
  2.1558365e-02
 -1.7184852e-02
 -1.2370560e-02
 -1.9662559e-02
 -6.5903448e-02
  3.6591298e-03
 -4.5513615e-02
  2.6911220e-01
  6.5055965e-03
 -7.0377551e-02
  2.7451076e-02
  9.3293235e-02
 -5.6203343e-02
  3.6052134e-02
 -4.6237193e-02
  2.1086443e-02
 -5.4067336e-02
  6.4313468e-03
  1.6024426e-02
  9.6306570e-02
  6.1330952e-02
  4.6042420e-02
  3.3197809e-02
 -6.2074352e-02
  6.2592193e-03
 -1.2753327e-02
 -1.4450070e-02
  1.9821012e-02
 -1.7927852e-03
 -8.5573900e-01
 -7.4494109e-02
  3.3183981e-02
 -1.5343204e+00
  4.7522534e-02
 -5.2083369e-02
 -6.6598982e-02
 -4.2999187e-01
 -3.5638127e-01
  6.4729542e-02
 -2.1393111e-02
  3.6699250e-02
  6.8888026e-03
  2.7513795e+00
  1.3142115e-01
  5.5200383e-02
 -1.1681550e-01
  6.7419872e-02
 -5.0205376e-02
  1.9982937e-04
 -1.5413859e-03
 -1.6744696e-02
  2.4348889e-02
 -5.8026209e-02
 -1.8583272e+00
 -1.0877552e-01
 -4.7400624e-01
  1.0083212e+00
 -2.6370325e+00
  1.3593788e+00
 -3.5006576e+00
 -8.5449256e-02
  5.7303625e-01
  4.3424830e+00
 -1.4443652e-02
  1.6332077e+00
  3.0991446e-02
  1.2547065e+00
 -2.6190555e+00
  2.4260447e+00
  8.9726412e-01
  1.0408028e+00
  1.8435513e+00
 -2.8564370e+00
  1.1894209e+00
 -4.6033883e-01
  3.4696128e+00
  2.0670605e-01
 -2.0542305e+00
  1.9730259e+00
  2.2793245e+00
  2.1639380e-01
  1.3320549e-01
  2.1935685e+00
 -5.2901208e-01
 -2.6482768e+00
  3.6426971e+00
  2.8718981e-01
 -6.0834193e-01
  5.7178915e-01
 -1.1354429e+00
  1.2027590e+00
 -2.0371575e-02
  3.5025839e-02
  2.1303155e+00
  7.1144581e-01
 -1.1942644e-02
  8.6968404e-01
 -8.3041137e-01
 -2.9330472e-02
 -5.5899747e-02
  5.4959394e-03
  1.8286629e-02
 -2.6008379e+00
  9.4236275e-03
 -1.7912759e+00
  5.3976025e-03
  1.4054963e-01
 -6.3349805e-03
  4.0543031e-02
 -1.9765427e-02
  5.4455988e-02
  5.9234810e-01
  6.4026290e-01
 -3.3610135e-02
  9.9517293e-03
 -3.7034132e-02
  3.0281434e-02
 -1.2497038e-01
  2.0953979e-02
 -1.0717438e-01
  8.1239216e-02
 -2.1943290e-02
 -1.8236812e-02
  6.2770545e-02
 -9.3524046e-03
  3.2130032e+00
  7.5073112e-03
  1.0425684e-02
 -2.9835541e+00
  1.5108661e-02
 -3.8728293e-02
  7.6502175e-03
  2.7052276e-03
 -7.7496625e-02
  1.0162179e-03
  2.2558185e-04
 -6.8729185e-02
 -1.0802244e-01
  2.9612251e-02
 -1.7459331e-02
  1.2262895e-02
 -2.0481905e-01
  2.3490846e+00
  3.0923786e-02
 -6.9067352e-02
 -1.2092512e-02
  6.6881061e-02
 -1.3684903e-03
  1.6139647e+00
  1.2065256e-01
 -5.0313570e-02
  3.0481145e-02
 -2.4646377e-02
 -2.7196294e-02
  3.0039914e-02
  1.9602962e-02
 -2.4164531e-01
  3.6711687e-01
 -1.6266935e+00
 -9.3833244e-01
  3.7684801e-01
 -2.6651812e-01
  5.1130605e-01
 -5.6751940e-02
  4.0618435e-02
  3.7955984e-02
 -7.5268582e-04
 -1.1296286e-01
 -8.4792310e-01
 -2.0520830e+00
  1.9200847e+00
  9.9703157e-03
  3.2568187e-01
  1.0382701e-01
 -3.1540539e-02
 -1.8595173e+00
  5.3920645e-01
  4.9220288e-01
 -4.5366995e-02
 -8.2070172e-01
  1.7292260e-03
 -1.3656894e+00
 -1.6602013e-02
 -6.2708735e-02
  8.9359987e-01
 -5.4163504e-02
  1.2523851e+00
 -8.0086428e-01
  3.3076257e-01
 -7.2511859e-02
  2.6072526e-02
  1.2385676e+00
  8.8843727e-01
 -1.1111910e-03
 -9.4965130e-02
  3.2407023e-02
 -3.0767620e-02
  9.2830616e-01
  1.1806451e-01
  5.9014924e-02
  3.1149592e-02
  3.8481054e-03
  8.8471092e-02
  5.6561343e-03
  1.1021049e-01
  3.0316845e-01
  2.6160480e-02
 -1.2841147e-01
  2.1364881e-02
 -5.5678946e-01
  2.9831290e-01
  8.2247987e-02
 -1.5859643e-02
 -1.1296704e-02
  9.7051203e-02
  2.1730842e-02
 -8.9097423e-03
 -6.1634844e-03
 -1.5180403e-02
  8.7683192e-03
  8.7758936e-03
  9.4283521e-02
  1.0904131e-01
  1.9093905e-02
  1.5468025e-02
 -3.4231182e-02
 -4.6193711e-02
  2.3592327e-02
  1.8391363e-02
 -6.4278848e-02
 -2.9818157e-03
 -2.7272807e-02
 -3.4385838e-02
  4.8127428e-01
  1.5432736e-01
  3.6969181e-02
  3.6870691e-01
 -3.8801491e-02
 -9.0844490e-02
  1.6187306e-02
  9.2491463e-02
  2.9821206e-02
  1.4119102e-02
 -7.4982606e-02
  1.1873864e-02
  4.1686233e-02
 -1.3579227e-02
 -2.5426364e-02
  1.8545990e-01
  2.4227379e-02
  2.1252875e+00
  1.5148271e-03
 -2.1001840e-02
 -1.3563068e-01
  4.3305073e-02
  9.5643230e-02
  1.3467903e-01
  1.9310819e-02
  4.7572669e-02
  3.0375501e-02
  1.0909791e-01
  5.7700817e-02
 -5.2421810e-03
  1.2573828e-01
 -3.5304925e-03
 -1.2150146e-02
  4.0544126e-02
 -8.3978372e-03
 -4.9050190e-03
 -3.1927696e-03
  7.9469159e-02
 -6.2894538e-02
  6.6766754e-02
 -5.7190354e-03
 -3.2584569e-03
  1.5282080e-02
 -4.2661211e-01
  1.0347741e+00
 -3.2910191e-02
  8.6648412e-02
  9.3492389e-02
 -3.6475994e-02
 -3.5824656e-02
 -1.5820087e-01
 -1.4329724e-03
 -9.7792484e-02
 -8.8466458e-02
 -7.2787054e-02
 -2.1317603e-02
  5.2193971e-03
  1.0391130e-01
  6.1181892e-02
  4.3079332e-02
 -4.0752288e-02
 -1.4740552e-02
  1.7672021e-02
  1.3125317e+00
 -1.7403815e-03
 -2.4900706e-02
 -2.0365612e-04
  5.3902455e-03
  9.3628839e-02
  1.2623742e-01
  1.8538143e-02
  3.1637166e-02
 -2.8212330e-01
  4.3733407e-02
 -2.7361220e-02
  4.0353037e-02
  4.8063427e-02
  7.6514527e-02
  9.9051528e-02
  2.7338758e-02
  3.0191867e-02
  1.5876910e-01
  5.8200578e-03
 -2.7390489e-02
  2.9277800e-02
  6.0325633e-03
  6.9910564e-02
 -6.2252991e-02
  3.3219059e-03
  2.1767017e-02
 -7.9105802e-02
  3.2987002e-02
  1.1997772e-02
  7.8751303e-02
 -3.2506925e-01
  2.7161371e-02
 -2.6375851e-01
  2.7667481e-01
  1.1190839e+00
  5.7207543e-02
 -9.6870445e-02
 -2.1388141e-02
 -1.4454299e-01
 -1.0117552e-01
 -1.4381130e-02
 -1.0148153e-01
 -5.2085486e-03
  2.0208234e-02
  7.3561341e-01
  2.7001743e+00
  8.3766757e-03
 -2.1441363e-02
 -2.7662200e-01
  2.5045982e-02
  1.0684007e-02
  2.5612723e-02
 -2.5220447e+00
  4.3063071e-02
  7.2533101e-02
 -1.4655623e+00
  2.2829276e-01
 -4.8370012e-03
 -5.5214117e-04
 -3.1778168e-02
 -3.1332277e-02
  4.1934725e-02
 -1.7029865e-02
 -5.0096989e-02
  5.3370841e-02
  2.0349340e+00
  1.9403029e-02
  4.0021315e-02
 -4.2820085e-02
 -2.5593052e-02
 -1.4561543e-04
  7.5801788e-03
 -6.2451653e-02
  1.4071044e+00
 -3.5123811e+00
  2.0223690e-02
  1.0519654e+00
 -4.3759787e-01
 -1.7446319e-02
 -4.1851915e-02
 -9.4374657e-02
  1.8628653e-02
  1.1439634e-01
  2.1982400e-02
 -3.7175240e-03
  1.1202503e-03
 -5.1569007e-03
 -6.4497538e-02
 -1.6845714e-02
 -1.5568189e-01
  3.8569223e-02
 -1.5877152e-02
 -4.7674244e-03
 -1.1167923e-01
  3.5633180e-02
  4.0998492e-02
 -5.4382190e-02
  1.3855997e+00
 -2.1824578e-02
  2.1913037e-02
 -3.0745361e+00
 -5.3063417e-03
 -4.7310565e-02
  1.9235162e-02
 -2.5009662e-01
 -2.6392853e-03
 -3.2878392e-03
 -3.4320541e-02
 -1.4816988e-01
 -8.1278890e-02
  6.0852501e-03
 -7.6032989e-02
  2.3365892e-03
 -3.8521644e-02
 -3.2976255e+00
 -4.1281977e+00
  3.4427371e+00
 -6.1305189e-01
 -3.0279615e+00
  2.5879259e+00
 -6.8842154e+00
  1.3586130e+00
 -9.1135472e-01
 -4.7103944e-01
 -4.2411861e+00
 -1.9012104e+00
  3.9020482e-01
 -1.7957743e+00
 -2.1292291e+00
  1.5580816e+00
  8.5160650e-02
  1.5303707e+00
  4.4142798e-01
  4.5984171e-02
  9.6566373e-01
 -2.4537020e+00
 -2.1933010e-01
 -3.5560781e-01
 -3.6110568e+00
  7.3943549e-01
 -2.3708377e+00
  1.3818655e+00
 -8.6121292e+00
  7.5319938e-02
  4.5797820e+00
 -3.8509033e+00
  4.6795197e+00
 -6.9087617e-02
  1.9197702e+00
 -1.0529193e+00
  4.6233687e+00
  3.5141889e-02
  1.2850441e-03
  8.9633957e-02
 -9.1223409e-03
 -1.7813977e+00
  1.0650087e-03
 -1.0037724e+01
 -2.0968183e-03
 -1.9992886e-02
 -4.0627852e-02
 -6.7075009e+00
 -5.0586634e-03
 -5.9918642e-02
  6.5656580e-02
  3.2339435e-02
  1.2570386e-02
 -3.6752734e-02
 -1.9000784e+00
 -3.2414142e-02
  1.4877795e-02
  2.3003465e-01
 -8.0825634e-02
  1.9429268e-02
 -3.7320347e-03
 -1.1319153e-02
 -4.9751572e-02
 -3.2350637e-02
  3.1867199e-02
  1.7970881e-01
 -3.8317934e-02
 -1.1752026e-02
  3.2262761e-02
 -6.8164699e-02
 -4.5581892e-02
  1.3877637e-02
  4.8496511e-02
 -1.1689792e-02
  1.2654056e-02
 -7.6531403e-02
 -1.2142669e-01
 -5.5675887e-02
 -8.2160585e-02
 -3.4844905e-02
  4.9998909e-03
  4.9140763e-02
 -1.9940088e-02
  2.0353299e-02
  1.7278979e-02
 -3.5578802e-02
  3.9843869e+00
 -3.6404427e-02
  2.5677567e-03
  2.5375577e-02
 -3.2053769e-01
  5.8221101e-04
  3.9494045e-02
 -8.4691666e-02
 -1.2898613e-03
 -8.5792422e-02
  3.0533910e-02
  5.0650793e-03
 -3.1074669e-02
 -1.7331269e-02
  3.7912663e-02
 -4.6549857e-02
  3.1841326e+00
 -1.6041012e-01
 -2.5216568e+00
  3.2037814e+00
 -2.7807009e+00
 -1.9742222e+00
 -4.0679060e-02
 -9.3778771e-01
 -7.3188806e-01
  8.8574028e-01
 -6.1625665e-01
  1.4811068e+00
  3.5505126e+00
  3.6093149e+00
 -1.5340296e-02
 -3.6814673e+00
 -7.9272217e-01
 -3.5032174e-01
  3.7140777e+00
  1.9096715e+00
  2.7929187e+00
  8.5600903e-03
  2.1117561e+00
  1.6937838e-01
 -6.6938436e-01
 -1.1391208e-01
  1.9834064e-02
  1.5401201e+00
 -7.7836770e-01
  4.9154115e+00
  5.9042358e-01
 -3.7922159e-01
 -2.9339738e+00
 -1.1629783e+00
  1.6128514e+00
 -1.0306123e+00
 -8.9573306e-01
  1.1392170e+00
 -2.4437276e-03
  3.8103643e-01
  2.0564301e-02
 -2.3234642e+00
  1.9964653e-01
  1.7251207e+00
  3.1275399e-02
 -6.0629129e-02
  5.8123988e-01
 -1.4450640e-02
 -3.1556800e-01
  3.5145903e+00
 -2.0413892e+00
 -7.2680368e+00
  5.5641460e+00
 -5.2020798e+00
  5.7893114e+00
 -5.6329293e+00
 -4.2125769e+00
 -1.0485823e+01
 -2.1340106e+00
  4.3179936e+00
  1.2779341e-04
  3.6295681e+00
  9.2482066e-01
  2.0486875e-02
  2.7381295e-01
  7.7464571e+00
  4.4563060e+00
  5.1618347e+00
  2.0600531e+00
  2.9478862e+00
  3.5646181e+00
  6.8916845e-01
  5.6923299e+00
  4.4636374e+00
  4.0272146e-01
 -3.2247653e+00
 -5.0821054e-01
  5.1794000e+00
  1.8565389e+00
  5.1949754e+00
  1.9844887e+00
  4.3124943e+00
  9.8444039e-01
  3.4917061e+00
  4.8456173e+00
  1.0063055e+01
  9.1253071e+00
 -4.7282319e+00
 -1.7996889e-02
  1.4034204e-01
 -1.2351574e-02
  2.2036195e-01
 -4.8290730e+00
  3.2541433e-01
  2.6948225e-02
  1.4917394e-02
 -8.9417361e-02
  9.4740257e-02
  1.0622420e-02
 -4.7214169e-02
 -3.7317988e-02
  3.0547285e-02
  2.7472103e+00
 -4.9684763e+00
  4.7476792e+00
 -3.5479605e-01
 -9.1481358e-02
  2.8281977e+00
  5.9698963e+00
 -1.3135366e+00
  2.3662632e+00
 -8.7312679e+00
 -7.4787188e+00
 -4.1628509e+00
  4.0629306e+00
  7.8299150e-02
 -7.6930318e+00
  1.2121151e-02
  2.2685087e-01
 -1.1114219e-01
  1.9754752e+00
 -9.7299868e-01
 -1.0194808e+00
  1.1663102e+00
  1.6367491e+00
  1.9288079e+00
 -2.4426110e+00
  6.5114516e-01
  1.4066508e+00
 -3.3082619e+00
 -8.6404729e-01
 -6.1615050e-01
 -2.6614585e+00
  1.7190485e-01
  1.8815843e+00
 -1.7991812e+00
  5.9035540e-01
 -1.0712283e+00
  1.4943373e+00
  3.6630323e+00
 -1.1485116e+00
  6.6707604e-02
 -2.4029481e+00
  4.4969666e-01
  3.7703524e+00
 -1.8339661e+00
 -3.3507776e-02
 -4.4805199e-02
 -3.7777845e-02
  8.5675726e-03
  7.0522684e-03
 -7.6870048e-01
 -2.2708869e+00
 -5.0793355e-03
 -3.8136095e-03
 -2.0373537e-01
  1.8270597e-01
 -1.0050783e-02
 -6.2459773e-01
 -2.7474988e+00
  8.0229687e-03
 -2.4093539e-02
  2.2742853e-03
 -8.5634058e-03
 -8.9299735e-03
  2.1098562e-02
  8.9261606e-02
  3.0295372e-02
 -5.7014953e-03
 -6.6277985e-03
  3.7384224e-01
 -3.9294701e-02
 -6.1032984e-02
  1.0817232e-01
  6.9193564e-02
  7.4002288e-02
 -1.3290641e+00
  1.0468898e+00
  3.9544187e-02
  3.2838538e-02
  3.9147455e-01
  7.1938537e-02
  2.9344973e-01
 -6.2583544e-04
  7.2951502e-01
  4.5195360e-02
 -3.9192596e-03
  2.1444827e-04
  7.9906963e-02
  1.7732470e-01
  6.5100014e-01
  6.2328685e-02
 -5.1512863e-02
 -5.2227564e-02
 -2.2649035e-02
 -2.1512356e-02
 -2.6150750e-02
  5.2353651e-03
  4.9886703e-03
  5.5353131e-02
  3.9109293e-02
 -5.5979166e-02
  1.8528881e-02
  2.3358571e-03
  4.9533060e-01
  5.0881449e-02
 -2.4055243e-01
 -6.7323976e-04
 -7.8153238e-03
  4.2689167e-02
  2.6225252e-02
  1.0131117e-01
  4.7258910e-02
 -4.2746484e-02
 -5.3815865e-03
  2.9764155e-02
 -1.5249440e-02
  1.4035466e+00
 -1.8616360e-02
  6.1480954e-02
  1.4413682e-02
 -1.0480992e-01
 -2.0320833e-02
  1.6363110e-02
  2.0957495e-01
 -2.4947178e+00
  1.6834531e-02
 -4.7222037e-02
  2.2651929e-02
  3.1071320e-02
  6.4327165e-02
  3.8046937e-02
  3.9040053e-03
 -1.3920082e-02
  7.8232378e-02
  1.6391868e-02
  1.4533852e-02
  2.8532755e-03
  1.1067617e-02
 -5.9825886e-02
  4.3152892e-03
 -6.6129088e-02
 -8.3549388e-02
 -6.4898869e-03
 -1.0197491e-01
  4.7324054e-02
  1.5924871e-02
  1.0307045e-01
  1.7002136e-01
 -4.6901822e-02
  1.5608378e-03
  3.4702033e-02
  3.4473583e-02
  1.9769683e-03
  3.9461076e-01
 -4.8988762e-01
 -4.1972948e-03
  6.4863972e-02
 -1.7032972e-01
  5.2937005e-02
  1.6769521e-02
 -4.8563965e-02
 -7.4640445e-02
 -1.9022038e-02
  4.5682117e-02
  4.4104524e-02
  6.2994227e-02
 -8.2398942e-03
  3.6190256e-02
 -2.8552376e-02
 -4.5500409e-02
  5.4225869e-02
 -2.8207885e-02
 -7.3031466e-03
  2.3128411e-02
 -1.6736181e-01
  1.8932622e-02
 -3.7876402e-03
 -2.7372895e-02
  9.9668980e-02
 -1.3148317e-01
 -5.8714401e-02
 -6.7523703e-02
 -1.6789401e-02
  9.8961040e-02
 -1.4212031e-02
 -7.3738642e-02
 -8.7951943e-02
  2.8855115e-02
 -1.3862622e-03
 -1.6841846e+00
 -1.6852653e-02
 -2.2162980e-01
 -1.4963807e-01
 -6.3677184e-02
  3.4098081e-02
 -1.6503878e-02
 -4.0379122e-02
  4.6098046e-02
  6.0098688e-03
 -2.9958029e+00
  4.4465672e-02
 -1.0145160e-03
  3.3338118e-02
 -2.3617027e-02
  3.3848222e-02
  5.0328690e-01
 -1.7153345e-01
  4.0398722e+00
 -3.8852006e-01
 -2.5252252e+00
  9.0069389e-01
 -2.6161585e+00
 -2.9859569e+00
 -1.6483073e+00
 -4.9049314e-02
  2.4224271e-01
  1.5344596e-01
  3.8865753e-02
  3.1092882e-01
 -1.3022271e-02
  2.0717185e+00
  3.1034562e-01
  6.8056422e-01
 -2.4916060e+00
  3.1857469e+00
 -9.3375728e-02
  8.9179492e-03
  1.5039819e+00
 -2.0757420e-03
 -7.6888210e-01
  7.5050509e-01
  3.7860241e-02
  9.2585325e-01
  3.4079988e-02
 -2.5499072e+00
 -2.1586406e+00
 -1.7398605e-02
 -3.1549595e-02
 -1.4004801e-01
  2.4467261e-01
  1.4006125e+00
 -1.4903446e+00
 -1.1698978e-01
 -1.0810091e-01
  9.0726510e-02
  3.0874541e-02
  1.7626656e-02
 -3.1548128e+00
 -1.7587539e+00
 -9.8551372e-03
  2.9091781e-02
 -8.8519389e-03
 -1.7005250e-02
 -1.7770832e+00
 -3.2215424e-02
 -1.2838147e+00
 -4.1997459e-02
  2.6233965e-03
 -6.0098089e-02
  1.3136967e-01
  5.7146598e-02
 -4.2456657e-02
  2.7260162e-02
  7.3219291e-03
 -2.4344856e-02
 -1.4402127e-01
  1.0854572e+00
 -4.4437405e-03
  2.1828722e-02
  1.6440162e-02
  1.1902588e-01
  5.6897611e-03
 -4.4155799e-02
 -1.4397399e-01
  6.4353733e-03
 -5.2371867e-02
 -3.0327935e-03
 -5.1911578e-02
  5.1244225e-02
  7.4250242e-03
  3.7395209e-02
  1.3370167e-02
  1.0889427e-02
 -2.0081526e-02
  3.7890214e-02
 -6.2296381e-03
  1.7377391e-02
 -2.6197702e-02
  1.6558670e-01
  2.4558902e-02
  7.3814131e-02
 -2.9697860e-02
  7.7989325e-02
 -5.0691873e-02
 -1.4884670e-02
  6.1009720e-02
  6.2907554e-02
 -7.9772100e-02
  2.3544144e-02
 -5.1308274e-03
 -2.6898164e-02
 -5.7645775e-02
 -1.1967130e-01
  5.9124116e-02
  2.5910763e-03
 -1.9075884e-02
 -3.0164422e-02
  8.5552171e-02
  4.6069846e-02
  9.3126312e-02
 -1.0058458e-01
 -1.4017508e-03
 -1.5628911e+00
 -1.4800930e-02
  2.4001540e-01
  2.7918473e-03
  2.4035186e-02
  1.6834807e-02
 -2.0075766e-03
 -1.9195793e-02
  4.9220476e-02
 -5.9635889e-02
  9.1354534e-02
  4.2918868e-02
 -4.1813716e-02
 -3.7904237e-03
 -1.1433026e-02
  2.4123482e-01
 -3.4708090e-02
 -2.5690183e-02
 -4.4915341e-02
 -8.2074858e-02
 -4.4550598e-02
  5.2379973e-02
  4.0564802e-02
 -2.2447515e-02
  5.7096034e-02
 -2.0838080e-02
 -2.8501584e-03
  1.6704245e-02
  1.9958014e-02
  1.5103345e-02
  1.0834148e-01
 -7.3452383e-02
  9.3979716e-02
 -1.8938072e-02
 -2.4506267e-02
 -5.2887339e-02
 -2.6277930e-02
 -6.7076109e-02
  1.1991089e-01
  1.6417132e-01
 -4.5209609e-02
  9.6003637e-03
  8.5617162e-02
 -3.8542952e-02
  8.2892828e-02
 -6.1024401e-02
  4.1678925e+00
 -4.3041196e+00
 -1.4559700e+00
 -1.2401594e+00
 -1.4661185e-02
  9.7847790e-01
 -9.3881375e-01
 -1.2806709e+00
  9.0537900e-01
  5.3840530e-01
 -8.8632946e+00
 -1.5572997e-02
 -9.8763734e-01
  2.6347821e+00
 -1.3828146e-01
 -1.1817889e+00
  1.6117069e-01
 -1.6478834e+00
 -1.5314660e+00
 -2.3522633e-01
  1.7564692e-01
 -2.5769575e+00
 -3.4422846e+00
 -9.8544586e-01
 -1.4078857e+00
 -7.9026514e-01
 -2.2591193e+00
 -1.3684745e-01
 -1.5576243e+00
 -5.9569139e+00
 -5.8568805e-01
  1.9265555e+00
 -3.1294310e+00
 -1.0913792e+00
 -8.6674732e-01
 -5.7468110e-01
 -5.6741076e+00
 -9.0605468e-01
  6.0577717e+00
  3.3041651e+00
 -3.3453900e-02
 -1.0525454e+00
  1.7496451e+00
 -1.9290172e+00
  7.4743226e-02
 -6.2808745e-02
 -6.9408387e-02
 -4.1541975e-02
 -2.2478495e+00
  1.2788564e+00
  3.6860394e-01
  1.5922993e+00
 -1.2116621e-01
  6.3558102e+00
 -2.3706405e+00
 -3.1577438e-01
 -1.0491262e-01
  5.6301922e-02
  6.6773782e+00
 -5.6696576e-01
 -6.8175457e-02
 -2.3513868e-01
  1.0044808e+00
  6.2989958e-02
 -3.8493976e-01
 -4.8068771e+00
 -6.8665498e-01
  4.6275117e-02
 -1.9910257e+00
  6.6608047e-01
  1.8518242e-01
  8.2001656e-01
 -1.0552083e+00
  5.7530677e-01
 -2.9014807e+00
 -4.1549200e-01
 -2.0727382e+00
  3.3186817e+00
 -1.5612178e+00
  5.2684259e+00
  2.1043298e+00
  1.0135762e-01
  1.9857194e-01
 -1.1187857e+00
 -1.4781204e-01
 -1.3970171e+00
 -1.9382521e+00
  3.0523598e-01
  3.5997547e-02
 -4.8117839e-02
  3.5545588e-01
  1.5729655e-02
  5.5535366e-03
  2.1167098e-02
 -1.0506348e-01
 -7.0204139e-03
  7.3191146e-03
  4.1762027e-03
  5.6760740e-01
 -1.5831709e-01
  1.8318234e-02
  3.5590652e-02
  6.5239105e+00
 -4.0772298e-01
  4.9699173e+00
 -5.0600038e+00
  1.5907845e+00
  4.0663414e+00
  2.1446040e+00
 -4.3758445e+00
  4.1734260e-02
 -4.7901545e+00
 -1.7132006e+00
 -3.7725179e+00
  3.4573162e-03
 -8.9672327e-01
  1.9586381e-02
 -5.6182146e+00
  5.1151581e+00
 -2.4120581e-01
  1.2198475e-01
 -8.9583296e-01
  3.8769352e+00
  1.1868836e+00
 -3.1290247e+00
 -3.8247116e+00
  1.2023867e+00
 -3.7110653e+00
  3.9678669e+00
 -1.8381473e+00
 -2.6881618e+00
 -3.2291954e+00
  4.0325201e-01
  1.8656529e+00
  4.4553657e+00
 -2.2959220e+00
  4.5239035e-02
  1.0130103e+00
  9.2282429e+00
 -2.2442937e+00
  9.9339820e-02
 -9.8690037e-03
 -1.2838568e-01
 -2.6818738e+00
 -1.0239301e+00
 -6.7392893e+00
  9.3994565e-02
  1.8246589e-02
 -5.8913874e-03
 -1.0716409e-02
  4.5543086e-02
 -1.2251753e-02
 -5.5304170e-01
  1.7662089e-02
  2.5120327e-01
  1.6904153e-02
  1.9639401e-01
  3.2003101e-02
  2.7427126e-02
 -2.1743761e-02
  6.8483204e-02
 -1.9379030e-03
  1.4114261e-03
  1.6357866e-01
 -1.0696672e-04
 -1.7413732e-02
 -9.3881041e-03
  4.0575908e-03
 -3.6213644e-02
  5.4870201e-03
 -5.7793271e-02
 -2.0388025e-03
 -5.2254781e-02
 -3.6609311e-02
 -1.1604619e-01
  1.2211588e-02
 -1.4687846e-02
 -1.9793022e-02
  8.4362421e-03
  4.7962766e-02
 -3.3217307e-02
 -1.2050199e-01
 -1.6494071e-01
 -9.2920177e-02
 -2.5536900e-02
  2.5674980e+00
 -2.9414717e-02
  9.0966625e-03
 -1.6577362e-01
 -3.6115736e-01
  4.3308120e-02
  9.6077910e-03
 -1.6311906e-02
  1.4414287e-02
  6.7803822e-03
 -1.4181179e+00
  2.0157233e-02
 -5.2968703e-02
  2.7566835e-02
  3.7298113e-02
  1.5651887e-02
 -2.1391950e+00
 -7.2991282e-02
  1.3432595e-04
  4.8407707e+00
 -1.3652177e+01
  3.9298451e+00
  1.5789754e+01
  7.6699007e-01
 -2.6522152e+00
  6.2238159e+00
 -4.0988717e+00
 -2.2908661e-01
 -2.9760185e-01
 -4.7491045e+00
 -5.3545418e+00
  9.3133584e-02
  1.2601465e+01
  2.4390113e+00
 -7.4391377e-01
  1.0635726e-02
  3.6425599e-01
 -3.4406972e+00
 -9.6271582e-02
  3.6799192e+00
  4.3964028e+00
 -9.1834335e+00
 -2.2892835e-02
 -6.9339876e+00
  5.0088644e+00
 -9.3609810e-02
  2.9783883e+00
  2.4503209e-01
 -1.2727947e+00
 -4.9607902e+00
 -1.5483648e+00
  4.0760332e-01
  4.5030229e-02
  2.1607385e+00
 -1.1793666e+00
 -1.6242490e+00
 -1.1957953e-01
 -2.6050484e+00
  3.2778848e-02
 -2.3052393e-01
  1.3389745e-01
  1.8204955e-02
  2.0314095e+00
 -6.5338247e-02
  1.2164077e-01
 -1.0819137e-01
  2.6581257e-03
 -1.2737459e-02
  7.6435395e-02
 -2.8034315e-02
  1.4436790e-02
  1.2182358e-02
 -6.4736940e-02
 -2.4361724e-02
  9.9138748e-03
 -2.0864779e-02
 -4.6837278e-02
 -2.2301917e+00
  2.7173478e-02
 -5.0153535e-02
 -1.1252227e-01
 -2.3087308e-02
 -1.1674191e-01
  1.0254961e-02
 -2.3896661e-01
  2.1392979e-02
 -2.0398980e-03
  6.6926004e-03
 -6.4145359e-03
  2.1292945e-02
 -6.3018147e-03
 -7.8440821e-03
 -1.2765701e-01
  8.0685159e-03
 -1.3696113e-01
 -3.2750010e-02
 -6.3186339e-03
 -2.0478770e-01
 -1.7450802e-02
 -1.2600016e-02
  3.3230256e-02
  1.2830025e-02
  9.9025690e-04
  4.9563772e-03
 -1.2566817e-01
 -7.6522136e-01
 -1.3705228e-01
  3.8535077e-02
  6.2193166e-02
  2.0912830e-02
 -3.5163458e-02
 -9.4226236e-03
  8.2296804e-02
 -5.4803197e-03
 -8.9859394e-03
 -3.2993066e-03
  1.5850586e-03
  1.7836189e-02
  5.8464188e-02
 -8.0997661e-02
  6.4538210e-04
  4.3202437e-02
  1.1039184e-02
 -1.7766683e-01
  7.7596135e-02
  3.7322633e-02
  1.6305115e-02
  5.8668185e-02
 -5.5185288e-02
  6.0532833e-03
 -5.1623587e-03
  3.9725684e-02
 -6.4645767e-02
 -3.9388392e-02
 -1.6461531e-02
  2.5396409e-02
  3.2435942e-02
  6.0744628e-02
  6.5851331e-02
  1.4388439e-01
  2.7198875e-03
  2.6804080e-02
 -1.2504087e-02
  5.7945387e-03
  2.2078840e-02
 -5.1593084e-02
  6.9293313e-02
  8.2183249e-02
  1.2627189e-02
 -3.2098040e-02
  1.3569623e+00
  8.8142708e-02
 -2.1815760e-02
 -1.3354288e-02
  1.1592309e-02
  9.5714897e-02
  1.7990010e+00
  4.5222841e-02
 -2.3522208e-02
  2.0498846e-02
  4.5731351e-02
  1.6845803e-01
 -8.7116234e-02
  9.5287450e-03
  1.1865422e-01
  1.3060165e-02
  7.3889852e-02
  2.0907477e-02
  9.9331930e-02
 -8.9313388e-03
 -8.0129877e-02
  2.6125681e-02
  9.2208333e-02
 -4.6564236e-02
  2.9991573e-02
  9.7736930e-03
 -6.3655600e-02
  3.6891203e-02
  6.4488165e-02
  3.6764457e-03
  7.8313470e-02
  6.0341381e-02
  5.3124037e-02
  5.7026714e-02
 -1.5575164e-05
 -3.3362281e+00
  3.0017790e-01
 -2.0906835e+00
  2.0889129e-02
 -5.2016746e-02
 -7.2265282e-02
 -3.0547618e-03
 -2.2405244e-02
 -2.2886988e-02
 -6.1595824e-02
 -1.2370656e-02
  9.9817827e-02
 -1.1548184e-02
 -2.6447307e-02
 -1.1807559e-02
 -5.0437573e-02
 -2.0405390e+00
  5.1717505e-02
  1.5896562e-02
 -8.8498026e-01
 -5.7757869e-02
 -1.3378847e-02
 -7.3329136e-02
 -1.7169932e-02
 -6.7583853e-01
  4.4711366e-02
  6.5794152e-01
 -1.7700031e-02
 -6.3368543e-03
 -4.9826326e-03
 -4.6325838e-03
  1.1350499e-02
  2.4156854e+00
 -9.4442584e-02
 -2.8177090e-02
 -2.5465427e-02
  6.0170484e-01
 -4.4114780e-02
  4.2336527e-01
 -2.9038842e+00
  9.2176133e-01
 -1.9846628e+00
 -4.8132768e+00
 -1.0833569e+00
 -2.0106559e-01
  7.1804816e-01
 -5.8119071e-01
  4.2088757e+00
  1.7289121e+00
 -4.9762407e-01
 -1.2882725e+00
  1.5054523e+00
  9.6507603e-01
  4.8460422e+00
 -1.1573629e-01
  1.4289131e+00
  1.8099916e+00
  2.4245865e+00
 -1.5542037e+00
 -8.4724385e-01
  2.5236740e+00
  1.3365142e+00
 -3.6812229e+00
  1.0174257e+00
 -1.5385079e+00
  1.0462269e+00
  2.0776141e-01
  4.3804583e-01
 -1.3714278e+00
 -2.3171296e+00
 -6.0111247e-02
 -5.0771296e-01
  1.1987128e+00
  5.1548064e-01
 -2.3703766e-01
 -2.5493734e+00
 -9.1359079e-02
 -8.4343058e-01
  2.4746022e+00
  6.2425357e-01
  1.5543144e+00
  9.0601581e-01
  3.5181801e+00
  2.5447382e-02
 -6.5547466e-02
 -5.8346599e-02
 -3.7658632e+00
 -2.1438535e-01
 -4.3655739e+00
 -2.9579246e+00
 -3.0523543e+00
 -1.1709094e+00
  3.2047415e+00
  4.4643364e+00
 -3.3652527e+00
 -3.6022673e+00
  4.7736254e+00
 -3.4223380e+00
 -3.9074378e+00
  1.4375650e+00
 -3.6709502e+00
  4.1627331e+00
  2.7394917e+00
 -2.6402564e+00
  2.6543224e+00
  3.5615661e+00
 -3.5356951e+00
  3.7177274e+00
  3.6733403e+00
  3.0604427e+00
 -3.9902194e+00
  3.8509624e+00
  3.5102255e+00
 -3.3910370e+00
 -2.9638517e+00
 -3.0956259e+00
 -5.3071089e+00
 -3.0240822e+00
 -3.1488886e+00
 -3.6524572e+00
 -3.8190386e+00
  3.2977388e+00
 -3.5383036e+00
 -7.6889837e-01
 -2.9193258e+00
  5.9275158e-02
 -4.3851666e+00
 -8.0559587e-01
 -3.3148026e+00
 -3.0636194e+00
 -3.2373855e+00
  3.9972918e+00
 -3.8627737e+00
  3.8792961e+00
 -3.7350543e+00
 -2.2905068e+00
 -3.7650113e+00
  2.9296820e+00
 -3.5185864e+00
  2.8997505e+00
  4.1284447e+00
  3.5619488e+00
 -3.6299288e+00
 -3.7831011e+00
 -1.8686380e+00
  2.7958813e+00
  3.9043725e+00
  2.4667327e+00
  2.8249896e+00
  2.6929018e+00
 -3.8221860e+00
 -2.7318518e+00
  3.9207292e+00
  2.9766564e+00
 -3.2829144e+00
 -3.8190007e+00
 -4.1293335e+00
  3.2274060e+00
 -6.6546500e-01
  1.6994685e+00
  3.7048457e+00
  4.2125144e+00
  3.1389654e+00
  4.7437406e+00
 -3.0105588e+00
 -3.2414021e+00
  3.6556559e+00
  3.7357802e+00
 -4.4797873e+00
 -1.3268477e+00
  4.4684968e+00
  1.0476207e+00
 -6.7969881e-02
 -1.7009202e+00
 -3.3548939e+00
 -4.0702991e+00
  2.6578813e+00
  1.0410511e+00
 -3.8540719e+00
 -3.8011832e+00
 -2.5414562e-01
  2.3418779e+00
  4.8011038e-01
  4.1424270e+00
 -9.7280443e-01
  3.8941860e+00
 -3.2736511e+00
  3.7157297e+00
  1.0820246e+00
  8.9169960e+00
  1.0449756e+01
  1.1568578e+01
 -8.6314487e+00
 -1.4031746e+01
  1.0251697e+01
  2.1576414e+01
 -2.3127407e+01
  1.8981691e+01
  1.9024483e+01
 -1.1735921e+01
  2.2672243e+01
 -1.5104261e+01
 -2.8713814e+01
  2.8453217e+01
 -4.9526086e+00
 -2.5667080e+01
  1.9365681e+01
 -1.3901036e+01
 -1.3775119e+01
 -1.9705313e+01
  2.1282625e+01
 -2.0395206e+01
 -1.4616481e+01
  3.1165815e+01
  8.0736847e+00
  7.7567477e+00
  1.6547777e+01
  2.1306890e+01
  1.4584689e+01
  1.9212936e+01
  1.5844219e+01
 -1.8662523e+01
  1.5734476e+01
  1.7081769e+00
  2.5335485e+01
 -1.4431045e+00
  2.7228584e+01
  4.1608872e+00
  1.1750216e+01
  1.5418748e+01
  2.5581095e+01
 -1.4092857e+01
  1.9796976e+01
 -1.9577660e+01
  3.7868580e+01
  6.5797482e+00
  2.4971266e+01
 -1.7776318e+01
  1.9055019e+01
 -2.8757603e+01
 -1.9014069e+01
 -2.6786585e+01
  1.7546015e+01
  1.4723972e+01
  2.4674734e+01
 -1.6661478e+01
 -2.3817812e+01
 -1.3483798e+01
 -1.4310194e+01
 -1.3540482e+01
  2.7931702e+01
  2.1341057e+01
 -1.9489956e+01
 -2.1215401e+01
  1.6587734e+01
  2.2715773e+01
  2.3003101e+01
 -2.4621506e+01
  1.5196475e+00
  2.2252753e+00
 -2.8669271e+01
 -2.3484028e+01
 -2.3038292e+01
 -1.8076530e+01
  2.9360506e+01
  2.8451752e+01
 -1.6566862e+01
 -1.6227257e+01
  1.8006346e+01
 -7.5601929e-01
 -2.5430330e+01
 -1.3668635e+00
 -5.7951002e+00
 -2.1932087e+00
  2.6029638e+01
  2.1159693e+01
 -6.5798249e+00
 -3.5671566e+00
  2.0359720e+01
  2.7593557e+01
  3.8056762e+00
 -1.6777201e+01
  1.2729493e+00
 -2.9748793e+01
  4.7027108e-01
 -1.7839233e+01
  1.1612501e+01
 -2.3521870e+01
 -3.6965439e+00
 -2.1783202e+00
 -2.2397046e+00
 -2.2290134e+00
 -3.5396006e+00
  4.2789334e-01
 -6.0951388e-01
  2.8123108e-01
 -1.0655613e-01
  5.6026489e-01
  3.0134568e-02
 -1.0221717e+00
 -5.2294359e-02
 -9.4798625e-01
 -5.2632713e-03
  1.1800928e+00
  5.3802866e-01
  7.1138328e-01
  4.7717422e-01
 -2.9058238e-02
 -1.7442840e-01
 -4.8821744e-01
  1.2971120e-01
 -6.7017153e-02
 -3.7185960e-02
 -1.4220092e+00
  4.4636083e+00
  1.9322543e-01
 -1.8530238e-01
 -1.6592273e+00
  3.2405204e-03
  1.6787390e+00
  1.6573470e+00
 -1.0901157e+00
  1.5822291e+00
  2.6498469e-02
 -1.5637571e+00
  3.8088265e-01
 -1.5103884e-02
  8.5255066e-03
  4.7963357e-01
 -2.3207957e-02
  9.4220817e-02
  2.0916386e-02
 -6.6280417e-02
 -2.4487685e-02
  2.1688100e-02
  2.0488591e-01
 -2.2543751e-02
  4.8207953e-03
  2.9785645e-03
  1.1508844e-01
 -1.4733018e-02
  1.5949149e-01
  4.5105036e-02
 -4.6936660e-03
 -4.3725833e-02
  1.5179445e-01
  4.6678632e-03
  1.1990716e-03
  5.2267838e-02
 -1.0367909e-02
 -2.3517642e-02
  2.3084687e-02
 -9.5378552e-03
 -1.1762702e-01
  5.0123323e-02
  2.9474717e-02
  4.9251025e-03
  1.5054985e-02
 -2.9120525e-02
 -1.2017861e-02
 -1.8831059e-02
  8.0511393e-03
  2.7908303e-03
  3.3914256e-03
  3.4598976e-02
 -1.8304055e+00
  1.9369088e-02
 -3.2065596e-02
 -1.5330012e+00
  1.5186234e-01
  2.1815589e-02
  2.1719526e-02
 -5.4004794e-01
  4.7481641e-02
  6.9830221e-01
 -3.2044858e-02
  5.3947907e-02
  2.1295475e-03
 -6.8490379e-02
  9.4283093e-04
 -5.2261794e-01
 -2.0188229e-02
 -1.5072164e-01
 -1.3772192e-02
  1.8525152e-01
  1.5510740e-03
  5.2751996e-02
 -5.0588534e-04
 -2.6214683e+00
 -9.2261015e-03
  1.8386440e-02
  2.3180932e-01
 -9.7698420e-03
 -2.5104558e+00
  1.1056064e+00
  1.2852877e-02
  3.5676582e+00
  6.3196910e-03
 -1.0083996e+00
  2.3169594e+00
 -4.2732853e-02
  5.4614395e-01
  1.5956057e-02
 -1.0140838e-02
  8.6757559e-03
  6.7366092e-03
  7.1776070e-02
 -5.1684991e-02
 -2.4795726e-02
 -2.9782629e-02
 -2.8259814e-04
  2.9628202e-02
 -1.4249131e-01
 -4.2123011e-01
  1.1530420e+00
 -1.3183421e-01
 -7.3962994e-02
  2.2874348e-02
 -6.9041647e-02
  8.3145291e-01
  2.9410651e-01
  2.7066559e-02
  9.8244077e-01
 -2.1527851e+00
 -8.4353465e-01
 -6.1148494e-02
 -2.0242845e-01
 -2.7078277e-01
 -4.6135932e-02
  4.2735402e-02
  1.4582516e-02
 -3.4036133e-02
  6.0773183e-02
  1.7798210e-02
 -6.4897209e-02
  8.2722083e-02
 -2.2525635e-02
 -4.3500513e-02
  4.5787640e-02
  3.3512647e+00
 -2.4979176e-02
 -2.0639380e-03
 -3.2940116e-02
 -3.2785300e-03
  2.9524109e-01
  1.4198098e-02
 -2.7069647e-02
 -1.2655829e-02
 -2.4037944e-02
 -4.9123675e-02
 -1.3110401e-01
 -7.5240363e-03
  4.7799386e-02
  4.0679657e-01
 -1.2717865e-02
  2.0972417e-01
 -1.8497233e-01
  4.6877600e-02
  1.0475498e-01
  5.6715231e-02
  5.0658133e-02
 -3.7737513e+00
 -2.3524759e-02
 -2.3616673e-02
 -2.1685257e-03
 -3.4740437e-02
 -3.7786968e-02
  6.1348766e-02
 -2.0455992e-04
  7.6251400e-01
 -1.0229109e-02
 -1.8927562e-03
  2.2845829e-02
  8.8240892e-02
 -3.3941147e+00
 -1.5516460e-02
 -6.5105647e-02
  1.8672077e-02
 -1.3784233e-02
 -2.0648273e-02
 -1.9175675e+00
  3.2108519e-02
  5.1488616e-02
  8.5031413e-02
  3.7650704e-01
  3.2173295e-02
  1.7020501e-02
  4.5660242e-02
 -2.9383836e-02
 -2.0310491e-02
  2.1592392e-02
 -7.3027350e-02
 -1.3093786e-02
  1.3462027e+00
  1.6744874e-02
  1.4965002e-02
  1.1643113e-01
  3.7496515e-02
 -3.7432443e-03
 -3.5293959e-02
 -3.9867773e-03
 -6.5499961e-02
 -4.5308061e-02
 -8.3635055e-02
  1.7779535e-03
 -3.5544450e-03
  1.5147784e-02
 -2.8528764e-03
 -5.2660070e-02
  3.2596320e-02
 -8.4607638e-03
 -4.7434472e-02
  5.7685487e-02
 -1.5387455e-01
  4.1792291e-01
 -5.4927807e-02
  2.5361711e-02
 -9.5786825e-02
 -1.9248143e-02
 -4.2853019e-01
 -2.7803252e-03
  4.7910671e+00
 -1.1606459e-02
 -1.6943902e-02
  7.4451827e-02
 -7.7132501e-02
  2.7940533e+00
 -2.1579855e-03
 -8.9262909e-04
 -6.2683320e-01
 -4.5637254e-02
 -1.7333324e-01
  3.0138945e-02
  2.5616219e-02
 -2.9598068e-02
 -2.1987807e-02
 -1.6001344e-02
  1.2707649e-01
  7.4500643e-02
  1.2380311e-01
  3.2494946e-03
  6.2209558e-02
  2.2154681e-02
 -3.2793866e-03
  7.2996736e-02
 -9.3119003e-02
  9.7891681e-02
  2.3537779e+00
 -1.9275077e-01
 -2.4576763e-02
 -4.3999482e-02
 -2.2207431e-02
  4.8527181e-02
 -2.1128686e-02
  3.8331069e-02
 -3.9216596e-01
  2.4758531e-03
 -7.6103009e-02
  1.5001000e-03
 -6.1662989e-03
  1.5958470e-01
 -6.8685800e-02
  6.2625021e-02
 -7.5240366e-02
  1.3694340e-01
  1.2015409e+00
  2.3673138e-02
  3.6364549e-01
  6.2343832e-02
  3.4469057e-02
 -8.6425693e-04
 -1.6216077e-02
 -1.2159334e-03
 -3.1608179e-02
 -3.8633332e-01
 -2.8667226e-02
 -9.1236226e-02
 -1.2265613e-03
 -3.8591155e-03
 -1.2296689e-02
  1.0184542e-03
 -3.1885263e-02
 -1.1481346e-01
 -8.3725322e-03
  2.0897321e-02
  4.2352289e-02
 -1.1947515e+00
  3.9812341e-02
 -3.4949403e-02
 -6.3422576e-02
 -9.7762935e-02
 -5.4855861e-02
  2.5323799e-02
 -2.2604285e-02
  4.7290020e-02
 -4.7585606e-03
 -2.5842538e-01
  2.4277122e+00
  1.6603000e-02
  4.1456115e-02
  2.9539224e-02
  1.0986017e-01
  3.0532908e-02
 -9.3043995e-01
 -4.7742732e-02
  7.9417616e-02
  5.6803818e-03
 -3.8842257e-02
  3.7437139e+00
 -1.9508054e-02
  5.9685633e-03
  2.2647802e-02
 -1.5053957e-02
  4.1508287e-02
  1.1704045e-02
 -2.9501293e-03
  2.1426005e-03
 -7.6802056e-03
  1.0075514e-01
 -1.6129097e-01
  9.9583454e-02
  5.4669809e-01
 -1.2427525e-02
 -4.4086125e-02
  1.6210586e+00
  4.9935434e-02
  6.5685292e-03
  1.3299637e-01
 -3.8431060e-02
 -3.2608319e-02
 -1.3237721e-02
  1.1982977e-01
  6.7260027e-02
  2.6897784e-02
 -5.1250699e-04
 -2.0072022e-02
  1.3175297e-02
  3.0698285e-02
 -2.2291197e-02
  1.1646574e-02
  4.0919012e-03
  1.2817191e-01
 -2.3905648e-02
  1.0133936e-01
 -2.5346382e+00
 -5.8789328e-02
  1.4030575e-03
  1.8528506e-02
  7.5964071e-02
  6.5020210e-01
  3.2325275e-02
  1.5152519e-03
 -1.1329247e-02
 -7.6966137e-02
  3.6254164e-02
 -1.1426719e-02
 -8.4249556e-02
 -1.6200042e-01
 -1.7502129e-02
  5.3851917e-02
 -8.4804986e-03
  1.2322646e-01
 -7.1852610e-02
  1.4275224e-03
  1.2168038e+00
  1.9140799e-02
  5.0728507e-02
 -9.3002158e-04
  1.5544002e-02
  2.5584059e-02
 -2.4495361e-02
  9.6198050e-03
  2.7987059e-02
 -1.5716825e-01
  2.2535099e-02
 -1.0388425e-02
 -9.2859052e-02
  2.9709671e-02
 -5.2875701e-02
  1.8524498e-02
 -6.3717004e-04
 -5.9228733e-02
  7.6451093e-02
  2.7817896e-02
  2.7593639e-02
 -9.4820037e-02
  5.8097765e-02
  6.6760498e-01
  7.2045958e-01
  8.3269309e-03
 -6.7715853e-02
  1.2475500e-02
 -1.1092507e-02
 -3.0087123e-02
  4.9461246e-02
  1.2859866e-01
  1.2645323e-04
  3.3572335e-02
  9.3737409e-02
  1.9552706e-02
  8.0758501e-03
 -3.3764751e+00
 -2.3714853e-02
  5.5611376e-02
  8.5651852e-02
  5.0360750e-02
  2.5327608e-02
  2.8594019e-02
  1.2289520e-02
  6.6280365e-02
  1.0202878e-01
 -1.1855114e-02
  3.4348827e-02
  1.1599785e-02
  7.0675304e-03
  1.4017870e-01
  1.4948203e-03
 -1.2545282e-01
 -1.3510315e-02
  7.2960476e-03
 -2.9259130e-02
 -1.0639830e-02
  1.6503674e-05
 -6.1880823e-02
 -3.9554848e-03
 -1.2637993e-02
 -9.3274371e-04
 -1.3764995e-02
 -1.2882225e-01
 -1.0334358e-01
 -1.5815061e-02
 -5.8736604e-02
 -1.5130717e-01
 -6.3476336e-01
 -4.9065724e-03
 -1.8649237e-02
  9.6790060e-02
 -4.5931214e-01
  1.7439676e-02
  2.9690538e-02
  1.9939320e-02
  5.5997580e-02
 -1.4509779e-02
 -3.4309089e-02
  7.5839974e-02
  3.4108102e-02
 -7.2344720e-02
  4.9478031e-04
  3.3344718e-04
 -3.9845832e-02
 -7.5838082e-02
  2.4788406e-02
  9.5229939e-02
 -1.3817393e-02
 -5.8273692e-02
  8.4524140e-02
  4.5608371e-03
  5.3063515e-03
  1.2832242e-01
  2.3932189e-02
  1.0184599e+00
  3.6507811e-02
 -2.8296660e-03
  7.7218354e-02
 -3.7147101e-02
  5.2336708e-02
  3.7772234e-03
 -3.0232651e-02
  5.6451511e-02
 -4.0078692e-02
  2.3425086e-03
 -1.6298844e-02
  6.4745814e-02
 -3.7664146e-04
  2.3140511e-02
 -1.0428850e-01
  4.3276671e-02
 -2.0466244e+00
  4.1060001e-02
 -3.7719582e-03
  2.2588465e+00
  2.1984458e-02
  8.6000655e-03
 -4.2262211e-02
 -4.5888525e-02
  1.0972693e-02
 -1.1511868e-03
 -2.3603272e-02
 -2.1922599e-01
  2.8790297e-02
  1.8323604e-02
  4.2675592e-02
  4.3662366e-02
 -3.3486120e-02
 -3.1932864e-02
 -2.2973508e-02
  5.5048761e+00
 -9.7343568e-03
  5.0207134e-03
 -8.0921017e-03
  1.6692800e-02
  3.2569218e-02
 -2.4003785e-02
  2.2312339e-02
  1.4472967e+00
 -2.2759862e-02
 -3.8665039e-03
  1.5026096e-01
 -4.4659849e-02
 -7.3046270e-03
 -5.4984592e-02
 -5.0608721e-02
 -4.0362492e-02
  5.0573457e-02
 -1.2250160e-01
  2.8686121e+00
 -2.8700739e-01
  2.7498326e-01
 -4.7529902e-02
 -1.1218531e-01
 -5.3467546e-02
 -3.4235767e-03
  1.5453642e-02
 -1.0971868e-01
  1.0219464e-01
  3.0853251e-02
 -2.6332373e-03
  4.0933479e-02
 -3.1077359e-02
 -4.8975047e-02
  1.2283790e-03
  2.9676832e-02
 -8.5485660e-02
 -1.6965920e-02
  5.3922769e-02
 -1.1352226e+00
 -1.7765048e-03
  4.4721968e-02
  4.3439090e-02
  1.9351576e-02
 -1.6210295e-02
  5.0518006e-02
 -6.3464693e-03
 -7.3266703e-01
  7.0744611e-02
  6.5578908e-02
  1.1741363e-01
  1.1743400e-02
  4.8406644e+00
 -2.8939871e-02
 -1.9097000e-02
 -3.8527243e-03
  4.1256261e-01
  1.9687589e-02
 -1.2598327e-01
 -1.2837111e-02
 -6.7212083e-03
  2.6593668e-02
 -8.0865240e-03
 -5.2746527e-02
 -1.9274041e-02
 -2.6020592e-02
  6.8930596e-02
  3.6781508e-02
  3.2051690e-02
 -1.0950820e-02
  5.1952112e-02
  3.3537991e-02
  7.4542075e-01
 -2.7258627e-02
  1.4302653e-02
  3.0301806e-02
 -1.8039184e-02
 -7.8917429e-02
 -1.0418341e-02
 -2.5874980e-02
  5.3944238e-02
 -5.1071559e-04
  2.0629691e-02
 -1.0068167e-02
 -1.0708106e-03
 -3.7015785e-02
 -1.6406408e-01
 -5.1569618e-02
 -4.6626955e-02
  6.7003742e-02
  2.3517387e-01
 -5.0627522e-02
  1.5363269e-01
  4.5756805e-03
 -2.8965920e-03
 -2.0009592e-02
  1.5529005e-01
  7.9827644e-02
 -7.8147110e-03
  2.4720823e-02
  2.6772721e-02
 -8.7230675e-02
 -2.1936020e-02
  4.5344052e-03
 -1.1622972e-01
 -7.4411345e-01
  1.7710899e-01
  3.8603552e-02
 -1.5767520e-02
 -7.7118330e-02
 -4.1770474e-03
  1.4401584e-02
  2.0044506e-02
 -1.0691026e-03
  2.8244761e-01
 -8.2926624e-02
 -6.0762867e-02
  6.4724423e-02
  6.1129141e-01
  2.0500366e-02
  5.9569169e-02
 -6.7388013e-02
  1.0117016e-01
  5.5818528e-02
 -4.4036046e-02
  5.3491034e-02
 -6.2324288e-03
  2.0033676e-02
  2.8585454e-02
 -3.4480808e+00
 -1.0307846e-03
  8.4419698e-02
  2.5615592e-02
 -4.5315117e-02
 -7.1105181e-04
 -2.2845488e-02
 -6.1393429e-02
  6.4342722e-02
  3.3262634e-01
 -4.6620212e-02
 -5.4452568e-02
 -6.0622636e-03
 -3.4687832e-02
 -3.5620071e-02
 -7.8678754e-04
 -4.3236014e-02
 -3.2932263e-02
  1.4647661e-02
  7.3256232e-03
 -3.9752569e-02
 -1.3254778e-02
  1.8305586e-01
  2.9460549e-02
 -2.2507092e-02
  1.8196461e-01
 -1.7608428e-02
  3.6890883e-02
  4.6532140e-03
  5.7914760e-02
  3.1972569e-03
  1.5258674e-01
 -1.7137676e-02
 -2.3362899e-02
 -1.2604913e-02
  5.1678196e-02
  3.8972143e-02
  4.8848905e-02
  6.0653802e-02
  2.2723513e-02
 -5.1078624e-03
  5.7147805e-02
  1.7319207e-01
 -3.1538287e-01
 -3.5862006e-02
 -3.9626230e-02
  4.4338778e-02
  5.7885159e-02
  7.7549019e-03
 -3.3816706e-02
  2.7989287e-02
 -6.2180337e-02
 -6.7193545e-02
 -3.1559923e-01
 -3.9319381e-02
 -7.5817731e-04
  9.1276146e-02
  1.1253230e-01
  1.5908543e-02
  1.7904371e-01
 -2.0893877e-02
  4.9351919e-02
 -2.4663960e-03
  1.1656401e-01
  5.3752419e-02
 -5.3485271e-02
 -3.7100874e-02
 -7.6879330e-02
 -1.6511202e-02
  3.9655168e-02
 -1.7318407e-02
  8.9912936e-02
  2.4312926e-02
 -1.7138587e-01
  9.7599868e-03
 -1.7539927e+00
 -6.9996452e-01
 -1.5308348e-02
  3.5583697e-02
 -1.9403506e-02
  5.1812637e-03
  6.2050488e-02
 -1.2865955e-01
  3.5881668e-03
  8.5302196e-02
 -5.6756936e-02
  3.7324235e-02
 -7.8549929e-02
 -2.4979040e-02
  8.1780070e-01
 -7.0294864e-03
 -9.9711325e-03
  6.0001150e-02
  1.3743816e-01
 -8.2163237e-02
 -1.2073694e-02
  1.7668013e-02
 -2.7717634e-03
  1.2292448e-01
 -7.4373342e-02
  1.5727786e-02
  6.7803718e-02
 -1.1066203e-03
 -5.3212687e-02
 -7.4856728e-02
  4.4912864e-02
 -6.3809723e-02
  2.4701022e-02
 -2.6631501e-02
  3.7846189e-02
 -5.1058315e-02
 -1.5034677e-02
  2.2897735e-02
  5.1839486e-02
 -1.8658360e-02
 -1.6489509e-02
 -1.2043807e-02
  1.6038412e-02
  3.6202140e-02
 -5.9347814e-03
  1.8495876e-02
  3.0246375e-02
  3.1856790e-01
  1.2343950e-02
 -1.7919594e-02
  9.3792476e-02
 -1.3305567e-03
 -4.0998995e-02
  3.1230237e-02
 -7.6905262e-01
  4.5135543e-02
 -5.2790098e+00
 -6.5839148e-01
 -6.1718229e-02
 -1.5427662e-01
  1.9791608e+00
  2.6680142e-01
  2.0506606e+00
 -2.7531061e-02
  8.7876998e-02
 -5.2945681e-02
 -2.0972265e-02
  4.6298131e-03
 -1.4508893e-02
  3.7666705e-01
 -1.8097950e-02
 -5.3922832e-02
 -2.7643776e-02
 -6.8341009e-02
  6.0274500e-02
 -7.7739279e-03
  2.2022665e-02
  2.4080605e-03
 -7.4816108e-01
 -9.1992654e-03
 -6.3487090e-02
 -1.5810156e-02
 -1.0375448e+00
  8.3805352e-02
  3.1180464e-02
  6.9682580e-01
  8.2183518e-02
 -6.3853145e-02
  2.8336629e-01
  1.3284805e+00
  7.2350514e-01
 -5.8986235e-02
  2.8698807e+00
  2.3304090e-02
 -9.5513299e-02
  1.2385858e-02
  2.7996458e-02
  4.8395526e-02
  9.8038390e-03
  2.9159479e-02
 -6.3356683e-02
  2.4222745e-02
  1.0062444e-03
  4.4080611e-02
 -4.7846336e-02
 -2.1157165e+00
 -2.8656533e-02
  3.0918198e+00
 -3.9385171e+00
 -2.7036178e+00
  2.0506442e+00
  2.2600875e+00
 -1.2633630e+00
  5.8560741e-01
  1.2518867e-02
 -8.6952418e-01
 -1.3065284e+00
 -1.7513788e-03
  8.7622618e-03
 -7.8769609e-02
  1.7766757e-02
  1.5108249e-01
 -4.8587433e-01
 -1.1609476e-01
  3.2133799e-02
  4.3017575e-01
 -1.0377605e+00
  3.6845230e-02
  7.9946015e-03
 -6.9134665e-01
  6.1161602e-01
 -3.0875605e-01
 -3.4498641e-01
  5.9729809e-01
 -7.0959979e-01
  1.5478486e-01
  3.7451598e-01
 -9.3687393e-02
  5.1896900e-01
 -1.3871994e+00
  6.3802117e-01
 -2.2789827e-01
  4.9390852e-02
 -2.7192123e-02
  1.0310797e-01
 -1.0137444e-02
  4.0489068e+00
  3.0395642e-02
 -6.4640775e-02
  1.0167151e-01
 -2.9127270e-02
  2.2402804e-02
 -3.0673180e-02
 -2.8177651e-02
 -4.6786111e-02
 -1.3131641e-01
 -4.6258401e-03
 -1.4476510e+00
 -1.2131841e+00
  6.8631575e-02
 -2.3845861e-02
  4.8837191e-03
 -2.7686784e-01
 -6.3403390e-02
 -1.3089996e-02
 -1.6837943e-02
  1.8883752e-02
 -1.8620236e+00
  4.1558329e-02
 -3.1409364e-02
 -2.1871808e+00
 -8.5507892e-02
  3.0744880e-02
 -4.2763159e-01
  4.3886546e-02
  3.7044216e-02
  2.5568277e-02
 -6.9525386e-03
  1.7849004e-01
 -1.0691792e-02
 -1.0244027e-01
  9.9190250e-03
  1.8827397e-02
  7.0011518e-03
  5.2535187e-02
  4.6880640e-02
 -3.1200178e+00
  2.6975393e-01
 -6.1361730e-02
 -9.3314104e-02
 -8.8506443e-03
  2.4796292e-02
  9.3096957e-02
 -1.9429462e-02
  4.0449783e-02
 -1.4379548e-02
 -4.4215623e-02
  1.9824261e-02
 -2.2336672e-01
  3.2881863e-02
 -4.7847796e-02
  5.9414734e-03
  3.9612791e-03
  2.3641426e-02
 -7.8282639e-02
  5.6531914e-02
  1.5115703e-02
 -7.1331968e+00
 -6.1701813e+00
 -2.2211161e+00
 -1.9165390e+00
 -2.5194941e+00
  1.2985772e+00
  2.6748853e+00
 -7.2801776e-02
  3.0771855e-01
 -3.0655819e-01
  2.2753348e+00
 -1.0619199e-01
  1.1081774e-01
  8.0340900e-02
 -8.5068867e-02
 -2.2369169e-02
 -3.4818724e-02
  3.8871486e+00
 -5.5792981e-01
  9.1658247e-01
 -1.6137290e+00
 -3.1789589e+00
 -4.5094261e-01
 -2.7080923e-02
  6.1479968e-01
  1.3914820e-02
