nep4_zbl 2 O Ga 
zbl 1 2
cutoff 6 4 418 127
n_max 8 6
basis_size 12 10
l_max 4 2 1
ANN 100 0
  1.0670415e-01
  1.2164247e+00
 -5.4006286e-02
  2.4260436e-01
 -1.8489501e-01
  1.7622395e+00
  2.6432793e-03
  3.5650194e-01
  2.3390751e-01
 -2.9587200e-01
  4.0669867e-01
 -4.3683520e-01
 -1.1661290e+00
  2.1989300e+00
  2.6931962e-01
  5.3977174e-01
 -1.0897887e+00
  8.6071298e-02
 -1.8029047e+00
 -2.0597823e+00
  7.7825524e-02
  2.5286347e-01
  3.1043143e+00
 -8.1085140e-01
  4.4440678e-01
  4.7862813e-02
 -2.6951918e-01
  8.1066257e-01
  8.3484322e-02
 -3.7956968e-01
  3.2205265e-02
 -3.8885334e-01
 -6.6255826e-01
 -1.9470862e-01
  2.4752147e-01
 -1.8366426e-01
 -2.7654457e+00
  9.4425846e-03
  2.0234332e+00
  1.4004171e+00
 -4.9749291e-01
 -3.4304898e-02
 -1.1471979e-01
  1.9355464e-01
 -1.5215722e-01
 -2.1556224e-01
  6.7459852e-01
 -1.2815683e+00
 -1.4177109e+00
 -9.8136038e-02
  6.6598254e-01
 -1.5008500e-01
  1.6040071e+00
 -1.5975785e+00
 -3.7837046e-01
 -1.2913383e+00
  3.1067809e-01
 -1.3503739e+00
 -1.7244270e-01
 -1.1542623e-02
 -2.2417372e-01
  1.0949206e+00
 -2.1746869e+00
  2.3489571e+00
 -1.4827188e+00
  3.1400073e+00
 -6.6764396e-01
 -1.8171884e-01
  1.5589760e-01
 -8.2955372e-01
  4.6933222e-01
  9.6573484e-01
 -1.4399481e+00
 -2.2770634e-01
  1.6723737e-02
 -4.0160429e-01
  3.6387476e-01
 -7.2179544e-01
  1.2125505e+00
  2.7520239e-01
 -1.9134469e-01
  2.4555307e-02
  1.5866738e-02
 -8.8481948e-02
 -1.4129905e-01
 -1.3259545e-02
  7.5532752e-01
  5.0943613e-01
  6.0942147e-02
 -6.1338174e-01
  5.4304679e-03
 -8.0262482e-02
 -4.6103323e-01
 -4.2520296e-02
  5.7880425e-01
 -4.4619012e-01
 -1.5030564e-01
 -2.0477034e-01
  5.8010626e-01
 -1.2391084e-03
 -4.6124294e-01
 -4.4805786e-01
 -8.4912262e+00
 -3.4996638e+00
  2.7188094e+00
  3.0779855e-02
 -1.2357314e+00
  6.8916059e-01
  5.9323424e-01
 -3.1676891e+00
  4.0469046e+00
  2.0954247e+00
 -1.7234603e+00
 -1.0325902e+00
 -1.6628898e+00
 -8.4099537e-01
 -8.8682169e-01
 -1.3898690e+00
 -3.6399858e+00
 -2.2682283e+00
  6.5332496e-01
  1.0699615e+00
 -7.3854607e-01
 -4.7019832e-02
 -6.9650084e-01
 -1.4774869e-01
  3.3566732e+00
  1.6495289e+00
 -2.1657746e+00
  8.1983769e-01
 -4.6200952e-01
  3.9593580e+00
  1.7507088e+00
  1.9526681e+00
  3.4713993e+00
 -2.3744576e+00
 -1.7244819e-01
 -3.0384600e-01
 -9.5563896e-02
 -1.4042137e+00
 -4.1242659e-01
  1.0743764e-01
  2.5249940e-01
  2.2945826e+00
  1.7239841e-02
  1.9561973e+00
 -1.1803923e+00
 -5.3541374e-01
 -2.0862012e-01
  9.4059181e-01
  3.9825398e-01
 -2.9312333e-01
 -4.2505744e-01
 -1.2813380e+00
  8.6400527e-01
 -5.4946923e-01
  4.4637057e-01
  1.2694781e+00
 -4.8331413e-02
  1.6897863e-01
  6.9311172e-02
 -7.3279375e-03
 -9.2351848e-01
 -2.4570812e-01
  5.4220874e-02
 -7.4039795e-02
  1.6679433e-01
  1.0452069e-01
 -4.6400863e-01
  2.3602024e-01
 -9.4465926e-02
  1.5047731e+00
 -4.9960119e-01
 -4.1177452e-01
  2.3496775e-01
 -1.9596173e-01
  5.2710253e-01
  1.5800411e-01
  9.4065107e-02
  4.4574938e+00
 -2.3692336e+00
  7.4812812e-01
 -2.0621064e-01
  1.5675566e+00
  1.6582567e-03
 -3.4954205e-01
  6.4549581e-03
 -5.5919968e-02
  2.3554552e-01
 -1.7860411e-01
 -3.3212967e+00
 -2.5607690e-01
  8.6588937e-01
  1.7628019e+00
  1.0721753e-01
 -6.8896550e-01
 -8.4923990e-02
 -8.9221364e-01
 -2.0563051e-01
 -1.3257529e-01
  3.6999890e-01
 -4.5546147e-01
 -1.8110111e-02
  1.2197965e-01
 -2.2251740e+00
 -4.0985167e-01
  2.2152589e-01
  8.8048935e-01
  1.1358666e-01
 -7.2441250e-01
  3.0055633e-01
 -1.8255668e-02
 -9.7408217e-01
 -1.6652809e+00
 -3.0211017e-01
  2.3261380e-01
 -1.1294022e-01
  5.3313887e-01
 -6.8632779e-03
 -3.5248786e-01
 -2.6246664e-01
 -1.0876557e+00
  7.5986020e-02
  3.6147125e+00
 -2.4044994e-01
 -4.8015541e-01
  5.3999352e-01
  7.5773448e-02
 -3.3452880e-01
 -2.3291619e-03
  2.4549600e-01
  2.0931497e-02
 -2.4280238e-01
  1.2237911e+00
  1.6082756e-01
  3.0323109e-02
 -6.8741009e-02
 -4.2870823e-01
  1.4439188e+00
  7.4563205e-02
 -9.7332484e-01
 -3.6460587e-01
 -1.1218280e+00
 -6.5234500e-01
 -1.7895669e-01
 -2.3277959e-02
 -2.0261350e+00
  1.1309750e+00
  2.9070109e-01
  3.4509498e-01
 -2.3404041e-02
  4.1590187e-01
  1.4788538e-01
 -1.0815531e+00
  6.9366850e-02
  1.9322447e-01
  3.4592688e-02
 -3.4644985e-01
 -7.6284707e-01
  6.5743542e-01
  1.3703272e-01
 -1.5349832e+00
  9.9467352e-02
  2.4568019e-02
 -3.3944386e-01
 -5.5139655e-01
  1.2677236e-01
 -3.0320626e-02
  2.6685644e-02
  2.0651218e-02
 -1.0759979e+00
 -5.3812826e-01
  2.0503983e-01
 -1.1743287e-01
 -9.6359104e-01
  7.9771318e-02
  5.7034898e-01
  9.7895369e-02
 -9.8186567e-02
 -5.9460357e-02
  4.0384620e-02
 -1.3308404e-01
 -3.8536161e-01
  1.6950600e-01
  8.3902007e-01
  3.9770966e-03
  1.9441895e-01
 -6.5517974e-01
 -5.1203106e-02
  5.5512631e-01
  2.9678237e+00
 -7.1179792e-02
 -2.2352766e-01
 -1.1068612e+00
  3.9492717e-01
  1.1152003e+00
 -4.5797133e+00
 -1.1767528e-01
  2.7824206e+00
  8.5445866e-02
  7.2894931e-02
 -7.7532971e-01
  4.7145430e-02
 -8.9499474e-01
 -1.0340279e+00
 -1.8431795e-01
  2.6483970e+00
 -9.5893848e-01
  1.3542541e+00
 -2.1882985e+00
  4.1808850e-01
  1.0741779e+00
 -2.9880335e+00
 -1.2515004e+00
 -1.6613134e+00
  6.9115812e-01
 -5.3699913e+00
  8.3875589e+00
 -6.6872606e+00
  1.0285876e+00
  3.0429142e+00
  8.2961445e+00
  2.6577189e+00
 -3.7959092e+00
  5.3843861e+00
 -7.4967778e-01
  2.8122163e-01
  1.2558109e+00
  1.5222710e+00
  4.7218356e-01
 -3.3898983e+00
  1.1914356e+00
  1.1095151e-03
 -9.0786517e-01
 -3.0566881e+00
  3.9517930e-01
  8.6389470e-01
  3.5418618e-01
  3.6784127e-01
 -1.6823030e+00
  7.2647333e-02
  1.7730289e+00
  1.0632761e+00
 -2.4733378e-01
  3.2666143e-02
 -3.0100000e+00
  1.9460812e-01
 -9.4946229e-01
 -3.9342669e-01
 -8.2064754e-01
 -1.2162619e-02
 -5.6713617e-01
 -9.1565996e-01
 -7.9277539e-01
  6.5573341e-01
 -1.1737543e-02
 -1.6563590e+00
 -9.7109908e-01
 -1.9380090e-01
 -1.2283714e+00
 -1.3689834e+00
 -2.9000619e-01
  2.0992368e-02
 -2.7856556e-01
 -6.1409199e-01
 -1.4779626e-02
  3.3606523e-01
  9.4543427e-02
  1.9358201e-02
  1.9689538e-02
  4.1406404e-02
  2.9442170e-01
  2.2196928e-01
  1.5211798e-01
  1.2171298e-01
 -6.9119632e-02
 -3.8355023e-01
  2.9176384e-01
  1.6114333e-01
 -5.3118259e-01
  2.4979416e-01
  6.7157805e-02
  4.6451457e-02
  3.1658196e-01
  7.5148952e-01
 -1.2397873e-01
  2.7372366e-02
  2.4926579e+00
  4.9786358e+00
  8.8699479e-03
  2.2928330e-01
  1.7474690e-01
  2.9696524e-03
 -3.7615076e-01
  1.2604119e+00
 -1.8743183e-01
  3.5426113e-01
 -2.5713018e-01
 -4.2679724e-01
 -1.4732446e-01
 -1.9058135e-01
 -7.8804493e-02
 -1.8568763e+00
 -3.1841037e-01
  9.0741611e-01
 -1.6734101e-01
  7.2546834e-01
 -3.7801889e-01
 -6.2235874e-01
 -3.8195160e-01
  2.0659646e-02
 -6.2333528e-02
  1.1176499e-01
  2.5939369e-01
 -3.4749752e-01
 -1.0144227e+00
  1.8545747e-01
  8.3605480e-01
  6.8665266e-02
 -1.2476475e+00
 -9.7782210e-02
  5.2884835e-01
 -7.2024256e-01
  2.3797566e-01
 -1.0285581e+00
 -2.8078243e-01
 -2.0978476e-01
 -9.9795992e-03
  7.8834206e-02
  1.7569625e-01
 -1.2295122e-01
  5.0595802e-01
 -3.9228100e-01
  4.1648245e+00
  5.0049692e-01
 -7.4857153e-02
 -1.2373943e+00
  1.6066593e-01
 -4.4095166e-02
 -1.0998185e-01
  5.5794422e-02
 -4.3995628e-01
 -1.1646853e-01
 -2.8632861e-01
  5.1499300e-02
  1.9612561e+00
 -2.0065477e-02
 -9.5056742e-01
 -5.5729911e-02
  6.1064757e-02
  1.0395040e-01
  1.1422694e+00
  2.8793111e-01
 -2.4838728e-01
 -4.0438327e-01
  2.6038259e-01
 -1.0615420e+00
 -1.8648960e-01
  6.0819948e-01
  2.8513882e+00
 -2.3526089e+00
  6.3789237e-01
  2.1836865e+00
  2.6686537e+00
  2.2074417e-03
  3.7070060e+00
  3.9977727e+00
  1.5943058e-01
  1.0302014e+00
 -1.8060750e+00
 -4.4026560e-01
  3.5364491e-01
 -1.4147054e+00
  1.6779118e+00
 -2.5302916e+00
 -1.7010856e+00
 -4.6302095e-01
  1.7110544e+00
 -1.6234360e+00
 -9.1858447e-02
 -1.2295377e+00
 -1.0884708e+00
 -6.8940395e-01
 -1.5759696e-01
  4.7984663e-01
 -3.4871656e-02
  2.5366667e-01
  1.3519469e+00
  2.5513866e+00
  9.0955669e-01
  1.9125303e+00
  1.0639937e-01
 -1.2479508e-01
  1.5688426e+00
  1.0902840e+00
  7.0027000e-01
  7.1616066e-01
  1.0457534e+00
 -1.8255793e+00
  2.5012269e+00
 -6.5894473e-01
 -1.1515524e-01
 -6.8203664e-01
 -1.0634956e+00
  1.0673649e-01
 -1.3078670e-02
 -4.6963629e-01
  2.2913875e-01
  3.3097622e-01
  5.4750425e-01
 -4.5187470e-02
 -1.4785101e-01
  5.2167758e-02
  7.5396323e-01
  4.8693012e-02
 -3.9938399e-01
 -4.4022895e-02
  1.7714557e-01
 -3.2765022e-01
 -2.8468279e-02
 -3.5157281e-01
  1.1341865e-01
  6.7859270e-02
 -3.1741473e-01
  3.1210688e-01
 -3.4832123e-01
 -1.3269727e-01
  8.1957722e-01
 -2.2590186e-01
 -1.4317511e+00
 -3.2687417e-01
 -9.0885669e-02
  1.0334475e+00
 -4.6457738e-01
 -7.8975677e-01
  1.3292553e-02
 -3.0945203e-01
 -8.9280285e-02
 -5.2227104e-01
 -1.3774970e-01
  1.0468389e+00
 -1.8387944e-01
 -1.5749034e-01
  8.2651652e-02
 -7.5685316e-01
  1.2109348e-02
  1.3298503e-01
 -5.0588932e-02
  1.5851201e+00
  1.2077448e-01
 -7.3954171e-01
  1.0875111e-01
 -1.8890909e+00
 -4.2494286e-02
  3.5965189e-01
  3.1697664e-01
 -1.5069308e+00
 -3.0612367e-01
 -6.4455563e-01
  2.5326115e-01
 -1.1454678e-01
  3.4318215e-01
  3.5105813e-01
 -3.4870267e-02
 -7.7591254e-03
  9.0904444e-01
 -3.6001593e-01
 -7.3231332e-02
  4.3800130e-01
 -1.4031824e-01
 -1.1356628e-03
 -5.9304762e+00
  4.0824845e-02
  6.8510008e-01
  1.2676567e-01
 -2.6860315e-01
  1.3276429e-01
 -9.6509546e-02
 -3.3844289e-01
 -1.5573814e+00
  2.9827559e-01
  3.2413968e-01
  4.5534831e-01
  2.8104800e-01
 -1.0733910e-01
 -3.8441965e-01
  1.9632574e+00
  5.4493988e-01
 -2.0039472e-01
  3.6363933e-02
  1.4280810e-02
  7.1633868e-02
 -9.5045634e-02
  2.9810676e-01
  5.9746042e-02
 -4.9426782e-01
 -7.5190052e-02
 -2.1646399e+00
  3.0515078e-01
 -5.8413708e-01
 -4.2389983e-01
  2.0346846e-01
 -1.3097519e-02
 -2.1599114e-01
  1.2830490e-01
 -8.0510974e-02
 -6.5815985e-01
 -1.2262671e-01
 -1.9741045e-01
 -2.4871802e-02
  2.0208745e-01
  8.1093013e-02
  1.5029470e+00
  3.8250444e+00
 -1.5353141e+00
  5.1592118e-01
  2.3752999e+00
  1.5579243e+00
 -5.4333234e+00
  1.6083882e+00
  1.1355215e+00
 -3.5527736e-02
 -5.4811525e+00
 -1.4659842e+00
 -5.9722710e+00
 -5.0235195e+00
 -5.0196943e+00
 -1.1923116e+00
  1.0517153e+00
 -4.4158311e+00
 -1.6740645e+00
  2.3694205e+00
 -3.3744296e-01
 -1.2208704e+00
  6.3324394e-03
 -2.1960104e+00
 -4.5007306e-01
  4.4587514e-01
  7.9218596e-01
 -2.2078607e+00
  1.1144503e+00
 -4.0950217e+00
 -1.9769948e+00
 -7.3457080e-01
  4.6247034e+00
 -1.2451643e-01
  2.7774763e-01
  1.1244632e+00
  1.5468460e+00
  4.4639630e+00
  2.3136294e+00
 -2.5178099e+00
 -1.3683722e+00
 -2.0503490e+00
  8.6346859e-01
 -2.4145522e+00
  8.4636003e-01
 -3.6422086e-01
  1.2901895e+00
 -5.5962586e-01
 -4.7343636e+00
  3.7904631e-02
  3.0489991e+00
  4.7044066e-01
 -2.1860504e-01
  2.9160121e-01
 -1.1182916e+00
  4.8843928e-02
  1.4986657e-01
 -8.8244185e-02
 -3.9110842e-01
 -3.3395281e-03
  1.3393626e-02
  2.9477918e-01
 -2.1038261e-01
 -9.4568539e-01
 -2.6500592e-01
 -4.3625909e-01
 -8.9546180e-01
 -1.8869539e+00
  1.9134821e-01
 -1.7882022e-03
  1.0198715e-01
 -1.5076761e-01
  9.0517139e-01
  1.5281327e-01
  2.8257730e+00
  1.7575152e-01
  3.1890258e-01
 -1.1532746e-01
 -1.8019342e-01
  3.3261853e-01
  2.0341013e-02
 -1.4903044e+00
 -9.0012741e-01
  2.1256444e-01
  3.9603254e-01
 -9.4851696e-01
 -2.3982468e-01
 -4.0895537e-01
 -1.5960640e-01
  1.5314833e+00
  2.9252025e-01
 -4.7688311e-01
 -5.2219999e-01
  3.8684374e-01
  4.0306649e+00
 -2.3355077e-01
  1.4881473e+00
 -1.6237147e-01
 -5.8912826e-01
  1.9516987e-01
 -3.8824331e-02
  2.7309038e-02
  1.6889487e-01
 -1.0894246e-01
  3.0201644e-02
  3.2225326e-01
  4.2582783e-01
  3.0364776e-01
  4.6517113e-01
 -2.0408425e+00
  1.6887362e-01
 -6.6835299e-02
 -2.5131750e+00
  7.8531146e-01
  1.0492197e+00
  1.0474363e-01
 -6.1080117e-02
 -1.8418856e-02
  4.8144737e-01
 -1.9955504e-01
  2.8751001e-01
 -2.1954960e-01
 -2.4800605e-01
  2.3864062e-01
 -1.4929490e-01
  1.0524356e-01
 -1.9355972e+00
 -2.2428529e-01
  1.1089095e-01
  4.0381092e-01
  1.2756201e-02
  1.3718617e-01
 -4.2178378e-01
 -9.7316980e-02
  1.5744324e-01
  6.6535109e-01
 -1.1050662e+00
 -1.3800664e-01
 -7.8116976e-02
 -1.7613951e+00
 -4.2809677e-01
  4.3285206e-01
  1.8279260e-01
 -3.0911925e-01
 -2.5291328e+00
 -1.5633987e-01
  6.8298817e-01
 -4.9838722e-01
  3.6682841e-01
  5.3409827e-01
 -1.3478577e-01
  2.6639985e-02
 -1.6923192e-01
 -4.4312453e-01
  1.5228384e+00
  2.7588120e+00
 -4.5522222e-01
  9.3267989e-01
 -6.7109436e-02
  2.9669180e+00
  2.5702524e+00
 -9.9909914e-01
 -4.0188659e-02
  2.7243042e-01
 -7.2304702e-01
  1.0176406e+00
 -4.3806214e-02
 -1.0304283e+00
 -3.3286732e-02
  3.4723265e+00
  2.5134434e-03
 -2.1520911e-01
 -5.0489345e+00
 -2.8347889e-01
  2.2523987e-01
  4.3633047e-01
  8.9447308e-01
 -1.6778524e+00
  7.8145462e-01
  8.2364458e-01
  5.0819778e-01
 -2.1527110e-01
 -4.2844230e-01
  2.9583230e+00
 -1.1245320e+00
  2.1593769e-01
  1.9955078e-01
 -1.8318629e+00
 -1.3081406e+00
 -1.9853793e+00
  2.7292019e-01
  1.8184204e-02
 -3.9235884e-01
  1.0549880e-01
  3.1678420e-02
 -1.8751200e-02
 -2.9009250e-01
  4.7713485e-02
 -1.1925528e+00
 -1.5927422e+00
 -5.4674618e-02
 -9.1750242e-02
  1.6108389e-01
  1.4388682e-02
 -4.2383334e-01
 -1.1694454e+00
  5.8167368e-01
  1.7521784e-01
 -9.6213542e-02
 -6.2142637e-02
 -2.7019959e-02
 -4.4543066e+00
  5.3752828e-01
  4.8977830e-02
  2.2734092e-01
 -3.4862295e-02
 -1.7969424e+00
 -1.3179441e-01
  7.7546036e-01
 -2.7992297e-02
 -5.3433883e-01
 -5.5296147e-01
  9.0670425e-01
  4.0768912e-01
 -1.7906440e+00
  2.1610704e-01
 -1.9025922e+00
 -7.6182395e-01
  7.5237745e-01
  5.5212390e-01
  2.0866232e-01
 -8.0081888e-02
 -3.1283255e+00
  1.2965851e+00
  7.2885221e-01
  9.2131384e-03
  1.4759378e-01
  6.1525232e-01
 -1.4631485e+00
  1.5656753e-01
  2.6017544e-01
  1.3240345e-01
 -5.6125927e-01
  7.0783785e-03
  5.5634525e-02
  5.3342205e-01
 -1.6033094e-01
  1.9349524e+00
  7.3002189e-01
 -9.0976518e-01
 -1.4779624e+00
  1.4165303e-01
  7.1166918e-02
  1.1549077e+00
 -1.3175911e-01
 -2.4639235e-01
 -1.2506238e-01
  1.1795387e+00
  1.5385261e+00
 -6.1166059e-02
  2.0093694e+00
  1.1961116e+00
 -9.8029190e-01
  2.0100875e+00
 -1.9681225e-02
  8.4213436e-01
  3.0255398e-01
  2.5425060e+00
 -9.0834826e-01
  6.8642873e-01
  1.4666629e+00
  2.1215430e-01
  1.1752572e+00
 -6.7807593e+00
  4.9779095e-02
 -6.3269693e-01
  1.0593121e+00
 -1.5997299e+00
  1.0612929e+00
  6.6742295e-01
 -2.1905100e+00
  7.2364426e-01
 -8.0852884e-01
 -4.6577999e-01
 -2.0640526e+00
 -1.8663948e+00
 -4.9411254e+00
 -3.8865068e+00
  2.9151237e+00
  2.3971694e-02
  2.8449173e+00
  1.4686824e+00
  3.4503546e-01
  1.4452493e-01
 -2.5445898e+00
  9.2665178e-01
  2.9458832e-02
  8.5583729e-01
 -1.8092947e+00
  1.0538545e-02
 -3.3425484e+00
 -1.3617924e-02
  3.9953399e-01
  8.9966387e-01
 -2.4655566e-01
  2.4199796e+00
 -6.4826570e-02
 -7.2819240e-02
  6.9154149e-01
  4.2043301e-01
  1.4003347e-01
  2.2436135e+00
 -4.0473345e-01
  2.9642418e-01
  2.5053503e-02
 -1.7883940e-01
  1.0484173e+00
 -4.4724960e+00
 -1.7872264e-03
  4.7276589e-01
 -2.4937005e-01
 -7.1172863e-02
  6.1686748e-01
 -3.1997451e-01
 -4.0093340e-02
 -1.7159225e+00
 -1.7664492e-01
  2.5660896e+00
  4.7287935e-01
  2.2679460e+00
  3.2963601e-01
  1.7782961e+00
  2.3454313e+00
 -1.0518629e-01
 -1.6114421e-01
 -3.3892184e-01
 -2.7570412e-01
 -1.3675687e-01
  5.3917695e-02
  1.7834519e+00
  2.5375649e-01
  3.1591615e-01
  1.3385142e-01
  1.4375818e+00
 -4.1146046e-01
 -8.2931794e-02
  2.4451064e-01
 -1.0323215e+00
  2.6515460e-01
 -1.1444288e-01
  3.4584743e-01
  8.0432378e-02
  6.0060304e-01
  1.9696763e-01
 -2.8290561e-01
  2.6638343e+00
 -1.8023476e-01
  1.9641133e-01
 -4.0117016e+00
 -5.5123359e-01
 -1.7842568e-03
  2.5924406e+00
 -1.5357664e+00
  4.9144632e-01
  4.3838695e-01
  1.2822783e+00
  1.0496000e+00
 -2.7503824e-01
 -3.8978198e-01
 -1.7711797e-01
  4.1758198e-01
  1.2691012e-01
 -3.3031780e-01
 -6.9906193e-01
  1.2822710e-01
 -1.0877793e-02
 -2.2913885e+00
 -3.2565576e-01
 -7.1458262e-01
 -1.0824995e-01
  9.0154953e-02
  2.9397017e-01
 -4.1527104e-01
 -8.3142632e-01
 -2.2580965e-01
 -8.4267132e-02
  2.7755138e-01
 -6.2934405e-01
 -3.5582423e+00
 -8.7182492e-01
  1.0711018e+00
 -4.0870585e-02
 -3.3533165e-01
  4.1232064e-01
 -3.1341515e-02
 -6.4068332e-02
  1.3190768e+00
 -1.7829064e-01
 -7.0469463e-01
 -1.9004637e+00
 -1.6557248e-02
  5.1333483e-02
  9.7998458e-01
 -5.0276184e-01
  7.6283967e-01
  7.1819164e-02
 -2.6861475e+00
  3.4384483e-01
  6.0150776e+00
 -9.4849914e-01
 -1.7561096e+00
 -4.9548087e+00
  7.1101904e-01
 -5.4132872e+00
  7.5971131e+00
  1.2177980e+00
 -4.7612114e+00
 -1.0371614e+01
  1.0374343e-01
  2.6749918e-01
 -1.0224268e+01
 -2.1479597e+00
  2.9269722e+00
 -6.3132703e-01
  1.2000393e-01
  8.0666943e+00
  4.7245116e+00
 -2.9414966e+00
  2.3382864e+00
  1.3760856e+00
 -3.5497470e+00
  1.9838129e+00
  3.2842416e-01
  1.6416297e+00
  2.7798343e+00
 -2.2183111e-01
 -1.7510355e+00
  8.2133549e-01
  2.5875247e+00
  6.2210357e-01
  3.1335196e+00
  4.8412076e-01
  1.9326873e+00
  3.2930452e-01
  1.2833206e-02
 -3.0684025e+00
  3.9818358e-01
  3.0095401e+00
 -6.6729236e-01
 -3.7658989e-01
 -1.0332557e+00
 -9.7747022e-01
  2.4246050e-02
  1.2194891e-01
 -5.4993397e-01
 -5.3461564e-01
 -5.6256777e-01
  3.2904339e-01
  7.0888680e-01
 -3.3188123e-01
  1.7925452e+00
 -2.8092926e+00
  1.7090119e+00
 -2.7547166e+00
  1.8423380e+00
 -1.7994462e+00
  1.2292631e+00
 -9.0997666e-02
 -4.4831134e-02
 -8.1210472e-02
  1.7692008e+00
  3.5376228e-02
  4.6716219e-01
  1.8524836e-01
 -9.9428266e-02
 -2.2053799e-01
  4.4205838e-01
  1.5093498e-01
 -1.7056516e+00
 -1.2332478e+00
  1.5511687e-01
  8.7622088e-01
 -2.4940416e-01
 -2.0000684e+00
 -1.2852091e-02
  1.3204790e+00
 -2.1369025e-01
  3.5314751e-01
  4.1639054e-01
  5.3235435e-01
  2.2715602e+00
 -2.1610169e+00
  4.1412291e-01
 -5.2236590e+00
 -1.0329733e-01
 -4.0194117e-02
  8.9008915e-01
 -2.8287086e-01
 -7.2619581e-01
 -6.6006398e-01
 -1.2137213e-01
  3.1894803e-01
 -8.5519947e-02
 -3.0618989e+00
 -4.9267057e-01
 -1.4649279e-01
 -1.6855417e-01
  6.3406777e-01
  1.4469704e-01
 -1.9273335e-01
 -4.5863211e-02
 -2.7351108e-01
  2.8186524e-01
  9.4729051e-02
  3.9683497e-01
  1.5586053e-01
  1.0676904e+00
 -9.3173373e-01
  6.3077644e-02
  1.0842569e+00
  2.3348098e-01
  2.7486396e-01
 -1.2073178e+00
 -1.4741316e-01
 -4.4498923e-01
 -2.5658932e-01
 -3.8225405e+00
  6.5402830e-01
 -3.2212421e-01
  3.5413567e-02
  9.0347119e-03
 -1.7628016e-01
 -3.4514165e-01
 -2.5733811e-01
  1.0414494e+00
 -9.2985019e-02
  1.0333498e-01
  3.4325484e-02
  8.8419802e-02
 -3.0004403e-01
  1.1028450e+00
  1.5493284e-01
 -9.5410123e-02
  5.4498750e-01
  2.8480968e-01
  9.3467347e-03
  1.8417066e-01
  8.6287242e-01
 -1.2871266e-02
 -8.0508716e-02
 -1.4080124e-01
 -3.2950339e-01
 -4.4145668e-01
 -9.2904067e-01
  2.9406485e-03
  5.0856310e-01
 -4.8910242e-02
 -2.0276195e-01
 -1.9292085e-01
 -1.0099820e-01
  4.4726256e-02
  1.2962291e-01
  1.0156468e+00
 -3.3227304e-01
 -1.3986744e-01
  2.1071349e-01
  1.2761366e+00
 -2.0650598e-01
 -1.9491866e-01
  5.9222225e-02
  3.7266478e-01
  4.2551503e-01
  7.2033465e-01
 -1.9974580e-01
 -7.5108305e-02
  2.9888219e-01
 -1.0041958e+00
  2.0877355e-01
 -1.1193296e-01
  9.4936538e-01
 -3.7584700e-02
  1.7972921e-01
 -1.1467017e+00
 -3.5553524e-01
 -1.6292394e+00
  1.4983994e-01
 -9.7022399e-02
 -2.9227582e-01
 -1.2419484e+00
  4.6818525e-01
 -3.3384526e-01
 -3.1561286e+00
 -1.5788294e-01
 -5.7165551e-01
  8.4265089e-01
  1.8778375e-01
  1.3384606e-02
  2.6547503e-01
 -3.8908262e-02
  1.4578735e+00
 -1.0477044e-01
  1.1629004e-03
 -1.5182160e+00
 -1.5243366e-01
  3.9556152e-01
  2.3189783e-01
 -9.3307489e-01
  9.9327415e-02
 -3.1526592e-01
  4.3696350e-01
  7.8307432e-01
  1.1143054e-01
  4.4208240e-02
 -6.6809732e-01
 -4.5620792e-02
 -5.4105324e-01
 -3.3712168e-03
 -4.0105110e-01
  6.1738431e-02
 -2.2022326e+00
  3.6603320e-02
  9.8078561e-01
 -3.4099135e-01
 -3.0218455e-01
  3.5747492e-01
  7.4726117e-01
  1.0273998e-01
 -2.8868491e-02
  3.9333090e-02
 -4.2214375e+00
 -2.2967391e-02
  4.6997914e-01
  2.2005513e+00
 -3.4599937e-02
  6.6160119e-01
  1.4874969e+00
  1.5966396e-01
 -1.2382660e-01
  6.2221929e-02
 -4.6821631e-02
  7.3560767e-02
  6.7222279e-01
 -8.6811058e-02
 -1.0220202e-01
  1.4010151e-01
  3.4718937e-01
 -1.4922731e-01
  4.0690094e-02
  1.8422332e+00
 -9.9827468e-02
  1.9245394e-01
 -6.4433008e-02
  2.7630350e-01
 -1.0239537e-01
 -4.9416947e-01
  3.2768723e-01
  2.4564140e-01
 -3.7542018e-01
  9.1800529e-01
 -1.9141864e-02
 -1.1232421e+00
  1.2709483e+00
  6.9359824e-02
  6.3631415e-01
  4.2097962e-01
 -5.5725139e-01
  1.5267567e-01
 -6.7633146e-01
  1.3112471e-01
 -3.5809281e-01
  6.4701505e-02
  1.3365427e-01
 -2.2530632e-01
  2.8967372e-01
 -2.4069320e-01
 -3.5909779e-02
 -9.2885715e-01
 -1.9005015e-01
  6.0647953e-01
 -1.5693161e+00
 -1.2658643e-02
 -7.2875082e-02
  1.3647151e-01
 -5.7633426e-02
 -3.0698187e+00
  5.9707567e-02
  7.4910484e-02
  1.4696419e-01
 -9.9298984e-02
  2.7385086e-01
  2.6319029e-03
  2.0099770e-01
 -2.2978218e-01
  1.9580051e-03
  7.6827252e-01
  7.5476742e-01
 -3.5253504e-01
 -8.7000608e-02
  5.5852669e-01
 -8.9863640e-01
  4.6102595e-02
  2.4868674e+00
 -1.1610889e-01
 -7.5757605e-01
  9.3142852e-02
 -7.4101877e-01
  8.7896459e-02
  2.4816575e-02
  4.6078944e-01
 -5.0061077e-01
 -4.0141538e-02
  1.8910208e-01
  6.7113674e-01
 -3.5843804e-01
 -1.9022926e-03
  2.6015906e+00
  4.2600288e+00
 -1.1059383e+00
 -2.1767707e+00
  1.3011278e+00
  1.4205410e+00
  6.0198975e+00
 -3.6362925e+00
  1.2840282e+00
 -7.4193019e-01
  6.9411117e-01
  2.3726680e+00
 -2.9541156e+00
 -5.1609236e-01
  2.5963681e+00
 -1.1180418e+00
 -1.2009624e-01
 -1.6869493e+00
 -8.7620610e-01
 -6.2325484e-01
 -9.6875131e-01
  8.9087969e-01
  1.4825800e-01
  2.3715205e+00
 -4.7035670e-01
 -6.0368700e+00
  9.8828331e-04
 -4.7150111e+00
 -1.2554276e+00
  8.2418984e-01
 -1.9288923e+00
 -5.6922024e-01
 -2.1269199e-01
 -1.3346949e+00
 -1.7582918e+00
  2.3521132e+00
 -1.1943299e-01
  8.1842653e-03
  3.2251353e+00
 -2.5482163e-01
 -3.6557004e+00
  7.1832979e-01
  2.0485535e+00
 -5.4752648e-01
  4.8107710e-02
 -2.6440448e-01
 -6.4990133e-01
 -6.7382592e-01
 -3.0942225e-01
 -1.5247828e-01
  2.2720642e-02
  2.1100784e-02
  1.6038563e-02
  5.1817375e-01
  1.6896650e+00
  1.6213106e-01
  4.3120489e+00
  5.0341535e-01
  2.6101044e-01
  1.8580114e-02
 -1.0614280e-01
  2.4991386e+00
  9.5936768e-02
  1.1015401e+00
 -4.5256707e-01
  5.1296240e-01
  2.4478899e-02
  1.0569686e-01
 -1.1328925e+00
  1.7986704e-02
  2.4109152e-01
 -5.8721435e-01
 -6.7811996e-01
  1.9066061e-01
 -1.6614368e+00
 -1.2363498e+00
 -5.2261494e-02
 -4.0081054e-01
 -2.7031438e-02
  7.3559994e-01
 -2.3627871e-01
 -9.9099422e-01
  2.3426411e-01
  2.7310121e-01
 -7.6336578e-02
 -9.0688568e-01
 -1.7676571e-01
 -1.2663808e-01
  2.8932601e-02
 -4.1480175e-01
  2.2306179e-01
  2.9252237e-01
 -5.2625049e-02
 -1.9572210e-01
 -2.1634917e-01
  8.5789904e-02
 -6.3157094e-01
  2.9269205e-02
 -5.2926384e-02
 -1.0006601e-02
  8.3055055e-01
 -4.1296950e-01
 -1.1977469e+00
 -6.4954895e-01
 -2.5897962e-01
  1.7322223e+00
  2.8751323e-01
  2.2625129e-01
 -4.5689747e-01
  5.3995329e-01
  3.2083300e-01
 -2.1790232e-01
  1.7151520e-02
  5.6733698e-01
  5.5399656e-01
 -1.2836152e+00
  6.4647928e-02
 -3.6741185e-04
 -7.1585365e-02
  3.6368120e-01
 -4.5349178e-01
  2.4885823e-01
  2.0074125e-01
  2.3522006e-02
  4.6529445e-01
  8.1562299e-01
 -1.4296475e-01
  1.6940812e+00
  4.7130457e-01
 -2.3139663e-01
  2.7090952e-01
 -6.5183634e-01
  1.2954976e-01
  1.3641973e+00
  2.7118811e-01
 -1.6170771e-01
 -3.1745827e-01
  5.9830938e-02
  1.6442060e-01
 -6.6210918e-02
 -2.3202159e+00
 -2.4445982e-01
  2.4725074e-02
  3.7650830e-01
  2.1600499e+00
 -5.4781508e-02
 -8.4243035e-01
  2.4033258e+00
  2.3573168e-01
 -1.0160387e+00
  4.7967204e-01
 -3.5712689e-03
 -1.8049022e+00
  4.7157045e-02
 -8.5594225e-01
  1.1440557e+00
 -1.4130697e-01
  1.4709164e+00
  7.5539693e-02
 -3.4450417e+00
 -2.0261099e+00
 -1.0430297e-01
 -2.9470387e+00
  6.2027450e+00
 -4.0761127e+00
 -7.9313736e+00
  1.0605507e-03
 -3.9925158e+00
  1.6699146e+00
  2.9757608e-02
  2.4842505e+00
 -1.5231025e+00
  5.4501656e-02
 -6.2760985e-01
  8.4122229e+00
  1.4715167e+00
  1.8485626e+00
 -2.0143220e+00
 -1.9027325e+00
  3.1971563e-02
  3.7506342e+00
  4.0835061e+00
  1.3627001e+00
  1.4645917e+00
 -3.3100703e+00
  9.8460972e-01
 -2.0216603e+00
 -5.6543922e-01
 -1.0794082e+00
  3.6542643e-02
 -3.0392122e-01
 -1.1719953e+00
  5.6177908e-01
  2.0247321e+00
 -1.3571223e+00
  1.1729251e+00
  6.6902675e-02
  1.4935877e+00
  1.3548363e+00
 -4.5954332e-01
 -1.2849238e+00
 -1.6505583e-01
 -3.5656101e-01
 -2.7497496e-02
  2.3658931e+00
  1.3337067e+00
 -2.8427691e+00
  1.2695454e+00
  2.5283983e+00
  2.3229480e+00
  2.3682358e+00
 -4.0384141e-01
 -2.8975027e+00
  6.7386379e+00
  1.7145959e+00
 -2.9799809e+00
 -2.2234344e+00
  2.7070841e-01
  7.7036732e-01
 -1.5172100e-01
 -1.3754512e+00
 -6.7167139e+00
 -1.4334722e+00
  1.7318494e+00
 -3.8500977e+00
 -2.4514587e+00
  8.2441175e-01
  1.1850878e+00
 -1.4173688e+00
  4.4929528e-01
  3.2042308e+00
 -2.3413641e+00
 -4.3846049e+00
  6.4324039e-01
  1.8729050e-01
  5.9191491e-02
  1.5035146e+00
  2.0753157e+00
 -1.0046589e+00
 -1.1025571e+00
 -8.6461043e-01
 -3.0399146e+00
  8.9551121e-01
 -1.8738945e+00
  2.3491662e+00
  2.9999776e+00
  3.3720255e-01
 -1.1711484e+00
 -1.4056280e-01
  6.1080080e-01
 -6.5652990e-01
  3.5220525e-01
  2.0024223e+00
  4.3128147e+00
  5.7849979e-01
 -1.2531088e-01
 -1.8617709e-01
  2.4513862e-01
 -7.0320427e-02
 -1.9874841e+00
 -1.0325599e-01
 -6.7513990e-03
 -9.6312732e-01
 -6.7823336e-02
  7.5583899e-01
  1.5008821e+00
 -3.9127752e-01
 -2.3603146e+00
  4.6194977e-01
  2.1063997e-01
  7.5630373e-01
  7.9428089e-01
 -3.1360683e-01
  2.0910816e-02
  1.2377181e+00
  2.6403198e-01
 -1.6904873e+00
  4.3287629e-01
 -1.1357422e+00
  3.5652637e+00
 -1.2949054e-01
  4.8205814e+00
 -1.0339220e+00
 -9.4483905e-02
  8.8082355e-01
 -1.0502113e-01
  6.3624197e-01
 -1.5130367e+00
  6.5519936e-02
 -9.9642724e-01
  3.3156589e-01
  9.0541083e-01
 -5.0979894e-01
  6.9922751e-01
 -3.4534545e-03
 -1.7888945e-01
  8.5289180e-01
  2.9803019e+00
  2.0891002e-01
 -7.6378608e-01
 -5.0317538e-01
  9.5468320e-02
  2.8601735e+00
 -1.7182335e-01
 -1.0819823e-02
 -6.9816969e-02
  1.8409982e-01
 -1.2577341e-01
 -1.1694293e-01
  1.8649064e-02
  3.6971134e-01
 -1.3456543e-01
  1.5726462e-01
  1.9575894e-01
  2.8599264e-02
 -4.6816754e-01
  1.1508241e-01
  3.9305803e-01
 -5.5570155e-01
 -1.2622224e+00
  5.4857892e-01
 -1.9724396e-01
 -2.3146050e-01
 -3.3849496e-01
 -9.1745682e-02
  1.4875953e-01
  2.6926599e+00
  3.4630844e-01
 -1.0868348e-03
  1.8905245e+00
  2.1553676e-01
 -4.7392182e-02
 -1.0875402e-01
 -2.3656556e-01
 -2.4894312e-01
 -8.6130314e-02
 -5.6532636e-02
 -1.1830249e-01
  7.3436439e-02
 -3.7488294e-01
 -4.7213378e+00
  1.2414997e+00
 -2.0577271e+00
 -2.3912288e-02
 -1.1017014e-01
 -4.6791860e-01
 -6.9515234e-01
  3.1974902e+00
  3.6919096e-01
 -1.3663487e-02
  3.7773216e-01
 -1.4498939e-01
  5.8820349e-01
 -7.1585692e-02
 -6.5875247e-02
 -1.5155762e-02
 -2.7196845e-03
  2.3068674e+00
 -2.0203950e+00
  4.4131774e-01
 -1.1731158e-01
  1.5566562e+00
 -1.9678934e+00
  4.7364790e-02
  2.5190229e-02
 -5.1643765e-01
  3.9093277e-01
 -1.4969142e-01
 -8.7789243e-01
  1.9199818e-02
 -1.4204596e-01
  1.0719010e+00
  3.9069584e-01
 -1.7193399e-01
  5.0717366e-01
  3.3807772e-01
  3.3951381e-01
  4.6556053e-01
 -3.7321702e-01
 -1.2015143e-01
 -4.1442978e-01
 -3.3089587e-01
  6.1103165e-02
  3.8736847e-03
 -1.3225062e+00
 -2.4015073e-01
  2.9246867e+00
 -1.7677577e-01
 -4.6584421e-01
  1.8102186e+00
 -2.9604530e+00
  4.0020975e-01
  6.1624240e-02
  1.4432281e-01
  2.4091633e-02
  1.1581601e-02
  3.6580160e-02
  2.8507392e+00
  1.4434655e-01
 -1.3923373e-02
 -2.8936598e-01
  1.6579908e-01
 -2.0283296e+00
 -1.4417596e+00
 -2.6580169e+00
  2.7470198e-01
 -1.3572188e-01
  8.0487424e-01
  3.6110276e-01
 -1.0521188e+00
 -4.8033911e-01
 -6.1479020e-01
 -3.0263507e-01
 -1.1603969e-02
 -1.4898674e+00
 -1.7792074e-01
  3.0250975e-01
 -5.9615552e-01
 -3.7732834e-01
  7.0904702e-02
  7.6939344e-02
  3.5943918e-02
 -8.2787055e-01
  1.1090670e+00
 -1.3713270e-01
 -2.3328373e+00
 -2.8072897e-01
 -2.7048361e-01
 -5.4904556e-01
  6.2949175e-01
 -2.2569304e+00
 -1.2683319e-01
  4.7321689e-01
 -7.0848662e-01
 -2.4771480e-01
  2.2619231e+00
 -2.8387013e-01
 -2.1007028e+00
 -1.8872753e-01
 -9.4911718e-01
 -2.1078512e-01
  5.7153374e-01
 -3.0827287e-01
  2.2225026e-02
 -2.9967958e-01
 -8.9880019e-01
  5.3927155e+00
  8.2431024e-01
  2.3421390e-02
 -1.3605677e-01
  2.9314357e-01
 -1.4309897e-01
  1.5284048e-01
  1.3234316e+00
 -5.2755541e-01
  3.4022415e-01
 -1.2241682e-01
  2.7884316e-01
  7.4690723e-01
 -2.5525491e+00
 -3.5213883e+00
  1.1487511e+00
  1.4065403e+00
  4.4364686e+00
 -4.1915664e-01
 -1.7627840e+00
 -7.2863668e-02
 -1.0413401e+00
 -1.3836039e+00
 -1.0997247e+00
  5.8483773e-01
  3.2864766e+00
 -1.7237018e-01
  2.1457225e-01
 -1.8604027e+00
  3.1088717e+00
  6.9171987e+00
  1.4964485e+00
 -6.9445038e-01
 -5.2334082e-01
  4.7941077e-01
  3.3863518e+00
 -2.1202872e+00
  2.2694039e+00
  1.4727731e+00
  5.5972928e-01
 -2.2554335e-01
 -1.8101017e+00
  2.3758788e+00
 -1.1570691e+00
  1.7118111e-01
 -1.6038578e+00
 -1.2274824e+00
  1.7345339e+00
  2.0152531e+00
 -1.9806710e-01
  9.3912083e-01
  2.8829956e+00
 -1.4416698e+00
  7.7493888e-01
  2.9640570e-01
  2.1103111e-03
  3.1607738e-01
  1.8918526e-01
  2.2335255e-01
  2.1967236e-02
  6.4784098e-01
 -6.8342052e-02
  3.3234091e+00
  1.1621323e+00
 -1.3942267e-01
 -2.3089764e-01
 -5.1421648e-01
  2.3985167e+00
  1.2782805e+00
 -4.9099989e+00
  4.2965218e-01
 -5.0507903e+00
  1.9281787e-01
 -5.9919816e-02
  9.0180492e-01
  2.9129353e-01
 -4.4432030e+00
  8.1683218e-01
 -1.4518291e+00
 -1.7737612e-02
 -1.3383935e-01
 -1.7422053e-01
 -1.6618327e+00
  4.2365116e-01
  3.8347983e+00
 -1.7061509e+00
 -1.4500802e+00
  3.1899154e+00
 -7.3343378e-01
 -3.7944844e-01
 -1.8616155e-01
  6.7637401e+00
 -3.0071759e-01
  3.1441110e-01
  1.0391828e+00
 -2.1793225e+00
  1.0539008e+00
 -2.9950371e-01
 -2.1392167e+00
 -6.2176168e-01
  7.2296679e-02
 -6.5712184e-02
  2.0942901e-01
  1.2474412e+00
 -1.1900448e-01
 -8.7164164e-01
 -3.7167804e+00
  1.4871849e+00
 -8.9026403e-01
  3.2159039e-01
  2.2592966e-01
 -1.5633521e+00
 -1.2836735e+00
  2.2114854e+00
  9.3323447e-02
  5.7108992e-01
 -2.3028383e-02
 -2.0723870e-01
  1.8598283e-02
 -9.5450085e-01
  8.2022727e-01
 -2.7153984e-01
  9.5379257e-01
  2.1390657e+00
 -2.7751344e-01
 -1.9251974e+00
 -1.5130284e-01
 -1.3065752e+00
 -3.2159218e-01
  2.0631389e-01
 -1.5711257e+00
 -6.8091333e-01
 -9.4004914e-02
  1.4749761e-01
 -9.2913371e-01
 -2.5820184e-01
 -1.6073089e+00
  2.9249178e-02
  1.5298189e-01
  6.2964201e-01
  1.9028805e-01
 -2.6876396e-01
 -1.2479784e+00
 -1.0957029e+00
 -5.6206512e-01
  2.4460549e+00
  5.6483876e-02
 -2.3113608e-01
 -4.9468625e-01
 -7.6175195e-01
 -1.2419173e-01
  9.9565960e-02
 -4.9902034e-01
 -5.1049352e-01
  7.2765745e-02
 -1.7292480e+00
  9.8611224e-01
 -6.3124336e-02
 -8.3581142e-02
  1.3863134e-01
  6.4818248e-02
  5.4629713e-01
 -4.3343011e-01
 -1.4475329e-01
 -3.4791067e-01
 -3.8196078e-01
 -2.9354772e-01
 -4.0364102e-01
 -2.6030187e-02
 -2.4810158e-01
  7.5875390e-01
  3.4113795e-01
 -8.4733593e-01
  1.7626026e+00
  1.7875658e-01
  7.0807315e-02
 -5.9918600e-01
 -4.7915112e-02
  4.8158929e-01
 -1.5256233e+00
 -6.6678055e-02
  1.5695563e-01
 -4.3584809e-02
 -2.3239750e-01
 -1.2928743e+00
 -3.3753121e-01
  5.1908129e-01
 -9.3764138e-01
 -1.8798873e-01
 -6.5976664e-02
  3.1650805e+00
 -6.0528421e-01
 -2.7824128e+00
  2.4114602e+00
 -2.2790375e+00
 -2.4545625e-01
 -1.0357945e-01
 -4.6205175e-01
  3.6578134e-01
  2.4638176e-01
  1.2201070e+00
  7.3707998e-01
  1.7321473e+00
 -1.5076852e-01
  4.3441701e+00
 -6.7203540e-01
  1.1620423e+00
 -2.7844971e-01
  8.7849675e-03
  1.4323930e+00
 -3.9367542e-01
 -1.2759815e-01
  1.2554617e-01
  3.1067327e-01
 -1.7243812e-02
  6.5682644e-01
 -1.4372732e-01
 -3.2587919e-01
  1.6225618e-01
 -7.7498958e-02
  1.6342135e-01
 -1.3281977e-01
  1.8264769e-02
  8.9218616e-03
 -7.1771078e-02
 -2.6732454e+00
 -2.3464553e-01
 -1.9176540e-01
  8.2216835e-01
 -1.5869597e+00
  2.7752769e-01
  1.2225880e-01
 -1.4244400e-02
  2.5134578e-01
 -8.1016265e-02
  1.3899916e-01
  3.2129866e-01
 -3.3063853e+00
  2.3729169e+00
 -2.4459705e+00
  1.4909914e-02
  1.3273521e-01
  2.5296080e+00
 -7.9175347e-01
  2.8145537e+00
  9.5774060e-01
 -2.1223645e-01
 -6.6134822e-01
  1.4921565e+00
  5.2164592e-02
  1.2237824e-01
 -1.2111682e-01
  2.2638977e-01
 -2.5289714e-01
  1.7275910e+00
 -5.5338159e-02
  4.4566371e-02
  1.3889913e-01
  1.6184829e-01
 -1.1634437e+00
 -4.0405318e-01
 -5.7238686e-01
  2.6086805e-02
  6.8565845e-01
  5.8869604e-02
  2.8726128e-01
  1.2359036e-01
 -2.8291067e-01
 -1.3564481e+00
 -5.9119325e-02
 -2.9386433e-02
  1.8729536e-02
 -7.4797887e-01
  1.9410992e-01
  2.2063239e+00
 -1.0982451e-01
  3.0924317e-01
  1.9194846e-01
  3.2431166e+00
 -3.6501680e-02
  5.5360977e-02
 -1.4664510e-01
  7.1577924e-01
  6.4758033e-01
 -1.2797549e-01
  4.0277770e-01
 -2.4651967e-01
 -1.6717640e-01
 -5.3256166e-01
 -8.8413786e-03
 -1.6038802e-01
  1.0223812e+00
  1.2641585e-02
 -3.9314527e-02
 -1.3779210e-01
  9.9486507e-02
  6.7994022e-01
 -1.5023232e-02
 -3.2352224e-02
 -3.2548404e+00
 -3.8613287e-01
 -3.3203855e-02
  3.3740315e-01
 -4.8747298e-01
 -4.0529335e-01
  5.1683895e-02
 -1.0282121e-01
  3.7111449e-01
 -4.7940187e-02
  2.5291047e-01
  5.3789679e-02
  2.6862553e-01
  2.1611211e-01
  1.7987660e-01
  3.6142883e-01
 -1.7034094e-01
  1.1794959e-01
 -3.3238167e-01
  4.3923086e-01
  1.3760256e+00
  1.0542195e-02
 -1.1542176e+00
  2.4128458e-01
 -9.1005015e-01
 -8.3826613e-03
  2.3169335e-02
 -8.0501938e-01
  1.5866418e-01
 -1.0103959e+00
  1.3668723e-02
  3.4632683e-01
  1.8561577e-02
  2.2200544e-01
 -5.3291631e-01
 -8.2355767e-02
  8.4662514e+00
 -1.3630275e+00
 -1.1187861e+00
 -1.0376241e+00
 -1.0200970e+00
  2.4357775e-01
  1.3990306e+00
  2.8814968e-01
 -1.3301109e+00
  5.5851209e-01
 -9.3088299e-01
 -3.5303030e-02
 -5.0605960e+00
 -5.8587676e-01
  2.8791964e+00
  1.2191352e+00
  1.2585962e-01
 -5.9318620e-01
  5.3929549e-01
  7.4076527e-01
 -1.2946402e-01
 -5.7473212e-01
  2.9470327e-01
  2.1851330e+00
 -2.6365268e-01
 -1.3241392e-01
 -6.9734089e-02
 -2.3437073e+00
  1.4618459e+00
  4.8448342e-01
  6.0879540e-01
 -8.9483565e-01
 -2.9020616e-01
  1.5070575e-01
  6.7208059e-02
 -4.3282466e+00
  3.1605238e-01
  3.5348231e-01
  6.1691961e+00
  4.9693945e-01
 -3.0842283e+00
 -1.9001164e-02
 -1.5193383e-01
 -1.6113747e-02
  2.1733952e-01
  2.0297207e-01
  1.8108556e-01
 -4.5578554e-03
 -9.9074107e-01
 -2.9116261e-01
  6.5312701e-01
 -1.8734903e+00
  4.8252949e-01
 -1.0570617e+00
  1.0020455e+00
 -4.0874913e-02
 -1.4133593e+00
 -1.3399842e+00
 -1.5597436e+00
  1.0330506e-01
 -8.4581217e-03
 -1.4121833e+00
 -3.1881788e-01
  8.2586831e-01
 -2.7641681e-01
  1.9272783e-01
  4.6042123e-01
  1.7192468e-01
  7.2509849e-01
  1.6016731e-01
 -4.9756542e-02
  6.4854008e-01
 -3.9804938e-01
  7.2988585e-02
 -1.8163956e+00
  4.9983612e-01
  2.3738691e-01
  1.1881809e-02
  5.5274770e-02
 -1.2341987e+00
 -3.7608790e-01
  6.9769603e-01
  1.3273071e-01
  3.1964159e+00
  5.8214378e-01
  4.5068631e-01
  9.9861585e-02
  5.5714649e-01
  2.1807644e+00
 -1.4542686e+00
  2.3667034e-02
 -2.3373477e+00
 -1.4307775e+00
  4.6202273e+00
  7.2521281e-01
 -9.2135519e-01
 -3.3956232e+00
 -1.5625985e+00
  3.0058088e+00
  8.9295320e-02
  1.4773232e+00
 -3.6816263e+00
 -5.8881193e-01
 -2.6026149e+00
 -8.6753809e-01
 -3.3368176e-01
  4.2903879e-01
  6.6184217e-01
 -1.0669111e+00
  6.7629800e+00
 -2.1572280e+00
  6.0095555e-01
  4.3689528e+00
 -7.1091712e-02
 -1.0265002e+00
  1.4726204e-01
  4.1157193e+00
 -2.4643543e-01
 -4.8734859e-01
 -5.6289548e-01
  2.1232043e-01
  6.5127003e-01
  1.4227054e-01
  5.9323702e-02
  2.7659941e-01
  2.7142067e+00
 -2.7691731e+00
 -9.6648537e-02
 -1.4161003e+00
 -4.1773587e-01
  4.6009231e+00
  5.8526796e-01
  1.7571382e-01
  7.9168409e-02
 -2.5338316e-01
  6.4889085e-01
 -5.0780758e-02
 -4.5277283e-01
 -2.2177894e-01
 -2.6822570e-01
 -3.9577793e-02
 -1.2221947e-02
 -2.6372102e-01
 -4.1296983e-01
  9.3599014e-02
 -8.6927719e-02
 -1.1478577e-01
  2.5002003e-02
  3.9423373e-02
  3.7484539e-01
 -9.0861246e-03
  1.8064823e+00
 -3.0771961e-02
 -9.8213945e-03
 -2.9908225e-01
  1.5585157e-01
 -2.2207886e-02
 -7.1133904e-02
 -5.4093212e-02
  1.8862186e-01
  4.7105223e-02
  1.0872187e-01
 -1.1257486e-01
  6.2633532e-01
  1.0467933e+00
  6.7918110e-01
 -2.5348672e-01
 -5.4974014e-01
 -2.2760378e-01
 -3.2888147e-01
  1.2898582e+00
 -1.0387413e-01
  3.2248876e+00
  1.1694112e-01
 -1.1105182e-01
 -4.2687554e-02
 -4.0595242e-01
  5.0588030e-02
  8.0101237e-02
 -5.3359729e-01
 -1.3659996e-01
 -5.9300381e-01
 -2.6937220e-01
 -2.8429276e-01
 -2.0638044e+00
 -1.5968926e+00
 -1.2833462e+00
  1.7101015e+00
 -4.2900413e-02
 -1.4839147e-01
 -7.6256588e-02
  3.8874500e+00
  4.3800654e+00
 -3.6566478e-01
  8.8453628e-02
  6.8170381e-01
  2.7356555e+00
 -2.9171008e-01
 -4.4102743e-02
 -1.7318348e+00
  6.9919300e-01
 -5.5490410e-01
 -1.2228155e+00
  2.3262331e+00
 -2.0632792e+00
 -4.9040928e-01
 -2.3530826e-01
  5.8382213e-01
  1.5474716e-01
  2.0627774e-01
 -6.6409194e-01
  1.3695566e-01
 -6.5509348e+00
  6.5120274e-01
 -3.5486367e-01
  2.4363327e+00
  9.9411142e-01
  1.2668664e+00
 -3.7794430e+00
 -9.5385391e-01
  7.2220427e-01
 -2.0128031e+00
  3.3574710e+00
  2.1415752e-01
 -1.1440001e+00
  1.9520445e-01
  2.9615648e+00
  7.5608796e-01
 -3.0506891e-01
 -2.1760663e-02
 -2.2615474e-02
 -3.9105620e-02
 -2.5558595e-02
 -2.2412127e-02
  1.3809434e-01
  5.0891504e-02
 -1.1752983e+00
  5.2606015e+00
 -2.0536977e-01
 -7.2856343e-01
 -1.1795141e+00
 -2.0028125e-01
 -4.1607153e-01
 -1.7177512e-01
  5.2712512e-01
 -4.4963580e-01
 -3.3864579e-03
 -3.0170271e-01
 -1.1543304e-01
 -8.0233309e-03
  2.7764728e-02
 -5.1686949e-01
  2.3662512e-01
  2.4641195e-01
 -3.6384663e-01
  6.4320281e-02
  3.5113773e-01
  3.5717821e-01
  1.0030996e-01
 -3.2944736e-01
  1.0167463e-01
  7.8344828e-01
  3.5312080e-01
  1.3638526e+00
 -2.3166734e-01
  1.1750497e+00
  7.8703982e-01
 -1.3758494e+00
 -1.0406205e-02
 -7.8408009e-01
 -4.6233177e-01
 -3.2813951e-01
 -1.6910543e-01
  3.1785214e+00
 -1.0984266e-01
 -1.5006472e-01
  6.0525095e-01
 -1.3499334e+00
 -2.1726476e-01
 -1.4769183e-01
  7.3523724e-01
  4.3641484e-01
  3.1154960e-01
 -6.3580459e-01
  4.9881697e-02
 -4.1960609e-01
 -2.7990997e-01
  2.7170730e-01
 -1.8444930e+00
 -7.5779867e-01
 -1.6360205e-02
 -8.7116516e-01
  2.5932288e-01
  2.2316926e+00
  1.8094134e-01
  2.4070444e+00
  1.9836459e-01
  3.4572780e-01
  4.1285715e-01
  1.1832571e-01
  1.6651189e-01
 -6.9914997e-02
 -3.4563488e-01
  4.1753940e-02
  2.3335880e-02
  5.6682158e-02
  2.7096677e-01
  1.2302484e-01
  1.3241019e+00
 -1.3922051e-01
 -2.8833303e-01
  6.7612994e-01
 -9.0033315e-02
  1.3910304e+00
 -4.4070044e+00
 -5.3310976e+00
  2.6741540e-01
  2.7572062e+00
 -5.5434531e-01
 -5.4493051e-02
 -9.2241436e-02
 -1.7273334e-01
 -1.7609945e-01
 -2.1868138e-01
 -5.7835016e-02
 -1.2148450e-01
  9.4028041e-02
 -4.4034675e-01
 -9.2370801e-02
 -2.8924225e-03
  7.3754400e-02
 -8.3401397e-02
  6.1654720e-02
  4.7596884e-01
 -3.7037209e-01
 -1.9916309e-01
 -4.0014677e-02
  1.4411615e-01
  4.8904803e-02
  9.9308282e-02
 -1.7675923e-01
 -2.0295238e+00
  1.5740917e+00
  5.2982152e-02
 -1.2447062e-02
  1.1440754e+00
  1.0409855e+00
 -1.3511565e-02
  2.7277365e+00
 -1.6906235e-01
  8.3680916e-01
  2.2502501e+00
 -9.5294946e-01
 -2.0233853e+00
 -2.8514671e-01
 -3.6879928e+00
 -8.7972921e-01
 -2.9149050e-01
  1.0825251e+00
  1.3102262e+00
 -4.0053594e-01
  1.6129628e+00
 -1.6815746e+00
 -5.2732098e-01
  3.6680136e+00
  1.4411284e-01
 -3.5229999e-01
  3.2490984e-01
 -1.8442790e-01
  2.6939876e+00
 -3.2241628e+00
 -7.0782882e-01
  8.1325221e-01
 -1.8935804e-01
 -2.0802315e-02
 -1.7488929e+00
  1.5099044e+00
 -3.2817638e-01
 -4.2676869e-01
  1.8910944e-01
  3.9521400e-02
  3.5667250e-01
  1.2950599e-01
 -5.4819698e+00
  1.4563060e+00
 -1.7559237e+00
 -3.3121973e-01
 -1.1911501e-01
  7.0235515e-01
 -4.6778489e-03
  3.7711096e-01
  7.0722079e+00
  3.4230039e+00
  2.7146308e+00
  1.0959519e+00
 -1.2484887e+00
 -5.0378065e+00
  1.5861654e+00
 -9.3498194e-01
 -3.9162869e+00
 -4.8096557e+00
 -8.1175143e-01
 -8.1160431e+00
  3.8860438e+00
 -2.0344336e+00
  4.9028611e-01
  1.7038866e+00
 -6.1428034e-01
  6.3498265e-01
  2.5115445e+00
 -1.0583568e+00
 -2.3743200e+00
 -3.2809398e+00
  4.2638488e+00
  2.8453236e+00
 -1.5446651e+00
  3.7072974e-01
  4.6103621e+00
 -1.2888004e+00
 -2.3066647e+00
  2.4308698e+00
  2.2204370e+00
  9.2753345e-01
  2.4427593e+00
 -2.6057096e+00
  3.4046371e+00
  3.8169912e-01
  2.8907089e+00
 -1.1725451e+00
  8.7909085e-01
  1.0641305e+00
  2.0238514e+00
  1.1627843e+00
 -4.8438425e+00
 -5.0428424e+00
  3.2913083e-01
 -2.3492989e-01
 -1.6467746e+00
 -1.8422918e+00
  2.8096082e+00
 -2.0613768e+00
 -2.8015592e+00
 -8.5794359e-01
  2.2847304e+00
 -5.1273303e+00
  9.4050509e-01
 -1.5357161e+00
  1.2642485e+00
 -2.4252865e+00
 -2.4455750e+00
 -4.0011156e-01
 -4.7417636e+00
 -9.9769607e-02
 -7.5700569e-01
  4.6290237e-02
 -2.9460287e-01
  3.9507005e+00
  2.6676023e+00
 -1.2634697e+00
 -2.2045095e+00
  2.5936344e+00
 -7.4852767e+00
 -1.0434829e+00
  4.6719284e+00
 -2.6775396e+00
  5.4885383e+00
  1.1356093e-01
  1.5355871e+00
 -2.4156752e+00
  2.9888429e-02
  2.5923996e+00
 -3.0634170e+00
  5.3592615e+00
  1.6944930e-01
  6.9101697e-01
 -1.1270401e+00
  4.6020597e-01
  9.9709835e+00
 -2.9812427e+00
  7.5180584e-01
 -6.3491605e-02
  2.9772243e+00
 -2.4861170e-01
 -4.1910882e+00
  1.4192438e-01
  2.3785386e+00
 -1.0502124e+00
 -3.2213248e-02
 -8.3786175e-02
 -3.8155406e+00
  5.8750201e-02
 -4.3513682e-01
 -1.3582745e+00
 -7.6397377e-01
  9.8460346e-01
  1.4665757e-01
  2.1009222e-03
  2.1673760e-01
  5.0481945e-01
  8.1566401e-02
  5.4641938e-01
  1.9457483e-01
 -4.6419175e-03
  6.4484578e-01
  3.9441779e-01
  1.6880229e-01
  2.9488432e-01
  7.9055145e-02
  3.3871129e-02
 -1.4295574e-01
 -5.4736423e-01
 -2.2644114e-01
  5.4393589e-01
  5.2112594e-02
  9.6696591e-01
 -6.9940901e-01
  3.1600237e-01
 -2.5577280e-01
 -1.2215908e+00
 -2.8031930e-01
 -1.9215791e-01
  7.9152763e-01
  7.8347945e-01
 -1.8175080e-01
  3.3856425e-01
 -3.8670170e-01
  2.7545732e-02
  2.8377342e+00
 -1.8606256e-01
 -2.5682798e-01
 -5.4481491e-02
  1.2668040e-01
 -2.0982307e-01
  9.9834852e-02
  1.4084393e+00
  5.4688120e-01
  3.1691498e-01
 -7.2286558e-01
  8.5248429e-01
  7.4844189e-02
  3.4328010e+00
 -1.5045369e-01
  8.0813944e-02
  2.4971591e-02
  6.3830643e+00
  7.5560484e+00
  1.1578684e+00
  4.6031876e+00
  9.0262079e+00
  6.2134781e+00
 -3.7452831e+00
  2.4749251e-01
 -6.4239669e+00
  2.3654041e-01
  4.9841207e-01
 -3.1322846e-01
 -6.3223457e-01
 -3.9661586e+00
  3.4660900e-01
  7.7068939e+00
 -4.1736259e+00
  3.4393394e-01
  8.3632427e-01
  2.9092343e+00
  2.7225838e+00
  7.9873180e-01
 -3.9590976e-01
 -3.3235323e+00
 -2.9294326e+00
 -2.5307481e+00
 -8.8451071e+00
 -1.0826707e+01
 -3.9621463e+00
 -7.0580282e+00
 -1.1545016e+01
  8.5811459e-02
 -3.2766962e+00
 -6.5171776e+00
 -4.1293824e-01
 -4.4337282e+00
 -3.1045089e+00
  2.6400697e+00
 -3.9835138e+00
 -1.8667240e-01
  1.7157905e+00
  6.3053250e-01
 -5.1123583e-01
  2.5262020e+00
  1.7684211e-01
 -1.6326106e-01
  8.6395152e-02
  1.2785774e+00
 -1.4559727e+00
 -2.6300547e+00
  1.4878196e+00
 -1.8967615e-01
  1.0414549e+00
  1.1476465e+00
  9.1580164e-01
 -7.7177149e-01
  2.7509969e-01
 -3.8973287e-01
 -5.9883499e-01
 -7.7741063e-01
  1.2144282e+00
 -3.3907568e+00
  1.2858728e-01
 -5.9246802e-01
  5.4782826e-01
  2.2080314e-01
 -1.1704392e+00
  1.3136164e+00
  1.3950682e-01
  2.0161436e+00
 -2.0519114e+00
  1.8026048e-01
 -4.0226092e+00
  1.1361440e+00
 -1.0890058e-01
 -1.5735781e+00
  4.2634653e-03
  2.0021684e+00
 -1.8320817e+00
  2.0260390e-02
 -1.6990480e-01
 -3.6933389e-01
  4.5735180e-01
  1.1877358e+00
 -7.3925430e-01
  2.9455469e+00
 -1.9394689e+00
 -3.8085967e-01
 -1.5914311e+00
  2.0505176e+00
  3.5715971e+00
  1.2898828e-01
 -1.2453113e+00
  1.7016868e-01
 -2.8159586e-01
 -7.6159948e-01
 -3.2069466e-01
  9.5321715e-02
 -9.9139112e-01
 -2.1128564e-01
 -3.4824017e-01
  2.0196772e-01
 -3.3600083e-01
  2.6198068e+00
  2.2849965e-01
 -3.2650265e-01
 -2.6805869e-01
 -1.6315616e+00
 -1.3856964e-01
 -2.0670575e-01
  1.6212654e-01
 -4.9300656e-01
 -9.0197837e-01
 -6.9676346e-01
 -1.5081346e-01
  2.3260847e-02
 -2.6098362e-01
 -3.1370997e-01
 -2.6039985e-01
  2.9658070e-01
 -5.1895303e-01
 -4.8244619e-01
 -1.4968809e-01
 -1.1290760e+00
 -4.1952905e-01
  4.4718767e-03
  1.3576895e-01
 -5.9942204e-01
  2.6352203e-01
  4.2936902e-02
 -2.1485906e+00
  1.7913626e+00
 -1.8162084e-01
 -1.5149124e+00
 -4.7521067e-01
  1.1783056e-01
 -8.9657634e-01
  8.7951308e-01
 -9.3499738e-01
 -1.1321113e-01
  6.4731979e-01
  5.4952040e-02
  1.2617238e-01
  2.0053978e+00
 -2.4296321e-02
  1.5677718e-02
 -4.6361897e-02
 -4.3727699e-01
 -4.0277462e+00
 -5.9801314e-02
  4.7131670e-03
 -5.3640857e-04
 -1.1987053e-02
 -1.2571983e-01
 -1.1350374e-01
  5.5441374e-01
 -6.5332973e-01
 -2.8420186e-01
  2.5119132e-01
  2.8823522e-01
 -5.6098682e-01
  2.1932447e+00
  1.5808028e-01
 -1.1909822e+00
  3.6248890e-01
 -1.1129014e-01
  4.4645727e-01
  2.1072479e-01
 -6.9535129e-02
 -1.9965070e-01
  8.9789736e-01
  2.2630826e-01
  2.9564860e-01
 -2.4461443e+00
 -3.8070998e-01
 -1.4685332e-02
  1.2182370e-01
  1.3203238e-01
  7.0651615e-01
 -1.2301878e+00
  2.5236678e-01
 -2.4536328e-02
 -3.7880260e-01
 -5.9829402e+00
  1.9429722e+00
 -1.4075363e+00
 -3.2766670e-01
 -5.4737467e-01
  4.1863027e-01
  2.1468647e+00
  1.0173090e+00
  5.9651995e-01
 -7.2302800e-01
 -3.8988948e-01
  1.9704993e-01
  1.1247147e+00
 -1.0999711e-01
 -2.2879033e-01
  2.0718971e-02
 -1.2256569e-01
 -4.3838844e-01
  8.2176059e-01
 -1.6357158e-01
  8.2799964e-02
 -2.2369865e-01
 -3.7590274e-01
 -8.3709769e-03
 -1.4970307e+00
 -5.5469632e-01
  5.3953171e-02
 -1.0599448e-01
 -2.3178124e-01
  3.3291912e-01
 -1.3449120e-02
 -7.8386970e-02
  1.0916889e-01
 -5.1776695e+00
 -2.9863816e-01
 -5.5348843e-02
 -7.5008374e-01
 -5.6263828e-01
 -5.4603972e-02
 -4.1199002e-01
 -4.3890491e-02
 -3.5756537e-01
 -1.4440653e-01
 -2.2614132e-01
 -7.6113260e-01
  6.7490153e-04
 -6.3292701e-03
  4.1926676e-01
  5.3265940e-02
 -9.6188074e-01
 -9.9326439e-02
 -1.5874562e+00
 -4.4158718e-01
 -3.1803918e-01
  5.8677661e-01
  3.8489971e-02
  1.6964380e+00
  1.1233531e-01
  1.8222485e+00
 -6.0429353e-01
  1.1295652e-01
  7.7118766e-01
  7.2302651e-01
 -7.0414555e-01
  1.0887528e-01
 -1.0673865e-02
 -1.2905380e-01
  1.0355361e+00
 -3.1053820e-01
  4.0566120e-01
  2.1564068e-01
 -1.1947691e-01
 -3.4822664e-01
  2.6681480e+00
  9.8195273e-01
  1.2767945e-01
  5.7684338e-01
  4.1060243e-02
  2.1205139e-01
 -4.3692538e-01
  1.5309443e-01
  6.6599801e-02
 -1.0115259e+00
 -1.1321883e-01
 -1.0963809e+00
 -1.5640950e-01
  5.3987157e-01
 -4.6613264e-01
 -8.3886184e-02
  2.6919205e-02
 -6.3658071e-01
 -7.4024446e-02
 -1.2941585e+00
 -4.2012134e-01
 -3.6549714e-01
 -1.1407227e-01
  6.4847517e-01
  4.3338618e-01
 -9.0172462e-02
  1.0500545e-01
 -1.9421296e-02
 -8.9541957e-02
  2.9701846e+00
 -4.6620492e-02
  2.0729379e-01
 -6.1542988e-01
  1.0873934e+00
  4.6731579e-01
 -4.3853955e+00
  1.5489222e-01
  3.8994318e-01
 -1.2227534e-01
  1.3548526e+00
 -1.7024700e-01
  1.0611527e-01
  1.7478929e-01
  6.1382744e-02
 -4.6884712e-02
  2.4373516e-01
 -5.0711155e-01
 -1.6787528e+00
  2.9531357e-01
  2.0633032e+00
  7.2332830e-03
 -9.6016783e-01
 -1.6307900e-02
 -1.9901851e+00
 -1.8430222e+00
 -4.8856437e-01
 -2.4206759e-01
 -1.2726104e-01
  1.4093681e-01
 -1.4235172e+00
  1.3259523e-01
 -5.3030577e-02
 -2.4725665e-01
 -3.3553764e-01
  8.8549398e-02
  7.0550181e-02
  1.8772802e-01
 -3.9809880e-01
  4.1517904e-01
  3.7084374e-01
 -2.4685455e-02
 -3.5457021e-01
 -1.7394209e+00
 -4.0803504e-01
 -5.4822946e-01
  9.8525314e-03
  7.2981991e-02
 -1.9923050e+00
  1.7766988e-01
  8.8009757e-01
 -1.3840578e-01
 -1.7563999e-01
 -4.9686500e-01
  1.3633670e+00
  3.9915138e-01
 -1.1199214e+00
  4.6951991e-01
  2.8476968e-01
  1.6444824e+00
  3.0972296e-01
 -6.0580146e-02
 -4.1912410e-02
  6.3272280e-01
  7.9601472e-03
  5.1516491e-01
  4.2379177e-01
 -2.3378552e-01
 -2.8228562e+00
 -2.1812248e+00
  2.8144835e-02
  4.8564047e-01
  4.3765032e-01
  5.3857442e-02
  7.2192110e-02
 -1.7844006e-01
 -3.1439486e-01
 -9.0818417e-01
 -8.2755744e-01
  3.2767143e-02
  5.2852660e-02
  2.2977360e-01
  1.0671043e-01
  3.7816271e-02
  6.3667394e-02
  1.0856450e+00
  4.1027823e-01
 -4.1474375e-01
  9.4652101e-02
  4.1093711e-02
  3.9757192e-02
  4.1548470e-01
 -5.3582299e-01
  2.3348030e-01
  2.1368235e-01
 -1.1727343e+00
  3.8345948e-02
 -1.0498496e+00
 -3.4407664e-02
 -2.9828208e-02
 -6.0320073e-01
 -9.3513884e-02
  1.7902996e-01
  2.0651528e-01
  1.5733616e+00
  1.7018135e-01
  1.8727668e-01
 -3.2928538e-01
 -6.1389118e-01
 -9.9717313e-01
  1.0932701e+00
 -1.1957216e-01
  6.7457557e-02
 -5.0688200e-02
  2.0836785e+00
 -3.1077601e-02
 -8.9064958e-03
 -1.3080499e-02
  7.4431166e-02
 -7.6321149e-01
  7.4246228e-02
 -2.9515290e-01
  1.0258195e-01
 -3.4840095e+00
 -4.8802629e-01
 -1.4217587e+00
  9.0178508e-01
 -8.0293357e-01
 -1.1555852e+00
  6.1763453e-01
  2.1674555e-02
 -1.2558658e+00
 -3.5616703e+00
 -8.7508923e-01
 -8.3024812e-01
 -1.8473406e-01
  1.0841919e+00
 -2.0486386e-01
 -2.3389182e+00
 -7.8875279e-01
  1.3704348e+00
 -2.8970531e-01
 -1.3354558e+00
  4.2197034e-01
 -1.6525094e-01
  5.8124799e-01
  9.4213802e-01
  2.4191263e+00
 -7.3753542e-01
  7.8334516e-01
 -1.1599226e+00
  2.7896997e-01
 -1.1325262e+00
 -3.5543394e-01
  7.7498043e-01
 -1.5604062e-01
 -1.4751235e+00
  9.4805491e-01
 -1.4688786e+00
  4.1330898e-01
 -3.5663640e-01
  1.0696856e-02
  1.6130222e+00
 -9.8246181e-01
 -4.0002272e-01
  1.4403870e+00
 -2.3116114e+00
  3.3517945e-01
  1.5326108e+00
  2.8204322e+00
  4.5515347e+00
  3.0595553e+00
  1.0987706e+00
  8.0353481e-01
 -4.5043555e-01
 -3.1414230e+00
  2.6632257e+00
  5.9121543e-01
 -2.2855992e+00
 -9.7403675e-01
 -1.8959699e+00
 -3.9262862e+00
  1.5743731e+00
 -2.8269133e-01
 -2.8889282e+00
 -3.1721880e+00
  2.4441618e-01
 -9.1244705e-02
 -1.6322788e+00
  3.8264889e-01
 -1.3837644e-01
  4.0998096e+00
  1.2450225e+00
  7.1200380e+00
 -1.5271775e+00
 -1.1188536e+00
 -3.0549090e+00
 -1.1714723e+00
  2.9987106e+00
  8.5582770e-02
  8.3182430e-01
 -7.4405855e-01
 -8.8159615e-01
  1.0882940e+00
 -3.5747275e-01
  8.3954304e-02
  3.2830079e+00
  3.1729600e+00
  4.1892847e-01
 -2.4354108e-01
  2.1481325e-01
  3.9071302e+00
 -4.0999227e+00
 -1.0195791e+00
 -5.8989902e+00
 -2.3634293e+00
 -1.0969124e+00
  4.5742595e-01
 -4.7381005e-01
  1.4271871e+00
  1.8969400e+00
  1.1065766e-01
  3.7044203e-01
 -7.4808793e-03
 -2.4591787e-02
 -1.0920309e+00
  1.7040055e-01
 -1.8040266e+00
 -3.0394740e-02
 -1.3114022e-02
  3.2346658e-02
  2.4862315e-01
 -2.0421247e-01
  2.9022333e-01
  9.2979997e-01
 -2.0079179e-01
  4.6049911e-01
 -3.1222751e+00
  5.5778746e-02
 -2.5476944e-01
 -4.9022339e-02
 -1.6331527e+00
  1.5792474e-02
 -1.7722207e-01
 -2.0649052e+00
 -2.2814591e-01
 -2.2439566e-02
  5.2660316e-01
 -7.4739344e-02
 -1.8158099e-01
  9.6748382e-01
  1.3789822e-01
  2.3857675e-01
  4.6627782e-02
  4.3583089e-01
 -1.6829600e+00
  3.0879617e-01
 -4.2778525e-01
 -3.4777969e-01
 -2.4831565e-02
  5.1519860e-02
  1.3057230e+00
  5.3682953e-01
 -3.3484919e+00
 -1.6972062e-01
  4.5002082e-01
 -4.1473252e-01
 -9.5666081e-02
  5.2398574e-01
  6.1348087e-01
 -4.4813156e-01
  1.6077838e+00
  1.0392658e+00
  1.7974305e-01
  2.7577430e-01
  2.4012646e-01
 -2.7742889e+00
  1.1431912e+00
 -1.5855110e-01
 -2.4029291e+00
  1.4122918e-01
 -5.8287793e-01
 -5.1824367e-01
 -2.2081752e-01
  9.5493692e-01
  9.3070036e-01
 -2.1332171e+00
  2.7120024e-01
  1.0553706e+00
  4.5300303e+00
 -1.1019268e-01
 -5.3028762e-02
 -2.1294625e+00
 -2.6549809e+00
  7.3215568e-01
  1.1292900e+00
  3.0049831e-01
 -1.1207820e+00
 -1.9181927e+00
 -1.7722955e+00
  4.3251100e-01
 -9.0783343e-02
 -1.1785424e-01
 -2.0659742e+00
 -1.0708556e+00
 -9.2414635e-01
 -5.0926566e-01
  3.3987510e+00
  1.3692877e+00
  1.4371687e-01
 -3.6416319e-01
  7.3306316e-01
  7.6249516e-01
  2.5431004e-01
  1.0692359e+00
 -8.5213530e-01
  1.0743146e-01
 -3.8162291e-01
  1.7137250e+00
 -3.7416863e+00
 -1.7816387e-01
 -5.4345894e-01
  3.8516673e-01
 -1.3883319e+00
  8.3249807e-01
  8.1875378e-01
 -1.9261322e+00
 -3.9517537e-01
 -1.5925555e+00
 -2.1570640e+00
 -2.4447760e-01
  7.7159566e-01
  1.9230238e+00
  3.3929622e-01
 -3.2543834e-02
  7.7312338e-01
 -4.6554881e-01
 -9.4431317e-01
  1.3250569e-01
  6.3103116e-01
  2.0532279e-01
  2.0486782e+00
  7.4639052e-02
  1.7083000e+00
  3.6043593e-01
 -4.6944957e+00
  3.2733515e-01
 -2.7598312e-01
 -3.2217655e+00
 -2.4364595e+00
 -1.2219273e+00
  3.7898505e-01
  1.9606693e+00
  2.9774265e+00
  3.0593853e+00
  5.1857847e-01
  4.2524805e+00
 -9.6689828e-02
  1.6215803e-01
 -5.1997571e+00
  1.2625773e-01
 -2.3441577e+00
  5.2890724e-01
  7.1128476e-01
 -1.8067567e-01
  6.1250520e-01
 -3.6282513e+00
 -5.0519750e-02
 -2.6351032e-01
 -5.2964824e-01
  5.1154684e-02
  2.7648466e+00
  3.5149121e+00
 -8.6280853e-02
  2.4400270e-01
  2.1331980e+00
 -1.9624434e-01
  3.0686396e-01
 -5.1432595e-02
 -7.9034799e-01
 -1.8573627e-01
  5.6845361e-01
 -4.3074512e-01
  5.5547106e-01
  3.3223176e-01
  3.3611956e-01
  1.6693473e-01
  7.7675492e-01
 -1.2781293e+00
  5.0369090e-01
  8.1463230e-01
  6.2982082e-01
 -6.0080099e-01
  1.6560969e+00
  3.8654003e-01
 -3.1465214e-02
 -1.2068947e-01
 -4.5574316e-01
  2.8861064e-01
  4.2977560e-01
  5.5066365e-01
  2.3902930e-01
 -1.3903633e-01
  4.1305462e-01
 -1.5369853e-01
 -1.8473868e+00
  1.2477626e-01
  4.0125850e-01
  1.3222015e-01
 -7.8715317e-02
 -2.8933844e-01
  2.7774268e-01
 -3.0359831e-03
  4.8921730e-02
 -6.5901530e-01
  5.6281239e-03
  3.5454106e-01
  1.1857196e-01
 -1.3118643e-01
  1.9483496e-01
 -4.8882571e-01
  2.7615833e-01
 -9.3017571e-02
 -4.8229307e-01
  1.8105679e+00
 -6.4990867e-04
 -2.6305335e+00
 -1.2371298e+00
 -5.8728015e-01
 -4.9279318e+00
 -2.5416052e+00
  1.6420701e-01
  4.1646194e+00
  1.1364040e+00
 -1.3033800e+00
 -2.6062840e-01
  1.6739855e+00
 -8.3979666e-02
  2.2511003e+00
 -1.4624616e+00
  2.5875328e+00
  2.7816019e+00
  4.6982172e-01
 -2.6078207e+00
 -4.4213538e+00
  7.7704072e-01
 -6.3682542e+00
  5.2527052e-01
 -1.4595771e+00
 -2.2636070e+00
 -2.4380422e+00
  1.8688565e+00
 -2.3146107e+00
 -1.9250525e+00
 -4.5387478e+00
 -7.8704995e-01
 -2.1267812e+00
 -1.6741636e+00
 -5.9491167e+00
 -2.7724555e+00
 -1.8756452e+00
 -3.9310610e+00
 -7.0475811e-01
 -1.6996388e+00
  1.3676157e+00
 -5.5675716e+00
 -8.8720608e-01
 -3.1651112e-01
 -1.7340650e-03
 -1.7926353e-01
  8.5945919e-02
 -2.0431247e-01
 -3.5107233e-02
 -8.3387953e-01
  4.2851806e-01
 -5.8615603e-03
 -2.2206528e+00
 -1.9556612e-01
 -4.3558913e-01
  6.2736613e-01
 -3.5594985e-01
  8.1481233e-02
  2.0484215e-01
  5.1912080e-02
 -2.1707398e-01
  3.3992895e-01
  8.0482149e-01
 -8.0445014e-02
  1.0876586e-01
 -3.0000573e-01
 -1.2998363e-01
  5.5328876e-02
 -1.4681007e-01
  8.8878620e-01
 -4.3061912e-01
  1.1641686e-01
  2.0737018e-01
  2.0062183e-01
 -5.2951163e-01
  2.4275756e-02
  9.5808667e-01
 -4.2943282e+00
 -1.3894833e+00
  4.9470776e-01
 -6.1119139e-01
  1.4104594e-02
  3.3273988e+00
 -1.3412333e-01
 -1.9268747e-01
  7.1436971e-01
 -3.8001131e-02
  4.1567835e-01
  1.3566728e-01
  1.0701522e-01
  2.7172282e+00
 -8.5666317e-01
  6.6604954e-01
  7.0659429e-02
  4.3148845e-02
  1.8782341e-01
 -2.6850493e+00
 -9.1274744e-01
 -5.8303213e-01
 -8.1101251e-01
 -7.8607649e-03
  1.6678610e-01
  1.8080713e+00
  3.1439606e-02
  1.1837613e-01
 -7.2541684e-01
  1.0475335e+00
  4.9260059e-01
  1.2485768e-01
  2.6429746e-01
  5.4132760e-01
  3.0981724e+00
  1.2601951e+00
  5.2070521e-02
  8.8084495e-01
  2.8200312e+00
 -3.2630746e+00
 -8.0729890e-01
  1.7978059e-01
 -1.1277298e+00
  9.7038680e-01
  6.8957537e-01
 -1.2787384e+00
 -4.5304127e+00
  4.6078300e-01
  4.9471965e+00
 -6.5518546e-01
 -9.7143370e-01
  1.2947900e+00
  1.0046538e-01
  2.8797145e+00
  2.7497652e+00
 -1.9374593e+00
 -8.6779881e-01
 -3.5050711e-01
  7.1954960e-01
  1.0072465e+00
  7.3195234e-02
 -1.8920889e+00
 -1.1700528e+00
 -5.1726234e-01
  7.4572438e-01
  1.8799948e+00
 -2.5216016e-01
  2.0051657e-01
  1.7820330e+00
 -3.1283178e+00
 -2.1028228e-01
  1.4468095e-01
  1.4074662e+00
  9.7188097e-01
  3.8012794e-01
 -5.9092071e-02
 -1.3465720e-01
 -4.6689253e+00
 -1.1111958e-01
 -3.1903689e+00
  1.7180374e-01
 -4.9931508e-01
 -9.5448075e-03
 -1.4576003e-01
 -2.9903399e-02
  3.2739594e+00
 -6.0238832e-01
  1.6604353e-02
  2.7946049e-01
 -1.5200212e+00
  1.4961626e-01
 -5.9987869e-02
  1.3520473e-01
 -2.3645391e-01
 -2.7798682e-02
 -6.0381509e-02
  5.6447364e-02
  7.9064399e-01
  5.2612877e-01
 -3.7932373e-03
 -1.3799553e+00
 -7.1595959e-02
  2.0251212e-01
 -9.6826144e-02
  1.2360689e-02
 -7.0907724e-01
 -4.5147367e-02
 -2.5881186e-01
 -3.8119709e-01
  9.6525896e-01
 -1.3462870e-01
 -7.6312996e-02
 -1.1758978e+00
 -1.7499994e-01
 -1.6415223e-01
  1.6121186e-01
  1.5823267e-01
  1.6188799e-01
 -3.0450663e-01
 -1.0094190e-01
  4.5197263e-02
  3.8785982e-01
 -1.5665074e-01
  8.4243402e-02
 -1.1154282e+00
  8.4879585e-02
  1.9126017e-01
  1.8800604e-01
  5.1802963e-02
 -8.2471400e-01
  1.7233005e+00
 -3.3414826e-01
 -2.1547563e-01
  3.0599470e+00
 -6.1587930e-01
 -3.7144592e+00
 -1.1742077e+00
  1.2370725e+00
  4.0790442e-01
 -1.0361849e+00
 -4.5344729e-02
 -2.8081834e-01
  3.2894093e-01
  2.5154567e+00
  5.5176616e-01
 -4.8481733e-01
 -9.8420799e-02
 -4.5908573e-01
  1.4478171e+00
  1.0792998e-02
 -4.2057669e-01
  3.0634608e+00
  3.8987231e+00
 -3.0050392e+00
 -2.9157710e-03
  4.8439324e-02
 -2.8425547e-01
  1.4875343e+00
  2.7778759e+00
 -2.4832001e-01
  4.3696034e-01
  2.8196964e-01
  7.3686153e-01
  8.8436753e-01
 -2.7659208e-01
  1.4512707e-01
  4.9978754e-01
 -6.5100849e-01
  3.8853507e-02
 -3.1703892e-01
  2.9861894e-03
 -1.3737837e+00
  1.1714123e+00
  2.3010454e-01
 -1.9010280e-01
  2.7132858e-02
 -3.5164234e-01
  4.2033830e-01
 -1.5828021e-01
 -8.4178627e-02
 -9.1439569e-01
 -4.0756521e+00
 -1.6216339e+00
 -6.2667094e-02
  2.7845424e-01
 -9.3390656e-01
  5.6896657e-01
 -3.1421714e+00
  1.1355370e+00
  3.5564619e-01
  8.5268331e-01
  1.0162218e+00
  2.3051548e-01
 -7.6354504e-02
  6.3124247e-02
  6.9142751e-02
  3.7486762e-01
 -4.8798719e-01
  5.1317704e-01
 -1.7789337e-01
 -5.3823340e-01
 -3.3308235e-01
 -4.6804186e-02
 -3.5637751e-01
  8.9716029e-01
  2.2841942e+00
  1.4755243e+00
  3.9689237e-01
  6.9092155e-02
  1.6825704e-02
  1.1161641e+00
 -4.0656853e-01
  1.3277212e-01
  6.9710755e-01
  6.9636633e-03
  4.3456677e-02
  8.1274703e-02
 -1.7701191e+00
 -1.0958395e-01
  4.7154254e-01
  4.7769696e-01
  7.8415990e-01
 -5.0517535e+00
 -1.8055975e-01
  1.4798957e+00
  1.8125075e-01
 -1.4131688e-01
 -1.3890311e-01
 -6.9253314e-01
 -6.8047792e-02
 -2.9989001e-01
  4.6010694e-01
 -3.1216059e+00
  8.7272674e-02
  1.4721936e-01
  9.1516262e-01
 -3.9530659e+00
 -7.8540072e-02
 -7.4437365e-02
 -6.0986638e-01
  3.3754673e+00
  2.4936986e-01
  4.7866354e+00
  2.4113832e-01
 -1.2104929e-01
  1.1601666e+00
 -5.3003635e+00
  2.8793025e-01
 -1.5533625e-01
  2.5466228e-01
  1.3936286e+00
  5.0945114e-02
  3.3785719e-01
 -2.1894348e-01
  1.8642664e-01
 -1.0610784e+00
  9.3722299e-02
  8.9007640e-01
 -7.8353423e-01
 -1.5320617e+00
  9.0035889e-03
 -1.0229086e+00
 -4.6289256e-01
 -4.5527104e-01
 -1.6879796e+00
  3.0362711e-03
  3.6010587e-01
  5.2621476e-02
 -1.3588612e-01
 -2.6803268e-02
 -9.5143598e-01
 -1.6211408e-01
 -7.2928496e-02
  1.6169507e-02
 -4.3968666e-01
  5.7386312e+00
  1.0620961e-01
  5.9122205e-02
 -4.2345796e+00
  3.9882821e-01
 -1.1147848e-01
  8.8290505e-02
 -2.1003723e+00
  1.0510203e+00
 -6.8109436e-04
  4.3121018e+00
  8.7527651e-01
  1.1687278e+00
 -3.3166554e+00
 -3.3324647e+00
 -2.3671718e+00
 -3.1874394e+00
  1.8182850e-01
  9.1387314e-01
 -3.1605651e+00
  5.4195504e+00
  1.4718528e+00
 -2.1330111e-01
 -2.2833850e+00
  1.2390463e+00
  3.0979326e+00
  2.1101861e+00
  2.6470051e+00
  2.2478793e+00
 -1.9157644e-01
 -7.7725220e+00
  8.4666204e-01
 -3.4397304e-02
 -3.7054813e-01
  1.7132046e+00
 -8.6556084e-02
  8.3832681e-01
  4.5184898e-01
  6.3305110e-01
 -2.0704317e+00
 -3.3942187e+00
 -6.3436484e-01
  1.7748721e-01
 -6.0289669e+00
 -6.6152358e-01
  4.0267096e+00
  5.8705950e-01
  2.0033427e-01
 -2.2451808e+00
  4.8097038e-01
  3.1978447e-02
 -2.0783409e-01
 -5.8573520e-01
 -6.3474143e-01
 -3.3808482e-01
  3.1921139e-01
 -9.6070653e-01
 -1.5181307e-01
 -7.3121798e-01
 -1.0802909e+00
 -2.0048518e+00
 -2.0088909e+00
  2.3961914e+00
  8.6386330e-02
 -2.3584402e+00
 -9.0467739e-01
 -2.7932188e-01
 -1.2147894e+00
  8.2941777e-01
  8.3145303e-01
 -9.3152571e-01
  5.6458300e-01
  4.7046912e-01
  3.1900507e-01
 -1.3022088e+00
  8.4158933e-01
  2.5015965e-04
 -7.2428948e-01
 -9.8294693e-01
 -3.1520510e-01
  5.0373864e-01
  4.0580848e-01
 -6.0983449e-01
  1.1858974e+00
 -2.6070625e-01
  3.1402689e-01
 -5.9383553e-01
  5.7268661e-01
 -2.1104978e-03
  2.5745359e-01
 -2.3232752e-01
  3.5056981e-01
  1.4498419e+00
 -1.7245471e-01
  4.9254638e-01
 -3.6273336e+00
 -4.3648702e-01
  1.5733039e-01
  1.8646708e-01
 -7.5508304e-02
  3.1110594e-01
 -2.3342401e-01
 -4.6206582e-01
 -6.1535621e-01
  1.3796598e-01
 -2.0902850e-01
  3.2013388e+00
 -2.6925620e-01
  4.1992214e-02
  6.9126904e-02
 -2.4303192e-01
 -9.4835147e-02
 -4.1333456e+00
  2.7007122e+00
  8.1849939e-01
  2.1194930e+00
  1.6018784e+00
  1.3773025e+00
 -2.8954389e+00
  9.7995311e-01
  2.4648449e-01
  9.9040899e+00
  4.5146439e-03
  1.7897642e+00
  1.3331689e+00
 -5.2454341e-03
 -2.6316708e-01
 -6.9205861e+00
  4.9828750e-01
 -1.4667637e+00
  5.4411116e+00
 -5.7883424e-01
 -1.6183944e-02
  3.1985202e+00
 -5.4138560e+00
 -1.3776352e+00
 -6.9592303e-01
 -4.3569093e+00
  5.7315081e-01
 -1.0178798e+00
  1.2142806e+00
 -3.3536479e+00
  7.9296523e-01
 -7.9232651e-01
 -1.3629063e+00
  4.4255548e+00
 -3.6223326e+00
  2.1418600e+00
 -1.6595467e+00
 -1.6082315e+00
  3.0168710e+00
  9.3147779e-01
 -3.0633364e+00
  7.4836081e-01
  1.5504749e+00
  5.8955115e-01
  4.7733036e-01
  8.0552107e-01
  3.4966367e-01
  1.7963061e+00
  1.9762927e+00
 -2.0230880e+00
 -1.0783347e-01
  1.2318032e-01
 -1.5733844e+00
  2.5378636e-01
  1.2718417e-01
  2.2620440e-01
 -1.7815849e-01
  6.6434181e-01
  1.1865053e+00
 -5.9589362e-01
  6.5911078e-01
  4.4185248e-01
  8.5298795e-01
 -2.4471445e-01
 -4.1076589e+00
  1.3693826e-01
 -6.1359102e-01
 -3.4285668e-01
  5.2456665e-01
 -3.5120952e-01
  5.4196483e-01
 -2.8745049e-01
  2.7777429e-04
 -1.9464815e-01
  1.9487697e+00
  2.1589813e+00
 -3.8684566e+00
 -1.6225156e+00
  1.5998417e-01
 -2.7227011e-03
 -4.5197129e-02
 -5.8934096e-02
 -1.1178579e+00
  1.4938556e-02
  9.0910517e-02
  2.9357392e-02
  8.4052876e-02
 -1.7229977e+00
 -6.1595064e-02
 -3.0730307e-02
  2.2658992e-01
 -7.1337163e-01
  3.9092946e-01
  1.5955439e-01
  1.9243117e-02
 -3.9575708e-01
 -2.6941255e-01
 -2.3077729e-01
  9.8998562e-02
  9.1169167e-01
 -2.8821748e-01
 -2.2448647e+00
  9.1654295e-01
  3.1165337e-02
  2.7191684e-01
 -1.4407707e+00
  2.2358167e-01
 -2.0747586e-01
  1.1596476e+00
  1.5327069e-02
  1.4890184e-01
  2.6629606e-01
 -3.7307504e-01
 -1.4549773e+00
  4.7591472e+00
 -4.3431333e-01
  2.6332177e-02
 -3.1432179e-01
  1.6477453e-02
  8.9738417e-01
 -5.5641711e-02
 -6.1664146e-01
 -1.7998341e-01
 -1.7555127e-01
 -8.7652063e-01
 -2.5717169e-01
  8.1565237e-01
 -7.6615125e-02
 -3.7004375e-01
  2.5615123e-01
 -2.2982283e+00
 -3.2380488e-02
 -1.4986987e+00
 -1.7524302e-01
 -2.4217138e-01
  2.0246525e-01
 -2.1137688e+00
 -2.6598430e-01
 -4.9579035e-02
  8.4889466e-01
  8.1158382e-01
  1.4868003e-01
  1.3488880e+00
 -4.2036632e-01
  1.2355505e-02
  1.0336924e-01
 -1.7449714e-01
  1.3468707e-01
  4.6214882e-02
 -2.4145132e-01
  1.0323988e+00
  2.4615745e-01
 -4.1518793e-01
 -1.3284715e+00
  9.6854115e-01
 -1.6795203e-01
  1.5046063e-01
 -3.0734131e-01
 -6.9470830e+00
 -3.7712791e+00
  3.8304843e-02
 -4.9895415e+00
 -9.6576013e-02
 -1.7044038e+00
 -1.3227649e+00
 -8.1502569e-01
 -1.8357268e-03
 -6.3554400e-01
 -3.4958508e+00
 -6.7481189e+00
 -9.9063061e-02
 -5.8519363e-01
 -1.5502162e+00
 -3.3515408e+00
 -2.6265306e+00
 -4.4306459e+00
 -1.3319043e+00
 -3.8471460e+00
  2.8442973e-01
 -2.6349614e+00
  4.8366782e-01
  4.7854457e+00
 -3.1008940e+00
 -1.0402687e+00
  3.7242019e+00
  4.7606874e-01
  1.3340890e+00
  1.2018311e+00
  1.5062686e+00
  5.3649378e+00
 -2.4867902e+00
  1.2718736e+00
 -2.5324943e+00
 -2.7352661e-01
 -1.6037674e-01
  1.5244189e-01
 -1.4981879e+00
  3.2897656e+00
  2.0905012e-01
  3.3402245e-02
  1.6904175e-01
  1.7636204e-01
 -2.2659156e+00
 -1.4698365e-01
 -3.1434090e+00
 -1.5872800e+00
  3.4263778e-01
  1.3055638e+00
  1.7419271e+00
 -8.8283002e-01
 -3.3335131e-02
 -2.1153629e+00
  3.5552603e-01
  3.2009203e+00
 -2.5908976e+00
  5.9332211e-02
 -2.4123502e+00
  5.2917151e+00
 -7.9996780e-02
 -2.1578264e+00
 -7.6003021e-01
 -1.5117561e+00
  4.2912981e-01
 -1.8377147e+00
  3.2982087e+00
 -1.4184906e-01
 -9.3470609e-01
 -2.0378244e+00
  4.1561568e-01
  5.0575290e+00
 -1.7595286e+00
  1.8354044e+00
  3.1760442e+00
  5.7561290e-01
  1.1046586e+00
  1.5055013e-01
  2.5191865e+00
 -5.3378060e-02
  3.7174406e+00
 -6.0990024e-01
 -1.8849443e+00
  1.2490444e+00
  2.0705688e-01
 -8.2850856e-01
  4.4689396e-01
 -7.1502021e-03
  3.6402470e-01
  2.6228040e-01
  6.5897107e-01
 -1.5490887e-01
 -1.3000306e-04
 -1.7616038e-01
  4.3365151e-01
 -2.0899309e-01
  1.0396893e-01
  5.7318759e-01
 -2.4626489e-01
  5.6920010e-01
 -1.0581534e+00
 -3.5816887e-01
  3.2353762e-01
 -2.9328379e-01
  5.5593920e-01
 -9.2086261e-03
  1.5480965e+00
 -1.4734387e-01
  5.0869924e-01
 -2.6688713e-01
  1.7348750e+00
 -5.3032424e-02
  6.5791601e-01
  1.4557369e-01
  4.5861942e-03
 -1.4974029e+00
  1.2083296e-01
  1.0472041e+00
  1.8190248e-01
 -3.9805701e-01
  1.4952716e-01
  5.0418634e-02
  7.9907767e-02
 -1.4492628e-01
 -3.2915752e-02
  8.9710623e-02
  6.9846727e-02
 -4.6551386e-01
  5.5300230e-01
 -2.5948972e-01
 -3.2122967e-01
  9.3029338e-01
  6.7466241e-01
  1.8631355e+00
 -5.2675021e-01
 -1.3864470e-01
 -4.8593834e-02
 -1.5365264e-01
  2.6916522e-01
 -1.7094873e-02
 -3.6486483e-01
 -1.1937214e-01
 -1.4958006e-02
 -1.1136460e+00
 -2.2010769e-01
 -3.8009156e-02
  3.5655264e-02
  1.1515622e-02
 -4.8635775e-01
  1.5604802e+00
  8.5204762e-01
 -6.5961093e-01
 -5.9802336e-01
  5.8379090e-01
  9.5516041e-02
  1.8136519e-01
 -1.6602351e-01
  1.0228008e-01
 -5.6978133e-02
 -3.4585470e-01
 -3.9966810e-01
 -6.9677658e-02
 -3.8877839e-01
  1.3365105e-01
  3.2624280e-01
  2.3678480e-01
  1.9453177e-01
  2.6375520e+00
  1.3062183e+00
  6.5776914e-02
  1.6642282e+00
  3.6215210e-01
  7.4595787e-02
  2.2470409e-01
 -7.2246417e-02
  1.0453892e+00
  7.6236302e-01
  4.1975309e-03
  5.5117846e-01
 -5.4047203e-01
  1.4629875e-02
 -5.4367453e-01
 -3.2529971e-01
  1.8315586e-01
  1.1089221e+00
 -3.0472356e-01
  1.5894138e+00
  9.3861587e-02
 -3.6107737e-01
  4.9921375e-04
  1.8002988e-01
  2.6171362e+00
  3.7611771e-01
 -5.0899506e-01
 -5.3677553e-01
  2.1867170e+00
 -7.7045426e-02
  3.7273076e-01
 -3.3034956e-01
 -2.0984337e+00
  7.9158641e-02
 -6.1647601e+00
 -1.0208459e+00
 -1.2328734e+00
  3.4979136e+00
  1.4833552e+00
  8.6980838e-01
 -1.0126233e-01
 -1.3910568e-01
 -1.5129329e-01
  2.5638008e-01
 -2.0974821e-01
  8.8330418e-02
  6.5289684e-02
  1.0575179e+00
  4.0576663e+00
  2.0983403e+00
  3.9818943e+00
 -6.1001843e-01
  4.6874833e-01
  1.5210819e-01
  5.9890308e+00
  4.4607725e+00
  3.3790700e+00
  1.8739159e+00
  1.1786300e+00
 -3.1334823e-01
  8.3756089e-02
  7.4745011e-01
  3.6641989e+00
 -3.2194614e-01
 -6.2632842e+00
 -7.3335227e-03
 -4.9857295e-01
  1.4393806e-01
 -9.2401755e-01
 -1.1416080e+00
  7.4090689e-01
  2.4660773e+00
 -1.7442629e-01
  7.6761688e-03
  2.7438909e-01
 -2.5253308e-01
 -8.8795528e-02
  6.8616234e-02
 -1.7121008e-01
  7.9228848e-02
  2.7875669e+00
  4.4426284e+00
 -4.2143536e+00
  2.4845077e-01
  2.7548809e+00
 -2.4926750e-01
 -1.8484044e-03
 -1.6899008e+00
  6.8954192e-02
  5.6090844e-01
  2.7720171e-01
 -9.3930317e-03
  1.2705853e+00
 -1.0182174e-01
  2.9251557e-02
 -2.1088603e+00
  1.1698426e-01
  2.4514787e-01
 -5.5269974e-01
 -3.3118083e+00
 -6.9059688e-01
 -2.5190184e-01
 -1.3051276e+00
 -1.5093662e-01
  4.2374402e-01
 -2.5603953e-01
  2.5701158e+00
  7.7872038e-02
 -1.0320910e+00
 -2.6999488e-01
  2.1401925e-01
 -2.8738460e-01
 -4.3984526e-01
 -5.7861190e-02
  5.2331811e-01
 -8.3292884e-01
  5.3879893e-01
  2.3104966e+00
 -4.8927110e-01
 -2.4266369e+00
 -1.4707332e+00
 -5.3088450e-01
  4.0373847e-01
  3.4552008e-02
  1.3488218e-01
  1.0106661e-02
 -5.2295685e-01
  5.1420134e-01
  3.1171089e-01
 -3.7033322e-01
 -8.3831139e-02
  5.2000839e-01
  2.2405694e+00
 -1.4968987e+00
 -7.8772441e-02
 -4.9644545e-01
 -3.4428325e-01
  2.4225184e-01
 -1.9854130e+00
  5.5337089e-01
 -2.5276107e-01
 -3.5914001e+00
 -2.0180862e-02
 -3.2072116e-02
 -4.7478866e-02
  2.4443069e+00
  2.3913842e-01
  2.7995024e-02
  1.4624599e-01
  2.8623722e+00
 -3.7556005e-01
  1.9626845e-01
  2.0520745e-01
  2.5618408e-02
 -1.1475949e-01
 -6.2082130e-01
  1.2060782e+00
 -1.8915786e-01
 -1.3852330e-01
 -5.7726335e-03
  4.2883125e-01
 -1.0061637e-01
 -2.7887622e-01
  3.0416584e-02
 -2.9608858e-01
  1.0188715e+00
 -2.4074702e-01
 -6.3886976e-01
 -1.3202962e-01
  8.7712012e-02
  3.4264728e-01
 -2.2615379e-01
  2.2113273e-02
  2.3995475e-01
 -1.7924792e-01
 -4.7095993e-01
 -2.1266147e-01
  2.3311786e-01
  6.9303185e-01
  3.9130020e-01
  8.1701201e-01
 -1.8236713e-01
  1.7829539e-01
 -3.9514799e+00
 -5.3441998e-02
 -9.2245396e-03
 -1.9509166e+00
  6.9017810e-01
  3.2388444e+00
  8.0692446e-01
  2.1889024e+00
  5.6779927e-01
  1.1632974e+00
  2.5846303e-01
  1.0513984e-01
  3.5050440e-01
 -7.6193191e-02
 -8.0166644e-01
 -8.1471011e-02
  1.5783674e-01
 -2.9450282e-02
 -1.5216930e+00
  1.5477896e+00
 -1.0056252e+00
  3.5584392e-03
 -9.5430124e-01
  3.5849115e-01
  1.2514714e+00
  1.5952937e-02
  1.0958916e+00
 -7.0899993e-01
  6.3740969e-02
  2.8102928e-01
  1.5502384e+00
 -1.0156847e-01
 -1.0127654e+00
  5.4054141e-01
 -2.9543974e+00
  1.3013220e+00
 -3.2939494e-01
  1.5877143e+00
  2.2504187e+00
  7.0999366e-01
  2.0982661e+00
  1.0201399e+00
 -6.0343736e-01
  3.7002999e-02
 -7.3279810e-01
 -6.3417934e-02
  2.0092793e-01
 -2.2076441e-01
  4.0115330e-01
  1.6243537e-01
 -6.2153954e-03
 -2.3394428e-02
 -1.5408385e-01
  5.5624300e-01
  2.6892710e+00
  2.6450076e+00
  4.2921418e-01
 -3.4761229e+00
  1.6620989e+00
 -2.8487704e+00
 -1.9104669e+00
 -4.8557717e-01
 -2.2678649e+00
 -1.2742510e+00
  1.8590597e+00
  3.8096420e-02
  4.8747531e-01
 -2.2148812e+00
 -3.0261223e+00
  1.3781169e-01
 -6.0329881e+00
 -1.5591811e-01
  1.7854943e+00
  2.5523064e+00
  1.8342583e+00
 -9.2805785e-01
 -1.5782276e+00
 -3.7176850e+00
 -1.2427844e+00
  7.7539355e-01
 -2.6137204e+00
 -5.4989505e-01
  1.2035086e+00
  2.9353755e+00
 -1.8110970e+00
 -1.3955023e+00
 -5.9334312e-02
 -7.8905457e-01
  1.6185816e-01
 -8.4430331e-01
  9.0890162e-02
  1.2120393e-01
  6.0848606e-01
  6.5621994e-02
  8.1475067e-01
 -3.9408258e-01
  3.6450989e+00
  4.3155110e-01
  5.2086216e-01
  5.5556476e-02
 -1.5356395e-01
  3.9053285e+00
  7.5262368e-01
  1.4380184e+00
 -1.7434781e+00
 -3.4950805e+00
 -4.2032413e+00
  3.7180707e+00
 -2.9984799e-01
  4.6260252e+00
 -2.5323429e+00
  1.9724585e+00
  5.7927542e+00
  2.5497735e+00
 -4.5535302e+00
  2.6344151e+00
 -8.4809738e-01
  3.5276660e-01
  1.7794929e+00
  1.7102617e+00
 -3.9968326e+00
 -2.7384884e+00
  1.3098137e+00
 -2.3675268e+00
  6.1620488e+00
  2.5234606e+00
  2.1430769e+00
 -2.4744570e+00
  1.4123344e+00
  1.7769210e+00
 -2.5673463e+00
  1.9008939e+00
  1.7587785e+00
  8.2257152e-01
 -1.7559154e+00
 -2.8714669e+00
 -3.0835584e-01
  4.1239963e+00
 -3.5860229e-01
  8.5763019e-01
 -8.5640663e-01
 -2.6797836e+00
  2.6575196e+00
  1.0070948e-01
 -1.3273364e+00
 -2.3862343e+00
 -1.0563518e+00
  6.2403511e-02
  1.6836882e-01
  5.9206760e-01
  5.4373723e-01
 -1.2249035e-01
 -9.5062532e-02
 -1.0967046e+00
  3.9577708e-01
 -7.7064693e-01
  2.3686976e+00
  9.8839068e-01
 -1.7270266e+00
  2.0615506e-01
 -5.4711380e+00
 -9.9644691e-02
  4.5617855e-01
 -3.4871435e-01
 -1.0751937e-01
  3.9660758e-01
  6.3904546e-02
 -3.7249245e-02
  1.6207080e+00
 -3.2468382e-02
 -2.6118600e-01
 -2.8197670e-01
 -3.0184194e-01
  2.6443774e-01
  5.0618351e-02
  4.0032706e-01
 -2.1554740e-01
 -1.1979121e-01
 -6.6793513e-01
  7.4032471e-03
  2.9278728e-01
  1.8976961e+00
 -4.1206831e-01
 -1.0983159e-01
 -8.9105642e-01
  2.3460899e-01
 -1.1871026e+00
  3.3653086e-01
 -6.6805437e-02
 -2.1719564e-01
  1.5622656e+00
 -8.8324571e-01
 -2.7198026e+00
 -2.6435545e-01
 -6.6647291e-01
  1.1202369e-01
 -3.0419266e+00
 -1.2812198e+00
 -2.1464877e+00
  1.4322078e-01
  5.8751047e-01
  6.2252156e-02
  4.8221597e-01
 -5.6537956e-01
 -1.2360515e-01
 -2.9500773e+00
 -7.6211672e+00
  2.4604836e+00
 -6.3587022e+00
  4.4019130e-01
  3.7454686e-01
 -2.3285632e+00
 -4.3089089e+00
 -2.2530432e+00
  3.1906507e+00
 -2.2133598e+00
 -2.9584008e-01
  4.9855900e+00
  1.4920759e+00
  3.8417859e+00
 -1.7151572e-01
 -9.8341674e-01
 -8.8928032e-01
 -1.5216571e+00
  1.8656681e+00
  1.5967089e+00
 -3.4820640e+00
 -3.6519596e-01
  4.1725860e+00
 -3.9289948e-01
 -1.6318648e+00
 -1.0007044e+00
  3.1767091e-01
 -3.0794075e+00
  8.0145311e-01
  5.6819683e-01
  1.9494351e+00
 -2.5898194e+00
  4.8438673e+00
 -7.1039714e-02
  3.1412297e-01
 -1.0849413e+00
  1.1584343e+00
 -1.2062390e+00
 -2.3600388e+00
  4.2391987e+00
 -4.2921047e+00
  2.0241446e+00
 -3.3330847e-02
 -6.1953864e+00
 -9.4686562e-01
  7.7985860e-02
 -1.5257825e-01
 -5.2567637e-01
 -4.5378838e+00
  1.1476966e-01
 -5.0645056e+00
  1.0532814e-01
  1.2513833e+00
  4.4665682e-01
  6.6041553e-01
  3.7783835e-02
 -1.6379455e-01
  1.1536453e-02
  2.8684834e-01
 -5.6089442e-02
 -1.7453046e+00
 -4.5451096e-01
  1.6499056e+00
 -2.3526165e-01
 -9.1889590e-02
  4.9236628e-01
 -2.0588654e-01
 -3.4598738e-01
  1.7125355e-01
 -8.9284338e-02
  2.0558913e-01
  1.2387822e-01
 -1.1465742e-01
 -1.5795869e-01
 -4.9678713e-01
  3.5210103e-01
 -3.2863289e-01
 -5.8619168e-02
 -6.4118057e-02
  3.8065567e+00
 -3.5534769e-01
  1.7963533e-01
  4.0591753e-01
 -1.3755268e-01
  6.9056302e-02
  1.9289856e-01
 -9.5165771e-01
  2.1943387e-01
  7.7008963e-02
  4.3768194e-01
 -2.3165387e-01
 -1.1606427e+00
 -1.5264668e-01
 -1.0754829e-01
 -4.8972914e-01
 -1.9493860e-01
 -5.8032262e-01
  3.3926904e-02
 -1.2170449e-01
  1.6221578e+00
 -1.3474948e+00
 -3.3892378e-02
 -3.0125749e-01
 -3.5879785e-01
  5.6585569e-02
  6.7715168e-01
  3.8855124e-01
  9.7563934e-01
  1.5655656e+00
 -1.6340947e+00
 -9.0024203e-01
 -1.5097247e-01
 -9.4030425e-02
 -2.0023564e-01
 -2.0016804e-01
  1.6998200e-01
  3.6466595e-02
  2.9595295e-01
  2.4925315e+00
 -3.9599202e+00
  3.6380693e-01
  4.7409767e-01
  3.3408895e-01
 -2.1985240e-01
  6.9158949e-02
 -1.6702820e-01
 -9.0162438e-01
  1.7186895e-01
 -3.2312307e-01
 -6.9139794e-02
  9.0682007e-02
 -6.0070902e-01
 -4.8059337e-02
 -1.1280965e-01
 -3.5876647e-01
  5.0047094e-01
 -3.7922525e-01
  1.4857112e-01
  9.5919299e-01
  1.1580273e-01
 -3.9904361e+00
  1.2204936e+00
  1.0642711e-02
 -1.5386102e-01
 -1.8118070e-01
  4.5968670e-01
  4.4461623e-01
 -3.8314694e-01
 -2.8997209e+00
  1.3572469e-02
 -5.3940974e-02
 -3.3106726e-01
 -4.4375440e-01
 -1.1890366e-02
 -2.6230693e-01
 -3.2234260e-01
 -8.7278563e-01
  6.9345742e-01
  2.6484913e-01
  2.0076345e-01
  1.8192948e-01
  2.0561624e-02
  5.8280528e-01
 -2.5140312e-01
 -2.2316951e-01
  2.3263727e-01
  5.8664538e-02
  5.9024578e-01
  3.6099786e-01
  1.0009178e-02
 -4.5337930e-01
 -3.7393179e+00
 -1.1143052e-01
 -6.6323116e-02
 -1.5485018e-01
 -1.4648382e-01
  1.7529802e-01
  1.4564589e+00
  8.7950742e-01
 -1.8065449e+00
 -2.9857999e-01
  5.3769284e-01
  9.3154058e-02
 -3.0660209e-01
  4.6540789e-02
  2.2513284e-01
 -4.4274494e-02
 -1.4536768e-01
  3.0063286e-01
  1.1601113e+00
 -4.0803046e+00
 -2.1175201e-01
 -2.3112138e-01
  5.3808373e-01
 -2.9167726e+00
  2.5257788e+00
  1.3245440e+00
 -3.7350830e-01
  2.7695423e-01
 -6.6413718e-01
 -2.5531402e+00
 -1.3502095e+00
  1.4826957e+00
 -3.1406645e-02
  4.7666383e-01
  3.0741575e-01
 -5.1901615e-01
  2.0180769e-01
 -2.9697093e-01
  1.2634145e-01
  1.3827187e-01
 -1.9323111e-01
  2.5022009e-01
  5.6803126e-02
  3.0291933e-01
 -1.1297872e-01
 -1.8632451e-01
  3.1456161e-01
  2.3694839e-01
  2.0377968e-01
  1.3592567e-01
  3.4376231e-01
 -4.1215500e-01
 -4.1850430e-01
 -9.6837185e-02
  8.3593518e-02
 -1.1910368e-01
  5.9598339e-01
  1.3130097e-01
  9.3919262e-02
  6.5713334e-01
  4.2809975e-01
  2.7478367e-01
 -7.3580183e-02
  1.6458127e-01
  2.3527842e-02
  4.2859459e-01
 -3.4701383e+00
 -1.2933227e-01
 -1.4015406e-02
  1.6931984e+00
 -1.1127508e+00
 -3.1274904e-02
  1.5257001e-01
  2.8919918e-03
  7.0350748e-01
 -5.5740809e-01
 -1.5619129e-01
  2.5477018e+00
 -1.9749323e-02
 -3.6805448e-01
  5.0123215e-01
  8.4048333e-03
  4.6986140e-02
 -1.7933285e-01
  2.1653467e-01
  4.5889903e-02
  1.5526617e+00
 -1.3142900e+00
  4.9925372e-01
  2.4678302e+00
  1.6718154e-01
 -3.9181459e-01
  4.4921321e-01
 -5.3628530e-02
 -8.5592493e-02
  4.4780347e-02
  2.1516785e-01
 -3.9564475e-01
  9.2493258e-02
  1.9326264e+00
  5.7012773e-01
  2.3914060e-01
 -3.6052090e-01
  4.5229709e-01
  6.1075616e-01
  5.8812821e-01
  2.0215778e-01
  1.5534397e+00
 -3.1108749e-01
 -6.8100625e-01
 -6.3067937e-01
  8.3498195e-02
 -1.3205222e-02
 -4.4975430e-03
 -1.5136703e-04
 -2.5812250e-01
  6.0853988e-02
  1.1442307e-01
  5.9997171e-01
  2.0669807e-01
  5.2895123e-01
  9.1273546e-01
  2.2212270e-01
  1.1442260e+00
 -5.2362399e+00
 -1.4816806e+00
 -1.9545062e-02
  9.6968567e-01
 -8.2915798e-02
 -4.9145319e-02
 -7.4357462e-01
  6.6066468e-01
 -1.2158011e+00
  4.1847336e-01
  4.4842264e-01
  1.4357720e-01
  2.1462538e+00
 -1.4814135e-01
 -4.4535947e-01
  1.0898674e-01
 -1.6770035e-01
 -1.5299740e-01
 -2.4665751e-01
  1.5146981e+00
  6.3282304e+00
 -3.4589750e-01
 -9.8806165e-02
 -2.2291395e-01
 -7.2811121e-01
  1.9025837e-01
  3.6320198e-01
  4.3717539e-01
  1.1115596e-01
  1.6444816e-01
  3.2217181e-01
 -6.0452491e-01
 -7.0815915e-01
  4.0085354e-01
  2.7461769e-02
  3.3785090e-01
 -3.4694970e-01
 -1.5862635e-01
 -9.5571572e-01
  1.0848441e+00
 -6.5297139e-01
  6.7579997e-01
 -1.2580309e+00
 -2.6126714e+00
  1.3400483e-01
 -9.0782303e-01
 -2.0320708e-01
 -2.0800586e-01
  5.7252073e-01
  4.5226598e-01
  1.8695816e-01
 -2.2526640e-02
  8.6952251e-01
  3.9766726e-01
  2.0500679e-01
 -1.9389099e-01
 -8.3866799e-01
 -5.1507239e+00
  7.0160531e-02
  1.9069502e+00
 -1.3550393e-01
 -2.7896869e-01
 -2.4774303e-01
  2.3062563e-01
 -8.0048054e-02
 -1.5536338e+00
 -1.6189065e-02
  8.1076866e-01
 -1.2529378e-01
  1.7693187e-01
 -1.4784351e-01
 -1.7766963e-01
 -6.8239772e-01
 -1.2610571e-02
 -6.6551822e-01
 -7.9927608e-02
  6.4811438e-01
  7.3080957e-02
  3.1744551e-02
  2.6813412e-01
  4.4323471e-01
 -5.0261259e-01
  1.6577756e+00
  6.5794915e-01
  5.5601973e-02
 -7.0843697e-02
  4.1650933e-01
  1.3662621e-01
  3.0481282e-01
 -4.1470211e-02
 -2.8730220e-01
  1.3058847e-01
  4.1792107e-01
  2.4436558e-02
  1.5014079e-01
 -1.4426312e-01
  2.0109852e-01
 -8.9156196e-02
 -3.5807402e+00
  1.0089745e-01
 -2.3850791e-01
 -8.0947894e-01
  1.2240420e-01
 -9.7649586e-01
 -7.5969803e-01
 -9.8490155e-01
  3.5440466e-01
 -3.0802211e-01
 -8.4034842e-01
  3.2669611e+00
 -9.4319195e-02
  2.6864389e-01
  6.7598748e-01
  5.1205307e-01
 -4.3155560e+00
  1.1407195e+00
  2.3652139e-01
  3.9791338e+00
 -2.5198743e-01
  9.3843661e-02
  1.7007776e-01
 -1.8962784e+00
  7.7359654e-02
 -1.9227663e+00
 -3.6138967e-01
  2.3771267e-01
  2.7175653e+00
  3.4930858e-01
 -6.1339431e-02
 -1.1165894e+00
 -1.2013631e-01
 -3.0511689e+00
 -5.6839693e-02
  1.0169178e+00
 -4.7861198e-01
  8.6606413e-01
 -1.1465904e+00
  1.0465282e-01
 -7.0561722e-02
 -1.5460354e-01
 -3.0432951e-01
 -8.7172929e-03
  6.8503392e-01
 -8.8355072e-02
 -2.3262006e-01
  5.0758648e-01
  1.0061576e+00
  5.5105962e-02
 -1.0912571e-01
 -7.1064748e-02
 -3.6639878e-01
  3.1196627e-01
  2.9843873e-01
  1.5889119e-02
 -2.8666598e-01
  2.9089057e-01
 -3.7518066e-01
 -4.5249316e-01
 -5.4133779e-01
 -5.5140454e-01
 -1.9418606e+00
  2.3045509e-01
 -5.6727028e-01
 -5.0419003e-01
 -3.0308479e-01
  1.0522994e-01
 -2.8437036e-01
  1.3712724e-01
  6.6615857e-02
  1.4437188e-01
  6.4394528e-01
  3.4781575e-01
 -3.8070005e-01
  1.2969005e-01
 -3.4218231e-01
 -1.4700575e-01
  4.3758783e-03
  1.1544480e+00
  1.4716434e-01
 -5.9903294e-01
  4.9844999e-03
  3.6004350e-02
  1.1256735e-02
 -2.1785095e-01
 -2.1127896e-01
 -8.5615158e-02
 -3.4724510e-01
  9.3442965e-01
  9.8300623e-03
  1.7696854e-01
 -5.2611649e-01
 -3.3113346e-01
  3.7789375e-01
 -1.9939965e-01
 -5.4155439e-01
  5.6839508e-01
 -3.0635150e-02
  1.3099562e+00
  1.2983921e-01
  2.4519603e-01
 -1.2461052e+00
  4.9245980e-01
  3.7906148e-02
  1.5516721e+00
  9.7737414e-01
  1.1059209e-01
 -1.4742767e+00
 -1.6110247e-01
  1.0587175e-01
  3.1058234e-01
  1.3126621e+00
  2.0115066e-01
 -1.2261298e-01
  3.1896118e-02
  1.2357192e-01
  1.8445047e-03
 -1.2291263e+00
 -7.5468242e-02
  1.3501762e+00
 -8.9364368e-01
  3.0352932e-01
  1.6486394e-01
 -2.4073211e-02
  1.7594139e-01
  6.8730518e-02
 -5.5651510e-01
 -1.7760120e-01
  1.7708866e-02
  8.3028996e-01
 -7.7944472e-02
  4.8318470e-01
 -3.0987890e+00
 -1.7505203e-01
 -1.0175879e-01
  3.9962876e-01
  4.8308319e-01
  1.6996058e+00
  5.1410919e-01
 -6.4767426e-01
 -8.8320768e-01
 -1.5501590e-01
  4.3152966e-02
 -1.1032686e-01
 -1.8864353e-01
 -2.3964398e-01
 -5.2041405e-01
  2.9224491e+00
  4.3708384e-01
 -6.1333336e-02
  8.7481432e-02
  6.2833256e-01
  1.4599326e+00
  1.6942228e+00
 -1.9590493e-01
  4.2938837e-01
 -4.4060665e-01
  1.0194489e+00
 -3.9988492e+00
 -1.0703886e+00
 -3.2612056e-01
 -9.7719944e-01
  1.3313882e-01
 -6.2976372e-01
 -8.3966964e-01
 -3.0190796e-01
  2.3206444e+00
  3.4370654e+00
  3.3750181e+00
 -1.8459854e+00
  4.3979177e+00
 -3.1844473e+00
  4.6340046e+00
 -5.4392999e-01
 -3.5827150e+00
 -3.1472516e+00
 -2.9839833e+00
  4.5097117e+00
  3.4000251e+00
 -4.8055369e-01
  4.3928089e+00
 -4.0734682e+00
  2.8598816e+00
 -3.2336137e+00
 -1.7703540e+00
 -3.5357025e+00
 -2.8700278e+00
  1.7463757e+00
  2.2300432e+00
 -3.9294739e+00
  2.9905601e+00
 -3.0881464e+00
  4.8523417e+00
  1.7361027e+00
  4.7616749e+00
 -2.5131984e+00
  7.8105658e-01
 -9.3455333e-01
  4.5701671e+00
  6.9998946e+00
  5.2908864e+00
  2.4393404e+00
 -1.7329425e+00
 -3.6867332e-01
  3.0269406e+00
 -4.2717905e+00
 -4.1781178e+00
 -4.1533465e+00
  2.7997437e+00
 -3.5895410e+00
 -2.4038880e+00
 -3.1901789e+00
 -3.9923217e+00
 -3.4201210e+00
  4.0845366e+00
 -2.7249610e+00
  2.4067821e-01
  1.9895840e+00
 -3.8792968e+00
  2.8948101e-01
  2.5897419e+00
  3.6311898e+00
 -3.7958803e+00
  4.1313295e+00
  1.6951939e+00
 -4.1875873e+00
  3.5740974e+00
 -5.5280393e-01
 -1.6439506e+00
 -4.6867132e+00
  3.0909307e+00
 -1.7321857e+00
 -3.4461203e+00
  1.8255271e-01
 -3.6774900e+00
  3.5086229e+00
  3.2165437e+00
  3.0029788e+00
 -3.2291458e+00
  4.2463021e+00
  1.3796302e+00
  2.0724690e+00
 -2.7054301e-01
  5.2423906e+00
  2.9501047e+00
  8.6370327e-02
 -1.5978131e+00
 -3.8066795e+00
 -3.5828331e+00
 -2.4612815e+00
  3.1415114e+00
 -3.1410327e+00
 -2.4689603e+00
 -2.9076188e+00
  1.0694759e+00
  3.1013300e+00
  6.3645095e-01
  3.1853795e+00
 -2.9183800e+00
 -4.4297371e+00
 -7.9468555e+00
 -3.2772446e+00
  2.8432651e+00
  4.6212554e+00
 -2.9636412e+00
  3.6916997e+00
 -3.4916072e+00
 -1.5484179e+01
 -1.1328000e+01
  1.3707045e+01
 -1.2908773e+01
  1.1565365e+01
 -8.8909302e+00
 -1.8010743e+00
  8.8463907e+00
  1.0465822e+01
  1.1474606e+01
 -6.7799349e+00
 -1.1136635e+01
  2.6061711e+00
 -8.9526596e+00
  7.1259422e+00
 -6.9458089e+00
  1.4233036e+01
  1.1587607e+00
  7.1253219e+00
  1.1115460e+01
  2.4796715e+00
 -5.3051910e+00
  1.5002032e+01
 -1.2998088e+01
  1.2866452e+01
 -9.7180452e+00
 -1.1076033e+01
 -1.8516506e+01
  1.0067134e+01
 -8.7956810e-01
  1.1987778e+00
 -1.4120381e+01
 -1.3038526e+01
 -1.1249267e+01
 -6.4459987e+00
  1.6794662e+01
 -1.2093678e+00
 -1.2779202e+01
  1.1136064e+01
  1.5820772e+01
  8.0554628e+00
 -7.4377789e+00
  1.0685410e+01
  9.9972906e+00
  6.3909831e+00
  6.7383537e+00
  1.3088592e+01
 -1.2066959e+01
  1.1371517e+01
 -1.7647109e+00
 -6.7439060e+00
  8.0451546e+00
  7.6191287e+00
 -1.0113060e+01
 -1.5386129e+01
  9.3991718e+00
 -7.8994880e+00
 -7.8875262e-01
  1.4867188e+01
 -1.7531801e+01
  3.6589823e+00
  1.2983840e+01
  1.1644098e+01
 -1.4794131e+01
  7.0325679e-01
  1.8832359e+01
  2.7825491e+00
  1.3845659e+01
 -1.5050309e+01
 -9.1023464e+00
 -6.0796852e+00
  1.8999855e+01
 -1.3539052e+01
 -3.6347921e+00
 -4.1622643e+00
  1.5951182e+00
 -1.0750412e+01
 -7.3784986e+00
  5.5093884e-01
  9.6922445e+00
  4.4506040e+00
  1.1004969e+01
  1.0570815e+01
 -1.3744573e+01
  1.3893888e+01
  1.2736269e+01
  1.2137816e+01
 -1.2574137e+00
 -1.0801815e+01
 -1.6746920e+00
 -9.3962393e+00
  1.2042436e+01
  1.1690003e+01
  1.2398581e+01
  1.0554121e+01
 -6.8283935e+00
 -1.6705971e+01
  7.7418432e+00
 -7.6223540e+00
  1.2183483e+01
  3.7264667e+00
  3.1596206e-03
  4.8048978e-04
  1.9905700e-01
  7.9493798e-02
 -1.5476616e-01
 -2.3574661e-01
 -1.6088527e-01
 -1.7105459e-01
 -1.2035839e-01
 -1.0380914e-01
 -4.1276584e+00
 -7.7669322e-01
 -9.1712914e-02
  4.7557466e-02
 -2.0650525e-01
  1.1865668e+00
 -6.9385290e-02
 -1.4035200e+00
  1.7054498e-01
  5.4240357e-02
  2.1668761e+00
 -4.2483836e-02
  5.8392125e-01
 -2.4916258e+00
 -1.8900023e-01
  3.4141311e-01
  2.2489046e-01
  1.1502749e+00
 -1.6698288e-02
  4.2583203e-01
 -4.2830452e-01
 -3.5355065e-02
 -2.0777033e-01
  2.2722781e-01
  2.5850531e-01
  1.9520679e-01
 -1.7436993e-01
 -1.4834264e-01
  8.9095497e-01
 -2.2957781e-02
 -7.1294159e-02
  8.4610961e-02
  7.0493326e-02
  3.7575525e-01
 -5.1826045e-02
  3.6722314e+00
  6.8934321e-01
 -3.3984259e-02
  6.0520935e-01
  1.4043453e-01
  8.7837332e-01
 -1.4985309e-03
  2.5489172e-02
 -1.3932145e-01
  2.2611630e-01
  3.0211189e-01
  6.0204476e-01
 -3.1557579e+00
 -6.3938391e-01
  2.9291126e-01
 -5.6370473e-01
  7.0266478e-02
 -1.0538603e+00
  3.7109165e-03
 -2.0023288e-01
 -1.2849888e-01
 -7.8179426e-02
  1.3654949e-01
 -3.4929607e-02
  3.6547655e-01
 -1.4291768e-01
 -2.6513168e-01
 -5.1029891e-01
 -7.6858275e-02
  3.3750705e-02
  1.9749756e+00
 -2.8583154e-01
 -1.7837097e-01
 -1.2468394e-01
 -7.3351300e-01
  3.1853178e-01
 -1.5640226e-01
  8.6313534e-01
 -6.0792100e-01
  5.6659245e-01
 -2.8207877e-01
  1.7575567e+00
 -1.0198726e-01
  3.3804248e-03
  8.6903977e-01
 -3.0746000e-02
  1.7304401e-01
  1.7741834e-01
  7.0598260e-02
  1.1873328e-02
  2.0255513e-01
 -1.6003834e-01
  6.1927003e-01
  9.3769632e-02
  9.3057686e-01
  3.9031293e+00
  1.4669406e+00
  6.9723405e-02
  7.4842326e-02
  1.6543332e-01
  2.5289876e+00
 -2.4294592e-01
 -6.8760687e-01
  9.6923269e-02
 -2.8658307e-01
 -6.9074357e-01
 -7.8401037e-02
 -1.0249618e-01
 -9.7443581e-01
 -1.4115027e-01
  1.0121850e-01
 -3.3554129e-02
 -3.8065873e-02
  1.8780734e-01
 -1.5189280e-01
  1.0611972e+00
  1.8066445e-01
  6.4529873e-02
 -3.5852052e-03
  4.8886943e-01
  2.1634814e-01
  9.7937918e-01
  1.5850872e-01
 -1.3060462e-01
  2.8547949e-01
 -4.4422802e-01
 -5.0527853e-01
 -9.4670767e-01
  6.2766604e-02
 -3.9532557e-02
  7.1892601e-01
 -5.9138447e-01
  1.1915469e-02
 -1.8887701e-02
 -1.0007691e+00
 -7.8383309e-01
  6.9927031e-01
  5.4954249e-01
  4.7862706e-01
  1.7378612e+00
  7.5657767e-01
 -2.9922110e-01
 -8.5225886e-01
  6.8403667e-01
 -2.4574861e-01
 -2.3978100e+00
  4.6764666e-01
 -2.9834485e+00
 -1.5683438e+00
 -6.7742431e-01
  2.7650871e+00
  6.4883307e-02
  1.7788616e-01
 -8.2434630e-01
  2.5299914e+00
 -2.3058952e-01
  3.5123506e+00
 -1.3367062e+00
 -1.6926859e-02
 -3.5797560e-01
  4.5819506e-01
 -8.3580181e-02
  9.6558613e-01
 -6.2378109e-01
 -7.3114002e-01
  1.8514276e+00
 -1.6272587e+00
 -8.4815407e-01
 -5.2428293e-01
 -4.3203175e-01
 -1.3084064e+00
  2.6206017e+00
  4.4775567e+00
 -2.7158132e+00
 -4.0417203e-01
 -7.8097582e-01
  2.6489368e-01
  4.8427001e-01
  4.3844402e-02
 -3.4396603e+00
  2.7318470e+00
 -1.4407033e-01
  3.4908435e+00
  3.3907658e-01
  4.6413592e-01
 -1.6010657e-01
 -4.2603579e-01
  4.1320956e-01
  2.3257837e-01
  3.7035666e-02
  2.4420402e+00
 -3.6695373e-01
  2.1204069e+00
 -1.3669800e+00
  1.8209652e+00
  1.8056664e-01
  1.7227621e-01
  1.3056144e-01
 -8.2274295e-02
  7.0125043e-02
 -5.0774759e-01
  8.5338169e-01
 -4.6188414e-02
  7.6998528e-03
 -6.6641539e-01
 -3.3667678e-01
 -1.0082898e-01
  8.3080880e-02
  5.9389716e-01
 -1.0931287e-01
  3.1250820e-02
  1.7892317e-01
  3.2806892e-03
  1.3718349e-01
  4.4015518e-01
  3.1903395e-01
  2.0539926e-01
  7.0303865e-02
 -1.6459402e+00
 -8.6955464e-01
 -2.5471697e+00
  5.2306902e-01
 -3.5005483e-01
  1.7305927e-01
  2.0385696e-01
 -6.8878978e-01
  4.6337068e-01
  7.8228825e-01
  9.6232146e-01
 -1.7137165e-01
  1.2734957e+00
 -3.4817341e-01
  2.8272530e-01
 -7.5513887e-01
  5.8851469e-01
 -2.1042919e+00
 -2.3023984e-01
 -9.9307185e-01
  5.8185560e-01
  4.6635747e+00
  5.8052856e-03
 -1.4812897e-01
 -2.5045002e-01
  1.1680175e-01
 -8.9734393e-01
  1.7516838e-01
  8.2599866e-01
 -2.5292301e+00
  4.0660915e+00
  8.2416147e-01
  3.2781520e-01
 -8.7036234e-01
 -2.3977660e-01
 -7.9601921e-02
 -3.2358378e-01
  5.2432203e-01
 -1.5359813e+00
 -1.8786023e+00
  1.4615929e+00
  4.1497495e-02
 -3.9564782e-01
  1.0696698e-01
 -1.0763274e-01
  3.9673916e-01
  1.4749366e-01
 -3.9323378e-01
  1.0659184e+00
 -3.8592117e+00
 -1.4992125e+00
 -1.3841431e-01
 -6.0394323e-01
 -1.6711259e+00
  2.6834943e+00
  2.0404184e-01
  1.0418748e+00
 -4.6790228e+00
  2.0297487e-01
 -2.3306919e-02
  4.2788434e-01
  1.0918039e+00
  1.3955463e+00
  6.4522535e-02
 -1.4191777e+00
 -5.5379055e-02
 -6.1541617e-01
 -8.9826119e-01
  9.9951729e-02
 -7.9144520e-01
 -7.1457112e-01
 -7.1362162e-01
  8.1784666e-01
  4.8475340e-01
  3.1886775e+00
  2.5857416e-01
  8.3578980e-01
 -1.7304067e-01
 -6.7490214e-01
 -3.6555301e-02
  3.7178427e-01
 -1.7313963e-02
  1.5787423e-01
 -1.6375190e+00
 -1.8734230e-01
 -1.2632312e+00
 -2.8288102e-01
  2.9105273e-01
 -1.4499383e+00
  1.4803444e-01
 -3.9215524e+00
 -3.1972024e+00
 -7.1040705e-02
  7.3308129e+00
  5.0567782e-01
 -1.5185283e-01
 -1.4411961e+00
  7.4883407e-01
  6.7119223e-01
  3.0134335e+00
  3.9562206e+00
 -7.0811319e+00
 -5.5089191e-02
 -8.7711103e-02
 -5.0586909e-01
 -2.6352954e+00
  3.1848421e+00
  9.7522169e-01
 -2.8492339e+00
  1.6615164e+00
 -1.4413022e+00
  7.9568571e-01
 -2.4280701e+00
  1.0608003e+00
  4.1833014e+00
 -4.4419938e-01
  2.8071029e+00
 -2.6469857e-01
  2.9483756e-01
  8.2852906e-01
  1.9580209e+00
 -7.3685028e-02
  2.5025105e-01
 -2.3928032e+00
 -1.9190668e+00
  2.5350240e-01
  1.8750287e+00
  2.1566904e+00
 -7.7179089e-02
 -1.1751923e-02
  2.5649866e-01
 -1.9194709e-01
 -2.5502732e-01
 -7.6353222e-01
 -1.8756626e+00
 -1.1316191e+00
 -7.7226204e-01
  2.0271888e+00
  1.4097824e-02
 -4.1888314e-03
 -2.2223079e+00
 -4.3042785e-01
  2.2147641e+00
 -1.9580953e+00
 -1.0115734e-01
 -2.7525339e+00
  5.4558830e+00
 -2.5364953e-01
 -2.8604059e+00
  1.9555793e+00
  7.6018947e-01
 -2.1966653e+00
 -2.0309722e-01
 -2.0059981e+00
 -4.8797998e-01
  1.4019042e+00
  1.2667998e+00
 -3.1572094e+00
  4.3346998e-01
 -1.0822941e+00
  3.4962514e-01
 -1.0568540e+00
  3.5329250e-01
 -4.4369335e+00
 -1.2329855e+00
 -7.2966993e-01
  6.6624010e-01
  1.2133073e-01
  4.8239583e-01
  2.8044518e-02
 -1.6554466e-01
 -6.1945230e-01
 -6.1831966e-02
 -2.2095592e+00
 -6.3532025e-02
 -1.4273598e+00
  4.5016527e-01
  9.5835572e-01
  1.3184766e-01
  1.0256779e+00
 -1.5134155e+00
 -6.4933454e-03
 -2.2686428e-01
  1.0855903e-01
 -1.7898060e-01
 -1.1031407e+00
 -3.0164143e-02
  6.5503336e-02
 -1.0307737e-01
  2.2101711e-01
 -5.2594725e-02
  3.5274339e-01
  3.3883658e-01
 -2.9230028e-01
 -1.9916368e-01
 -4.8507476e+00
 -1.6090850e+00
  3.6798018e-01
 -1.1277395e+00
  2.9185501e-01
  2.2476766e-01
 -9.3738925e-01
  1.1648945e+00
  3.9848000e-01
  1.5399629e-01
 -5.3384584e-01
 -2.9963839e-01
  6.7576075e-01
  1.0385397e-01
 -2.0028593e-01
  2.2500990e-01
 -2.1659765e+00
  2.4130219e-01
 -9.0697408e-01
 -4.9551611e+00
 -5.0863937e-02
 -4.1959986e-01
  3.2016620e-01
  1.9657458e+00
 -3.7635037e-01
  3.5959993e-02
 -2.2089392e-01
 -2.1965055e+00
  5.2775264e-01
  1.7212121e-01
  3.3699423e-01
 -3.7852252e-01
 -5.1335406e-01
 -1.7015091e-01
  2.4130179e-01
  4.3481201e-02
 -1.0684709e-01
  3.4884334e-02
 -4.3293351e-01
 -2.7827257e-01
  2.4772023e-01
 -4.1154609e-03
  2.3150355e-02
  1.9805154e+00
 -3.6003479e-01
  1.4276192e-01
  3.0150086e-01
  3.4402448e-01
 -3.2666102e-01
 -3.4434730e-01
  2.8829852e-01
  1.0269611e-01
  3.2151707e-02
  2.3536377e-02
 -2.0644870e-01
 -3.4085074e-01
  2.2632974e-01
 -5.2343947e-01
  2.5897035e-01
  1.8913417e-01
 -4.0800318e-01
 -3.0220193e-01
  4.7566012e-01
 -2.7409947e-01
 -9.8702898e-03
  5.4453063e-01
 -3.4471011e-01
  6.3411891e-02
 -3.1483602e-02
  2.3408728e+00
 -2.8735122e-01
  1.6994201e-02
  6.2247813e-01
  3.0248603e-01
 -2.1736276e-01
  9.8452556e-01
  5.8456051e-01
 -7.6456290e-01
  2.6727521e-01
  5.9308052e-02
  1.6707029e+00
 -3.8049571e-02
  1.6249675e-01
 -1.2340993e+00
 -3.6612311e-01
 -3.4963197e-01
  6.9226974e-01
  2.8669906e+00
  1.3445518e+00
  2.0226836e+00
  6.1572954e-02
  2.4232173e+00
  1.2316844e-01
  1.3436000e+00
 -7.7353157e-02
 -9.2827767e-01
 -5.8774310e-01
 -3.0689988e+00
 -3.4485579e-01
 -2.0220116e-01
 -2.3432752e-01
  6.6804573e-02
 -9.8837577e-02
 -8.9408976e-01
  1.9733813e-01
 -4.5348573e-01
  1.8942962e+00
 -1.3839000e-01
 -2.6954937e-01
 -8.3503269e-02
  7.3786192e-03
  5.3060480e-04
  6.6524041e-01
 -2.8452855e-01
 -3.4768328e-01
 -2.4064687e-01
  2.7224791e-01
 -2.6051548e+00
  1.8521452e-01
 -7.8664213e-01
 -1.5508178e-01
 -5.3100890e-01
  8.2463413e-02
 -7.0374805e-01
  4.3627843e-02
 -2.9157354e-02
 -3.0748409e-01
 -7.1293336e-01
  6.3260674e+00
  1.7943058e-02
 -5.8877856e-01
 -4.3176889e-02
  2.1052746e-01
 -2.1117564e-01
 -1.9135553e-01
 -7.7756666e-02
  3.5520742e+00
  3.5498112e-01
 -1.0519074e-01
  6.2683731e-02
 -2.6044266e+00
 -1.7902440e+00
  1.1921962e-01
 -4.5481250e-01
  1.0209955e-01
 -6.2866163e-01
 -2.2922833e-01
  3.0840832e-01
 -1.3777384e-01
  1.4512850e+00
  2.1677631e-01
  1.9455829e-01
 -1.3894788e-02
 -1.4609096e+00
  6.2694710e-01
  4.6093655e+00
 -4.5729947e-01
  6.2946033e-01
 -3.5894552e-01
 -3.6127722e-01
  4.3183208e-02
 -8.1217922e-02
  8.0227315e-01
  3.3478230e-02
  8.6521700e-02
 -3.9589748e-01
  3.5059062e-01
  1.5077752e-01
  1.7713472e-01
 -1.0055715e+00
  4.1746303e-01
 -1.4462943e-01
 -1.0690673e-01
  4.6686497e-01
  7.2751206e-01
 -1.2729836e-01
 -1.0353082e-01
 -2.7874688e-02
  1.0399332e-01
 -1.3356306e-01
 -1.1192746e-01
  1.9548835e-01
  4.8045259e-02
  1.1308150e-01
 -2.2875987e-01
 -1.5083575e-01
 -3.7090892e-01
 -2.4604871e+00
 -1.5376987e-01
 -2.0993121e-01
  2.8626746e-01
 -5.7548702e-01
 -2.9570264e-01
 -1.1147489e-01
  7.8167498e-01
 -1.5765469e+00
 -4.7016969e+00
  1.9344124e+00
 -8.5007602e-01
  3.6379070e+00
 -1.6072305e+00
  6.8008751e-01
  1.0485836e+00
  1.2291622e+00
  3.4568971e-01
 -3.0853155e-01
  1.2075441e-01
  2.2437048e-01
 -2.4631496e-03
  1.2617505e-01
  2.3128295e+00
 -2.2880633e+00
 -2.5175295e+00
 -1.9841661e+00
  1.6315408e-01
 -6.5381724e-01
 -1.9249634e+00
  1.6792954e+00
  1.5069232e+00
  3.8514941e+00
  8.4454037e-02
 -2.9240915e-01
 -2.7540672e-01
  1.6191550e+00
  1.7611313e+00
  1.0416722e-01
  5.3364110e-01
  2.9760900e-01
 -1.3819600e+00
  1.1781884e+00
 -1.4638513e-01
 -4.9643569e-02
 -2.1254709e-01
  1.6920490e+00
 -1.1630455e-01
  2.6687708e+00
  2.4270016e-01
  4.8741948e-02
  1.4849843e-02
 -1.6661031e-02
  1.7778836e-02
  1.6908199e-01
  3.7915950e+00
 -1.6598960e-02
  5.5331045e-01
  3.2613280e-01
 -1.0218628e-01
 -9.7547909e-03
 -3.7686761e-02
  5.6808460e-01
  9.5614672e-02
  7.2653294e-02
 -4.1112450e-01
  3.1810045e-01
  2.5951018e+00
 -1.0080814e-01
 -8.6681283e-01
  2.3940822e-01
  2.3133636e+00
 -1.4393835e-01
  3.1576750e-01
 -7.0174271e-01
 -2.8480628e-01
  4.8896393e-01
  1.8458791e-01
  3.5956872e-01
  2.0638153e-01
  5.0243765e-01
 -6.4632343e-03
 -4.7878110e-01
 -8.8164151e-02
  3.1158519e-01
 -3.6061840e+00
  1.0520878e-01
  1.6482711e-01
 -9.0829933e-01
 -1.6117379e-01
 -3.6374405e-02
 -1.7104232e-01
 -7.3554561e-02
 -1.8825414e-02
  8.4005641e-03
  5.9826221e-02
 -3.3118715e+00
  9.2394179e-01
 -3.8896731e-01
  6.6821836e-02
 -5.1509768e-01
 -1.3024619e+00
  7.3005095e-02
  1.3203843e-01
 -8.1414372e-01
 -1.5762021e-01
 -6.3810015e-01
  3.6307871e-01
 -1.2001059e-01
  5.2930975e-01
  2.3441248e-02
  6.5768309e-02
  4.3060160e+00
  5.8891630e-01
 -1.1640647e-01
 -2.6748350e+00
 -1.9722331e-01
 -5.5721587e-01
  2.3864995e-01
  5.7960486e-01
  2.3205206e-01
 -2.5508493e-01
 -9.1117330e-02
  3.1775694e-02
  9.4897574e-01
 -1.2550204e-02
  5.6690466e-01
  7.3303849e-02
 -2.0871264e-01
  3.1468265e-02
 -2.2779845e-01
 -9.5823094e-02
 -7.9139262e-01
  2.1330835e-01
 -1.2945616e-01
  2.8217521e-01
  1.7907727e-01
 -2.5627708e-02
 -9.8255694e-02
 -2.1920696e-02
 -8.9538120e-02
  3.9979926e-01
 -3.7515345e+00
  1.3041431e-01
  7.1894385e-02
  7.5848734e-01
 -2.4506660e-01
  3.5663542e-01
  2.9933492e-02
 -4.1018546e-02
 -5.3011971e-03
  1.7378050e+00
  6.6262275e-02
  2.2872968e+00
 -4.9449083e-01
  5.0887905e-02
 -4.1782483e-01
  1.7505512e+00
  3.0232719e-01
  2.7005026e+00
 -1.2653816e-01
 -2.9593703e-01
 -2.5819412e-01
 -5.1707888e-01
 -2.2868221e+00
  3.6803600e-01
 -4.3052125e-01
  1.9001942e-02
  1.2654445e-01
 -5.2699053e-01
 -8.1636953e-01
 -4.6223834e-01
  7.4872118e-01
 -8.9663142e-01
  5.7884747e-01
  2.4927692e+00
 -1.1614737e-01
  4.1174144e-02
  2.7554984e+00
  3.7409452e-01
 -2.4667485e-01
 -1.9094894e+00
  6.4815181e-01
 -7.3298879e-02
 -2.6140532e-01
  5.9113774e+00
 -1.7783265e+00
  4.3442175e-02
  1.0810835e+00
 -2.3892578e-01
 -3.3030954e-01
  3.9256585e+00
  1.3601252e-01
  5.7316726e-01
 -1.8430982e-02
 -5.3911410e-02
 -2.2526927e-01
  1.5318063e+00
 -1.0924239e+00
 -1.0026453e-01
 -4.1819257e-01
  1.8880905e-01
 -2.3168933e-01
  3.0561388e-01
 -2.1099019e-01
 -3.5935363e-01
 -6.5857142e-02
 -4.9054779e-02
  7.0059701e-04
  6.5040819e-02
  6.5628481e-01
 -2.3644972e-01
 -1.6245337e+00
  2.1790304e+00
 -1.0097305e+00
  4.1480058e-01
  1.4678445e+00
 -9.7360194e-01
  1.6019731e+00
  6.6528330e+00
 -1.4492123e-02
 -9.2865801e+00
 -2.8644564e+00
  1.5047804e+00
  7.8277655e-02
 -3.6437237e+00
  1.6171930e+00
 -1.6738464e+00
 -4.2215304e+00
 -3.3863890e+00
  1.9467419e+00
  1.6191711e+00
 -3.2197838e+00
 -2.0156143e+00
 -2.1367523e-01
 -7.5802941e+00
 -2.5869343e+00
  5.0759020e+00
 -2.0174053e+00
 -2.5606234e+00
 -1.1085095e+00
  2.5249367e+00
 -4.9349749e-01
 -2.6677221e-01
  2.4143214e+00
 -1.9010362e-01
 -1.4733267e+00
 -2.4387488e-02
  7.3804557e-01
 -4.0345052e-01
 -3.3977032e-01
  1.4473263e+00
 -1.2943252e+00
  3.3605269e-01
  1.2039993e+00
 -2.6932893e-02
 -1.1741474e-01
 -5.5774219e-02
  6.4095807e-01
  1.1232202e-02
  1.3948396e+00
  5.2289248e-01
  1.3909212e-01
 -5.5445725e-01
 -1.7686552e-01
  2.3559883e+00
  2.7125265e-02
 -9.2077613e-02
 -2.9135611e+00
 -2.8431048e+00
 -1.0168968e+00
 -2.8208723e+00
  6.5211758e-02
 -1.8679467e+00
 -1.0872572e-01
 -1.1680895e-01
  2.8242868e-01
  4.4962147e-01
 -1.7021619e-02
 -1.3819953e+00
 -1.2777355e+00
 -2.4094127e-01
 -1.5925642e+00
 -1.1297927e+00
  1.2259871e+00
  3.1070426e-02
  3.1128833e-01
 -2.1171463e+00
  4.8793569e+00
 -5.7327909e+00
 -2.6435003e+00
 -1.0223877e+00
 -1.2323300e+00
  4.3964943e-01
 -2.3097163e-01
 -1.4817318e-01
 -6.5142071e-01
  2.8687470e+00
 -1.9539963e-01
 -1.6696930e+00
  3.2524264e-01
 -2.2798657e+00
  1.2105423e+00
  1.4166379e+00
  4.1672510e-01
 -6.4827389e-01
 -1.5294668e-01
 -8.0189206e-02
  3.4306061e-01
 -1.1712950e-01
 -8.0340165e-01
  2.1179967e+00
  1.0424498e+00
  1.3172433e+00
 -3.6596067e-02
 -3.6741951e-01
  4.6306431e-02
  6.9867885e-01
 -3.7859302e-02
  5.8523309e-01
  2.1714331e-01
 -6.3607544e-02
 -4.2336002e-01
 -1.2385573e-01
 -2.2989263e-01
  2.3140226e-01
 -1.8726887e-01
 -3.0184153e-01
 -2.8076211e-01
 -1.1039178e+00
  5.2293763e-02
  2.4127003e-02
 -5.2979147e-01
 -8.6777359e-01
 -8.3997881e-01
 -1.4787031e+00
 -9.0828067e-01
  5.5958146e-01
