nep4_zbl 2 O Ga 
zbl 1 2
cutoff 6 4 418 127
n_max 8 6
basis_size 12 10
l_max 4 2 1
ANN 100 0
  4.2942408e-01
 -2.9677188e-01
  1.8287028e+00
 -1.1938387e+00
 -5.1913929e+00
 -2.0451005e-01
 -2.0340066e+00
 -4.6078925e+00
  3.3664155e+00
  3.3278432e+00
  2.0404210e+00
  3.2621551e+00
 -3.5650381e-01
  3.1284335e-01
  2.1262834e+00
  1.7276303e+00
  1.8785486e+00
  1.7747888e-01
 -2.0352283e+00
  1.5619208e-01
 -2.1333580e+00
 -2.8137825e+00
 -7.3527759e-01
  3.6954834e+00
 -2.6279944e-01
 -2.0718622e+00
 -1.1195040e+00
 -2.1473258e+00
 -1.5499831e+00
 -2.7703869e+00
  1.2762176e+00
 -1.1056930e+00
  2.3091370e-01
  2.1921291e+00
  3.1095827e-01
 -1.6330550e+00
 -3.7365134e+00
 -5.9835058e-01
 -1.3419672e+00
 -1.2403874e+00
 -7.2439945e-01
 -1.7906151e+00
  1.5966442e+00
 -3.1425390e-01
 -1.3854492e+00
  3.9852796e+00
 -2.7493050e+00
  7.8881520e-01
 -8.9964271e-01
  4.6939999e-01
  4.3070793e+00
 -4.2842441e+00
  1.1996379e+00
  2.9740259e-01
 -1.3113489e+00
  2.5426168e+00
 -1.4195658e+00
  2.8769393e+00
  1.7415330e-02
  1.7965469e+00
 -1.0120813e-01
 -3.7071056e+00
 -2.2270586e+00
  3.0879028e+00
 -1.7418213e+00
  3.1446989e+00
 -2.4857924e+00
  5.9254646e-01
  7.6653540e-01
  4.6903887e+00
  3.3377903e+00
 -3.9890897e+00
  3.5339079e+00
 -1.4569699e+00
  5.7015069e-02
  4.7637916e+00
 -1.9182599e+00
  1.4634911e+00
  1.1998539e-01
  5.6421173e-01
 -2.7282231e+00
 -2.0232081e+00
 -1.3231553e-02
  4.6672195e-02
 -4.7756071e+00
 -2.3234427e+00
 -1.6771004e+00
  4.5729280e+00
  1.5897183e+00
 -5.5479584e+00
  8.8826686e-02
 -5.0426269e-01
  2.9682174e+00
 -3.9023166e+00
  3.5334735e+00
  6.9288647e-01
 -1.4025953e+00
  1.7933229e-02
  3.2024922e+00
  5.2420431e-01
 -2.5647874e+00
  5.4800677e+00
  1.1919819e+00
 -4.3762941e+00
 -1.4176473e-01
 -5.3508013e-01
 -7.2884518e-01
  1.6798683e+00
 -4.0662476e-01
  6.9167632e-01
  7.4304467e-01
  1.2868217e+00
 -3.5772307e+00
  1.2279766e+00
  3.5158136e+00
  6.4729738e-01
  1.3953792e+00
  2.9006498e+00
 -1.1198484e+00
  1.5879229e+00
 -2.1769292e+00
  4.1626544e+00
 -2.7550033e-01
  7.6635742e-01
  1.5933323e+00
  2.0116742e+00
  2.0122759e+00
 -3.9095144e+00
  1.2270137e+00
  1.4764194e-02
  1.8399088e-01
  1.0473061e-01
  1.5776868e+00
  2.1025763e+00
 -2.0390024e+00
 -1.2740202e+00
 -1.0311211e+00
 -3.6216536e-01
  1.8041670e+00
  1.8724883e+00
 -1.4818679e+00
 -2.1444066e+00
  2.1152673e+00
 -1.0315017e+00
  1.5994737e-01
 -2.8370981e+00
 -7.5941396e-01
 -2.0006607e+00
 -6.0770923e-01
  1.8273570e-01
  4.6930442e+00
 -9.8708570e-01
  1.0682898e+00
 -8.1308836e-01
 -4.1770639e+00
  1.6410693e+00
 -4.0422578e+00
 -2.4526477e+00
 -1.9151073e+00
 -4.0687222e+00
 -2.9230455e-02
  2.7707523e-01
  1.0202806e+00
  8.4485613e-02
 -3.2875738e+00
 -7.2798854e-01
  9.1621041e-02
 -5.8999617e-02
 -5.1911008e-01
 -1.4694424e+00
  2.6364992e+00
 -1.6819534e+00
 -5.8923542e-01
 -1.1274111e-01
  1.5904515e+00
  2.3548949e+00
 -3.6268797e+00
 -5.5939665e+00
 -3.6841209e+00
 -2.6889923e+00
 -2.2634735e+00
 -2.5975199e+00
 -3.4416249e+00
 -1.5741550e+00
  8.2355827e-01
  1.0896461e+00
 -4.7231862e-01
  2.2354283e+00
 -2.1985881e+00
 -1.8592255e+00
 -3.3333334e-01
 -6.4339608e-01
  8.6777741e-01
  2.5087366e-01
  3.3450300e-01
  2.1296272e+00
  5.1617366e-01
 -5.9659672e-01
  1.1497837e-01
 -4.1127138e+00
 -4.5594805e-01
  2.6511083e+00
  1.9351711e+00
 -9.3134427e-01
  6.2920842e+00
  2.6555731e+00
  6.2586230e-01
 -1.3241656e-01
  1.9914773e+00
 -6.5741807e-01
 -2.2834351e+00
  6.9597208e-01
 -5.7751334e-01
  1.5197976e+00
  5.2669251e-01
  2.0392461e+00
 -4.4179945e+00
  2.7379721e-01
  5.1432186e-01
  1.2956008e+00
  2.3763154e+00
  3.8184769e+00
  8.7877232e-01
 -2.3709583e+00
  4.1686162e-01
 -2.1382439e+00
 -1.3029066e+00
  9.6736312e-01
 -8.5021459e-02
 -5.6165314e+00
 -6.0349160e-01
  2.9482560e+00
 -6.8411493e+00
 -1.8193419e+00
  2.2278838e-01
 -2.2591653e+00
 -2.6884646e+00
  3.0652279e-01
 -1.2504144e+00
  2.3752707e-01
 -2.7600359e-02
 -1.3141404e+00
  4.2543072e-01
  5.6242876e+00
 -1.0639638e-01
  5.7080406e-01
 -8.4758505e-02
 -8.5077047e-01
  3.5161486e-01
  5.5995446e-01
  6.3306808e-01
  3.4645927e+00
  3.4871593e-01
  4.8971695e-01
 -1.0130763e-01
 -1.3151848e+00
 -1.5908237e+00
 -9.4238129e-03
  1.5713521e+00
  2.8208289e+00
 -2.1902273e+00
 -1.2031930e-01
  1.6773316e+00
 -3.1864376e+00
 -1.4468454e+00
 -9.4110936e-02
 -8.8763393e-02
 -2.3384569e+00
 -1.6899927e-01
 -2.1113458e+00
 -2.0790812e-01
 -4.6539474e+00
  9.5985317e-01
  7.5663620e-01
 -1.4622025e+00
 -3.9728260e+00
  2.1029279e+00
 -5.5649579e-01
  4.6254964e+00
 -9.7858405e-01
  2.0058517e-01
  7.1156907e-01
  6.7526990e-01
  2.9870651e+00
  7.4540031e-01
  3.9720398e-01
  9.5318091e-01
  1.9502774e-01
 -2.5873297e-01
 -7.7608352e+00
  2.0958402e+00
  8.7330908e-01
 -9.5896083e-01
  1.6615818e+00
  8.4533855e-02
 -2.7125990e-01
 -3.1231195e-01
 -3.1664822e+00
  9.2049450e-01
 -8.2715684e-01
 -4.2112031e+00
 -1.0705346e+00
 -2.1784205e+00
  4.4637609e-01
  7.4370551e-01
 -1.3513386e+00
  1.0594067e-02
  1.7664704e+00
 -1.7217273e+00
  1.8314736e+00
 -1.0254650e+01
  2.2649627e+00
 -5.3679671e+00
 -8.0954051e-01
  4.8389873e-01
  8.1257313e-01
 -8.9973080e-01
  7.2834975e-01
 -2.5198650e-01
  2.1270978e+00
 -1.1666305e+00
  9.4609119e-02
  2.9282417e+00
 -1.3741734e+00
 -5.7224309e-01
 -2.1599565e-01
 -3.1480455e+00
 -2.6015818e-01
 -6.6292691e-01
 -2.7241940e+00
  2.5881510e+00
  2.4777550e-02
  3.0655451e+00
 -1.9963461e+00
  7.0300204e-01
  1.5508693e+00
  1.2300177e+00
 -3.2774618e+00
  8.9807343e-01
  3.8972059e-01
 -9.7635919e-01
  3.7505996e-01
  4.6740799e+00
 -1.1449175e-01
  2.8376806e+00
  8.0121338e-02
 -3.0025041e-01
 -6.5081197e-01
 -2.7114890e+00
  4.9833828e-01
  1.0992851e+00
 -1.1026115e+00
  1.5929226e+00
  3.4913546e-01
 -4.0895491e+00
  2.9633043e+00
 -4.5849796e-02
  1.2302274e+00
  7.6981205e-01
  6.2341636e-01
  1.0015455e+00
  2.8584077e+00
  4.2694575e-01
  2.7833722e+00
 -1.4265386e+00
  1.2872058e+00
  1.1554787e+00
 -7.3954046e-02
 -3.1328475e+00
 -1.2135038e-01
  1.0025402e+00
 -3.6394516e-01
  1.0194620e+00
  2.6235461e+00
  6.5948200e-01
 -3.2977071e+00
 -3.9407446e+00
 -5.6472063e+00
 -1.7731690e+00
  2.1369078e+00
  1.5498074e+00
 -5.1846395e+00
 -2.6331735e-01
 -1.1162751e+00
  9.6662295e-01
  6.6013312e+00
 -4.7653161e-02
  5.5292091e+00
 -7.5939804e-01
  1.0311314e+00
 -1.1078193e+00
  1.6861285e+00
 -5.1506338e+00
  4.7753119e+00
  4.8535764e-02
  1.0563908e+00
 -3.5772499e-02
  1.1372057e-01
 -6.6500895e-02
  1.2215644e+00
  6.8382090e-01
  6.9972062e-01
 -3.3122880e+00
 -1.8053623e+00
 -5.7504696e-01
 -2.4331787e+00
 -6.7418230e-01
 -1.7431527e+00
 -6.3963813e-01
 -1.2378348e-01
 -1.5532331e+00
  9.2190689e-01
 -2.2824731e+00
 -3.5382949e-02
  1.0156049e+00
  1.7382911e+00
 -1.2414877e-01
 -2.6900986e-01
  4.5714805e-01
  1.6252831e-01
  6.0175556e-01
  6.7197502e-01
  1.8789372e-01
 -3.0678349e+00
 -3.6127141e+00
  7.2256237e-01
 -1.4676639e+00
 -6.8559414e-01
  3.8680196e-02
  2.9697220e+00
 -1.2134308e+00
  1.4233996e+00
 -6.6483235e-01
  1.4818251e-01
  1.0483189e+00
 -3.0580667e-01
  4.7346516e+00
  1.1498533e+00
  1.9799554e+00
 -7.0319711e-03
  4.0744561e-01
 -6.1617392e-01
  3.0518344e-01
  2.5284737e-01
 -5.1651955e-01
 -1.3046797e-01
  3.5230678e-01
  3.0985770e+00
 -6.0196722e-01
  9.8803014e-02
  7.9680187e-01
  5.6392670e-01
  1.0825453e+00
  1.7337812e+00
  2.4967763e-01
  5.1980624e+00
 -1.1093465e-01
 -1.1913661e+00
 -3.6880741e-01
  9.0356284e-01
 -2.2335715e+00
 -2.7678709e+00
 -1.8143162e+00
  7.7243447e-01
 -4.5162444e+00
  2.1713870e+00
  9.8791307e-01
  5.2701592e+00
 -5.2219325e-01
  9.2134267e-01
  1.4258204e-01
 -1.1705070e+00
 -1.0163798e-01
 -6.5196294e-01
 -2.6781688e+00
 -2.8661048e+00
 -1.6705860e+00
  1.9401076e+00
 -4.6360273e+00
  2.5680315e+00
  1.5314480e+00
 -2.5536138e-01
  2.7694325e+00
  1.7567863e+00
 -3.4539776e+00
  2.6486237e+00
  1.5682071e+00
  2.3931682e-02
 -5.7999549e+00
  2.8596659e+00
  2.0702648e+00
 -1.9110938e+00
  1.4295945e+00
 -3.5421600e+00
  3.6317974e-01
 -1.2435144e+00
  8.9642629e-02
  4.1731421e-02
 -4.0057011e+00
  2.4618540e+00
  1.8252401e+00
  3.2512048e-01
 -1.1337151e-01
  1.8288216e-01
 -6.9382292e-01
  1.1336172e-01
  1.4012585e+00
  1.6184901e+00
  3.4471912e+00
 -7.2012126e-01
 -3.8193798e-01
 -7.9178345e-01
 -3.2824574e+00
 -1.7607678e-02
  5.8508408e-01
  2.5484496e-01
  7.3889427e-02
 -4.4003582e-01
  5.8890114e+00
  2.4048606e-01
  8.2925206e-01
 -3.7218338e-01
  4.0284306e-01
 -5.2938205e-01
 -2.1535256e+00
  9.5839284e-02
  4.5761728e-01
 -7.6666164e-01
 -2.6212120e+00
 -1.3831446e+00
 -7.4117070e-01
  8.4277704e-02
 -2.6031790e+00
 -5.9287506e-01
 -2.1901065e-01
 -8.8007319e-01
  5.7000089e-01
  3.4697795e+00
 -1.1168985e+00
  1.8368539e-01
 -2.4773643e+00
  1.8568280e+00
  4.7163287e-01
 -2.2510734e+00
 -4.4109491e-01
  4.4044775e-01
  9.2808658e-01
 -3.0725924e-03
 -1.1786295e+00
  3.3360392e-01
 -5.6774575e-01
  3.3931229e-01
 -9.9992228e-01
  5.2934778e-01
  4.1757411e-01
  4.2057538e+00
  1.7334681e+00
  2.7981343e+00
 -4.6256238e-01
 -4.4117585e-01
  1.6040666e+00
 -1.6436154e+00
 -3.3655109e+00
  2.3746891e+00
  2.1574800e+00
  7.3598671e-01
 -2.2246516e+00
 -6.0721264e+00
  1.3349845e-01
 -1.7224128e+00
  3.5970962e-01
 -1.9882654e+00
 -2.1978159e-01
 -1.4239863e-01
 -2.1794358e-01
  4.3276200e+00
 -9.5527524e-01
 -2.9261138e+00
 -1.4616349e+00
  1.2976362e-01
  1.9380292e+00
  1.1037976e-01
 -1.2816209e+00
  2.4430165e-01
 -1.4471697e+00
 -6.8152175e+00
 -7.3670715e-02
  1.1024392e+00
  6.0648680e-01
  5.3661555e-01
  6.5423851e+00
  3.6895437e+00
 -1.4288982e+00
  1.0787942e+00
 -2.4633965e+00
 -7.1549036e-02
  1.2722649e-01
  1.3811584e+00
 -1.1439604e-01
  2.0930250e+00
 -1.7925784e-01
 -1.5923959e-01
  8.0212510e-01
  8.6400688e-01
 -2.9552555e+00
 -4.6527824e-01
 -1.4721515e+00
  1.5326554e+00
  9.6986473e-01
 -3.3213478e-01
 -3.3608060e-02
 -3.8951600e+00
 -1.9955209e-01
  1.4465210e+00
 -3.7803715e-01
 -2.8814051e-01
 -2.9630569e-01
  1.1572212e+00
 -2.6551098e-01
  1.5346956e+00
  1.4562461e-01
  2.4859631e+00
 -6.4207613e-02
 -7.6804024e-01
  2.6702371e-01
 -6.6796160e-01
 -2.5585961e+00
 -3.0917733e+00
  6.7117441e-01
 -2.6424497e-01
  1.4975468e+00
 -2.4845822e+00
 -4.5685849e-01
 -7.4045998e-01
  6.7198110e-01
 -2.5213310e-01
 -3.1284781e+00
 -7.8821009e-01
 -5.2081579e-01
 -5.8465481e-01
 -4.9055334e-02
  5.8986396e-01
 -8.3790970e-01
 -1.9648539e-01
  1.4196985e-02
 -3.6238882e-01
 -3.3279216e-01
 -9.0457475e-01
  1.1444607e+00
  2.3380859e-01
 -1.5674106e+00
 -4.4808948e-01
  2.3626547e+00
  1.1916325e+00
  1.1077002e-01
  5.6648201e-01
 -8.5867304e-01
  9.5391208e-01
  1.4045706e-01
 -3.3277240e+00
  2.4838231e+00
 -3.2399268e+00
  5.0719267e-01
  8.7540489e-01
  2.0228865e+00
  1.3595159e+00
 -3.1382630e+00
  2.4461651e+00
 -3.3635417e-01
  2.2243955e+00
  4.7519889e+00
 -5.8789802e-01
 -4.4754529e-01
 -2.7063706e+00
  3.7928548e-01
  1.0210677e+00
 -1.4990809e+00
 -1.7232796e+00
 -4.2478777e-02
  4.4771346e-01
  2.1739984e+00
  1.0460812e+00
  5.2504146e-01
  3.6718314e+00
  3.3734832e+00
 -1.9989574e-01
 -5.6468248e-01
 -1.0545132e+00
 -2.6589110e-01
 -2.5449755e+00
 -1.0695164e+00
 -6.1098605e-01
 -5.7694831e+00
 -1.7795433e+00
  1.1465558e+00
  4.4095722e-01
  9.9181122e-01
  1.6230521e+00
 -1.9940664e+00
 -1.5093842e+00
 -8.5883647e-02
  5.5513687e+00
  2.9011247e+00
  6.3518941e-02
  7.6266774e-03
 -1.8540885e-01
  7.6080936e-01
  4.0881512e-01
 -3.2815430e+00
  2.3001583e-01
  5.0730095e+00
  9.2780393e-01
  2.3021355e+00
  2.1126640e+00
 -7.1569681e-01
  2.1033022e-01
 -1.0300840e+00
 -1.0123630e+00
 -3.6274216e-01
  1.9183522e-01
  2.7188277e+00
 -5.5211108e-02
  4.0080743e+00
 -1.2969205e+00
  5.3536981e-02
  1.2837933e+00
  8.4665471e-01
  1.0592711e+00
 -7.1964204e-01
 -2.3074424e-01
  7.2808278e-01
 -5.6608993e-01
 -8.1471704e-02
 -5.6955975e-01
 -3.1919944e+00
  6.5757189e+00
 -4.8405772e-01
  7.3492162e-02
  1.7284077e-01
 -1.0563940e+00
  6.5555173e-01
 -1.3554400e+00
 -9.4423699e-01
 -3.3354479e-01
 -6.2300950e-01
  2.5494641e-01
  6.8397117e-01
  2.3821628e+00
 -2.1419923e+00
 -9.2793360e-02
 -6.8639135e-01
  3.6379579e-01
  1.6036427e+00
 -1.7051357e-01
 -2.1186836e+00
  2.9790011e-01
 -2.1938971e-01
 -2.0248699e+00
  4.7792687e+00
  5.9482068e-01
  5.9182096e-01
 -5.2639961e+00
  9.1810286e-01
  3.9894429e-01
 -1.4673744e+00
  2.4510560e+00
 -3.5407698e+00
 -3.6195940e-01
 -3.6020107e+00
  1.7361193e+00
 -3.6263490e+00
 -4.9434309e+00
  9.5716470e-01
 -1.7502824e+00
 -3.0325089e+00
 -2.9531074e+00
 -1.2682791e-01
  7.4888581e-01
 -3.0423516e-01
 -1.8016217e+00
  1.7651711e+00
 -9.2307180e-01
 -1.0611438e+00
 -8.6416614e-01
 -1.1294686e+00
  1.8761406e+00
  2.2500219e+00
 -1.4067081e+00
 -5.4058380e+00
 -1.4706079e+00
  1.2426715e+00
  1.6453501e+00
 -1.9437768e+00
 -2.2017751e+00
 -1.5709409e+00
  4.6222138e+00
 -3.5695001e-01
  1.1210673e+00
  3.9609629e-01
 -3.6673965e+00
 -4.4055972e+00
  2.6280243e+00
 -6.2303561e-01
 -1.7126556e-01
  2.6181006e+00
  1.7122102e+00
  6.2619650e-01
  1.0552882e+00
  9.6938938e-01
  1.6147332e+00
 -4.5903260e-01
  2.2812932e+00
  2.2273860e+00
 -5.6291442e+00
 -8.1576538e-01
 -1.1012990e-01
  1.5340002e+00
 -2.0875435e+00
 -6.6047817e-01
  1.2613267e+00
  9.1857845e-01
  4.9057579e-01
 -2.8363667e+00
 -7.4822384e-01
  3.1881306e-01
 -1.8452084e+00
 -9.7153640e-01
 -1.0782896e+00
 -6.1291438e-01
  6.3245974e+00
  8.3433682e-01
 -6.1016184e-01
  7.5744534e-01
 -1.2662523e+00
 -2.7220831e+00
 -7.0975375e-01
 -7.2288334e-01
 -2.1328206e+00
  2.6083493e-01
  2.8045115e-01
  5.6048596e-01
 -5.8755493e-01
 -4.1639438e+00
  3.5841775e-01
  1.4060286e+00
 -1.0313686e+00
  2.0773228e-02
 -1.5449787e+00
 -2.0821772e+00
  8.4986484e-01
  1.3507957e+00
 -3.9622250e-01
  3.8580753e-02
  2.1172931e+00
  2.3086758e+00
 -6.9576770e-02
  1.1692276e+00
  2.8509164e-01
 -2.4590442e+00
  6.8105030e-01
 -4.7183082e-01
  1.4963075e+00
  3.4220517e-01
 -8.1165528e-01
 -3.2801244e-01
  2.5749004e-01
  1.9159189e+00
 -9.9326104e-02
 -1.1236838e+00
 -1.7801892e+00
  2.7184099e-01
 -2.5730982e+00
 -5.9572560e-01
 -2.4062016e+00
 -5.0845236e-01
  1.3066239e+00
 -4.0391631e+00
  4.6418536e-01
  7.2443590e-02
 -9.4507796e-01
 -1.3102677e+00
  4.7026411e-01
  1.0803354e+00
  2.1857418e-01
 -3.0667002e+00
 -9.5353192e-03
  1.1230128e-01
  3.3731750e-01
 -3.5951152e-01
 -7.4512225e-01
 -1.3252585e+00
 -2.8560731e-01
 -2.3990707e+00
 -4.3611974e-01
 -5.3558642e-01
 -2.1409385e+00
  4.7152867e+00
  1.7253964e+00
  1.1749723e-01
 -1.1777582e-01
  9.1824806e-01
 -2.1155093e+00
  4.4678822e-01
 -3.6748803e+00
 -1.9193012e+00
 -3.1472081e-01
  5.7911164e-01
 -1.0524489e+00
 -1.5001978e-01
  1.6905500e+00
  3.9410931e-01
  1.8079087e-01
 -3.6733525e+00
  1.4067258e+00
 -2.4336617e+00
 -2.2760572e-01
  6.9014955e-01
 -1.7561119e+00
 -2.2892320e+00
 -1.8199234e+00
  3.4067085e+00
 -5.2158207e-01
  5.8061335e-02
  1.9953340e+00
 -7.9344743e-01
  2.1801977e+00
  1.4375962e+00
  1.7041601e+00
  1.8125053e-01
 -2.0549045e+00
 -2.5853238e-01
 -4.5303771e-01
  2.0099149e+00
 -3.4866869e+00
 -1.5367655e+00
  6.5242500e+00
  1.2493886e+00
  4.9907022e+00
 -2.3651471e+00
  4.1844182e+00
 -4.5829120e+00
  5.4384685e-01
 -4.3021483e+00
  2.7894740e+00
  2.2038517e+00
  1.0281998e-01
 -6.7642444e-01
 -2.4131541e+00
  3.1117954e+00
 -1.5303822e+00
 -1.6151246e+00
 -2.9168489e+00
 -1.7277066e-01
 -4.7478738e-01
 -4.9489536e+00
  4.5876497e-01
 -3.4593165e-01
  3.9509705e-01
  8.6589895e-02
  4.8084205e-01
 -1.1874660e+00
  1.4465162e+00
 -4.5072874e-01
  3.3081222e+00
  1.5721514e+00
 -3.1583169e-01
 -2.5200882e+00
 -3.0682096e+00
 -1.4482040e+00
  2.6972020e-02
 -1.6129029e+00
  4.5049367e+00
  2.0348375e+00
 -1.9189701e+00
 -3.5402381e+00
 -1.7175148e+00
 -4.1333362e-01
  3.7657416e+00
  6.2111175e-01
 -6.7811465e-01
 -3.1510437e+00
  1.8091702e+00
 -2.1322232e-01
  1.2322444e+00
 -2.3653278e+00
  2.9132783e+00
  2.7781520e+00
 -2.1497004e+00
  1.0502496e-01
 -1.0516032e+00
  1.8172187e+00
 -1.0632472e+00
  1.1720723e+00
  1.6558970e+00
  1.7317920e+00
 -1.3844344e-01
 -1.7962381e+00
  2.1325934e+00
  3.4606657e+00
  2.1466074e+00
  4.9159508e+00
  6.2107933e-01
 -1.2305731e-01
  1.8057624e-01
 -1.0582854e+00
  4.2525941e-01
 -1.4736634e+00
 -2.0313492e-01
  3.1269047e-01
  2.9503367e+00
 -3.7064202e-02
  9.0552551e-01
 -3.5167062e+00
 -7.5411290e-01
  2.0218899e+00
  1.2663120e-01
  8.0164540e-01
  1.0180125e+00
 -1.5823995e-01
  7.2851342e-01
 -5.2594143e-01
 -6.0687332e+00
  2.4644248e+00
 -5.0715363e-01
  6.2739396e-01
 -6.4865708e+00
  2.9075978e+00
 -7.2556263e-01
 -2.2925792e+00
 -2.6492462e+00
 -2.7568913e+00
  6.6198683e+00
  1.2709460e+00
 -2.3851049e+00
  3.2235008e-02
  4.5201719e-01
  2.0059258e-01
  2.8865080e+00
  1.4900457e+00
  1.1208158e+00
 -5.3571522e-01
 -4.8949780e+00
 -1.3587561e+00
  5.5916137e-03
  2.4569633e+00
 -4.3256731e+00
  4.4349453e-01
 -2.6513907e-01
 -1.1886337e+00
 -3.6939025e+00
  1.5743012e+00
  2.1081634e+00
 -3.5207536e+00
 -6.8587862e-02
 -9.3421251e-02
 -1.3175328e+00
  8.6683613e-01
 -6.9503779e+00
  2.2782107e-01
  1.1081832e-01
  1.7659162e+00
  1.0259155e-01
 -4.1192773e-01
 -1.4711757e+00
 -1.1062080e+00
  4.8895169e-02
  1.5636334e+00
  2.3257726e-01
 -1.3213594e+00
  1.4730923e+00
  1.3051318e+00
 -6.6229314e-01
 -3.4120107e+00
  9.4521850e-01
  6.3146362e+00
  1.9858216e+00
 -7.4841744e-01
 -3.5559299e+00
  1.7757230e-01
 -1.0400572e+00
 -4.5587249e-02
 -2.2445275e-01
  2.3497008e-01
  2.4163771e+00
  1.5843254e+00
  5.6720400e-01
  7.7729332e-01
 -2.9107180e+00
  1.4624627e+00
 -2.8801899e+00
 -8.5724872e-01
  5.4192752e-01
 -2.1480923e+00
 -3.4930201e+00
 -3.3571265e+00
 -4.3615632e+00
 -2.7932172e+00
  4.9116755e+00
 -8.0184466e-01
 -1.6876340e+00
  1.8439679e+00
 -8.1350692e-02
 -6.1921561e-01
  1.9901822e+00
 -1.3112469e-01
 -1.0525832e+00
 -4.4901762e+00
  2.4760790e+00
 -2.5025525e+00
 -5.6939848e-02
  1.5333232e+00
  2.5908586e-01
 -1.5377787e+00
  7.3153496e-01
  2.9688302e-01
 -2.0765603e+00
 -1.7853703e+00
 -1.4076055e+00
  1.4548294e-01
 -3.0498445e+00
  8.6458415e-01
 -9.3771005e-01
  1.4789414e-01
  5.0566363e-01
  2.1670063e+00
  2.8803871e+00
  1.0196614e+00
  1.4562331e+00
  5.9158194e-01
  4.3147308e-01
  1.5152092e-01
  2.2271298e-01
 -2.7123680e+00
 -4.9672098e+00
 -7.9886609e-01
  1.2525867e+00
  3.0181268e-02
  2.6584387e-01
 -1.2421082e+00
  4.2833760e-01
  2.3044653e-04
 -5.0327373e+00
  4.6941867e-01
 -7.4191064e-01
 -2.0556304e+00
  6.6423802e+00
 -1.7244836e+00
  1.3829538e+00
  9.7446644e-01
 -1.1059098e-01
 -8.4860124e-02
  9.4681835e-01
 -1.7396615e-01
  8.8027579e-01
 -6.0299698e-02
 -2.3662850e-01
  9.0475702e-01
 -3.7027493e-01
 -2.4178809e-01
  8.7449306e-01
  9.0820533e-01
  3.8363624e-01
  1.2476600e+00
  1.2861383e+00
  1.0915157e+00
  2.6232025e-01
  1.1008725e-01
  1.9266521e+00
 -1.2374216e+00
  8.9770168e-01
 -5.8972925e-01
 -6.5700161e-01
 -3.4152648e+00
  1.7349831e+00
 -7.2909284e+00
  8.9121646e-01
 -1.3101789e+00
 -1.9660476e+00
 -3.7969611e+00
  1.9030002e-01
  9.0007025e-01
  6.4997253e+00
 -1.0634516e+00
  7.6017964e-01
 -1.2797734e-01
  5.4222000e-01
  2.6883960e+00
 -5.7510972e-01
  7.7388674e-01
  1.8184222e-01
 -4.1091194e+00
  2.2988865e-01
  1.7129902e+00
 -3.8941562e-01
  5.7652199e-01
  8.4960294e-01
 -2.6938291e+00
 -2.2705221e+00
  3.2180579e+00
 -1.0151632e+00
 -1.1810706e+00
 -2.6225796e+00
  7.4631160e-01
  1.6672341e+00
 -1.0567414e+00
 -6.2652454e-02
  2.4221785e+00
 -2.4795065e+00
 -2.7189827e+00
 -3.3709338e-01
 -7.0840612e-02
 -1.1325208e-01
  3.3376310e+00
  1.2339008e+00
 -3.9575544e-01
  1.2281880e-01
  9.9829026e-02
 -1.4637148e-01
 -1.0604576e+00
 -1.2217940e+00
 -4.4891468e-01
 -5.1148975e-01
  6.1671168e-01
 -2.6555982e+00
 -8.6184341e-01
 -6.2733740e-01
 -1.6969819e+00
 -2.9740635e-02
  2.4903600e+00
  3.6657658e-01
  3.1992073e+00
  4.7022057e-01
  1.5254921e+00
 -5.8653265e-01
 -1.1218657e-01
  3.0579102e+00
 -1.0457724e+00
 -8.9319664e-01
  6.8973655e-01
  7.2601058e-02
  2.9164698e+00
  2.5576225e-01
  2.0129889e-01
  7.8236021e-02
  4.7725372e+00
  3.8698184e-01
 -3.2485468e+00
 -1.0669295e-02
 -2.0934157e+00
 -1.5478600e+00
 -2.4867472e-01
  4.0589532e-01
 -2.2353949e-01
 -6.8693453e-01
  1.9529577e-01
 -2.2337671e-01
  9.7869974e-01
  1.4635500e+00
 -8.4288287e-01
  1.1939423e+00
 -3.9408174e+00
  9.7990759e-02
 -7.8093797e-01
 -2.9914496e+00
 -5.3167850e-01
  3.6076550e+00
  1.2130427e-01
  1.3109836e-01
  9.8326039e-01
  1.5178432e-01
  1.8694921e-01
  1.2903894e-01
 -1.2199743e+00
 -2.2006860e-01
  1.8287865e+00
 -4.4125185e+00
  9.1897899e-01
  1.6603234e+00
 -3.3365498e+00
  2.9939371e-01
 -4.9901304e-01
 -7.0864069e-01
 -7.5077176e-01
  1.2613471e+00
 -9.8759496e-01
 -9.1189849e-01
  4.8516881e-01
  4.5699438e-01
  7.1143061e-01
  1.5194850e+00
 -9.3122298e-01
  1.8991467e+00
  5.5924851e-01
 -1.1434332e+00
  2.1519361e+00
 -1.9403124e+00
 -2.0888231e+00
  7.3648348e-02
 -1.3483472e+00
  1.2783147e+00
  2.3623601e-01
 -4.4912119e+00
 -7.7424265e-02
 -9.0903737e-02
 -3.9747953e+00
  2.5185659e+00
  2.2796893e+00
  1.4061619e-01
 -5.9405487e-02
  3.2312915e-02
  2.8884214e-01
 -2.4072993e+00
  2.8739598e+00
 -3.9532866e-02
 -9.1065836e-01
  3.3042369e+00
 -1.4570394e-01
  7.5066233e-01
  4.8851976e-01
  7.6858097e-01
 -8.3688128e-01
  2.7608654e+00
 -1.3960260e+00
  1.3914247e+00
  2.1623621e+00
 -5.4988575e-01
  5.1049161e-01
  1.4092499e+00
  8.0683297e-01
 -2.6100969e+00
 -5.3001642e-01
 -3.4354994e+00
 -4.6133270e+00
 -5.5271659e+00
  3.8795927e+00
 -2.4261937e-01
  2.7687643e+00
  1.3660213e-01
 -3.0205626e+00
 -4.5600209e-02
  3.1201839e+00
  3.3070045e+00
  1.8723391e-02
  1.1234639e-01
  7.0250887e-01
  3.9562687e-01
  2.6966700e-02
 -5.6499350e-01
 -1.3882315e+00
 -5.1035309e-01
  3.8606150e+00
 -5.2067323e+00
  7.5035697e-01
  1.8787780e+00
  1.7797142e-01
 -2.4346310e-01
  3.3673340e-01
  8.8019711e-01
  5.6024078e-02
  5.2934140e-01
  1.8745142e+00
 -1.7276511e+00
  2.4851828e+00
 -2.3799357e+00
  2.3512045e-01
  4.7460112e-01
 -4.6552634e-01
 -4.7046348e-01
 -1.3377458e+00
 -2.2185056e+00
 -1.1105841e+00
  4.3992658e+00
  1.1562059e-01
 -2.5046301e+00
 -4.5857612e-02
  1.9468591e-01
  3.1252429e-01
 -3.1331125e-01
 -1.7564874e+00
  1.8428638e+00
  1.7534217e+00
 -2.7947679e+00
 -3.8437006e-01
 -3.5396729e+00
 -1.4918160e+00
  4.1930977e-01
  7.7494013e-01
 -4.7194505e-01
  2.0390779e-03
  5.3479657e-02
  3.7854248e-01
  8.6926383e-01
 -2.9540162e+00
  4.8798230e-03
  3.3589210e-02
 -1.4771683e+00
  1.0202026e+00
  4.2369264e-01
 -2.0004418e-01
 -2.5351892e+00
 -2.3635564e+00
 -2.1770491e-01
  5.5563831e+00
 -1.2336354e+00
 -5.2170843e-01
 -5.4566073e+00
 -2.7074374e-02
  1.1531258e+00
  1.8218006e-01
  1.0853092e-01
  8.1712872e-01
  3.4132528e-01
 -4.0035176e+00
  7.6890308e-01
  3.9223354e+00
 -7.1080351e-01
 -6.3951355e-01
 -2.7200165e+00
 -5.3642720e-01
  1.0834427e+00
 -1.3777380e+00
  2.7415330e+00
  1.1865867e+00
  8.9643186e-01
  1.6690663e-01
  3.2085414e+00
 -3.0096328e+00
  1.2603794e+00
 -1.7310692e-01
 -6.5058845e-01
 -2.0699921e+00
  1.7789863e-02
 -5.6549847e-01
  5.6445628e-01
  1.2798375e+00
  3.8807938e-01
 -2.9584072e+00
  2.7754047e+00
  2.9243135e-01
  6.2643975e-01
 -3.7586341e+00
 -1.6887503e+00
  4.7751963e-01
  8.9478064e-01
 -2.7615697e+00
 -1.1040922e+00
 -4.0071692e+00
  2.7977777e+00
 -2.0307285e-01
  4.4574258e-01
  1.0929605e+00
 -6.3449073e-01
 -6.9718353e-02
  4.5694631e-01
 -1.0828534e+00
 -1.1405323e-01
 -1.6709868e+00
  7.1757108e-01
  5.8807343e-01
 -2.0809112e-01
 -2.1680512e+00
 -2.8183305e+00
 -1.3594258e-01
  4.6267474e-01
 -3.0399542e+00
 -4.9651116e-02
 -3.1141660e-01
  6.8924171e-01
 -4.2223163e+00
 -4.6644378e-01
 -1.8102955e+00
  2.5920484e+00
  1.0291259e+00
  1.5526050e-01
 -2.7099187e+00
 -2.0407813e+00
 -1.0736226e+00
  3.2526922e+00
  9.7098809e-01
  4.7034802e+00
 -3.2620132e+00
  1.7970051e-01
 -6.6222316e-01
  2.5789506e+00
  2.8833745e+00
  1.2101182e-01
 -6.1447710e-01
  5.9216354e-02
  1.4532338e-01
 -2.1134166e-01
 -2.5939093e+00
  3.3857676e-01
 -2.4022610e+00
 -3.5552313e+00
  2.6207384e-01
 -1.8913019e+00
 -1.7508326e+00
  1.3386947e-01
 -2.8406191e-01
 -2.7779126e-01
  1.2211272e+00
 -4.9801281e-01
 -6.4396530e-02
  1.0302517e+00
 -6.7216083e-02
  1.2500662e-01
 -4.5749304e-01
 -6.7024595e-01
 -2.7521291e-01
  7.6000929e-02
  1.0285299e+00
 -4.1268630e+00
 -1.3641216e+00
  1.9117205e+00
  2.1124058e+00
  3.4279430e-01
  7.2205162e-01
  2.5553370e-01
  1.4614967e-01
 -1.2967222e+00
 -8.7368745e-01
  4.6162913e-03
  7.4478723e-02
 -1.5359514e+00
  1.3616601e+00
 -3.2943191e-03
  1.1806095e+00
  2.1983726e+00
  4.8088017e-01
  4.1043812e-01
  2.3716182e-01
  3.2629948e+00
  1.2914395e+00
 -2.3607068e-02
  6.7093658e-01
 -3.3671277e+00
 -1.1039188e+00
  8.1329370e-01
  3.8372118e+00
  2.9353467e-01
  1.4931239e+00
 -3.9739102e-01
  1.8939463e+00
  2.1360977e-01
  1.3337390e-01
  1.8624611e+00
 -2.0318716e+00
  1.6055845e+00
  3.9830637e+00
 -3.3609825e-01
 -6.8076843e-01
 -2.0831506e+00
  4.3858668e-01
  1.2171679e+00
 -1.3348532e+00
  1.2663890e+00
  4.1401167e+00
 -2.6370674e-01
 -2.2580447e+00
  3.0690789e+00
  6.0161513e-01
  2.6485980e+00
 -8.0036849e-01
 -4.7652469e+00
 -2.6609170e-01
  2.9973841e-01
 -6.4529158e-02
 -5.0982002e-02
 -1.0146335e+00
 -2.1845858e+00
  8.7234628e-01
  2.4358596e-01
  2.7712309e-01
 -1.8476230e-01
 -1.0957707e-01
 -3.0592120e-01
 -2.2064464e+00
  1.3331872e+00
  4.6212077e-01
  1.6666098e-02
  2.0410507e+00
 -1.8276189e-01
  1.6200544e+00
 -4.1881117e-01
 -1.2588214e+00
  1.8450023e-01
  1.0907386e-01
 -2.6218588e+00
  2.3666792e+00
  1.4993656e+00
 -4.1570392e+00
  5.0500422e+00
  1.2957647e-01
  3.2716684e-02
 -1.9804366e-01
 -4.5637229e-01
 -4.6585664e-01
  9.2635465e-01
  2.4118823e-01
  3.1873298e-01
  8.7224357e-02
  4.9355206e-01
 -2.3296791e-01
 -1.1422426e+00
 -1.8319864e-02
 -1.0871272e+00
  3.1697769e+00
 -3.2315034e-01
 -4.9541894e-02
  1.1007509e-01
  4.5627129e-01
  5.7186365e-01
 -9.7429830e-01
 -1.8361527e-01
 -2.2404830e-01
 -3.5413455e-02
  7.9523169e-02
  6.4326781e-01
  2.2795031e+00
 -9.5207995e-01
 -1.1167842e+00
  1.3948317e+00
 -5.6082282e+00
 -2.8970766e-01
  1.2965572e+00
  5.2068788e-01
  2.6128399e-01
  7.7913338e-01
 -7.5487876e-01
 -5.3596193e-01
  3.1457946e+00
 -6.6857815e-01
 -2.8517470e-01
  5.8421898e-01
  1.3263530e+00
 -1.6358738e+00
 -1.4624833e-01
  9.3931848e-01
  3.6113313e-01
  1.9792751e+00
 -5.2936357e-01
 -4.5832768e-01
  2.2715621e-01
  2.6727425e-02
  8.1438017e-01
 -2.3436995e-01
 -2.8930087e+00
 -2.3665723e-01
  2.8128099e-01
  2.4825552e-01
 -5.9034508e-01
 -1.7350357e+00
  1.7487776e-01
  6.7007238e-01
  1.4673980e+00
  1.0270770e+00
  2.1936305e+00
 -1.5675050e+00
  6.4708257e-01
  4.4039197e+00
 -2.7721250e+00
  1.1278723e+00
 -3.0511314e-01
 -2.8388745e-01
  3.4935623e-01
  1.8342477e+00
 -3.3341722e+00
 -3.0197021e-01
 -1.0398464e-01
 -3.2409725e+00
  6.0995841e-01
  1.7923155e+00
 -1.5741718e+00
  4.5677984e-01
 -6.9340438e-01
 -1.4099844e+00
  5.2264518e-01
  1.6147722e-01
 -8.5691416e-01
  5.1899374e-01
 -1.8275048e-01
 -1.2078776e+00
  1.9964979e+00
  2.1588901e-01
 -3.1094801e-01
  7.1718532e-01
 -2.9284170e-01
 -1.4049956e+00
 -5.8379787e-01
  1.1608486e-01
  2.5576127e-01
 -2.5459174e-02
  5.0318462e-01
  5.0926960e-01
  3.6480656e-01
 -5.4624391e-01
 -2.6421776e-01
  4.5224622e-01
  7.3010629e-01
 -2.2847626e-01
 -1.9350897e+00
  5.1550996e-01
  3.4269612e+00
 -1.1672199e+00
  7.1500599e-01
 -7.5284146e-02
 -3.4966531e-01
 -1.2090810e-01
 -6.7373568e-01
  5.5197650e-01
  3.8087845e-01
 -9.6060979e-01
  6.1701429e-01
  2.0803113e+00
 -2.7588284e-01
  1.4106416e+00
 -1.7781369e-01
 -1.0929248e+00
 -5.5983329e-01
 -1.7673618e+00
 -3.5762379e+00
 -8.2948160e-01
 -5.1650637e-01
 -1.6103692e+00
 -1.5729744e+00
  9.9474591e-01
 -5.3475726e-02
 -9.3823510e-01
 -1.5355312e+00
  4.5389599e-01
  1.7369607e-01
 -2.2991638e+00
 -1.4275950e+00
  3.4679163e-01
 -7.1904975e-01
  6.3371840e+00
 -5.0209159e-01
 -8.9777660e-01
 -2.2186434e+00
 -2.6604727e-01
 -7.0724497e+00
 -3.3501968e+00
  4.2648834e-01
  1.9164399e+00
 -4.9019566e-01
  3.5961136e-01
 -3.0305088e+00
 -2.3371997e+00
 -1.3614428e-01
 -5.5421478e-01
  1.1453229e+00
 -1.4523546e-01
 -5.6027758e-01
  1.9428877e-02
 -3.1237102e-01
  2.8739204e+00
 -7.1364194e-01
 -7.7001077e-01
  2.1545949e+00
  1.5551780e+00
  1.5152940e+00
 -2.3177319e+00
 -8.0956921e-02
 -3.6317661e-01
 -1.7914203e-01
  1.6329852e-01
  7.5985140e-01
  2.0227680e-01
  2.7780747e-01
 -7.6727889e-02
 -9.8913139e-01
  1.5713648e+00
  6.7152101e-01
  4.0277112e-01
  2.8775296e+00
  1.0747608e+00
 -9.1751623e-01
 -1.7184274e-01
  4.0570757e-01
 -1.0247111e-01
 -2.6703945e-01
 -1.6909695e+00
 -4.9297066e+00
 -1.4857455e-01
  3.6172812e+00
 -1.9669111e-01
  4.0065876e-01
  8.5121155e-01
  1.0822849e+00
  1.4680846e+00
 -1.7206287e+00
  8.6159515e-01
 -5.0015017e-02
 -5.1174968e-01
  5.7100496e+00
  4.3716950e+00
 -2.4454355e+00
 -2.7784918e-02
  9.6665674e-01
  9.1487902e-01
  4.6254220e+00
  2.6530077e+00
  5.4889193e+00
 -5.6216397e+00
  1.1412563e+00
 -2.8106382e-01
 -4.3629593e-01
 -1.0354937e+00
  8.6034369e-01
 -5.5006895e-02
  8.9706224e-01
  1.5510865e+00
  2.0225940e+00
 -3.6091155e-01
  9.3460810e-01
  4.8656404e-01
  3.5955148e+00
 -5.8879054e-01
  5.2024549e-01
  2.1013036e-01
  9.0001774e-01
 -1.2494985e+00
 -1.2605935e+00
  2.5206881e+00
 -1.9096059e-01
  2.2875557e+00
  6.1998957e-01
  1.1003618e+00
 -5.0044024e-01
  3.0210555e-01
 -1.0452408e+00
 -3.2864606e-01
 -3.6310142e-01
 -1.0937411e+00
  5.8511682e+00
  6.5619983e-02
  9.5047426e-01
  1.0754614e-01
  5.3779297e+00
 -3.8335893e-01
 -4.2235440e-01
  1.8957862e+00
  1.1625832e+00
  2.2214372e+00
  1.8905739e+00
  3.2898670e-01
  4.0054026e-01
 -4.8995787e-01
 -2.7284496e+00
 -1.0993457e+00
 -9.4025731e-02
 -2.6123853e+00
  3.3110473e+00
  2.9837375e+00
  7.0754087e-01
  2.7405015e-01
  1.6108114e+00
 -3.7746778e+00
  1.7194278e+00
 -3.0770457e+00
 -1.5293577e+00
 -8.6108214e-01
  7.7588075e-01
  1.9806544e+00
 -3.7606297e+00
  2.5021551e+00
  2.1467810e+00
  9.5158154e-01
  6.3623577e-01
  1.3549623e+00
  8.3566093e-01
 -2.1594253e+00
  1.6423776e+00
 -6.0402942e-01
 -5.3055120e-01
 -2.4858577e+00
 -5.3375387e-01
  4.4983256e-01
 -2.1644113e+00
 -5.3467946e+00
 -1.4646046e-01
 -2.9435948e-01
 -7.5098902e-01
 -6.3496000e-01
 -4.1976351e-01
  2.1604942e-01
  1.6393685e-01
 -2.9691379e+00
  1.6229856e+00
  4.0489597e+00
 -1.5886048e+00
  1.0696013e+00
  3.1596704e+00
 -1.2085009e-01
 -4.0220451e+00
  2.2661340e+00
  2.0827477e+00
 -1.7699149e+00
  1.8105060e+00
 -2.2134657e+00
  1.5791863e-01
 -1.1192856e+00
 -1.0935277e-01
  2.3551934e+00
  3.1270352e-01
  3.7467136e+00
 -1.0431205e-01
  1.9516381e+00
 -3.2233546e+00
 -7.3859519e-01
  8.3822119e-01
  1.5060066e+00
 -8.0328256e-02
 -7.8903532e-01
  2.8639772e+00
 -1.7271651e+00
  2.1794900e-01
  2.5556729e+00
 -2.9577756e+00
 -2.4637112e-01
  1.1787670e+00
  3.1068997e+00
  1.7882012e+00
  1.3186131e+00
 -2.4979725e+00
  3.3614010e-02
 -1.2246500e+00
 -1.8715670e+00
  2.6927114e+00
 -1.4005136e+00
 -2.7008781e-01
  1.7375270e-02
 -3.4831026e-01
 -2.1495605e-01
  6.0727882e-01
 -4.1491632e+00
 -4.7208574e-01
  2.6453802e-01
 -1.6939183e+00
 -4.9240676e-01
 -4.6670737e+00
  4.8031487e+00
  1.6413853e+00
 -1.0626265e+00
 -3.0967319e-01
  2.7792850e-01
  1.5001299e+00
  1.1700945e+00
 -1.8455765e+00
 -4.6039641e-02
 -2.3807187e+00
 -1.4285016e+00
  7.4586403e-01
  5.8529097e-01
 -7.4714768e-01
 -1.4331936e+00
  2.2928083e+00
 -7.0972997e-01
 -1.5975724e-01
 -8.8879210e-01
  1.9469327e+00
 -1.3377184e-01
 -1.2490863e+00
  6.9269719e+00
 -3.2106664e+00
 -3.5143058e+00
  4.3846960e+00
 -1.2482630e-01
 -2.0404337e-01
 -6.2590241e-01
  2.1034057e+00
 -3.3118737e+00
 -2.2460322e+00
 -6.9521300e-02
  4.3121228e+00
 -4.7776189e-02
  4.4472134e-01
 -2.6384397e+00
  9.3273520e-02
 -2.0005620e+00
 -7.5400285e-02
 -3.2545476e+00
 -4.2415786e-01
  1.1568179e+00
 -1.6994098e-01
 -4.3796382e+00
  2.2197690e+00
  3.0552375e-01
  2.9697606e-01
  3.4892638e+00
 -1.6460648e+00
  2.0010324e+00
 -8.9776415e-01
 -1.3889581e+00
 -5.5683446e+00
 -2.5169859e+00
  1.3093500e+00
 -6.0113692e-01
 -3.2054815e+00
  1.3015436e+00
  7.1663747e+00
 -9.9730588e-02
 -3.5935292e-01
  5.0762644e+00
 -1.2510525e+00
 -1.4937599e+00
 -2.4828463e+00
 -2.7785313e+00
 -2.1022558e+00
 -9.6079163e-02
 -3.2770121e+00
 -1.0149902e+00
  5.5855241e+00
 -7.2716963e-01
  5.5130762e-01
 -9.5412558e-01
 -4.5596641e-02
  2.6634593e+00
 -5.2103090e+00
 -2.7190344e+00
 -1.4982265e+00
 -3.6275952e+00
 -3.5738915e-01
 -4.6960413e-01
 -4.4068975e+00
 -9.4073780e-02
  2.9763415e+00
 -3.3229988e+00
 -2.3851141e-01
  1.5919584e+00
  2.7137854e+00
  1.6524898e-01
 -2.1613847e-02
 -1.0472009e-01
  9.6596974e-01
 -3.0641389e-01
 -7.7808762e-01
 -5.7800463e-03
  3.9381275e-01
 -1.5012343e+00
  3.7843567e-01
  1.4164132e+00
 -8.6748853e-02
 -1.7602131e+00
 -3.6282923e+00
 -6.7208745e-02
 -1.7760396e-01
  5.5296212e-01
 -7.7950865e-01
 -8.9420646e-01
  1.7046205e+00
  2.1116236e-01
  3.2537478e-01
  7.9219133e-02
  1.2525309e+00
  1.0828602e-01
 -6.0207564e-01
 -1.6489142e+00
 -1.4144508e+00
  2.9614747e-01
 -4.3106872e-01
  5.0450617e-01
 -6.4346898e-01
 -9.2898704e-02
  2.5015232e-01
 -8.1452107e-01
  6.7712057e-01
  3.4494206e-01
 -3.4943696e-03
 -1.2855592e-01
 -3.6916763e-01
 -7.7310003e-02
  3.7812568e-02
 -3.4726229e+00
 -2.7402002e-01
 -2.9400070e+00
  1.4386306e+00
  1.4992625e-01
 -2.5424489e-01
 -2.4476917e+00
 -5.0499916e+00
 -7.5535417e-01
 -1.6803598e-02
  1.3151164e+00
 -6.9169686e-03
 -2.1721959e-01
 -1.6211138e+00
 -1.0921110e+00
  6.9415653e-01
 -2.7540646e+00
 -3.7759632e-01
  5.3741226e+00
  5.7689724e+00
 -1.0882237e+00
 -1.0422796e+00
 -6.0125530e-01
  5.0387871e-02
 -8.0473340e-01
  5.4964466e+00
 -3.1607163e+00
 -5.2466697e-01
 -5.4392946e-01
 -3.8413921e-01
 -2.6567760e-01
  7.0056138e+00
  5.3054905e+00
 -6.0705137e-01
  2.9626482e+00
  1.7021687e+00
 -2.5034316e+00
  3.0652664e+00
  1.5216274e+00
 -2.6771226e+00
  1.2920779e+00
  1.1314121e+00
 -1.1809810e+00
  1.1982343e+00
  9.1394465e-03
  3.1961465e-01
 -1.9274175e+00
  1.8226063e+00
  1.8409643e+00
  3.2586150e+00
  3.1882471e-01
 -6.5892094e-01
  2.4469757e-02
  2.5250690e+00
 -4.7507114e+00
 -7.1846539e-01
  2.9071863e+00
 -1.4113998e+00
  3.0310008e-01
 -5.1906484e-01
  7.3272502e-01
  1.7088535e+00
 -6.7667001e-01
  2.3648229e+00
  1.5260335e+00
 -4.3044883e-01
  5.2098787e-01
 -1.8791201e+00
 -5.2283473e-02
 -1.7321675e+00
 -3.9064949e+00
  9.8756325e-01
 -1.6112235e+00
  3.3982267e+00
  1.2993207e+00
 -8.0505824e-01
  3.9411983e-01
  1.5844589e-01
 -4.4861880e-01
 -1.4264271e+00
  8.5124183e-01
  1.9297113e-01
  4.8104885e-01
 -4.9203232e-01
  3.8655183e-01
  8.5888162e-02
 -1.0264982e-01
  5.2008057e-01
 -9.5711631e-01
  2.1990824e-01
 -1.4431889e-01
 -1.4665501e+00
  2.2608429e-01
  1.8114559e-01
  3.9062825e-01
  4.8960947e-02
 -5.8988106e-01
 -2.1451557e+00
 -1.3326178e+00
  6.6464057e+00
 -5.8604902e-01
  8.3796632e-01
 -2.4070993e-01
 -1.2119232e+00
  1.7244039e+00
 -4.6325544e-01
 -1.3290974e+00
 -2.4474712e-02
  1.8502543e+00
  8.0728745e-03
  1.6766590e+00
 -4.4422879e+00
 -1.0671870e+00
 -5.4714257e-01
 -2.0402536e+00
 -1.4187346e-01
  6.9689703e-01
 -4.6504941e+00
 -3.0219468e-01
  2.4201391e+00
  1.9948205e+00
 -3.6475062e+00
 -1.1478295e+00
  1.1341690e+00
 -9.4834608e-01
 -6.1062312e-01
 -1.4397129e-01
  2.2192100e-01
  2.9339581e+00
  1.0519446e+00
 -3.7650883e-01
 -2.3262482e+00
  1.6208383e-01
  1.5050566e-01
  5.5543923e-01
 -1.6462886e+00
  4.6417323e-01
  3.2300431e-01
 -3.7204435e-01
  1.9068809e-01
 -2.2552585e-02
 -1.0618678e+00
  6.0173935e-01
 -2.2786261e-01
 -1.4195511e+00
  1.5948838e+00
 -1.6338413e+00
  1.0575335e+00
 -1.1083473e-02
  8.3374536e-01
  4.7246608e-01
 -1.7231274e+00
  3.2366026e-02
 -6.7969210e-02
 -1.8805918e-01
  2.3401206e+00
 -4.7612610e-01
 -3.7504211e-01
  2.5795970e+00
  1.7753952e+00
 -2.5651739e+00
 -6.9479041e-02
 -1.7569005e+00
  1.3179897e+00
 -1.7392995e+00
  6.8114430e-01
  2.2415402e+00
  1.5995420e+00
 -1.3863410e+00
  6.4751965e-01
  1.3777394e+00
 -3.4127647e-01
  1.3596328e-01
 -2.1554947e+00
  2.1655116e+00
 -2.4877879e-01
  1.8615535e+00
  3.9550405e+00
 -2.4381208e+00
  2.7330375e+00
 -1.8739016e+00
 -2.4505490e-01
 -6.0286367e-01
  3.9868850e-01
 -2.9887313e-01
 -2.1695561e+00
  9.2760585e-02
  8.6810070e-01
 -5.8234262e-01
 -5.6014335e-01
 -1.9850141e+00
 -4.4126961e-01
  1.0650214e+00
  6.3739171e+00
  5.7396274e+00
 -4.0154985e-01
 -4.2325139e+00
  8.8974446e-01
  1.4443687e+00
 -2.8939903e-01
 -6.1843139e-01
  1.7286000e+00
  1.2197300e-01
  1.3496555e+00
  1.5444607e-01
 -8.0184364e-01
  2.6318841e+00
 -1.6839472e+00
 -6.9150150e-01
 -5.4893816e-01
 -9.5692450e-01
  2.9025095e-02
 -2.0613298e+00
  1.1451563e+00
 -8.8830109e+00
 -3.1729391e-01
 -2.2582386e+00
  3.8252109e-01
  2.4790084e+00
 -3.0838656e-01
  5.9422982e-01
 -4.0644040e+00
  2.2371204e-01
 -2.1776886e+00
  1.9110047e+00
 -1.8635374e+00
  7.2390699e-01
 -1.7042643e+00
  6.0758452e+00
  1.2567859e+00
  2.4521148e+00
 -1.4182576e+00
  3.2335804e+00
  3.5250208e-01
  1.8566940e+00
  9.5569187e-01
 -7.2023220e+00
  7.6486402e+00
 -2.3991957e+00
  2.0016313e+00
  2.4525883e+00
 -2.4882264e+00
 -3.5214129e-01
 -1.0541943e+00
  9.0650477e-02
 -3.4109225e+00
  2.0478921e-01
 -5.5245906e-01
 -3.9329264e+00
 -4.0656197e-01
 -5.9995687e-01
 -3.7422317e-01
 -2.3818901e+00
 -6.8075365e-01
  1.1657038e-01
 -5.6001794e-01
 -2.8925004e+00
  8.4512487e-02
 -3.4695282e+00
  6.7363811e-01
  1.2929624e+00
 -2.2673485e+00
  9.3488340e+00
 -2.0299110e-01
 -3.1308961e+00
 -1.3989379e+00
  5.5483359e-01
  4.8712630e+00
  3.9456138e-01
 -7.0837569e-01
 -3.5874960e+00
  2.2946417e-01
  5.6919351e-02
  1.8468741e+00
 -4.9859631e-01
  7.2130265e+00
  4.8784542e+00
  4.0262985e-01
 -4.0278392e+00
 -2.2297208e+00
  2.0691764e+00
  2.6207750e+00
  1.9334199e+00
 -5.3685293e+00
 -1.6040363e+00
  2.9569468e-01
  3.7912865e+00
  1.4271135e+00
 -1.9212006e+00
  1.9656088e+00
  2.7064211e+00
 -2.2987280e+00
  5.2468204e-01
 -6.0687685e-01
  6.9085908e-01
  3.7586504e-01
 -2.3325957e-01
  3.6632020e+00
 -6.1186275e+00
  4.9363957e-03
  1.3878455e+00
 -2.6166196e+00
  1.5649482e+00
  1.1279954e+00
 -2.0577872e+00
 -5.5323797e-01
  3.0697660e+00
 -1.4701732e+00
 -2.8594545e-01
 -7.8717208e-01
 -1.3292892e-01
  1.3881773e+00
  2.3942220e+00
  9.2040175e-01
 -1.7860045e+00
 -3.3442315e-01
  7.8822023e-01
 -1.1616064e+00
 -5.7171905e-01
 -9.8161793e-01
  1.0901281e-01
 -3.4521506e+00
 -1.2968906e+00
  1.9092891e-01
  3.6242170e+00
 -1.3083955e+00
  3.2233946e+00
  2.3831644e+00
  1.9612213e+00
 -2.2572081e+00
  7.1689695e-01
  6.5406036e-01
 -2.0970945e+00
 -5.5171356e+00
  1.2056253e+00
  9.1297644e-01
 -1.7624910e+00
 -9.4454050e-02
  4.5491806e-01
  6.1962813e-01
  2.7100858e-01
  3.2067821e+00
 -4.5774550e+00
 -1.3734181e+00
 -1.0620458e+00
 -4.2580738e+00
  2.2050416e+00
 -5.3525162e-01
  2.4365380e+00
 -1.7356035e+00
  5.6775517e+00
  1.5548531e+00
  2.2312100e+00
 -1.5935676e+00
 -4.7947435e+00
  4.6351233e+00
 -1.3997741e-01
  1.4773540e+00
 -1.3757632e+00
  1.1912140e+00
 -4.0044558e-01
  1.9030449e-01
  2.7206647e+00
  9.2664868e-01
 -4.0001626e+00
  2.5328300e+00
  4.5873976e-01
  3.3801687e+00
 -3.8002129e+00
  8.1897587e-01
  3.4035635e-01
 -1.4130827e+00
 -1.4995428e+00
 -8.1819284e-01
 -8.2830131e-02
  1.6445072e-01
 -1.4921600e+00
 -6.9022667e-01
  1.0193230e+00
 -2.0714204e+00
 -1.8933456e+00
  2.7389426e+00
 -2.7565283e-01
 -2.0594113e+00
 -1.6648282e-01
 -8.4502466e-02
 -7.9273540e-01
 -1.1070069e+00
  8.3858383e-01
  5.8642339e-02
  8.6736006e-01
  7.3316567e-02
  2.6730552e+00
 -1.7986391e-01
 -2.2649519e+00
  3.6398354e+00
 -1.2465012e+00
  1.8371582e+00
 -2.1139295e+00
  2.8518783e-02
 -2.8501245e-01
 -3.5009190e-01
  3.3825469e+00
 -2.3080657e+00
 -6.8233836e-01
  8.8659042e-01
  3.1626403e+00
  6.8463039e-01
  2.4485612e+00
  1.8458358e+00
  7.9053491e-01
  2.5788835e-01
 -8.5867786e-01
  7.7796489e-02
  4.5666013e+00
 -1.7885007e+00
 -4.2018890e-02
  9.5582914e-01
  4.0279397e-01
 -5.6118608e+00
 -8.7473541e-01
 -4.8064679e-01
  2.9409015e-01
 -4.4513881e-02
 -9.9201375e-01
 -3.2123229e-01
 -3.1305644e-01
  3.7132590e+00
  1.3990954e+00
 -6.0960889e-01
 -1.9494565e+00
  2.4653323e+00
  1.5125365e+00
 -1.5807290e+00
 -4.3183327e-01
  8.7382990e-01
 -6.3714969e-01
  5.4924514e-02
 -1.3570958e-01
  1.4722724e+00
  2.3836787e+00
  2.3424019e-01
 -5.2417582e-01
 -2.5091786e+00
  8.6992756e-02
  1.6810594e+00
 -7.2544761e-02
 -3.7529045e-01
 -4.3094423e-01
  1.5534902e+00
  7.9146779e-01
 -1.8795465e-01
  1.0443984e+00
  4.3055171e-01
  3.3910284e+00
 -7.8524327e-01
 -1.0705208e+00
  7.6419050e-01
 -5.2226052e+00
  7.9305649e-01
  3.1177075e+00
  3.9408004e-01
 -3.7550433e+00
  1.8712217e+00
  2.4694223e+00
 -2.4930555e-01
 -3.2703093e-01
 -6.5460661e-03
 -2.5011075e+00
 -2.6688726e+00
 -3.2111835e-01
 -9.4865823e-01
  3.7329772e-01
 -1.6981556e-01
 -4.4055584e-01
 -6.5939665e-01
 -4.2320749e-01
  2.8802387e-02
  9.1424209e-01
  1.5753660e-01
  1.6911829e+00
 -2.5967534e+00
  4.5472571e-01
  1.6409866e+00
 -1.8762413e-01
 -5.7754884e+00
 -9.2046386e-01
  3.5507825e-01
 -6.7451990e-01
 -3.6002372e-03
  1.8862852e+00
  5.9727774e+00
  4.7828567e-01
  3.0938759e-02
 -1.5222628e+00
  6.5560830e-01
  2.2606772e-01
  2.7221715e-01
 -2.3958499e-02
  5.7451564e-01
  5.3960383e-01
  4.1410372e-01
  8.2853019e-01
 -3.6464360e+00
 -1.8939248e-01
 -1.2543094e-01
 -4.2040506e-01
  2.6372668e-01
 -1.3197522e+00
 -1.6379954e+00
  1.8651853e+00
  2.0260447e-01
 -1.0347155e+00
  9.3010348e-01
 -1.0041497e+00
  4.2691532e-01
  8.0117512e-01
  6.5471518e-01
 -4.6865258e-01
 -3.0815086e-01
 -2.2358550e-01
 -4.8315620e-01
  2.9889810e-01
 -1.5982912e-01
 -1.5261996e+00
  1.9316009e-01
 -6.3075762e+00
 -3.1862917e+00
 -1.2929652e+00
  6.3321030e-01
 -2.7947016e+00
  2.2709895e-02
 -1.5092513e-01
 -1.5758467e-01
 -4.3726701e-01
 -6.7227714e-02
  1.4320788e+00
  2.8984618e+00
  2.1189464e-02
 -2.3689094e-01
  1.4418052e-01
 -2.2930970e+00
  3.0056617e+00
  9.0961027e-01
 -9.8331040e-01
 -3.2728201e-01
 -7.4224913e-01
  1.5790634e-01
  6.1624408e-01
 -3.4178293e+00
  1.6347387e+00
 -2.9907387e-01
  1.7377993e+00
 -1.9331517e+00
 -4.8453617e-01
 -1.4196824e+00
  2.5098023e-01
  2.8297937e-01
  2.5705667e+00
 -7.2909616e-02
  7.0527172e-01
 -9.3841785e-01
 -1.1894311e+00
 -8.2507360e-01
 -2.5001723e-01
 -1.1308481e+00
 -4.1463714e+00
 -2.2148979e+00
 -2.7237082e+00
  1.3950186e+00
 -6.2276506e-01
  2.2338283e+00
 -2.2987194e+00
 -6.1167186e-01
 -6.5975732e-01
  1.5793835e-01
 -1.2294423e-01
  1.8849154e+00
  1.2571839e+00
  3.3417013e+00
  2.6888721e+00
 -9.2056316e-01
 -1.4800102e+00
  1.2270482e+00
 -2.7982054e+00
  6.2304962e-01
 -8.1166828e-01
  4.9514435e-02
  1.6138688e+00
  1.1698182e+00
 -3.9453666e+00
  7.4529493e-01
  2.0137210e+00
  5.9861338e-01
  6.1405740e+00
  4.7038231e+00
 -2.6877332e+00
  2.4892085e+00
 -4.1000004e+00
  2.7452142e+00
 -3.5265758e+00
  2.3993921e+00
 -9.6898383e-01
  3.8539907e-01
 -3.9926800e-01
 -7.6214343e-01
 -1.5909788e-01
 -1.3508159e+00
 -2.2984972e+00
 -1.7077816e+00
 -2.7262506e-01
 -2.0709536e+00
 -3.0420732e+00
 -3.9649096e+00
  4.5856872e-01
  1.1912360e+00
 -4.2068281e+00
  1.4611423e+00
 -4.7943401e-01
 -2.7260876e+00
 -5.2938942e-02
 -5.4237604e-01
  3.3042604e-01
  1.4145233e-01
 -7.1170716e+00
  6.5683842e-01
  6.5855664e-01
  1.5800053e-01
  4.5403907e-01
 -1.4041991e+00
  4.9759260e-01
  2.4332669e+00
  5.0455821e-01
 -8.2948714e-02
 -3.2645783e+00
 -1.4108123e+00
  1.0916601e+00
 -3.8743159e-01
  2.8411576e-01
  1.6032102e+00
 -1.3630314e+00
 -6.6944730e-01
  3.6089318e+00
 -6.6004843e-01
 -3.4451158e+00
 -1.6725153e+00
  9.2797697e-01
 -7.5353837e-01
 -3.0841575e+00
  1.8326216e+00
  1.0157719e+00
  4.2423744e+00
  2.1123497e-01
  1.9686199e+00
  1.8760296e+00
  1.7899585e+00
  9.0270984e-01
  3.0786614e+00
 -2.7346103e+00
  5.3116971e-01
  5.9959730e-03
  5.9485955e+00
 -4.9558263e+00
  2.3092918e+00
  9.9887127e-01
  1.4231100e+00
  1.6497630e+00
  6.6003382e-01
 -1.2835947e+00
 -3.8981557e+00
 -1.9857208e+00
  1.0476866e+00
 -1.9988409e-01
 -1.5728999e+00
 -4.3098944e-01
 -5.4613113e-01
 -4.9940457e+00
 -3.9196949e+00
  6.0338217e-01
 -2.1088991e-01
 -1.6046635e+00
 -3.6954057e+00
 -5.7415819e-01
 -4.9187312e+00
  1.0194883e+00
  2.9471114e-01
 -3.6764491e+00
  5.2711587e+00
  3.1938865e+00
  5.6146461e-01
 -1.5711876e+00
  5.0209647e-01
  9.0144616e-01
  7.7338713e-01
  9.8769501e-02
 -2.2417381e-02
 -2.2930119e+00
 -3.3771999e+00
 -2.7390211e+00
  2.7117193e-01
  5.4679632e-01
 -1.5544616e+00
 -1.8716691e+00
 -2.2553253e+00
  2.5091512e+00
 -1.2016643e+00
  1.2309736e+00
 -5.7781863e+00
 -3.9838901e-01
 -7.5112925e+00
  1.9329367e+00
  7.0522055e-02
  2.2632647e+00
 -3.8025282e-02
  1.5907377e+00
  2.5494680e-01
 -2.0878969e-01
  9.8508877e-01
 -1.1656610e+00
  1.8031259e+00
  1.1344470e+00
  2.6733580e+00
  1.2280605e+00
  3.1229381e-02
 -2.4127862e+00
  6.3088617e+00
 -6.8977214e-02
 -1.8071456e-01
  1.3141112e+00
 -1.3775884e+00
 -5.7432145e-02
 -1.4815664e-01
  6.5159994e-01
  2.3352547e+00
  3.6041218e-01
  2.0571554e+00
 -1.0668319e+00
 -3.0258209e-01
  1.5202878e+00
 -5.2302384e-01
  1.1267434e+00
 -2.2859294e+00
 -8.5640883e-01
  3.1650610e+00
  2.0694029e+00
  9.6940738e-01
  5.9318136e-02
 -4.8938039e-01
 -1.8825747e-01
  9.7493708e-01
  1.6534899e-01
 -7.2090775e-01
  1.5908978e+00
  7.6872927e-01
 -3.8863945e-01
  4.4043310e-02
  3.5597122e+00
  1.4204445e+00
  4.5332456e-01
  4.7713637e+00
  2.3508209e-01
 -2.9698567e+00
 -6.5201706e-01
 -6.7773974e-01
 -5.6777769e-01
 -1.6396317e+00
  1.1965423e-01
  3.7050360e-01
  1.0038986e+00
 -2.5771620e+00
 -1.9807630e+00
 -1.5317266e-01
 -9.1200054e-02
 -8.2612254e-02
  1.2451437e+00
  6.8965441e-01
 -2.1897300e-01
 -2.6151545e+00
 -3.3533587e+00
  9.6947110e-01
  3.1292418e-01
 -2.3090091e-02
  1.6802986e+00
  3.6785892e-01
  6.2039647e-02
  2.6757250e-02
  3.0793816e-01
 -2.3900020e+00
  1.2580575e+00
 -6.5069443e-01
 -9.9548435e-01
 -3.9843252e-01
  5.1574641e-01
  5.1076460e-01
  1.2238880e+00
  1.0432330e+00
  1.9500716e-01
  2.3270950e+00
 -5.7485586e-01
 -3.1574891e+00
 -1.8190089e+00
 -1.4169574e+00
  1.4411050e+00
  4.3882889e-01
 -5.8446455e-01
 -4.5673236e-01
 -4.7021210e-01
 -2.7513191e-01
 -6.9214776e-02
  2.7821812e-01
  7.2322083e+00
  4.9299124e-01
 -2.6288226e+00
 -2.8886149e+00
  9.6295768e-01
  2.5319905e+00
 -1.2744850e-01
  1.0910180e-01
 -4.3856594e-01
 -3.1442043e-01
 -8.0670881e-01
 -9.2122906e-01
  8.1107467e-01
  3.7573743e+00
 -6.6281390e-01
  5.1165503e-01
 -1.8040377e+00
  6.0779160e-01
  1.0038553e+00
  1.4233966e-01
 -2.4221194e+00
 -2.4882358e-01
 -3.4645173e-01
  2.2737250e-01
  1.4940720e+00
  3.1692657e+00
  8.2985687e-01
  5.1145325e+00
  2.3600054e-01
 -3.8091381e+00
 -9.8810919e-02
  1.9875270e+00
  3.4411749e-01
  2.6371647e-03
 -7.1854556e-01
  2.1382922e-01
  9.3434519e-01
  6.7491883e-01
  6.9830453e-01
  2.4782410e+00
 -6.2735325e-01
  4.0023060e+00
 -7.0723075e-01
  1.1733203e+00
  4.7605758e+00
  4.8458447e+00
  6.3484870e-02
  3.2336171e+00
  1.9251509e+00
 -2.7037638e-01
  5.7459390e-01
 -3.7032669e+00
  1.3361330e-01
 -1.0882707e+00
 -5.7584703e-01
 -2.0800887e-01
 -1.4580244e-01
  1.6365525e+00
 -4.3362865e-01
  7.4976319e-01
 -6.8204826e-01
  4.5738375e-01
 -2.4538338e+00
  7.1866262e-01
 -9.9306107e-01
  2.4977668e-01
 -1.6796719e+00
 -1.9686206e-01
  1.6427976e+00
 -3.5374302e-01
 -1.8041931e+00
 -4.3846955e+00
 -3.8502657e-01
 -2.1347852e+00
 -2.4068274e+00
  6.7924976e-01
  5.4763298e+00
  1.5318797e+00
  3.7725925e+00
 -2.2299511e+00
  1.6817526e+00
 -1.6386517e+00
  3.3937702e+00
 -2.6449840e+00
 -3.2650453e-01
  3.6115589e+00
  1.1153139e-01
 -2.7047703e-01
  5.7452518e-01
  2.8621906e-01
 -2.9333515e+00
  1.3833326e+00
  3.6694221e+00
 -7.8933549e-01
 -5.0644386e-01
  2.9075855e-01
 -4.4842987e+00
 -2.9345419e+00
  3.5027206e+00
  2.1432092e+00
 -8.3592778e-01
  2.6218321e+00
  6.9523472e-01
 -2.2863469e+00
  2.4979887e+00
 -5.8274803e+00
 -1.0326935e+00
 -1.6648322e+00
 -1.6266830e+00
 -1.8504512e+00
 -2.1670477e-01
 -9.8406464e-01
  1.2081430e+00
 -4.3450046e-01
  1.5844192e-01
 -6.2056158e-02
 -2.9383662e+00
  7.2754309e-02
  1.2392775e+00
 -2.5620522e+00
  5.5764115e-01
  2.0292263e-01
 -4.0995963e-02
 -1.3269038e-01
  1.4153847e+00
  3.1874877e-01
 -2.0633130e+00
  1.9925834e+00
 -1.9938378e+00
 -2.5946591e+00
  2.3762405e+00
 -4.3044410e+00
  1.7169932e-01
 -5.2592315e-02
 -1.4349563e-01
  9.0699834e-01
 -1.4906063e+00
 -1.8904668e-01
  2.5231252e+00
 -4.8532820e-01
  2.0180619e+00
  1.5964522e+00
  7.1688503e-01
  4.5322087e-02
 -2.0612807e+00
  6.5909135e-01
  3.5985878e-01
 -2.6572222e-01
  3.6476438e+00
  1.7282202e+00
 -1.5026605e+00
 -1.5556296e+00
  1.5425985e+00
  9.5278358e-01
 -1.6167195e+00
  2.0759951e-01
  2.5117207e+00
 -8.6016953e-01
  6.8446562e-02
  3.2172291e+00
  1.6759218e+00
 -3.1358774e+00
 -1.9382787e+00
  1.2336698e+00
 -1.1596971e+00
 -4.9947077e-01
  3.0431563e-01
  3.5205436e-01
 -9.3242787e-02
  2.6101251e+00
 -5.9646291e-01
  1.4770823e+00
  2.4015659e-01
  4.4904420e-01
 -9.1579998e-01
  1.3542979e+00
 -4.5645201e-01
  5.2674230e-02
  2.7151769e-02
 -1.6085926e+00
  3.9690108e+00
 -1.9585599e+00
  4.0077165e-01
  3.1009428e-03
 -3.3799037e-01
 -1.5039604e+00
  1.8485149e+00
 -1.8199497e+00
  1.0169207e+00
  1.6153889e+00
  5.7697856e-01
 -8.8359281e-02
  1.5669321e+00
 -5.3698975e-01
  6.6397291e-01
 -1.7640725e-01
  1.5331508e+00
 -1.0306085e-01
 -3.3203235e-01
 -6.7731404e+00
 -1.4787719e+00
  2.7060083e-01
 -4.7981477e-01
 -1.4051813e+00
  5.0868726e+00
 -3.7584165e-01
 -2.0009029e+00
 -9.2895830e-01
 -3.9598126e+00
  2.8534813e+00
 -3.9996332e-01
 -7.0855916e-01
 -1.1820254e+00
 -1.1915801e-01
  1.4895922e+00
 -2.7110770e-01
  1.3591354e-01
 -1.4231368e+00
  8.5502630e-01
 -8.3386578e-02
  2.3381716e-01
 -9.6393263e-01
 -1.1558957e+00
  2.5106418e-01
  6.6563004e-01
 -1.8520697e+00
  8.5057668e-02
  5.9422141e-01
 -2.0943656e+00
  8.2336746e-02
 -2.7257257e+00
  2.4117865e-01
 -8.5812485e-01
  2.5225828e+00
 -5.4101462e+00
 -6.3805205e-01
  8.2680970e-01
  3.5840647e+00
  1.7270293e+00
  2.4067755e+00
  2.3003174e-01
 -7.1761000e-01
 -8.0200054e-02
 -1.0346507e+00
  2.2445838e+00
 -3.4178813e+00
 -2.5570009e+00
  1.5738643e+00
 -1.3735907e-01
 -1.8687837e+00
 -5.0341457e-01
 -1.0118610e+00
 -2.3022946e-02
  1.0536928e+00
  1.1366947e+00
 -2.3053017e-01
 -1.8315668e+00
  2.7299788e+00
  4.4097686e-01
  5.5882484e-01
 -2.4563606e-01
 -1.0845606e+00
  4.9037290e-01
  2.5789455e-02
 -3.8754842e-01
  4.7765398e+00
  1.2480039e-01
 -1.2797570e+00
  3.4764729e+00
  2.9802310e-01
  3.1956485e-01
 -3.0874953e-01
  1.4325075e+00
  4.0064278e-01
 -1.7351246e+00
  5.5512983e-01
 -9.4229078e-01
 -7.5355780e-01
 -3.4953387e+00
 -2.6743394e-01
  2.3070955e+00
 -1.8573328e+00
  4.5524945e+00
 -8.5050011e-01
  6.5169725e+00
  1.2162461e+00
  4.3647528e-01
  4.0725541e+00
  1.1950867e+00
  4.2853400e-01
  4.2250288e-01
 -4.7508063e+00
 -1.0136327e+00
  6.4560957e-02
  1.6580491e+00
 -1.4048905e+00
 -1.3198292e+00
  1.0125748e+00
  8.1527793e-01
 -5.0077367e+00
  2.3184884e+00
  2.3069694e+00
  3.5691302e+00
 -4.4945560e+00
 -4.2348895e+00
 -6.5336818e-01
  5.0164658e-01
 -1.1068932e+00
  8.7564430e+00
  4.3680221e-01
 -2.2850232e-01
  4.7391328e-01
 -3.3572097e+00
 -4.0755317e-01
  2.9157246e-02
  1.4818940e+00
 -4.3336778e+00
 -1.0636233e+00
 -6.5311104e-01
  1.0113626e+00
  1.6161804e+00
  9.9185550e-01
  1.7923923e+00
  1.1708399e+00
  3.2959759e-01
  1.3342842e+00
  1.1389306e+00
  3.1723652e+00
 -1.4245625e+00
 -5.2423459e-02
  6.5108407e-01
  7.3750752e-01
 -5.8561773e+00
 -3.7538159e+00
 -6.3198972e-01
  2.2196941e-01
 -1.1968762e+00
 -5.9610903e-01
 -4.8464408e+00
  1.0180874e+00
  5.1101184e-01
 -2.1274990e-01
  4.6999830e-01
  5.1682115e+00
 -7.1252716e-01
  1.9404372e+00
  2.7204227e+00
 -2.0077322e+00
 -4.8959885e+00
  8.3761734e-01
 -2.8461828e+00
 -7.5743198e-01
  5.0336928e+00
 -2.8378856e+00
  2.3125274e+00
 -3.6455431e+00
 -6.9444451e+00
 -2.0280192e+00
  1.7654200e+00
 -8.7628098e+00
  3.0337794e+00
 -4.1898146e+00
 -3.3815842e+00
 -1.7834860e+00
 -2.5701210e-01
 -1.9966947e+00
 -5.8885498e+00
 -1.1914170e+00
  8.9920834e-03
  1.6076174e+00
  1.9197740e-01
 -2.7034569e+00
  8.6031431e-01
 -6.2036306e-01
 -1.1915270e+00
  2.7169245e-01
  1.6646277e+00
 -2.7644390e-01
  7.5296462e-01
  1.9759940e+00
 -6.9128150e-01
 -2.0824823e+00
  8.6193800e+00
  5.2135882e+00
  3.2348828e+00
  1.8650869e+01
  6.7949400e+00
  4.3863091e+00
  6.3208336e-01
  6.5754592e-01
  1.7496139e+00
  1.2150310e-01
 -7.3176938e-01
  2.2203956e+00
 -1.7598088e-01
 -3.1537023e-01
 -8.1679958e-01
 -8.5356617e-01
  5.7925830e+00
  4.5588608e+00
  1.9249432e+00
 -5.9125638e-01
  9.1997939e-01
  1.5078998e+00
  3.5348660e-01
  3.8729041e+00
  2.7035968e+00
 -2.2838840e-01
 -6.1128885e-01
  2.1651223e+00
 -3.3413535e-01
 -6.3408548e-01
  5.2268000e+00
  4.7615991e+00
  1.1615576e+00
  5.6786674e-01
  2.0195744e+00
  7.0065413e+00
  1.4781480e+00
 -1.9275596e+00
  1.6296062e+00
 -2.6201615e-01
 -1.2873919e+00
  3.7676227e-01
  6.7918539e-01
 -4.1433301e-02
 -3.8625848e-01
  1.6014083e-01
 -2.5313139e+00
 -6.2389207e-01
 -2.0272765e+00
  4.6112439e-01
 -1.7593080e+00
 -8.1052870e-01
  1.9588149e-03
 -2.2014124e+00
  1.1752548e+00
 -6.2375259e-01
  1.5108189e-01
 -4.5336952e+00
  3.3900800e-01
  1.2826447e+00
 -3.1972024e-01
  1.9637374e+00
  1.2495531e+00
  5.5433398e-01
 -1.3025465e+00
 -6.0308523e+00
 -1.9802569e+00
 -4.0324157e-01
 -1.8275621e+00
 -1.6611162e+00
 -1.6286464e-01
 -3.7223071e-01
 -4.4970882e-01
 -4.9674684e-01
  2.1682665e-01
 -1.4756634e+00
  8.9173096e-01
 -5.4202962e-01
 -3.4188294e-01
  7.4939716e-01
  3.2804167e-01
  4.8744875e-01
  1.0362116e+00
 -1.9466190e+00
 -2.9141429e-01
 -1.4789953e+00
  2.1182819e-01
 -1.7853771e+00
  2.0373978e-01
  4.2256024e-01
  1.3765718e+00
 -3.8899708e-01
 -4.4733682e-01
 -1.4298677e+00
 -3.5482651e-01
 -1.3639808e+00
 -2.2055548e-01
  1.0874851e+00
  1.0858865e+00
  1.6673310e+00
 -1.0470315e+00
 -1.8194369e+00
  2.5563676e+00
  4.2415601e-01
 -6.1699164e-01
  2.1999090e+00
 -4.8113689e-01
 -3.1693935e+00
  3.2354138e+00
  2.3515159e-01
  1.3995112e-01
  2.4957176e-01
  3.6731189e-01
  5.3087349e+00
 -4.5541945e+00
  3.5836071e-01
 -1.8406579e+00
  1.0038196e+00
 -2.2680123e+00
  1.6627926e+00
  1.0800503e+00
  4.9287586e+00
 -1.0496562e+00
  2.7808151e-01
  7.9083240e-01
  6.4531916e-01
  1.8542545e+00
 -9.4408041e-01
  1.0048249e+00
 -5.7222670e-01
 -5.9231001e-01
 -3.6921856e-01
  2.3459297e-02
  2.5829010e+00
 -1.4728761e-01
  8.3727345e-02
  5.3683394e-01
  4.6586403e-01
  1.5758744e+00
  1.4206228e+00
 -1.9717855e+00
 -5.1842341e+00
  8.6263877e-01
 -4.5684823e-01
 -7.8641824e-02
 -2.0417561e-01
  5.5181098e-01
 -1.6557524e-01
  4.4799703e-01
  1.9561446e+00
 -1.9309608e+00
 -4.2248645e-01
 -2.5500636e+00
 -3.5887517e-02
  5.8515563e+00
 -3.5761709e+00
 -1.8833711e+00
  3.7272136e+00
  5.2700219e+00
 -2.1155052e+00
  4.2811699e+00
  1.2401664e+00
  4.5731625e-01
 -3.9830966e+00
 -4.2217841e+00
 -2.2709527e+00
  2.2208970e+00
 -1.0854517e+00
 -1.4329402e-01
 -2.1320024e+00
 -6.3042253e-01
 -1.6813084e+00
 -2.4570189e+00
  2.1844804e+00
 -2.1761081e+00
 -9.9589694e-03
 -9.9740160e-01
 -7.2901577e-01
  4.6873149e-01
  1.0465416e-01
  2.8821084e+00
 -1.1677296e-01
  1.1233150e+00
  1.4627177e+00
 -2.1634007e+00
  9.1761178e-01
 -2.4495788e+00
  3.3906765e-02
 -4.5216665e+00
 -2.9182999e+00
 -1.4439414e+00
 -2.8892341e+00
  4.3457341e-01
 -1.1240516e-01
  4.1151028e+00
  1.4013050e+00
 -1.2180206e+00
 -6.0056772e+00
 -1.8947812e+00
 -3.2714656e-01
 -2.8987749e+00
  4.1990247e-01
 -2.2425058e+00
 -3.9578991e+00
  2.9131410e-01
  4.9532703e-01
  9.8854011e-01
 -2.1151381e+00
 -2.7148303e-01
 -1.1320970e-01
 -4.4722557e-01
  3.3205161e+00
  5.5674094e-01
 -6.2030113e-01
  6.1511695e-01
 -3.9895090e-01
 -9.5170513e-02
 -2.3449435e+00
 -1.4873111e+00
 -1.0726944e+00
  4.5985204e-01
  2.5270775e-02
  5.2851874e-01
  2.3196111e+00
 -1.0033311e+00
  3.9466538e-02
 -4.4053006e-01
  2.4628167e+00
 -3.2556951e-01
 -3.6245155e-01
  1.6156423e+00
 -2.7709058e-01
  1.7572896e+00
 -1.7844071e+00
 -7.6878029e-01
  1.3674060e+00
 -2.5985963e+00
 -3.2325216e-02
 -1.7795812e+00
  3.9440241e-01
  1.0370893e+00
 -2.7374676e-01
  5.7771535e+00
 -5.5761117e-02
 -1.7701265e+00
  1.6627172e+00
  4.1698668e-02
 -5.8624727e-01
  9.9601299e-01
  2.8264844e-01
 -2.4104764e+00
 -2.7606449e-01
 -5.8579755e-01
 -1.1033189e+00
  1.0114932e-01
  1.0965948e+00
 -1.1262003e+00
  2.3080574e-01
  9.3680972e-01
  3.9011216e-01
  4.1941297e-01
 -1.2507531e-01
 -4.1314504e-01
 -2.5527653e-01
 -2.6211780e-01
  2.0455077e+00
 -1.7785962e-01
  4.7320077e-01
 -8.7423736e-01
 -3.1961472e+00
 -5.4287591e+00
  2.3464589e+00
  1.8970613e+00
 -1.2197081e+00
 -1.7327617e-01
 -1.2302388e+00
  7.7315912e-02
  4.3533045e-01
 -7.8335315e-01
  1.3965254e+00
 -2.1496043e+00
  1.8717203e+00
 -5.6151175e+00
  3.2985032e-01
 -4.0750429e-01
 -2.7351210e-01
  5.0707656e-01
 -2.1977141e+00
  3.0398467e+00
 -4.8363824e+00
  1.4533670e+00
  3.9352104e-01
  1.5997659e+00
 -4.5081930e+00
 -1.5524791e+00
  1.6136794e+00
 -3.0487922e-01
 -1.8726051e+00
 -2.3608899e-01
  6.2455678e-01
 -6.1527121e-01
  3.5765235e+00
 -3.2474840e+00
 -1.0967481e+00
  2.4798317e-01
  3.9394307e+00
 -2.0973003e+00
 -2.1075356e+00
 -3.0543766e+00
  9.8071653e-01
  5.2325064e-01
 -3.8922589e-02
  1.6862864e+00
 -4.4061431e-01
  2.9829848e-01
 -8.1519431e-01
  3.8863313e-01
 -2.9073218e-01
  2.7197366e+00
 -2.6061573e+00
  2.0817661e+00
 -4.1880984e+00
  1.7738432e+00
  4.4141092e+00
  4.5061264e+00
  3.1292474e+00
 -4.1637073e+00
  1.1791749e+00
  1.4593015e+00
 -5.5220401e-01
  1.2168896e+00
  2.2589574e+00
 -2.3539860e+00
  4.4381222e-01
 -1.7905072e+00
 -2.2768555e+00
 -4.1508484e+00
  1.9251937e+00
 -2.4442389e+00
  1.4138956e-01
  1.4481053e+00
  4.5406136e-01
  9.7222678e-02
 -1.4132684e+00
 -7.8064781e-01
  7.5311565e-01
  7.9542172e-01
  1.7540004e+00
 -2.6028388e+00
 -6.3927293e-01
  5.9028244e-01
 -2.2153120e-01
  1.5054284e+00
 -2.5477128e-02
 -1.8427554e-01
  3.6510956e+00
  6.1280394e-01
  3.2736421e+00
  1.9785976e-02
 -2.1979868e-01
  4.2578954e-02
  1.1768578e+00
 -5.6967241e-01
 -5.9012246e-01
  4.0213017e+00
 -1.2527158e+00
 -3.5382697e-01
 -9.4139779e-01
  1.7349564e+00
  3.6259127e-01
 -1.0561978e+00
  2.3489707e+00
  3.5681334e-01
 -2.3097115e+00
 -3.1918161e+00
 -1.2164160e+00
  1.8272425e+00
 -4.8153949e+00
 -2.3429453e+00
  2.5518129e+00
  1.3679992e+00
  1.1914452e+00
 -3.0280292e-01
  3.2288203e-01
  3.5390637e+00
  6.3716763e-01
  6.6169456e-02
  1.3031161e+00
  2.1544740e+00
  5.4755878e-01
  1.1147583e+00
 -4.6405861e-01
  2.0002124e+00
 -4.1182271e-01
 -2.8504500e+00
 -2.2741938e+00
  5.9751731e-01
  3.6133397e+00
 -1.0617825e-01
  3.5046756e+00
  4.0788475e-01
  3.2618308e-01
 -4.4035754e-01
  4.3911472e-01
 -6.8214536e-01
  1.0679233e+00
 -8.3961301e-02
 -1.7214593e+00
  2.4221709e+00
  5.2304511e+00
  2.2701695e+00
 -2.6934726e+00
  7.3160112e-01
 -4.1429377e+00
  2.8669519e+00
 -6.3094668e-02
  5.1476574e+00
  2.5024881e+00
 -8.3168554e+00
  4.6274452e+00
  2.4136536e+00
 -3.0035603e+00
  1.7645530e+00
  6.5239520e+00
  3.0730553e+00
 -3.0520923e+00
  1.4628406e+00
  1.9341261e+00
 -8.6831784e-01
  5.8784475e+00
  5.1210461e+00
  1.7903192e+00
 -4.5478666e-01
  4.7422951e-01
  1.9632574e+00
  2.6312175e+00
  1.7506659e+00
  2.9985960e+00
  3.1045231e-01
  1.6746380e+00
  2.0418115e+00
  5.6359520e+00
  5.2249944e-01
  2.3904459e+00
  1.3658928e+00
  2.1757030e+00
  7.3649979e-01
  3.4756160e+00
  8.1195718e-01
  2.1207857e+00
 -4.2449540e-01
 -3.4737343e-01
  1.0008405e+00
 -6.3345343e-01
 -4.7310990e-01
 -1.4373347e-01
  1.4400550e+00
  8.6513393e-02
  2.4991858e+00
  3.3494778e+00
  1.7002128e-01
  1.3660469e+00
 -1.9011455e+00
  1.8984090e-01
  3.2689664e+00
 -6.5540087e-01
 -2.6906011e-01
 -2.6727346e-01
  2.6803513e+00
  1.2514288e+00
 -3.2805917e+00
 -3.8016337e-01
 -3.0748215e+00
 -2.8333263e+00
  5.3769865e+00
  2.1102996e-01
 -1.2700346e+00
 -1.1619924e+00
 -3.7966676e+00
 -1.3413750e+00
 -9.1130120e-01
 -4.8125678e-01
 -5.5464406e-02
  2.5414894e+00
 -3.3665254e+00
  1.3646820e+00
  8.4945470e-01
 -2.1759241e+00
 -1.6021750e+00
 -9.5085971e-02
  3.2381785e+00
 -3.0627453e+00
  1.0753112e+00
 -8.6599493e-01
  1.7901552e+00
  2.2799132e+00
 -1.9780782e-01
  1.8121880e+00
 -3.7756326e+00
  1.3257824e+00
 -1.5564747e+00
  7.1130490e-01
 -1.2848105e+00
 -1.7542366e+00
  9.1638798e-01
 -7.0165014e-01
  3.8397021e+00
 -6.4728576e-01
 -9.6285105e-01
  3.3686299e+00
 -3.3139269e+00
  1.8064618e+00
  8.7025219e-01
  1.8663386e+00
 -1.1025187e+00
  8.8748461e-01
  3.8057051e+00
  1.1135037e+00
  7.6938504e-01
  6.8337684e+00
  4.9883156e+00
  5.8403139e+00
  5.6166434e-01
 -2.5224775e-01
 -1.6758043e-01
 -1.3634765e+00
 -5.2892804e-01
 -6.1272353e-01
 -2.4423029e-01
  4.7470099e-01
 -7.0154685e-01
  4.5242923e-01
 -1.1615509e-01
 -2.8116751e+00
 -1.8427916e+00
  1.1202940e-01
 -1.4481230e+00
 -3.6641853e+00
  3.3303819e+00
  6.2793809e-01
 -1.8118631e+00
 -2.3858173e+00
  1.0313964e+00
  7.5895183e-02
 -2.2319403e-01
  7.0308218e+00
  2.4600046e+00
 -7.0209736e-01
  6.4862776e-01
 -1.6046598e+00
  2.0406814e-01
  5.4746288e-01
 -3.5014327e+00
  2.1095535e-01
 -8.6578000e-01
  1.2212130e+00
  3.9548632e-02
 -1.2499444e+00
 -8.8881028e-01
 -1.4935782e-02
  2.3407652e+00
  1.4647324e-01
 -1.9226347e-01
 -4.4639575e-01
 -7.4746233e-01
 -5.1265234e-01
  1.8238032e+00
  2.3906925e+00
  3.4584398e+00
  3.3071227e+00
 -1.7949550e+00
  2.1103268e+00
  3.0139962e-01
  5.8520681e-01
  3.3883395e+00
  4.9853320e+00
  1.0283906e+00
  2.0622408e+00
  2.8545344e+00
 -4.0260842e-01
 -6.1195356e-01
 -4.2607818e+00
  2.6594453e+00
 -1.9713401e+00
  3.1942153e+00
 -1.0928936e+00
  1.3025365e+00
 -5.3775983e+00
  3.0988438e+00
  2.0696716e+00
  2.1062393e-01
  2.6660047e+00
 -2.5789204e+00
 -7.4383304e-02
 -9.4581163e-01
  1.0366658e+00
  3.3189604e+00
  4.9011895e-01
 -1.2988859e+00
  2.5662148e+00
  2.1100659e+00
 -1.2651724e-01
  2.7796447e+00
  2.3544505e+00
 -1.8920340e-01
 -1.0058960e+00
  3.5117235e+00
 -6.8053627e-01
 -2.3826478e+00
  1.4478126e-01
  3.8420546e-01
  2.0597427e+00
 -5.1258283e+00
 -4.7285837e-01
 -5.5110211e+00
  4.5019948e-01
 -3.1602304e+00
  2.2915008e+00
 -1.7911738e+00
  5.8847651e+00
 -2.5811872e-01
 -1.1780056e+00
  1.8351154e+00
  2.8460083e+00
 -7.7301818e-01
  1.6736488e-01
 -1.3689728e+00
  5.0311822e-01
 -2.0159290e+00
 -3.2917755e+00
 -1.6369480e+00
  2.9802507e-01
 -6.9906014e-01
 -3.2719953e+00
  3.1315100e+00
  4.7072086e+00
 -2.9289510e+00
  2.7441084e+00
  1.7537035e+00
 -1.1534410e+00
 -4.4895310e+00
 -2.7351138e-01
  1.7124982e+00
  1.0383833e-02
 -6.9798142e-01
  9.3107927e-01
 -1.1012361e+00
 -1.9527230e+00
  1.5341607e+00
 -5.5304486e-01
 -9.2059630e-01
  1.6870778e-02
 -2.5552796e-02
 -2.8485465e-01
  6.5150833e-01
 -2.0934532e+00
 -8.2001776e-01
  2.2690758e-01
  3.0052838e-01
  1.9402339e-01
 -3.7544674e-01
 -1.0894969e+00
  1.0183132e-01
  1.4113007e-01
  8.2120603e-01
  1.3751628e+00
 -1.1231903e+00
  1.0267950e+00
 -7.0742488e-01
  1.1913671e+00
 -9.3933421e-01
  8.1699871e-02
 -1.6475619e+00
  3.2305706e-01
  1.7488551e-01
 -2.4681745e+00
  1.5214531e-01
  1.7142277e+00
 -4.9701601e-01
 -8.7164456e-01
 -1.2557580e+00
 -7.8267872e-01
  1.4243665e+00
 -9.9502772e-01
 -1.3236251e+00
  1.6469799e+00
  3.1479154e+00
  3.0948776e-01
 -4.6297094e-01
 -3.1342772e-01
  2.6350403e+00
 -4.1877890e+00
 -2.0344858e-01
  1.0976220e+00
  2.3691850e+00
 -1.6395313e+00
  1.4132749e+00
 -2.3201969e+00
 -1.5421737e+00
 -6.9948220e-01
 -6.6765302e-01
  4.5905166e+00
  1.6229624e+00
  3.1094556e+00
 -1.2138912e-02
  1.4381244e+00
  8.1649816e-01
 -3.9281181e-01
 -2.3759484e-01
 -3.6383635e-01
  3.2881820e+00
  4.5427924e-01
 -4.3897122e-02
 -2.6032367e+00
  6.8296237e+00
 -2.3992510e+00
  5.5344409e-01
 -2.3257074e+00
  1.6367854e+00
 -2.6273782e+00
 -3.0339615e+00
 -4.8777676e+00
 -1.2367587e+00
 -1.7867033e+00
 -1.0765146e+00
  9.2353627e-02
 -1.0158038e+00
 -2.4671329e-02
  4.1700822e-01
  1.8804781e+00
 -8.5661024e-01
 -2.4073493e+00
  2.2019282e-01
 -2.8626969e-01
 -3.1227934e-01
  1.1532816e+00
 -5.3701730e+00
 -2.3711139e-01
 -4.4961771e-01
 -1.4554243e+00
 -2.5092113e-01
 -7.3456472e-01
  5.1196451e+00
  1.4013584e+00
 -1.3144789e+00
  3.0249176e+00
  1.0281225e+00
  1.3424212e+00
 -5.0259000e-01
  9.2273638e-02
  1.0321510e+00
 -1.0099554e-01
 -1.2804247e-01
  8.8128203e-01
 -5.1813602e+00
  2.2958788e-01
 -3.3095233e+00
  3.1426518e+00
  8.4704596e-01
  1.7393298e+00
  4.4294614e-01
 -1.8854873e+00
 -9.8948824e-01
 -3.7614778e-01
 -5.0432092e-01
  2.4485745e+00
 -5.6577559e+00
  1.2085603e+00
  7.3361039e-01
 -1.3113351e+00
 -1.4424331e+00
  3.7480731e-02
  9.4740391e-01
  3.0120003e-01
  5.8927572e-01
 -4.1416457e-01
 -4.1061597e+00
  1.1939090e+00
 -9.8894846e-01
  9.8299372e-01
 -5.0338352e-01
  1.8831209e+00
  1.9712312e+00
 -4.0247755e+00
  5.7739240e-01
  1.8989708e+00
 -1.7305347e-01
 -1.1911147e+00
 -6.4034190e+00
 -7.3708886e-01
  1.9654038e+00
 -5.9833133e-01
  1.0517585e+00
 -4.0847530e+00
  1.0388157e+00
  2.3961480e-01
 -5.8453220e-01
  1.6611841e-01
  5.8182646e-02
  6.6926485e-01
  1.3158209e+00
 -1.9948265e-01
 -8.4099263e-01
 -2.9632204e+00
  1.2522516e+00
  3.0444957e-02
 -7.2421208e-02
 -1.5652554e+00
  5.5018210e-01
 -1.3365708e-01
  1.5318615e+00
  5.1182914e-01
 -4.0526515e-01
 -2.0286298e+00
  1.1611764e+00
 -3.8733120e+00
  1.8128698e+00
  1.2356538e+00
 -9.3927014e-01
 -2.0725162e+00
 -2.6413372e+00
  2.7853759e-02
 -2.8898069e-01
 -6.5613079e-01
 -1.8126285e-01
  3.4935409e-01
  3.4198871e-01
  7.5227845e-01
 -3.9152595e-01
  5.7877951e+00
  2.3607855e+00
 -1.8501683e-01
 -1.9589387e-01
  6.7087317e-01
 -2.7274802e+00
 -4.1946754e+00
  3.9170012e+00
 -4.5031160e-01
  4.7070557e-01
  1.0815297e+00
 -9.7834989e-02
  5.3971581e+00
 -1.0672133e+00
 -1.5646913e+00
  4.5362015e+00
 -2.9952354e+00
  9.7336006e-01
  1.0915782e+00
  3.2778835e-01
 -3.1711364e-01
  1.5907398e+00
  2.2856817e+00
 -3.2912006e+00
 -2.9593045e-01
  3.6030763e-01
 -3.9568472e-01
  2.8208756e-01
  6.0019064e-01
 -1.0753812e-01
  1.8364623e-01
  3.7536137e+00
  5.8390217e+00
  2.3771462e+00
  1.5686901e-01
  1.2885091e+00
 -7.8235269e-01
  3.2712994e+00
  1.9452739e+00
 -2.4893886e-01
  7.8828412e-01
  1.2326666e+00
 -1.0911950e-01
  1.6456931e+00
  2.4248140e+00
  2.7619746e+00
 -1.0993860e+00
  5.5651017e-02
 -7.6007885e-01
  1.6330212e+00
  1.5785761e+00
  1.9820456e-01
 -3.7329483e-01
  6.5613133e-01
  2.5122342e+00
 -3.1397045e+00
  4.7001898e-01
  1.9063786e+00
 -3.4160566e-01
  1.3784950e+00
 -5.5672318e-01
 -2.5284135e+00
 -3.1396281e-02
  6.1135560e-01
  2.2882931e+00
 -3.2084754e+00
  6.8495297e-01
 -4.0519854e-01
  6.4878697e+00
  2.1931727e+00
  8.5071015e-01
 -5.8822566e-01
 -6.7980802e-01
  8.8885561e-02
  1.2245630e+00
  1.2043153e+00
  3.1801667e+00
  5.8388519e-01
 -3.4417671e-01
  7.5211298e-01
 -1.2719902e+00
  1.9291092e-01
 -3.3318324e+00
 -3.1222856e+00
 -2.4047809e+00
 -2.6804930e-01
  1.0878609e+00
  2.2947748e+00
  3.3409562e+00
 -7.7047557e-02
 -2.9917982e+00
 -2.9466465e+00
  1.4560552e+00
  3.3481102e+00
  3.1691146e-01
 -2.6726530e+00
 -3.0425696e+00
 -6.4627033e-01
 -8.9361792e+00
 -2.1446374e-01
  1.0322893e+00
 -3.1055958e+00
  2.5143382e-01
 -8.8700294e-01
  2.9200158e-01
  1.0999956e+00
  5.9924871e-01
 -4.7846591e-01
 -1.8907708e+00
 -3.4309902e+00
 -4.9658412e-01
  1.9563576e+00
 -7.0750302e-01
 -2.9221148e+00
  5.2330333e-01
 -1.9630532e+00
  1.2393478e+00
 -1.5644902e+00
  9.1072428e-01
 -4.6867213e+00
  2.1726153e+00
  4.0580759e+00
 -3.0410657e+00
 -1.8077821e+00
  7.3656666e-01
 -1.8532636e+00
  1.5060087e-02
 -8.7852001e-01
  3.4861571e-01
 -1.0451856e+00
  2.0766840e+00
 -4.8634586e-01
  5.3408571e-02
  9.0469204e-02
 -1.2626606e-01
  1.6862259e+00
  3.7203568e-01
 -5.0541129e+00
  1.2429299e+00
 -6.2324414e+00
  4.6243796e+00
  1.6413507e+00
 -9.9913925e-01
  4.9701281e+00
  1.5183060e+00
 -4.8163629e+00
  1.2890804e+00
  5.0795031e+00
  3.1444266e+00
  2.8492973e+00
 -2.3145227e+00
  3.0043855e+00
  5.1805037e-01
  2.1251376e+00
  8.5180843e-01
  1.7444541e+00
 -5.9673345e-01
 -1.6727085e+00
  1.5662996e+00
 -4.8091182e-01
  1.4610565e+00
  1.5600829e+00
 -1.0613928e+00
  3.4277534e+00
 -3.0261040e-01
 -7.9451060e-01
 -1.3377168e+00
  3.9419773e+00
 -1.1196793e+00
 -2.0437799e+00
 -4.5055297e-01
  3.2349043e+00
  1.9816605e+00
 -3.6864445e+00
  9.6322638e-01
 -2.6535387e+00
  3.8145435e+00
  3.6812570e+00
  8.9023232e-01
 -3.5039291e-01
 -1.2377146e+00
 -1.9106895e-01
 -5.5416483e-01
 -4.3513823e-01
  4.9851971e+00
  6.4643204e-02
  1.3248366e+00
  4.7767314e-01
 -1.0135549e+00
 -1.9476178e+00
  4.1225716e-02
  1.0581769e+00
  1.0251966e-01
 -8.4576124e-01
  1.6089185e-01
  5.1697221e+00
  1.9516608e+00
 -1.6855891e+00
 -4.6018295e+00
 -2.8110926e+00
 -7.3105417e-02
 -4.2048731e+00
 -1.2973558e+00
 -4.4778280e+00
  3.9129868e+00
 -8.2475233e-01
  9.0471578e-01
  5.6973267e-01
 -1.2713486e+00
  2.0549738e+00
 -3.2693667e+00
 -1.0798316e+00
  3.1007418e-01
  3.5304604e+00
 -3.6772552e-01
  6.8162233e-02
  1.1910515e+00
  2.4340899e+00
 -1.4391682e+00
 -3.5135341e+00
  1.3428358e+00
 -3.4435701e-01
 -1.3390766e+00
  1.6337602e+00
 -4.9597626e+00
 -1.2457942e+00
 -1.1851289e+00
 -7.9524016e-01
 -2.8822110e+00
  2.1079631e+00
  6.6514623e-01
 -1.4724232e+00
  3.6142871e-01
  3.8778320e-01
 -1.5401472e-01
  4.9499780e-01
 -6.1024255e-01
 -2.0491401e-02
 -7.1067154e-01
  1.2372314e-01
  2.7385132e+00
 -1.6361649e+00
  7.9168969e-01
 -8.7117419e-02
 -3.5685861e-01
  6.1664689e-02
 -1.3326349e+00
  2.6638935e+00
 -2.5941551e-01
 -8.5641101e-02
 -2.5617251e-01
 -1.3075517e+00
  8.0960131e-01
  1.0371636e+00
 -1.5484029e-01
  1.6703074e+00
 -1.6516088e-02
  1.8135405e-01
 -5.5951339e-01
 -4.5938315e+00
 -3.9179909e-01
 -6.8753704e-02
  1.1851610e+00
 -1.2268189e+00
  3.1371853e-01
  7.7173099e-02
  2.8339535e-01
 -8.9890128e-01
 -1.5235363e+00
 -1.1096230e+00
 -2.1958251e+00
  2.1801004e-01
 -2.2750156e-01
  1.3165731e+00
 -3.1664923e-01
 -7.1396929e-01
  1.3687154e+00
 -1.2817713e+00
 -1.3243705e-01
 -2.6632488e+00
  1.4545711e+00
  1.5336365e+00
 -3.9704552e+00
 -1.4152899e+00
 -1.5823390e-01
 -7.2742350e-02
  5.9111781e+00
  1.1001132e+00
 -6.9600499e-01
 -1.5224385e+00
 -2.3786061e+00
 -8.4954733e-01
 -1.7843902e+00
 -2.8833959e+00
 -4.8632803e+00
  3.9793959e-01
  1.5120564e+00
  1.0813560e+00
 -2.6741695e+00
 -1.2756516e+00
 -3.3802936e+00
  4.7784528e-01
  4.2445083e+00
  6.8290794e-01
  1.9157043e+00
 -1.3576070e+00
 -6.9113590e-02
 -1.2855072e+00
 -2.5660431e+00
 -1.5055700e-01
 -3.5402598e+00
 -1.8101285e+00
 -5.6697365e-02
  1.7145549e+00
 -1.4955442e+00
 -1.2616487e+00
 -1.5212756e-01
  4.8548946e-01
 -2.1890295e+00
  2.6051091e-02
  6.1496940e+00
 -1.2205058e+00
  4.3195257e+00
 -4.2373568e-02
  3.3993022e+00
 -1.6095933e+00
  3.5151501e+00
  2.7665749e-01
  1.1031054e+00
  3.1717384e-01
  1.4043041e-01
 -1.4192207e+00
  1.0650160e+00
  3.0681831e-01
  3.3069332e+00
 -1.4247364e+00
  3.8160008e-01
  3.1922773e-01
 -7.0697188e-01
 -2.4950995e-01
  1.4386830e+00
 -3.0535135e+00
  9.7625309e-01
 -7.0436430e-01
 -1.1192396e+00
 -3.6680233e-01
 -1.7993258e-01
  4.1118872e-01
  3.3326745e+00
  2.1253524e+00
 -3.9780912e-01
  2.6781518e+00
 -1.4898190e+00
 -3.5564246e+00
 -2.4560084e+00
  6.1082238e-01
 -1.4974359e-01
  3.4060562e-01
 -1.2119600e-01
 -7.2330147e-01
  3.7350786e-01
  1.7410187e-01
 -1.5434678e-01
 -3.2310447e-01
 -2.5929692e-01
  1.7398764e+00
  5.6237435e-01
  5.3330195e-01
  3.6174951e+00
 -1.0373948e+00
  3.2609932e+00
  2.2400148e+00
 -1.5602838e+00
 -2.3578844e+00
 -2.7312233e+00
 -2.4747818e+00
  3.2435176e-01
  4.3410497e+00
 -3.4572241e+00
 -1.5869856e+00
 -9.3070515e-02
  2.9141612e+00
  6.4759660e+00
  1.8478296e+00
  1.9639677e+00
  1.1290982e+00
  1.4875177e-01
  9.4776005e-01
 -1.8872844e+00
  4.1715789e+00
 -3.0458307e-01
 -3.1929748e+00
 -1.1305202e+00
 -1.2569561e+00
 -5.5012256e-01
  1.5675617e+00
 -1.7161217e+00
 -3.2423482e+00
 -9.2798173e-01
 -1.4683235e-01
  3.2880576e+00
  3.0951926e-01
 -2.1522708e-01
  6.5281641e-01
 -1.1086005e+00
 -2.8672495e-01
 -1.4716926e+00
 -6.9280893e-02
 -1.4169661e+00
  2.3359559e+00
 -2.4314080e-01
 -2.6579735e+00
 -4.8708234e+00
  2.7492723e+00
 -2.6830795e-01
 -4.8257762e-01
  4.8213983e+00
 -8.0148249e+00
 -3.7830451e+00
  1.2563618e+00
 -5.8380523e+00
 -3.4323869e+00
 -6.4324951e-01
 -3.5131171e-01
 -4.6002731e-01
 -6.9091278e-01
  2.6753661e-01
  4.7682384e-01
 -7.8497803e-01
  1.3285218e+00
 -1.9798992e+00
  3.9102799e-01
  4.1041121e-01
  7.5232856e-02
 -5.2274209e-01
  1.7226914e+00
 -2.8053689e-01
  2.9523237e+00
  1.0789646e+00
 -1.5994194e+00
 -1.3360265e+00
 -1.3022655e+00
 -1.7337115e+00
  7.2726732e-01
  2.3292079e+00
  2.2500150e+00
  1.0789210e+00
  1.4660926e+00
 -1.7789665e+00
  1.3637840e+00
  1.6600177e+00
  5.2342874e-01
 -1.8072894e+00
  9.2400745e-02
 -1.9451782e+00
 -1.3490368e+00
 -4.4675472e-01
 -1.1201470e+00
 -3.4031612e-01
 -1.2937863e+00
  7.6660752e-01
 -3.7977472e-01
  1.4021077e+00
  1.5974755e+00
  3.8884845e-01
 -1.9600858e-01
  4.7328639e-01
  1.0233096e+00
  6.3186336e-01
  2.3685353e+00
  2.0783358e+00
  4.3569955e-01
 -2.8304701e+00
 -1.7147183e+00
  1.0607897e-01
 -2.7787027e+00
  4.3078952e+00
  7.7500385e-01
  9.9740517e-01
 -2.7833323e+00
  1.0570251e+00
  2.7468321e-01
 -9.3868172e-01
 -3.0371746e-01
  1.6387321e+00
  7.0106201e-02
 -3.3351573e-01
 -1.6173165e+00
  1.5050871e+00
  6.3598746e-01
  4.5372599e-01
 -2.1618587e-01
  3.1099520e+00
 -1.7384205e+00
  6.1510187e-01
  6.0392952e-01
  3.4839222e-01
  2.6817742e-01
  8.7485969e-01
 -4.4990106e+00
 -8.9452386e-01
 -1.9997877e+00
  5.1182122e+00
  2.7675936e-01
  5.9661698e-01
 -3.0480263e-01
  1.3134007e-01
  1.5739800e+00
 -9.3505090e-01
 -6.2361795e-01
  2.9415801e-01
  1.6112059e-01
  8.8976526e-01
 -1.7366018e+00
  5.6181276e-01
 -5.7089357e+00
 -8.5177952e-01
 -9.1464669e-01
  4.6178069e+00
  2.5532918e+00
 -4.7570363e-01
 -4.8361225e+00
 -1.6908157e+00
  9.6486866e-01
 -5.5774075e-01
  4.7000137e-01
 -1.8664734e-01
 -3.8279110e-01
  2.8370199e+00
 -2.7184865e-01
  5.0014925e+00
 -9.1815996e-01
  1.5016774e+00
 -2.4309811e-01
  1.1691958e+00
  3.4763774e-01
  2.5836504e-01
  1.3509824e+00
 -1.8497188e-01
 -9.2327185e-03
 -7.9893190e-01
  1.2741652e-01
  2.9924693e+00
  1.2964765e+00
  2.1847038e+00
 -2.6377208e+00
 -7.2709042e-01
  1.4107062e-01
 -4.7080013e-01
 -1.2518797e+00
 -1.5131038e+00
 -1.8856164e+00
 -1.5812234e+00
  7.1168762e-01
 -3.8462386e-01
 -3.9781957e+00
 -2.4968326e+00
  5.0061667e-01
  5.3385931e-01
 -7.8854704e-01
 -2.0338042e+00
 -6.3705611e-01
 -2.0823467e+00
 -1.3551828e+00
  2.6365895e+00
 -7.4814104e-02
 -2.0746500e+00
 -2.8990832e-01
 -5.7065094e-01
 -1.1209797e+00
  2.8272612e+00
  6.8000782e-01
  1.5418597e+00
  7.7571726e-01
 -1.0693491e+00
 -2.9920852e+00
 -8.5663241e-01
 -1.5323614e+00
  5.5673981e-01
  5.0506097e-01
 -1.9184459e+00
 -2.4193137e+00
  3.5132685e+00
 -2.9108140e-01
 -1.4905591e+00
  1.0727473e-02
  1.4845847e+00
  1.3077450e+00
  7.4135917e-01
 -9.2146313e-01
  4.5329905e+00
 -1.6987255e-01
 -1.0997039e-01
  8.1181517e+00
 -1.1063353e+00
 -1.2386969e+00
 -1.0178763e+00
  1.5484105e-01
  1.6375018e+00
 -5.0313115e+00
 -5.3769388e+00
  2.5437043e+00
 -4.8440719e+00
 -2.8781348e-01
  1.2840779e+00
 -7.5737154e-01
 -2.1758437e+00
 -1.2164643e+00
 -3.7353232e+00
  3.7741277e+00
 -3.4211922e-01
 -1.0953120e+00
 -3.5652699e+00
 -1.6658840e-01
 -2.5433543e+00
  1.2617657e+00
  3.5248733e+00
  6.7134166e-01
 -1.9933844e+00
 -3.4653325e-02
 -1.8239661e+00
  4.0975266e+00
  2.4789405e+00
 -1.6622754e+00
  1.6901104e-02
 -1.0466671e-01
 -1.7466354e+00
 -1.4253660e+00
  1.0465316e-01
  2.9915180e+00
 -5.8071107e-01
  2.4231958e-01
  7.5259495e-01
  1.7999150e+00
 -1.9369731e+00
 -6.9852716e-01
  2.9187948e-01
 -2.8764465e-01
  7.6429439e-01
  4.5697731e-01
 -1.7419101e+00
  5.6237561e-01
  9.8189145e-02
  1.6556485e-01
  7.9138660e-01
 -7.0498997e-01
 -1.3690391e+00
 -1.9583393e+00
  1.2802768e-01
  3.7431222e-01
  1.0176282e-01
 -3.8623157e-01
 -1.7442833e+00
 -3.0648556e+00
 -2.8064069e-01
 -8.5505974e-01
 -2.1020489e+00
 -1.1458255e-01
  2.2864006e-01
 -6.5248722e-01
  1.0380965e+00
  1.5673859e+00
 -9.3295097e-01
 -2.1237548e-01
  3.4585383e+00
 -1.1565260e-02
  2.7323370e+00
  2.3503824e-01
 -1.5700111e+00
  3.2056777e+00
 -8.2977676e-01
 -5.8644829e+00
 -1.3374141e+00
  3.0138323e-02
 -3.1832954e-01
  9.1437869e-02
  2.0214994e+00
  6.3889132e+00
  5.9106221e+00
 -7.9013091e-01
 -2.5507052e+00
  4.4537635e+00
  2.4151139e+00
  1.9122827e+00
  1.3552983e+00
  3.4951587e+00
 -3.2095358e-01
  1.2382725e+00
 -9.1930979e-01
  8.2576834e-02
 -6.0788947e-01
  2.9792896e-01
 -7.7819932e-01
  6.6962251e-03
 -1.1634411e-01
  3.7222603e-01
  2.9665852e+00
  8.5039681e-01
  1.4483548e+00
 -4.4626641e+00
  1.3513058e+00
 -3.0799076e-01
  1.7406256e-01
 -1.1115861e-01
 -1.9836237e+00
 -7.0795141e-02
 -6.9404948e-01
  4.6812648e-01
  1.0195814e+00
 -1.0225873e+00
  1.4115192e-01
  2.3449593e+00
  2.0813325e-01
  2.4500885e+00
 -1.7013315e-02
  4.6975412e+00
 -4.0215889e-01
 -2.9089468e+00
 -5.8434600e-01
 -4.2396119e-01
 -9.9938607e-01
 -1.0641391e+00
 -8.6720318e-02
  1.0541881e-01
 -2.8604510e+00
 -2.8092222e-02
  3.1705718e+00
 -4.2213078e+00
 -1.4436606e+00
 -3.2966218e+00
 -1.9189051e+00
  1.8571428e+00
 -1.4111292e+00
  2.8108413e+00
  1.6349101e+00
  5.2408199e-04
  3.0313497e+00
 -4.4894092e-02
 -2.0017200e+00
 -3.2075825e-01
 -1.2040447e+00
 -2.1324627e+00
 -6.0108620e-01
 -5.0238281e-01
  1.2378156e+00
  9.2802382e-01
 -1.8515377e+00
 -3.6690745e-01
  4.8087958e-01
  2.0845132e+00
 -1.6524658e+00
 -1.1949563e-01
  6.5100133e-02
 -1.7015694e+00
  2.0349877e+00
 -4.3925930e-02
 -2.6084175e+00
 -2.6378363e-01
  6.5899401e+00
 -1.4863955e+00
  3.6154253e+00
  7.9769328e-02
  1.3240134e+00
 -9.9591339e-01
 -9.9488872e-01
  5.1829085e+00
  1.8321598e+00
 -4.6465530e+00
  1.4004058e-01
  4.4156608e-01
 -2.8410516e+00
  4.6918008e-02
  9.1369420e-01
 -5.3886724e-01
  3.3862791e+00
 -2.5926642e-02
  1.1177725e+00
  2.3099709e-02
  1.6267169e-01
 -9.9690515e-01
  2.9893928e+00
  9.4541162e-01
  5.7307363e-01
  2.0438290e-01
 -5.3775716e-03
 -2.4031596e+00
  3.6190698e-01
 -7.0269442e-01
  1.5374818e-01
  1.4717045e+00
  7.9945419e-03
 -2.5230601e-01
  4.1186042e+00
 -7.0734888e-01
 -2.3635645e-01
  2.4615188e+00
  2.1913235e-01
  9.0501618e-01
  5.2229304e+00
  6.3538373e-01
 -6.7323983e-01
 -4.2779522e+00
 -3.7839472e+00
 -2.2416229e+00
 -2.4937577e+00
  1.0302517e+00
  2.5893751e-01
 -1.0448996e+00
 -1.1523933e+00
 -2.3823814e+00
  2.4681696e-01
 -1.9493530e+00
  7.8867507e-01
  4.8408158e-02
 -2.6812313e+00
 -9.4877996e-02
  3.4672779e-01
 -1.0116677e-01
  9.4417292e-01
 -1.1497353e+00
  5.2157050e-01
 -8.4096126e-02
  7.8269511e-01
  1.7507006e+00
 -1.2774879e-01
 -2.3029779e-01
  3.4941775e-01
 -1.8136597e+00
 -9.3651228e-02
 -9.2918468e-01
  7.1524072e-01
  2.1663353e+00
 -1.9848150e+00
 -2.0126767e+00
  1.7821531e+00
  2.7254507e-01
 -4.2640638e-01
  5.4438967e-01
 -7.6767999e-01
  8.7907630e-01
  1.2961220e+00
 -1.5607440e+00
  2.5631487e+00
  3.2990265e+00
  1.2754028e+00
  2.7166721e-01
 -1.1187438e+00
 -1.1586004e+00
  7.8860795e-01
  6.2513578e-01
 -2.5067794e-01
  4.8430136e-01
 -6.2710470e-01
  4.4558086e+00
 -6.3925467e-02
 -3.8609186e-01
  1.8542169e+00
  1.3354926e+00
  3.8887709e-01
 -3.5771379e-01
  1.3518000e+00
  5.4727130e+00
 -5.7721883e-01
 -1.3774459e+00
  1.4339596e+00
  2.8472960e+00
 -6.4997993e-02
 -7.4901634e-01
  8.4930843e-01
 -1.3931707e-01
 -8.6324990e-02
  2.5330551e+00
 -7.7294838e-01
  4.9109164e-01
  2.4550451e-01
 -1.3550140e+00
 -2.2725129e-01
 -3.1810039e-01
 -8.5870486e-01
 -4.2773125e-01
  2.6369274e+00
 -3.9048201e-01
 -1.4808508e+00
 -1.5367677e+00
  8.5256565e-01
  2.0074733e-01
  2.7572811e-01
  2.4147272e+00
 -1.8505235e+00
  5.5334878e+00
  1.3768788e-01
 -1.5889956e+00
 -6.1049259e-01
  6.1156279e-01
  1.4853777e+00
  2.1211739e+00
  1.5367731e-01
  8.6553383e-01
  5.3921598e-01
  3.9351967e-01
 -5.5539125e-01
  5.1888436e-01
  1.3198539e+00
 -1.0145324e+00
 -4.6041138e-02
 -1.6434171e+00
  1.2637595e+00
  7.3300004e-01
  6.0751516e-01
 -1.3572825e+00
  5.7890528e-01
  8.6389554e-01
 -6.8849868e-01
  1.9318564e+00
  2.1084026e-01
 -2.0404384e+00
  1.1850551e+00
  3.7102883e+00
  6.4150348e-02
 -4.0175822e-01
 -5.5919075e-01
 -4.2361411e-01
 -2.7397740e+00
 -1.2651250e+00
  2.1067674e+00
  3.0264194e+00
 -1.4591845e+00
 -5.9985793e-01
 -1.0859685e+00
 -1.3003098e+00
 -3.9453695e+00
 -1.8753780e+00
 -2.1045756e-02
  8.6615819e-01
 -1.4994102e+00
  1.9582447e-01
 -1.3973799e+00
  2.2715957e+00
 -1.6179616e+00
 -9.0970981e-01
 -1.8680193e+00
  2.0654716e+00
  3.6072720e-02
 -4.0640559e+00
  7.7026725e-01
  8.8061500e-01
 -3.9839685e-01
 -1.3490053e+00
  5.8987927e+00
 -7.6398957e-01
 -1.6996787e+00
 -3.7421593e-01
  6.3561708e-01
 -4.5394425e+00
  1.0242847e+00
 -1.9251242e+00
 -3.7887783e+00
 -3.2550731e+00
  6.2230051e-01
 -4.4587517e+00
  3.6698680e+00
  1.7166737e+00
 -9.9527878e-01
 -6.9999164e-01
  2.7283075e-01
  1.2370300e+00
  1.6001111e+00
 -5.6584023e-02
  3.9653506e+00
  1.3535856e+00
 -2.1343637e+00
 -1.8735392e+00
  6.7825329e-01
  1.7707497e+00
  5.5930132e-01
 -1.1942103e+00
 -1.5351671e+00
  1.7796997e+00
 -1.8531646e-01
  7.9753387e-01
  2.2946627e+00
  7.1538275e-01
 -1.8037112e-02
 -2.3330054e+00
  9.0516758e-01
 -1.6006497e+00
 -2.9831455e+00
 -8.5960817e-01
 -1.2872238e+00
 -8.7838030e-01
 -1.7641978e+00
  1.0264804e+00
  3.1315973e-01
 -3.9412510e+00
  1.0196012e+00
  4.4378310e-01
  2.4443274e+00
 -6.6715449e-01
 -3.2835970e+00
  1.9826658e+00
 -6.1628371e-01
  2.1065646e-01
  1.9710727e-01
 -1.0181134e+00
  2.8640866e-01
 -1.9145492e-01
  3.0348549e-02
 -1.5576065e+00
  3.8231885e-01
  9.4577837e-01
 -2.8021238e+00
 -1.7267050e+00
  1.3935827e+00
 -3.1100106e-01
 -2.3566337e+00
 -2.1026804e-01
  1.2251673e+00
  8.2776338e-01
  3.8674808e-01
  1.3788111e+00
  2.7466769e+00
 -1.7245530e+00
  2.3577311e+00
  9.4397873e-01
  1.0692056e-01
 -1.5420107e+00
 -4.2132497e-01
 -2.7501833e-01
 -1.7956558e+00
  6.5129942e-01
 -4.8561468e+00
 -1.2025760e+00
 -1.4249223e-01
  3.6443844e+00
  4.2392297e+00
 -3.7053339e+00
 -6.7295575e-01
 -1.2266380e+00
 -2.2143757e+00
  2.5628893e+00
 -6.0985789e-02
 -2.0573666e+00
 -1.4665053e+00
  2.2290006e+00
 -6.1181140e-01
  1.3193220e-01
  2.3304381e+00
  1.3691757e+00
 -3.1311877e+00
  2.3049643e+00
 -8.5762125e-01
 -7.9065478e-01
 -1.1610218e+00
  1.0251126e+00
  9.5257950e-01
  1.6919985e+00
  5.4599953e+00
 -1.6847031e+00
  6.1795610e-01
 -2.5899491e-01
 -8.1641608e-01
  4.1094375e+00
  1.4732305e+00
 -1.6473358e+00
  1.4065000e+00
 -8.6572015e-01
  2.0961139e+00
 -4.3440115e-01
  4.5980749e-01
  5.9160739e-01
 -3.2238451e-01
 -5.2232409e+00
  5.2793777e-01
 -1.9808128e+00
  3.5121839e+00
  5.5743895e+00
  8.1719798e-01
  1.9137601e+00
 -1.3393533e-01
 -1.0427808e+00
 -6.9467324e-01
  2.0489068e+00
 -1.6194162e+00
  4.9445224e-03
 -9.7545892e-01
  6.1191525e+00
  1.2837143e+00
 -9.7304273e-01
  1.0499494e+00
  1.1501384e+00
 -2.4551396e+00
 -4.5618076e+00
  9.8358594e-02
  1.7269382e+00
 -2.0011117e+00
  2.1631093e+00
 -2.0655002e-02
  1.8890361e+00
  8.7615061e-01
  9.7294110e-01
  2.1659997e+00
 -2.4498556e+00
  1.0406134e+00
 -4.9114375e+00
  1.1822131e+00
  3.4180644e-01
 -1.6613231e+00
  2.5017092e+00
 -2.3549480e+00
  2.9549592e+00
  8.5497403e-01
  3.1881177e+00
  1.5172740e+00
 -7.3789823e-01
  3.0663207e+00
  1.4644253e+00
  1.8699244e-02
 -3.9525047e-01
 -1.2037667e-02
  4.8624781e-01
 -3.0437479e+00
 -1.2560543e+00
 -3.9175024e+00
 -7.3863870e-01
  7.7285641e-01
  1.8302474e+00
  2.7862010e+00
  6.4422035e-01
  4.7244734e-01
 -1.9393954e+00
  3.6029088e+00
  9.1402113e-02
 -4.9764019e-01
  8.6561769e-01
 -6.0886989e+00
  5.6601310e+00
 -3.9209387e-01
  4.8407930e-01
  1.6610742e+00
 -1.0902457e+00
  4.8058599e-02
  5.6950831e+00
  2.9979928e+00
 -1.4049956e+00
 -1.1500912e+00
  1.9111611e+00
 -4.5994840e+00
  9.3617749e-01
  2.8109426e+00
 -3.5868542e+00
 -8.8595217e-01
 -1.3513521e+00
  1.0766042e+00
 -1.8099732e+00
 -9.2696798e-01
 -1.1187090e+00
 -4.0533776e+00
 -8.7302580e-02
 -2.4326606e+00
  1.3247139e+00
 -5.4056323e-01
 -5.4294624e+00
 -2.3665413e-01
  5.5392581e-01
  5.5589515e-01
 -1.9349732e+00
 -5.5851097e+00
 -1.4425251e-01
 -4.7265518e-01
  4.2757068e+00
 -4.5787549e+00
  6.2652570e-01
  3.1187119e-02
 -1.5025519e+00
 -3.7657485e+00
  1.4676705e-01
  7.1438205e-01
 -2.2932670e+00
 -3.1200888e+00
  1.9209790e+00
 -7.1111482e-01
 -6.4217269e-01
  2.9590538e-01
  3.4589580e-01
 -3.2614526e-01
 -3.1623499e+00
 -3.2414341e-01
  3.9789994e+00
  1.8808750e+00
  2.0836680e+00
  2.3839672e+00
  2.0935562e+00
  7.9742259e-01
 -1.4931240e+00
  7.1003801e-01
 -2.0701637e+00
  9.1110833e-02
 -3.1076360e+00
  2.6677518e+00
  2.4704617e-01
 -1.2562022e+00
  1.7675239e-01
 -1.6549031e+00
  2.8245023e-01
 -4.7591260e-01
 -4.6900904e-01
 -7.6373184e-01
 -6.7622578e-01
 -3.7241909e-01
  1.2229826e+00
  3.2169515e-01
  1.6610295e+00
 -6.5788257e-01
 -6.1875248e-01
 -2.5702195e+00
  1.0617175e+00
  7.7743917e-03
 -3.2331940e-02
 -2.0755055e+00
  1.8327590e+00
 -1.0527111e-01
 -4.1643327e-01
 -3.2157993e+00
 -3.6546820e-01
  3.2638693e+00
  9.9432671e-01
 -8.7736231e-01
 -4.1519409e-01
 -4.3912318e-02
  8.7674361e-01
  1.8591814e+00
  1.5189039e+00
 -4.5825664e-02
  2.3743002e-01
 -2.0711191e-02
  4.3698554e+00
 -1.5741647e+00
 -1.3775265e+00
  1.0502501e-01
  4.1220523e-02
  2.4690006e+00
  2.2913074e+00
  7.4327743e-01
  1.4164213e+00
  5.7567984e-01
 -2.1598329e-01
 -9.3191165e-01
 -2.4891986e-02
  1.5818169e+00
 -1.7225282e+00
 -8.8499063e-01
 -8.9649081e-01
 -9.4229382e-01
 -2.8939521e+00
  3.5599217e+00
 -1.4297266e+00
  2.4001276e+00
 -7.4270435e-02
 -2.3068922e+00
 -2.4193640e+00
 -3.0953186e+00
 -4.1105646e-01
 -1.6635402e+00
  4.2592697e+00
 -1.4484742e+00
  1.3767107e-01
  5.3060836e-01
  2.5760278e-01
 -3.1157017e+00
 -2.2004585e-01
 -4.5692530e-01
  3.9729302e+00
 -1.6432521e+00
 -7.0423579e-01
  1.0414376e+00
 -4.2598650e-01
 -1.0700552e+00
 -1.3526372e+00
  1.1206988e+00
 -1.6543120e+00
  2.4721028e-01
 -3.2813579e-01
  6.6568375e-01
 -4.4246610e-02
  1.0382333e+00
  1.8247715e+00
  3.5049241e+00
 -2.7886808e-01
  4.0219578e-01
 -2.8787007e+00
  1.0971919e+00
 -1.6702678e+00
 -2.2692792e-01
 -1.6955490e-01
 -4.0150661e+00
  1.7538340e+00
 -1.7710055e+00
  7.2624075e-01
  1.6192238e+00
 -1.1694340e+00
 -5.0309205e+00
  1.6502061e-01
  9.8796511e-01
  1.9148935e-01
  3.1915603e+00
  3.2191294e-01
  3.1237965e+00
  8.1227630e-01
 -6.9708723e-01
  3.9052784e-01
 -4.7849867e-02
 -6.1997437e-01
  1.8936616e+00
  3.2987478e-01
  3.5405033e+00
  9.1654027e-01
  8.4106761e-01
  1.3187316e-01
  4.0127206e-01
 -2.8587359e-01
 -6.4238560e-01
  2.9902995e-01
  4.0202755e-01
  8.1854784e-01
  4.7675720e-01
  3.4173673e-01
  8.5084134e-01
  1.9766694e+00
 -7.6995932e-02
  3.1521383e-01
 -2.2375920e+00
  2.5482827e-01
  3.8135583e+00
 -9.4685847e-01
 -3.6263146e-02
 -1.0828375e-01
  1.1909034e+00
  5.7881910e-01
  5.4299574e+00
  2.9890856e-01
  1.3020729e-01
  2.7000162e-01
 -8.3089232e-01
 -4.0796787e-01
 -1.0083605e-01
 -4.0609574e-01
 -1.9726758e-01
 -3.4758234e-01
  1.9019653e+00
 -4.8463874e+00
 -9.2327232e-03
 -2.4434963e-01
  7.5849837e-01
 -3.8859010e-01
 -1.2569310e-01
 -3.5945661e-03
 -6.9949305e-01
  2.5561161e+00
  1.4450053e+00
  6.4382452e-01
  9.1880834e-01
 -4.6214417e-01
  1.4156185e+00
 -9.1853421e-03
 -2.3374248e+00
 -3.0761611e+00
  8.2473665e-02
 -3.3148116e-01
 -3.0472651e-01
  8.8710719e-01
  4.8080015e+00
 -3.8746250e+00
 -1.2512178e+00
  3.3553809e-01
 -1.7242055e+00
  3.6395879e+00
 -1.3140012e-01
  8.4538467e-02
  2.2282975e+00
  2.2630620e+00
 -8.5299623e-01
 -1.2017410e+00
  1.2795995e+00
  1.5620464e+00
 -9.7103155e-01
 -4.7995898e-01
 -2.7175972e-01
  4.2807928e-01
 -3.7628397e-01
  1.8053271e+00
  4.0802166e-01
  1.0052547e+00
  6.9359046e-01
  2.8126676e+00
  5.5386168e-01
 -2.7697098e-01
 -6.1945260e-01
  1.3728001e+00
  2.2276144e-01
 -7.5505584e-01
 -8.6999494e-01
  7.1408409e-01
 -6.1289507e-01
 -5.7542717e-01
 -5.8693492e-01
 -6.3572854e-01
 -2.1265836e+00
  5.7127380e-01
  1.1976867e+00
  3.9586747e-01
 -4.3057114e-01
 -2.4733673e-01
 -7.7620590e-01
 -1.6116003e+00
  9.5894158e-01
  4.4683566e+00
 -1.5715213e+00
  6.6109240e-01
  5.9400558e-01
  2.0808762e-01
  1.1639065e+00
 -1.1200031e+00
  2.5687876e+00
  6.4070314e-01
 -1.9914818e-01
  2.1089084e-01
 -9.8350221e-01
 -1.1504127e+00
  6.0094202e-01
  3.2050645e-01
 -1.7396176e-01
  1.3515695e+00
 -2.6662207e+00
 -8.3542287e-02
 -2.3563565e-01
  3.5923958e-01
 -1.2461681e+00
 -4.6651568e+00
  3.1825259e-01
  3.2945535e-01
  7.2257638e-02
  4.8735747e-01
  4.3419385e-01
  2.8333583e+00
  1.7001522e+00
 -5.1016498e-01
  2.7532560e-01
 -1.4713307e-01
 -1.5286361e+00
 -1.2218963e-01
 -3.6488345e-01
 -1.5612369e+00
 -1.2068878e+00
  8.3782047e-01
  1.0862142e+00
  5.7463455e-01
  7.2395489e-02
  5.3739536e-01
 -3.8255930e+00
  4.0861626e+00
  9.7975457e-01
  7.6870233e-01
  2.5087669e-01
 -9.9118195e-02
  1.3553416e+00
  5.6180745e-01
 -1.2335769e+00
 -1.1014086e+00
 -2.6291412e-01
  1.5829368e-01
  7.3717642e-01
  6.2788749e-01
 -3.6458573e+00
 -4.7292409e+00
 -1.6467060e+00
 -3.8460165e-01
  1.1628964e-01
 -9.4009793e-01
  4.7327143e-01
  1.0168415e-01
 -4.7211323e+00
 -1.3759079e+00
  2.4414745e-01
  5.0251794e-01
 -1.9781901e+00
  1.3499258e+00
 -1.6533340e+00
  2.3160603e+00
 -3.5594359e-01
 -1.1067277e+00
 -1.0875483e+00
 -2.1213222e-01
  1.0540953e+00
  5.7002407e-01
  1.3457015e-01
 -3.4078401e-01
 -9.4260788e-01
  6.7752704e-02
  9.1733551e-01
  5.7422256e+00
  2.3953595e+00
  2.0389843e+00
 -1.3663861e+00
 -4.2646642e+00
 -1.9290234e+00
  3.9252739e-02
 -2.2308006e+00
 -2.6194198e+00
 -4.0845966e-01
 -2.5990242e-01
 -1.8955897e+00
 -5.4737067e-01
  2.2222617e+00
  2.9950292e+00
  8.0634391e-01
 -1.1201528e+00
 -1.3675267e+00
 -2.0697896e+00
  1.1656183e+00
  2.8691406e+00
 -4.0028548e+00
  1.5259644e-01
  8.8404948e-01
  1.4877672e+00
 -1.0376415e+00
  5.5641775e+00
  2.0557017e+00
  2.0712910e+00
  4.7633753e+00
 -6.5299198e-02
  2.8106656e+00
  1.1251960e+00
  2.2405627e+00
 -2.5114243e+00
  5.1195467e-01
 -4.0694314e-01
 -3.6387465e+00
 -1.3576534e+00
 -2.4707630e+00
 -1.0948449e+00
  3.1487396e+00
  5.7231820e-01
 -3.4598795e-01
  1.1109309e+00
  4.6736975e+00
 -2.0118623e+00
  3.8166561e+00
  3.7477925e-01
  5.5242038e-01
 -6.9045585e-01
 -1.1361045e-01
  1.5070132e+00
  9.1623914e-01
  1.6987754e+00
 -4.4228879e-01
  3.0529889e-01
 -1.7369072e-01
  2.3917189e-01
 -8.4468770e-01
  1.2597556e+00
 -1.8877654e+00
 -3.7902200e-01
 -2.1619558e+00
  9.3100303e-01
  4.3931365e+00
 -1.1185279e+00
 -8.2279283e-01
 -1.2728921e+00
 -2.0049423e-01
 -2.0658186e-01
  4.3913493e+00
  8.3353692e-01
 -4.2545775e-01
 -1.4898756e+00
 -2.1598983e+00
  6.2844962e-01
 -2.2468106e-01
  7.5589794e-01
  8.4082794e-01
  4.9781653e-01
 -2.3408066e-01
 -4.9297044e-01
  7.1132965e-02
 -6.2523597e-01
  3.3655513e-02
 -8.7216221e-02
 -1.3310078e+00
 -7.5659412e-01
  1.4418705e-01
  2.8882997e+00
 -2.8346045e+00
 -2.5803432e+00
 -1.4750808e-01
 -2.4818134e+00
 -2.7894619e+00
  1.9152797e+00
  3.5870705e+00
 -1.9189889e+00
 -6.3993907e-01
  1.6207672e+00
 -7.0143527e-01
  3.5090592e+00
  5.3643435e-01
  2.8251331e+00
  1.1713206e+00
  1.9255931e+00
  1.1813608e+00
 -2.6926265e+00
  2.9102355e-01
  2.7600953e-01
  2.7416930e-01
 -3.4872559e-01
 -3.3082730e-01
  8.1635378e-02
  6.2301183e+00
  9.5311046e-02
 -3.8335028e+00
 -1.1776347e+00
  2.1812456e+00
  1.2111057e+00
 -2.0479193e+00
  7.2843358e-02
  2.5965910e+00
 -2.5079181e+00
  5.9116554e-01
  1.6532655e+00
  6.6308122e+00
  5.6407768e-01
 -1.6621481e-01
  1.1485496e+00
 -6.2861338e+00
 -7.1286219e-01
  7.6886793e-03
  2.9858794e+00
  4.5423446e+00
 -2.7436934e+00
  8.0372024e-01
 -3.9768422e+00
  5.7663184e-01
  2.4360995e+00
 -1.9631307e-01
  3.1399460e+00
 -5.0420198e-03
  1.3462553e+00
  1.0734484e+00
  3.4393229e+00
  2.6282294e+00
 -2.0863287e+00
  4.0813489e+00
 -3.0977440e+00
  5.7278222e-01
  2.3128059e+00
 -5.0525385e-01
  1.1959900e+00
 -1.1050242e+00
  1.3885716e-01
 -2.0269178e-01
  8.2514209e-01
 -2.0708216e-02
  1.1190119e+00
 -3.6510193e-01
  3.3065110e-01
 -1.5090247e+00
 -1.0669639e+00
 -9.0114659e-01
 -2.4758253e+00
 -1.6239126e+00
 -7.0822210e+00
  4.6643691e+00
 -6.0460843e-02
  3.2081002e-01
 -1.5222746e+00
  9.3260251e-02
 -3.8536248e+00
 -5.5203182e-01
  1.6212493e+00
  5.7963572e-02
  2.3895474e-01
 -4.9171978e-01
 -5.7890391e-01
  3.0741414e-01
 -1.6746453e+00
  1.5145569e+00
 -4.3942046e+00
 -1.5772399e+00
  3.2204500e-01
 -4.6872454e+00
 -4.1852361e-01
  8.7497592e-01
 -3.4795923e+00
 -5.4367909e+00
  5.2086978e+00
 -3.0780880e+00
  2.4475673e-01
 -1.1311464e+00
  4.2108890e-01
  1.1542541e+00
 -1.0190696e+00
  3.7204754e-02
  4.8495240e+00
  2.6502800e+00
  1.8786153e-01
 -5.6967139e-01
 -2.2011240e-01
 -7.2906637e-01
  1.4794140e+00
  2.3141763e+00
  7.6564521e-02
  2.0839005e+00
  1.5377586e+00
  1.5080090e+00
 -5.0616765e+00
  1.6244038e+00
 -1.8729767e-01
  1.2504531e-01
 -5.7558578e-01
  2.6096969e+00
  7.8369695e-01
  2.0260069e-01
 -1.4555610e+00
 -1.3908881e-01
 -6.5923548e-01
 -3.6968570e-02
 -1.1477946e+00
  5.8318131e-02
  2.9083529e+00
 -2.2698960e+00
 -4.7356856e-01
  2.0569530e+00
  4.3800340e+00
  5.2618253e-01
  1.8262161e+00
  3.3763081e-01
 -2.7556448e+00
 -9.1640525e-02
  4.7128430e-01
 -1.1389438e-01
 -1.2166157e-01
 -3.5213622e-01
 -2.4831312e+00
 -3.0342203e-01
  6.1171544e-01
 -5.7895327e-01
 -2.7068028e+00
 -1.8721086e+00
  6.9891322e-01
  1.6488147e-01
  1.2385445e-01
 -4.3085776e-02
  4.8857562e-02
 -1.3882512e-01
  5.8709094e-03
  9.0502518e-01
  4.4091997e-01
 -3.7705417e+00
  1.3647777e-01
  2.0391757e+00
 -9.4003156e-02
  3.2417923e-01
  1.4609411e+00
 -4.0649037e+00
  8.7975347e-01
 -3.1064396e+00
 -2.3440555e-02
  7.6614952e-01
 -1.5657502e-01
 -2.0250990e+00
 -2.1642232e+00
 -7.9377335e-01
  8.7508142e-02
 -6.1673439e-01
 -1.0910774e+00
 -1.1042385e+00
 -1.1156153e-01
 -9.4317180e-01
 -1.9391494e+00
  1.3789567e+00
  4.5510009e-01
  6.0455102e-01
 -4.4337254e-02
  3.3904338e-01
 -9.9062371e-01
  1.1845346e-01
  1.4022703e-01
 -6.3060164e-01
  4.7901011e+00
 -2.7217254e-01
 -1.7998419e+00
  1.2838929e+00
  2.2753434e+00
 -1.0611096e-01
  2.5058222e+00
  2.3571053e-01
 -4.7450989e-02
 -1.3981334e+00
  9.0614474e-01
  2.1542589e-01
 -2.2171793e+00
 -5.4882276e-01
 -1.1293610e+00
 -3.7118382e+00
  4.6689434e+00
  1.9559710e+00
 -8.5907829e-01
  3.5541466e-01
  6.3942766e-01
  5.0901759e-01
  1.5009410e+00
 -8.9397728e-02
  3.0721393e+00
  3.3905163e-01
  2.1141281e+00
 -9.9026209e-01
 -9.4495797e-01
  7.3678470e-01
  3.5195646e-01
  5.4875486e-02
 -4.3733478e-01
  3.1326549e+00
  3.1251051e+00
  2.7853532e+00
 -2.5964634e+00
  1.4784746e+00
  1.2177048e-01
 -1.4143178e+00
  7.3122078e-01
  3.2980852e+00
 -1.1216885e+00
  2.4264659e-01
 -7.0709491e-01
 -1.1981759e+00
 -1.1822899e-01
 -1.4065639e+00
  6.7085880e-01
  1.8294630e+00
 -2.0923188e+00
 -3.4487841e-01
  5.9254434e-02
  1.6813632e+00
 -1.9111301e+00
 -1.0070589e+00
 -5.6135809e-01
  1.1368505e+00
  5.8091182e-01
  1.0636243e+00
  2.7383895e+00
  9.3029529e-01
  6.8180233e-01
 -6.9339965e-03
 -2.9343972e-01
 -2.3677468e+00
 -5.9153543e+00
 -1.6923407e+00
 -1.3652442e-01
  1.0060893e+00
 -6.9036734e-01
  1.4095767e+00
  8.6584115e-01
 -5.8335906e-01
 -1.6352453e+00
 -2.3919058e+00
 -3.3089095e-01
  2.4463880e-01
 -2.5406244e-01
  1.3536562e+00
 -4.6225438e+00
 -4.6086657e-01
  5.8178031e-01
  2.4008857e-01
 -8.9329165e-01
 -2.5888376e+00
  1.3464887e+00
 -3.2239256e+00
 -5.6121254e-01
  1.6881651e+00
 -2.1991496e+00
  6.7459327e-01
  4.0040541e+00
  2.3594122e+00
  2.9746554e+00
  2.2131660e+00
 -1.3678099e+00
  4.1744847e+00
  4.7573693e-02
  2.3127239e+00
 -2.5031495e-01
  3.6926112e-01
 -1.9890140e+00
 -4.4230211e-01
 -1.0829103e+00
  1.4166666e+00
  3.7294149e+00
 -8.7205249e-01
  4.9291615e+00
 -3.9442832e+00
  1.7756273e+00
  1.4477553e+00
  2.7211931e-01
  1.3888462e+00
 -3.1061068e+00
 -2.3911927e+00
 -6.9170572e-02
  1.0377325e+00
 -2.6297743e+00
  9.6306092e-01
 -2.1485865e+00
  1.4603115e+00
  2.5844064e-02
  5.4402339e-01
 -2.3304631e-01
  3.7604802e+00
 -5.6553727e-01
 -6.6327769e-01
 -5.4740024e-01
 -2.3891814e-01
  5.6579938e+00
 -5.4314675e+00
 -1.4653181e-02
  7.6168668e-01
  2.6239680e-02
  3.7844965e+00
  9.6981215e-01
 -2.8913679e+00
  1.5962074e+00
 -8.0739814e-01
  1.0650395e+00
 -4.5007181e-01
 -1.1280869e+00
 -1.0565819e+00
  3.9704987e-01
  3.1728223e-01
  5.9843576e-01
  1.3650130e+00
  1.8369633e+00
  2.5154123e+00
 -1.1845888e+00
  3.1440587e+00
 -4.9694348e-02
 -1.4198858e+00
  2.5943807e-01
 -5.4802846e-02
  2.6674700e+00
 -1.0385367e+00
 -1.3391089e+00
  8.4016687e-01
 -1.0045741e+00
 -1.8907069e+00
 -7.8881967e-01
  2.8862038e+00
 -2.2147198e+00
 -1.2969147e+00
  1.8811765e+00
 -1.0542278e+00
  1.1181070e+00
 -1.3287467e+00
  2.1575115e+00
  3.6734910e+00
 -2.0805635e+00
  2.2859350e-01
  9.0355414e-01
 -8.6212939e-01
  1.1958054e+00
  2.5172391e+00
 -2.9441419e+00
 -1.0397331e+00
 -9.9856591e-01
 -1.6395153e+00
 -1.7615363e-01
  2.3051758e+00
 -1.6507144e-01
 -3.7773418e-01
 -5.5913343e+00
 -1.1514556e+00
  1.2167413e-02
 -2.5535002e+00
 -1.5416083e+00
  7.6356077e-01
 -2.5046823e+00
 -4.8708191e+00
 -1.5913490e+00
 -1.7635097e-01
 -5.2039826e-01
 -4.6655005e-01
 -2.2412965e+00
  4.6786494e+00
 -1.9836365e+00
  1.2858052e+00
  7.5565502e-02
 -1.9976425e+00
  2.4451318e-01
 -7.8484029e-02
  3.3715129e-01
  2.5400956e+00
 -2.3994925e+00
  2.1400533e+00
 -7.4307925e-01
 -3.9259371e-01
 -1.2241322e+00
  4.6248758e-01
  6.0317760e+00
  1.6006168e+00
  4.0666434e-01
  3.6934834e+00
  9.1089761e-01
 -5.1716888e-01
 -9.8667008e-01
  3.8032132e-01
  1.1749099e+00
 -1.3036634e+00
 -4.3161988e+00
 -8.9794648e-01
 -1.1089881e-01
  9.3526834e-01
  8.2878977e-01
 -8.9499164e-01
  2.9278345e+00
  3.3454627e-01
  2.8237200e+00
 -5.8514649e-01
 -2.2173665e+00
  2.1502949e-01
 -8.1960154e-01
 -3.5293287e-01
 -4.5411820e+00
 -2.1946204e-01
 -4.0095049e-01
 -6.2067980e-01
  8.4315681e-01
 -4.8357719e-01
 -6.5804368e-01
 -3.1229076e+00
 -6.2348738e+00
  6.1067194e-01
 -7.1055609e-01
 -4.6259689e-01
  1.4195644e+00
 -9.3095821e-01
 -7.5102977e-02
  7.0860706e-02
  1.0678575e+00
 -6.3463593e-01
  8.7477094e-01
 -3.5448759e+00
  1.5373496e+00
  1.8307970e+00
 -8.6907101e-01
 -3.0592483e-02
 -1.9623024e-02
 -3.2268113e-01
 -7.4182695e-01
 -9.4499514e-02
  1.6512184e+00
 -9.2097677e-02
 -8.5509032e-01
  3.9494994e-01
 -7.3641491e+00
 -1.4739993e+00
 -6.4730740e-01
  1.3214741e+00
 -1.4587368e+00
  1.2547969e+00
  9.0976828e-01
  2.6444283e-01
  1.4279547e+00
 -6.5063184e-01
  3.9383587e-01
  2.6158121e+00
 -4.4768608e-01
  1.7160408e+00
 -1.9533266e+00
  1.7853646e-02
  1.0914298e+00
  6.2952209e-01
  9.5986634e-01
 -3.7212823e-02
 -1.0904078e+00
 -2.7300581e-02
  2.3977625e+00
  7.5555104e-01
 -3.1969686e+00
  2.0268297e+00
  3.1696832e+00
  3.1456521e+00
  5.6345505e-03
  1.1762882e+00
  7.1536696e-01
  1.7824786e-02
  2.9058218e-01
  6.5679836e+00
  7.1511120e-02
  5.4015603e+00
 -1.0296843e+00
 -3.2810542e-01
 -3.3660427e-01
 -2.4339378e+00
  2.2291477e+00
  1.3543167e+00
  1.3784444e+00
  1.1525583e-01
 -2.7360430e+00
 -1.5162417e-01
  3.4583840e-01
  3.7502295e-01
 -2.0853829e+00
  1.4969420e-01
 -4.3070316e+00
  1.0792127e+00
 -2.7302131e-01
  6.9981408e-01
 -1.2049712e+00
 -6.8085003e-01
  1.3221422e+00
 -5.5041468e-01
 -1.7220213e+00
  7.8561634e-01
 -5.1969635e-01
 -3.8856563e-01
  8.8087523e-01
  4.9250808e-02
 -2.1465357e-01
  1.7249869e-01
 -3.5615165e-02
 -4.5500287e-01
 -2.3541651e+00
 -8.0213314e-01
  1.9259346e+00
 -8.2196975e-01
  1.6869543e+00
  1.4408797e+00
  2.8701229e+00
  1.5310998e+00
 -1.5127013e+00
  7.0409447e-01
 -3.3519020e+00
  3.8437250e+00
 -6.9121671e-01
 -1.5114791e+00
  2.3209345e-01
  5.8897346e-01
  1.9750354e+00
 -3.7431546e-02
 -1.3701303e+00
 -6.2763190e-01
  9.7678430e-02
  7.7050430e-01
 -6.7152023e-01
 -2.8087932e-01
  1.0495701e+00
 -6.7936164e-01
 -6.0901326e-01
