nep4_zbl 2 O Ga 
zbl 1 2
cutoff 6 4 418 127
n_max 8 6
basis_size 12 10
l_max 4 2 1
ANN 100 0
 -9.0476617e-02
 -4.9835876e-02
  1.4323993e+00
 -1.1890033e+00
 -5.6339989e+00
 -5.6959188e-01
 -1.9676605e+00
 -4.2445259e+00
  3.9035001e+00
  1.2174273e+00
  1.4734856e+00
  2.3485699e+00
  1.0744013e+00
  1.3666479e-01
  1.7202812e+00
  2.4853435e+00
  4.4614272e+00
  4.6918966e-02
 -1.6836925e+00
  9.0450978e-01
 -8.1366396e-01
 -2.7494140e+00
 -5.2072430e-01
  3.4094141e+00
  1.6625135e-01
 -1.4757847e+00
 -9.1223401e-01
 -1.9161267e+00
 -2.8069689e+00
 -2.4612181e+00
 -1.1344093e-01
 -1.1190500e+00
  4.8043922e-01
  2.1190493e+00
 -1.8219483e-01
 -2.4113629e+00
 -3.9972653e+00
  6.2000221e-01
  2.6617390e-01
 -1.4677885e+00
 -3.5196643e-02
 -8.4540617e-01
 -6.9422048e-01
  5.0013985e-02
 -1.2737523e-01
  3.1297488e+00
 -9.5435804e-01
 -2.8744650e-01
 -2.0563464e-01
 -7.6486759e-02
  7.4485791e-01
 -3.2113121e+00
  1.2688959e+00
  1.4786632e-01
 -1.7362646e+00
  2.2425179e+00
 -1.5067662e+00
  2.6604593e+00
  2.4438098e-02
  1.3585973e+00
 -7.9302769e-03
 -3.2861023e+00
 -3.1605402e-01
  2.2805526e+00
 -1.6516494e+00
  3.1999476e+00
 -1.8112582e+00
 -4.1313586e-01
  1.7510620e+00
  3.5290360e+00
  3.4231973e+00
 -4.2319636e+00
  3.2187827e+00
  5.9887606e-01
 -2.2698066e-01
  2.8358922e+00
 -1.4384304e+00
  2.3551799e-01
 -1.2261201e+00
  7.0495659e-01
 -2.1096926e+00
 -2.8939559e+00
  2.5605446e-01
  7.9377189e-02
 -4.2494712e+00
 -2.2794082e+00
 -1.1535944e+00
  4.1010537e+00
  1.5863376e+00
 -3.7010443e+00
  4.4968915e-01
  4.6955086e-02
  2.3212843e+00
 -2.7900989e+00
  3.3429997e+00
 -4.3375233e-01
 -1.1261055e+00
 -4.0078807e-01
  2.0614519e+00
  3.0280626e-01
 -1.4161887e+00
  4.5491395e+00
  8.9158273e-01
 -4.1167388e+00
 -1.2500797e-01
 -6.5616757e-01
 -8.4454525e-01
  1.5148017e+00
 -4.5269641e-01
  5.2126163e-01
  8.4932017e-01
  6.5500563e-01
 -3.2171206e+00
  2.3425887e+00
  1.8609178e+00
  7.3133987e-01
  8.5871100e-01
  2.9615948e+00
 -1.4873712e+00
  1.5606004e+00
 -2.0879929e+00
  4.4701581e+00
 -5.4193693e-01
  4.7589946e-01
  1.7379944e+00
  1.9692881e+00
  1.9090571e+00
 -3.6668153e+00
  1.1263261e+00
  7.9648830e-02
  2.9679888e-01
  1.1436480e-01
  1.8481933e+00
  2.1179352e+00
 -2.1704526e+00
 -1.2810627e+00
 -1.1328512e+00
 -4.9718729e-01
  1.7539198e+00
 -8.0834061e-02
 -1.0659442e+00
 -1.0999548e+00
  6.9763124e-01
 -9.2614830e-01
  6.9687897e-01
 -2.8980026e+00
 -1.0686625e-01
  1.2765728e-01
 -3.1246418e-01
  1.0214156e-01
 -2.0240404e-02
  2.9122066e-02
  1.6376396e-01
  2.0999976e-01
 -2.4171841e+00
  1.6347758e+00
 -3.8914800e+00
 -1.4400818e+00
 -1.4681698e+00
 -2.1058795e+00
 -1.3743828e-01
 -1.7883353e-01
 -1.7929232e-01
  1.0245798e-01
 -1.4067481e+00
 -4.4304505e-01
 -1.4983633e-01
  5.1323339e-02
 -1.0497299e+00
 -1.6228341e+00
  2.6169834e+00
 -7.3871017e-01
 -1.8578533e+00
 -8.8517505e-01
  1.5691154e+00
  2.4761841e+00
 -3.4600358e+00
 -2.5734403e+00
 -2.5254316e+00
 -1.9428685e+00
 -2.5839438e+00
 -2.3266766e+00
 -2.0894933e+00
  2.2238549e-02
  1.0621581e+00
  8.6291534e-01
  1.1562338e-01
  2.1178474e+00
 -2.0086966e+00
 -1.5308455e+00
 -5.2271105e-02
 -2.5350222e-01
  5.2548230e-02
 -3.5955143e-01
  4.8304832e-01
  6.4046159e-02
  4.1058306e-02
  1.1662296e-01
  4.3771964e-02
  2.3616099e-01
  1.7172392e-02
  2.6230879e+00
  7.8775382e-01
 -1.6614610e-01
  5.3878961e+00
  2.7147672e+00
 -8.9830227e-02
  4.8080795e-02
  1.7620168e+00
 -7.8122457e-03
 -2.3801346e+00
  6.7591161e-01
 -1.4368759e-01
 -4.2363441e-01
 -3.1500247e-01
 -1.8359900e-01
 -2.0705315e-01
 -2.5461841e+00
  8.3710052e-02
  1.8612139e-02
  2.2432010e+00
  1.3426551e+00
 -8.6885337e-03
 -4.3394705e-03
  2.2866304e-01
  8.7181274e-03
 -1.2392660e+00
 -3.7888098e-01
 -8.6434621e-01
 -4.4521823e+00
 -6.6478014e-01
  1.5132350e+00
 -5.8403549e+00
 -1.2978449e+00
  1.1555744e+00
 -3.9982921e-01
 -4.8553520e-01
 -1.8825613e-02
 -1.0603690e+00
  2.0435569e-01
  4.9722502e-01
 -7.6401740e-01
  1.3701557e-01
  1.1808000e-01
  5.3525381e-02
 -7.1087942e-02
  3.7060228e-01
 -4.4046190e-01
 -1.4597734e-02
 -4.7018144e-01
  6.3304566e-02
  2.4691130e-01
 -6.0391191e-02
  2.3521942e-01
 -1.9649984e-01
 -2.4772038e+00
 -1.4578884e+00
  3.0413619e-01
  9.2388898e-01
  2.5461133e+00
 -3.0009048e+00
  5.0253008e-02
  7.2423512e-01
 -1.6550088e+00
 -7.3805499e-01
 -6.3038641e-01
 -1.4620605e-01
 -7.7450633e-01
  1.0054724e+00
 -1.1677585e+00
 -2.9913938e-01
 -4.4730783e+00
  7.5103116e-01
  7.7860737e-01
 -1.2711021e+00
 -4.1661439e+00
  2.2813790e+00
 -5.6704223e-01
  3.3342977e+00
 -5.6608504e-01
 -4.1034017e-02
  1.5360932e+00
 -1.4777918e-01
  2.4348772e+00
  1.2015789e+00
  4.6455753e-03
  8.3871245e-01
 -1.5642098e-01
  1.8352114e-01
 -6.8792815e+00
  2.0586092e+00
  8.3623493e-01
 -4.0856752e-01
 -7.6551551e-01
  1.0383450e+00
  1.0556945e+00
  3.1403058e+00
  1.3438953e-02
  9.3182188e-01
  2.5594532e-01
 -4.2154922e+00
 -4.2521545e-01
 -1.9384016e+00
  3.6707032e-01
  9.0727293e-01
 -1.2190012e+00
  1.8051460e-01
  1.9506071e+00
 -7.3805010e-01
  1.6179550e+00
 -7.9197650e+00
  1.5631481e+00
 -3.9346881e+00
 -5.1784360e-01
  7.9875576e-01
  1.2208728e-01
 -7.8105778e-01
 -1.7822781e-01
  8.4717792e-01
  1.9582539e+00
 -6.7745072e-01
 -1.8063825e-01
  3.0835643e+00
 -1.1778262e+00
 -4.9548721e-01
  2.7810597e-01
 -1.9519198e+00
 -1.2605521e-01
 -8.6731511e-01
 -2.4953189e+00
  2.5458338e+00
  1.0311269e+00
  2.6041498e+00
 -2.3652263e+00
  1.8522774e+00
  1.0816103e+00
  1.3022053e-01
 -2.8037279e+00
  4.0621156e-01
 -2.2276616e-01
 -7.4865460e-01
  2.6970264e-02
  4.6714816e+00
 -4.1260302e-02
 -6.7820497e-02
  4.3321330e-02
 -1.1857105e+00
 -1.9056204e-01
 -2.7538161e+00
  3.2753727e-01
 -3.2370454e-01
 -1.1047934e+00
 -2.4184911e-02
  2.2432016e-01
 -2.3999932e+00
 -1.9398820e-01
  3.7647626e-01
  1.1075064e+00
  7.4572557e-01
  4.7826749e-01
  8.9821208e-01
  2.9232087e+00
  5.1236099e-01
  2.5785356e+00
 -1.4981960e+00
  8.2836968e-01
  9.3465082e-02
 -3.3934563e-01
 -3.0328062e+00
  1.0600520e+00
  6.3297760e-01
  5.1078957e-01
  1.4816477e+00
  2.6217072e+00
  1.5144428e+00
 -2.0441775e+00
 -2.1595876e+00
 -4.2655520e+00
 -1.2066731e+00
  1.9829347e+00
  1.2641217e+00
 -4.8218789e+00
 -1.5149277e-01
 -1.5306418e+00
  5.9722173e-01
  3.9414034e+00
 -6.4886355e-01
  4.1911426e+00
 -5.1643890e-01
  1.0421638e+00
 -4.8856372e-01
  1.6428683e+00
 -5.3866415e+00
  4.1651392e+00
 -1.6361310e-01
  6.9473797e-01
 -9.4954260e-02
 -2.6692398e-02
  4.4624917e-02
  9.2125857e-01
  6.3625109e-01
  1.6311581e-01
 -3.1839809e+00
 -1.8027606e+00
 -2.4590117e-01
  1.0814264e-01
 -1.1996816e-01
 -3.3899656e-01
  1.5524250e-02
  7.3999114e-02
 -5.3637844e-01
  2.3177244e-01
 -2.3686864e+00
 -1.9205765e-01
  9.6827465e-01
  1.4969943e+00
 -1.7066434e-01
  4.0735543e-02
  3.1807393e-01
  2.1343821e-01
  7.2760272e-01
  1.4992264e-01
 -5.5629182e-01
 -3.1384172e+00
 -1.1465353e+00
  8.5018826e-01
 -1.3260065e+00
  1.8598944e-01
 -2.4777280e-01
  9.0636921e-01
 -9.2925107e-01
  1.1512448e-02
  8.1546068e-02
  4.1049519e-01
  7.4389958e-01
 -1.5840768e+00
 -2.5703055e-03
  1.4273846e+00
  4.1123565e-02
 -1.7610985e-01
 -3.1459686e-01
 -1.3521734e-02
  6.3370645e-02
  3.5968065e-02
 -5.9960622e-01
  1.3662508e-01
 -5.1537985e-01
  3.1934011e+00
  1.1088102e+00
  2.0934196e-01
  2.0868994e-01
  1.4050798e-01
  1.2154845e-01
 -6.6316330e-01
 -2.1598928e-01
  4.4683215e-01
 -4.8473902e-02
 -5.1850998e-01
  8.7059027e-01
  3.4551510e-01
 -2.8824952e+00
 -2.7649822e+00
 -1.8427726e+00
  9.0871543e-01
 -4.5190034e+00
  2.1847084e+00
  1.1630280e+00
  5.0157280e+00
 -1.6763518e+00
  1.4068984e+00
  1.7772433e+00
 -1.7347798e+00
 -7.0475489e-02
 -1.5215440e+00
 -2.6632743e+00
 -2.7678022e+00
 -1.6284943e+00
  1.3272294e+00
 -3.5245209e+00
  2.5540648e+00
  8.6534369e-01
 -3.1151375e-01
  1.6352257e+00
  1.5137709e+00
 -3.1261687e+00
  2.3510401e+00
  1.3372793e+00
  2.3130335e-02
 -5.7654209e+00
  2.5732908e+00
  2.1972733e+00
 -1.9330541e+00
  1.2298211e+00
 -3.4397831e+00
  1.6619374e-01
 -1.7342049e+00
 -8.7920681e-02
  7.0481591e-02
 -9.6325237e-01
  2.0970819e+00
  1.8315407e+00
 -7.9510465e-02
 -3.7042639e-01
 -1.6334425e-01
  3.4860057e-01
  5.9496891e-02
  3.0527722e-02
 -4.6094889e-03
  8.8646132e-01
  5.9020162e-02
 -1.3308203e-01
 -5.6165387e-03
 -8.4112340e-04
  5.0175703e-01
  3.3309188e-01
  3.9904583e-01
 -3.3641427e-03
 -5.3979930e-02
  1.0574920e-01
 -1.2089346e-01
  4.2457081e-02
 -9.8413005e-02
  3.3993408e-01
 -6.3212019e-01
 -2.2213409e+00
  1.1214013e-01
  1.6884518e-01
  5.6349207e-02
 -2.5111797e+00
 -8.1409991e-02
 -2.2797492e-01
 -7.1473144e-02
 -1.7141874e+00
  3.4550148e-01
  3.8338849e-01
  6.8488076e-02
 -5.6037313e-01
 -1.2626010e-01
 -2.1998082e-01
  1.1085103e-01
  7.0490815e-02
 -2.4487558e-01
 -5.7458144e-01
 -1.9417811e-02
  1.4256483e-02
 -1.1404271e-01
  1.4231579e-01
  3.5543066e-02
 -5.5109831e-03
  2.9476406e-02
 -1.8961785e-02
  1.5076213e-01
 -8.1537910e-02
 -6.4140308e-01
  2.1363075e-03
  3.8558495e+00
 -3.7218709e-02
  9.4044462e-02
 -3.7634298e-01
 -2.0873494e-01
  1.4621396e+00
  6.7858994e-02
 -2.9028349e+00
  2.5746324e+00
  2.1982861e+00
  5.7325685e-01
 -2.5836928e+00
 -5.5734925e+00
 -5.6101613e-02
 -1.6849371e+00
 -6.6890568e-02
 -1.7622603e+00
  3.2361794e-01
  1.6497262e-01
  6.1717582e-01
 -3.7466288e-02
  1.1778092e-01
 -1.1066990e+00
 -1.3748406e+00
 -3.4123197e-01
 -1.7246660e-03
  4.1791579e-01
 -7.1634477e-01
  1.4392249e-01
 -1.7997141e+00
 -5.1022577e+00
  1.4955983e-01
 -1.8615294e+00
  2.2787656e-01
 -2.1714829e-01
  6.5844483e+00
  1.2390012e-01
 -5.2038330e-01
  1.3558999e+00
 -1.6976104e+00
  1.6834481e-01
  2.3988228e-01
  1.3847841e+00
 -4.2631440e-02
 -1.7028500e-01
  3.0683675e-01
  9.6653484e-02
 -9.3941726e-03
  4.7198188e-01
  3.5486361e-01
  9.0884611e-02
 -3.6145172e-01
  5.0823683e-01
 -2.0169564e-01
 -1.6993108e-01
 -6.9903368e-01
 -3.7683473e+00
  1.1624964e-01
 -2.6239091e-01
 -2.2525971e-03
  1.1442191e-01
  5.6139338e-01
 -8.9386478e-02
 -2.7540374e-01
  1.6179411e+00
 -5.1580298e-01
  1.4269099e-01
  3.0894976e-02
 -4.3751565e-03
 -1.4444004e-02
 -3.8002321e-01
 -2.6243496e+00
 -2.5498511e-02
 -6.8760939e-02
 -4.7372216e-01
  1.4723872e+00
 -1.8864869e+00
  3.3891883e-02
 -4.8220344e-02
  6.2235482e-02
 -8.0941834e-02
 -3.4439101e+00
 -3.8604197e-01
  5.5607226e-02
  6.1022744e-02
  1.2351240e-01
 -5.0407100e-01
 -7.4037969e-02
  9.6026994e-02
 -1.9093013e-01
  4.1953245e-01
  4.4462282e-02
  1.0470534e-01
 -2.5417081e-01
  8.7759817e-01
 -3.0618766e-01
  3.7577447e-01
  1.9968837e-01
  8.2792684e-02
  1.0916245e-02
  1.4074194e-01
 -1.6247040e-02
  3.5436162e-01
  2.7524364e-01
 -2.8493776e+00
  4.5028310e-02
 -7.8725018e-02
 -3.7449145e-01
  1.4038635e+00
  1.6430984e+00
  1.0777423e+00
 -2.6625593e+00
  2.4352479e+00
 -7.5075823e-01
  2.0587745e+00
  4.7620063e+00
 -5.3743446e-01
 -1.0775630e-02
 -2.1063902e+00
  1.4787264e+00
  9.5887756e-01
 -1.5142845e+00
 -3.0473796e-01
 -1.4941187e-01
 -3.0722949e-01
 -3.4237966e-01
  1.1115304e+00
  1.5136536e+00
  4.3073472e-01
  2.5189309e+00
 -4.9660422e-02
 -1.8364796e-01
 -2.9292005e-01
  1.5388587e-01
 -2.2894130e+00
 -8.8212442e-01
 -2.5122547e-01
 -5.1644688e+00
 -5.4130316e-01
 -2.5591117e-01
  3.6118209e-01
 -2.3365898e-02
  1.3042855e+00
 -1.8658577e+00
 -1.6593344e+00
 -2.0040530e-01
  2.5879674e+00
  2.4374874e+00
  1.4991666e-01
  2.5083050e-01
 -6.1288762e-01
 -2.1942478e-02
 -6.0930240e-01
 -5.5875950e-03
  4.0876490e-01
  4.7697201e+00
  1.9088070e-01
  1.2002910e+00
  2.1017599e+00
  1.2855625e-01
  2.0644675e-01
 -8.9809531e-01
 -1.9343942e-02
 -6.6413927e-01
  9.7417831e-02
  2.6846883e+00
 -1.5507390e-01
  4.4315398e-01
 -1.1025283e+00
  2.0857547e-01
 -3.7878100e-02
 -2.2875036e-01
  8.9460891e-01
 -1.5349256e-01
  3.7910521e-02
 -1.6863700e-02
 -7.2485811e-01
  8.9215897e-03
 -1.5092887e-01
 -3.1282053e+00
 -9.7577479e-03
 -4.5393355e-02
 -3.1296462e-02
 -2.0212491e-01
 -3.3987112e-02
 -4.4025820e-02
 -2.4981439e-02
 -7.2945029e-02
  2.0105906e-02
  1.1760639e-01
  2.1065103e-02
  6.3059676e-01
  1.4776608e+00
 -1.7608539e+00
 -7.0917681e-02
  2.1068802e-01
  1.8763721e-01
  2.9423090e-02
 -1.2330777e-02
 -3.9007914e-01
  1.1537297e-01
 -3.4104267e-01
 -2.0023396e+00
  3.6286843e+00
  8.0237547e-03
 -6.0392365e-02
 -2.1813378e+00
 -1.9730674e-02
  2.7122591e-02
 -1.1294632e-01
  2.4364178e+00
 -3.4254067e+00
 -3.2465169e-01
 -3.5649593e+00
  1.7266457e+00
 -3.6191633e+00
 -4.9014115e+00
  9.2286730e-01
 -1.8846786e+00
 -2.2474089e+00
 -2.3488631e+00
  1.0883619e+00
 -3.9723969e-01
  6.7886919e-01
 -2.0183561e+00
  1.6442286e+00
  2.2368790e-01
 -1.4464731e+00
 -8.4178585e-01
 -2.5525612e-01
  2.7134876e+00
  2.3636012e+00
 -1.3519180e+00
 -5.4059181e+00
 -4.0131399e-01
  7.8533411e-01
  1.7728823e+00
 -1.7539581e+00
 -2.2698195e+00
 -1.5563440e+00
  4.4189200e+00
  4.0450525e-02
  1.0857322e+00
  3.6008167e-01
 -3.2660325e+00
 -4.3401742e+00
  2.4544597e+00
  1.9570120e-01
  1.3829017e-01
  7.4980870e-02
  6.1282861e-01
 -1.6872385e-01
 -1.5220864e-01
 -2.7347097e-01
  4.1222420e-01
 -1.9429671e-02
  2.4926021e+00
  7.1703440e-01
  1.3845074e-01
 -5.5130363e-01
 -9.3926154e-02
  3.1417212e-01
 -1.7239363e+00
 -7.2185588e-01
  5.7066226e-01
  7.4619001e-01
 -2.2220676e-01
 -1.0126500e+00
 -4.9518204e-01
  5.6869436e-02
 -4.7890821e-01
 -1.1495723e+00
 -5.9011149e-01
 -1.1350986e-01
  6.1434712e+00
  7.7153492e-01
  1.4658625e-01
 -3.4205166e-01
 -2.6984262e-01
 -1.6994454e+00
 -5.1663733e-01
 -9.5027763e-01
  1.1262565e+00
  1.5178302e-01
 -1.1498523e-01
 -8.8021487e-01
  2.9491633e-01
 -1.5782762e+00
  9.7595140e-02
  7.9801542e-01
 -8.3590257e-01
 -1.0813437e+00
 -3.8882803e-02
 -3.3441788e-01
 -1.4968602e-01
 -2.1568270e-01
 -1.1448598e-01
 -5.5594569e-01
 -1.9320853e-01
  9.5682070e-02
 -2.8239241e-01
 -7.7265561e-02
  6.0732394e-01
 -2.1632988e+00
  1.8100956e-01
 -5.1238596e-01
 -5.0536294e-02
 -1.2660678e-01
 -1.3944948e-01
  2.7272663e-01
 -7.2385527e-02
  2.0792074e+00
  3.3030223e-02
 -1.6084640e+00
 -1.2935333e+00
  3.3317721e-01
 -1.1062787e+00
 -7.5801826e-01
  3.2499619e-02
 -2.3877546e-01
  6.1911058e-01
 -3.1718652e+00
 -3.8517502e-01
 -8.4889214e-03
 -2.5831696e-01
  9.4328418e-02
  6.3025773e-02
  3.5576470e-02
  2.8483355e-01
 -1.5726627e+00
  1.8946777e-01
 -5.2924260e-02
  1.5567507e-01
 -4.0862933e-01
  8.0830669e-01
 -9.7864115e-01
 -1.0280507e-01
 -4.7704899e-01
 -3.2670552e-01
  4.2156380e-01
  3.5154855e-01
  3.4610062e+00
 -1.7303520e-01
  1.3507904e-01
  1.7292067e-01
 -2.0816204e-01
 -2.0125348e-02
 -2.1577142e-02
 -1.8945721e+00
 -9.3007674e-03
 -4.3803617e-01
  5.8752882e-01
 -1.8531823e-01
  4.6637893e-02
  3.3616790e-01
  4.0509016e-03
 -1.7381710e-01
 -1.8839678e-02
  1.1157361e+00
 -1.8969709e-01
  8.3485681e-01
 -1.6262371e-03
 -1.9663025e+00
 -2.6479368e+00
 -1.0048751e+00
  3.2882040e+00
 -3.6916775e-01
  6.1967243e-03
  2.0066335e+00
 -9.5105618e-01
  2.1454659e+00
  9.8202908e-01
  3.3173602e-02
  6.9401622e-01
 -1.5589892e+00
  1.9679570e-01
  8.2476270e-01
  1.5571018e+00
 -2.1420133e+00
 -7.1272045e-02
  4.8388319e+00
  1.3091844e+00
  4.6037788e+00
 -2.0175502e+00
  3.8009531e+00
 -4.1675172e+00
  5.6783372e-01
 -3.8902099e+00
  2.7012708e+00
  1.6876088e+00
  2.1438259e-01
 -6.0352451e-01
 -2.3003466e+00
  2.3423986e+00
 -1.7972628e+00
 -1.7448545e+00
 -2.2879434e+00
 -2.4420577e-01
 -4.5064348e-01
 -5.2659445e+00
 -9.1318950e-02
 -6.4729512e-01
  1.4633663e-01
  6.5789032e-01
  6.6293722e-01
 -1.0109624e+00
  1.4438902e+00
  4.6468258e-02
 -7.4327596e-02
  4.9969606e-02
  3.9172646e-01
 -2.5335264e+00
  1.0670894e-01
 -6.4889856e-02
 -3.5983328e-02
 -1.8365774e+00
  4.8513994e+00
  1.9927157e+00
 -1.9670465e+00
 -3.2466371e+00
 -1.5842888e+00
 -3.5557297e-01
  2.9804206e+00
  4.5142385e-01
 -7.9121923e-01
 -3.7502563e+00
 -1.4908455e-01
 -6.1231662e-02
  1.4616247e+00
 -2.4780731e+00
  1.8701193e+00
  2.6615655e+00
 -1.0510194e+00
  2.1210405e-01
 -2.9826462e-02
  2.6555109e+00
 -5.3529507e-01
  1.3445795e+00
  6.9493502e-01
  1.7343955e+00
 -2.3373275e-01
 -2.2704248e+00
  2.0993085e+00
  2.6570132e+00
  2.3149922e+00
  4.7519875e+00
  1.3276924e+00
 -9.6589774e-02
  4.8172742e-02
 -8.1937635e-01
 -2.7390328e-01
  1.1082285e-01
 -1.3647103e-01
 -6.4707607e-01
  2.9385660e+00
 -3.0054441e-01
  3.0611518e-01
 -7.7975661e-01
 -1.2983690e-01
  2.3738663e+00
  5.2789140e-02
  2.2786416e-02
  3.6466756e-01
  5.1185396e-03
 -2.6198316e-01
 -4.6975043e-01
 -6.0850677e+00
  2.4167469e+00
 -3.4510157e-01
  6.3392794e-01
 -6.5068483e+00
  2.9987071e+00
 -6.9158936e-01
 -2.4229753e+00
 -3.0877626e+00
 -2.9196126e+00
  6.9235106e+00
  1.1705626e+00
 -1.8487724e+00
 -3.3988759e-01
  4.5443889e-02
 -2.4872835e-01
  2.9324992e+00
  1.3888954e+00
  1.1023451e+00
 -1.4016275e-01
 -4.7922845e+00
 -1.3589660e+00
 -9.7275332e-02
  2.5923579e+00
 -3.9761090e+00
  5.5378544e-01
  8.0310696e-01
 -1.0977893e+00
 -3.6684134e+00
  1.2878054e+00
  2.2613673e+00
 -3.5092731e+00
  1.3106431e-01
  9.1930151e-02
 -1.1515347e+00
  1.0002509e+00
 -6.8236885e+00
 -1.4375992e-02
 -1.6791829e+00
  6.4985836e-01
 -2.4703313e-02
 -1.4218844e+00
 -1.4954820e+00
 -1.3949018e+00
  8.7137461e-01
  4.4681802e-02
 -1.9413672e-01
 -6.7575282e-01
 -1.2149519e-01
  2.3288912e-01
  5.3264356e-01
 -3.4803481e+00
  1.0832976e+00
  6.4441395e+00
  1.9631592e+00
 -1.0774603e+00
 -3.4110942e+00
  1.0950720e-01
 -1.2432153e+00
  4.6435592e-01
  1.3254775e-01
 -6.8239190e-02
  2.4249556e+00
 -5.7903361e-02
  9.6419680e-01
 -2.9663654e-02
 -2.2082894e+00
  1.5462778e+00
 -1.9871298e+00
 -7.1756047e-01
  6.5745968e-01
 -1.7070632e+00
 -3.2817018e+00
 -1.9652375e+00
 -3.2340598e+00
 -2.4663372e+00
  3.9423618e+00
 -1.2810746e+00
 -1.5747788e+00
  1.4884348e+00
 -8.4049754e-02
  3.1882308e-02
  1.8044711e+00
 -4.8625927e-02
  6.5706867e-01
 -4.6094003e+00
  2.3956842e+00
 -2.4952312e+00
 -6.5564102e-01
 -2.0009173e-02
  1.8360463e-03
  2.4244834e-01
 -8.0850959e-02
 -6.0619950e-01
 -8.2397804e-02
 -5.0357554e-02
  9.7754084e-02
  5.6083117e-02
 -2.9705617e+00
 -1.2547022e-01
 -9.3729490e-01
 -1.3746126e-01
 -2.8289047e-01
  3.0655223e-01
 -4.5120567e-01
  4.2225677e-01
 -1.6570191e-01
 -1.2126303e-01
  2.4371842e-01
 -4.6482703e-01
  5.7658112e-01
  8.3638537e-01
 -2.8916476e+00
  3.0030763e-01
 -5.3067883e-03
  7.1918124e-01
 -9.3397759e-02
  1.1878735e-01
 -6.4437419e-02
  1.8762152e-01
 -5.0764751e+00
  2.3637475e-01
  1.1710087e-01
 -1.3068911e+00
  1.4258155e+00
 -1.8019377e-01
  1.1402328e-01
 -1.6823693e-01
  9.6301436e-02
 -5.3914744e-02
  4.3630338e-01
  4.2475951e-01
  8.1820339e-02
  2.9924074e-01
 -2.9785392e-01
 -1.5754494e-01
 -1.2811552e-01
  1.0046560e+00
 -1.5678518e-02
 -5.8874510e-02
 -2.4932353e-01
 -1.5417233e-01
  7.7663207e-01
 -2.9996246e-01
 -4.6113470e-01
  3.2606462e-01
  1.8256205e+00
 -9.9463058e-01
  7.3623635e-02
  4.2107455e-02
 -7.3532975e-01
 -2.3050067e+00
  8.0638552e-01
 -7.3570986e+00
  1.2652010e+00
 -1.9491522e+00
 -1.4822097e+00
 -3.4867020e+00
  1.6633794e-01
  8.7512261e-01
  6.4987783e+00
 -1.4671630e-01
  1.3109324e+00
  7.6148468e-03
 -7.3699176e-02
  2.9790467e-01
 -6.1859381e-01
  1.5601825e+00
  9.9296935e-02
 -2.6984403e+00
  4.8557037e-01
  5.7579279e-01
  4.6472067e-01
  8.1405336e-01
  8.3194005e-01
 -3.0475714e+00
 -1.6601002e+00
  3.0644536e+00
  2.3386352e-01
 -1.1930829e+00
 -3.1292124e+00
  5.5495667e-01
  7.7000201e-01
 -1.1803772e+00
 -5.9375238e-02
  1.8539953e+00
 -2.0347757e+00
 -1.5330938e+00
 -3.4358123e-01
 -4.3769322e-02
 -1.1819319e+00
  1.9673780e+00
  6.6533154e-01
 -5.4002564e-02
  2.3896699e-01
  3.4014818e-01
  1.8730341e-01
 -2.9034427e-01
  5.6813255e-02
 -3.8585618e-02
  6.1511319e-02
 -2.1778949e-01
 -1.6711487e+00
  9.4733052e-02
 -2.1878853e-02
  3.0489242e-01
  4.5396069e-01
  5.0476390e-01
 -8.1610810e-03
  1.4500530e-01
  1.7294343e-01
 -1.0175344e-01
 -9.5591299e-02
  1.0084384e-01
  3.0109982e+00
  2.6199669e-01
  6.3203171e-02
  2.9202336e-01
 -1.7301527e-01
  1.3690077e-01
  6.2117308e-02
  1.1585529e-02
  2.8244995e-02
  2.0341070e-02
  1.4977270e-01
 -3.8582280e-01
  5.5678093e-01
 -5.3586513e-01
 -1.5449427e-02
 -1.2221296e-01
 -5.6704953e-03
  3.6189910e-02
  6.3950562e-01
  1.0306753e+00
  1.1695375e-01
 -3.8646847e-01
 -1.2963594e-01
  1.5724500e-01
  3.7915740e-02
 -3.3698666e+00
 -5.3765927e-03
  2.2095689e-01
 -3.2560298e+00
  5.4622218e-02
  7.3007770e-02
  3.6586545e-02
 -1.1087310e-01
  3.6443092e-02
 -3.1556316e-02
 -1.3388780e-01
  3.8553651e-02
 -2.9736171e-02
  1.1162566e-01
  6.9608726e-02
 -2.0872407e+00
  5.6423958e-02
  9.4865525e-01
 -1.8049736e+00
  2.0834360e-02
 -1.7646077e-01
  8.5491218e-02
 -7.3692179e-01
 -9.7413123e-02
 -2.7316165e-01
  2.3144316e-02
 -2.3977375e-02
 -1.7594682e-02
 -2.3004156e-01
  1.6696516e+00
  1.9438395e-01
 -7.0193730e-02
 -1.6370386e-01
  2.4145688e-01
  4.1436338e-01
  1.3938853e-01
  3.6979422e-01
  5.1152384e-01
 -2.3581554e-01
  1.1945710e+00
  8.4215254e-01
 -1.9773020e+00
  3.0539101e-01
  3.1010782e-02
 -3.1848615e-01
  2.4577618e+00
 -3.6503819e-01
  3.4063813e-01
 -2.9941389e-01
  5.6165387e-04
  1.8691424e-02
 -1.4631920e-01
  7.5907719e-01
  6.9008753e-02
  7.8812793e-02
 -5.4997973e-02
 -3.8440433e-01
 -1.0886252e-01
  2.2684363e-01
 -5.4949236e-01
 -4.6786822e-02
 -1.4316952e-02
  3.7561454e-02
 -2.6561528e-01
 -7.3533244e-02
  4.5228202e-02
  1.7234321e-01
  1.1915592e+00
  1.5048647e-01
 -3.1375899e+00
 -1.1693125e+00
 -1.9003052e+00
 -3.3717136e+00
 -6.0551457e+00
  4.2509046e+00
  4.0191260e-01
  9.7441691e-01
  6.9920307e-01
 -1.6359843e+00
  9.2522927e-02
  4.5281568e-01
  5.8298653e-01
  4.4667864e-01
 -2.9971004e-01
  7.4695945e-01
  3.7563112e-01
  7.8867537e-01
  7.3646808e-01
 -4.1536558e-01
 -1.5190212e-02
  3.3551288e+00
 -2.9150691e+00
 -1.5617803e-01
  3.3460919e-02
 -7.5668234e-01
  8.4836078e-01
 -6.2337250e-01
  6.2231159e-01
  2.4072401e-01
  4.9571148e-01
  1.0279797e-01
 -7.4121785e-01
  3.4074554e+00
  1.3753861e-01
 -1.0665987e-01
  5.1658207e-01
  2.6685515e-01
  5.4573078e-02
 -1.1971444e+00
 -1.7232679e+00
 -1.2985198e+00
 -2.5661469e-01
  1.7419554e-01
 -2.4188333e+00
 -3.1827226e-02
 -3.4405861e-02
  4.2850670e-01
 -9.5384139e-01
  2.7342978e-01
  1.6220046e+00
  7.6537746e-01
 -1.7892606e+00
  1.4740369e-01
 -5.5629086e-01
  7.4801691e-02
  4.3665922e-01
  3.7507287e-01
 -5.1990515e-01
  1.0236620e-01
  1.3230652e-01
  5.7938136e-02
  4.1703349e-01
 -2.5679483e+00
 -4.2441323e-01
 -1.4153931e+00
  1.1950468e-01
 -2.0547572e-01
 -6.4982012e-02
  1.8423833e-01
  9.6516442e-01
 -2.1614239e-02
 -8.8915128e-01
  1.8616384e-01
  9.0066232e-02
 -1.6909270e-01
 -4.8729606e+00
  2.4908741e+00
 -1.1331106e-01
  1.0441077e+00
 -8.2405931e-01
  1.3242018e+00
  5.0778443e-01
 -6.3610725e-02
  7.8632915e-01
  1.0137559e+00
  1.2520123e-01
 -1.8204394e-01
 -6.3013807e-02
 -1.2612484e-01
 -8.9727461e-02
  6.9764602e-01
  1.7384158e-01
  4.7492665e-01
  1.2488276e-01
  3.0297959e-01
  3.0455034e+00
  2.0467120e-01
  5.9944648e-02
  2.1249157e-01
  2.0487871e-02
  8.1444621e-02
  6.1040139e-01
 -2.7096230e-01
 -3.5989583e-02
  1.1194077e+00
 -2.0502144e-01
 -1.8945614e-01
  2.6307509e+00
  7.8950822e-03
  4.6455252e-01
 -2.6234415e-01
  1.5504594e-01
  6.9332534e-01
 -2.1230154e-01
 -1.8079114e-01
 -1.6229362e+00
 -2.4337065e-01
 -3.2509495e-02
  1.3124672e-01
  5.4084319e-01
 -1.3192629e-02
 -1.8425727e-01
  8.8734828e-02
  5.8112927e-02
 -1.1950000e-01
 -1.0347288e+00
  3.8961881e-01
  9.8474458e-02
  3.2949513e-03
  1.2240401e-01
 -2.1412559e+00
 -1.1689838e+00
  4.5634359e-02
 -5.9656757e-01
  1.6796023e-01
  1.7911522e-01
  7.0758529e-02
 -1.5829304e-01
 -4.4682784e+00
  2.8917208e-01
 -8.6140387e-02
  2.3157809e+00
  9.4254327e-01
  4.1957520e-02
 -2.4903643e+00
 -1.9629298e+00
 -2.5930279e-01
  9.0128414e-02
 -1.0893606e-01
  1.7201852e+00
  1.5296702e-01
 -2.0706142e-01
 -1.5914437e-01
  2.1695461e+00
  2.4443312e+00
 -1.0412491e-01
 -2.2723214e-01
 -3.1807509e-01
  2.7784884e-02
  7.5509626e-01
 -1.1261984e+00
  4.5591775e-02
 -8.1360765e-02
 -1.1076080e-01
  1.8970096e-01
 -1.8742615e+00
  1.0318606e-01
 -1.3489521e-01
  3.9087838e-01
  2.2983076e-01
  3.0906740e-01
  3.9763376e-01
  3.5551685e-01
  2.6506314e-01
 -1.7811680e-01
  4.7633257e-02
  3.8394004e-01
 -8.9659232e-01
 -1.2522768e+00
  1.8693641e-01
 -4.6325747e-02
 -4.1339960e+00
 -2.2846680e-02
 -2.4851748e-01
 -2.9565167e-01
 -5.6567609e-02
 -1.5015605e-01
 -6.7233540e-02
 -8.2329568e-03
  2.1405257e-02
 -1.3209456e-01
  4.9925822e-01
 -5.5785513e-01
  1.8909696e-01
 -1.5403264e-02
  7.2563909e-02
  4.3674034e-01
  2.6963598e-01
  5.4208046e-01
  1.2545770e-01
  6.2653231e-03
  2.5745351e+00
  6.3540208e-01
 -4.4177002e-01
  5.9838164e-01
 -3.2677548e+00
 -1.1424580e+00
  8.0065250e-01
  3.5943294e+00
 -3.1923428e-01
 -6.3492364e-01
 -3.0481848e-01
  2.6714041e+00
  1.1631408e-01
 -4.1165549e-02
 -1.6484210e-01
 -1.1640489e+00
  1.2920233e+00
  2.8169305e+00
  2.1112213e-01
 -2.7652192e-01
 -5.0659770e-01
  1.7888609e-01
  1.1627843e+00
 -1.3255153e+00
  1.1083132e+00
  4.1357021e+00
  6.3346529e-01
 -2.0271740e+00
  2.7861187e+00
  2.6070619e-01
 -1.7053142e-02
 -4.9012929e-01
 -2.7259803e+00
 -1.6013944e-01
  3.7179264e-01
  1.4714949e-01
  1.9117406e-01
  5.3873971e-02
 -2.1930532e+00
  1.0770826e-01
 -3.7298188e-02
  2.9329112e-01
  1.0012991e-02
  3.6519319e-01
  9.2679992e-02
  8.2262166e-02
  1.2461123e+00
  5.7341659e-01
 -1.5857251e-01
  5.7260573e-01
 -2.9349822e-01
  1.0434229e+00
 -1.4259239e+00
  1.4757071e-01
 -9.9784888e-02
  5.7213557e-01
 -2.5255406e+00
  2.2681882e+00
  1.4959371e-01
  1.5391096e-01
  4.5503712e-01
  4.5427084e-01
  4.2876706e-01
  1.8637849e-01
  1.4080735e-01
 -1.8479513e-01
  7.8825183e-02
 -4.2350680e-02
  1.5292285e-01
  6.8290812e-01
  2.7203616e-01
 -7.7947639e-03
 -1.5200264e+00
 -2.2712873e-01
 -1.3832515e-01
  1.8120418e+00
 -2.4584197e-01
 -1.7949018e-01
 -1.9477105e-01
 -2.1743085e-02
  5.2659887e-01
 -2.6104227e-01
  1.8943267e-01
  1.1195046e-01
  1.7436090e-01
 -1.6236417e-01
 -3.0680484e-01
  2.0551448e-01
  3.1137433e-02
 -2.9624557e-01
  5.8915514e-01
 -4.7708049e+00
 -2.4638078e-01
  1.3941160e+00
 -2.4341193e-01
  4.3531874e-01
 -5.5212390e-01
 -3.2871091e-01
  2.3690477e-01
  2.3522692e-02
 -2.4773134e-01
 -2.4213076e-02
  8.2518369e-01
 -2.1585410e-02
 -1.6453495e+00
  3.5740081e-02
 -2.4234866e-01
  1.9403644e-01
  1.7300884e+00
  2.1502189e-02
  5.6273377e-01
  2.2478716e-01
  2.3153727e-01
 -1.1222185e-01
  6.6735521e-02
 -1.1485909e-01
 -1.0414777e+00
 -7.1872160e-02
  5.8403105e-01
 -9.9660374e-02
 -9.7289872e-01
  1.5080462e-01
  1.0724463e-01
  2.9129192e-01
 -1.0677970e-01
  3.3376151e-01
 -2.0087008e-01
  2.8601217e-01
 -1.0968308e-02
 -2.3643842e+00
  3.5268903e-01
  4.6709946e-01
 -2.3644738e-02
 -4.0703842e-01
 -1.8600416e-01
  1.2516223e-01
 -5.2428558e-02
  2.4861410e-01
 -1.6132905e+00
  4.3574948e-02
  4.6667486e-01
  9.1869801e-02
 -2.1478321e-01
 -3.1550965e-01
 -1.7046509e+00
  6.8843168e-01
 -2.0281412e-02
 -3.7833355e-02
 -2.6534918e-01
  2.8934142e-01
  1.7181258e-01
  1.0853238e+00
 -1.1115045e-01
 -3.8777888e-01
  3.2173850e-02
  1.5675852e-02
 -3.1067562e-01
 -2.6659361e-01
  2.6319751e-01
 -2.0670984e-02
  7.5574033e-02
  3.8013589e-02
  9.5748764e-01
  3.3591434e-02
  4.5759466e-02
 -3.7106809e-01
  6.7218386e-02
 -4.3320406e-02
  1.7616239e-01
 -7.0438147e-01
 -6.7842282e-02
  1.6381313e+00
 -1.4541700e-01
 -1.8338805e-01
 -1.1324539e-01
  9.5427752e-02
 -3.4484297e-01
  1.3969688e-01
 -3.8313091e-02
  2.3086971e-02
 -1.2949741e-01
  1.2982654e-02
  4.1647401e-02
 -5.6823634e-02
  1.8284325e-01
 -4.7345942e-01
 -8.8157511e-01
  1.7273821e-02
  4.3475538e-01
 -5.3040735e-02
 -1.5928653e-01
  3.9899001e-01
 -1.1096310e-02
  5.8260631e-02
  9.6550882e-02
  3.7453555e-02
  3.6281079e-02
 -1.9644870e-01
  4.3603557e-01
  1.9039194e-01
 -1.8107814e+00
 -5.7465285e-02
 -8.7060523e-01
  1.5722525e-01
  1.9950034e-02
 -6.1513466e-01
 -3.3087436e-02
 -3.2381542e-02
 -1.9720954e-01
 -3.1360960e+00
 -3.2397990e+00
  7.0894337e-01
 -4.8744656e-02
  7.8199543e-02
  7.4209847e-02
  3.0924791e-01
 -7.6459461e-01
  1.3801743e-01
 -4.7183905e-02
 -1.0766701e-01
  4.1899920e-02
 -1.3355578e-01
  1.6105139e-01
  1.8772423e-02
  1.6354635e+00
 -3.4248743e-02
 -4.4032191e-03
 -8.2959220e-02
  2.3576459e-02
 -1.0280783e-01
  7.6965821e-01
  2.7548504e-01
 -3.3962082e-02
 -1.4671388e-01
 -1.5053013e-01
 -3.3140745e-02
  1.4811316e-01
 -9.3061045e-02
  3.6737807e-02
 -5.4472792e-01
 -1.8772832e-01
 -1.1954533e-02
  2.4507973e-01
  5.4318196e-01
 -3.5956547e-02
 -2.0111205e-01
 -4.7681507e-01
 -1.4093980e-02
  1.9697979e-01
 -5.4852527e-01
  5.4947361e-02
 -4.9465556e+00
 -1.0027602e-01
  3.5539465e+00
  1.0348246e-01
 -1.4686757e-01
  4.4872138e-01
  6.2720734e-01
  8.4364659e-01
 -1.8224592e+00
  1.3148175e-01
 -3.7175184e-01
 -4.7535950e-01
  5.1606202e+00
  3.0561290e+00
 -1.2493739e+00
 -1.2582888e-01
 -2.6836321e-01
  5.5856282e-01
 -2.9901147e-01
 -1.9733091e-01
  4.3194547e+00
 -4.2684226e+00
  3.3762428e-01
 -1.1686958e-01
  7.6758578e-02
 -3.2938355e-01
  6.5967852e-01
  4.7123913e-02
  4.1202003e-01
  4.5839611e-02
  2.1666312e-01
 -4.4065198e-01
  7.1616167e-01
  6.1654717e-01
  1.3613387e+00
 -7.3848146e-01
  5.2087808e-01
  1.8228896e-01
  3.2676542e-01
 -6.1104250e-01
 -5.3984199e-02
  1.2440490e+00
 -7.4581422e-02
  1.1293567e-01
 -6.0971600e-01
  5.9728378e-01
 -1.6278598e-02
  3.2122973e-01
 -2.6593748e-01
  5.7114821e-02
  3.6185723e-02
  8.0699064e-02
  2.4165647e-01
  7.6654568e-02
  6.6542715e-01
 -1.1423370e-01
  4.3557668e+00
 -4.7282001e-01
 -3.9031661e-01
  1.9656212e+00
  1.0913199e+00
  2.1990149e+00
  1.9168978e+00
  8.8173926e-02
  1.0560770e-01
 -5.2706271e-01
 -2.7693880e+00
 -8.1671610e-02
  5.2758282e-01
  1.9228262e-01
  3.6456385e+00
  1.3476555e+00
  2.5983050e-01
  1.1088572e-01
  9.0061724e-02
 -3.3072386e+00
  6.7359786e-03
 -1.9444305e+00
  8.7148798e-01
 -1.4515436e-01
  4.2684117e-01
  1.5198505e+00
 -3.9291825e+00
  2.3511324e+00
  1.7022966e+00
  9.6508062e-01
  7.0086420e-01
 -4.0424696e-01
 -1.5862497e+00
 -1.6572504e+00
  1.6690369e+00
 -2.5411627e-01
  1.4629303e-02
  1.2654509e-01
  1.0437587e-01
  1.1061604e-01
 -5.2713710e-01
 -2.3289724e-01
 -4.7027564e-01
 -3.7452531e-01
  1.3691680e-01
  2.4041513e-01
  1.4387099e-01
 -2.5554246e-01
  3.5120216e-01
 -7.5706720e-02
  1.6062067e+00
  2.4257809e-01
 -1.9969571e-01
 -1.3858745e-02
  4.0238869e-01
  5.6754079e-02
 -3.6346533e+00
 -1.9903873e-01
  9.7258046e-02
 -2.8553331e-02
 -5.1703170e-02
 -1.8731219e+00
  7.7919796e-02
 -8.4772281e-02
 -4.3628879e-02
 -8.8465102e-02
 -2.2507946e-01
 -2.9180515e-01
 -1.3657859e-01
  1.4522706e+00
  3.5003036e-02
 -2.6654500e-01
  8.6383903e-01
  1.0968657e-01
  3.5618786e-03
 -5.0625380e-02
  2.7388711e+00
  1.3432509e-01
  5.7166451e-01
 -1.0779148e-01
 -2.7076409e+00
  2.3488422e-01
 -2.0864854e-02
  1.1252515e+00
  9.9886082e-02
  1.6895736e+00
 -3.8552409e-01
 -1.1070715e-02
 -1.9316901e-01
  1.0006977e-01
  3.8541007e-01
  8.8116892e-02
 -8.4444267e-01
  1.1651573e-01
 -3.2716182e-01
 -1.5200709e-01
 -7.0288576e-02
 -3.4661016e+00
  3.2061514e-01
 -2.4482476e-02
 -1.7539616e+00
 -4.6493939e-01
 -4.0966005e+00
  4.8197880e+00
  1.6773525e+00
 -9.4269031e-01
 -1.4288295e-02
  2.1119857e-01
  1.1335162e+00
 -6.5454662e-02
 -4.2299902e-01
 -2.6374605e-01
 -2.3840261e+00
 -1.7659106e+00
 -6.7877984e-01
  1.1401769e+00
 -1.0294898e+00
 -9.1241181e-01
  2.1937008e+00
 -1.6276097e+00
 -4.9469891e-01
 -1.4148754e+00
  1.8070599e+00
 -4.4041745e-02
 -1.1796147e+00
  6.4362965e+00
 -2.5200207e+00
 -3.1981096e+00
  3.9931400e+00
 -8.9856148e-02
 -8.9712232e-01
 -3.8076502e-01
  6.8157470e-01
 -2.7967033e+00
 -2.3716288e+00
  5.3030398e-02
  4.2547455e+00
 -8.0773994e-02
  7.0414156e-02
  9.9126302e-02
  1.7722070e-01
 -8.1249589e-01
 -4.0802559e-01
 -2.7066572e+00
  1.7480701e-01
  3.7140265e-02
  1.3983823e-01
 -3.2913945e+00
 -1.9174659e-01
 -4.8885852e-02
  3.7639268e-02
  3.1530197e+00
 -1.0452220e+00
  1.7573539e+00
 -1.1596018e+00
 -1.2678095e+00
 -5.5267391e+00
 -2.4930634e+00
  1.2944152e+00
 -6.0173386e-01
 -4.0132389e+00
  9.0190452e-01
  6.5146484e+00
 -8.8515693e-01
 -8.2891929e-01
  2.9858739e+00
 -1.3578037e+00
 -2.0422924e+00
 -1.2473992e+00
 -2.7984595e+00
 -1.1218495e+00
  2.3766507e-01
 -2.1121740e+00
 -6.8272179e-01
  5.1261287e+00
 -1.2310305e+00
  8.0167174e-01
  3.4386045e-01
 -9.9877268e-01
  2.3994858e+00
 -4.4928584e+00
 -2.2013161e+00
 -8.7927741e-01
 -3.2682648e+00
 -3.6849594e-01
 -1.0478994e+00
 -4.1386275e+00
  6.8588652e-02
  1.8487582e+00
 -2.4010301e+00
  4.0101922e-01
 -1.7942311e-01
  8.1684989e-01
  2.2489038e-01
  7.6319641e-01
 -8.8525832e-02
  1.0008208e+00
  2.2589250e-01
  5.6453031e-02
  6.8053603e-01
 -8.0450783e-03
 -1.0218285e+00
  3.8261530e-01
  1.9256867e-01
  7.3992777e-01
  1.5663245e-03
 -4.0783138e+00
  6.1609638e-01
 -4.5992471e-02
  2.7237943e-01
 -3.2011783e-01
  9.4235837e-02
 -4.2453620e-01
  2.0608069e-01
 -2.6656920e-01
  1.3937296e-02
  7.9290137e-02
 -1.1286682e-01
  1.2201963e-01
 -1.0652086e-01
  1.9791543e-01
  3.2704553e-01
 -7.8140080e-01
  1.9242482e-02
 -2.7272576e-01
  1.1325408e-01
  1.4683037e+00
 -2.9369277e-01
  7.4632579e-01
  1.6071011e-01
  3.0439723e-01
  5.1925081e-01
  1.7474993e-01
 -2.1241672e-01
  2.5635207e-01
 -3.6283221e+00
 -2.5603133e-01
 -2.8970237e+00
  5.7789590e-02
 -1.8868482e-01
  1.1744824e-01
 -1.3322937e-01
 -5.6868470e-01
  1.2179545e-01
 -4.5471039e-02
 -1.0985145e-01
  2.8809218e-02
 -3.2097882e-01
  3.2382700e-01
 -4.9830595e-01
 -2.4855906e-02
  1.7693387e-01
  1.4187491e-01
  5.7185912e+00
  5.7801604e+00
 -1.1059955e+00
 -1.0674436e+00
 -6.0398513e-01
  1.7390307e-02
 -8.2086879e-01
  5.3492303e+00
 -2.9743161e+00
  1.0313938e+00
  9.9727470e-01
 -1.2291775e-01
  1.2378019e+00
  4.1555233e+00
  3.4143167e+00
 -1.2363042e+00
  2.8156438e+00
  5.7121229e-01
 -2.4216959e+00
  1.7537466e+00
  4.6531197e-01
 -2.2912660e+00
  1.2589263e+00
  1.1657510e+00
 -7.5929445e-01
  1.1281198e+00
  1.2659175e+00
  4.9064827e-01
 -1.7004358e+00
  1.8987024e+00
  1.5503953e+00
  2.8460870e+00
  2.2913027e-01
 -9.0666121e-01
 -2.3828736e-01
  2.0976071e+00
 -4.5957093e+00
  3.7584037e-02
  1.0558010e+00
  8.1385694e-02
 -4.8361957e-01
 -5.8792025e-01
  5.8540706e-02
  1.0177990e+00
 -3.3197021e-01
 -2.0360330e-01
 -4.9289247e-01
  4.8342338e-01
  6.6546744e-01
 -7.1734704e-02
 -5.6508370e-02
 -1.4079198e+00
 -3.7003617e+00
  1.0709383e+00
 -1.4929600e+00
  1.5857364e+00
  2.5335112e-01
 -5.6576943e-01
  1.1768953e-01
  3.2944784e-02
 -6.4563876e-01
 -1.0291283e+00
  4.3532339e-01
 -2.0035486e-01
  2.4037386e-01
 -7.0501529e-02
  7.5375125e-02
 -2.5838023e-01
  5.5649400e-01
  1.9344136e-01
 -2.6931427e-02
  3.2612470e-01
 -3.4495306e-01
 -3.3970814e-02
  2.4574298e-01
  8.2658455e-02
  7.1182944e-02
  1.7374782e-01
  1.5453914e-01
 -2.8280178e-01
 -1.2171972e+00
  6.4864740e+00
 -6.6401049e-02
 -2.2876959e-01
 -4.3253389e-01
 -2.0097809e-01
  1.4355162e-01
  7.0600599e-01
 -2.7430752e-02
 -3.5205442e-02
 -4.7761649e-02
  3.7479123e-01
  1.6855739e+00
 -3.0999126e+00
 -1.0865542e+00
 -4.6069062e-01
  3.8607475e-01
  5.7010058e-02
  1.5442933e-01
 -4.6547718e+00
 -1.0657687e-01
  1.8426552e+00
 -2.7907327e-02
 -3.0237615e+00
  6.4195210e-01
 -2.4796183e-01
 -5.1661706e-01
 -1.2221500e-01
  3.8153106e-01
  1.8950237e-02
  2.9882796e+00
  1.7326206e-01
 -9.9154599e-02
 -8.9258797e-02
  5.1158231e-02
 -4.4377055e-02
 -1.9380665e-01
  2.7985874e-01
 -2.1330485e-01
  2.0587069e-01
 -1.1193529e-01
  1.0072493e-01
  5.1529568e-02
 -1.2815479e+00
 -1.5066230e-01
  5.9520220e-03
 -1.2587442e+00
  4.1866004e-02
 -2.0548016e-01
  1.0272474e+00
 -2.4482243e-01
  3.3803096e-01
 -9.7911514e-02
 -8.2146239e-01
 -7.2166391e-02
 -3.2592107e-02
  7.3254064e-02
 -5.4356062e-01
 -1.2921719e-01
 -4.6478093e-01
  2.0411828e+00
 -1.5237394e-01
 -6.6583413e-01
 -1.7568254e-01
 -1.6870306e+00
 -3.3428824e-01
  4.1799712e-01
 -8.4347114e-02
  8.3365500e-02
  1.6025009e+00
 -3.0607599e-01
  2.9486972e-01
 -9.7000152e-02
  8.0409981e-02
 -5.8294795e-02
 -2.0254905e+00
  1.7471633e+00
 -2.1135417e-01
  2.0744205e+00
  3.7029665e+00
 -2.5076971e+00
  2.8208179e+00
 -3.3857161e-01
 -9.5467812e-01
 -8.1167257e-01
  7.8149390e-01
 -2.4979173e-01
 -2.2885609e+00
  9.2154339e-02
  1.9095474e+00
  1.2160770e+00
 -4.9239248e-01
 -1.7664605e-01
  3.3193514e-01
  1.4107467e+00
  5.2880011e+00
  5.6562138e+00
 -9.2347783e-01
 -3.6144288e+00
 -1.6869503e-01
  3.8666764e-01
 -4.1896755e-01
 -7.8889340e-01
  1.6421775e+00
  3.1959169e-02
  1.4977318e+00
  6.3143611e-01
 -1.6708217e+00
  2.8052106e+00
 -1.8654094e+00
  9.0896702e-01
  4.0864352e-02
 -3.8636887e-01
 -1.0946802e-02
  6.7542344e-02
 -9.1761976e-02
 -8.8323631e+00
  6.9083163e-04
 -2.4845386e+00
  1.2327083e-01
  1.2538608e+00
  3.3963701e-01
  8.7084249e-02
 -3.3940512e-01
  1.3790368e-01
 -2.4861565e+00
  1.6295348e+00
 -1.8256822e+00
  6.6741610e-01
 -2.0634301e+00
  6.4540949e+00
  9.5384818e-01
  2.0589201e+00
 -8.0431771e-01
  3.5889127e+00
  1.6344515e+00
 -4.1570276e-02
  2.9146931e+00
 -6.6575351e+00
  5.7428708e+00
 -2.9094896e+00
  1.7421072e+00
  2.2100015e+00
 -1.2288910e+00
 -1.0898597e+00
 -1.2183391e+00
  5.2603763e-01
 -2.7130594e+00
 -1.0367095e-01
 -5.2879608e-01
 -2.8879626e+00
  1.2784599e-01
 -5.8185571e-01
 -5.4428732e-01
 -1.4101073e+00
 -9.0278620e-01
  1.5247785e-01
 -3.5568175e-01
 -3.2583187e+00
  2.0275360e-01
 -3.2887352e+00
 -2.5423416e-01
  7.7966285e-01
 -6.6483116e-01
  2.9473951e+00
  3.5426202e-01
 -1.4922780e+00
 -1.0087969e+00
  5.6513511e-02
 -1.4280920e-01
  1.6777635e-01
  4.9903076e-03
 -3.1034374e+00
  1.0051346e-01
  2.1927107e-02
  1.7807177e+00
 -5.5120683e-01
  6.6591043e+00
  4.3332171e+00
  3.2605809e-01
 -4.4595332e+00
 -2.3717685e+00
  1.9220177e+00
  2.4448669e+00
  1.1132115e+00
 -5.0410085e+00
 -8.2373071e-01
 -1.0626803e-01
  9.4296731e-02
  8.1982952e-01
  2.5685439e-01
  1.8714272e+00
  2.4961450e+00
 -2.0585260e+00
 -1.1192846e-01
  4.3402675e-01
 -5.7892936e-01
 -1.8960905e-01
 -1.0310180e-01
  2.9366796e+00
 -6.0062938e+00
 -8.8992274e-01
  3.7362555e-01
 -2.5010974e+00
  1.3235564e+00
  9.0703326e-01
 -1.8271008e-01
 -4.5564291e-01
  2.2875438e+00
 -7.7310926e-01
 -3.3752447e-01
 -9.3158615e-01
 -1.2770754e-01
  3.3772945e-01
 -3.8047917e-02
  2.1773946e-01
  1.9922875e-02
  5.2484477e-01
 -6.8400711e-01
 -2.1966215e-02
 -2.9284151e-02
 -8.2135028e-01
  2.9737800e-01
 -2.0390652e-01
  2.2148864e-01
  7.8695840e-01
  3.6990373e+00
 -1.3743451e+00
  3.1376443e+00
  2.3775325e+00
  1.9553878e+00
 -2.4360456e+00
  7.0282060e-01
  6.3336807e-01
 -2.0838485e+00
 -3.6752024e+00
  1.4442773e+00
  6.2928945e-01
 -7.5024611e-01
  9.0749606e-02
 -1.8471679e-01
  5.0821918e-01
  4.2943719e-01
  3.0919573e+00
 -4.5201864e+00
 -1.0313022e+00
 -8.7691367e-01
 -4.2411075e+00
  2.2890439e+00
 -5.6233251e-01
  2.4526625e+00
 -1.8069172e+00
  4.8908958e+00
  1.5346998e+00
  1.8293788e+00
 -1.6350383e+00
 -4.3608441e+00
  4.1782794e+00
 -1.6206725e-01
  1.3094013e+00
  8.2910672e-02
  1.1206528e+00
 -3.9472902e-01
  7.6453708e-02
  2.4457078e+00
  1.1585778e+00
 -6.4000493e-01
  2.5605042e+00
  1.0302979e-01
  2.3845935e+00
 -2.2522274e-01
  7.8735113e-01
 -8.5770302e-02
 -2.0604357e-01
 -8.9794803e-01
 -1.6524864e+00
 -1.3748829e+00
 -1.3704310e-01
 -1.2378629e+00
 -7.9177195e-01
  1.1663139e+00
 -1.9337527e+00
 -4.3274391e-01
  2.7549744e+00
 -2.8542382e-01
 -1.6056513e+00
  1.7909814e-02
  2.2048949e-01
  2.5732654e-01
 -3.7811898e-02
  3.2810622e-01
  2.4728766e-01
  2.8715774e-01
  1.1018654e-01
  2.2385170e+00
  2.6381424e-01
 -1.6237597e+00
  2.1511633e+00
 -2.0013158e-01
  1.4876915e+00
 -2.1575429e+00
  7.2528012e-02
 -1.2321968e+00
 -2.8231621e-01
  2.8335497e+00
 -2.5310247e+00
 -7.5316173e-01
  8.5007924e-01
  3.1136348e+00
 -1.0125523e+00
  2.6272547e+00
  1.4439883e+00
  8.5697877e-01
  2.7648258e-01
 -4.6252450e-01
  3.7234344e-02
  3.6512041e+00
 -1.3192029e-01
 -2.0450260e-02
  3.0023256e-01
 -5.2689999e-01
 -1.3913266e-01
 -5.8158837e-02
  2.0842096e-01
  4.4099194e-01
  3.7250149e-01
  1.4196779e-02
 -1.4337850e+00
  4.0211882e-02
 -1.0843675e-01
  1.7483021e+00
 -9.6855074e-01
 -1.8514693e+00
 -7.3330656e-02
  1.6199921e+00
 -1.4523054e+00
 -7.0573473e-01
 -1.4304169e-01
 -6.4760524e-01
 -1.2137334e-01
 -3.3765458e-02
 -2.9279792e-01
  2.1583049e+00
  1.3328542e-01
  1.7633513e-01
 -1.1005030e+00
  3.2480174e-01
  2.3705311e-01
  1.5737875e-01
 -7.9691716e-02
 -7.0474289e-02
  1.5156453e+00
 -7.7945882e-01
  4.9459010e-02
 -5.0614381e-01
  3.7925523e-02
  1.1802275e+00
  1.4755060e-01
 -4.9592739e-01
 -9.7585268e-02
 -5.2058058e+00
 -2.4786881e-01
  1.3807619e-01
  9.3079515e-02
 -1.5787785e+00
  2.4177641e-02
  2.5156617e-01
  5.3923011e-02
 -2.4299021e-01
  1.0846542e-01
 -2.4779418e-02
 -5.7733381e-01
  1.7241329e-01
 -9.5400971e-01
 -1.7628463e-01
  1.9625969e-01
 -1.6153407e-01
 -1.8130964e-01
  7.8078061e-02
  3.1458057e-02
  6.4756393e-02
 -2.7768567e-01
 -6.2681995e-02
  7.2036251e-02
 -1.3113003e-03
 -3.8671914e-01
  1.9849363e-01
 -2.9693120e+00
 -4.1391227e-02
  2.8860589e-02
 -7.8163378e-02
 -2.6335010e-02
  1.0068223e-02
  4.7506719e+00
  5.1691625e-02
  2.5257725e-01
 -2.0480822e-01
 -7.9403067e-01
  2.7501315e-01
  2.3850490e-01
  1.6842835e-01
  1.9853754e-02
  1.7266764e-01
  1.0680013e-01
 -1.7955309e-02
 -3.5091059e+00
 -2.2450392e-01
 -3.1884555e-02
  1.6926427e-01
  1.9080168e-01
  2.6891667e-01
  5.1454373e-02
 -1.0733803e-01
  1.6582508e-01
 -1.2277657e-01
  7.3883228e-02
 -8.0032110e-01
 -6.0904783e-04
  7.1847594e-01
  1.9482055e-01
  4.3951699e-01
 -3.4753147e-01
  2.4427064e-02
  6.9091640e-02
  1.9411568e-01
  6.1905503e-01
 -5.7414842e-01
  1.9366777e-01
 -6.3380671e+00
  2.4642088e-01
 -1.2432745e+00
 -5.9434670e-01
 -4.9163082e-01
 -9.7170025e-01
 -3.9046630e-02
 -2.1874815e-01
 -2.1383308e-02
 -1.1169256e+00
  3.1066734e-02
  1.3158077e+00
  7.8726381e-02
  6.9268364e-03
 -2.7166989e-01
  2.4565525e-01
  1.4512280e-01
  1.6020797e-02
 -1.9858569e-01
  1.7424718e-01
 -8.1718171e-01
  3.9136901e-01
 -1.5912661e-01
 -3.4330125e+00
 -1.4812019e-01
 -1.3407758e-01
 -1.2346763e-01
 -1.7531380e-01
 -7.2158933e-01
 -1.3446330e+00
 -2.0260365e-01
 -2.0522709e-01
 -1.3037856e-01
 -3.0535108e-01
 -1.1850563e-01
  2.2540198e-01
 -1.1167548e+00
  7.5195633e-02
  5.5760664e-01
 -1.1570390e+00
 -4.2030988e+00
  8.6822751e-04
 -2.8441197e-01
  1.6145675e-01
  1.0134274e-01
  2.1995869e+00
 -2.3601341e+00
  1.0517722e-01
  2.1346536e-02
 -1.0852838e-02
 -1.6149247e-02
  1.5493862e-01
 -1.0036955e-01
  2.9605577e+00
  2.4536242e+00
 -4.7215301e-01
 -1.2725548e+00
  1.3836434e+00
 -2.4733679e+00
  7.7662921e-01
 -8.3488053e-01
 -2.7206108e-02
  1.5432246e+00
  2.0204585e+00
 -3.9368846e+00
  3.8673818e-01
  6.5940970e-01
  1.4975141e+00
  5.7296052e+00
  4.5176144e+00
 -2.9135544e+00
  1.7353801e+00
 -3.1651847e+00
  2.6072512e+00
 -3.1850078e+00
  2.2304235e+00
 -1.0735352e+00
  4.2601669e-01
 -5.6386632e-01
 -1.2815485e+00
  1.0810480e-01
 -1.3495944e+00
 -2.4633682e+00
 -1.5511947e+00
  3.2221562e-01
 -1.6973667e+00
 -2.5005598e+00
 -4.2282209e+00
  6.3084447e-01
  1.1797825e+00
 -1.8742503e+00
  4.4365887e-02
  6.1369985e-01
 -2.6975396e+00
 -5.5032790e-02
 -2.3961577e-01
 -4.3126434e-02
  1.2857812e-02
 -4.3903375e+00
 -1.1170267e-01
  1.3513675e-01
 -3.4562448e-01
  5.6118380e-02
 -2.7269101e+00
  4.7345924e-01
  2.4240632e+00
  6.1753213e-01
  8.0777027e-02
 -3.2403853e+00
 -1.3499411e+00
  1.0094754e+00
 -3.5597324e-01
  1.5854459e-01
 -9.7257886e-03
 -6.8894410e-01
 -1.0631260e+00
  1.4589044e+00
  1.0747901e-01
 -2.5223904e+00
 -1.2024500e+00
  2.4160227e-01
 -1.0247408e+00
 -3.3758049e+00
  1.7826086e+00
  1.0919892e+00
  4.0083709e+00
  1.3066676e-01
  2.4297667e+00
  1.3949242e+00
  1.6783181e+00
  1.0324168e+00
  2.6449513e+00
 -2.9220560e+00
  5.4707903e-01
  6.2955901e-02
  5.9597354e+00
 -4.3723040e+00
  2.0545468e+00
  9.1115892e-01
  1.5370672e+00
  1.2553768e+00
  6.4333367e-01
 -9.3679303e-01
 -1.2816594e+00
  1.0712516e-01
  6.7146420e-01
 -3.1203347e-01
 -2.1289566e+00
 -4.0166825e-01
 -2.3304227e-01
 -1.6470960e+00
 -3.2621717e+00
  1.4133328e+00
  1.0505220e-01
 -2.7427471e-01
 -2.9225132e+00
 -4.0877450e-01
 -4.4966698e+00
  8.9930308e-01
  6.0846683e-02
 -3.6373231e+00
  5.3620377e+00
  2.6230104e+00
  3.9820307e-01
 -1.2557772e+00
 -5.6315327e-01
  5.3706193e-01
  3.4493651e-02
 -7.6153972e-03
 -2.1821433e-01
 -1.5671700e+00
 -2.3119390e+00
 -3.1042576e+00
  4.8432767e-01
 -9.0633824e-02
 -6.3804710e-01
 -1.5214233e+00
 -2.4721451e+00
  5.6744444e-01
 -1.6790661e-01
  2.2837636e+00
 -3.8145368e+00
 -5.4348224e-01
 -6.8866634e+00
  1.7672231e+00
  1.5230556e-01
  1.6400554e+00
 -2.1486720e-01
  2.0668230e+00
 -1.2237555e-01
  9.5753717e-01
  1.2332075e+00
  5.4299619e-02
 -3.3732019e-02
 -4.3936855e-01
 -1.5306550e-01
  1.2416701e+00
 -2.1557625e-02
 -9.3893868e-01
  4.6992626e+00
  2.3581816e-02
 -9.3548648e-02
 -4.3968666e-02
 -3.9507341e-01
  4.3159267e-01
 -3.4642923e-01
 -3.2789886e-01
  1.0178108e+00
  7.0665859e-02
  1.4534581e-02
 -2.0470114e-01
 -1.0870954e-01
  1.4570549e+00
  2.1763790e-01
 -1.9147454e-02
 -1.1935855e+00
 -3.8269714e-02
  3.4608848e-02
 -5.2382834e-03
  4.5263851e-01
 -1.3799029e-02
 -1.7282553e-01
  1.0465068e-01
 -1.8592672e-01
 -2.8571874e-01
 -8.7037009e-01
  1.6368816e-02
 -6.7759599e-03
 -6.3236743e-02
 -9.8517634e-02
  2.8685210e+00
 -3.0618358e-01
  8.1210740e-02
  4.0024576e+00
  4.8862960e-02
 -3.0546083e+00
 -2.5062725e-01
 -4.3615577e-01
 -3.8526943e-01
 -3.6165756e-01
  1.3746436e-01
  7.3586572e-03
 -1.5399891e-01
 -1.1961539e+00
  2.3507541e-01
 -1.3755244e-01
  5.4026926e-01
 -3.3420485e-01
  1.8086166e+00
 -4.2500505e-01
  4.5714681e-03
 -1.7182760e-01
 -3.3587570e+00
 -6.0123408e-01
 -3.1231973e-01
 -8.1232387e-01
  1.7031993e+00
  1.8315336e-02
 -1.3227062e-01
  1.0426639e-01
  1.8599738e-01
 -2.4550424e+00
 -8.7854005e-02
  3.0610019e-01
  3.2118127e-01
  9.8064609e-02
  5.6761050e-01
  2.5274441e-02
  1.2072490e+00
  5.7622418e-02
  2.0201153e-01
 -1.0668185e-01
 -7.4447614e-01
  2.2844791e-01
  1.9950067e-01
 -1.4824499e-01
  2.3516105e-02
  6.9236360e-02
 -5.5051035e-01
  2.3133077e-01
 -3.6831792e-02
  2.5682616e-01
  2.3300168e-01
  2.9813405e-02
 -5.7373834e-01
 -1.8179707e-01
 -2.0949909e-01
 -1.3849835e+00
  9.5730036e-02
  4.5030773e-02
  3.1700498e-01
 -1.4272603e-01
  1.0220766e-01
  2.3776771e-01
  1.9430631e-01
 -2.1883117e-01
  7.6987021e-02
  2.2688454e-01
 -3.6856312e-02
  1.0976394e-01
 -1.1004272e+00
  9.3903847e-02
  1.0211040e+00
  6.8161392e-01
 -2.5622687e-01
  9.5962502e-02
 -6.4404905e-02
 -2.2516401e-01
  1.4189301e+00
  1.8755575e+00
 -8.4456944e-01
  2.4327757e+00
 -3.3178390e-03
 -1.2601997e-01
 -2.0128412e-02
  3.3843258e-01
  2.6261714e-01
 -1.2941083e-01
 -8.9387715e-01
 -5.7175986e-02
 -6.4153755e-01
  2.4917197e-01
  4.7988141e-01
  2.4517126e+00
  5.7655476e-02
 -1.0607483e-01
 -5.3668462e-02
  9.4810501e-02
  3.7487929e+00
  2.5236292e+00
  4.8106547e-02
  3.0825672e+00
  1.7780470e+00
 -2.1396855e-01
 -1.4750487e-01
 -3.9631623e-01
 -2.7632597e-01
 -1.1399552e-01
 -1.4703460e-01
 -1.6340911e-03
  5.3695235e-02
  1.8000363e-01
 -3.8200188e-01
  4.0059674e-01
 -9.9774587e-01
 -2.8310508e-01
 -1.5202889e-01
 -4.2220864e-01
 -3.4758378e-02
 -2.3780991e-01
 -5.1998951e-02
 -2.9055091e-02
  1.9612767e+00
 -1.4770754e-01
 -6.9871986e-01
 -5.2435767e-02
  6.5328665e-02
 -1.1210735e+00
 -2.1997724e+00
  5.4253191e-01
  5.7176814e+00
  1.4627430e+00
  3.6848693e+00
 -2.0492394e+00
  1.6719716e+00
 -1.3103064e+00
  3.4120302e+00
 -2.4368246e+00
  6.6319890e-02
  3.9633462e+00
 -3.6290449e-01
 -1.2873346e-01
 -1.5212396e-01
  3.2562417e-01
 -9.1435051e-01
  1.2090362e+00
  2.0792053e+00
 -1.0258036e+00
 -6.4274824e-01
 -1.2927761e+00
 -2.3012154e+00
 -6.6020197e-01
  3.4324417e+00
  1.5841049e+00
 -3.7402818e-01
  7.3395520e-01
  1.4914837e-01
 -2.4660199e+00
  2.2471325e+00
 -3.9862795e+00
 -3.1087914e-01
 -8.8878417e-01
 -1.6539181e+00
 -2.0786600e+00
 -7.1984118e-01
 -1.1210034e+00
 -2.0521207e-01
 -9.5291428e-02
  1.2108747e-01
 -2.6038054e-01
  6.0748059e-02
  7.1306359e-03
  1.9055009e-01
 -1.4019778e-01
  4.0948302e-01
 -2.7742782e-01
 -1.5433683e-01
 -6.4860828e-02
  1.8151335e-01
  3.7222445e-01
 -1.9869269e+00
  1.7868056e+00
 -2.0123494e+00
 -2.7422256e+00
  2.3163540e+00
 -4.4194856e+00
  1.3929568e-01
 -1.0348785e-01
 -5.9667040e-02
 -6.0732293e-01
 -2.1158032e+00
  4.4942394e-02
  1.9403027e+00
 -9.6871302e-02
  1.7013375e+00
  3.6980388e+00
  7.3280811e-01
  6.0877591e-01
 -1.9361843e+00
  7.0799088e-01
  5.7127410e-01
 -5.7856017e-01
  3.6846044e+00
  1.4691070e+00
 -1.4658732e+00
 -1.4906187e+00
  1.5577894e+00
  2.9373640e-01
 -1.7182122e+00
  2.7307463e-01
  2.3574657e+00
 -4.8480290e-01
 -4.4374824e-02
  2.9289322e+00
  1.2156202e+00
 -3.1178317e+00
 -1.6997042e+00
  1.5598266e+00
 -7.1849900e-01
 -9.2698550e-01
 -2.6236767e-01
  8.6422443e-02
  5.5116016e-01
  2.8045638e+00
  1.5411018e-01
  4.7800323e-01
 -8.1685290e-02
  8.9803837e-02
 -5.6097877e-01
  1.6743354e-01
 -5.6459896e-02
  1.1471192e-01
  2.7081490e-01
 -3.5966444e-01
  3.7540562e+00
 -2.0829537e+00
  2.9132792e-01
 -2.0541672e-01
  4.4151522e-02
 -1.6082901e+00
  9.7992919e-02
  2.1234222e-02
  6.8525234e-03
  2.0841326e-01
  5.8371419e-01
  2.3171701e-01
  1.1060616e+00
 -6.9757098e-01
  2.4113262e-01
  3.4733361e-01
 -2.2066362e-01
  3.0230567e-01
 -3.0746850e-01
 -6.2927628e+00
 -1.4958349e+00
 -4.5038751e-01
 -2.5955826e-01
 -5.2667904e-01
  1.3126411e+00
 -6.7439288e-01
 -2.0121107e+00
 -9.5640343e-01
  3.6095676e-01
  3.1964999e-01
 -1.2671248e+00
 -1.8185380e-01
 -3.5445130e-01
 -4.1108909e-01
  3.5564840e-02
  5.1813032e-02
  1.1437415e-01
 -1.2108859e+00
 -1.2508658e-01
  2.2318710e-01
  2.2914524e-01
 -3.1454852e-01
 -9.4707757e-01
  4.2326826e-01
  6.8754762e-02
 -2.8269210e-01
  1.0947537e-01
 -1.0415606e-01
  1.5213713e-02
 -7.8205802e-02
  8.8466987e-02
  2.2484506e-02
 -1.1790107e+00
  8.6739504e-01
 -5.4258356e+00
 -4.2710695e-01
  1.3651773e+00
  2.3058960e+00
  1.4421178e+00
  2.7067313e-02
 -2.0809641e-02
 -4.4281128e-01
 -9.1654696e-02
 -8.6245710e-01
  1.1442971e+00
 -2.6369652e-01
 -1.7480118e+00
  2.2102652e-01
  4.1082099e-01
 -8.8839489e-01
 -2.3201740e+00
  1.9697198e-01
  1.7472279e-01
  1.0537983e+00
  1.4780031e-01
  1.2146102e-02
 -1.8519156e+00
  1.1105405e+00
 -2.4133961e-01
  5.3362083e-01
 -2.3698622e-02
 -2.6061949e-01
 -3.4368470e-01
  2.6383555e-01
 -3.5513240e-01
  4.9027667e+00
  1.4991961e-01
 -1.6171546e-01
  1.2777883e+00
 -3.8126206e-01
  8.0387110e-01
 -9.2269488e-02
  1.5718049e-01
  3.4584606e-01
 -1.4503364e-01
 -1.4941524e-01
 -1.6236147e-01
 -1.6034645e-01
 -2.5427780e+00
  1.6027187e-01
  2.9464171e+00
 -1.9932737e+00
  4.0876589e+00
 -8.9692605e-01
  6.4136043e+00
  4.7670951e-01
  4.2007872e-01
  3.4695511e+00
  7.4372627e-02
  7.5958014e-01
  4.3939054e-01
 -1.1046280e+00
  1.1199318e-02
  1.1690484e-01
 -1.6260561e-02
  6.3664496e-01
 -1.9252729e+00
  1.0558586e+00
  2.6445591e-01
 -2.1861815e+00
  1.6398654e+00
  2.2714634e+00
  3.7437320e+00
 -3.9342859e+00
 -4.2029419e+00
  1.0558869e+00
  3.3200994e-01
 -1.2494906e+00
  7.6003704e+00
  6.7249763e-01
 -5.4983705e-01
 -7.6110497e-02
 -2.9098368e+00
 -5.5815351e-01
 -3.1488621e-01
  1.4546969e+00
 -4.2476621e+00
 -1.0348699e+00
 -5.0672412e-02
  5.3726804e-02
  9.3759902e-02
 -9.9647105e-02
  2.2570024e+00
  3.9040167e-02
  5.7084924e-01
  1.0580232e-01
 -5.3455628e-02
 -2.7930853e-01
 -6.4066005e-01
  1.6721082e-01
  5.1817143e-01
  5.8559853e-01
 -5.6466465e+00
 -3.7899816e+00
 -6.1944300e-01
  4.3621942e-02
 -9.3971586e-01
 -5.4933494e-01
 -4.9240708e+00
  1.3877072e+00
  9.8104852e-01
 -7.1602277e-02
 -3.5101999e-02
  6.5476079e+00
 -1.7305170e+00
  2.9329829e+00
  2.3132441e+00
 -1.4841738e+00
 -3.6214039e+00
  4.0999737e-01
 -1.8018101e+00
 -5.9190911e-01
  3.7868967e+00
 -2.7843807e+00
  1.9093385e+00
 -3.0317848e+00
 -6.9467630e+00
 -2.7134452e+00
  7.2894138e-01
 -8.7328978e+00
  2.2755227e+00
 -3.0555990e+00
 -2.7737436e+00
 -1.6731552e+00
 -4.4074323e-02
 -2.3311398e+00
 -5.3652844e+00
  2.3728322e-02
 -1.1644246e-01
  2.0095828e+00
  6.7938948e-01
 -2.7288849e+00
  8.5346490e-01
  3.4139462e-02
  1.8916991e-02
 -2.6983772e-03
  1.7744754e-02
 -9.0988941e-02
  9.3293238e-01
  1.1650207e-01
 -7.0433307e-01
 -1.0845904e+00
  8.1730604e+00
  4.1486120e+00
  3.1681895e+00
  1.7088932e+01
  5.5848908e+00
  3.6769524e+00
  1.3085644e+00
 -1.7807947e-02
  1.1080127e+00
  2.8483656e-01
 -2.2926623e-01
  1.7077103e+00
 -1.7916285e-01
  2.3729306e-01
  5.7344759e-01
  9.8145835e-02
  4.2234173e+00
  2.7028747e+00
  4.7640061e-01
  7.9493977e-02
  6.2757879e-01
  9.0700173e-01
  1.7995368e-01
  4.1293893e+00
  3.3604083e+00
  7.4468601e-01
 -8.5783571e-01
  1.9066516e+00
  7.0014158e-03
 -1.3217540e-01
  2.7440548e+00
  5.0283327e+00
  2.1730010e-01
  1.7995235e-01
  2.1216311e+00
  6.2789550e+00
  1.0924505e-01
 -3.2542962e-01
  4.1865581e-01
  1.7630450e-01
 -4.1117775e-01
  4.0105873e-01
 -4.5778477e-01
 -1.8198547e-01
  3.4920743e-01
 -2.8058052e-01
 -1.1045511e+00
  3.2561477e-02
 -1.2430828e-01
 -2.1259372e-01
 -1.8747042e-01
 -2.1109480e-01
 -3.2876197e-01
  9.9282080e-01
  2.6188827e-01
  1.4887317e-01
  6.3662580e-03
 -3.2126544e+00
 -1.7844594e-01
 -2.5467962e-01
  2.4393279e-02
  1.7235088e+00
  1.9627373e-01
 -4.2168785e-02
 -4.8715109e-01
 -4.8886847e+00
 -1.6801223e+00
  5.1991880e-01
 -1.1184531e-01
  7.2412834e-02
 -4.5888554e-02
 -3.3295456e-01
 -1.2727880e-01
  9.5359415e-01
  9.7607702e-02
 -8.0290530e-04
  5.4784542e-01
 -2.0572115e-01
  2.2950364e-02
  9.7561574e-01
  1.0026369e-01
 -2.1831805e-01
  6.8056250e-01
  3.4530994e-02
  6.6326879e-02
 -1.0404471e+00
 -1.7648381e-01
 -1.2628628e-01
  7.0162612e-01
  1.0224489e-01
 -8.5236333e-02
  8.3778244e-01
 -4.0409319e-02
  3.2297526e-02
  2.5909744e-02
 -1.2418487e+00
 -1.2228715e-02
 -2.3626534e-02
  2.8617507e-01
  1.3457723e+00
 -5.3221703e-01
  7.3773992e-01
  2.5038016e+00
  3.5332078e-01
  8.3082821e-03
  8.0347575e-02
 -8.6706436e-01
 -2.0384085e-01
  2.7635145e+00
 -9.4132237e-03
  2.5907120e-02
 -6.9932686e-03
 -7.2585523e-02
  2.0427361e+00
  2.2694504e-02
 -5.9468180e-01
 -1.8029217e+00
  7.1755528e-01
 -1.8462514e+00
  2.0122454e-01
 -2.3904879e-01
  1.7514936e+00
  2.0757662e-02
 -4.1520398e-02
  1.1318160e+00
 -7.6264767e-03
  4.1581649e-02
  2.8017026e-01
  3.2184534e-02
  3.2028560e-02
  4.5702040e-02
 -2.5928017e-02
 -1.6290325e-01
  2.1763337e+00
  1.8939920e-01
 -2.5306174e-01
  1.8224348e-01
 -1.3204882e-01
  1.3398237e+00
  2.3694842e-01
  1.6751702e-01
  1.3777337e-02
  9.0314233e-01
 -7.8263186e-02
  2.8524983e-01
 -2.3223633e-01
 -4.3669559e-02
 -1.1822157e-01
  2.4211752e-01
 -1.6867465e-01
  1.0836469e-01
 -1.5596922e-01
 -2.9736104e+00
  2.9026794e-01
  5.5871496e+00
 -3.6686845e+00
 -1.8970543e+00
  3.8193524e+00
  5.2377181e+00
 -2.1136911e+00
  3.1820884e+00
 -1.0024364e-02
  4.1006115e-01
 -3.8747308e+00
 -2.9256153e+00
 -2.6215954e+00
  2.4619217e+00
 -3.1782189e-01
 -2.7423677e-01
 -1.7770660e+00
 -4.4502214e-01
 -1.9026291e+00
 -1.7667276e+00
  1.3947972e+00
 -2.2030442e+00
  4.6948412e-01
 -8.0308348e-01
 -1.5801353e+00
  3.8042572e-01
 -2.4864306e-01
  2.7791436e+00
 -2.4844939e-01
  9.4878614e-01
  1.3216740e+00
 -1.8021295e+00
  4.8374695e-01
 -2.1968460e+00
  5.9162110e-01
 -4.3526955e+00
 -1.2515044e+00
  4.0882628e-02
 -5.9347600e-02
 -2.3405954e-02
  5.7170201e-02
  3.7667081e+00
  1.6892956e+00
 -9.0723962e-02
 -8.7056857e-01
 -9.8527148e-02
 -1.7728260e-01
 -6.5059448e-03
  7.1638934e-02
 -1.5873519e+00
 -4.2101282e-01
  5.3848207e-01
 -8.4697001e-02
 -1.2707409e-01
 -1.2162257e+00
  1.1368188e-01
 -5.3902585e-02
  2.0523265e-01
  7.9336518e-01
 -1.0208684e-01
  1.0991605e-01
 -3.7504429e-01
 -1.4567430e-01
 -1.5080251e-01
  2.5571439e-01
 -2.1793267e-01
 -1.0626297e+00
  5.1248878e-01
  3.1824633e-01
 -7.5356984e-01
  1.4674170e+00
  1.2449533e-01
  5.3815410e-02
  4.3852875e-01
  2.3387036e+00
  3.9742917e-02
 -1.9654713e-03
  8.8899791e-01
  1.7009963e-01
  8.0130380e-03
 -3.3090316e-02
 -7.3878914e-01
 -2.2996874e-01
  2.8847963e-01
  3.7291569e-01
 -1.4694492e+00
  4.6372232e-01
  1.8222322e-01
 -5.2882862e-01
  5.7896547e+00
  1.2714544e-02
 -3.8820329e-01
  1.2723889e+00
 -3.5503590e-01
  4.1848816e-02
 -6.9748169e-01
  8.7791108e-02
 -4.4955187e-02
 -4.7995187e-02
  4.0805939e-01
 -6.0496110e-01
 -1.4494997e-03
  8.7847930e-01
 -1.0126241e-02
  3.1168476e-01
  7.8618604e-01
 -5.2155781e-01
  8.5890912e-02
  1.6174942e-01
 -1.4988397e+00
 -8.4522031e-03
  1.6101290e-02
  1.9598249e+00
 -8.5747883e-02
  3.8263932e-02
  3.9140873e-02
 -2.8580608e+00
 -7.4994844e-01
  5.9153587e-01
 -2.3639418e-01
 -8.9165187e-01
 -6.5455943e-02
  1.3768785e-01
  2.2929025e-01
  3.6146984e-01
  1.6933484e-01
  4.6986890e-01
 -3.2022041e-01
  1.5259032e-01
  8.5329965e-02
 -7.3116675e-02
  1.1510829e-01
 -3.5336558e-02
  2.5702366e-01
 -2.2455800e-01
  2.8076077e+00
 -4.6783934e+00
 -1.4594226e-01
  3.7939642e-02
 -2.1427767e-02
  1.6733134e-01
 -5.7665581e-01
  7.0813723e-02
  5.1737830e-02
 -4.2456869e-02
 -1.6891079e-01
 -1.8413182e-01
 -1.4486146e-01
  5.8643654e-02
 -1.2313581e+00
 -8.7438101e-01
 -3.1660870e-01
  3.9609787e+00
 -1.9226367e+00
 -1.6596985e+00
 -3.0430305e+00
  7.3797792e-01
  9.9009389e-01
 -2.4099216e-02
  1.6643523e+00
 -5.3600919e-01
  8.7419771e-02
 -1.9477916e-01
  4.3756045e-02
  1.4768127e+00
  1.2328018e+00
  6.8899119e-01
  1.7926295e+00
 -3.9787276e+00
  1.2000113e+00
  4.6461787e+00
  4.4524884e+00
  2.5817330e+00
 -2.7623904e+00
  1.2498487e+00
  1.3287309e+00
 -1.4294252e-01
  9.3778515e-01
  1.7082460e+00
 -2.2541304e+00
  6.8573010e-01
 -1.9087726e+00
 -2.5622182e+00
 -4.0288677e+00
  1.5979377e+00
 -2.1490407e+00
  2.2872302e-01
  8.4626591e-01
 -3.6540759e-01
  1.0405084e+00
 -1.0398938e-01
  3.3873302e-01
  2.8684154e-01
 -2.9262803e-02
  4.5936072e-01
  9.7868431e-01
  1.0513351e-01
  1.7992716e-02
 -3.6506304e-01
  8.2505792e-02
 -3.1366210e-02
  2.2841077e-01
  6.0442632e-01
 -8.8400602e-01
  3.0722537e+00
  1.7017852e-01
 -1.2325661e+00
  1.8985985e-01
  1.6293854e+00
 -1.5221233e+00
 -5.8630717e-01
  2.8894663e+00
  1.2680639e-01
 -1.9814358e+00
 -8.0999166e-01
  1.8070691e+00
  2.5387308e-01
  1.2322344e-01
  1.9861767e+00
 -3.5697189e-01
 -1.3238913e+00
 -3.2531679e+00
 -7.6392990e-01
  1.5227804e-01
 -2.2140236e+00
 -2.0100327e+00
  1.1739073e+00
  2.6011810e+00
  1.1555250e+00
  1.0027211e+00
  5.7302272e-01
  3.1722724e+00
  1.1750503e+00
 -4.0261412e-01
  1.2636036e+00
  9.5680559e-01
  8.6472493e-01
  1.2837136e-02
  5.0626002e-02
  2.1059613e+00
 -2.3463044e-01
  3.4073636e-01
  3.5741946e-01
  4.2908680e-01
  2.9437528e+00
 -8.2862109e-01
  2.3162165e-01
  6.6799335e-02
 -1.7797863e+00
  3.5887560e-01
 -1.7869407e-01
  2.3265260e-01
 -1.5964414e-01
 -4.0318504e-01
 -1.5633444e+00
  2.4449027e+00
  5.2961206e+00
  2.2727566e+00
 -2.7054656e+00
  7.3298317e-01
 -4.1847186e+00
  2.8523836e+00
 -5.7186391e-02
  4.3617458e+00
  2.1542299e+00
 -7.8587809e+00
  6.1643462e+00
  2.1756120e+00
 -2.3231726e+00
  1.8621635e+00
  3.8703115e+00
  3.0705814e+00
 -2.8977427e+00
  2.9941475e+00
  1.2092891e+00
 -6.9139630e-01
  5.8049688e+00
  4.4172020e+00
  1.6835619e+00
 -4.8011425e-01
  8.5192508e-01
  1.1746440e+00
  2.4485207e+00
  1.8083919e+00
  2.7903132e+00
  2.8862998e-01
  1.5227692e+00
  1.9919130e+00
  4.4274335e+00
  4.8228383e-01
  2.4402072e+00
  1.5260936e+00
  1.8523005e+00
  1.7147154e+00
  3.4610236e+00
  1.8908255e-01
  4.6609834e-02
 -6.2070284e-02
 -3.5334048e-03
 -2.1724676e-01
 -5.5010152e-01
  2.5924048e-03
 -3.5004744e-01
  8.4250860e-02
 -2.3556432e-02
  2.3201613e+00
  2.9028568e+00
 -6.1832522e-03
  1.3999207e+00
 -1.9069256e+00
  9.1755949e-02
  3.3048599e+00
 -6.3916296e-01
 -1.9208467e-01
 -5.4569685e-01
  1.7476370e+00
  2.1128192e+00
 -4.0945907e+00
  2.9269981e-01
 -2.5207434e+00
 -2.7730923e+00
  4.7187586e+00
  4.2135984e-02
 -1.0188731e+00
 -1.0119631e+00
 -3.4316018e+00
 -1.5489796e+00
 -9.4548833e-01
 -1.0379204e-01
 -1.2441913e-01
  2.0760427e+00
 -3.0565455e+00
  1.2388729e+00
  6.4956480e-01
 -2.1001072e+00
 -7.2436678e-01
 -2.4376722e-01
  3.0128143e+00
 -2.3388414e+00
  5.5331790e-01
 -7.9457700e-01
  1.7954316e+00
  1.9395468e+00
 -4.1961435e-02
  1.8390591e+00
 -3.7059355e-01
  2.5040084e-01
 -5.0593611e-02
 -2.4879827e-01
  5.7399422e-02
 -4.8410603e-01
  4.2879771e-02
 -5.3855986e-03
  2.3651847e-01
 -2.2632481e-01
 -2.6603872e-01
  3.3644471e+00
 -4.2163544e+00
  7.7479279e-01
  7.5994200e-01
  1.9004687e+00
 -1.0689210e+00
  8.4773999e-01
  3.3566060e+00
  9.3201983e-01
 -1.7882470e-02
  2.4387853e-01
  5.0896645e+00
  2.2476515e-01
 -4.5889646e-02
  5.7386643e-01
  7.5725740e-01
  1.3486569e-01
 -7.2555655e-01
 -1.1056877e+00
  2.0004028e-01
  7.8090534e-02
 -1.0195129e+00
  4.9743783e-02
 -2.1561258e-01
 -1.6964267e-01
 -1.5186054e+00
 -3.3036941e-01
 -1.8031579e-01
 -2.3185663e+00
  2.8245389e+00
  5.1453036e-01
 -1.7255826e-01
 -2.2872703e+00
  1.0803819e+00
  1.5199629e+00
 -6.3977361e-02
  4.8832932e+00
  1.7618701e-02
  2.0476142e-02
 -2.1894793e-01
 -1.5284029e+00
 -5.3847119e-02
  8.0075431e-01
 -2.3569441e+00
 -5.2505887e-01
 -8.2616615e-01
 -2.9069442e-01
  7.6808423e-01
  1.2084359e-02
 -8.6026996e-01
 -2.8726941e-01
  2.0727451e+00
 -3.2502154e-01
 -1.3551968e-01
 -7.2237462e-01
 -9.0653241e-01
  1.3645107e-01
  1.6091686e+00
  2.0224118e+00
  2.9378936e+00
 -6.5074652e-03
 -2.6173347e-01
  1.3277137e+00
  5.4415151e-02
 -1.2170472e-01
  4.0170450e+00
  3.4011652e+00
  1.7485070e+00
  2.3643799e+00
  1.5995667e+00
 -2.8902811e-01
 -1.0954778e-02
 -4.2808204e+00
  3.1114480e+00
  7.5047679e-02
  2.6202781e+00
  6.6452062e-01
 -1.1453692e-01
 -4.1348410e+00
  1.5051397e+00
  2.0396764e+00
 -3.1556407e-01
  2.6298110e+00
  2.0356168e-01
 -1.6766040e+00
 -2.3730713e-01
 -1.5252443e-01
  3.6105378e+00
  6.2279493e-02
 -3.6397564e-01
  1.6113615e+00
  1.4232327e-01
  2.3746289e-01
  3.5658512e-01
  5.9189236e-01
 -1.2515028e-01
 -3.9466821e-02
  1.9619902e+00
 -2.4432711e-01
  2.8689027e-01
 -1.9204570e-01
 -8.5752800e-02
  2.4811893e+00
 -4.0328383e+00
 -2.6314983e-01
 -5.7543411e+00
  5.8109760e-01
 -3.8247769e+00
  2.6003590e+00
 -1.9232124e+00
  5.8533864e+00
 -4.0854809e-01
 -1.1435032e-01
  6.3853003e-02
 -4.5032391e-01
 -9.8039225e-02
  3.8728971e-02
 -1.5385908e+00
  1.3618475e-01
 -2.6982400e+00
 -3.3947911e+00
 -6.2083673e-01
  2.5668807e+00
 -1.6085099e+00
 -2.2665021e+00
  3.1379743e+00
  3.8476439e+00
 -2.8527250e+00
  2.1909473e+00
  7.2776806e-01
 -1.7378410e+00
 -3.7787068e+00
 -2.2345617e+00
 -4.6366224e-01
  1.3318986e-01
 -1.9674052e-02
  1.8461574e-02
 -8.8110673e-01
 -2.5904951e+00
  1.0281724e+00
  3.1066865e-01
 -5.9474492e-01
 -4.3186951e-01
 -2.4430552e-03
 -5.7331085e-01
 -1.6709857e-01
 -8.9277454e-02
 -2.7679145e-01
  2.3523232e-02
 -1.7404529e-01
  2.3088919e-01
 -3.2199055e-01
  2.1690173e-02
  5.0099504e-01
  8.0427490e-02
  1.9242781e-01
  1.1479833e+00
 -1.1838038e+00
  9.1347229e-01
 -4.1793424e-01
  1.0600260e+00
 -9.3604183e-01
 -3.1920005e-02
 -1.7775931e+00
 -2.6371562e-01
 -3.5301268e-02
  1.5687650e-01
 -2.0658050e-01
 -9.7502582e-02
 -3.6448526e-01
  6.8980026e-01
 -6.5018380e-01
 -1.3547422e-02
  2.8037751e+00
 -4.9991760e-01
 -1.2811546e+00
  1.4495192e+00
  1.7914906e+00
  6.5567039e-02
 -9.9009103e-01
 -5.4863042e-01
  2.4648561e+00
 -3.8556540e+00
  3.7031281e-01
  1.3625286e+00
  2.0272832e+00
 -1.4468497e+00
  1.1460217e+00
 -2.0432196e+00
 -1.1395997e+00
 -7.9889119e-02
 -1.3837413e-01
  4.7637649e+00
  8.4281325e-02
  3.0037725e-01
 -6.8479702e-02
 -9.9266112e-02
 -3.3353695e-01
 -1.3740058e-01
  8.9877956e-02
  2.7026826e-01
 -7.2084726e-03
 -2.7559391e-01
 -6.8682529e-02
 -1.6127841e+00
  6.8544760e+00
 -2.1505020e+00
  1.1231897e+00
 -2.5088215e+00
  1.4047731e+00
 -2.2768643e+00
 -2.8283157e+00
 -4.5987568e+00
  1.6382584e-02
 -8.1244659e-01
 -6.8486109e-02
  1.0696151e+00
 -1.9415115e-01
 -2.6091851e-02
  1.5134868e-01
  9.2878151e-01
 -1.0097160e+00
 -1.0534414e-01
 -1.3822363e-01
 -1.7078158e-01
  1.4442450e-01
  1.0285996e+00
 -4.4940543e+00
  5.6571352e-01
 -1.0403788e+00
 -2.3295791e-01
 -7.3590085e-02
 -6.5729636e-01
  4.0371270e+00
  8.9690733e-01
 -1.1995007e+00
  1.8969434e+00
  1.4676152e-01
  1.1905801e-01
 -2.6941141e-01
  3.5925570e-01
  5.1321974e-03
  2.0047179e-01
  1.3584433e-01
 -3.2213849e-01
 -4.7861586e+00
 -2.9018095e-01
 -1.5312830e+00
 -7.1161196e-02
 -1.0453233e+00
  8.7304610e-01
  1.4569453e+00
 -1.2073750e-01
  9.7929955e-02
 -6.9596213e-01
 -2.0963459e-01
 -9.6813105e-02
 -3.6644661e+00
  1.3654968e-01
 -9.8638073e-02
 -6.0250419e-01
  2.5026729e-02
 -2.1543486e-01
  1.2689950e-01
  9.9312395e-02
 -1.0663233e-01
  3.9581690e-02
 -3.5431173e-01
  1.2647629e-01
  3.5680652e-01
 -2.7494879e-02
  1.5932496e-01
  1.6103516e+00
  1.1395036e+00
 -4.0200434e+00
  8.9848489e-01
  4.6493937e-03
 -6.0294777e-02
 -2.3750135e-01
  4.8608202e-03
  2.6461458e-02
  1.8207657e+00
  1.9630222e-01
 -1.2295410e-01
 -3.9272776e+00
  1.2402296e+00
  1.4751638e-02
 -1.3890298e-02
  9.8093927e-02
  2.7460644e-01
 -6.4664580e-02
  1.5717675e-01
 -3.8230708e-01
  4.7265846e-02
 -3.4486675e-01
  1.4434679e-01
  4.8680693e-02
  5.7104632e-02
 -1.3244596e-01
 -5.2452403e-01
  2.6707289e-01
 -3.8142511e-01
  8.0925032e-02
  3.8295757e-02
 -2.0413997e+00
  1.7492115e-01
 -1.6262834e+00
  1.5418468e+00
  3.9326134e-01
 -4.2102474e-01
 -1.5645173e+00
 -2.6661003e+00
  5.2716270e-02
  1.9549669e-01
 -5.4292690e-02
 -5.0780964e-01
  2.4581264e-01
  7.5146306e-01
  7.5368923e-01
 -1.5971196e-03
  1.7987252e+00
  1.0871723e+00
 -1.5319319e-02
  2.2802912e-02
 -2.5863317e-01
  1.8777759e-01
 -3.6390295e+00
  4.0972919e+00
 -3.7399750e-02
  4.4052091e-01
 -7.5563990e-02
  2.1810567e-01
  5.0650764e+00
 -1.2072862e-02
 -7.4413282e-01
  4.0068545e+00
 -1.7547534e+00
  5.8741800e-02
  3.1333387e-01
  3.1769800e-01
 -1.1470077e-01
 -9.7065181e-02
  2.6726241e+00
 -2.4409251e+00
 -2.5154939e-01
 -1.1908737e-01
  1.8206102e-01
  8.8049823e-01
  6.4358974e-01
  1.8977773e-01
  2.4617074e-01
  3.8903453e+00
  4.7339487e+00
  2.6509824e-01
  7.4914992e-01
  5.8613652e-01
 -2.8058362e-01
  3.1582649e+00
  2.1001542e+00
 -3.9413443e-01
  9.2843765e-01
  1.2505355e+00
 -2.8327581e-01
  1.6540557e+00
  2.4169738e+00
  2.7030470e+00
  3.8741836e-01
  8.6372995e-01
 -1.5032109e+00
  1.5619870e+00
 -5.2865058e-01
 -3.0167124e-01
  5.8280379e-01
  6.9212949e-01
  2.2147264e+00
 -2.8461022e+00
  8.4863585e-01
  4.6885198e-01
 -6.4070553e-01
  6.8637788e-01
 -5.5446422e-01
 -1.7954724e+00
 -7.1302764e-02
  5.0931966e-01
  2.5607889e+00
 -3.1713450e+00
  5.5078578e-01
 -2.1230552e-01
  5.6143751e+00
  2.2480114e+00
  8.6170191e-01
 -3.0839011e-01
 -5.7667989e-01
  1.2935556e-01
 -6.4558727e-01
 -1.9691761e-01
  1.8261063e+00
  2.8278235e-01
 -6.5920927e-02
  3.8189980e-01
 -1.1484766e+00
  4.9677914e-01
 -3.0589969e+00
 -2.4344099e+00
 -4.5946088e-02
  1.0319103e+00
  1.3805524e+00
  1.3172925e+00
  3.1868274e+00
 -4.1124958e-01
 -2.7881603e+00
 -3.0663300e+00
  1.4444714e+00
  3.4484034e+00
  8.0161393e-01
 -2.5380077e+00
 -2.8176920e+00
  1.0942566e-01
 -8.9436359e+00
  3.2276791e-02
  6.9543540e-02
 -1.0349228e+00
 -1.9716714e-02
  2.2013258e-02
  9.1317064e-01
  5.3968906e-01
  8.3465278e-01
 -1.5216858e+00
 -1.0375837e+00
 -1.7582427e+00
 -6.2966311e-01
  1.5041041e+00
  4.8632905e-02
 -2.6973019e+00
  4.2957109e-01
 -2.0056789e+00
  1.2650214e+00
 -1.1185163e+00
  5.2954817e-01
 -3.6036000e+00
  6.8710464e-01
  4.0059962e+00
 -1.2630317e+00
 -1.7773577e+00
  1.6815290e+00
 -1.6405138e+00
  1.1207495e-01
 -1.0849162e-01
 -5.1616009e-02
 -6.4859939e-01
  1.1892303e+00
 -1.5726430e+00
  1.7238811e-01
 -3.2951742e-01
  1.0834094e-01
  1.6719650e+00
  1.7394494e-01
 -1.2053045e+00
 -5.5943295e-02
 -6.2710814e+00
  4.7308435e+00
  1.5264257e+00
 -1.0046328e+00
  4.9906898e+00
  1.5114136e+00
 -4.8552318e+00
  1.2340013e+00
  5.1693630e+00
  3.3687787e+00
  1.1500272e+00
 -2.6839592e+00
  2.1182723e+00
  9.6348858e-01
  2.3358312e+00
  1.4347136e+00
  2.3815482e+00
 -1.9374353e-01
 -1.6285081e+00
  1.4922265e+00
  4.0397066e-01
  1.5628111e+00
  1.6639733e+00
 -1.6193403e+00
  3.0538757e+00
 -2.3228346e-01
 -8.3286303e-01
 -1.1733106e+00
  3.8442674e+00
 -7.8518975e-01
 -2.3456666e+00
 -7.8251213e-01
  3.2201998e+00
  1.7998557e+00
 -3.4983373e+00
  1.0369581e+00
 -2.5079277e+00
  1.7358859e-01
  3.1392717e+00
  6.7402250e-01
  2.7161185e-02
 -1.7239827e+00
  4.7828332e-02
 -1.1246588e+00
 -1.1913640e-01
  2.3004415e+00
  3.1473467e-03
  7.9997438e-01
  2.8833833e-01
  1.0382005e-01
  8.4583324e-01
 -4.0437427e-01
  1.7715995e+00
 -3.1476948e-01
 -4.7029400e-01
 -1.8065032e-01
  2.1939743e+00
  1.8112676e+00
 -1.8258367e+00
 -4.5177312e+00
 -1.0699755e+00
 -7.1101718e-02
 -2.2315001e+00
 -6.6387832e-01
 -4.0355973e+00
  2.5221714e-01
 -4.5453641e-01
 -9.4119184e-02
  2.0401831e+00
 -7.4177361e-01
  2.2933459e-01
 -3.7026296e+00
  1.8205170e-01
  1.1491519e+00
  2.3158946e+00
 -6.0205117e-02
 -3.1803850e-02
  1.3315043e+00
  8.2104748e-01
 -2.4733481e-01
 -3.2256069e+00
  2.0860280e-01
 -4.3602216e-01
 -1.0685898e-01
  3.1516111e-01
 -2.9193666e+00
 -4.8224556e-01
 -1.4464061e+00
  3.9748840e-02
 -1.9597147e+00
 -1.5927456e-01
  2.7095072e-03
 -1.6494507e-01
  1.0816158e+00
  2.4676282e+00
  1.1875913e-01
  1.2892720e+00
  5.3587496e-02
  7.0310593e-01
 -1.1075248e+00
  6.4817601e-01
  1.6195123e+00
 -2.3934318e-01
  6.5289184e-02
  1.4293000e-01
  6.6198820e-01
 -1.7224187e-01
 -3.0865684e-02
  2.1353261e+00
  8.1170917e-02
  1.7812144e-02
  1.2147161e-01
 -5.7703562e-02
  3.5290014e-02
  2.5026041e-01
 -9.9328175e-02
  3.0633250e-02
 -5.6986166e-03
  1.3970904e-01
 -1.6169826e-02
 -4.3592958e+00
 -1.1045034e-01
  3.0752116e-01
  5.7751078e-02
 -8.6398847e-02
  2.4036936e-02
 -1.3641289e-02
 -7.6499379e-01
 -8.8290793e-01
 -1.3934491e+00
  1.2324520e-02
 -2.3592804e-01
  2.3233171e-01
 -4.1113910e-03
  1.7202243e-01
 -7.5074248e-03
  6.7914397e-02
 -3.9931618e-02
 -6.1273777e-01
  1.4163278e-01
 -1.2549005e+00
  1.3639041e+00
 -1.6071796e-02
  8.9312628e-02
 -1.6659954e-01
  1.0498017e-02
  9.0080850e-02
  4.4926777e+00
 -3.1510857e-01
  6.7854851e-02
  2.5601435e-01
 -2.3779023e+00
 -1.1507894e+00
 -1.4285641e+00
 -2.6620903e+00
 -4.8392873e+00
  3.6614117e-01
  1.4902337e+00
  1.0985826e+00
 -2.8407228e+00
 -1.5799537e+00
 -3.2580857e+00
  3.1885903e-02
  3.2552199e+00
  1.1067393e-01
  2.5301716e+00
  1.2433547e-01
 -2.9667312e-02
 -7.6941645e-01
 -2.2523811e+00
 -5.6386906e-01
 -3.5690022e+00
 -1.5887452e+00
 -1.6136606e-01
  1.4723017e+00
 -1.5352082e+00
 -1.0575212e+00
 -3.2518965e-01
  2.3935483e-01
 -1.9962804e+00
 -6.3622516e-01
  5.9595475e+00
 -1.3101962e+00
  3.9335446e+00
  9.7196810e-02
  3.8054724e+00
 -1.3464184e+00
  2.9362569e+00
 -1.9934301e-01
  1.4240458e+00
 -7.7656728e-01
  1.1804211e+00
 -1.0529001e+00
  3.4543630e-02
  8.6519763e-02
  3.3128564e+00
 -8.4722996e-01
  3.6045134e-01
 -3.0823812e-02
  1.9320884e-01
  2.5307620e-01
 -8.5323878e-02
  7.7253692e-02
  5.5931628e-01
  3.3304852e-01
 -1.1985466e+00
  7.0490435e-02
  3.6945438e-01
  3.5966721e-01
  2.8680458e+00
  1.8330857e+00
 -4.2083269e-01
  2.5032721e+00
 -6.7648238e-01
 -1.8216414e+00
 -2.7687321e+00
 -2.4694719e-03
  2.9473248e-01
 -3.7387826e-02
  1.8465295e-02
 -9.3869381e-03
 -3.4122264e-01
 -1.9209082e-01
  8.9394790e-01
 -4.5964533e-01
  7.0484996e-02
  1.2983978e+00
  1.2334549e+00
  4.2592555e-01
  3.5781147e+00
 -4.4294700e-01
  2.2684517e+00
  2.2948647e+00
 -1.2929354e+00
 -1.7169662e+00
 -9.5658189e-01
 -6.7179054e-01
  9.4832771e-02
  4.0272254e-02
 -3.5568068e+00
 -1.3793705e+00
 -2.8827003e-01
  2.3344395e+00
 -3.2569209e-01
 -2.3197959e-01
  1.9410574e+00
 -7.1288384e-02
  1.6862199e-01
  3.6346194e-01
 -1.5174386e-01
  2.7361515e+00
 -1.1047211e-01
 -3.0505981e+00
  5.4488603e-02
  3.5670963e-01
  1.4912182e-01
  1.5673584e+00
 -1.5346380e+00
 -3.3028405e+00
 -9.9331743e-01
 -9.6777898e-01
  3.0045559e+00
  2.5039428e-01
  4.0557347e-02
  1.0169179e+00
 -1.4169210e+00
 -3.9896742e-02
 -8.7199770e-02
 -8.3095353e-04
 -1.5145833e+00
  2.6832135e+00
  3.1084347e-01
  8.5525289e-02
 -4.2345047e+00
  1.5444900e+00
 -1.0671229e+00
 -9.5339902e-02
  4.2578492e+00
 -8.1263819e+00
 -3.4181705e+00
  1.7273799e-02
 -5.2248688e+00
 -1.6952218e+00
 -6.1140382e-01
 -1.5769856e-01
 -3.9014572e-01
 -1.1273512e-01
 -2.9722501e-02
 -4.2134771e-01
 -3.1403770e+00
  9.7548878e-01
 -5.9351939e-01
  1.9285654e-01
 -1.3462336e+00
 -1.8670259e-02
  4.2193511e-01
 -4.6967319e-01
  1.6957115e-03
  3.1525269e+00
  2.5551353e-02
 -4.8821650e-02
  1.3299644e-01
 -3.3866611e-01
 -1.7607979e+00
  6.3126303e-02
  5.5237103e-01
  2.1146774e+00
  1.1221420e+00
  1.5579227e+00
 -2.0699615e+00
  1.0954586e+00
  1.9125224e+00
 -1.9610953e-01
 -1.7788321e+00
  2.3525648e-01
 -8.8782966e-01
 -2.1748004e+00
  6.6074124e-03
  3.7702030e-01
 -3.6444392e-02
 -9.5910388e-01
  8.6405583e-02
 -6.5759957e-01
  2.1750627e+00
  1.0987697e-01
  3.4263697e-01
 -1.1330491e-01
  1.5497921e+00
  1.0444266e+00
 -2.2940581e-01
  2.7285721e+00
  2.2195928e+00
  2.7677226e-01
 -1.2949955e+00
 -1.4471937e+00
  5.2523392e-01
 -3.0327086e+00
  4.0498676e+00
 -3.6954042e-02
  4.3633610e-01
 -1.0529854e+00
  1.1033363e+00
  1.5841717e-01
  2.7758577e-01
 -2.8480154e-01
 -3.8982868e-02
  7.9109028e-02
 -9.5428355e-02
  3.7476450e-02
  8.3405960e-01
 -3.1222321e-02
  5.9691107e-01
 -1.4843921e-01
  3.0364454e+00
  3.2379556e-01
  6.0370594e-01
 -8.9249693e-02
 -2.9686958e-02
 -8.1514046e-02
  5.8349884e-01
 -4.3375230e+00
 -9.5556927e-01
 -1.7883930e-01
  2.1337817e+00
 -1.6317935e-01
 -1.3644873e-01
  2.4574468e-01
  2.1182805e-02
  9.5529854e-03
  6.4748831e-02
 -2.8591961e-01
 -1.0427281e-01
  2.5465113e-01
  1.4598228e-01
 -6.5055650e-01
  7.8355044e-01
 -2.2787155e-01
  5.8190382e-01
 -8.0153108e-01
  1.8833880e+00
  6.7482877e-01
 -3.9980030e-01
 -4.3295703e+00
  2.9549736e-01
  7.1908362e-02
  1.8445945e-01
  3.0794135e-01
 -1.7067091e-01
  6.8596907e-02
 -6.6996925e-02
 -2.7938399e-02
  5.0219636e+00
 -2.7174589e-01
  1.4929365e+00
  1.2836374e-01
 -1.7391177e-01
 -2.4223944e-02
  1.2671979e-01
  6.0804743e-02
 -1.6313799e-01
 -1.7733860e-01
 -5.9642780e-01
 -1.7795734e-01
 -1.4514853e-01
  6.9353527e-01
 -9.7442508e-02
 -5.4901117e-01
  1.9236845e-01
  3.7159881e-01
  3.3774219e-02
 -1.1059866e+00
 -1.2390177e+00
 -1.7569981e+00
 -1.1897063e+00
  5.2716029e-01
 -6.3277446e-02
 -3.8335507e+00
 -2.4814188e+00
 -4.6759841e-01
 -6.8308786e-02
  1.1614061e-01
 -2.1332145e+00
 -3.4600964e-01
 -1.0340889e+00
  2.5619764e-02
  1.8079827e+00
 -5.5422038e-01
 -1.5252994e+00
  1.8035907e-02
 -1.0666931e-01
 -2.3645517e-01
  2.1423142e+00
 -1.0149099e+00
  1.2253147e-01
 -2.5285333e-01
 -8.7499157e-02
 -5.9619784e-01
 -8.8561244e-02
 -4.4623056e-01
 -1.6574834e-01
  1.2041233e+00
 -2.0355007e-02
 -2.9349455e-01
  1.7069321e+00
 -9.9959087e-01
 -3.9172728e-02
  8.5814163e-02
 -2.0256656e-01
  2.7155599e-01
  2.8231883e-01
 -1.6782773e-01
  1.9880741e+00
 -3.5516497e-01
  7.5187348e-02
  8.0468082e+00
 -4.8442423e-02
 -1.5637239e-02
  4.7118384e-01
 -3.5501417e-02
  1.7207379e+00
 -4.8126187e+00
 -5.3094082e+00
  2.4210947e+00
 -4.5164824e+00
 -5.4870933e-01
  1.1482898e+00
 -8.0639797e-01
 -1.9022882e+00
 -1.1583079e+00
 -3.3997021e+00
  3.7690101e+00
 -6.5089273e-01
 -2.3094356e+00
 -4.1870670e+00
 -1.9011619e+00
  1.7679875e-01
  6.1950570e-01
  3.3611386e+00
  6.7072028e-01
 -1.5906513e+00
  1.2546888e-01
 -1.7150027e+00
  3.3578486e+00
  2.1437414e+00
 -1.2092695e+00
 -3.9803062e-02
  3.5141844e-01
 -1.7270966e+00
 -1.5769213e+00
  2.9926446e-01
  2.9037275e+00
 -1.1548887e+00
  9.3177576e-03
 -4.2757947e-02
  1.3887985e+00
 -1.9226185e+00
  3.1975716e-02
 -3.7075270e-02
  3.1750318e-01
 -1.6150121e-02
 -1.2146397e-02
 -1.5799053e+00
 -2.6844540e+00
 -3.1984898e-01
  3.5425684e-01
 -2.4656452e-01
 -6.0427975e-02
 -5.4024816e-01
 -4.9625117e-01
  8.6987102e-03
  4.2293432e-01
  3.2073877e+00
  2.3171659e-01
 -1.0115337e+00
 -2.2400053e+00
 -4.9165145e-01
 -2.1890895e+00
 -1.3242043e+00
  3.8213429e-01
  2.9081711e-01
 -4.4725515e-02
 -7.6713663e-01
  1.4602468e+00
  6.5520447e-01
  2.3640826e-01
  3.2123654e+00
  3.1402748e-02
  2.7653861e-01
  9.3604572e-02
 -1.4712735e+00
  3.7558219e-01
  9.7145960e-03
 -4.4030643e+00
 -2.7724352e-01
 -1.1599176e-01
  1.7625616e+00
  1.7284839e-01
  9.9655002e-01
  1.8819140e+00
  5.3643436e+00
  3.6988655e-01
  1.2610789e-01
  7.9876147e-02
  7.4480695e-01
  2.3431180e+00
  8.5829860e-01
  2.4046447e+00
 -9.6611194e-02
  1.5111465e+00
 -7.4619144e-02
 -3.4694221e-02
  4.4942189e-02
  1.3548775e-01
  3.0400118e-01
  1.2038834e-01
 -4.5966566e-02
 -1.8707812e-01
  4.2761403e-01
  5.0289840e-02
 -4.7403905e-01
 -4.3114486e+00
 -1.2690340e+00
 -1.0545745e-01
 -1.3040613e+00
  6.1408204e-01
 -7.6816320e-01
  3.8734177e-01
  1.9811727e-01
  1.8962304e-01
  4.6618366e-01
  1.6925301e-01
  2.5782481e-01
  2.0291409e+00
 -3.3670297e-01
  2.0163496e-01
  2.1577014e-01
  2.1973591e+00
  4.0671241e-01
 -2.0052743e+00
 -2.5141565e-02
  2.3907532e-01
 -7.3828764e-02
 -5.9766704e-01
  1.6958109e+00
 -3.1587023e-01
 -2.2990649e+00
 -1.7009271e+00
  2.8960371e+00
 -4.0045176e+00
 -1.3825533e-01
 -2.8673649e+00
 -1.5792474e-01
  9.6878976e-01
 -1.9485256e-02
  2.6055756e+00
 -8.4546125e-01
  8.9291841e-02
  2.8693178e+00
 -4.9361970e-02
 -1.6941085e+00
  8.7082818e-02
 -1.2735460e+00
  5.0581884e-02
  7.2266017e-03
 -9.5752709e-02
 -1.1063078e-01
  7.8090453e-01
 -1.3913684e+00
 -2.7776605e-01
 -2.0958537e-01
  3.6904201e-01
 -3.1688812e-01
 -2.0971857e-01
 -9.6452594e-02
 -3.0425740e-02
  1.1414937e+00
 -2.0201975e-01
  2.6198409e-02
  2.4877657e-01
  6.0459862e+00
 -1.1595803e+00
  1.4128582e+00
 -4.1263811e-02
  4.5517701e-01
 -5.0412476e-02
 -5.3174800e-01
  5.5514593e+00
  5.0395608e-01
  1.7321132e-01
 -2.0701221e-01
  3.6983138e-01
 -3.1638855e-01
  2.7270323e-01
  8.5688484e-01
 -4.0552631e-02
 -3.0187494e-01
  1.1461838e-01
 -1.8498704e-01
 -2.9928741e-01
 -1.7524283e-02
 -3.5912927e-02
 -2.9694229e-01
  4.7537342e-01
  7.3885083e-02
 -3.5953172e-02
 -1.3250238e-01
 -1.0385516e+00
  1.5970381e-02
  1.8384010e-01
  4.6876419e-01
  1.0004479e-01
  1.8566221e-01
 -9.2252225e-02
  2.8276807e-01
 -2.4916839e-02
 -1.2740946e-01
  1.4919451e+00
 -1.1039267e-01
  5.8084698e-03
  4.2484250e+00
  5.5470780e-02
 -2.1543778e-01
 -4.5190277e+00
 -1.7772607e+00
 -1.7814227e+00
 -2.4530492e+00
  5.8673537e-01
  8.3633028e-02
 -9.0792644e-01
 -1.5179819e+00
 -1.7056806e+00
 -1.8918493e-01
  4.1563109e-02
 -3.9393060e-02
 -3.6147526e-03
 -2.0867260e-01
  2.7073935e-01
  1.2789519e-01
 -9.3640704e-03
  9.2693573e-01
 -6.0710806e-02
  1.8346043e-02
  1.6563396e-01
 -5.3097713e-01
  1.6608880e+00
  3.7944856e-01
 -1.2621452e-01
  6.4268827e-01
 -1.8253033e+00
 -5.9506875e-02
 -9.7183818e-01
  3.2858884e-01
  2.0750916e+00
 -1.2827266e+00
 -5.5962557e-01
  1.5206969e+00
  9.2769110e-01
 -9.8707080e-02
  4.7539768e-01
 -6.1882186e-01
 -2.7533671e-01
  2.2240403e-01
 -8.4331799e-01
  3.4260258e-01
  3.1870484e+00
 -7.9859030e-01
 -4.1682459e-02
 -1.1314787e+00
 -5.0912321e-01
 -1.0055834e-01
 -1.1410514e-01
  5.4314822e-02
 -1.7515481e-01
 -6.0477251e-01
  3.2294872e+00
  4.3335482e-02
 -2.8944400e-01
  3.5414878e-02
  1.3546224e+00
 -1.4972615e-01
  1.9443278e-01
 -2.1562906e-02
  1.4837805e+00
 -2.7791637e-01
 -3.6992298e-03
 -2.6232761e-01
  1.1257849e-01
  1.0744328e-01
 -2.4345875e-01
  3.6252996e-01
 -1.1380513e-01
  1.2955013e-01
 -4.0904753e-02
  7.1361020e-02
 -7.6680824e-02
 -1.5377270e-01
 -1.2057132e-01
  4.4653524e-02
 -2.0562392e-02
  1.3974948e-01
 -8.0521919e-02
 -8.9389402e-03
  1.9523886e-01
  3.9816936e-03
 -1.5128615e+00
  8.9029443e-01
  9.0382332e-01
  5.5677712e-02
 -2.1502111e-02
 -3.4954689e-02
  5.0525460e+00
 -3.8548343e-02
 -1.0304840e-01
  1.7277670e-01
  1.5710512e-01
 -1.8786293e-01
 -2.8176164e-02
  4.8664223e-02
  2.7744341e-01
  8.4550792e-01
 -1.1251354e-01
 -6.9463849e-01
 -5.6021944e-02
 -1.7091772e-01
  5.7868864e-02
  6.5145469e-01
 -9.1175872e-01
  1.2899945e+00
  7.2311670e-01
  5.8209407e-01
 -5.5529070e-01
  3.3120838e-01
  6.1740303e-01
 -5.5755270e-01
  4.6243180e-02
 -3.1057397e-02
 -1.8894521e-03
  1.5295643e+00
  1.6195960e-01
 -1.8390197e-01
  1.4758521e-01
  4.8101658e-01
 -3.4739986e-01
 -1.0275738e+00
 -9.7572885e-02
 -4.2331386e-01
  9.8704678e-01
 -9.1416538e-01
  1.3036439e-02
  8.4507009e-03
 -1.3564683e+00
 -2.3517954e+00
 -1.7933035e+00
 -3.9372796e-01
  6.4185476e-01
 -2.0594313e+00
  7.5277913e-01
 -1.4370480e+00
  1.7917325e+00
 -1.7606725e-01
 -6.9003779e-01
  2.8900212e-01
 -2.9188877e-02
 -5.8219422e-02
 -1.4682768e-01
 -1.0941432e-01
 -8.1226379e-02
  3.8776655e-02
  2.0214249e-01
  5.7087784e+00
 -1.1737798e-01
 -1.1429239e-01
 -5.9018558e-01
  1.1813935e-01
 -3.4659305e-01
 -5.3378142e-02
 -2.1565011e+00
 -3.6891327e+00
 -1.0594721e+00
  4.5163646e-01
 -4.3964753e+00
  3.8138747e+00
  1.8515295e+00
 -1.0239660e+00
 -1.8183903e-01
  2.7385497e-01
  2.3921928e-01
 -5.1494336e-01
 -2.5678879e-01
  9.2560732e-01
 -6.8793863e-02
 -6.8903041e-01
  2.8701580e-01
  7.9321188e-01
 -5.6498658e-02
  1.1184187e-01
 -7.0715450e-02
 -2.2168030e-01
  1.8781159e+00
 -2.2069540e-02
  1.2457211e+00
  2.2334731e+00
  9.4676232e-01
  2.9429668e-01
 -2.3195963e+00
  1.9231224e+00
 -3.6808529e+00
 -2.6678782e+00
  2.0480859e-01
 -1.1716710e+00
 -9.9245566e-01
 -1.9347297e+00
  1.1085380e+00
 -8.7105721e-02
 -2.7648026e-01
  6.4397538e-03
 -6.5847695e-02
  2.5444250e+00
 -3.6208212e-01
 -2.8153470e+00
 -9.7752117e-02
 -5.2439767e-01
 -4.0920222e-01
 -1.4342797e-01
  1.9986160e-02
 -2.3326062e-01
 -7.5057987e-03
 -4.1130777e-02
 -1.5428603e+00
  3.7177137e-01
  9.9365658e-01
 -2.2703836e+00
 -1.6949512e+00
  1.3136472e+00
 -3.2956734e-01
 -2.0569623e+00
 -2.5280666e-01
  1.3261384e+00
  8.0306458e-01
  9.7671264e-01
  1.3170013e+00
  2.8350012e+00
 -1.7279315e+00
  2.0381334e+00
  7.3289400e-01
  2.8672001e-01
 -1.5591414e+00
 -4.3058488e-01
 -1.6493869e-01
 -1.8226781e+00
  5.9993899e-01
 -3.4748728e+00
  7.5662941e-02
 -1.8505237e-01
  1.5405197e+00
  3.2323236e+00
 -2.3998921e+00
 -7.1371520e-01
 -1.2165790e+00
 -2.0256500e+00
  1.4175414e+00
  2.1316008e-01
 -2.0211837e+00
 -1.4348792e+00
  2.2654414e+00
 -6.2528902e-01
  1.5252651e-01
  1.9749436e+00
  1.3799622e+00
 -2.3058286e+00
  1.8266888e+00
 -9.0301925e-01
 -7.9557842e-01
 -1.1268637e+00
  1.0139366e+00
  9.5177186e-01
  1.6121269e+00
  3.5758410e+00
 -1.3467679e+00
  6.0406822e-01
 -2.3866354e-01
 -8.1273788e-01
  4.2088900e+00
  1.0498427e+00
 -1.0068675e+00
  1.5170414e+00
 -8.6785084e-01
  2.0972753e+00
 -4.5634821e-01
  4.8721242e-01
  5.9516394e-01
 -2.9349822e-01
 -3.1043086e+00
  6.9966513e-01
 -1.9330282e+00
  2.3700447e+00
  5.6505914e+00
  7.7058536e-01
  1.8488916e+00
 -1.3088904e-01
 -1.0208395e+00
 -7.1011490e-01
  2.0756335e+00
 -1.7582923e+00
  4.0638703e-03
 -9.6142709e-01
  2.3411374e+00
  1.2437608e+00
 -9.5194739e-01
  1.0361750e+00
  1.1784263e+00
 -2.2668779e+00
 -3.9331248e+00
  7.8559265e-02
  1.6960416e+00
 -1.9357991e+00
  2.1456258e+00
 -1.8447751e-01
  1.7073997e+00
  8.6613715e-01
  9.7735727e-01
  2.0722227e+00
 -1.2475171e+00
  9.9456489e-01
 -1.7719735e+00
  9.9796188e-01
  2.4729437e-01
 -2.1441538e+00
  2.4442420e+00
 -2.3786013e+00
  3.0789552e+00
  8.2704777e-01
  3.1368983e+00
  1.5058887e+00
 -7.5542498e-01
  3.0175848e+00
  1.4757664e+00
  7.2624400e-02
 -4.2310905e-01
  2.2123268e-01
  4.9926835e-01
 -3.0276556e+00
 -1.2562339e+00
 -3.8734717e+00
 -7.4582714e-01
  7.6560676e-01
  1.7639155e+00
  2.7914953e+00
  6.4974242e-01
  4.1378471e-01
 -1.9322519e+00
  3.5618064e+00
  3.6444828e-02
 -4.9807259e-01
  9.2870623e-01
 -6.0167613e+00
  5.5929046e+00
 -3.8914993e-01
  4.4577765e-01
  1.6751056e+00
 -9.8423600e-01
  5.7679955e-02
  5.6498775e+00
  3.0173249e+00
 -1.1956115e+00
 -1.2215631e+00
  1.9521370e+00
 -4.5798497e+00
  9.7894728e-01
  2.8337204e+00
 -3.5770774e+00
 -9.3690085e-01
 -1.3766416e+00
  1.0156133e+00
 -1.7780505e+00
 -9.8022628e-01
 -1.1259956e+00
 -3.9754779e+00
 -1.7954506e-01
 -2.4085813e+00
  1.3242971e+00
 -5.8074921e-01
 -5.4290552e+00
 -2.2828180e-01
  4.2393005e-01
  5.6621218e-01
 -1.9915913e+00
 -5.5775986e+00
 -1.3742872e-01
 -4.8099223e-01
  4.2776690e+00
 -4.9422307e+00
  6.3365489e-01
  4.4057310e-02
 -1.6116152e+00
 -3.7215650e+00
  1.4973645e-01
  8.9109975e-01
 -2.2970607e+00
 -3.1257584e+00
  1.8937271e+00
 -7.4480802e-01
 -6.6938508e-01
  3.7683132e-01
  3.6138490e-01
 -3.6208653e-01
 -3.1692622e+00
 -3.2956716e-01
  3.9835150e+00
  1.9067420e+00
  2.0948067e+00
  2.4064107e+00
  2.0868995e+00
  8.1883132e-01
 -1.3635252e+00
  7.5629979e-01
 -2.0757959e+00
  8.1423923e-02
 -2.9919755e+00
  2.7971337e+00
  4.1786668e-01
 -1.1702137e+00
  1.6515742e-01
 -1.5403399e+00
  2.6231715e-01
 -4.9879861e-01
 -4.9086198e-01
 -3.5332665e-02
  3.8464680e-01
  3.7636521e-01
  3.6770031e-02
  6.5906918e-01
 -8.6184591e-02
  2.0477350e-01
  4.9167207e-01
 -8.1204228e-02
  2.7315673e-01
 -6.6786095e-02
  9.8933458e-02
 -7.0125359e-01
  2.6756865e-01
  4.2935517e-01
 -9.0117484e-02
 -1.7069728e+00
 -1.0530928e-03
  5.4281328e-02
 -8.8442080e-02
  4.6826971e-01
 -2.7691075e-01
 -1.0098922e-02
  5.0208783e-01
  3.4677818e-01
 -3.8324404e-01
 -2.1198122e-01
  1.2556930e-01
 -5.5552758e-02
 -5.2496964e-01
 -7.1039498e-01
 -1.7634887e-02
  1.2276340e-01
 -2.3169440e-01
  8.2058087e-02
  7.8036124e-01
  1.3007812e+00
  1.1107911e+00
 -1.1367291e-01
 -1.5965937e-01
  1.0216648e-01
 -2.2935607e-02
  5.0184567e-02
 -1.2870085e+00
 -1.1566924e-01
 -6.7686868e-01
  3.2339916e-01
 -2.1486723e+00
  1.5500969e-01
 -3.0075267e-01
  2.3588780e-01
  3.8568959e-02
 -1.6512053e-01
 -1.0191469e+00
 -1.5292931e-01
 -2.5209928e-01
 -7.6207066e-01
  4.6586299e-01
  2.0803328e-01
 -1.7983547e+00
  1.4793552e-01
  1.4079122e-01
  5.9169166e-02
 -5.3641355e-01
 -1.8177615e-01
  2.3144285e-01
 -4.8780578e-01
 -3.2881957e-01
 -1.0633610e-01
 -4.6301141e-02
 -2.7387837e-01
  1.8475200e-01
  3.8617589e-02
  1.3736092e-01
 -1.7852907e-01
  8.1226057e-01
  1.5339646e-02
  2.2389317e-01
  2.0948544e-01
  2.5664270e-02
  3.9518528e-02
  2.4317169e-01
 -2.2027504e-02
 -1.0462341e+00
  6.6115670e-02
 -1.2421263e+00
 -9.6049622e-02
 -2.0160208e-02
 -7.0951683e-03
  1.6814198e-01
  3.9567906e-02
  9.0182227e-01
  4.3976063e-01
  1.7794736e-01
 -6.7107761e-01
  1.4297491e-01
  6.3075433e-03
 -1.0660996e-01
  9.3331158e-02
  2.5291124e-01
  1.1380900e-01
 -9.9020950e-02
 -6.1217946e-01
  5.7226129e-02
 -2.1632887e-01
 -7.5199895e-02
  7.5425222e-03
  5.4233771e-02
  1.5251264e-01
 -2.2948065e-01
 -9.3039356e-02
  3.6162719e-02
  3.5090525e-02
 -2.3232274e-01
 -1.0937381e+00
 -2.2033852e-01
  7.1090490e-02
  2.8918034e-01
 -4.7949913e-01
  4.0547234e-01
  4.2908761e-01
  5.8296725e-02
  2.8283563e-01
  5.2951272e-03
  1.1425405e-01
 -2.8387195e-01
  5.2964881e-02
  1.3990746e-01
  8.9989163e-02
  3.7612136e-02
 -4.0605485e-02
  1.3697389e-01
 -1.3838467e-01
  5.9369057e-03
 -2.2754253e-01
  5.8057769e-03
 -3.4445144e-02
  5.6845397e-01
  2.7103627e-01
 -1.0041470e-01
  3.6365765e-01
 -4.5745188e-01
 -2.3553167e-03
 -4.4094105e+00
 -1.4215319e-01
 -3.2277882e-01
  7.1511811e-01
  5.0147876e-02
 -3.2768216e-02
  2.2397901e-01
 -6.2261824e-02
  6.4165288e-01
  1.3832922e-01
 -2.4472732e-02
 -4.5996986e-02
  9.9823795e-02
  1.0286405e+00
  6.9467723e-02
 -2.0359101e-02
 -9.2713661e-02
  7.9461792e-03
 -8.2953617e-02
 -1.7329055e-01
 -4.3052882e-02
 -2.9947323e-01
 -1.9442164e+00
  1.5782010e-02
 -8.3762102e-02
 -1.0146601e+00
  2.6099771e-01
 -2.9118446e-01
  3.6368898e-01
 -6.3853972e-02
  2.3287568e+00
 -9.9357039e-01
 -1.4459281e-01
 -1.7468670e-01
 -1.7112179e-02
 -1.8131894e+00
  6.1270919e-02
  5.8144897e-01
  4.2563018e-01
  1.9654267e-01
 -2.4601313e-01
 -1.7282806e-01
  1.1171858e+00
  6.0273469e-03
 -6.4941639e-01
  2.4166465e-02
 -4.0710256e-02
  2.0152569e-01
  1.5872793e-01
 -5.8297675e-02
 -1.1705539e-01
 -1.0932950e+00
  1.5797902e-02
  8.5967325e-02
 -4.3347627e-02
  2.0020090e-03
  4.3338922e-01
 -1.3206254e+00
  1.4430265e-01
 -6.3470118e-02
 -3.3672982e-01
  3.6155841e-01
  2.0293088e-01
  3.2744471e-02
 -1.5562171e+00
  1.3813962e+00
  4.5224628e-01
 -6.9593924e-01
 -2.2279277e-01
  7.9863632e-01
 -1.5587361e-01
 -3.7637752e-02
  3.3288804e-01
 -5.3220924e-02
 -1.2083624e-01
  2.9802456e-01
  1.7552584e-01
 -3.3373350e-01
 -1.1640702e-01
  1.2663910e-01
 -2.5206774e-01
 -2.7537432e-01
 -1.2909608e-02
 -2.5815049e-01
 -1.3109013e-01
  1.9130338e-02
 -1.3223878e-01
 -2.9988059e-01
 -4.7256651e+00
  3.0627316e-02
  7.7682555e-02
 -5.2913879e-03
 -6.8117864e-03
  3.9526071e-02
  1.5223868e-01
  7.1027488e-02
  1.6533929e-01
  9.1062211e-02
 -4.6509080e-02
  5.9978507e-02
 -9.2361212e-02
 -3.3513550e-03
  2.3614368e-01
  1.2761247e-01
  1.8537058e-01
  2.8950071e-01
  6.2544025e-02
 -1.1300985e-01
  1.7133349e-01
 -1.4144671e-01
  4.0235596e+00
  2.1978934e-01
 -2.3393327e-01
 -1.4416683e-01
  5.2832428e-02
  3.0967134e-01
  4.4482440e-01
  1.7021926e-01
 -5.5421466e-01
 -8.7546423e-02
  1.0001457e-01
 -1.8675648e-02
  1.6123167e-01
 -8.9433111e-02
 -3.7578461e-01
 -3.7354952e-01
  1.4327668e-02
  3.4123328e-01
  1.0458127e-01
  5.3931403e-01
 -7.4018821e-02
 -9.7400498e-01
  5.2654382e-02
  1.5231854e-01
  2.2679697e-01
 -1.0844761e+00
 -5.1052853e-02
  2.4545727e-02
  1.0484278e+00
 -2.1114926e-01
 -1.2726177e-01
 -2.3881263e-01
 -7.9165973e-02
  1.6268392e-01
 -4.4655761e-01
  8.0991231e-02
  1.5383090e-01
 -4.4311903e-02
 -3.9398408e-04
  8.5649627e-01
  1.4170339e+00
 -6.5989979e-02
  2.0399859e+00
 -4.5828578e-01
 -6.0180187e-01
 -2.6304436e-01
  7.5737037e-02
 -1.2446296e+00
 -9.0558780e-03
 -2.3529388e-01
 -1.0647006e-01
  2.6914093e-01
  1.4757016e-01
  3.1184278e+00
  3.1095457e+00
  5.4414034e-01
 -6.8689531e-01
 -1.4995394e+00
 -1.9392635e+00
  1.5722448e+00
  2.9323740e+00
 -4.0117764e+00
 -1.4328109e-01
  7.0705138e-02
  1.7688184e+00
 -1.3843709e+00
  2.5898318e+00
  1.4759634e-01
 -2.8984067e-01
  4.8889241e+00
 -1.5734615e+00
  2.0707929e+00
 -3.8917831e-01
 -5.4195371e-02
 -7.1126029e-02
  9.2240071e-01
 -2.4462976e-02
 -2.4812770e+00
 -1.0016655e+00
 -1.3670893e+00
 -4.7365299e-01
  4.5450735e+00
 -4.4793585e-01
 -1.4234732e+00
  1.7999008e+00
  8.3884978e-01
 -4.4870434e+00
  3.8181465e+00
  2.7703514e+00
  4.4699866e-01
 -1.4590943e-01
  6.7417240e-01
  3.1020534e-01
 -2.9317477e-01
  7.0903130e-02
 -5.1341508e-02
  1.7917375e-01
  1.6561773e-01
 -9.5663883e-02
 -9.8524556e-02
 -2.5057819e-01
 -4.2523319e-01
  2.5080169e-02
  7.1862750e-02
  6.5811437e-01
  1.6807619e+00
 -6.3756377e-01
 -4.4781417e-02
 -1.1715499e+00
  3.8375509e-01
  2.0677091e-01
  2.8774145e+00
  1.0574993e+00
  9.8460674e-02
 -2.3773634e+00
 -1.1230443e-01
  5.3121585e-02
 -1.6784558e-01
  1.7569620e-02
  8.5016215e-01
  5.2384123e-02
 -2.5072902e-01
  1.8422836e-01
  2.3413161e-02
 -8.2877427e-02
  1.9720925e-01
 -2.3947336e-01
 -1.3988211e+00
  2.0837522e-01
 -7.4270344e-01
  2.7404184e+00
 -2.5002625e+00
  5.5850949e-02
 -5.8884576e-02
  7.8758569e-03
 -5.7233739e-01
  2.2683130e-01
  3.4022315e+00
 -1.2554369e+00
 -2.6635739e-01
 -1.2341077e-01
  2.6039004e-01
  7.0539767e-01
  1.0746117e-01
  1.1514688e+00
 -2.9446167e-01
  6.0503453e-01
  4.6552613e-01
 -9.9324703e-01
  1.7904785e-01
  8.7339602e-02
 -2.8245362e-02
  7.0464276e-02
  7.3537506e-02
  6.6822335e-02
  6.1913939e+00
 -1.2980135e-01
 -3.8555872e+00
 -1.1845843e+00
  2.1946800e+00
  6.8622476e-01
 -2.0166969e+00
  3.0228192e-01
  2.7178800e+00
 -1.7895647e+00
 -1.4306118e-01
 -2.2232055e-03
  6.1817365e+00
  1.8600042e-01
 -2.0899172e+00
  8.4566224e-01
 -5.0206141e+00
 -7.1701616e-01
  1.2265965e-01
  7.6552916e-01
  1.9935249e+00
 -2.5108881e+00
 -1.9728282e-01
 -3.9962482e+00
  9.0488225e-01
  1.4412149e+00
 -1.5790394e-01
  1.3466362e+00
 -6.3466156e-01
  4.3084133e-01
  7.7093089e-01
  3.9011207e+00
  1.3510532e+00
 -1.7835788e+00
  3.9035847e+00
 -4.1448870e+00
 -2.6926458e-02
  9.0582579e-01
 -2.6062810e-01
  2.8109321e-01
 -2.4757363e-01
  1.9735914e-02
  1.1356375e-01
  4.3418133e-03
 -5.3043582e-02
 -1.3709472e-01
  6.8293385e-02
  3.8010959e-02
  4.2690277e-02
 -6.3040245e-01
 -1.4254999e-01
 -6.0133761e-01
 -1.3218796e-01
 -5.8746171e+00
  4.5457006e+00
  1.7734212e-01
  3.4168670e-01
 -7.8489578e-01
  2.5231901e-03
 -3.5726373e+00
  1.3574594e-01
  9.2685714e-02
 -1.8632366e-01
  1.5146837e-01
 -8.2231976e-02
  2.7793416e-01
 -4.3215092e-02
 -3.4196138e-01
  1.5289969e+00
 -1.5123461e+00
 -7.1861938e-02
 -2.5406168e+00
 -8.4023982e-02
 -1.0006236e-01
  4.7519337e-03
 -3.4907472e+00
 -3.7754040e+00
  4.2179761e+00
 -4.9733523e-01
  3.3305049e-01
 -7.6822199e-02
 -4.5933373e-02
  9.0643883e-01
 -1.0756586e+00
  1.8485115e-01
  3.8538282e+00
  1.2160499e+00
 -4.3341884e-01
 -9.6204287e-01
  1.5941765e-02
 -1.2401554e-01
 -6.7331992e-02
  6.7757642e-01
 -7.0387578e-01
 -5.8145255e-01
 -1.6819607e-02
  1.6842951e+00
 -4.5211091e+00
  1.1416508e-01
  1.5314664e-01
  4.2209894e-04
  1.7204270e-01
  1.0997129e-01
  8.7500179e-01
 -1.3755691e-02
 -1.6754806e-01
 -5.9585173e-02
  1.7849252e-01
 -3.1024352e-01
  4.7942672e-02
  3.9415121e-02
  2.4115748e+00
 -1.3988368e-01
  8.0939054e-01
 -1.2465934e-01
 -1.5485610e-01
  1.4157999e-01
 -1.5411739e-01
 -1.6610782e-01
 -2.1734446e-02
 -1.3958348e+00
  1.2842098e-01
 -5.7031456e-02
  7.2801843e-02
  2.5773433e-01
 -6.9232255e-01
 -1.4433914e-01
  6.4678743e-02
 -5.9928530e-01
 -7.2137244e-02
 -4.7831982e-01
  1.5825391e-01
  1.7314039e-01
 -3.5279942e-01
 -6.8714082e-02
 -5.9490293e-02
  1.5390682e-01
  3.3684394e-01
 -1.7218550e-01
  2.7057326e-01
 -5.6352317e-01
 -6.3589849e-02
 -1.0023246e+00
  2.3981936e-01
 -3.2502823e-03
 -1.5134199e-01
 -3.9106205e-01
 -1.2287508e-01
 -1.8340219e+00
 -4.8388768e-02
 -1.9547793e-03
  9.7857751e-03
 -1.7291408e+00
  3.3319756e-01
 -8.1477642e-01
 -6.3898772e-02
 -1.2845342e-01
  1.8438710e-01
 -1.2624663e-02
 -1.1273912e-01
 -1.2617183e-01
  2.0245545e-01
 -7.8265056e-02
 -2.4152157e-01
 -1.5063660e-01
 -3.5753027e-02
 -2.2240366e-01
 -1.1981345e-01
  9.9484615e-02
 -2.8122717e-01
  2.6673999e-01
 -6.5626657e-01
  1.4892668e-01
  2.5991026e-02
 -9.1634136e-01
  2.2067237e+00
 -1.8993069e-01
  1.7444986e-01
  1.0649452e-02
  8.2818121e-02
 -1.6249632e+00
 -1.0413317e-01
  8.1731522e-01
  5.7584941e-01
 -8.6494923e-01
 -1.7348411e-02
 -2.4636848e+00
  2.5236223e+00
 -4.8760071e-02
 -7.5427637e-02
  6.7332827e-02
 -9.4839633e-03
 -4.7990769e-01
  1.0424348e-01
  2.3970744e-02
  3.1196609e+00
  2.1209829e-01
 -5.8216743e-02
 -1.1654408e-01
  1.0958153e-01
 -9.7060896e-02
  3.5269788e-01
  7.9021128e-03
  2.3583470e-01
  1.0928396e+00
  2.6833956e+00
  2.0755191e+00
 -2.5077682e+00
  1.2845912e+00
 -2.7826548e-01
  4.2338655e-03
  6.4315367e-01
  2.6083121e+00
  1.2846534e-01
  8.8969238e-02
  1.4582379e-01
  1.0103368e+00
  5.2431494e-02
  2.1962422e-01
  3.8842964e-01
  8.4222242e-02
 -1.0733360e+00
  8.5433519e-01
  4.6080444e-02
  4.9423274e-01
  4.2128059e-01
 -9.3841100e-01
 -1.2539157e-02
  3.1383669e-01
 -3.4877606e-04
  1.3250549e-01
  8.7094021e-01
 -9.7898595e-02
  3.0806920e-01
 -4.6106079e-01
  1.1131997e-01
 -2.2293551e+00
 -5.8035045e+00
 -1.6444112e+00
  3.6514603e-02
 -3.4027684e-01
 -1.3174263e-01
  1.0480469e-01
  5.1085603e-01
  1.2437355e-01
 -1.4615418e-01
  1.9617860e-01
  8.6365974e-01
 -3.4104773e-01
 -4.1928646e-01
  2.1829566e-01
 -3.1360238e+00
  1.8708667e-01
 -6.0578161e-03
 -2.0412782e-01
 -9.7358066e-01
 -2.6209371e+00
  1.3263613e+00
 -2.9407384e+00
 -6.4478803e-01
  1.5446385e+00
 -2.2091854e+00
  7.7091497e-01
  4.0256467e+00
  1.1091524e+00
  2.3295765e+00
  3.6342841e-01
 -6.6164470e-01
  3.4828162e+00
 -3.9364986e-02
 -2.8075950e+00
 -2.0484608e-01
  4.5928860e-01
 -1.9811654e+00
  2.1927701e-01
  7.1524903e-02
  1.2511377e+00
  3.4570997e+00
 -9.2281640e-01
  4.6546769e+00
 -3.7963362e+00
  1.8381401e+00
  8.8124907e-01
 -3.0526692e-02
  4.2816911e-02
 -2.9248571e+00
 -2.7190783e+00
  9.7592667e-02
  8.6426264e-01
 -2.6116567e+00
  1.9407165e-01
 -1.3045369e+00
  5.2993257e-02
 -3.6318517e-01
  3.0419610e-02
 -6.5026529e-02
  1.1897062e+00
  5.0697213e-01
  1.0233401e-01
 -3.0978215e-01
 -4.7681373e-02
  1.9174360e+00
 -9.8534726e-02
  1.5997736e-01
 -5.6998022e-02
 -2.8579788e-02
  3.7671394e+00
  1.0039123e+00
 -2.6702397e+00
  1.1940972e+00
 -7.2294927e-01
  1.0294542e+00
 -2.2588053e-01
 -6.5534544e-01
 -7.5381064e-01
  1.5600451e+00
  8.0315942e-01
  3.4291288e-01
 -3.3006743e-01
  1.8113630e+00
  1.1820745e-01
  3.2270303e-01
  1.2451859e+00
  2.9034194e-01
  5.4172840e-02
  6.5111570e-02
 -4.6200812e-02
  8.8645793e-02
  3.1783175e-02
 -1.3177419e+00
  1.3581628e+00
 -9.1694951e-01
 -1.8251792e+00
 -1.0607295e+00
  1.4838893e+00
 -1.7571585e+00
 -1.1267948e+00
  1.6424567e+00
 -1.1464049e+00
  9.7583371e-01
 -4.0830591e-01
  2.0559530e+00
  3.6470468e+00
  9.0396151e-02
  2.2728226e-01
  1.8453126e-01
  1.2475438e-01
  6.1563671e-02
  1.3072106e-02
 -2.6579647e+00
  5.6041610e-01
 -2.4854015e-01
 -1.5918915e+00
  9.6059717e-02
  2.3254812e+00
  2.0778389e-01
 -6.6749185e-02
 -4.5666327e+00
 -3.6826903e-01
 -1.7022744e-01
 -6.0532290e-01
 -1.3871312e+00
  2.3982024e-01
  3.0776626e-01
 -4.3132892e+00
 -1.3721021e+00
 -5.1438969e-01
  5.5918366e-02
 -4.8371899e-01
 -6.6818446e-02
  2.2142506e+00
 -3.6844462e-01
  1.2446678e+00
  1.4293486e-01
 -5.1031085e-03
 -8.3441034e-02
 -1.0347845e-01
 -2.0133635e-01
 -6.2122684e-02
 -2.0189066e+00
  2.1883571e-01
 -7.4390203e-01
 -7.9543851e-02
 -5.5948585e-01
  2.8764495e-01
  4.8971318e-02
  1.6865323e+00
  6.2238616e-01
  2.7176149e+00
  1.4640501e-01
 -1.8529063e-01
 -4.9724492e-01
 -1.9676831e-01
  7.6486045e-01
 -3.7127078e-02
 -3.2710445e+00
 -5.8932602e-02
 -3.1308585e-01
  3.5107255e-01
  1.9882986e-01
 -3.1086034e-01
  2.9592819e+00
 -1.8915190e-01
  1.7673326e+00
 -1.4032564e-01
 -1.7339637e+00
  5.1414363e-02
  2.9034245e-01
  1.6647443e-01
 -1.2181642e-02
  1.3072275e-01
 -1.0954361e+00
 -1.4507899e-01
  4.3208677e-01
  6.1722931e-02
 -8.2011551e-02
 -1.2211968e+00
 -2.2747145e+00
  1.8389444e-01
  5.4628115e-02
 -1.9018038e-01
 -2.3582694e-01
 -2.9778385e-01
  1.4859985e-01
 -1.7898571e-01
  1.7415211e-01
 -9.9771924e-02
  6.9418311e-01
 -3.4135787e+00
 -8.4234573e-02
 -2.2760275e-01
  1.5985550e-02
  1.2844193e-01
  6.6005248e-03
  1.2900610e-01
  1.7189367e-01
 -4.9595627e-01
  4.5060828e-01
 -3.6634412e-02
 -6.9983475e-02
 -2.6306471e-01
 -7.2905407e+00
 -2.6423857e-01
 -3.9515236e-01
  6.2713248e-01
 -2.3055212e+00
  8.8378692e-01
  1.1171706e-01
 -3.9208734e-01
 -5.7722200e-02
  2.2920617e-01
  1.5654284e-01
  1.2153835e+00
  3.1548053e-01
  1.0671153e+00
 -1.0090492e+00
 -9.0926893e-02
 -1.0542732e-01
  8.7534502e-02
  1.0393910e+00
 -4.1088918e-01
 -1.2926095e+00
 -4.8724166e-01
  2.4203212e+00
  5.4947817e-01
 -1.6374959e+00
  2.1051779e+00
  3.1855500e+00
  1.2297307e-01
  3.4067550e-01
  1.7606118e-01
 -1.4143895e+00
 -3.1236780e-01
  6.2003970e-01
  6.4444747e+00
  1.0763942e-01
  4.4296756e+00
 -1.1014451e+00
 -1.7154670e-01
 -5.9231132e-02
 -2.1858053e-01
  8.8632292e-01
  2.1664393e+00
  1.4205656e+00
 -7.7704233e-01
 -2.6765769e+00
  6.7433743e-03
  3.0344215e-01
 -2.4618423e-02
  3.0996021e-02
  7.4638259e-01
 -2.5262809e+00
  4.6049002e-01
  1.4766477e+00
  3.0389732e-02
 -1.0735421e+00
  3.7357783e-01
 -3.8806385e-01
  7.3362790e-02
  9.9635914e-02
  9.7115362e-01
  9.4926454e-02
 -3.1631815e-01
 -2.6486168e-02
 -1.1326046e-01
  1.2980469e-01
 -7.1510032e-02
 -2.4944241e-01
  3.8690928e-01
 -6.5978624e-02
 -1.6133960e-02
  7.3934865e-01
 -7.8947675e-01
  8.3014005e-01
  1.3412622e+00
  3.2732875e+00
 -6.4675862e-01
 -1.2177650e+00
  9.3030816e-01
 -3.1855321e+00
 -1.6866642e-01
 -6.7352051e-01
 -1.9792316e+00
  1.0526909e-01
  5.1496160e-01
  4.0871218e-01
  7.8352696e-01
 -5.6521869e-01
  1.3425797e-01
  2.2224306e-01
  4.8156705e-02
  1.6879717e-01
 -1.7919984e-01
 -1.0435499e-01
 -1.5437810e-01
  1.0705016e-01
